solver_type MCSVM_CS
nr_class 6
label 0 1 2 5 4 3
nr_feature 199
bias 0.000000000000000
w
-1.726120229129639 1.175267482192946 -0.001939150849432423 0.2888245894629458 0.5601097583711444 -0.2961424500480041 
1.501725724342263 1.232519750457389 -1.897637606887355 -1.347351903286533 -0.5487917009722969 1.059535736346530 
1.044609041941641 -0.2752636788083839 0.08059489075551829 0.4429425163118853 -0.7683023400109075 -0.5245804301897476 
-0.4397165946837526 1.067018030578936 -3.005215009525446 0.8904408603473345 -0.01080560786875646 1.498278321151687 
-0.6020672083167897 1.410357413441405 0.4647429049147124 -0.4914360740308886 -0.1393353406165813 -0.6422616953918728 
-0.6244401792797718 -1.697630794963454 0.7698128957270581 0.2768780046313456 1.608230124328393 -0.3328500504435864 
-2.120503900377528 0.5470713530669076 -0.07583085247541309 1.524235865285417 -0.01834528599400861 0.1433728204946231 
-0.2935517158975777 0.3374214435543360 0.2038215675120754 0.3594040599216750 0.1436564012999377 -0.7507517563904510 
2.733786026084554 1.204450669942606 -1.337834283077664 -0.01433920220439723 -2.285569650664449 -0.3004935600806256 
0.1987233051968863 -0.1657013895669365 -1.572176287928681 0.7165073063129702 0.5458756306742294 0.2767714353115394 
-1.272378649853251 -0.1128108762279471 -0.3721208991997197 0.1868804591756127 0.9273302755706652 0.6430996905346397 
-1.069239535888995 -0.6190649797423233 0.7878053896938741 -0.03103303322885407 0.4098630531275487 0.5216691060387383 
-2.976182487335251 -1.633775726093956 2.046681135516093 1.564946793797082 0.4588982623280211 0.5394320217879202 
0.4180962435625880 -0.5497843448416717 -1.112902772893786 0.7360718918542146 0.2000897236375974 0.3084292586810383 
-1.846481055447726 -1.193149870390427 1.904670193217410 1.459284780043983 0.2995731172419737 -0.6238971646651931 
0.3177516351879577 1.351901190169089 -0.3032996498725619 -0.2718590522457968 -1.077143106796571 -0.01735101644210653 
0.8649970349654320 -0.2170677581381177 -1.126466829878916 0.4980494033041952 0.2974571637094153 -0.3169690139620128 
0.05055516881448471 -0.5694067178496555 0.3356660427478618 0.6850191754389033 -1.138126616238088 0.6362929470865076 
0.2421609455526098 1.611146878830709 -0.5632845325676520 -1.978737288585090 0.5400343169713048 0.1486796797981187 
0.1225036170080857 -0.5384025101080241 1.098178537835337 0.6086720801493170 -0.9704483412437487 -0.3205033836409777 
-1.108046181329463 -0.5726191521401134 -0.3709870946463307 -0.2550796492831510 0.5542305610660702 1.752501516333004 
-0.1421652276203382 -1.087743266489753 0.5110533920108413 0.2590344106785885 -0.1122581565787325 0.5720788479993980 
-1.601389757743383 -0.5485964496287852 0.5954792673856178 1.249101601747325 -0.02035434186694222 0.3257596801061380 
0.6376189715791422 0.01665694631350587 -0.3651316773476028 -0.3722424647052856 -0.2705785699359117 0.3536767940961612 
1.683192249107929 -1.224723965336593 0.6979109628871423 -0.1330499890181468 -0.6853435151039778 -0.3379857425363304 
-0.06480098044747473 0.7383369532788066 0.4983426171722721 -0.5737772585044575 -0.9192672273937501 0.3211658958946001 
1.298485877657598 -0.7093397465374070 -0.2748999187295632 0.9912867997592502 -1.498375468267139 0.1928424561172583 
0.09837005898647890 -1.232927322596253 0.5880119329950533 0.9692014686021427 -0.8423290493949666 0.4196729114075659 
0.4180960359431621 -0.5279800574229608 0.6132810216547960 0.2271267779644945 0.5363402677744247 -1.266864045913913 
1.074406754640439 -2.766794627916645 0.3080546300908992 0.6720413614414922 -0.6632939935603792 1.375585875304215 
-1.349152022886564 0.8375827488017198 -0.05549670917358303 -0.5245241645837512 0.3251378301768803 0.7664523176652942 
-0.8808231606327623 1.116219609045029 1.088424976848436 -0.8565016738560403 -0.6967139581615933 0.2293942067569671 
1.233671519905642 -1.036934721890043 -1.723451824075273 -0.06896825454893467 0.2946530293513341 1.301030251257257 
0.08536505931988554 1.107990573935267 0.8744577072549478 -0.1400771458883039 -1.454646217553793 -0.4730899770679599 
0.7671657609899475 -2.227233123316486 1.307112681028664 -1.169943029830292 1.087326753456717 0.2355709576715338 
-1.639254969577309 -0.2698341646813537 0.2321084325327869 0.5834279526729943 1.176837059542406 -0.08328431048950444 
0.7040432402363618 1.872109825741560 -0.5673504834182677 -0.8431952383776430 -0.9054706595395162 -0.2601366846425111 
0.3301683989136631 -1.482395732133946 -0.05241670062799037 1.103396957401246 0.7738478499973990 -0.6726007735503760 
0.2487725039395801 0.7291925642019138 -1.088571239624836 0.1435275129492850 -0.2582977476795196 0.2253764062135909 
0.1223689245515580 0.7237350420299634 0.7065638834811762 0.2811784492781824 -0.2885240702091789 -1.545322229131704 
-0.09727467024482654 -0.1001886822900386 0.1090887316506576 0.7623311317951824 -0.1493062260303254 -0.5246502848806543 
1.352454623093763 0.6100135416354021 0.4942596352053895 -1.361665047876796 -1.002837784379729 -0.09222496767801099 
0.8067483227357992 0.1264650024025840 0.5108310872080447 0.4095912386062073 -1.646984180965859 -0.2066514699867769 
-1.832294878207633 0.2113372140254620 0.7447830417190936 -0.4811161763750233 1.298505259940390 0.05878553889771264 
-0.7404114459853440 0.3110204939124784 -1.510277013838384 0.1246460384325526 1.134006005107799 0.6810159223708913 
0.3921683315504835 -0.2482927793030378 0.3020483981591002 -0.2820429948516436 0.1920591036306477 -0.3559400591855592 
-0.3170638113939105 0.9045736072822048 0.5917382284043956 -0.9549584256527964 0.2030640091294109 -0.4273536077693111 
1.896760774335835 2.094850456628433 -1.327420604012232 -0.2565386961721421 -1.724972006754278 -0.6826799240256153 
-0.5986709215166872 0.5950611400124677 -0.3941088018103743 -0.6053190977333843 1.297101054609795 -0.2940633735618197 
-0.8521264250991186 -0.1366684767924681 -1.149345333696745 0.9371129472134775 1.426448895689918 -0.2254216073150732 
2.198373567217602 -0.3180533048702800 -0.5199731711104701 -0.2479418518522170 -1.170330070090919 0.05792483070630682 
-0.07719851329608911 1.683655857476084 -1.021683711836801 -0.5319977318804493 0.2406177843980380 -0.2933936848607776 
0.2242642671156985 0.2837917316188709 -0.6716793817148801 1.137496044755990 -1.251316926559126 0.2774442647834337 
-1.071581721927609 2.677596355400474 -1.160381679863085 -1.773726369677930 0.9295297235627330 0.3985636925053994 
-0.09102992974940935 -0.9477301326879537 -0.07676747508767423 1.162865094728963 -0.1432381923217335 0.09590063511779902 
0.6840087273339539 -1.324282358368585 0.3896444679256427 -1.355373630678794 1.702025892384933 -0.09602309859715336 
0.9444250719203372 -1.611210887522990 0.1141547543225266 0.5026791382560393 1.240437319077663 -1.190485396053568 
0.6975061843934155 -1.123734344102791 1.227269184829551 -0.1069236426994147 -1.273983613566281 0.5798662311455380 
0.1794302128802011 -0.8823288324650338 2.101486265162341 0.9054596937310649 -1.424307555430895 -0.8797397838776825 
0.4244326862894278 0.2415455877005748 -0.6897212032423561 -0.6728846371453298 -0.4117456376403851 1.108373204038061 
0.1844287604316303 0.07935228716548402 0.7671942096223882 0.4730993147788714 -0.2295169240338579 -1.274557647964513 
-1.137158518987924 0.2146939479476091 0.5514636850443630 0.2975354765409193 0.4596731344446583 -0.3862077249896171 
-1.362341541919311 -1.243267190186037 -0.5862313792135734 0.7022505593205004 1.685821152224866 0.8037683997735618 
1.695474168754130 0.1399914000439149 -0.06856168406336630 -1.648113597130266 -0.4421717569477100 0.3233814693433003 
-0.6771635984015205 -1.620237175001708 1.737535057152677 1.529471005005030 -0.2456059867067247 -0.7239993020477712 
-0.04873452369701679 0.8586353270807529 -0.9018921634261494 -0.6526321658019771 1.138897803830341 -0.3942742779859472 
0.3461558340977711 -1.664639787008021 0.4988209841216280 0.1479060089117477 0.8349346631035088 -0.1631777032266518 
-1.210406165409972 -0.5930296639359107 2.379864929602496 -0.2564074504265180 -0.7095671716335877 0.3895455218034704 
-0.4973418838607908 0.4778103306416451 0.07263196737082694 -1.632907156301568 0.8542692856922869 0.7255374564576107 
-0.2562788665612750 1.012143757046974 0.1384744203226637 -1.631206448997864 0.7746944588254780 -0.03782732063597837 
-1.035286700776852 -0.006857173082781389 -0.9154160541803972 0.7462166147088546 0.7908938062618941 0.4204495070692905 
0.8245715967789085 0.3825571390166662 0.7230107826172101 -0.6476602049939725 -1.092745398516910 -0.1897339149018833 
-0.5990643570717611 -0.4704069466318303 0.2538813699028216 -0.05346517284005805 0.5253550714871403 0.3437000351536985 
0.4318814852274301 -0.5341190431427351 -0.6512342187520016 0.8687521631476782 -0.2499504308877885 0.1346700444074192 
0.3201999703790534 -1.023685683722571 0.1022799953496319 -0.7296079553286368 1.203428378472698 0.1273852948498214 
0.4927967393534322 -2.030515183898527 -0.5448493354304528 1.334779904215724 1.206466836614378 -0.4586789608545330 
-0.1337500326752397 -0.5888596607587917 1.107571853904112 -0.09200147092450252 -0.05256883450764556 -0.2403918550379453 
-0.01414369976395415 -1.622801472541155 -0.5432931421455428 2.627564008683861 0.02908044862159326 -0.4764061428547380 
0.4163082094724344 1.155114040071766 -0.5665618445329189 -1.332903824720386 0.2802294261012807 0.04781399360783468 
0.5599345577584243 0.4363042163242131 0.1633680474953642 -0.8151899349087318 -0.7048234938038150 0.3604066071345287 
-0.4764113066136442 1.380133160415481 -1.127560822120180 0.2229453383752363 -0.5200444051570708 0.5209380351001849 
0.9180437519521965 -0.1529210505220902 0.2292276828708802 0.6224697608720110 -0.8195120108156010 -0.7973081343574053 
1.231395909541664 0.2241156060254568 -0.8532919767913685 0.2612337475323607 -0.3087334278096949 -0.5547198584984399 
-0.9971213678855188 0.08635615078732756 1.279399855527228 0.07337244230354237 -0.1217464814949366 -0.3202605992376469 
0.1839369081659713 0.4533824828856728 -0.3979335255351017 -0.3087600015844602 -0.1941898362804318 0.2635639723483289 
-0.05882335593066522 -0.6778879084469445 0.1182173267309705 -0.1107979505619114 1.199999845164492 -0.4707079569559220 
-0.5923715706407809 0.1546352625968123 0.4271404018321500 -0.08487213023920492 -0.5429822438605114 0.6384502803115369 
0.2653056469048887 -1.462615329183633 0.6531202351417699 0.3606554466576728 0.6710764484713992 -0.4875424479921163 
0.5363858336943862 -2.563962109838484 0.6798089942831751 0.9466292176953334 -0.004021245160986661 0.4051593093265954 
0.6039307558422339 -0.1826861809099270 0.9292890315636843 -1.073717499900843 -0.3441246974259337 0.06730859083079714 
-0.7129743645777834 -1.251396413699956 0.6010984817407926 0.1177248171419635 0.9343070391358534 0.3112404402591560 
-1.461631392872818 -0.1959521923324260 0.2661918751677683 -0.7258680922689789 1.630207117957262 0.4870526843492226 
0.4067422779691869 -0.1418152865343834 1.150110410823924 -0.2070424296268592 -0.5978272938326057 -0.6101676787992772 
-0.1871279213609437 0.9745477603967563 -0.4815545355051875 1.936559939364310 -0.8889004783640899 -1.353524764530867 
0.4970125827796996 0.1206875413809812 -0.3328629550884072 0.4458613149266291 -0.6461066675191706 -0.08459181647972555 
0.9584865393254679 -1.376171548603617 0.4408691196722175 0.6884938737192964 0.006875058109471452 -0.7185530422228324 
-1.858756615461318 1.006785317087578 0.1595640308377516 -0.3455954963628151 -0.8249572361074955 1.862960000006312 
-0.2470431906323866 -0.5643620444573211 1.286293409348419 -1.512391925603706 0.002905553546784626 1.034598197798181 
0.8023297401552579 0.8207336371991971 0.1768624084371470 -0.2223848965667054 -0.7136302686644779 -0.8639106205604189 
0.9368482551500603 2.210374832189409 -1.575981476124295 0.2279578021061212 -1.505524321637693 -0.2936750916836133 
0.3843241290259571 -1.044391325974656 0.5473666252866268 1.776643384140885 -0.6813508168369126 -0.9825919956419064 
0.1279003865779627 2.213880305007155 -0.5171196953875542 -0.5751844894207465 -1.288905170542813 0.03942866376598347 
-0.6835741611578970 0.9555053774075685 -2.016361629588215 2.244744337352661 -0.4018191415452347 -0.09849478246888176 
-0.009767646909913292 0.9864637698716509 -0.2777757698252907 -0.3537896515419530 -0.4649876205733852 0.1198569189788941 
0.3189713098296244 -0.7037126794696207 -0.4292423400153413 -0.6399216447043286 -0.03582973846779149 1.489735092827447 
0.3392635154971001 -0.6721938887005382 1.095420552314111 1.863958619713935 -1.595012608900131 -1.031436189924496 
0.06190245595162914 -0.9291128122918758 -0.3251131485182452 0.9475107628575185 0.3093314459283879 -0.06451870392741406 
1.203027091614294 0.3586142933356751 1.166169338407135 -1.135127389501507 -0.7295704969721194 -0.8631128368834791 
-2.008175307761250 1.453269771898972 1.141389946202363 -0.9088681378904820 1.390914191234465 -1.068530463684091 
0.1741626063229184 -0.5005394218339837 -1.137819113466884 0.4142042446564224 0.4290825274234424 0.6209091568980669 
-0.6146310899536004 0.6972303542407321 -1.428466157308297 0.5208227249947550 0.5175732307720462 0.3074709372543502 
0.1321870007415340 0.3525383730925220 0.4417694489283768 -0.6788767620361364 -0.2359625536620728 -0.01165550706423206 
-1.199913108908250 0.2785312301727445 1.642210250695779 -0.4269982965625854 0.9696371245389536 -1.263467199936605 
0.9910647466748140 -0.2081191585200871 0.1018746297793015 0.5759417383142694 -1.651805579678819 0.1910436234304990 
-0.3880171485260912 0.4675726871824679 0.7771492788148807 -0.2789216951379069 -0.1788323692488963 -0.3989507530844594 
-0.1784661338644840 -0.3693753083326096 -0.08272482253980010 0.5172090363297634 0.07983677119378244 0.03352045721333756 
-0.9116185926692282 1.828920679016794 0.9677614566295054 -1.217148628815891 0.2737240421278925 -0.9416389562890678 
-0.02619553982112810 0.3982009153518393 0.7592159082058189 -1.127208734643470 0.1012151390947255 -0.1052276881877816 
-0.3440132555302150 -0.5873707452716279 0.9011033122071243 -0.2381983683626650 0.5641675108080556 -0.2956884538506694 
-1.648046032889907 -0.2971326739326886 0.2725333147635612 1.007587385650216 0.4420483568096821 0.2230096495991448 
0.6825912252688361 1.909341629611400 -0.5524849824880470 -1.156788606544810 0.2899214082552332 -1.172580674102611 
-1.060108197244237 -0.7689121368013819 0.6098392566244729 0.6495213299559375 0.4803373892914035 0.08932235817380996 
0.9889004152212320 -0.3952192026841529 -1.034197962680052 1.375587782753261 -0.4033328449863853 -0.5317381876238704 
0.5304287955880203 0.9779610591558713 -0.5763040695303023 -0.9288735313961906 -0.7162959728498880 0.7130837190325076 
1.307671953792840 0.4632316222130518 0.08489901199065891 -0.5813998589390164 -0.8072766904779810 -0.4671260385795572 
-0.03919594688051310 -1.664938704850737 0.9069959113642884 -0.6763425903273397 0.7701570154978763 0.7033243151964247 
0.1361499720637523 -0.4931026135755311 1.203256982492152 -0.9640313156982103 0.1122312466833446 0.005495728034505916 
-1.163393256038512 0.3968480452762451 -0.1242637925127194 -0.5097062874593978 0.6853844978316271 0.7151307929027594 
-1.070610188283360 -1.629102672572924 -0.3346375642053531 1.671866529945836 1.433532328337632 -0.07104843322183199 
0.6167686301505857 -1.758950459186105 -0.7467383761052835 -0.4920995979195978 0.9665886055346650 1.414431197525761 
0.4646621720801106 -1.376468458787026 -0.4005851947961577 0.6999933260424633 0.2213572106197780 0.3910409448408612 
1.249525490131357 0.7172268689926820 -1.146481634924846 -0.2960302441252303 -0.7408098011536180 0.2165693210796623 
-0.4863752697090404 -1.023466710666683 0.2591664036551411 0.8403057651807426 0.4372357258555882 -0.02686591431576248 
-0.1293339258480613 -0.05738686972934295 -1.460707421298068 0.8296525090072271 0.4721029445964060 0.3456727632718233 
0.8888397255142588 -0.4697982133416633 -0.4049354576510308 0.1667539873101177 -0.6973747123516555 0.5165146705199856 
0.4671887132277415 -0.001746574210394349 0.5902143959584143 -0.8957366678660298 0.1743521464892975 -0.3342720135990340 
-0.1201078047267012 1.330847026645419 -0.5750271169891600 -0.4854241958977412 -0.03207397936753827 -0.1182139296642758 
0.06428320683340044 0.2042040370857844 -2.095738875998800 -0.8109938504350888 2.127246786556528 0.5109986959581642 
1.494042958568135 0.09967116379740895 -1.468756245330223 0.7523878337557206 -0.7546334242885847 -0.1227122865024650 
0.5542252306505330 2.252524290529721 -0.4636921192969981 -0.3781108400288507 -1.526715951331141 -0.4382306105232872 
-1.317363256923830 1.830634333488417 -0.4539695209213259 -0.2656899666744003 0.1760295921149752 0.03035881891617493 
0.08855965487243753 -0.3607108040350885 1.205184747911157 -0.08862228686852731 -0.4358985099064441 -0.4085128019735372 
-0.2926021677028690 2.209434130215741 -1.244835447922579 -0.5064125950060950 -0.5339701109583772 0.3683861913741374 
-0.4888091188862261 0.7996624671389964 -1.100044824241958 0.05265734566439603 0.9838821863820180 -0.2473480560572214 
0.2605408615372817 -2.952905254898004 1.246645615105102 0.8977451342288288 0.4124759859406559 0.1354976580861190 
0.2009662274188497 -0.3947338270728456 0.2448435788858462 -0.2722999187614141 1.086145495231076 -0.8649215557015313 
-1.177808310709246 -1.374108981148381 0.6862209901021149 0.8962830644228451 1.068578461615839 -0.09916522428318839 
-1.072178029786218 -1.598495641107363 -0.09836952843771170 -0.2133276749922208 2.416275383146761 0.5660954911767612 
-0.9471714709918836 -0.5685107713156148 0.7191396851714994 -0.2297657242419468 0.9474331576851858 0.07887512369275354 
0.9231725714670977 0.3804719494261090 -1.000023979131666 -0.5620720954862547 0.5438465211224452 -0.2853949673977352 
-1.173947250005909 -0.4938978899518818 -0.07119544751804870 1.606414189732119 0.9847117184735789 -0.8520853207298954 
1.129739461464449 -2.049790628923077 0.2399928175290116 1.609626119923537 -0.2645328132511979 -0.6650349567427320 
-0.5156642063557313 -2.132167261226732 1.590453426353425 0.07271452780527718 1.682753544634870 -0.6980900312110994 
1.410032837495298 1.210978824249769 0.6682315616929585 -1.896023969917449 -1.397554792454720 0.004335538934138466 
0.09661393366304324 2.219428867318171 -0.9416238003882303 -0.7558629881768812 -0.2428234832098548 -0.3757325292062430 
2.025790007609042 -0.2942767750483021 -0.2772229167275596 -2.354713718193952 0.7282804853606765 0.1721429170000611 
0.3069898515527314 -2.052481123453716 1.037966357142195 -0.2985765026375531 1.431608575215208 -0.4255071578188341 
-0.2617253613199128 1.839885118061404 0.3731630263747652 -1.437371923418494 -0.7976297026966729 0.2836788429989085 
0.002495568320376164 -2.099530589010339 2.375068645801190 0.4787143030570021 0.2887690294603088 -1.045516957628522 
-0.03845350720066272 -0.2962977583410002 0.1742997702835519 2.097630391408088 -0.7422587143401433 -1.194920181809833 
-0.03865705134414531 0.7531438093305493 0.3746695960107577 -0.9543159595650490 -0.4149682836754440 0.2801278892433261 
-0.4510288113138609 1.378427469171971 -1.417576745643074 -0.7917412540800153 0.4772067370183430 0.8047126048466599 
-1.717397963665139 0.06180796768382013 0.1941135782976124 1.412158403923220 -0.5554616091421116 0.6047796229025901 
0.08837957776557898 -1.331520016124629 1.034191687090491 -0.3782165408642776 -0.6073851892716310 1.194550481404458 
0.5588581354295402 -1.043281531304712 1.052669297543037 -1.016919209605680 1.332276664972826 -0.8836033570350257 
-1.653599427087980 1.103122578619064 -1.023293096135470 0.4115056450416511 0.8635801156038941 0.2986841839588382 
0.3459486890492949 2.949526020882523 -2.106113950789151 -0.3219177093414473 -0.3537203073681893 -0.5137227424330509 
-1.374925908695887 2.524456267698276 1.029189362642454 -0.5576512360977854 -0.9034116815896955 -0.7176568039573495 
1.033076186582228 -1.412718844898885 0.2304932038557415 -1.843568835416293 1.373241207044756 0.6194770828324606 
-0.7266399660036067 -0.3213873442943931 0.3423270444143533 0.9473847261728259 0.3066026880232101 -0.5482871483123938 
0.5367771127621962 -1.547455323693479 0.1545941272804943 -0.01569852485353980 -0.06436421554620098 0.9361468240505433 
1.513248642553511 1.868291393721760 -1.817359571188047 0.1458846626766375 -1.308836934511846 -0.4012281932520391 
0.006685871764363596 -1.993332580341947 -0.1698679211045719 0.5843696026891302 0.1165946138516223 1.455550413141387 
-1.352311657782221 -1.739155115210331 0.7961246017349979 2.937305251063166 -0.4667385033772133 -0.1752245764284098 
1.229500348712059 -0.3257262716567131 0.6691519712033481 -0.1370499340720028 -0.7016332683170428 -0.7342428458696434 
0.6996725448775093 0.08998732891779782 0.1151891753949047 -0.3394012733495105 -1.351380175023993 0.7859323991832718 
1.982428745836285 0.4523588433083304 0.5718839038639288 -0.7349568650225545 -2.515469823888369 0.2437551959023899 
-1.031144162046181 -0.2641736096068480 -0.6247327603817140 0.3820301316440655 0.1540236605402827 1.383996739850387 
-0.3119675908925016 0.9436080019861258 -1.031366356848411 -0.06739282506352157 0.05817751942022582 0.4089412513980738 
-0.1885273978052074 -0.3817226324291534 0.1406168912899823 -0.04219574928244300 -0.1089074616157692 0.5807363498425998 
-1.549295949434903 2.137880860549216 0.1836842228444739 -0.8155065761267595 -0.1077406663967560 0.1509781085647207 
-0.2281539242450288 -0.1770490032652391 0.1862884367353604 -0.6423439955164130 0.2389661987002856 0.6222922875910442 
0.2828545957575965 0.07289386297389583 0.6774127617424780 -0.006118984305282967 -0.09373057073630843 -0.9333116654323755 
0.5318852566443798 -1.033368137653952 0.2193208220164123 0.3455751852680178 0.4930394510299748 -0.5564525773048076 
-0.6317692126219288 0.7499198699423795 0.9340670072068739 -0.8390985066831324 0.4701912733598567 -0.6833104312040400 
0.9410739233034993 1.770197668475625 -1.123964550880360 -1.798995092890571 0.2394754176599919 -0.02778736566817265 
-0.4747830849440849 0.6140260585243400 0.2046306959889410 -0.1151447689297985 -1.091148504558289 0.8624196039189074 
0.8506627654947084 -0.7453003084997700 -0.9950822097808535 0.03271184920732376 -0.5507459894306845 1.407753893009299 
-0.1286070570692965 -0.8014173369290689 1.124375018871712 -0.5881159767395506 -0.1360041758279656 0.5297695276941530 
0.2351231498886737 -0.3859987937469439 -0.2471001482577877 -0.1748512709976121 0.3782669513404295 0.1945601117732465 
-0.5938079803340945 -1.804611445725038 1.567204412090089 -0.06296935247405702 0.4585011462669585 0.4356832201761210 
1.108232347200898 1.903814492539947 -1.199763456512848 -1.051354096019846 -1.339935999643914 0.5790067124357237 
-0.5974359398282838 -0.02542883532816304 -0.3161166972808989 -0.7616643938613378 0.5706466369690376 1.129999229329624 
0.01585344658380570 0.6550495488319397 -0.6112410988950864 -0.5077761885484331 0.8571760128137733 -0.4090617207859753 
0.1848010417505970 -0.5810558925122135 0.2803103503002511 0.7263786076420717 -0.8605682670321602 0.2501341598514617 
-0.04475444744894392 0.6103228332015189 0.4781522937731571 0.5444320197905879 -1.068748972150272 -0.5194037271660432 
1.348206299288789 0.08807560867917020 -0.3247573442768708 -0.2288376108832362 0.6188170382895544 -1.501503991097402 
0.7043743121405898 1.763636620880682 -0.7627082021645541 -0.04700745384677204 -1.239990751871305 -0.4183045251386109 
-2.223623369011247 -0.4728469505781148 0.4327869022781550 0.7985826222328266 1.899340421316355 -0.4342396262379658 
0.8474812042671869 -0.1607344486309899 -1.347625818780877 -0.01450063823451814 0.2454935446924884 0.4298861566867190 
