solver_type MCSVM_CS
nr_class 6
label 0 2 3 1 4 5
nr_feature 199
bias 0.000000000000000
w
-1.453213838213344 0.8521364644751152 -1.079011522173232 0.2787078365880852 0.5700202613398979 0.8313607979834727 
0.6877625556930106 0.05755868634505731 0.8593124115964994 0.002820050951085909 -0.4027683491523448 -1.204685355433305 
0.1903797662221081 -1.664595216577935 1.266922844975444 -0.4311302372062317 -0.2233627118278320 0.8617855544144755 
0.8023315730094174 -2.012640471156574 0.5698075325993874 0.2988950627201956 0.1645341226275418 0.1770721802000163 
-1.332432430484024 -0.1356222022519824 0.1022339566900162 1.464963296669209 -0.3619166810584877 0.2627740604352705 
0.08072569023948753 0.5048808686072125 -1.100786529059219 0.3570532396837234 0.8251857309408526 -0.6670590004121056 
0.5532010059180955 -2.624480259625127 0.04406774121736899 1.030420381907700 -0.3776246912668768 1.374415821848826 
-0.3477529463114538 1.348744679938315 0.2885463312696878 -1.748960398051468 -0.4979883403597663 0.9574106735147943 
0.9803526971237500 -1.749407478921935 0.7099688058335702 -0.4927454900371828 -0.7581971393737899 1.310028605375595 
-0.4719893681857689 0.8027144870865482 -0.6360613177591898 -1.434098680296644 0.2379646330250280 1.501470246130034 
-0.8532496282835598 1.605063621317642 -1.628957303436773 -2.118616439548382 1.695753308456501 1.300006441494725 
1.285459843748705 -1.976986232925609 1.304501267589256 -0.9800106895602987 0.7538834668599677 -0.3868476557121215 
-1.681089637948139 2.167046374847375 -0.8141265418498376 -1.128812835318535 -0.3319665142511493 1.788949154520207 
1.731126210777020 -1.244905953492421 0.7814884344594613 1.318703959516335 -0.006828143040673640 -2.579584508219675 
-2.761174961803663 1.299142062584385 -0.4540812101545120 0.8290370100693518 0.2740111713605379 0.8130659279439164 
0.4222988426080143 -0.2452120927723334 -0.8282376657277174 -0.05662297468710899 -0.03814139018276262 0.7459152807619205 
0.8557634424643089 -0.7138068236181905 -0.9046806847763056 0.3338323936273078 -0.5489567117276293 0.9778483840305056 
1.183671291679886 -0.5749977869067916 0.03945876988125618 0.3646628461759490 -0.9406989128808050 -0.07209620794949110 
0.3559682282142024 -0.07631373471280602 -0.7160514325872100 0.05428755681878773 -0.2299859923060716 0.6120953745730923 
-0.5820072586051470 0.3391275083130893 -0.1882692316684282 1.286533063686366 -1.241224946744308 0.3858408650184154 
-0.3704842890813546 -0.2223478165500016 -0.4223509083778946 -0.5012641808004192 -0.1455326088063366 1.661979803615999 
1.051214003253910 1.711059993689160 -0.9615776146382820 -2.589876104088330 0.9972743019550838 -0.2080945801716245 
-0.3578379244014923 -0.08598551498384474 -0.9222450093265859 -0.3341802536612498 1.055539978270544 0.6447087241026513 
0.7582710422104211 0.5024445632404010 0.1110633073184799 -0.9550282647552645 -1.790680530938533 1.373929882924467 
-0.9894756642069702 1.366237790822851 -0.6055567070720459 -1.421955882444526 0.6214147728980330 1.029335690002650 
0.4275400247241636 -0.7006662573690960 0.6544998975035713 -0.7983011687870450 1.033684804617720 -0.6167573006893394 
1.960614733323628 -0.9728938591511601 0.3670477005893922 -0.2118892022085736 -2.448711158377249 1.305831785823933 
0.2905572399679467 0.3503602876239488 0.1395149334211932 0.3420286597395150 -1.024578940211667 -0.09788218054092833 
0.6559679938049926 -2.536611375656553 0.3501853444706984 1.368200066767304 1.174881255871525 -1.012623285257957 
-1.029300530234941 0.9839389875477983 1.295777033682446 -1.467974857606633 -0.1428983371828639 0.3604577037941774 
-0.2258210631301339 -0.09456108398075704 0.5073573163777957 1.365461694427552 -0.1052370354268738 -1.447199828267620 
-0.6460439697665478 1.341116346546231 -1.188038101723536 1.530965394909643 -1.409773408508990 0.3717737385431693 
0.8465957381727363 -1.131079639021227 0.05888057245700441 0.7168112622725757 -0.7341928536254873 0.2429849197444157 
-0.9851172937687768 -1.393004119991169 -0.2952425137918891 0.07164979553666831 1.558167241589952 1.043546890425208 
2.846742033634136 -0.1629900579249470 0.06800645779502429 -1.455190426887923 -0.3052037366174848 -0.9913642699987648 
-1.892550507927204 0.3903314670826163 -0.3669349299579766 0.6197975496304162 2.082390368430799 -0.8330339472586805 
1.388271932818076 -0.1583418787985775 -0.7624995486812628 0.1799578797818423 0.2106474459772624 -0.8580358310973634 
-0.6016200765821660 0.05041753903207608 1.221237482992905 -0.5943198245208837 0.1906758911574219 -0.2663910120793666 
-0.4460951161278170 -0.1800220407310908 0.09186329720686023 2.145752031423097 -1.299479192644471 -0.3120189791265876 
0.1758741633213078 -0.3212669567052656 -0.6525806276538756 1.184885875929751 0.3308531336548954 -0.7177655885467900 
-0.4968542697402642 0.9408579102517333 0.7573581631575005 0.9749742417429370 -1.704085513979472 -0.4722505314324514 
2.280235444387129 -0.1836284759535904 -1.252802863414678 0.3353772866109167 0.1391044485436588 -1.318285840173469 
-0.2075884861564813 -1.178863406885240 0.5952485510380846 0.7637162097574979 -0.6636671810186706 0.6911543132648232 
-2.456605426825034 1.906105560082278 0.05640224470400428 -1.173971924410694 1.916319625352577 -0.2482500789030685 
-0.3336023244180614 -0.9767783598747395 -0.06519982728748540 -2.055991243433911 1.602314368703881 1.829257386310339 
-0.4817937389850953 -0.1872319036624776 -0.3454820246459024 0.4577681032210860 1.402227162506496 -0.8454875984340818 
-0.7677894342535136 1.017615638255721 -0.9789517244526679 2.294786322556003 -0.8044726056497487 -0.7611881964558382 
1.874416395265143 -0.2560395824210799 0.6129445213643373 -0.2437723942995134 -1.607853004848778 -0.3796959350600762 
0.7975929416887121 -0.2183034604349580 -0.1807792928463896 0.3775164865813993 -0.6536672897621985 -0.1223593852265314 
2.099749396306964 -0.6335440378217888 -1.212721754613735 0.07279293896629893 -0.4889795718176843 0.1627030289799067 
1.981348566062663 0.05954231959119272 2.076395195981136 -1.523731392386759 -0.6506873593929694 -1.942867329855164 
0.1686340170166785 -1.262451450231768 -0.08236533986183757 1.230438825852557 0.8818376090783823 -0.9360936618540242 
0.7208851598291632 -2.577265496800532 0.9697327167551943 -0.9364528980847432 0.06131728314041548 1.761783235160583 
-0.8420549043884114 0.3021012965210074 0.5893517054515472 1.676914908378854 -0.9972895740346592 -0.7290234319283079 
-0.07936506504389400 0.7722666227561361 -0.4039664702078539 -0.2275287706501093 -1.411051055379742 1.349644738525496 
-1.050003221550976 0.2295704792581413 -0.9422607071302851 1.023957836506353 1.285699853609598 -0.5469642406928484 
1.213281163511253 -0.3183737519566253 0.8636221254985975 -1.643421029753195 -1.956558854579193 1.841450347279115 
0.7117845255220060 -0.2670556567537639 -0.2971875542156222 1.404518191756091 -1.507569833562766 -0.04448967274593706 
-1.657471102754072 2.032401478587564 0.2768131713770241 -0.9673926255986398 0.6156809677628853 -0.3000318893747299 
-0.6778803479576991 -0.02068252093599781 1.124438213344623 0.7609082399649926 0.5843708013156098 -1.771154385731530 
-1.002734918517082 1.018629561241212 -1.337607541930815 -1.288898695606862 1.454127556732539 1.156484038081050 
-0.4774475627158367 1.983682804766702 -2.207439688380243 -0.5057549884584227 1.343308898903957 -0.1363494641161771 
-0.1538877324001101 -1.133145162037893 0.4621606030620461 -0.3373756843260043 1.111009422513745 0.05123855318820467 
0.6034061376192279 -2.912172018742148 -0.1239444003070408 1.463379856656626 0.009296691375533113 0.9600337333977813 
-3.049800704371565 1.634691783620560 -0.08597391348920563 1.502878592627171 2.123575830714163 -2.125371589101163 
-1.078808227107256 -1.373506392323959 1.384638878730726 0.6652105588578650 0.2553659648355670 0.1470992170070648 
-0.6912552418682400 0.9037495859990989 0.6368102094127817 -1.684270803072939 0.9011952115755913 -0.06622896204628355 
-1.275219917649191 2.268737741018218 -0.09385923207644280 -2.342873564605684 0.2883898564357698 1.154825116877365 
-0.4156959359658873 2.863851999056408 -0.3916633836540652 -0.06354399782402549 -1.445122224916263 -0.5478264566962868 
0.2248513852760919 -0.4161533623940725 -0.2539532929489067 0.07953713877902649 0.2168319702325068 0.1488861610553670 
-0.4395738906523852 -0.5340742431676695 -1.004807305970854 1.630153354314057 1.144331072175384 -0.7960289866985063 
-0.8910869279985935 0.6858022953529940 -0.6305984301551817 -0.7532279060688187 0.5487673142356725 1.040343654633934 
-0.06359544549516234 0.2764307093556309 0.1572530207038617 1.276941784291423 -0.05788153625201250 -1.589148532603753 
0.2445875276634953 -0.4981010678925774 -0.1167905659824628 -1.204787649802256 0.5892838553832320 0.9858079006305523 
0.9301144657891749 -0.04238099610583197 1.001030394545242 -2.169832742497149 -1.076012945329965 1.357081823598455 
0.1045867459234694 2.134266948955267 -1.420061822365056 -1.764104852830662 0.06458161788835477 0.8807313624285704 
-1.282381590820530 -0.7950479907283620 1.278177012073095 1.350603667271597 -1.090714477922717 0.5393633801269079 
0.1069641890784606 0.4251374911128296 -1.245644313322623 -1.311037868442206 0.1682135726010023 1.856366928972565 
0.2735844415334335 -0.2385272090176562 0.5519580321612292 -2.339881365746272 2.013301144806642 -0.2604350437374014 
-0.6574077790061080 1.132947305855879 0.06317979298115090 -1.904936371332238 0.5831036704671121 0.7831133810342018 
-1.697458064612570 1.777291687450761 -0.8233327890163434 0.4680966330584366 0.7957926018397327 -0.5203900687200359 
2.831234799644411 -1.192272106063632 -0.8867723990239403 -1.303135486625402 -0.7865608984350949 1.337506090503609 
0.4549698258386590 -0.6878791166287458 1.532579920243892 0.3033127483456686 -0.5470721616157005 -1.055911216183775 
-1.921519834335881 0.3281431045609067 0.1073197828412252 1.106112644651384 -0.2228395826673528 0.6027838849497494 
0.6446177721990509 -0.9276955896822701 0.2930865743686266 1.119775038205581 -0.2495249420929093 -0.8802588529981107 
-1.064361040766818 0.06636932727226276 -0.2299933443235443 -0.02499556370015131 1.280475788230581 -0.02749516671230780 
1.958617297668127 -1.525550971822902 0.5171571930872152 0.5786455737815515 -1.281311527774314 -0.2475575649396371 
-0.7144839319999297 -0.6269249617170173 0.8173861681383549 -0.8280685843983944 1.705662015830276 -0.3535707058532713 
1.048775701860604 -0.2349522308047981 1.388197974925498 -1.149401223299472 -2.807254715276731 1.754634492594964 
2.726611242987305 0.9207118355279561 -0.7833498451793228 -1.653747897988283 0.5761308234200968 -1.786356158767794 
-0.4084594503719472 -0.07727781854398758 0.01729157981407450 -1.101008878717910 1.244646839695985 0.3248077281237767 
-1.987834585358800 -1.916014031255981 0.5750366737979097 1.502367219001397 2.647539174212783 -0.8210944503972507 
1.382728153244829 0.03397215901693680 -0.9420137289330973 1.368167327981253 -1.336742554836036 -0.5061113564738523 
-0.2833279867202391 0.6795646875524098 0.4520144380975900 0.7871318744794741 -1.628214403558221 -0.007168609851031448 
-0.9967938963046099 1.865899211971153 -0.2162902617281438 -0.6106302033465055 -0.1448715457423644 0.1026866951504746 
1.251825924677344 -1.070309403465350 0.6815968570726672 -1.185855715704462 -0.4561497048441187 0.7788920422639016 
-2.142015469465152 1.487465196284458 1.856070484073631 -0.2806727672464764 -1.496863804316077 0.5760163606695935 
0.3258709921473635 2.445759852484659 -0.9468165212299098 1.106876415812651 -1.455032568678373 -1.476658170536364 
0.1904540530218586 0.5278400676397028 -0.2812455367603018 0.8123638263892170 0.2313522107408864 -1.480764621031374 
1.522634097759523 -4.222633670262673 -0.7541092805940931 2.814874831825894 0.08776197872965956 0.5514720425415931 
-0.4962660785770611 1.416708486826943 -0.1494001451926023 -1.450342591004390 -0.6954448710728334 1.374745199019983 
0.3457125944819496 -0.7391746717364199 -0.4782574357062235 0.2798238639113455 1.181255531759341 -0.5893598827099773 
-0.9092423572175368 -0.3826055702814640 -0.3984213072034255 1.650884019048977 -0.9424196299705226 0.9818048456239843 
1.697733672149309 0.5311031898421400 0.3609016915935041 0.1322684387053197 -1.057467258925072 -1.664539733365154 
-0.6737237981125270 -0.6367403690957150 0.5861304071046339 0.4748168117152193 0.1688942525803568 0.08062269580804723 
-1.518072711384616 0.4596248303985699 1.275049502505652 -1.008087199319607 -1.218119475505264 2.009605053305211 
0.2771902014599792 -0.9523129003789630 0.8145803670716950 0.2634744657254499 0.5067020589590017 -0.9096341928371996 
3.128476638713109 0.9154583710764510 -1.045865815532881 -0.3723330980771136 -0.7611591436384767 -1.864576952541192 
0.2877794826301784 0.03678052727843571 -0.1728859916089606 0.7554832886915304 -0.1456030420757324 -0.7615542649154567 
0.6269759701074932 -2.387679919958345 0.6139514321965702 0.9730788754752399 0.6316698021929130 -0.4579961600138648 
-0.6008650995446510 -2.058441912822582 0.4279916726045752 -0.3566750970777352 0.09424248169872321 2.493747955141714 
-0.6857420247869617 1.508517646006210 0.4197324994652764 -0.5816726366517976 0.7457181090188157 -1.406553593051510 
1.450482045942798 0.1695176642542177 -0.3543306828254260 0.1618184621991321 -0.7983847797150617 -0.6291027098556439 
1.637665946609209 -1.598114982656700 1.177215722367127 -0.7063684331468099 -1.352574717972062 0.8421764647991902 
-0.1048023416214904 0.4590600291003916 1.430035863030989 0.8750352367566112 -2.290052704095388 -0.3692760831711380 
1.085867745008027 -1.484142818318966 0.1907607021346773 0.2523017551441924 -0.2773689364117303 0.2325815524438213 
-1.042399519309740 0.2762661528345998 0.2696689938796306 1.170956659204298 0.1075781983173982 -0.7820704849261523 
0.7209850064027697 -1.397837979230890 -0.4551710893526137 0.5037736348254823 1.719631653283616 -1.091381225928368 
0.1111792367069614 0.8574966580350750 0.3401356920613758 -1.446197841317973 0.05580253371984493 0.08158372079468243 
-1.878129425172155 -0.3690939926186488 0.3296684432533172 0.9909146104648835 0.7645833917765651 0.1620569722960409 
0.5181329231055404 -0.4665961432276659 -0.7187141518949512 0.9884351972889519 0.6128629110795690 -0.9341207363514410 
-1.350680288815591 1.115170923585055 0.7650632665416840 0.1378231811077103 1.333717181569460 -2.001094263988359 
-0.6090993432075584 -1.646775262677828 -0.07294380187872399 2.168156165721399 -1.035896998327350 1.196559240370130 
1.762667846148484 -0.7125950350248208 0.06359782862120204 1.637513204578248 -1.715059213992786 -1.036124630330305 
-1.003597553569284 2.372054021232405 0.9291862722459426 -0.9157201249523171 0.07710165704500443 -1.459024272001769 
0.7090950966227740 -0.3882422992260258 0.4480866756119669 -0.03480146160233597 1.065703142276557 -1.799841153682939 
-0.5411564157453251 2.276278530488315 -0.9032737685587747 -0.9201921346605821 0.7447016545862657 -0.6563578661098458 
-0.4961833101737540 -0.2052320160656013 0.6647357943979352 0.2698009104793702 -0.3466431491609834 0.1135217705230507 
-0.6035059895405315 -0.4923060921741730 0.3438438150639623 -0.7202577316935180 0.2833116383724494 1.188914359971800 
-1.258732577470946 -0.4631563192471020 0.7360202446481479 -0.8862166669950841 0.7012408938838351 1.170844425181160 
-0.06639447279924846 1.032871239870676 -0.6902429676685635 0.1077225580472715 -0.9661696665342603 0.5822133090842060 
0.4421063989489524 -0.1180433622852849 -0.7529355569985925 1.047505272184492 -0.3770221094839723 -0.2416106423655706 
-1.895148793110250 3.126925932795491 -0.03216222228043286 -1.816433807555165 -1.106786178499300 1.723605068649607 
-1.334669817638283 1.183636205765871 -0.7130463580658576 -0.2311624903282935 1.430439044487801 -0.3351965842212414 
0.9384709027157687 -1.536693318632006 0.2206586405313012 1.439216115273946 0.2344105648581992 -1.296062904747189 
-0.8849940043183211 2.703657941326645 -1.158459515921696 -1.315184040527698 2.437094463484466 -1.782114844043420 
-1.149563273569562 0.5510981362313789 -0.2281167723952896 0.9406072022891533 0.1813190561505237 -0.2953443487061855 
0.1180789804502897 -2.345273959468615 0.4092283092402858 -0.1441198057211834 2.058661213551426 -0.09657473805232085 
1.577395638744170 -0.9488485632669161 -0.01310278312362244 0.4893349637919532 -0.2918588366374792 -0.8129204195081176 
-0.1660460213664524 0.4704632473094403 -0.2044632883914949 0.7054665084818551 -0.2320034233100446 -0.5734170227233232 
-0.4935336878411974 0.3200083224845746 -0.002263131016742231 -0.4194448179938750 0.3397425422343377 0.2554907721329159 
-0.2991684824773011 -0.03108819291007098 0.3481046737257333 -0.2538723582381575 0.1604345701325722 0.07558978976722827 
-0.9175533546926136 -0.5622603047774852 1.708700968930872 1.253690413963197 0.5086946828913718 -1.991272406315345 
-0.2580323739897176 -0.7803107425552894 0.3076158525014536 -2.432465753529545 2.471258563213059 0.6919344543600376 
-0.6441122964201775 0.03398710712442896 -0.1942252029292579 -0.3000646931467111 1.076430144106557 0.02798494126516858 
-2.011032084218870 -0.2729569194370254 -0.1461297454390501 1.539807955250232 0.9682396661806810 -0.07792887233599781 
-0.7637565064943025 -0.3950499247875264 0.3901964743798306 -0.1111858797795271 0.5945683016196149 0.2852275350619185 
-1.760944919728730 0.02312541539275065 -0.1317714829400598 -1.181372361935023 2.958060300388425 0.09290304882262505 
-0.9603715105000051 1.105648960180155 0.6914617164872848 -0.4335012353252145 0.5745532142585403 -0.9777911451007177 
2.402242290523793 -1.446563420097763 -0.4073332868828744 -0.7372933759862025 -0.4665267130347970 0.6554745054778797 
-1.306202658854589 -0.04409062956409863 0.2582762521775737 -0.8924343878825507 0.2641724733065622 1.720278950817133 
0.9103343308003374 -0.3403775039514838 0.8073400316103474 -1.920409094412403 0.5918872344114830 -0.04877499845825246 
0.3365713932740367 1.667666021410438 0.1465167273883838 -2.469003571919963 0.1159370553534943 0.2023123744936228 
1.300046051504648 0.5414016013113497 0.3167242805278670 0.8482369090997247 -1.770520738026310 -1.235888104417284 
0.4064092281713881 -0.5851922152145279 0.1246830402564603 0.5151484398760063 0.5529722109774476 -1.014020704066799 
0.2005410599317080 0.7296340937623730 0.1425143147151385 -0.6602392855094648 -0.2108569846769499 -0.2015931982227930 
0.1979597155796850 0.2542962568025236 1.017871326024816 -0.7414381962438371 1.412042175590570 -2.140731277753705 
1.162171179994511 1.268613096852421 -0.3949441508039654 0.4375628745336733 -2.272889590271729 -0.2005134103049413 
1.129919505906377 0.4877913487327786 0.5348416723742089 -1.913811225142061 -1.008889679629008 0.7701483777576693 
0.8110004511542593 -0.01087606767664065 -0.05214094653314016 -0.9872543340142607 0.6011523707364066 -0.3618814736666351 
0.8077664333096681 -0.7705480233819345 0.1936230260626886 2.885098285027221 -0.9698007950867763 -2.146138925930954 
0.6102904554831030 -0.7279880388261630 -1.371407933258154 0.2268427413516710 -0.9090139140732492 2.171276689322809 
-1.217154265434774 1.170895401747246 -0.1794086030939481 0.3813882075413123 -0.7126272632680747 0.5569065225082845 
1.327317563367790 0.3877276632503421 1.120366849902930 -0.7831332561080640 -2.377583497960873 0.3253046775479092 
1.165704333920106 0.2867129626504362 -0.3684556697722387 -2.736117702458248 0.9350267566321131 0.7171293190278683 
-0.8664476008636305 0.7355239375702942 -1.110830639109623 1.090813735737770 0.6498598716156340 -0.4989193049504413 
0.7385493558701226 -0.3876060578020813 -1.855743861634689 1.783477515272625 -0.6281149472203876 0.3494379955144831 
0.6814986531136030 1.651100026582945 -1.185527823897584 1.655466131782144 -1.399550925437710 -1.402986062143431 
1.819137837416356 0.05381354307889149 -0.08846093116023014 -1.765890657237184 0.4168411977618717 -0.4354409898596899 
-0.3256153086396419 0.06499386747739083 -0.3740541942281744 -1.572829322592797 1.465975669516821 0.7415292884663991 
-0.1600365026821636 -1.284166359611402 1.317887032237828 -0.6090975216523382 -0.3962901277043291 1.131703479412364 
0.6721630686444535 0.2323704866448043 0.1639684466944627 1.697014360557720 -1.236665274699850 -1.528851087841531 
-0.1261025587829363 1.280284124325119 0.003392070790844051 -1.811795037368762 0.3895965917387354 0.2646248092969908 
0.1538547919138135 1.025195584342503 0.09831444657688687 -2.094558009667841 -0.6533415952012627 1.470534782035910 
0.4343699662781368 0.7422740560899316 -0.4521339365841612 -0.1580063974215469 -1.122924980734321 0.5564212923719873 
-0.3233415932668065 0.07633210020937303 1.510575458860731 -0.6118408446305527 -0.3861162381110412 -0.2656088830617216 
0.7014250086394704 -1.246440888175999 -0.2942754096353394 0.9286412600784562 -1.733568659171435 1.644218688264822 
-1.368376705642666 0.1916912445304958 -0.7039794552997826 -0.4888631662151168 1.826398931578175 0.5431291510488822 
-0.9851622366199084 -0.08691750372837340 -0.07432283332741875 -0.5051493578282139 1.561363148244547 0.09018878325939118 
0.9204191259078608 0.9678131103240681 1.146650235851562 -1.414920454422042 -1.170961180517676 -0.4490008371437708 
0.4368984857571892 1.072842771172080 0.4638961387501081 -0.07221571421617376 -1.226438302258463 -0.6749833792047493 
-1.432913007152178 0.4792783010676996 -0.2596967499361838 -1.722015677019625 1.146431494448493 1.788915638591842 
0.3581520137466986 0.5142615583374223 -0.4951913958853794 -0.02076457389771873 0.1981744610140084 -0.5546320633150479 
0.4613034976754185 0.3087823408906887 -0.8911788081945718 -1.058097569813193 0.4174043015198443 0.7617862379217837 
-0.07477869525335641 0.0003020535903814922 0.006984776504372963 0.7232324877540128 0.1108394312177158 -0.7665800538131273 
-0.8541386527284380 -0.02633151581879546 -0.5511486622482922 0.7050867151470734 2.118923332298219 -1.392391216649775 
-0.5599140792675706 2.184888129527076 0.07398263664010903 0.7503402943888323 -1.445398567120513 -1.003898414167922 
-0.0005282805629119155 -0.4586995415305046 0.1854140858469986 1.092813552667827 -0.3770815870318656 -0.4419182293895582 
-0.8388969395257676 1.236551676172949 0.8349199271478637 -0.1050098813071589 0.5894936786899125 -1.717058461177832 
0.9984233304788309 -0.8687101333368912 -1.144177027341627 1.630842796828555 0.6002971368676834 -1.216676103496567 
0.1154488842249891 0.3182904189129104 1.483893601078783 -1.443597371382258 -0.2893610603348578 -0.1846744724995657 
-0.6315582630254634 -0.07808581001364905 0.9196375557424380 0.5566326036386904 -1.384752362624194 0.6181262762821896 
-1.386421631603036 1.308493755971326 0.3546262301903552 -0.7014979513611707 -0.1374224828747493 0.5622220796772329 
1.931017264263934 -1.816206773912828 -1.254812058973916 0.6827235408142771 -0.3999919259591950 0.8572699537677437 
-0.5087968425894152 0.6240619392343543 -1.227445573881604 0.5321583906293759 0.2844459682610734 0.2955761183462219 
-1.554989815702596 1.786078966574688 0.4251089223513225 -2.193832383015140 -0.4735233120403377 2.011157621832084 
1.479372391043376 -1.819147906433216 -0.5457587727760064 2.190550091909116 0.1295668241041191 -1.434582627847428 
1.533896295932108 -1.329303256937161 -0.4514511562266904 2.001923315913805 -0.6413355890522839 -1.113729609629775 
-0.9417490318369277 -0.1166109157691586 -0.7392360341801479 0.3066710792567753 -0.05507004711580937 1.545994949645264 
0.8251897128178632 0.3270105193988662 -1.378266435015445 1.665766319112291 -1.004316555166747 -0.4353835611467724 
