solver_type MCSVM_CS
nr_class 6
label 0 2 1 4 5 3
nr_feature 199
bias 0.000000000000000
w
-2.417061946727137 0.2354842994485451 0.5049416747164341 1.159130412092093 0.6682370928630159 -0.1507315323929760 
0.2452848865229439 -0.8677300942760451 -0.2347640953452704 0.8948550843649470 -0.7977558946025043 0.7601101133359033 
-0.1438563767277714 -1.693032548986072 -1.290770205831999 0.4445689109965905 2.700094603362924 -0.01700438281362795 
-2.066728177174777 -0.7675101728795685 -0.2291415579046675 0.8287649580550491 1.024223692129146 1.210391257774770 
-0.7582700012577990 0.1662612060511128 -0.8046852366061372 0.7871159544413263 0.8211080778673740 -0.2115300004958942 
0.4627160891639127 1.069001856300548 -0.03921324651605457 0.3533020799250107 -1.439711905069600 -0.4060948738038179 
0.8902420263170523 -2.341019168319567 1.343062554943171 -0.4635948971960308 0.6861417882959272 -0.1148323040405828 
-0.07223575581384692 -0.7937630836991725 -0.5497516960354375 -0.1135662677065598 0.008760122643124715 1.520556680611908 
0.1794087528446153 -0.6593419367873528 -0.1618113587064141 -1.086045357702695 0.8261871157536566 0.9016027845982315 
0.8139314532115142 -0.8095482911296671 -0.9224425260758066 -0.4583540295706662 0.8778247782749837 0.4985886152896177 
-0.7016252154745304 0.8060476574000837 -0.09987925937866330 1.566008021466935 -0.2280491090386457 -1.342502094975149 
0.8849430176787244 -0.8356641985740955 -1.377084377010138 0.01479096554447098 0.06809928810152555 1.244915304259492 
-1.852256492151876 2.978569496607004 -2.383985263176779 -1.231342112642164 1.957534811203966 0.5314795601598334 
1.089448891450194 -0.7269221549514661 0.8720233817890678 1.112928856974006 -1.769070902208707 -0.5784080730530342 
-0.02158174813871875 1.758637903018998 -0.9397379977483190 -0.2481997797750784 0.005807094217073380 -0.5549254715739613 
1.242817617226397 -0.2014337745344957 0.7197720794805496 -0.9708785432092031 -0.4502317246937312 -0.3400456542695181 
0.6891479773895530 -1.899370230969545 1.102543821661025 0.3660654398411827 -0.2219200491389990 -0.03646695878324043 
-0.04780348209049806 -0.8087456423047563 -0.4460052810119868 -0.6724709438204002 0.7408623677970243 1.234162981430631 
0.6843821555204477 -1.181519661948504 0.4873049592806242 0.1819760890280474 -0.07082263787977582 -0.1013209040008345 
-0.7426658523905867 2.589474165862610 0.9144360927880852 -1.389298809327102 -0.3371904860170135 -1.034755110916044 
-1.277300152087237 0.6676831652350187 -0.9313545589848407 1.482630689246280 -0.5200120940077654 0.5783529505985784 
1.153099342774439 1.917082673751356 -1.385561932280707 -1.089928682325580 -0.4036392310632804 -0.1910521708562076 
-1.784332739767304 -1.495844679622805 -0.1041339956082811 1.468951000011074 2.274426354180192 -0.3590659391929098 
0.4412368473300514 0.2222136130364765 0.6074561899204025 -0.5926389023658745 -0.5273152606458789 -0.1509524872751555 
-0.8217251518666229 3.407168047540275 -2.845671623457775 0.5591666129743292 -1.304989905456323 1.006052020266119 
0.008194291865086153 -0.2041684098144701 0.4697939298062038 -0.5524735684861328 -0.4718296129092636 0.7504833695385691 
1.852758809352124 -0.7669464345654134 -0.8253716574777514 -1.157876817215247 0.4042154417620186 0.4932206581442380 
-0.5222754927524214 0.6031119945857206 -1.042306216172179 -0.2017247268879222 0.3772420545497448 0.7859523866770607 
1.053034609447846 -1.678649862964076 1.803823771786258 0.5380821620748550 -1.027534028027832 -0.6887566523170404 
1.202858849852967 0.2269234217596137 -2.498356711262944 -0.6212586944694310 0.9410776382885333 0.7487554958313161 
0.2696017255062255 -0.1909282969532610 1.252045652980230 -0.1030609042328235 -1.204709087604462 -0.02294908969588604 
-0.5362376785030790 0.08292633905310788 2.177531980857831 -1.796429200183116 -0.1708726476616201 0.2430812064369005 
0.5947007047926882 -2.508954409519250 0.09556586147536628 1.473740332105911 -0.8212144283011850 1.166161939446480 
-1.083887399512191 -0.5537740164742073 1.954832146309710 0.1152438673248095 -0.6809725288314509 0.2485579311833117 
2.098888005404676 0.7608196096664066 -0.1710739657604243 -0.6908223935407289 -1.559970825864042 -0.4378404299059033 
-2.793141163283189 1.181754363111721 0.5940424175506114 2.151228077523811 0.3069875233127137 -1.440871218215688 
0.7295524724732301 0.2320857364547853 0.4164120037569813 -0.5889967246573272 -0.6259495728632366 -0.1631039151644456 
-0.1716673867261093 -0.04799509559883933 -1.468059919111842 -0.1488867459974159 2.048967268560597 -0.2123581211263774 
-0.03061034100623698 -0.5885676707721923 1.075138882003626 -0.8047609893616198 -0.2391676319785241 0.5879677511149426 
0.4267484670421029 0.9457800271087259 0.6781236086815532 -1.021842032980605 0.5639560234526307 -1.592766093304350 
-0.7367452451263622 1.664453256849948 -0.5624248887106240 -0.7948391122555594 0.3451143377308674 0.08444165151172113 
2.081417593648139 -0.6717965349066464 -0.4287027727347336 -0.2383388931076508 0.2797842259547437 -1.022363618853890 
-1.246700226758707 0.7217185418060974 0.5234701444620715 -1.484204568765925 0.7502796769522004 0.7354364323042568 
-0.5933006399937016 1.034299011728708 -0.09268425234733857 0.4898879030078949 0.3100999100997226 -1.148301932495261 
-0.8396865291647987 -1.698584583420094 0.1050770868213882 -0.06026831917796002 1.824724612584220 0.6687377323572379 
1.627028049826791 -1.031555127731042 -0.3267301495282196 0.6887887398501220 -0.2570216112615759 -0.7005099011560691 
-1.108536538239261 -0.2601138408960046 2.205790511155985 0.4818484785956587 -0.1426082335557231 -1.176380377060693 
0.08036357203469847 -0.8120199595027476 1.387320713153137 -1.096829567139108 -0.1890924841094140 0.6302577255634720 
0.9744498423028723 -1.154623810876901 1.645399802120122 0.2502100666189004 -1.091604967499626 -0.6238309326653566 
0.5188727762988321 -1.725281343304620 -0.2990794014168229 0.2935215815206271 1.555535365484498 -0.3435689785825217 
2.512460379538341 -0.6228137486637894 -0.3377486849790949 -3.596971545524667 0.1503628897213135 1.894710709907884 
-1.508126693502001 -0.4807996037510869 1.376536131643895 1.122684433234000 -1.083467770620556 0.5731735029957971 
0.8879751683926929 -0.9074326790106370 -0.2080975921427459 -1.807389059726371 1.611038471849929 0.4239056906371734 
-0.2608507321456315 1.314439650389632 0.6767843520040521 -0.09207843391546473 -1.631389306702398 -0.006905529630209914 
0.1374104493077528 -0.1464236393124689 -1.002530106394656 1.023232496842647 0.5057349813347569 -0.5174241817780203 
0.1171851231967507 1.158049827110689 -0.2342203360341366 0.8432666825843202 -0.9201123636992910 -0.9641689331583302 
1.789316833847224 0.3896055790314154 -2.955208015055340 -1.250433539486096 1.949631545509591 0.07708759615323806 
0.08045802482933542 -0.9120705499741943 0.8828247285420161 -1.589402475481209 1.664081503326908 -0.1258912312428564 
-0.9085922259458601 -0.2924760322363372 -0.8726427186864751 0.4716897397606586 -0.2500651635170865 1.852086400625105 
-1.389204020556325 -0.6212363789085570 -0.2563511665485303 0.9775575895674888 0.4539826417012067 0.8352513347447249 
1.471553059649748 0.5675319604750443 -2.193397460237766 0.7347292948818509 1.007826868983766 -1.588243723752697 
-0.5007674605863381 -0.1900282372429672 0.02016395902859894 1.171155522392211 -0.1584815973293462 -0.3420421862621869 
0.7175112750417096 0.8386014507808872 -2.119674817442181 1.796405787029245 -0.6584358251368092 -0.5744078702728717 
0.2892618350547180 -1.698615372596266 0.9026920475694611 0.3336528840644528 -0.1069565412321913 0.2799651471398193 
-0.8084300288032383 0.1526247031013721 0.6282756893459731 0.7643422172889950 -0.1525769562804696 -0.5842356246526461 
-0.9619170927104633 -0.9226854301030515 0.3815273737094469 0.5964523307373969 -0.4153814519325120 1.322004270299195 
-1.239748472690845 2.521764866034270 -1.826405991627927 0.3978022891057424 -0.3375825893041345 0.4841698984829043 
-0.5885301229919504 0.4958528289494182 -0.4365401576316863 -0.4341427366579050 1.180468202261046 -0.2171080139289183 
1.296312763118614 1.548267894740395 0.2472847890596232 -0.7025185003099998 -1.617976546732934 -0.7713703998757302 
-0.05945295113266220 0.2927683715844299 0.5605853285039547 1.121122956965117 -1.887228558593618 -0.02779514732718257 
-0.7928640388547133 -0.7350439499705925 -1.075621250939432 1.947617855594390 1.530475525527876 -0.8745641413575351 
1.104881467679519 -0.1373911649610758 0.03162803192446542 -1.753851504947747 0.5482060131590429 0.2065271571457930 
-0.4571267799920118 -1.058130935230336 1.054899108405070 0.2564686598489238 -0.2204479890901112 0.4243379360584594 
0.6398424358591721 0.3944133404415394 -0.03145917177587874 -0.1739816980643925 0.5158134841602031 -1.344628390620665 
-0.6087461030823381 -0.1161255458515894 -0.6518731451096191 0.6980255656843178 -0.1548455755998522 0.8335648039590900 
0.7044498992406993 0.6444148137429107 -1.800851448084847 0.4247078621611346 1.765675537686076 -1.738396664745996 
-1.432074146294664 0.6432452084299168 0.3966993576039276 0.5658205756777904 0.2823970800795079 -0.4560880754964793 
-0.8106377157082635 0.4474238793074293 -1.374152214726614 0.5832391517889551 2.287925141603672 -1.133798242265111 
0.6806023078004863 -1.586281311719027 0.8193003409042278 1.231640541356959 -0.9764455654683889 -0.1688163128742595 
-1.682453738949779 0.5412121768264970 0.2416420136333689 0.1026697596230118 -0.5100371356708207 1.306966924537751 
-1.821163132145063 1.254879279047827 0.5437333104123006 1.445367293330012 -0.9278309600451996 -0.4949857905998405 
0.9072608121264074 1.231829994635931 -1.361220864250410 -0.09500638533577349 1.249852227403818 -1.932715784579922 
0.5911432111996454 -1.673007462517707 0.3680943258829277 0.3511909920506588 -0.7021316269733701 1.064710560357842 
-1.408341222930816 -0.2123501088471097 0.8969928351186310 -0.4032344180983377 1.142539464260982 -0.01560654950331758 
1.639439268215045 -1.351845625082507 0.9183834685026315 -1.131774985950308 0.5751716799913451 -0.6493738056762286 
-0.2508994687852076 -0.9641483484012021 1.080131727603813 0.5342569894603552 -1.363172169750626 0.9638312698728360 
1.910247933315287 -0.4206147897893169 -0.6421155542508666 -1.633995215651265 0.2451528886913869 0.5413247376847823 
-1.515663780656840 1.028790578709234 -1.157419393681126 0.4454939372775355 1.249911365463754 -0.05111270711258791 
0.4339416228560119 0.2123188073355859 -0.9818747726674719 -0.9253023425003656 0.8287579828503980 0.4321587021258396 
1.161109902432242 1.700193655964332 -1.821414902807655 -0.2429876750026224 0.2840463030996352 -1.080947283685920 
0.4670289974651270 1.299388975982131 -2.075830965459919 -0.01191541315872359 0.9223255241443715 -0.6009971189729898 
-1.651291554444718 -1.361523669559646 1.656454745247769 2.462990867293645 -1.327679815527083 0.2210494269899966 
0.4889209007594453 -0.05220373187526717 1.624302822578484 -0.5746969556369004 -0.8918849503523870 -0.5944380854733876 
-0.5280374381597063 -0.2280242668896070 0.6360309101039896 -0.2640891944160351 0.4177154689159407 -0.03359547955457581 
0.5289897574224551 1.445438193227653 -1.455676480013944 -1.237610303021326 1.348504346526218 -0.6296455141410654 
-0.6436388504964619 0.5338340076315780 -0.5862767618463239 -0.7162749784559459 1.228035602426595 0.1843209807405465 
-2.397460702740907 1.514318536403162 -0.01090598652661706 -1.004870629611190 -0.5690773381094160 2.467996120584921 
-0.2520066304108831 1.910010629409852 0.5023255383441213 -0.2587689582411418 -0.9762797093169895 -0.9252808697850284 
-0.4604562977360503 -0.5356759078853119 1.040840251895466 -0.2145728763937140 -0.6882968133693099 0.8581616434889177 
1.218117637195387 -2.825802616817905 1.524819787383229 -0.5464108123690647 0.5540186159931180 0.07525738861518792 
-0.03074622188989894 0.8139117715869427 -0.7304446033466994 -0.08604110163426615 0.03312954066043276 0.0001906146234769418 
-1.289830467931199 0.1466758205380732 0.5645277266091484 0.4177472984369627 -0.6798308029193322 0.8407104252663096 
-0.6866543004803457 -0.5593724605997313 1.246628219721610 -0.8850188667276426 1.657539909482984 -0.7731225013968805 
0.7068278204574089 1.091921044485821 0.3827538803940795 -1.627773326272120 -0.6410745107017756 0.08734509163662706 
-0.6645610099175750 0.5797996065045293 -0.9196555120541424 -0.007348235770492327 -0.2382969882996886 1.250062139537339 
-0.6038533060896708 0.08410582784107608 -0.5409264507449367 0.4937637509013089 0.5105401792474700 0.05636999884476040 
0.2486729415605708 -2.165359021421809 0.5695051667576483 0.4526855141390366 0.1510062409033975 0.7434891580611308 
1.944754725603039 -0.3415715443386183 0.7397569847700554 -0.4243574053248694 -1.049228576332643 -0.8693541843769707 
-0.3351854907117788 -1.175809237297266 0.4687662208124824 0.06184295749752727 -0.8621359711467015 1.842521520845736 
0.7104361161259879 -0.2991375549833155 -0.2426260833605952 0.03832693844818728 -0.1468899567103359 -0.06010945951992322 
-0.9767459606227408 -2.974020077405476 1.249350793603236 1.057138233356242 0.9976268760342071 0.6466501350345262 
-1.875843741934519 1.224434185575940 -0.4792471414654790 0.4403489290396495 0.1330352385272623 0.5572725302571226 
0.4502232403481985 0.3148277991564977 -0.1763163879489172 -0.05934179245675777 0.5437516904504995 -1.073144549549503 
0.3037519286570143 -0.9694703298962428 -0.8573746564828768 -0.4059794850504274 1.392522149776263 0.5365503929963081 
0.1687663817843553 0.4612684032490678 0.3553163536152721 -1.199556755177335 -0.6905337936500379 0.9047394101786791 
0.7187174037201326 -0.3071505725485644 -1.193456804892762 0.3377382144165775 1.297306238415193 -0.8531544791105525 
0.7806659464959189 0.3357308197491412 1.576296698186329 -0.4847950695772809 -1.556749186539761 -0.6511492083143571 
-0.3801495233038466 -0.7719833597266337 1.356951980115091 0.7592607716378432 -0.8071008348416411 -0.1569790338808048 
0.01495212377638336 -0.2431777821571638 0.3522829829376041 0.6873203470978636 -0.8120444108708736 0.0006667392161872552 
-1.679651193535190 0.2547431819048052 -0.07816834160299431 0.5738758039254874 0.6625607365099936 0.2666398127978778 
1.662223307243270 -0.4857041064496057 0.9427360287158736 0.3094181578444147 -2.085158802152153 -0.3435145852017433 
-2.441340274520731 1.736545902944199 -0.06569569454849844 1.243662441407794 -1.382076288479043 0.9089039131962436 
0.4967970053647822 -1.521499419795024 0.8468033731551735 -1.016872207644807 1.241205186860636 -0.04643393794076808 
1.588239779948602 -0.4363828094595043 0.8209478580459956 -1.179251764181557 -0.2282847981456766 -0.5652682662078808 
1.425073558801836 0.9169699763070543 -0.9745277464125044 -0.1545499124289940 -1.074422422920113 -0.1385434533472645 
0.8208410866437282 -0.2792661714826079 1.073957464305632 -0.4299903127434376 -1.526241898662019 0.3406998319386818 
-1.135838919565286 1.133454667687344 0.3571271096785086 1.687946485219158 -1.064385509289248 -0.9783038337304963 
-1.676332849852892 1.529906530293721 -0.5048179747466119 -0.5467344213006916 0.7538667154212721 0.4441120001852033 
0.8200370283888302 -0.7955291577787782 -0.7666846058570019 0.2547569706857188 0.8862394900178252 -0.3988197254565766 
0.5113034950933215 -0.5314206650480134 -1.262753011167979 0.6693321127843587 -0.5140338162428574 1.127571884581185 
-1.237605851109936 1.515761369101789 -0.002341278774998558 -1.185076757027205 1.631232703726204 -0.7219701859158527 
-0.3581423732828463 -1.300306603311723 1.263907809083099 -0.5607160847041237 0.8435894240412903 0.1116678281742996 
-1.283107565903977 2.642166739734885 -1.206654595081247 -0.02935347401998851 0.1224979546611110 -0.2455490593907894 
-1.481932557365347 -0.1695595124930628 1.066679558807707 0.6014761958413377 -0.7186843501247020 0.7020206653340595 
1.646122998648162 0.4346160206235235 -0.4595797542478122 -0.1776909493962048 -1.427025975465637 -0.01644234016201056 
-0.8258423112873672 1.057944730495563 -0.08885421294328938 0.1999859940240412 0.2143077683817733 -0.5575419686707402 
0.5434909729974211 -0.6373502995634532 0.4679904847875723 0.4822741022662438 -1.926639521267558 1.070234260779772 
0.7472725389568836 -2.010737276390015 0.3911101328188775 2.616013777952126 -2.224090485775933 0.4804313124380639 
1.927719419155378 -1.694131705332338 1.208393028755271 -0.7303795317028393 -0.6134488190218351 -0.09815239185367240 
-1.408923633431964 1.001822915510079 -0.2284204628124857 -0.4779703647303682 1.163558561457409 -0.05006701599266959 
-1.130221676013387 0.1279668500494371 -1.048519273211920 1.192463953890896 -0.1958073048035442 1.054117450088469 
1.238846045462168 -0.2006506614809567 -1.386094804090986 -0.1552263590725548 0.5725028976776960 -0.06937711849539413 
-0.9534922103883410 0.3624860611077394 1.065138407318319 0.3407688398457985 -1.592073549409140 0.7771724515256191 
-0.09359227078625579 -1.655107645776289 -0.5229606834363009 1.375511060545058 0.1243523184399473 0.7717972210138221 
-0.4696393652628665 0.5105441481785914 -2.547903687060506 1.027664468902176 1.451945328400799 0.02738910684181525 
-0.2173237239511701 -0.3098855022713095 2.099433542659894 -0.2103466098721521 0.3132916938490054 -1.675169400414258 
-1.467937373455853 1.661029920448909 -0.7863101723877708 0.1118360179855435 1.266861370003428 -0.7854797625942348 
-0.4625245397850180 -0.5802669127958907 -0.8887713378771028 2.821766549564232 -0.9036344196020192 0.01343066049586570 
-0.9519678645849350 1.366215167189139 -0.5417173239899432 0.8318701779927660 -2.063277523746810 1.358877367139783 
1.619213170378234 -0.7828818500132908 -0.1546526359471678 0.1232455008900906 0.6671471197483440 -1.472071305056178 
-1.133754498989509 0.3625654209479924 -1.703949441882598 0.4021021394162455 2.094794308353814 -0.02175792784584099 
0.3475774327279991 -0.1887903709126862 -2.893554657293837 -0.3329010343551960 2.846970016186214 0.2206986136474870 
0.9769005282759922 1.091261866150350 -2.773752253993110 1.248268506508018 -0.7933443318457141 0.2506656849044330 
0.6944276748303869 -0.3997774246239267 0.7002903117171694 0.5708030402499582 -1.716711390342047 0.1509677881684880 
0.8111950931513471 -1.808279007898524 0.3331196843866511 -0.3189076629223542 -0.4757827417651372 1.458654635048004 
0.4339569610359788 1.380240960982732 -0.1609575838206715 1.191063595651312 -2.610030988732371 -0.2342729451169602 
0.4444114671591457 0.8656932404821037 -0.7801867744613542 1.296897544520131 -1.551062012893830 -0.2757534648062209 
-0.03498127881094271 -0.1670304941544673 0.7585638241112213 -0.9935607541170814 1.301865687865386 -0.8648569848941433 
-0.04246070044582569 1.589780240861677 -0.8475793987983438 -0.8180192400961683 -0.1951942958019540 0.3134733942805976 
0.06552850313227827 1.098737739216227 -0.8864100758070549 -0.8765715912458703 1.208791555346140 -0.6100761306417156 
0.2193069741936126 -0.6112062676908219 0.9892479747132804 0.8732081193504891 -1.274019126676634 -0.1965376738899376 
0.3884756367155529 -0.7485948679723566 0.7159945986505589 -2.026733676293179 1.935728197752236 -0.2648698888527808 
-1.669260825096275 2.146781735257234 -0.05837618987816574 -1.049395125793767 -0.6723173407705353 1.302567746281536 
0.9587603702054837 1.551770522086758 -1.535809171958270 -1.402251604793269 1.092863200704122 -0.6653333162448253 
-0.1880734646364453 0.8349463978740218 -1.614940710221927 0.6013866885130176 -0.5529688395219345 0.9196499279932716 
-0.7373009156659115 -0.1881506605604274 0.8786381220825568 0.9611063002711010 0.6506328888692456 -1.564925734996566 
0.8559357593720925 -0.6014043462452406 -0.04568778186860907 0.7878473224659795 0.6030582074805343 -1.599749161204713 
-0.4512970195766337 1.405669441534176 2.494114709389203 -1.047003534812649 -0.5885757148292541 -1.812907881704950 
1.520096521923357 1.027117951062455 -1.239398758336818 -0.3383049786192171 -0.4591844142455109 -0.5103263217842575 
0.2491428791966867 0.9512149157279735 -0.1545029299903696 -0.3679662489552894 0.08895405595657443 -0.7668426719355864 
0.2095969072918538 -0.7337348007631049 -2.024329151274621 0.4966355778229974 0.08761346603265374 1.964218000890202 
2.364374323519146 -2.059712317275867 2.886031646884069 -2.055507481254367 -1.031935187541162 -0.1032509843317974 
0.5968040322503482 -0.06408745044663368 -0.2094427112079614 0.0007670608755612742 0.6195846839131316 -0.9436256153844567 
-0.9042327545680068 0.6407734637226538 -2.694725052588415 0.08545060987203615 2.763140772813272 0.1095929607484611 
1.141127115810514 -0.1208353581084176 1.455722907857199 -0.4597556118619340 -0.4362138936459793 -1.580045160051380 
-0.8175407559394718 0.3067763634699067 -0.5342421837844554 -0.3639368492724252 -0.1182198981127633 1.527163323639198 
0.2286774240968909 0.3075172768355506 0.2315251736386371 -1.170380658690200 -0.3579978036144278 0.7606585877335515 
-1.962244393876886 0.1681166973508177 -0.08222125319845550 0.7874653932712771 0.8891387457816842 0.1997448106715895 
-0.5745573650556388 -0.4208915398305128 1.898697377350799 -0.1663899465886349 -0.9475119071740785 0.2106533812980489 
0.003780495286364581 2.180390329655235 -1.070685401160323 -1.601933717280344 -0.01682620403355465 0.5052744975326157 
-1.707290355416151 2.234340579300972 1.149213676672968 -0.1545517018347354 -0.4489169481324769 -1.072795250590578 
0.3888174023478206 0.5952195767625714 0.2998994017449019 -0.9791903658009239 0.3025674413192742 -0.6073134563736218 
1.312614220367409 1.205165516857380 -1.646297429496373 1.224461337681725 -0.6821822123025453 -1.413761433107598 
2.226873369593309 -0.2806158799717163 -0.3810346576214169 -0.4664855772397795 -0.7515136134594897 -0.3472236413009123 
0.8282731435727226 0.8939263033717891 0.3997677547813286 0.2329633422258971 -1.785023164785978 -0.5699073791657401 
-0.9240900694290726 -0.02089411150030857 -0.5641079190950633 1.455305115676358 -0.8784714437376027 0.9322584280856784 
0.3155497822110238 0.5004210118386590 1.450321064937538 -1.947138613669921 -0.2839774389953237 -0.03517580632194140 
1.173313283050983 -1.007135932113778 -0.4608910158942448 1.057921647587679 -1.333501140854135 0.5702931582235189 
-0.4352843371550329 1.151482416791361 -0.7582680178430903 0.1991618716074437 -0.4716539447084440 0.3145620113077688 
0.9123839362142440 -0.1234214662684506 0.1366290634158039 0.5503265662254092 -1.189127447112949 -0.2867906524740621 
2.342557126030453 -0.01735160130711455 -1.521864688991605 -0.5493546257211599 -0.6171115074009746 0.3631252973903782 
-0.4394598044888142 -1.010050389875817 1.318452780105901 -0.3788300651117473 0.02245529632086878 0.4874321830496140 
-0.8482328935411719 0.09787714721967858 1.042749542846931 0.2860364025326830 -0.6163964019602749 0.03796620290215579 
0.5054261211913209 -0.7305219613387511 0.8590468323079823 0.01458925009488784 0.1311307690150579 -0.7796710112704828 
-0.8882120523876074 -0.2124650901445554 0.6568194185120528 0.6304919313000777 1.078977597948007 -1.265611805227950 
-0.7615217857083866 1.519164642197144 -0.7773383905871144 -0.6188109457398888 0.03570144381728848 0.6028050360209318 
1.981899824329229 -1.046061174978488 1.729134795477678 0.3283118530681940 -1.296764274068251 -1.696521023828341 
0.7372341091013871 -2.438624884558917 2.078030656644704 -0.6618772542030892 -0.5517143340209880 0.8369517070368668 
-2.331184080340941 -0.2533111962386219 -0.1758241198190320 0.6882797073283959 0.7292722644396766 1.342767424630535 
0.7681999839472765 0.1877714769438073 1.557164128018234 -0.3920531461997602 -1.374806096971545 -0.7462763457380452 
