solver_type MCSVM_CS
nr_class 6
label 0 1 2 5 4 3
nr_feature 199
bias 0.000000000000000
w
-0.9670564854796221 1.973182031994805 -0.7112367363328354 -0.3284211725826175 0.6210351347078531 -0.5875027723076134 
0.6099323881068588 0.3799133490092552 -0.9627992419485520 -0.7637392835482877 0.01122303433026004 0.7254697540504769 
0.8217176647899259 -0.8382040633898531 -0.4199030481010780 0.2094239263533002 0.2027516613236311 0.02421385902406224 
-0.6082085403659342 1.128163235181632 -2.049895456900105 0.2090915030929242 -0.03300499513325391 1.353854254124753 
0.1929728780856241 -0.1189671976532326 0.1613223995481082 1.143693280343172 -0.7769755747405712 -0.6020457855831025 
-0.2804961199390922 -1.868738286366686 0.02798961289441052 0.8227767872954449 1.541766270143870 -0.2432982640279472 
-0.8183188946142308 0.9128886414531305 -0.7770546927685648 1.048510258723483 -0.9289608364693206 0.5629355236755105 
-0.4319613248020718 1.050767566522422 0.3441521142209514 -0.2911098810921896 0.01441997458134284 -0.6862684494304790 
1.215016303145366 0.1377752954937760 -0.3946005258324450 -0.4497490822738965 -0.8794406040111119 0.3709986134782911 
0.7993587968862950 -0.5908795866315368 -1.642831953563697 0.6287308939031734 0.7393881411895195 0.06623370821625740 
-0.7729192064352750 0.4646745944524670 -1.249056413169327 -0.07955610598578587 0.5904051056630497 1.046452025474863 
-0.1915350135302486 -0.04092181715173557 -0.08853784486458811 -0.4141565588246611 -0.2620672280394221 0.9972184624106544 
-1.806326710060811 -0.6841543166720563 0.9341109052899708 1.134457023253043 -0.005913883143360398 0.4278269813332025 
0.1502667998929183 -1.548634096621451 -0.3743876284692134 0.1383000890076026 0.7425433458135577 0.8919114903766076 
-2.070295167549390 -0.6900417933112014 0.8496781700452567 2.331529026748908 -0.004867885802494310 -0.4160023501310701 
0.03874885103628450 1.253894474832014 0.1351498249299970 -0.2638711236837643 -1.035953322538239 -0.1279687045762785 
0.01863434425647614 -0.7870445352629072 -1.271511019119497 0.8477326650278294 1.099398622600460 0.09278992249764427 
0.3609662064483180 -0.5208990182040786 -0.2048754870537573 0.1849464737590323 -0.1106016585008617 0.2904634835513448 
-0.2579557800955237 2.364453088467470 -0.6667244009759538 -2.038471168134009 0.9070034621139192 -0.3083052013759325 
0.5277673231234876 -0.05665913963754479 -0.6136858475364226 0.7016045947824765 -0.4366077953290652 -0.1224191354029221 
-0.9607674208305743 0.2689500427021053 -1.918328794226521 -0.1964941560233275 0.8817461382850693 1.924894190093242 
-0.5113123060465881 -0.4851246287311387 0.2806572716784441 -0.4288282410432243 0.4748842953855139 0.6697236087569935 
-1.859964513872799 -0.6124042728780514 0.3958826090375733 1.035186328582330 0.6876012673818032 0.3536985817491430 
1.039656598735489 -0.6549066961529930 -1.201382141628574 -0.09911071178983110 0.3320295532148721 0.5837133976210238 
1.436751251058986 -1.497257633546170 0.4756652358418699 0.1894349189601321 -0.7296130521850354 0.1250192798702313 
-0.6099353902537834 0.3532772291330550 -0.08307488309409525 -0.2512849948989178 -0.9591605779988794 1.550178617112618 
1.423680805719555 -0.3589655637257753 -0.7893693822063963 1.219150207358804 -1.646981788512066 0.1524857213658856 
0.4422126308604536 -1.473517289794325 0.5717366338073999 1.016416080730000 -0.9810058778627879 0.4241578222592802 
0.01364767641046519 -1.119218366377248 1.291175499287292 0.5589016753993179 0.2131633331072965 -0.9576698178271326 
0.6462650567205068 -2.514959358953308 0.1181783838189636 1.069321947246604 -0.6640488112278807 1.345242782395106 
-0.4620665001043022 0.9404615261390280 -0.7348769638526809 -0.4589622138026495 0.5615097480733818 0.1539344035472074 
-0.6016600314470660 0.1832574051334912 0.3571649198500760 0.3154113690931054 -0.2945651363327517 0.04039147370315328 
0.6178810223023040 0.7291283688863572 -1.582165800321251 -0.5755039626080986 0.4824247745698677 0.3282355971708124 
0.3867484930443157 0.4504300203060323 0.3435790500874930 -0.5118584915603850 -0.4637008370364161 -0.2051982348410422 
1.490504502763731 -2.527787574028505 0.1372860157746405 -0.9486951609040705 0.8855412060968134 0.9631510102973738 
-0.2163981257489668 -1.190604406353452 0.4187476935102394 0.4005982014735189 0.6581538154444430 -0.07049717832574219 
0.5035736219606103 1.688899553963680 -0.2885723594983490 -1.198821866904701 -0.6192935642607483 -0.08578538526049051 
0.5179064676955404 -0.8290952310715696 -0.08564939897489926 0.8699492434119052 0.09047400649559788 -0.5635850875565585 
0.01721511198035246 -0.1243804267765782 -0.2680976958812571 0.8530132192321804 -0.1666575002763807 -0.3110927082783165 
0.3354616133306806 1.645524363239554 -0.1141842622861036 0.4697874313883462 -0.4039753279440548 -1.932613817728424 
-0.3310755497856225 -0.1586782626700499 0.1511824390052818 0.3089135517974804 -0.0009322806828846044 0.03059010233578164 
0.7949117351062985 -0.2857870394135700 0.8899977385271237 -0.5073488723401023 -0.9309704835402662 0.03919692166050717 
-0.6988109265810643 -0.1990990247285554 1.209680910751405 0.4971764908683365 -0.4594637581891882 -0.3494836921209266 
-1.065479645790201 1.027182944803168 0.3943705820738539 -0.5878783184653286 0.4316880093526208 -0.1998835719741187 
-0.5464909251209997 -0.5181875485225756 -1.179679233904199 0.9242572858388088 0.7511499356032936 0.5689504861056379 
0.3711258292925809 -0.3566685868446807 -0.1095516418843579 0.9842734392800195 -0.6529012125764532 -0.2362778272671034 
-0.1601314901009624 1.062532139630249 0.1409534596873339 -0.7572557995803914 -0.03665500409178772 -0.2494433055444365 
1.387573292148298 1.323970146943743 0.1715730611047829 -0.3764028741144547 -1.151685713675437 -1.355027912406944 
0.6865478052754196 -0.2126234500354055 0.3364474269984685 -0.5959251388365947 0.2959888507667056 -0.5104354941685911 
-0.4023241143874581 0.2642524402728856 -0.1344489926609253 -0.2031263836976632 1.228810338317683 -0.7531632878445063 
1.270482668136254 -0.1431362575313946 -0.3152976750114544 -0.2419486312033073 -0.4173169573352024 -0.1527831470548715 
-0.3722972335555851 1.108566116570454 0.01069441891625132 -0.7959643683459898 0.5048622083954756 -0.4558611419806045 
-0.9504621616081919 0.2897700020961222 -0.6232938646537571 1.622098813800290 -0.8699464123484425 0.5318336227139737 
-0.8459642339087825 1.895816667219900 -1.123993768106084 -0.7989148887228117 0.5626520438526939 0.3104041796650963 
-0.6517519733645047 -1.823613317670278 0.3957609005318301 1.267083816142626 0.5276133192987352 0.2849072550615894 
0.7204920848830576 -0.8041213971667753 -0.2247461084036865 -1.291384729186369 2.257874518060782 -0.6581143681870418 
0.05550698296403499 -0.9163518521092500 0.4500510389455569 1.147514361566761 0.2030892598705167 -0.9398097912376145 
-0.2880767709102385 -1.337863023388999 1.793931950959478 0.3346729730924090 -1.018276815009957 0.5156116852573135 
-0.5236530899845934 -0.4885177523433100 2.377205593592846 0.1486066768275504 -1.086782825529621 -0.4268586025628742 
0.8076452521841458 0.9713115401333049 -1.437951588989724 -1.302252448606491 0.02296588816142561 0.9382813571173372 
-0.05095063672914637 -0.2645984504398073 1.628614536603037 -0.1106513348161266 -0.8284020159832716 -0.3740120986346724 
-0.7561433691483431 0.2239999118566875 1.113584760739888 0.2734357245518430 0.3184050262339320 -1.173282054234011 
-2.288116246082578 -0.5123922340721175 -0.6534697949972675 0.7687959065687550 2.535214132495206 0.1499682360879939 
1.034110370494340 0.9206832366661398 -0.4018258503347921 -1.372912178818269 -0.3462593231117012 0.1662037451042756 
-0.3104287501183222 -2.118182118383872 1.435469024991819 1.043838714422730 0.1537427744725463 -0.2044396453849048 
-0.3832501478509576 0.9924500846715070 -0.5049997926882095 -0.4594842410119646 0.5509832722061714 -0.1956991753265477 
-0.4219176491829549 -2.148466085651356 1.322181432464533 0.3002801396857675 1.364823883097196 -0.4169017204132051 
0.01848761796337222 -0.5818747607495960 0.5796789652434896 -0.2084697972617902 -0.5696382332915179 0.7618162080960419 
-0.2792904157284034 1.092826546057675 -0.2320457952072819 -2.028363105251894 1.213815913037934 0.2330568570919585 
-0.3029509138870021 0.2063771133084750 0.6447948694240659 -1.598995441314127 1.082355519657153 -0.03158114718856249 
-1.332365098248201 -0.6740571783685668 -0.5982129113704555 1.132690200004545 0.7127623492201550 0.7591826387625105 
0.5367472164048848 0.3146105811792726 1.081040701313349 -0.4346904134924461 -1.486068109608760 -0.01163997579630731 
-0.05818340985020671 -1.078896876846363 -0.05488180046700928 0.7980664739989336 0.5499304538051926 -0.1560348406405449 
0.6833675891610373 -0.8369196870237304 0.7970074983557770 0.6054651180182756 -0.06157726223933093 -1.187343256272024 
-0.3244877389129807 -0.1439699488269244 -0.8538306025079926 -0.6097832778501248 1.157270651726007 0.7748009163720234 
-0.2832022959563934 -0.08605774650855477 -1.325773429040224 0.8862195588104772 0.7823355618515658 0.02647835084312259 
-0.1771225625548600 0.1274816804888729 0.9171570775699284 0.7594778047844313 -1.077831895207195 -0.5491621050811849 
-0.04955802129312240 -0.5806514749356108 -0.7730569049704955 2.159539176667216 -0.5101590009285494 -0.2461137745394283 
0.6983830240329363 1.944354991935032 -0.8863602744894246 -0.5173659825126516 -0.2007552885453741 -1.038256470420534 
0.7435828221475564 1.860696753354546 0.2968548448441759 -2.725777989283109 -0.9323834816110015 0.7570270505478494 
-0.6730438338005362 0.3834829702939443 0.5207353411246223 0.6672631175365872 -1.302551804000236 0.4041142088456286 
0.6185649824475616 -0.6204748847038504 0.7613058172236734 1.170726172153090 -1.431748777797372 -0.4983733093230988 
0.5692560482276444 1.145089243114427 -0.3900720340688655 -0.5490423395696850 0.007812295305990084 -0.7830432130095222 
-0.4698782914609835 -0.003973448127315864 0.8690735981934746 -0.7088878514428980 -0.5061877747412261 0.8198537675789619 
0.08397351031962379 -0.5948238042828552 0.04783156312807652 0.4319560688983288 -0.04023671295981643 0.07129937489664509 
-0.2569674209527284 -0.002965840814999105 0.3020496486891225 -0.3413876596174945 0.6462457617972978 -0.3469744891011916 
-0.2952875517355419 0.4531552159693687 1.158338123463941 -0.8230076214054433 -1.294533298439632 0.8013351321473043 
0.8466828558088992 0.4180209342978249 -1.335965708238178 -0.5247936920363815 0.9421969435534557 -0.3461413333856238 
0.3001308465325700 -1.782695645130837 0.8996672172985418 0.3517204947040077 -0.3564634229942084 0.5876405095899156 
0.3694718260862225 0.3785744634516208 0.4632416051843039 -1.457512976438706 -0.2108569463067929 0.4570820280233417 
0.7703255377046899 -1.713997861418681 0.3262308474463157 0.3914311617703596 0.5103965811156365 -0.2843862666183121 
-0.0005939102934423804 -0.6139340587783061 -0.1587187991415661 -0.05746896142522632 0.9186080527301379 -0.08789232309159076 
-0.2571247432883961 0.7191272926875407 0.8781559158128597 -0.4584701330319887 -0.6425131816307068 -0.2391751505493022 
-0.7461357402586449 1.479828049001515 -0.1062209375215742 1.947572121387369 -1.823146689718733 -0.7518968028899328 
0.7725914845245121 0.06135725091597027 -0.05250389267853879 -0.9988980196403456 -0.2923451588319419 0.5097983357103527 
1.117537119547712 -1.489907547588669 -0.3095574232519833 1.487599031325198 0.3159733247626652 -1.121644504794922 
-0.8499211577247148 0.2928533250733222 0.1647127918480641 -0.09542604899538337 -0.6887265971261154 1.176507686924809 
0.06371832242793113 0.07635165160447609 -0.03114562425465782 -1.191249225288666 0.3445642972155885 0.7377605782953187 
0.4689850463597240 0.5293054083022104 -0.2817281850119913 -0.2140398799561668 -0.01747441144309818 -0.4850479782506880 
1.202044254742556 -0.1541201871416620 -0.3399329318559712 0.8111912114533192 -1.152230311420266 -0.3669520357779658 
0.5762209848060971 -1.289301212538347 1.208890629152137 1.014162710608357 -1.138889659802207 -0.3710834522260307 
-0.6861116479330999 2.053741035580301 0.9786398891393873 -1.455093534934039 -0.5412420746176740 -0.3499336672348866 
-0.5386988328617675 1.244384657924560 -1.452985542992456 1.124498772727690 -0.09934180144618461 -0.2778572533518554 
-0.5548363977211445 0.3823961546780721 0.1318308372078987 0.1306427111565331 -0.5591572064755979 0.4691239011542591 
-0.1150450508850950 -0.9478800134779622 0.5685696336907686 -0.7835439413048627 0.3815387468044128 0.8963606251727510 
-0.06732098212588858 -0.3114007282146088 0.3684433994086699 1.784421291844879 -1.018781407336829 -0.7553615735762366 
-0.2912842560986888 -0.6802450538641740 0.4516530735534987 -0.3573497166283405 1.026256233379352 -0.1490302803416430 
0.9840085971021432 -0.2993808464375392 0.4633513839312805 0.8089144329614483 -1.068304626905825 -0.8885889406514876 
-1.345938093352355 1.271207477492905 0.8652853302335541 -0.2428637154132178 0.4619177887136590 -1.009608787674561 
-0.5113821547167341 -0.8139731681833969 -0.3441993540524559 0.7870386425184742 0.2466770464081343 0.6358389880259764 
-0.3351786344412440 0.7376390729345377 -0.9423288393840251 -0.2398772897655228 0.2143251860292678 0.5654205046269968 
0.06437829470698528 -0.2988290813951289 0.4200893190148610 -0.4046482990755684 0.1412675434008668 0.07774222334799540 
-0.8425322474946414 0.3843503121284363 0.8946160500516369 -0.6110722546295047 1.206721712236641 -1.032083572292580 
0.4665428028432918 0.9129904434997971 -0.1129280689036528 -0.2676074346055341 -0.7830613503115207 -0.2159363925223795 
-0.9937989503781542 1.251278031706149 0.9670551285631332 -0.7988549729611674 0.2512336312059778 -0.6769128681359431 
-0.9911766141712957 1.246363326281716 -0.3554773048638205 -0.1428285954003372 -0.2013086929464955 0.4444278811002390 
-1.511079967580614 0.8858414822114591 1.188680661844971 -0.3721147465194069 0.6402425626611584 -0.8315699926175214 
0.3419987373379094 1.119190982229147 -0.1249677664264589 -0.8680693815309009 -0.1369299706942105 -0.3312226009154854 
-0.1199604095975415 -0.04008736453241903 0.3523288277025103 -0.6195114596877836 0.7868494564863996 -0.3596190503711608 
-0.6806859840752961 0.06429579725035607 -0.5938389422123270 0.06381597398494175 0.7628523993263269 0.3835607557259907 
1.094965189984402 0.4215850471962728 -0.7692875997993971 -0.4137550325528122 -0.2525767520083375 -0.08093085282012083 
-0.7160747227424463 -0.9234132227004207 0.7075345125296493 -0.01671592023673504 0.6225432997447017 0.3261260534052456 
0.7683116162183624 -0.9070190177767029 -0.2047816161457100 1.822201517313372 -0.6529940570635570 -0.8257184425457557 
0.3173821754017645 0.1760313258778571 0.2058086179250684 -0.05521553650425059 -0.4901507423243497 -0.1538558403760814 
1.177816700028066 0.5107426013876222 0.3665889877319276 -1.071326727123088 -0.2936042015961112 -0.6902173604283970 
0.4810560302143059 -0.1524096213007581 -1.148478303882196 -0.6532848535720673 0.007803073401702560 1.465313675138987 
0.8181289155110487 -1.144596748031161 1.298664176823821 -0.3757333581001072 -0.7234115141439812 0.1269485279403615 
-0.5502997354177275 -0.7030770115496839 0.9190468415951034 -0.1750919340558534 -0.1563786287214797 0.6658004681496451 
-0.4498965161927686 -0.3155592748381387 -1.095752976899183 1.255175806059514 1.045999237152214 -0.4399662752816401 
-0.3972385959872896 -1.252250573767967 -0.09837809633042438 -0.8059184028305753 1.258622162323559 1.295163506592694 
-0.3499065821661752 -1.315405426026834 0.1069811560221247 0.7935161061165764 0.6379907134625763 0.1268240325917230 
1.349519614866677 0.7314970731023352 -1.123550618094192 0.09595615647227815 -0.5159861120374880 -0.5374361143096020 
-0.2241430224681427 0.4112731122700366 -0.1563137017040238 0.01981224806147027 -0.1349295671514466 0.08430093099209872 
-0.1793066240768487 -0.2893433372861303 0.07444991981663052 0.6264912915784946 0.1737036141354992 -0.4059948641676388 
0.3688571264839878 -0.1814265778797476 -0.6868131503134619 -0.1230074971583818 -0.2021384942023914 0.8245285930699945 
0.6226095934225483 0.4743971660366623 0.1794779672066202 -0.5010287882478053 0.02289561612336806 -0.7983515545414027 
-0.8259017416166136 2.340980898189977 -1.534746604707188 -0.2654024102380894 -0.3212879799617326 0.6063578383336734 
0.05499820560286408 0.9525285785977229 -1.805279284633176 -1.499817656623085 1.421892418142814 0.8756777389128840 
0.9070669347590832 -0.03264564795179982 -1.397443199933955 0.2537594426976153 -0.2021191364952293 0.4713816069242969 
0.8150036539312894 1.544677071297773 0.1447864984303924 -0.5884572836627129 -1.441231301486892 -0.4747786385098368 
-0.8094208586387737 1.736488342083476 -0.7643165753147532 -0.05567025814420759 -0.2373135313439855 0.1302328813582360 
0.3445440037715862 0.9757282109950735 -0.1036619663199886 -0.009342631317027998 -0.6149375041818744 -0.5923301129477789 
0.1435970037011367 2.197827206264623 -0.8688030113401913 -0.8584661851048645 0.1200166213995595 -0.7341716349202598 
-1.259780500456603 -0.04402778665853878 0.4794347957288314 0.2863200785926575 0.8040176909613853 -0.2659642781677070 
-0.3650848654974818 -3.009324364835059 0.4938957229688848 0.9146487033203940 1.135383435440287 0.8304813686029571 
0.5679625606026645 -0.2400529376344172 -0.06323951106874870 -0.5097447125131132 0.9914731542939421 -0.7463985536803156 
-0.6745835699566446 -0.9587480801453678 0.3349434039399338 0.4934706723327823 1.005133182923952 -0.2002156090946529 
-0.2239781258345941 -1.296851818349697 0.1849222187090686 -0.5029559738141001 1.408726481794528 0.4301372174947814 
0.1083474065374226 -0.7245758643617578 0.1627146327550213 0.1051361381600947 0.1286482227577736 0.2197294641514430 
-0.3672794961952193 -0.4377876197698607 0.08689095969783919 0.3384988874839121 0.7052698953382052 -0.3255926265548762 
-1.765193028166987 -1.146220946212574 1.207076300225259 2.431904313894240 0.2445017124816919 -0.9720683522216241 
0.6308314864910112 -2.194449430530495 0.3345481729791178 1.791120938185124 -0.01618437500248586 -0.5458667921223005 
-0.9501395445261616 -1.753312959828386 2.336030657341036 -0.5459376001784454 1.034506033915961 -0.1211465867239938 
1.434699405029077 1.463830800657561 0.3479905253581088 -1.681175439448486 -1.028325855678884 -0.5370194359173763 
-0.6321400949492931 2.769921961024910 -0.7968676587498534 -1.764135700039942 0.7379066735418358 -0.3146851808276435 
1.198407656456501 0.7529196211945085 -0.7136458606016078 -2.365335394839258 0.6987546248992734 0.4288993528905977 
-0.3496259566679683 -1.318801906322005 0.3389265357706724 0.4096670278830038 1.157056684908890 -0.2372223855726123 
0.1297336814407003 0.3046278808227523 1.108279453436750 -0.5631303002553458 -0.5870993100969095 -0.3924114053479572 
0.7739676276600055 -2.103783986107648 1.032965607479119 0.5708088748403997 0.2038812252490861 -0.4778393491209766 
1.550557869927266 -0.1194309135482706 0.3980005791894530 1.511813982821784 -1.700514833327203 -1.640426685063031 
0.7523152070398089 1.073010313873724 -0.02716382322754632 -1.850997835893529 -0.5595722558344093 0.6124083940419729 
-0.2369615949527983 -0.8472243033289310 -0.09314359162718573 0.7799688861582689 0.5879221660055400 -0.1905615622548962 
-0.8709342467961476 -0.5324459247359379 -0.07075038742452826 1.183901781460599 -0.7008301954260441 0.9910589729220468 
-0.9918386508014149 -1.151462860037086 2.054268916961194 -0.1911397034487277 -0.6818349875530025 0.9620072848790390 
0.1621715912410781 -1.971733347846104 0.8228207172071472 0.2344736416111528 0.9615901874887527 -0.2093227897020329 
-0.9609604848044513 0.5739554744996394 -1.261716257033100 0.1558918170556309 0.7595009456924802 0.7333285045897959 
0.03123102123242623 1.855569663527938 -1.607077898455312 -0.07474693043109287 0.02945883075055765 -0.2344346866245071 
-0.5722715525516233 1.452580527986426 0.05775941399357904 -0.2921111955222631 -0.4105782717761605 -0.2353789221299689 
0.1984153303368668 -0.9919892077352832 0.5813675961866278 -1.720223124670373 1.565978065455624 0.3664513404265472 
-0.6104064346599044 -0.4542705002098172 0.1425332640121683 1.235403600743030 -0.07786455774514937 -0.2353953721403220 
0.4179887271291746 -1.713080726145499 -0.02727775928347145 -0.1477306226357109 0.1898389699871067 1.280261410948410 
0.5136642740920977 3.115821439768514 -2.117978428754665 0.004103038656443400 -1.233108191462887 -0.2825021322994865 
0.6879218425527548 -1.138132718528068 -0.7477404558858541 0.2397107250743550 -0.1231323858184060 1.081372992605208 
-1.052391258966510 -0.9108661925129293 0.3026548776254152 2.493585704086029 -0.8393488767839812 0.006365746551993193 
1.443891389498358 0.6178402400999166 -0.08610615317285447 -0.1902758361034283 -0.5750098807414514 -1.210339759580543 
0.5260794076689060 0.1123257779960890 -0.1294617075900275 0.3244653469131670 -1.524047800397217 0.6906389754090700 
1.586145803597666 1.115847793378400 0.7372243263206769 -1.129306940598007 -2.564231794397595 0.2543208116988849 
-1.068766738938122 -0.5163387286925877 -0.4304052820036555 0.5267148986411392 0.3242591747178300 1.164536676275406 
0.03767489213009135 1.118123108579656 -0.6786235707640765 -0.5502911903215166 0.4226726740903700 -0.3495559137144966 
0.1102994208744487 -0.2282725291524040 0.3270538456136494 -1.119197432365489 0.2346330596573254 0.6754836353724768 
-1.615798266759835 2.687065235233745 0.08084052696096848 -1.771812325198946 0.01186616931834443 0.6078386604457213 
-0.3241210449859898 -0.2920869097966673 0.2661298149763842 -0.5744386320667818 0.5695640278069157 0.3549527440661410 
0.5390159165034168 -0.8306017296649008 0.5212184953947320 0.5920822985110055 -0.3016377156022671 -0.5200772651420019 
0.6778466962326012 -1.287198399058529 -0.9260292537471434 0.4746631383536041 1.268006311781234 -0.2072884935617484 
-0.6321627089037245 -0.4496528690901380 0.3387157856515005 0.3626627244848951 0.4738420328602827 -0.09340496500281406 
0.2202593131544816 1.379613885294116 0.3109414066040707 -1.888915670686346 -0.04906361330614736 0.02716467893981671 
0.4722455140569195 -0.2047257367259062 0.5909585119160512 -0.2849462705170856 -0.9610157369958169 0.3874837182658460 
0.4791105913268129 -1.074091108500440 -0.5702466296754954 -0.1980154776265962 0.1481547377010411 1.215087886774676 
-0.4568948226440773 -1.393681431660692 0.3198943284577578 0.2925469855854305 -0.1654450934762605 1.403580033737874 
0.06548528834908755 0.2636953820109235 -0.4408568300291425 0.2690891672191351 -0.5660747001167503 0.4086616925667457 
0.02699455100584198 -0.9932043067376092 1.139358212554043 -0.3832529560184012 0.1612753193101670 0.04882917988595286 
1.149404846718351 1.691263182601520 -0.4564576753534385 -1.563448704112461 -1.096713786807037 0.2759521369530412 
0.04620843569546667 0.2043915469222158 -0.6202414095407839 -0.5580783699453129 0.4751525553354739 0.4525672415329370 
-0.2252486048585528 -0.04494662834310066 -1.135544735149177 0.07340383951750529 1.354149692185831 -0.02181356335250895 
-0.4230513556812692 0.06955895202365292 0.6039552622395700 -0.6007361894850140 -0.4603132161871799 0.8105865470902246 
0.3019942487806969 0.7147789840762020 -0.2029141095791328 0.09960751968426972 -1.221937719651234 0.3084710766892004 
1.111892683037794 0.2813544023582542 0.08696465245294155 0.4109482381733681 -0.2844122297311555 -1.606747746291212 
0.2174789702328452 1.015830864678802 -0.1551550107177645 -0.3601288026092833 -0.5351770325663839 -0.1828489890182018 
-2.284180814367534 -0.2767116185944898 1.161312635395852 -0.6789086162498400 1.832137059471680 0.2463513543443464 
0.5657854214546740 -1.731759516058703 -0.09814246367788064 0.6894620441863757 0.4078223435688088 0.1668321705267191 
