solver_type MCSVM_CS
nr_class 6
label 0 2 1 3 4 5
nr_feature 199
bias 0.000000000000000
w
-1.723567163422026 0.5771855043836934 0.8383315584328470 -0.8546195297934446 1.341487012401438 -0.1788173820025337 
-0.07649973177766047 -0.05807627028781751 0.8303369634058763 1.213766822993883 -0.7525770917476352 -1.156950692586623 
0.7632962646881988 -1.286177810924202 -2.126164279749348 0.3579943683330042 -0.2199522512839921 2.511003708936337 
0.3940840834324109 -0.6538266430686038 -0.6557800559703334 0.1529206309114915 0.2749482489525768 0.4876537357424726 
-0.8901237290659690 0.3002038942432166 -0.4660551678358684 -0.2137273486154982 0.07617660431311400 1.193525746961018 
-0.1652714570096818 1.336175089707216 -0.2533033167623333 -1.056156249976287 1.101014777643294 -0.9624588436022119 
1.689352075829506 -2.773643319227439 2.114740836994321 -0.6055086595062676 -0.3883855532538498 -0.03655538083630549 
0.1628187522596196 0.7813807862115529 -0.6275627273820241 0.7233737867852301 -0.5907625848135970 -0.4492480130607852 
0.5695401348006639 -2.088989573649823 -1.205417784491187 0.6756046976592180 0.8691208907900456 1.180141634891049 
-0.6755303788675286 1.457477017433499 -1.370282791751691 -0.04189177248285878 0.4762574860440355 0.1539704396245739 
-1.309244729851264 1.612726153386539 -1.901175595144398 -0.9228698200529791 1.396126149559627 1.124437842102431 
1.588343576791340 -1.139059460036285 -1.468902810622395 0.6255448540146674 -0.1987456360099664 0.5928194758626639 
-2.214128304275305 2.911640167111963 -1.155742500329553 -0.3788550574468029 -0.8768302058167494 1.713915900756406 
0.7552728818731441 -1.011183398397176 1.587031299814392 0.2975076989869082 0.09766839278456500 -1.726296875061864 
-0.8252700912596224 1.361689439211681 -0.1549143818866889 -0.8046291103652587 0.4097223415815489 0.01340180271837926 
0.6100647446123721 -0.07831942901303861 0.7011504495721462 -0.9154933121728718 -0.6289610495961958 0.3115585965976096 
1.394685095802738 -0.2907680010214654 1.909422711523456 -1.263659875576456 -1.103359829651159 -0.6463201010770836 
0.5970943749050198 -0.6815860547987188 -0.2942078281444834 0.5138972380167255 -0.5808191442675857 0.4456214142890492 
0.06807912322704397 -0.4141898257621337 -0.02449170020103312 0.1989355455166636 0.7150872741209213 -0.5434204169014646 
-0.03267295538544854 2.063630213222680 0.1294609409065399 -0.4270107508971140 -1.826968499362945 0.09356105151628205 
0.0002160066585258939 -0.4886175455214603 -0.8236360538517128 0.3978101931387704 0.6273825723685925 0.2868448272072898 
0.3951451152056989 1.486809134822293 -2.175046341140032 -0.3299260178885444 0.03454583751148004 0.5884722714890879 
-1.385323445833957 -0.3707739652718339 -0.1139724345447853 -1.086244862244076 1.631694968618775 1.324619739275855 
-0.2700390965951626 0.1320382685350651 -0.9291772084771543 0.008804495474444032 -0.4779541319095054 1.536327672972297 
-1.305679328989468 1.469178697026688 -0.7737371540112071 0.2030249078996813 -0.01772317710440828 0.4249360551787274 
-0.5109435794646893 -0.9720632570769265 0.1786776741136113 1.256231706242905 1.903056565794751 -1.854959109609585 
1.724611938603604 -0.1304322526818338 -1.032981937739124 0.4938261350871563 -2.340242327122815 1.285218443853016 
-0.3660847098422080 1.033919845446111 -1.140165931882692 0.5141239280507554 -0.2358300834536762 0.1940369516816910 
0.3397651302350003 -1.821939636407449 1.965527061730755 0.5975753999126648 0.2398621956377252 -1.320790151108700 
1.004488549857566 1.263117346913197 -3.156297409805102 0.4034264218449652 -0.2661994676868619 0.7514645588763182 
0.4357277455648316 -0.02049166099263196 1.387842543556053 -0.2139115162105435 -0.06377653798936510 -1.525390573928318 
-1.248081111560112 1.061242212016291 2.359673925527075 -0.7620289374629406 -1.952239922558758 0.5414338340384091 
1.167281026962556 -1.990867796533766 1.505458752607987 0.6029747133236250 -1.689321972468897 0.4044752761085452 
-2.642784954963757 -0.2096028607309400 0.09867516774457773 0.8456628751270032 1.024693316099238 0.8833564567238200 
1.437124340916242 0.6029976211026910 -1.890561999081555 -0.5932577684599335 0.03980761695036636 0.4038901885721875 
-2.520187359869410 1.226747685847667 1.138642603193297 -0.6094341921214868 1.502758049595665 -0.7385267866457154 
0.9196227425005232 -0.7147237915508593 1.515633578078755 -0.7194639738933333 -0.06775953913785310 -0.9333090159972052 
-0.6036142373940906 -1.059438901950413 -0.8818538233876615 0.5057901130174879 0.4879595534809583 1.551157296233709 
0.6650299435763259 -0.2730930073786557 0.4915430346980014 0.007744565963923939 -0.9743988724823317 0.08317433562274762 
0.5659762564139745 0.03899479044884053 0.2982756279343833 -0.5624426349341468 -0.2951492205424952 -0.04565481932054624 
-0.3418417453275692 1.212195113882602 1.452040373123069 0.4917952898905191 -1.483420645380138 -1.330768386188498 
1.792292237418407 -0.06703373926753210 -0.1548463977437746 -0.9584643273405247 0.3752755025975109 -0.9872232756641015 
-1.014602676106273 -0.6646792229490199 0.3599309038761319 0.7608139265360251 0.5029722637954230 0.05556480484772897 
-1.113108888932698 1.452431248067018 -2.007338561251873 -0.9977855124824045 1.421873420363389 1.243928294236588 
-1.238652680144206 -1.861318025476802 -1.233656264587927 1.255533761157107 2.134381260305045 0.9437119487467538 
0.8021905953332839 -1.827590031482541 1.080597074288767 -0.08619650491039010 1.223341913211382 -1.192343046440449 
-1.610026337936093 1.109785591276073 2.631013825719065 0.6452858493511852 -1.113710976935523 -1.662347951474727 
1.160821818451961 -0.3650314146891480 0.7508493522449355 0.1423498575112803 -1.133069264927967 -0.5559203485910648 
0.3570434166264755 -1.359185753464580 1.064430890449896 0.8188334630389498 0.05445313690802960 -0.9355751535587717 
1.086078815208311 -0.4124960606940086 -0.2375219585693681 -0.2452786006788914 -0.7083581083355827 0.5175759130695617 
1.710370502148186 0.1999726171572520 -1.756398853914674 1.658558925444309 -2.045231407815354 0.2327282169803007 
-1.304600227103264 -0.3935634140726746 1.369665898346711 -0.08710424622116435 1.469004695771217 -1.053402706720788 
1.446106260193153 -2.440406604931527 -1.570566372058656 0.8925937099384987 -0.8985597352608897 2.570832742119459 
-0.4117330080563131 -0.6176095886205143 1.291042326080892 -0.3174726159296413 0.09573879930391363 -0.03996591277833717 
0.4044421459416316 0.5001889864957508 -0.5911947444029436 -0.2807625517474721 -0.5229982308194110 0.4903243945324550 
-0.6242297718117049 1.710040286168594 -1.004749702776864 -1.246748321737706 1.504779413527745 -0.3390919033700626 
1.688080171135594 -0.8071659943905650 -1.229855919385719 0.4493481424906105 -1.819915636827618 1.719509236977770 
0.6903049274096595 -0.4424015664080515 1.057372171077664 -0.3483068403855847 -1.584322487942211 0.6273537962485225 
-0.6362027267093018 -0.3350555764411327 -0.3918467626369454 1.020691643182694 -0.2173933953447127 0.5598068179494192 
-0.1480849086728386 -0.2778579659082454 0.8944570009071771 1.085519262387602 -0.3242095686219240 -1.229823820091711 
-0.01803452067140115 1.621076482957448 -1.556134945653141 -2.237335581789866 1.730794078482214 0.4596344866747389 
-0.6479326120847232 0.4323507246525884 0.7458499703524125 -2.009971239590191 1.560659988001917 -0.08095683133199150 
0.3443208506714451 0.9079092814148150 -1.647689796135269 -0.2413087856677567 1.102101283774653 -0.4653328340579324 
0.6776411855758006 -1.996935234522551 0.1842377825791384 0.1677712191360566 0.6284857809076986 0.3387992663238315 
-2.340651382317447 1.549784337736317 0.1352894415223994 -0.2423456447217724 1.789613876326452 -0.8916906285459543 
-1.659274633418296 -0.2961085591752357 0.9950372328206807 0.7112811236951445 0.2546234801807144 -0.005558644103058395 
-0.6887364506474783 1.458499913949428 -2.080970496448920 0.3616407110800399 0.9977472295347877 -0.04818090746793145 
-1.180019557801153 0.6629727592372497 -0.3227126551919671 0.4043382174458877 0.1947998996806157 0.2406213366294060 
0.6290652704650938 2.904852854444386 0.5470917732122428 -0.6734016087347525 -1.825723498970344 -1.581884790416621 
1.135386009876220 -1.395309423649976 1.453239034890927 0.2629545018396994 0.07263583482334073 -1.528905957780230 
-1.054170580068580 0.01013475110823593 -0.01524351809082928 -0.7276637161863215 2.128371596521374 -0.3414285332837921 
0.5583577624956895 -0.007014907350415447 -0.3704370573923398 -1.121018355676357 0.8105689415382058 0.1295436163852463 
0.8596367174728503 -1.237611314377561 1.170366617652515 0.3550013523337191 -0.4299496233141186 -0.7174437497674194 
1.112794424864532 -0.009852184900229818 0.03932577950308091 -0.6456032673751004 -1.162858066170830 0.6661933140785870 
-0.04523831162333751 -0.3574836675748714 -0.5706124870099143 0.2399854368334536 -0.02525883082995360 0.7586078602046280 
-0.5518907705159428 1.489928981940642 -0.6537599153086974 -2.383210546692976 -0.5588929169904617 2.657825167567388 
-0.07409843734246532 0.7009645689582747 -1.166172708802401 0.1603299089501896 -0.6584040866467608 1.037380754883149 
-0.2300105790730626 0.6765840966901481 -1.225655216796001 -1.411940082143050 0.7277256816016531 1.463296099720305 
0.3765956964386961 -0.8047647656994957 -1.742814536473084 -0.7050633303678151 2.522999245745259 0.3530476903563982 
-1.052788583194458 0.7579664163164462 -0.8460576656544899 -0.2693709126111252 0.3478288493045163 1.062421895839112 
-1.369907304885500 1.287646852382985 1.484009839147016 -0.7259843611865655 1.594203240391692 -2.269968265849614 
1.343328345001804 0.01158754214952541 0.2485118892023324 -1.063479569934307 -0.8177000350083188 0.2777518285889874 
0.6064907996280848 -1.147861417688852 0.6769887175721525 0.6465350508447935 0.2568226650984392 -1.038975815454606 
-0.7574240176504508 -1.091557863410408 1.558007826712909 0.5006079371554031 -1.062298813581438 0.8526649307740358 
1.072097298676631 -0.6084106428381612 0.1613655954015834 0.6416610453640804 -1.652169123184280 0.3854558265801307 
0.4845671000294280 -2.092452257254887 1.077804697781067 0.5050695054047878 1.074233692857909 -1.049222738818334 
1.293333822073792 -0.6710330072625269 0.09667645771504510 1.188259560376446 -1.818195205676478 -0.08904162722633312 
-0.3653602023752057 -0.7043506378396001 -0.6299037337179999 0.4211506180961650 1.440240801686883 -0.1617768458502210 
0.2071567147209979 -1.450320788197663 -0.8527830893487957 1.043467349095695 -2.353014530884829 3.405494344614482 
2.626704078858745 0.4405972468778781 -1.921901188978375 -0.9472884591009343 -0.3809738479390584 0.1828621702817435 
-0.4872866090942395 -0.2270489323425388 -0.6510278536517746 -1.498753814089419 1.519114799870484 1.345002409307494 
-1.557207480025880 -2.097744580305520 1.534019020938505 0.6504284142394980 2.043072908346457 -0.5725682831930040 
0.9551191717419111 0.8238123931983435 2.459124150493871 -1.503676825362612 -2.029050894844194 -0.7053279952272893 
-0.3795622525564274 0.1965111509083380 1.265774176156493 -0.08931540615098432 -0.8990032605295432 -0.09440440782780625 
0.2144252947212328 1.977140885252911 -1.645658336447395 -0.6125325961066355 -1.554347512169959 1.620972264749908 
-0.4713974737736028 -0.09816696319324995 -1.998937382121368 0.8787491206121958 0.4886317907409521 1.201120907735088 
-1.113041801255149 0.7621098164050517 -0.8935173266855100 2.587467945354880 -0.8417315936805125 -0.5012870401386986 
-1.425451193939887 1.315473168757629 1.257953034025005 -0.2237083254805516 -1.068272660294285 0.1440059769321151 
-0.5107361585594355 -0.3478512670349017 1.341384731326132 -0.006000060804059356 0.9842311308498372 -1.461028375777593 
1.824222181684785 -3.579452205080269 1.678435629416726 -0.6219888838237818 -0.1103107554871353 0.8090940332897000 
-0.6417419337799828 1.618803982268912 -1.014577043439511 -0.9366157018784323 -0.3397425911102964 1.313873287939313 
-0.7851279574897382 0.08803794035476496 -0.3670380969289674 -0.007692377185612836 0.9389414406510578 0.1328790505985061 
-0.5062364071615082 -0.2673452411490127 1.384922031860576 -1.301654321179746 -0.6273962611645529 1.317710198794264 
0.6056436070537753 0.06344794493456492 -0.4770002768459670 0.09361311842323960 0.02203469436487739 -0.3077390879305053 
-1.388206367513773 -0.5351664702002552 -0.3337357466483614 1.597826788095714 -0.8279665747589533 1.487248371025623 
-1.144622937855037 0.4594734750863327 -0.2056249833961293 0.6518724969044242 -1.447805872692545 1.686707821952937 
0.09878363197770641 -0.5416863778712558 0.06670829664895142 0.3030749229386949 1.322423140705876 -1.249303614399959 
3.653231788156787 -0.2987082951516074 -1.135413652336290 -1.283789241126912 0.1696534870492940 -1.104974086591291 
0.4981036328471815 -0.3546565027360047 1.043213560607896 0.6624014742583865 -0.6009409458573765 -1.248121219120092 
1.043826048686025 -0.5990532447913490 -0.5732761845917849 0.2715234169696360 0.6046943442394531 -0.7477143805120169 
-0.6512288489628701 -2.407476159352251 0.3517260278138987 0.9187210459627332 -0.01236011154540125 1.800618046083890 
-1.603811662627207 2.138272741697111 -1.067498337923458 -0.1886066225150583 0.8584284618807971 -0.1367845805121747 
1.999592435593894 -0.4117490951022076 0.9334018040192423 -1.171376487912973 -0.3705286089428851 -0.9793400476550536 
0.6550213887296280 -1.622049668842374 -1.175697435948679 0.5092008758821005 0.08949528322884114 1.544029556950468 
-0.8646067556288731 0.5052067782901483 1.303797464546390 1.907564678649124 -2.483975381180223 -0.3679867846766379 
0.8335064280208938 -1.610718127101406 0.7381548986744530 -0.7462974717455351 0.3736899592398871 0.4116643129116952 
-0.8006572931195841 0.1897086130251990 1.878051568172175 0.4316416132943112 -0.4720076342540608 -1.226736867118062 
0.2480356955726931 -0.8032045408223099 0.8548909313935976 0.3121262306755018 0.5760770096973060 -1.187925326516758 
0.1347724321773962 -0.2536431517219558 0.1538505399179665 0.1786723569846380 0.3399173190494501 -0.5535694964074968 
-1.516160839382591 -0.4074565755522562 0.5745244794755602 0.1947676579270627 0.8005222624565599 0.3538030150756715 
0.7381887823139579 -0.5260653291273125 0.6713983479367743 -1.270494879534876 0.4543812926294186 -0.06740821421793625 
-2.568444395926388 0.6660760498442967 -0.1472708430487458 1.760443225489644 1.990574496366132 -1.701378532724937 
0.1463744421883744 -0.1359690285245218 -0.7948945948320127 -0.8465179014042742 -0.4030708166003040 2.034077899172763 
2.345172274088630 0.9990411393852453 1.235946888171169 -0.6034395840089289 -2.882629243876020 -1.094091473760111 
-0.2957615194222740 0.8147627000268897 -0.7653089518190942 1.525104819187577 -0.4404421504961361 -0.8383548974769230 
1.156710857987572 -0.5396402485353784 0.04294772131179618 0.3990354833443220 0.2240951461959796 -1.283148960304301 
-1.119177739995163 1.402131425754774 0.1166793865103085 -0.1341320169829098 1.430454956112171 -1.695956011399200 
-1.531672113751682 0.6300514260188826 0.2060030900022289 0.5015395414678353 0.1284563678539908 0.06562168840878088 
0.7363750656885913 -0.8882099388284419 0.001197704643215850 -0.2473089927350322 0.3123627546001252 0.08558340663156565 
0.5619832108288368 -0.04352412403992626 -0.6306037320896820 0.8762406465372004 -0.03574695258236967 -0.7283490486540647 
0.09081896924701596 1.586241325849653 -0.9607916027362141 -0.9300824462843615 -1.249682572305926 1.463496326229813 
-0.1285809153262956 0.2624726883123922 0.5748430104594627 0.1465567398131875 -1.174073746329505 0.3187822230707703 
-1.616640666146157 2.204391274303692 -0.6076480367439634 0.4187562210926878 -1.148496064616573 0.7496372721103700 
-0.4712468569082466 -0.4650420229583986 1.536403186601992 0.4004155247441070 0.1952904524063688 -1.195820283885828 
0.5026955570537528 0.2790661952986531 0.9639115204337250 0.1534487317026788 0.7039642519161092 -2.603086256404962 
-2.421030146211403 3.755179413911431 -1.471054515861912 -0.6263741706442594 1.481402448426384 -0.7181230296201293 
-0.5622017496688565 -0.8970125488023520 1.978828503146536 -0.2702105390225257 0.4287539557786254 -0.6781576214313720 
0.4922590765274538 -1.403838876585997 0.2741238578618860 0.5500569503388746 1.300971664764522 -1.213572672906725 
2.533662251346073 -1.544425430778321 0.9749287833527020 0.07168038919966008 -1.453509640465648 -0.5823363526545151 
-1.877900930239591 0.9506282208322860 0.8030464774207036 -0.1836391869395518 -0.3552682548544870 0.6631336737806636 
-1.112815444736503 -0.3920006839715184 0.1716191876438189 1.355596834934955 0.2943574311316288 -0.3167573250024167 
0.3995333134684999 -0.1684505873638056 -0.6509116474647957 -0.2671941922167547 -0.5021988223612486 1.189221935938086 
-0.9762513309487113 -0.09765665623465296 0.5272001796510648 1.738246224185963 0.1365623054510608 -1.328100722104698 
-0.6679950150336976 -0.5282246567743183 -2.046192222106585 0.4450345136367633 2.883685100034960 -0.08630771975712184 
-0.8498526419372556 1.416344333318514 -1.265664107415675 -1.634855824133352 1.577819027434380 0.7562092127334394 
-2.206294396443089 -0.8255458059194628 2.046368488810488 -0.6281447856687321 1.255247779398153 0.3583687198226633 
-1.042025512346235 0.5104927536903381 -0.1895399541683115 0.1540989741704928 1.091973019692307 -0.5249992810385968 
0.1463966807343458 -1.018035258753967 0.4709710872970417 0.2181412746123778 2.156700055189549 -1.974173839079382 
0.2157287476057316 0.8976423149604130 -0.5283115169991645 0.6678155091481875 -0.3111085412003595 -0.9417665135147920 
1.942013613753585 -0.07193049597050473 -1.963948076618122 -0.4649554081828405 -0.2441038981610773 0.8029242651789774 
-1.454367571456384 -0.3225077670018792 -1.508495130606582 0.3419548545236664 1.582384189867082 1.361031424674124 
0.3890541347874606 0.8649050830053783 -2.990772010655338 -0.1910103738859276 1.100031786862036 0.8277913798865029 
0.3599634261730356 0.8419823289230975 -1.884890025182428 0.1860518366952193 -0.02761886424724390 0.5245112976383155 
0.9512242929821189 0.7828133740625120 0.6588020562371143 -0.5462455364011908 -0.8561772001392551 -0.9904169867413056 
0.4982867248787177 -1.313632683003607 0.03080967154843610 1.236931809415370 0.2028450264183671 -0.6552405492572899 
0.5337682510748616 0.1133612735264743 0.4861086706136323 0.3345262231412073 0.3402274736955468 -1.807991892051717 
0.1030859524292637 -1.665910028479928 1.706315102796277 0.8344084440920785 1.467024390931593 -2.444923861769266 
0.3551869918866444 1.047652654127429 0.07415805220474044 -0.1242731593819956 -1.692090930202389 0.3393663913655565 
0.2333721716867211 1.403573781373596 -2.701642679226120 0.5965398773647576 -1.023532418943751 1.491689267744792 
0.8656059201438885 1.278879370013368 -0.9994135967020978 0.08385213372872846 -1.259471082740088 0.03054725555618217 
-0.2381362420113300 0.2900044269722905 2.461269890924747 -0.6998240926781515 -0.8651705470131945 -0.9481434361943055 
-0.06217838875418247 -0.7625665312347023 1.251623174041377 -0.5484502784350350 -1.051333603417896 1.172905627800446 
-1.549370139557222 2.299805124387811 -0.6534697154184378 1.173717395975732 -1.171246498526533 -0.09943616686135347 
1.812783883051946 0.09821602136955836 -2.450263940171372 0.8646236171002806 -1.502266629625636 1.176907048275159 
-0.9241115773415605 1.312760524065614 -1.631040267403038 0.2006292272973478 1.203170721165438 -0.1614086277837872 
-1.177912561904338 -0.1113619204781796 1.121987300800699 -1.283379443974448 1.200992585694487 0.2496740398617540 
1.148456758630074 -0.9064802011236955 1.048083676968153 -1.672614732468909 0.1488695553510500 0.2336849426432824 
0.4820372002513524 0.3621806037520050 3.339314502342903 -1.798393446286235 -0.4140153512654838 -1.971123508794489 
1.304932933370767 0.3251513465123716 -1.920669181053576 -0.1784923563050267 0.1795168657919898 0.2895603916834861 
0.2959279748834616 0.7570164992602730 -0.08258550996647249 -1.297495517980651 0.3438623146811058 -0.01672576087771951 
-0.1666156680791906 -1.355100252390183 -2.113769124852926 2.304252501730292 1.473107646021019 -0.1418751024290461 
0.7148943401887261 -0.5479742880625813 0.7910118370465824 0.3436659592972950 -1.637773017558692 0.3361751690886547 
0.1095284304945785 0.7769756555008107 -1.937940512992187 0.1182286205717185 0.2908182688495491 0.6423895375755090 
0.2283335785023339 1.348599248759847 -2.087308953436663 -0.8645634590082890 -0.5478074958548572 1.922747081037670 
0.4109177488122182 0.7348842748441026 -0.4152109932796875 -0.7065049475030482 -0.9114134462072064 0.8873273633336202 
-0.07820054560409992 0.6554699925980878 -0.5998023810246297 1.373242303139759 -1.256144725865170 -0.09456464324388521 
1.127097541482234 -1.066439904862857 0.9047427235497254 0.2307260459209817 -1.183539279281835 -0.01258712680824274 
-2.548931088892981 -0.5149768948503688 -0.6790518133088687 0.7099994878022206 2.037885150069441 0.9950751591805832 
-0.9226798519436055 -1.007985081293348 0.4329404279129708 0.6444535094745609 1.469730516742499 -0.6164595208930931 
1.327530908582852 1.875099593209612 -1.744853024584848 0.5637025914189622 -1.726414982443265 -0.2950650861832659 
-0.06385221937029235 1.559527791130361 0.1768604585056220 0.04930692643572133 -0.4727216621920813 -1.249121294509306 
-0.7521689528959032 1.418524395348862 -1.524981393424570 -0.02247588905125885 1.030616194144109 -0.1495143541212569 
0.3924924606544106 0.3802452514004784 0.4916000374509825 -0.7188061499012799 1.125429767061262 -1.670961366665808 
0.01810712599785055 0.6228492851642806 -1.614583936566151 -0.4251438459290737 0.9942385608823776 0.4045328104507059 
0.4112519914031655 0.8342274667170944 0.1364326534222554 -0.5547198099612255 -0.1003060480356917 -0.7268862535456044 
0.07095653251632557 -0.3695875243857161 0.5005283934108512 -0.3058038333751292 1.855523958432506 -1.751617526598844 
-0.4432157613956699 0.3958638282476432 1.552030272787335 0.5882034002099796 -1.014973786539216 -1.077907953310046 
-0.2662922220623170 -0.3139570059480723 1.113261961725813 0.4106879831463192 -0.02875593142819907 -0.9149447854335793 
0.09816048836775851 1.489311517431653 0.04836559436969744 0.3719258443737785 0.6777684090752155 -2.685531853618172 
0.5221254606086388 0.02163414995889669 1.570223293254226 -0.9319834247038020 0.3052294560527286 -1.487228935170663 
1.300736901860005 0.2563751849752663 -1.835752101187745 0.6897397661547523 -0.9608801801185675 0.5497804283162943 
-0.08459819407970245 -0.5638133009444042 0.003295874525536703 0.7657800773534416 -1.414408631119884 1.293744174265022 
-1.138140785746341 1.375354841054875 0.4594603247766322 0.2552104634238254 -0.4232223649502777 -0.5286624785587368 
1.032420291135134 -2.212520711800832 1.291743663820612 -1.404213361109629 -0.4482611254585172 1.740831243413219 
-0.4502728256452267 -0.6443310753647148 1.071770281299516 -0.6182717766475002 0.4394161805706898 0.2016892157872543 
-0.7247331981918557 1.413821154917348 -1.677938264625723 0.4632856002954481 -0.9319390807870379 1.457503788391849 
1.845646593880950 -1.968683456902596 2.147074541270229 -1.098314468662031 -0.1083243973390794 -0.8173988122475054 
1.353922108077416 -2.203980252919759 1.846146810343391 -0.3029242798404424 -0.04893782705546525 -0.6442265586052003 
-0.8760417731538008 0.6536628889745242 -0.4481773937788145 0.1208638333539072 -0.9223180882747662 1.472010532878956 
0.4374182189440739 0.5223216948871912 1.535692400314167 -0.4042315975412512 -1.661590240519385 -0.4296104760848367 
