solver_type MCSVM_CS
nr_class 6
label 1 0 2 5 4 3
nr_feature 199
bias 0.000000000000000
w
1.890847317960587 -1.974543929617112 -0.7019630713700529 -0.2472837362717965 0.9811631430335465 0.05178027626483484 
-0.5297391932207365 -1.306450281058036 0.2983316772620543 0.9283855669389971 0.06238625242871627 0.5470859776489966 
-0.6555046988314986 0.7726725084255697 -0.9108886623978734 1.370212983399505 -0.4308119819135193 -0.1456801486821799 
0.9802773127282353 -0.1011842395000427 -0.9488497751413789 0.1989770723418792 -1.365333273672766 1.236112903244059 
-0.02327173596958487 1.129763212057641 0.5283133345433242 0.2922025907017025 -0.8327588998044034 -1.094248501528680 
0.03497280452958185 -0.9987103746072631 -0.4169099854968162 -0.003644396746215767 1.752866121018782 -0.3685741686980782 
1.472598313389161 0.4423917284872048 -0.8953040173759530 -0.5804117497185101 -1.087899218836216 0.6486249440543252 
-0.1387090868457891 -0.8679106628242814 -0.05429356711080094 0.8333640488247219 0.4952015648538686 -0.2676522968977116 
-1.655336866456963 1.033946798903885 0.5904394714731229 1.252338163260268 -0.8811113782170131 -0.3402761889633002 
-1.758092288657829 0.5374547335997938 -0.5563092129236268 0.5381653691423979 0.9902360834727908 0.2485453153664758 
0.3575117691519653 -0.5840955396150185 -0.4789597107641901 0.2335207865293358 -0.1803797723511471 0.6524024670490504 
0.09229051066540848 -0.8292147481803402 -0.6590356170480007 0.8642292445340775 -0.2307140143304264 0.7624446243592820 
0.1250127266573101 -1.428403104381376 0.1841448478464107 0.2784049977819229 0.2028902726487322 0.6379502594470108 
-0.9544191572659465 -0.4747824969007989 -0.04593147566065970 0.1410968958887318 0.6041764696184787 0.7298597643201995 
-0.01144510071519352 -1.066434596355642 -0.3282793651725667 1.388595414655794 0.2984366664722579 -0.2808730188846551 
0.4836020374320758 1.366338655860912 -0.04115657418218450 -0.1936180769760934 -1.534575140700124 -0.08059090143459623 
-0.6559024861544307 0.4651168528776346 -0.5268698111529784 1.116560295767592 -0.9096203179345359 0.5107154665967268 
-0.2367109473753533 0.1834989192644518 0.1772942114561545 -0.05495917692230384 -0.3239566436215826 0.2548336371986369 
1.570139145920852 0.5862805897707043 -0.5910157180794761 -1.375378527288874 -0.07262820952651722 -0.1173972807966938 
0.6609837061210398 0.8442803384542508 -0.1073877969289831 -0.3171329976142646 -0.6441070685806978 -0.4366361814513413 
0.6529074594388065 -0.5750339105325853 -0.8650835896424124 -0.6519425333753573 0.5521661039599135 0.8869864701516322 
-0.6929218065572608 -0.1228654821106336 0.3842806404297826 -0.1582439040095043 0.2360920874737984 0.3536584647738134 
-1.188336995961106 -0.6613010483479033 0.9463918817535643 1.303549738929502 -0.6240735884736720 0.2237700120996319 
-1.333098629471782 0.9996436356579578 -0.5012498914167393 0.1147048076188234 -0.004937077901712814 0.7249371555134520 
-2.275383873032730 1.053219367328885 0.7984335366842288 0.8059435278296332 -0.6701556301902379 0.2879430713802088 
-0.6722273625149834 0.2262988877363078 0.03152344688795953 -0.6385008038332116 -0.08366230071877273 1.136568132442700 
-0.4443177165201408 0.7000850571051415 -0.3778820308325837 0.6674504669773269 -0.4747096554268308 -0.07062612130291585 
-0.3154346887632086 -0.1640243027894343 0.6269448963887184 0.7870376975767580 -1.090596611938713 0.1560730095258930 
0.07628791639488386 -1.008023048018482 0.9557599678529088 0.1925763252225007 0.2059255041432848 -0.4225266655950903 
-1.329973278634829 0.2391779133070293 -1.020964209296819 1.469583965691698 -0.3932186902093718 1.035394299142282 
-0.2577973002676661 0.3223552574395817 -0.1817097146112553 -0.9107511826630923 0.6762707004175782 0.3516322396848458 
0.4626446269727264 -0.5967251461980620 0.8094445397388659 -0.4582382108167699 -0.4227413473366683 0.2056155376399171 
-1.166577426933204 0.4443336484768500 0.2710627472674606 0.2801969984168815 -0.1538361482727238 0.3248201810447525 
0.3340473718458306 0.1191288462427426 -0.8002040859160499 0.2716113970695058 0.1894015936708364 -0.1139851229128596 
-3.250942010387656 1.098494868945618 0.07412239145225943 0.2309948755990777 1.087468082059092 0.7598617923316201 
-0.9056465974220208 -0.7739761450528284 0.1539290100819511 0.4327999777570794 1.637838747723220 -0.5449449930873957 
0.8760239474278715 0.2238422683046266 -0.2373627314290528 -0.4836928360433812 -0.4414107227568809 0.06260007449682177 
-1.253136741304139 0.02655943215099411 -0.07180068007493304 0.6926315347789088 0.4065729189295144 0.1991735355196356 
0.5738317781342069 0.3064541341245186 -0.8596313250455144 0.1062796248411858 -0.4597986853354728 0.3328644732810727 
1.797800492748966 0.2713631156434894 -0.1666321823173260 -0.1783983365199067 -0.7426770413295270 -0.9814560482257043 
-0.2689580646966893 -0.6687924105874895 0.4439411325868652 0.8707016501797629 -0.1471443549518512 -0.2297479525306022 
-0.5639428688174838 0.9181032468408036 0.1509278493357243 -0.09545797611569697 -0.4220237644097237 0.01239351316637635 
0.9998078975936745 0.05993198201759647 0.6782519782636109 -0.3706878606950774 -0.5070123496092227 -0.8602916475705995 
0.4319779462555837 0.3042549766106097 0.2793022844281482 -0.4228144103962320 -0.1630940363576726 -0.4296267605404326 
-0.3659283212846158 0.4013801930582774 -0.1824827638508570 0.5938531428211790 -0.1387177994513693 -0.3081044512926104 
0.3675294670191702 0.8086825796298429 -0.4767664535862987 0.5419099057370748 -0.7450630929207658 -0.4962924058790242 
0.8298128096631971 -0.2884840947321383 0.1864173570966667 -0.6139719698052240 0.2799798157319626 -0.3937539179544562 
1.591700418602708 1.078945712581102 0.3622126315404431 -1.145384384753521 -0.9036210626871962 -0.9838533152835589 
-1.069454664815466 -0.1304324465633444 0.04389842791683417 0.8280078712738828 0.5829862921879948 -0.2550054799999049 
-0.6679726778414975 0.6795526751052204 0.1884464477779908 -1.050596850803785 1.180979660428838 -0.3304092546667643 
-0.4821249177086564 0.7385448885064738 -0.5169556367475180 -0.2593340701332881 0.02766772646366333 0.4922020096193270 
0.4200292738901649 -1.037079059511083 0.1040740377861442 -0.7391681557084845 0.9986982430088858 0.2534456605343762 
0.2929097843835342 -0.6988357991024607 -0.3462339106287907 2.441566432258949 -1.263443880782670 -0.4259626261285522 
0.3535164938806057 -0.4767892019267409 0.2663071854298183 0.2712311931147173 0.1903379026407460 -0.6046035731391408 
-1.917581945690833 -0.9667924207861112 0.8165026928174934 1.585396393393316 0.5234248350065961 -0.04094955474046640 
0.1519171963508716 0.9123416757314726 -1.687675474725044 -1.468048845184924 2.139333565409603 -0.04786811758196735 
-0.7659543827441057 -0.6455896680487279 0.7497695690234906 0.8261951427897876 -0.04488589091261702 -0.1195347701078399 
-1.793537165120828 -0.1962857608571998 1.706773821637783 0.8058407897506510 -0.9781032648249502 0.4553115794145462 
0.1369699799670762 -0.1673645334349388 0.9491359161705027 -0.2269738743346495 -0.8272484343302388 0.1354809459622400 
1.083087040594720 -0.1344710195391264 -0.9226620284477971 -0.7793054526934685 0.4208173508953274 0.3325341091903475 
0.01751819251373133 -0.1192347626997119 0.3288499494449859 -0.1902686601691325 0.2204231758337003 -0.2572878949235704 
0.1452042914490579 0.3075318189475843 -0.2105600176383700 0.1936766237586732 -0.1417947956027705 -0.2940579209141723 
-0.6016418565420635 -1.785603830329074 -0.2074805679073942 0.6861661566620041 1.411287243471803 0.4972728546447449 
0.3998971863947565 -0.03848817598888376 0.2170614443230562 -0.5955770661197847 -0.1946128811616133 0.2117194925524677 
-0.5574994107714755 -0.1864410595755255 1.681603655373706 -0.3036409319236734 -0.3611264198958886 -0.2728958332071503 
0.1352708085306560 -0.4554144864727774 0.2165051659904027 -0.9181013582431394 1.263582689887761 -0.2418428196928988 
-1.972124929840892 -0.6986922426606609 1.191916842006656 0.1058121057167216 1.353605796235141 0.01948242854306136 
-0.2269388823777525 0.3373322436966563 0.7778095627897925 -0.5330208635368759 -0.2470791923746405 -0.1081028681971794 
2.140698247531012 0.4832591893358268 -1.428980040248588 -1.772411452907456 0.3510561739237210 0.2263778823654754 
1.097223662374484 -0.5285662915207283 0.7426991331010747 -1.523958577042436 0.7525367507865904 -0.5399346776989885 
-0.9937599167837281 -0.6784278789595637 -0.1040994394355293 0.8659661151344445 0.6345413887682907 0.2757797312760865 
0.2066472109918137 0.9684094610225668 0.6586266950370799 -0.006415819107706347 -1.353068817628733 -0.4741987303150254 
-0.6701569797852373 0.4353698422016754 0.4623080508064429 0.2574605259864362 0.3598295575304991 -0.8448109967398080 
0.08095203509103288 1.412392372408564 -0.1166946134545247 1.187992462106695 -1.568536465088075 -0.9961057910637138 
-0.1170334290587966 -0.8010001833780060 -0.5002075637209152 -0.08326622027497178 0.6532221503923402 0.8482852460403653 
1.163204540254567 -0.2307706731908791 -0.5627278338479926 -0.5001236023016874 0.5336281615422368 -0.4032105924562407 
0.05479356630759386 0.6558221313792623 0.2961342167604382 0.8486677736444070 -0.8942453459909814 -0.9611723421007105 
-0.1389742114009845 0.2668721486992959 -0.7699761726076265 1.176942081929969 -0.6914256523168922 0.1565618056962361 
1.327778378025649 0.8945810183834652 -0.3949843459882899 -2.068355621700733 0.5445329522519669 -0.3035523809720425 
1.348521519087861 1.790290767335348 -0.5674629798044764 -2.718119333490318 -0.5277425012720675 0.6745125281436546 
0.9194920860283159 -0.2908776241275394 0.2165704073469882 -0.4502098825808634 -0.7691216138648806 0.3741466271979745 
-0.6938229125091325 0.3073133221113926 1.127841081602779 0.6064934189926116 -0.7168620952182391 -0.6309628149794014 
0.07327461341341224 0.4047831216882361 0.5304814011739574 -0.3424508139304230 -0.1198132161794536 -0.5462751061657265 
0.5260721126557306 0.03717178632404782 0.3238316234213203 -0.3310113392488785 -0.7086892650718762 0.1526250819196544 
-0.01318631904431074 -0.6596145469554442 -0.8982600268818485 0.07356243375385396 0.8781526028965720 0.6193458562311738 
0.6752150520802900 -0.2547692042446259 -0.1873529183535506 -0.5631026641971768 0.6763827974046899 -0.3463730626896193 
1.066243070923215 -0.09286061656444960 0.8688448114618935 -0.6587946967232969 -0.8866197161691233 -0.2968128529282336 
0.2836641976688020 0.1429036520565536 -0.6157349075287920 -0.09357466425082087 0.5957146602764887 -0.3129729382222222 
-1.475229758907627 0.3664179371740889 0.07240336794215049 0.2270900978446442 -0.1471396107167375 0.9564579666634784 
-0.1667285377598782 -0.4408660608436265 0.4554432643959885 -0.5017782685350654 0.3336173614100521 0.3203122413325326 
-0.5477899689987265 0.7398682349500504 -0.2119357335197914 0.1752526589408466 -0.4475690199501788 0.2921738285778015 
-1.086921737929626 -0.1333949916457342 -0.4706164188362378 0.1749605342003710 1.426285116761594 0.08968749744964323 
1.372028266590026 -0.08238000690424946 0.2232161147221604 -0.5131962519248195 -0.5380194997057854 -0.4616486227773315 
1.283188575585575 -0.7291211790895260 0.5511357477054649 0.1269327576343147 -0.4143522078248468 -0.8177836940109664 
-0.5119057212645132 -0.02203526413016889 0.3224363243662592 -0.4371170224550292 0.07391146689578941 0.5747102165876637 
-1.758336938399735 -0.6497773345267835 0.7468801164954437 1.137362697215145 0.4221422056416958 0.1017292535742360 
0.8524430617693676 -0.5292499043087160 -0.4307673396471248 -0.4136160316141139 -0.6841523273714363 1.205342541172013 
0.6624894497772162 -0.02413217859638725 0.2321762193729064 -1.222085851906655 -0.2718559014507281 0.6234082628036537 
0.1354868215805312 0.1323053478664921 0.5095028945716840 -1.021577596822227 0.3170485539530812 -0.07276602114955451 
-0.2066413074327255 1.240911985193142 0.1750489549711772 0.5661178717315017 -1.149312475818169 -0.6261250286449130 
-0.09254382633943743 1.575760204882658 0.4817451721914602 -0.07686647165976176 -1.340495650094227 -0.5475994289807142 
1.220165049550477 -0.9604885441363386 0.9927728893603144 -1.001224208912729 0.05226230925485951 -0.3034874951165648 
1.004417098646967 -0.7150271163098880 -0.5532152011554635 1.323324827685585 -0.8774784300201641 -0.1820211788470394 
0.9248790428339547 0.6934709475306537 0.7025955862266272 -0.1338910261155326 -1.814789538207216 -0.3722650122684796 
-0.5688793808980378 0.2120167147083404 -0.1522957112427963 0.2528284145950442 0.1141122670244303 0.1422176958130242 
-0.03726302574897015 -0.9063642962947531 0.5592180808227603 1.473458356058057 -0.2094875653763907 -0.8795615494607082 
-0.1783873076888339 -0.5488237984822841 0.6116784942567106 -1.458294139277512 1.444181952615573 0.1296447985763510 
0.2232567969534623 0.9948793663294757 -0.2402280346255849 0.6111329428115490 -1.392794870714194 -0.1962462007546972 
1.007688136806684 -0.7099813617628490 1.310017868068524 -0.8472776895795023 0.1068482745530181 -0.8672952280858700 
0.5314324047157072 -0.09993121669244995 -1.121007854291709 0.5478637907362502 0.1449647657253206 -0.003321890193138661 
1.761095749056861 -0.1744682493069477 -1.594797791970766 -1.215391455136798 0.9838180843454801 0.2397436630121614 
0.6693081432154990 -0.4024647462249407 0.1559112792972796 -0.1917719051919548 -0.2775995573087152 0.04661678621283649 
-0.7755787735831242 -0.5507291025860972 0.9849364762088858 -0.2721642725957313 1.238436201978558 -0.6249005294224763 
0.5146529750009617 -0.04133855075061096 -0.3651249431491749 0.02233380399043980 -0.9905649274264985 0.8600416423348759 
0.9980941527204409 -0.4511682516547552 0.4855730294451028 -0.9312211603892223 -0.3620023818020058 0.2607246116804550 
1.239785652208435 -1.040928281520705 0.1012716230062310 -0.8095494381750613 -0.04170231183350973 0.5511227563146042 
0.2775406762306815 -1.317975880699875 0.9071156453292847 -0.3043960571122477 1.047235007527822 -0.6095193912756774 
1.756021376481055 -1.226113132954859 0.07979755454783993 -0.4350213643652506 -0.1634556780152124 -0.01122875569358479 
-1.098553205124852 0.06603299464886411 0.8888271837946725 -0.1417848251967550 0.07975805137946795 0.2057198004986067 
0.3166905491307921 0.4123738559555230 -0.03459334365761568 0.05599158523440298 -0.3636265552424692 -0.3868360914206257 
-1.305967414900077 0.2173719092601318 -0.1023514635984251 -0.01292095508519335 0.5942881469779735 0.6095797773455831 
0.1653018774295645 -0.6292983707941743 -0.1132051919345099 0.07582770839958720 0.7534732412777208 -0.2520992643781888 
-0.8689727470953145 -0.2168758497361797 0.3787525760705174 0.2384188592590168 -0.02977044605220261 0.4984476075541628 
0.3793430997582420 0.05373723506434609 0.5739903838387285 -0.8367143931984018 0.005673346489676372 -0.1760296719525875 
-0.2263197800615407 0.7850121800197262 0.5363968334369283 -0.6101774979159964 0.1390401955115063 -0.6239519309906199 
-1.589658373691030 0.7017570350525868 -1.123826972325674 0.1811055042016428 0.6012406161845015 1.229382190577963 
-0.1208878401149904 0.4830799409798004 0.1043650771776816 0.2546768493053656 -0.7993252504889913 0.07809122314113020 
-0.04367078189656544 0.4707805367341155 0.2363748858736922 -1.320063595643630 0.2651967791159248 0.3913821758164491 
0.2398525465218211 0.7068856758496637 -1.346790309423019 0.09797999326151757 0.009752456986288592 0.2923196368037304 
-0.1991531177503623 0.2555610850001132 -0.7249427599615220 -0.9178192684874538 1.045537629520115 0.5408164316791123 
-1.219703211320572 -1.013595551049178 0.3946005394629949 1.255023716518555 0.5036782650829376 0.07999624130527946 
0.03384283740486890 1.150705463532492 -0.3897658412911319 0.04714269254256717 -0.6350111089439500 -0.2069140432448697 
-0.004406115602293644 0.3549518681634935 0.06312466096593326 -0.5296002249463772 0.6599383206721436 -0.5440085092529001 
-0.7949959250753018 -0.3446736632549026 -0.3150951187916981 0.9390323968654349 0.3189502313993350 0.1967820788571351 
0.7848498090878299 0.8195488858785659 -1.189279614399585 -0.6999114878345590 0.06080002191404022 0.2239923853536957 
0.6354266067874751 -0.6791993277468090 0.1231673779513127 0.1779884296664470 0.2478922431292263 -0.5052753297876453 
1.559131517838485 -0.5073373549406687 -0.8684362549334668 0.06065635942703088 -0.5189981486962522 0.2749838813048668 
1.157292809745374 -0.7231953605335457 -1.165988960905678 -1.061464417994064 1.102979180724479 0.6903767489634424 
-1.237038349689636 0.1707586172650349 -0.3279759468539713 0.9204215956171679 0.8733010710537678 -0.3994669873923583 
-0.08581290717473344 0.7776241105346776 0.5992535446742094 0.9308827785806450 -1.825580693115035 -0.3963668334997785 
0.5083656146673021 0.07741490812375117 -1.170192215832782 0.1201759440434320 -0.1796091835319584 0.6438449325302590 
0.7004179568613906 -0.3995086819819779 0.2915869154113208 0.5396596807638285 -0.3852117022282954 -0.7469441688262779 
2.452510966483878 -0.5338610444732976 -1.030515193164062 -0.4626040603248181 -0.2455233471541637 -0.1800073213675524 
0.6402746732237404 -1.132949186229548 -0.009581492954310072 -0.6539539600382754 1.399066628240377 -0.2428566622419838 
-2.528863112690030 -0.2750905920505612 0.7764122455324521 0.3696516050661527 1.305797499442020 0.3520923546999744 
0.03306484468978143 0.6279166951764594 0.3613682458967053 -0.1932053708551453 0.4316195357901438 -1.260763950697932 
-0.1683243257283165 0.05747966414661226 0.3947777011264412 -0.3045317479531878 0.9660735914735060 -0.9454748830650489 
-0.6129227941762246 -0.1179009067285339 0.1054209748852682 0.01489623446177424 0.5383626906138642 0.07214380094385488 
-0.2353565082184371 -0.1271476956786006 -0.09635250165837789 -0.5722466084365562 0.4959648312262622 0.5351384827657202 
0.01634516471256258 -0.8120743090498201 0.3210854503926615 0.1795301980842627 0.7843986472276022 -0.4892851513672662 
-1.500994045972136 -0.9251981121152146 1.775221507459847 1.768591975813506 -0.3672733485892343 -0.7503479765967815 
-0.9657366202933512 1.259448409976840 -0.1088533497494535 0.9429593167643451 -0.6537660978137315 -0.4740516588846409 
-1.137201650117787 -0.2924613897611269 1.056365280416176 -0.2633616778338602 0.4263627958694753 0.2102966414271248 
0.9081409883793277 -0.4016178382588796 -0.3796669027359899 -0.6078562374845313 0.1964518671282195 0.2845481229718521 
1.162320611806758 0.3495015112633689 -0.9457839302835039 -0.1006181563226905 0.07935942701031277 -0.5447794634742477 
1.420561841729295 0.04164658192943713 -1.379459575662092 -1.563288660960853 1.323578731118915 0.1569610818453000 
-1.454345705881040 -0.4418288047303111 0.4943730583010493 0.3441695544792858 1.179188796976023 -0.1215568991450307 
0.7108634093858491 0.8584737713793821 0.1909289749289833 -0.7035122398779368 -1.171381074930611 0.1146271591143217 
-2.743226617286991 -0.3845087366762901 2.232084384767673 0.07400566629386960 0.1268215839542442 0.6948237189474539 
-0.5653480515967441 1.292936858563649 0.2797556588096705 1.062889550665257 -0.8568414940089227 -1.213392522432910 
0.3552760723896629 0.9508942051838001 -0.1654886689690814 -1.573694393203681 0.3564989065987363 0.07651387800055547 
-0.5457563804895099 0.003215622324263808 -0.1916233497443990 0.3429582974490011 0.05503788183868630 0.3361679286219604 
-0.04585587383604920 -0.01107219116031548 -0.1994285725631832 0.7557420106405549 -0.6789503274714749 0.1795649543904773 
-0.2650972024444986 -0.2029700815069664 0.7721621220199021 -0.6774885469092125 0.07270254094032162 0.3006911679004492 
-0.6928010500079073 -0.3882481448503539 6.263618426789272e-05 -0.4761197979880377 1.417527969310149 0.1395783873518757 
-0.6405936352078424 -0.3218042976220908 -1.178969907396189 0.1482600482587229 1.137587123261132 0.8555206687062620 
1.070023267067756 0.3685379095466647 -1.614176875611626 0.001802190164540786 -0.09547721789534251 0.2692907267280136 
1.196658739664730 -0.8660618410739928 0.2601262790368653 0.6046872886579159 -0.9562009876124488 -0.2392094786730667 
-0.6166852709605379 0.7404508347595617 -0.02188615426604953 -1.485595370311011 1.398268632595946 -0.01455267181790800 
-0.5274668175682377 -0.4675679357046868 0.4063238461239074 1.511415259209601 0.1750316551722547 -1.097736007232832 
0.03309402549043848 -0.5971047789993149 -0.2778202058866503 0.7019077609788547 -0.5290419564347304 0.6689651548514093 
2.917176442084885 0.3266897107563500 -2.012822425318962 -0.04447995717285067 -0.8364063362523747 -0.3501574340970646 
-1.051018741991410 0.7399327329335645 -0.5946780958390670 1.245668213637067 -0.9513519843931143 0.6114478756529869 
-1.977975958546604 -1.018231057203924 0.5091043325761043 1.785480453901733 0.4274152357212320 0.2742069935514679 
0.07349844650525880 0.3966829023917445 0.2572497205195743 0.4149188192881149 -0.2370229204456137 -0.9053269682590810 
-0.6270316365876324 0.3636718145566582 -0.5456367942707100 0.8447737725736576 -0.4272388768495892 0.3914617205776197 
-0.1142296798891645 0.8862717179137406 1.479408711535965 -1.434229926097790 -1.027041935596365 0.2098211121336343 
-1.134356427531789 -0.9164930398108011 0.9888639452753120 1.697936104401872 -0.3496030662809830 -0.2863475160536110 
-0.02632177377736260 -0.6537495868333050 -0.1206733047197576 0.9494058157900211 -0.2656990784150708 0.1170379279554811 
-0.05377004413956851 -0.2484406889772457 0.1608056550447768 -1.021939147211643 0.2319342111744653 0.9314100141092091 
1.604592738725920 0.1914925941542715 -0.1675933579508282 -0.6095769762368809 -1.006370572473184 -0.01254442621928759 
1.461981839939477 -0.4282947716805858 -0.9744308631380174 -0.06096402217450183 0.2464366076754558 -0.2447287906218373 
-1.499911373020987 -0.1637100621510231 1.133130400505762 0.1650260366793436 -0.4049915371296928 0.7704565351165897 
-0.6672641526346462 -0.4657688143293348 -0.8842897477745052 0.2115801438087324 1.062126236422167 0.7436163345075788 
0.4297588703383695 -0.4303601864974907 0.2351286348520775 -0.5662082193693324 0.9217755899766286 -0.5900946893002480 
0.4903188275360232 0.3441752205816018 0.07938077082793947 -1.838687962513778 0.4077030677492094 0.5171100758189968 
0.08862647578435551 -0.6285065020232821 0.1335390922676508 0.5113390711683629 -0.7841579723535946 0.6791598351565173 
-1.659558179956607 -0.2486016270083165 -1.393770969778110 1.174064689282761 0.4713303974135983 1.656535690046692 
-1.628922872819309 -0.7612971690338460 0.8566310704476986 0.9845111703784383 -0.3025678802509975 0.8516456812779972 
-0.5000584273348743 0.7322778799464693 -0.1047830602595322 -0.3214355179683510 -0.3363281505083207 0.5303272761246083 
0.6066778572527903 0.3201435207666502 -0.5899290862453076 -0.2056806009178318 -0.5180591815951640 0.3868474907388748 
0.7264635023919304 0.9660319800189429 0.5195000577015008 -0.8317473107498929 -1.641493769465814 0.2612455401033174 
0.3099257813641178 0.4088465854029789 -0.3425612841070482 -0.7968609618729572 -0.1780855367923844 0.5987354160052901 
1.531319452552865 -0.1182741471771309 -1.312932906116799 -0.9784035293296606 0.9637172550176691 -0.08542612494694822 
-0.1352182361751073 -0.2993315875331117 0.3992310146536194 0.1967866404332039 -0.3763200727230893 0.2148522413444789 
1.670158030779922 0.08069845643208066 -0.9124220241613857 0.2432417076339516 -0.9648875620314167 -0.1167886086531517 
0.8370863324656231 1.237245113411840 -0.6109017190613779 0.2937257104769314 -0.9802346281653950 -0.7769208091276211 
1.141323943620924 0.4116707235090593 -1.136771510310373 -0.2552887887193281 -0.5021328065389000 0.3411984384386381 
-0.2799031134466314 -0.9051162233317152 0.1692452222880325 -0.2313924637129703 1.178575099909167 0.06859147829411857 
-1.280109977613821 -0.1416186590844187 -0.1049294583849542 0.07889537233450346 1.083858024676159 0.3639046980725253 
