solver_type MCSVM_CS
nr_class 6
label 0 1 2 5 4 3
nr_feature 199
bias 0.000000000000000
w
-1.594180793281925 0.7559346330387138 1.575792305947043 0.5491484542625977 -0.07626401608989464 -1.210430583876531 
0.7640490642233772 0.7385843069872824 -1.919917644397729 -1.557095704032716 0.5825821805425491 1.391797796677238 
0.8239282668241372 -1.026149887766964 -0.3460795963709575 1.985463080330673 -0.4030298702653524 -1.034131992751569 
-0.3432342028331517 0.9170999176547548 -2.546461031875285 1.447517160608387 -0.08623656947312269 0.6113147259184412 
-0.07302564585872030 0.4657537283248972 0.1721909028351754 0.1553310931578790 0.006611107071528325 -0.7268611855307633 
-0.2628911713360872 -0.8235976335323121 1.084561840531958 -0.3712876029310245 0.7893554394959250 -0.4161408722284696 
-2.256629875300264 0.9671879858426997 -0.5592332796757964 2.285936571696032 -0.4625951405884186 0.02533373802576949 
0.1109936782239000 0.02550669974418360 0.9272048826172108 -0.1231897416903566 -0.3912112505578205 -0.5493042683371130 
2.163049499973716 -0.3447527805472791 -1.170605887489892 -0.6043753010671091 -0.9996181378021519 0.9563026069327099 
-0.5400040959472847 -0.7843047099045691 0.9137471341963547 0.9763902163278476 -0.1160294399789902 -0.4497991046933493 
-0.6952706827252558 0.1722835140687223 -0.3974858978304558 0.3919611196416361 0.2697697003027660 0.2587422465425885 
-0.8228472847138156 -1.194285359832953 0.1995770005086561 -0.1640020738107222 0.7513410050659607 1.230216712782877 
-2.259023894262855 -2.867379521281193 2.517711903045461 1.576578027928953 0.9512672482702856 0.08084623629934022 
0.9300786421322234 0.2521623997953679 -1.362839427763621 0.1481775292855856 0.1242485922369330 -0.09182773568650945 
-1.161960436793681 -0.8755699626125022 1.644068048951827 0.9392450571080739 -0.5281243949086998 -0.01765831174502350 
0.05197542111049235 2.296898885147178 -0.4353552439936352 -0.7509421437877714 -1.105235810771457 -0.05734110770480892 
0.8458669888379092 0.1126585777597470 -0.9671840154299517 1.113135631190641 -0.7093003733829367 -0.3951768089754126 
-0.1541028871934610 -1.324416122867047 0.8178392774180634 0.6216964920753525 -0.9998644285865972 1.038847669153709 
0.7829360609360138 1.784416867835371 -0.8001756581341616 -2.323465428203758 0.2965597567387625 0.2597284008277943 
-0.3021416637779938 -0.2382416817129088 2.140573581651823 0.05411257423642316 -1.627937784710108 -0.02636502568723679 
-0.6512421170178065 -1.037071094900381 -0.7179436973108403 0.1894334959761723 1.132792047849396 1.084031365403477 
-0.01342400888686255 -1.510323552270870 0.6528624818480860 0.5879167682527415 -0.06180698774845085 0.3447752988053513 
-1.459360468389056 -0.5017487969076017 0.5999449754190068 1.522825977598963 0.1879124784234223 -0.3495741661447212 
1.602403716490541 0.08276070085338237 -0.1238671234108475 -0.5739507274310267 -1.137833393976762 0.1504868274747208 
1.416402765057849 -1.545330932687802 1.607458727086669 -0.6435354888880012 -0.4393807588844814 -0.3956143116842413 
0.3029407558243173 0.2293813364853398 -0.05877191947563158 -0.7049374099960983 -0.7147416760233782 0.9461289131854639 
0.8749959285362211 -1.093693118272541 -0.5324073620174118 -0.1895924998379860 0.3334752086822456 0.6072218429094909 
-0.5689949762972316 -1.725724186313582 0.6160434988081971 0.8098505813281515 -0.06371953064662997 0.9325446131211094 
1.446683001856363 -0.6260262781679120 -0.04062283878439096 0.4488907391606870 0.3726042712155188 -1.601528895280277 
0.5609579798605839 -2.762499500385610 1.199968025273603 1.372632967998451 -0.6159257144382023 0.2448662416911534 
-0.2634508258172320 1.126824764327788 -0.5150836009201349 -1.063965293948203 -0.05303072126795871 0.7687056776257246 
-1.445671425428102 0.2560612411864187 1.733516533082285 0.3722917576546207 -1.103749171151599 0.1875510646563603 
1.968174643953123 0.07006871824198528 -2.610673464533210 -0.5905055042541710 -0.1231700100803238 1.286105616672598 
0.02732702212756035 1.588520139394101 -0.9191847755998278 -0.1751911701286661 -0.1998898890328701 -0.3215813267602917 
1.671332250545800 -1.122210493468502 1.007474340492334 -1.861947160083091 0.2600039123641426 0.04534715014933497 
-1.421102608523526 0.1595572203146169 -0.1989007856107149 -0.3616441605686614 2.470413818228935 -0.6483234838406633 
1.430787925472383 2.212017413788669 -0.7343286445574423 -1.811636082726248 -1.052860402418699 -0.04398020955866226 
0.3419159972615665 -0.7769106851095733 -1.476488846055199 1.849065360288684 0.4006160586488172 -0.3381978850343049 
0.9752412847587464 0.4018800932573919 -0.8095555605386596 -0.4450243983328135 -0.7666636615343908 0.6441222423897305 
0.09971069574687424 0.3189872257193132 0.1790980710888474 0.03274445209643769 -0.2979889371499922 -0.3325515075014695 
-0.5068339995959741 0.02459855686037454 1.085892057142124 -0.8886537497560901 -0.4400211862197202 0.7250183215692728 
1.508739529683504 -0.03194221460179495 -0.6945621658799654 -1.113884624316373 -0.2564438866185033 0.5880933617331345 
-0.4905049737797737 1.281998773391952 -0.1414857986731717 0.5480063062827030 -1.524125068962905 0.3261107617412281 
-0.8962232773112739 0.8658069679601600 0.7136420655745153 -0.7256592248860836 1.865840793755708 -1.823407325092999 
-0.4625470430284132 -0.3961521611008281 -0.4983678689886076 1.407677699601512 0.6070445080312027 -0.6576551345148519 
0.9486438133669526 -1.631175685699093 1.472452238481818 -0.7596508865333835 0.7490845060775123 -0.7793539856937914 
-0.6132450175793819 2.545813516675834 -1.022148313711265 -0.7277624468879077 0.06697732902695319 -0.2496350675242390 
1.018819798364160 2.307120688577044 -1.188708113529036 -0.2114567371720701 -1.447455738667429 -0.4783198975726853 
-0.2221635681428837 -0.008482261863615618 0.07063341079430983 -0.8384445884395367 1.107157026701811 -0.1087000190500773 
0.1441264708810853 0.2955043259104802 -0.8581960593203422 1.014632353587999 0.4796728859758714 -1.075739977035086 
2.618651075238601 -0.9789212655699839 -0.1160408202399926 -0.2311400846880778 -1.500669385448869 0.2081204807083066 
0.4519676555639243 1.658215481346258 -1.782934428218317 -0.1014066735909994 0.2714874733552398 -0.4973295084561387 
0.6687306625780869 0.1181830601222243 -1.298211945310828 1.919254511582561 -1.627044586483350 0.2190882975112989 
-1.309439895634127 1.696651705946033 -0.2902613172328731 -1.177538187323091 0.4770593183956539 0.6035283758484531 
0.3212293950477329 -1.216006882916308 -0.4043160606808769 0.8685061719946502 0.8285844566484716 -0.3979970800936633 
0.8027956499367539 -0.3132764614671743 1.164822595738734 -1.767507123455665 0.8985775349905247 -0.7854121957431615 
0.4710392241011522 -2.313734800279950 0.8227308716616886 0.6187928671004805 1.181759521706106 -0.7805876842895387 
0.6078403131035294 -1.965141969649685 0.7678223726113590 0.1506505333330060 -0.8186004004795271 1.257429151081308 
-0.2141277924960368 -0.4511223464191951 2.038519614964105 0.9463775000454534 -1.377434745215089 -0.9422122308792541 
0.4506850061700522 0.6426730485137584 -1.302313766712042 -0.1663349244900764 -0.5725438889506901 0.9478345254690045 
0.5528400083512427 -0.8081633542158431 -0.1714867175847161 1.014021436044978 0.6004123211603625 -1.187623693755990 
-0.6513850525253682 -0.8983577527329627 1.057032339515396 -0.5569754696584668 1.156194610672023 -0.1065086752705920 
-0.4364702764890617 -2.462175590788488 0.3371985490214429 -0.3995794313141821 1.328399622216193 1.632627127354114 
0.3631905074801533 0.4028571118583781 -1.153747197032175 -0.4483713737760294 -0.1167469395874733 0.9528178910571250 
-0.3041737016343046 -0.9157971781545987 2.224516931564992 0.09740507712779714 -0.4883838309526806 -0.6135672979512276 
-0.8839687265856472 1.678736448961696 -0.5768350506010815 -0.4698278025035377 0.4911934045258918 -0.2392982737973274 
0.1339314229059236 -2.105039523915477 0.6048364952389631 -0.1214317668976327 0.8861285634211866 0.6015748092470045 
-1.052070387568511 -0.6886999952586919 1.817165238696717 -1.236288237827470 0.5411665300331778 0.6187268519247796 
0.2356406550292740 0.6988493711973871 0.7178780415087814 -2.099886078064082 0.02734154855607883 0.4201764617725723 
-0.6791788396480937 0.5618609459378485 -0.07414220549569833 -1.166845352277956 0.5192234748076323 0.8390819766763064 
-1.522441301830868 0.05913530580693109 -0.5249621173430434 0.9346563979387815 1.389646049583285 -0.3360343341550925 
0.7231232424845209 -0.3924407018738424 0.9887569952376566 -0.5988787640557772 -1.096455853832987 0.3758950820404338 
-1.431278994152842 -0.09385809851850827 0.4208096638419624 -0.4801252731872876 -0.1088927886055983 1.693345490622263 
0.6859863167366780 -1.026058578458753 0.5885981636435116 1.619697631927119 -0.6134683877802827 -1.254755146068281 
0.8102074340149911 -0.9526898585533694 -0.1824015951453656 -0.4869633182393070 0.5992573164255586 0.2125900214974911 
0.4821434168807733 -1.020693314280321 -0.1469547080851318 1.708945587516693 0.3166138618771512 -1.340054843909179 
-0.1002717688309054 -0.04646701565082115 -0.2660500372330721 0.4150217745033903 0.1493709347616489 -0.1516038875502500 
-1.189983941092725 -1.310111578896668 0.1631524503031042 2.922708724643904 -0.8058327849338350 0.2200671299762494 
-1.029194053374731 0.2892991758553428 -0.04447881969960367 -0.6191723316838625 1.293532256054992 0.1100137728478672 
0.9794612715425607 0.7473286287625792 -1.701181550192078 -0.5587299966547593 -0.2981875750570002 0.8313092215987054 
-1.628795987998368 1.019391165742915 -0.2710841899822160 0.2947536532038150 0.04200720562005636 0.5437281534138004 
0.9223149385256082 -0.6887390307555905 -0.8612391637587109 0.9627929278575917 0.2368420264266223 -0.5719716982955272 
2.615040796284230 -0.1676579787958470 -2.247006436453408 0.01481896935288628 0.4347313814894403 -0.6499267318772820 
-1.553057502730470 0.8025904730085861 0.5115323875482367 0.09059642786106803 0.3291382197834314 -0.1808000054708278 
-0.3408673185670751 0.8778725409117860 0.04882608701247058 -0.01033278006350967 -0.3652544095067531 -0.2102441197869175 
-0.007182486872970874 0.2852223841589208 -0.3996473463843041 0.3563751867366816 0.2851208471010069 -0.5198885847393359 
1.019835296057804 1.030140600340272 0.2489594693882046 -0.4033772445814398 -1.563359806550569 -0.3321983146542420 
-0.4289891931019707 -1.448173684795001 0.9867447013774703 -1.396000356527825 1.509377067059756 0.7770414659875614 
0.002909624297111490 -1.928922487954058 -0.007440877132893549 1.770765040570256 -0.3297194310684239 0.4924081312880348 
1.706760464006095 -1.427839685341372 0.2469038311677081 -0.9631658276182087 0.6580130824149383 -0.2206718646291299 
-1.114706083985698 -2.004450379423502 1.782691396465901 -0.2055950567071282 0.9522916093560590 0.5897685142943913 
-1.619597579976392 0.5556615398998118 -0.2107518969232717 -0.6714137324299843 1.238963776278554 0.7071378931512813 
0.2719883181742083 0.9216261471520653 0.5478174639633566 -0.1656914234225026 -0.9173520821472678 -0.6583884237198522 
-0.8359260293386387 0.9147708206235213 0.3977787135141656 1.409929132200007 -1.140698367759841 -0.7458542692391986 
0.4546039794894690 -0.7870915731344905 -0.4266661708581837 1.523326496129086 -0.4324654063034640 -0.3317073253224255 
0.6270025750463392 -0.3039192705640262 -0.8314464465142534 0.8931876954594457 -0.6780057384359417 0.2931811850084463 
-2.002188443613102 0.2508616497261405 0.3730022631760465 -0.6419414904818349 -0.004100404855472542 2.024366426048193 
-0.8845693662143930 1.252233802266546 1.253156041887120 -1.725387004262737 -0.3658239667053833 0.4703904930288606 
0.9275848115401020 0.7697048164187874 0.1014646951616961 -0.1630913532736883 -0.9833075234528879 -0.6523554463939998 
0.6595083450308187 1.175019094292475 -2.117897615203523 0.9089908782322256 -0.5476310677768288 -0.07798963457515176 
0.04554727298770319 -0.9448616143496493 1.396876567176838 1.406169187196795 -0.4072824126418195 -1.496449000369919 
-0.1154533687555486 1.649439977847581 -0.08360908349082889 -1.078614871845544 -0.2202894478892035 -0.1514732058664665 
-0.1606076084920546 0.3135122760762094 -1.761544366139640 1.866879594604624 -0.03020611947539685 -0.2280337765737528 
-0.7160965024048652 0.5891106053430681 0.3111410413432879 0.2766669481610484 -0.4236149287741433 -0.03720716366839227 
0.6203221612873046 -1.868725753787118 -1.158291853626789 -0.9820926690865932 1.198910686217617 2.189877428995630 
0.1715326789987595 -0.5534423446011605 0.7021097767377124 1.464357488142003 -1.050281582815716 -0.7342760164616046 
-0.8325720197614794 0.01231219955937199 -0.2293656971750196 1.037901044760748 0.4471330755397356 -0.4354086029233669 
1.957324417648245 1.804239498677731 -0.006542729334205656 -1.769505568236896 -0.9498331378622086 -1.035682480892680 
-1.952591246897093 1.858706363144689 0.9158166331545138 -0.5666972411372978 0.7536026141701800 -1.008837122434948 
0.2464526951415829 -2.160105949677646 -0.06770264973048930 -0.5565552304266028 0.9718277569691830 1.566083377723945 
-1.245003880987325 0.7848160991610322 -1.520930437496350 0.4410163964405237 0.4702794287079700 1.069822394174134 
0.2418492002582143 -0.5007071719368331 0.4922583118753069 -1.010082705794914 0.01646528446384820 0.7602170811343703 
-0.1009782091096738 0.3743688937588534 0.2604618462539113 -1.173889123081189 0.7174325742161972 -0.07739598203809142 
0.1617879269796033 0.02159407736869748 -1.333182082922245 1.494296854822104 -1.185088742431537 0.8405919661834029 
-0.1211683514504755 -0.5902759659401604 -0.07884916639466616 0.5438302780710670 -0.7060589595272976 0.9525221652415314 
0.6050157847766676 -0.9013931549380181 -0.04561441539263519 0.2587103340264555 0.2250571542529807 -0.1417757027254420 
-0.8077744146381476 1.695409824328477 1.068966929095458 -1.717363478705133 0.2419705600242332 -0.4812094201048482 
0.1204930186766427 1.081752626817914 -0.7938980025487223 -1.148889061816075 0.7932544106373166 -0.05271299176709513 
-0.1399698927147837 0.03785690463666121 0.1773810176605141 -0.8021576058093669 0.1437509957350480 0.5831385804919108 
-1.512398550720012 0.07277196567357498 0.4623333966867737 1.293608760111353 -0.3483260271334346 0.03201045538175564 
-0.03584003212976356 0.8781743436994087 -0.2947382683972770 -1.467134003680828 1.920917380843716 -1.001379420335242 
-0.7402468063003942 0.1223126304101521 -0.1680447843067511 0.2781583610711410 0.1864238556851881 0.3213967434406546 
0.1497385160916694 1.005432270980874 -1.804129371811548 2.182465911961809 -1.061890291094205 -0.4716170361285926 
0.9873670632835401 1.080781737248902 0.6343444655230077 -0.8472955653178806 -0.9702828255872944 -0.8849148751502753 
1.776781017041376 -0.6446244952287283 0.7067920806435558 -0.9877776939617909 -0.3711233961630878 -0.4800475123313263 
0.3121903625710038 -0.3645765445907013 -0.1659284446518441 -0.3616372572875782 0.01157847700177721 0.5683734069573555 
0.01488431931627887 0.4822890335458379 0.7680351042449185 -1.421923482841907 0.7978120806025298 -0.6410970548676695 
-1.831107713998808 -0.9204220012405866 1.407853542447560 0.3218495179288174 -0.3040114951137518 1.325838149976754 
0.2059952567139166 -1.101429214467056 -0.1919528495537979 1.226075501211786 0.8099986476277323 -0.9486873415325875 
-0.1098989358367313 -1.819326984052129 -1.042218046658551 -0.3637241373817372 2.038639704843025 1.296528399086102 
-0.3856760438871205 -0.5903103064522345 -0.1088735496525926 1.268986476602580 0.02915579844509995 -0.2132823750557757 
1.330728356702593 0.1301561868167106 -0.8887056450146551 -0.4442485290907392 -0.8262470295084658 0.6983166600945309 
-0.2325422994349650 -0.007030826687852878 1.288896761618605 -0.1872519281078031 -0.1286912702678240 -0.7333804371201516 
0.8318010107910033 -0.5151549123953317 -1.676448860368972 0.9015384737381488 -0.04873845093891495 0.5070027391740517 
0.8235036338660167 -1.145297284325890 0.4203088265166952 -0.3896210379445536 -0.02783715035000153 0.3189430122377258 
1.362474367319751 0.4796503770819089 0.2669312110899365 -0.6324867251670161 -0.1173128061299348 -1.359256424194651 
-0.3566940918366113 0.6872827462640566 -0.1364881170582062 -0.4164393792628944 0.3303891621706712 -0.1080503202770195 
-0.4327887147045868 1.161070190382226 -2.479978405313692 -1.665580378357745 2.539199777675213 0.8780775303185927 
1.579086664319441 -1.207867674056271 -0.7097635769730042 0.03417081006624758 -0.1517819594205931 0.4561557360641964 
0.3651680013553924 1.628628116566228 0.7324051096365746 0.4108935415614165 -2.023335336139423 -1.113759432980165 
-0.3122100561102405 0.6409249085910996 0.1290155243889444 -0.6617349625115438 0.1435754166964905 0.06042916894523343 
-0.1828316737958828 -0.4265750722488738 -0.04245945476924309 0.2427995309181501 0.3442737612889590 0.06479290860689164 
-0.8754176486165834 1.635996779909656 -1.099813158342881 -0.7030683745547353 -0.5171040121526630 1.559406413757245 
-1.726078682484797 1.234707030057846 -1.303315713247453 0.9515276441461501 1.496319287339116 -0.6531595658108698 
-0.5968996803434713 -3.428064889660007 1.439060626929488 1.126520820443365 0.8972916204274649 0.5620915022031694 
0.02754100428777338 1.395368220347048 -0.9769419939691778 0.8640966003629892 -0.1044246294023126 -1.205639201626317 
-0.3544768342372013 -0.5666867267164495 0.4800642288172334 1.032909251511982 -0.6404192049972140 0.04860928562161733 
-1.174814028447200 -0.4562510541939264 -0.3275855588167035 0.6403916420795979 1.754316355475480 -0.4360573560972260 
-0.03457861315565850 -0.5945989315688183 1.319016324253733 -1.140148725580726 0.9367740275808658 -0.4864640815293770 
0.3573698597728864 0.3652665848760084 -2.143794549204432 -0.5237997856139107 1.246492933649149 0.6984649565203315 
-1.724772638372550 -0.6126250071119426 0.6959857840648160 1.393496678163631 0.2998743968061148 -0.05195921355008493 
0.6686744266377656 -2.836880942204707 0.4745264742985495 2.714806423097747 -0.2637016140041489 -0.7574247678250915 
-0.4670834306281022 -3.294730049536241 1.166791634829222 -0.1844110291977404 2.223096477361095 0.5563363971717803 
1.479188434510419 1.578061764634920 -0.4404292197316207 -1.651282211617019 -0.1589101148369184 -0.8066286529598070 
-0.3579242217799721 1.607541959748609 -1.061571777580840 0.5388968904985537 -0.1522991511739304 -0.5746436997124362 
1.638558398477775 0.1940553899936689 0.8893119577162454 -3.028829742714045 0.5815865044896166 -0.2746825079632603 
1.021800735388382 -0.8261741845934127 -0.04016563065380870 -0.7492061356127666 0.8462778779987866 -0.2525326625272122 
-0.8246690387619122 -0.2180991216383499 0.5282796977461984 0.5418962155389855 -0.1762111751526210 0.1488034222677026 
0.1316214338244654 -1.350637696879729 0.8993919643293390 1.040977837250281 -0.7629343979832347 0.04158085945887083 
0.8973405386227137 -0.5215060357194405 0.1359125703301543 1.789691721826430 -0.9229700703262760 -1.378468724733590 
0.6115073486203050 1.205843678598407 -0.4388403692258121 -0.9754923703970738 -0.08071695719043591 -0.3223013304053679 
-0.2328447127300859 1.845399346237153 0.4601921980560655 -0.07340222920465418 -1.329471525589243 -0.6698730767691985 
-1.861686328544464 0.4984380294633865 0.5059498717199501 0.8696092828606562 -0.4650483754931464 0.4527375199936491 
0.1132725192366791 -1.509343194973643 1.289302119936047 -0.6101651666319466 -0.06375902987936904 0.7806927523122403 
0.6477441729906936 -0.8646334793385803 1.008681428717446 -1.642698583631463 1.172245156736260 -0.3213386954743470 
-1.030422233179959 1.087638997850361 -0.7559229976994359 0.8057170277931397 1.079172465310634 -1.186183260074739 
0.2124871363244405 1.919920725584874 -0.9941008219940495 0.06829202326725241 -0.7933958703715090 -0.4132031928109669 
-0.6949908586775057 2.302485427796166 0.9693413634110132 -0.8527390496676375 -0.8670353782269020 -0.8570615046351437 
0.7754888353119812 -1.208262284854928 0.1783897172429264 -0.8220167703232707 1.146610399992144 -0.07020989736884214 
-1.026541233507933 -0.4794891130473953 1.029436495509349 -0.2737569694633468 0.7564777819533026 -0.006126961443990578 
0.01949835892744427 -1.510369060277999 0.3462548998156448 0.5815276401337122 -0.8829538787703081 1.446042040171515 
0.9269196757809249 2.014465504787603 -1.217053550593878 0.07495550555440285 -1.809332461268831 0.01004532573977296 
0.1563566282732442 -0.1112642863588166 -0.8840266809165923 -1.146613696241217 1.399302122512433 0.5862459127309609 
-1.215979847802973 -1.090949526449576 0.01736379239681215 2.055438635034363 0.02943779851909132 0.2046891483022908 
0.8039309323584661 0.1325085711630722 0.4653061679846347 -1.446494359074967 0.7383533886083532 -0.6936047010395302 
0.4013408643127413 0.5857620178175537 0.2925963184334220 -0.3520398387830745 -1.037803848650639 0.1101444868700085 
0.9880307489348169 0.1345137751051770 -0.2072657500219506 0.2466852725906072 -1.374737029136224 0.2127729825275384 
-0.9304621988793985 -1.339830752921220 0.2015067895714114 0.1756087765835355 0.7655776334770534 1.127599752168601 
-0.4942525428120351 1.529154256823706 -0.9596295233756342 -0.2861256481375595 0.02098246732219054 0.1898709901793471 
-0.7478880664797709 -0.2818528277726716 1.088537373542698 0.5683678795640669 -0.6540882891702728 0.02692393031596517 
-1.957617641301999 3.190126276096645 0.3292977091488363 -1.442415971203794 -0.9210882949781188 0.8016979222384722 
0.1985432818260041 -0.7158587081691693 0.06333731558046614 -0.4485389653918128 0.6433312745942430 0.2591858015602649 
0.5152253024498756 -1.624872213015888 1.976541319768466 -0.5055293055921798 0.4161929384214631 -0.7775580420317199 
0.3461978419083977 -0.1190877763630585 0.2053259021255694 1.067191598282697 0.4487785741952863 -1.948406140148884 
-0.6383107436875373 -0.2323293687824776 2.293700004744644 -1.420193176071350 0.6093275959105439 -0.6121943121137879 
0.3929349782389000 0.9713300066520975 -1.287594274006258 -1.220097541645456 0.5314766498613397 0.6119501808993819 
-1.537525995814790 1.324376230513700 0.9912081549178435 -0.3309893665051838 -0.8775329889437653 0.4304639658321849 
2.007147915601290 0.9264546688434665 -0.3240291444244365 -1.316426388272131 -0.6881065398194091 -0.6050405119288266 
-0.8264943957864238 -0.9803604512634478 1.446008522907854 -1.430432663500970 0.6521763317966177 1.139102655846314 
0.04261400081884177 0.9416213362696327 -0.2066030702116587 0.5373248505436411 0.3536692439903050 -1.668626361410754 
-0.5371270998919092 -0.8189035349967321 1.416787746916442 -0.5865809248743418 0.07350597088332296 0.4523178419632363 
0.5166498209196928 1.496646992877933 0.1862175435739397 -0.005829664599784561 -2.473010676734920 0.2793259839631125 
-0.7642932267592699 1.255877223061202 -0.07600841529307874 -2.263794493933839 0.6599814326854467 1.188237480239526 
0.3573358525808457 0.3222372140113355 -1.237238540923653 0.6955494607243112 0.4416863582147210 -0.5795703446075707 
-0.5673051297631877 -0.6821879492659492 0.6669686939740214 1.314621123710543 -0.4088398525884814 -0.3232568860669305 
1.394777293383339 0.8297591415573407 -0.6246310948859094 -0.1704502001532935 -1.391332934435319 -0.03812220546615571 
1.463601711252903 2.016852560104610 -1.246072200202365 0.02160717462089872 -0.5748086087493713 -1.681180637026690 
0.7906919522939383 0.3743547327340746 -0.8687130063784348 0.2382578790318312 -0.5487555614181584 0.01416400373675426 
-1.995534221416176 0.7617679854764929 -1.127062392856737 0.3090515528349967 1.152881270610631 0.8988958053507918 
0.07793357248306565 -0.8450364375999554 -0.3058469558775116 0.4192812115678771 -0.02501808929523867 0.6786866987217708 
