solver_type MCSVM_CS
nr_class 6
label 1 2 0 5 4 3
nr_feature 199
bias 0.000000000000000
w
1.185345535365668 -0.5824261869240447 -0.2637237061829615 -0.6930640387931036 -0.06541778509005934 0.4192861816245105 
-0.9153550912680862 0.9625850507395824 -0.7075422783527379 -0.04184869188853793 0.5495802045996806 0.1525808061701015 
-0.5035207098354195 -0.1760058949098254 0.7249590819177181 0.3482573108425763 -0.3102870977063663 -0.08340269030867656 
0.005650475026665035 0.07771014634944850 0.2374470968039193 -0.1567453878561484 -0.8979998176677609 0.7339374873438773 
0.5954729640079183 -0.6892514751544996 0.3224919324017158 0.3812340608296915 -0.1660212146991358 -0.4439262673856919 
-0.7375102492552991 -0.5718659213472231 0.4791641422190522 0.6282216711213446 -0.09002698943939003 0.2920173467015199 
-0.5026999337098127 -0.2188652335779782 0.4155046005637420 0.8568388230686959 -0.7336995970999385 0.1829213407552945 
-1.006004766878163 0.2725252593339218 -0.3849473068381695 0.1239745582381752 1.108776835981251 -0.1143245798370206 
-0.6335148701051809 0.4711886280112158 0.2563348830574868 1.134365063922613 -0.9549450662063551 -0.2734286386797687 
-0.8442614737564147 -0.1611296219402954 0.4594392812054461 -0.06380237545346518 0.7562442726430333 -0.1464900826982984 
-0.1978098947728688 -0.2946781858708040 -0.6678122707540207 0.8928016084369016 -0.4116371765324600 0.6791359194932508 
-0.2352339236420942 -0.6669052833540109 0.4018485039944416 0.4153819434244247 -0.4635706573845123 0.5484794169617537 
0.3980870255964562 0.1925982689461104 -0.7476074369047700 0.008347948356787075 0.5014535121833924 -0.3528793181779708 
-1.270461434951920 -0.3925173014133048 -0.5573646466442087 1.515525127245758 0.2842753618393412 0.4205428939243318 
0.2858259672904671 -0.1869826709418950 0.1992353353778882 -0.2231005372126551 0.3327670325995740 -0.4077451271133785 
0.08907416664127640 -0.09280333855868925 0.2078424189685556 -0.2223462637577361 0.1962637643979134 -0.1780307476913190 
-0.2964668487861378 -0.2972983825017762 -0.4501567613072665 0.6787854510557739 -0.1434224573218446 0.5085589988612528 
-0.2175939284123175 -0.1277338433770301 1.178327976991220 -0.2889747764173150 -0.7597053230368241 0.2156798942522615 
0.2841677604530910 0.05142501458160121 -0.3058000217084735 -0.3679503728330739 0.1296383479489281 0.2085192715579285 
0.2372609993424603 -0.06250562365705785 1.422485819671759 -0.02453304946622132 -1.184824692295606 -0.3878834535953503 
0.9241955679439412 -0.4582121149554708 -0.8496942810205164 -0.03130137715219713 0.1703770855479788 0.2446351196362639 
-0.4374928530982376 -0.4587398808456057 0.1386016129554725 0.5445881132755200 0.1670789741664099 0.04596403354643899 
-0.4449882435103764 0.5354878010212413 0.1689761094246020 0.6078952260779010 -0.9150257318698825 0.04765483885650574 
0.05595332216938295 -0.6902846730438716 1.128485119464016 0.04778349661969829 -0.5533194667156831 0.01138220150646793 
-0.8084269892028920 0.5236781521918802 0.1635738899271112 0.6965875544683199 -0.3166652687075215 -0.2587473386769125 
0.5041306498082930 -0.7135627911327441 -0.6982468055538041 -0.4504523150479418 0.2553464083764418 1.102784853549763 
-1.275427954071834 -0.1416783106502528 0.5040384462440289 1.747969213437654 -0.3767829950639864 -0.4581183998956064 
-0.6225639515914543 0.0002541500649174165 -0.4217124044389211 1.579007510337853 -0.5992842353745502 0.06429893100215563 
1.357074634065709 -0.3098034166477106 -1.015981383158491 -0.08115724852906693 0.2429147994173560 -0.1930473851477975 
-0.7483599180422427 -0.8022409492329299 -0.1564013861082980 0.4597599570679010 0.8321185837121483 0.4151237126034185 
0.06623050543705589 0.4081119960992211 -0.7464925912224473 -0.3761798478867954 0.2923119182896586 0.3560180192833111 
1.805505375689947 0.4253140793333493 -0.7319330803768846 -1.552754022870948 0.4433885814364569 -0.3895209332119227 
-0.03546991651331376 0.1719344845546692 0.07105123256172988 -0.5504021000155580 0.4814158070893169 -0.1385295076768434 
-0.1771427880575587 -0.1427295123173870 -0.01665526950354688 0.2075877480594016 -0.1228791343550604 0.2518189561741461 
-0.8160364365200645 -0.1481288549990419 0.9823261337726160 -0.6723143531517503 0.1567984082763927 0.4973551026218441 
0.3249379788573732 -1.038563150140322 -1.058961712568641 0.5608942477174196 1.316418228533555 -0.1047255923993893 
-0.4608650483818722 0.2290796638020936 0.5321771822320098 -0.2035757746314372 0.3563195487078097 -0.4531355717285962 
-1.585678547890898 -0.09526421983064645 0.02695369998010782 1.602451393872710 -0.1249226940707329 0.1764603679394614 
1.740086282434050 -0.7493249426814268 0.2929048361487486 -1.340869232125437 0.005474669455655468 0.05172838676840159 
1.287420966844541 0.4292397770090924 -0.7603613580596404 -0.6343263119477220 0.1504394467817196 -0.4724125206280014 
0.05999454902453030 0.6001764535532877 -0.1186843149515374 0.4280190197620422 -0.3927745297495304 -0.5767311776387881 
0.06403412322672469 0.07371752114542807 -0.2370060306451426 0.08670498617441870 -0.03932372419919090 0.05187312429776376 
0.1866885027388711 0.5874576815463132 -0.1401273354088049 -0.7949594680762930 0.06372900016885008 0.09721161903105792 
0.7373914616566728 0.4770907852947968 -0.3811188028705879 -0.9840016597006581 0.5561623118944850 -0.4055240962747185 
0.7861985390983780 0.02347633992755911 0.6207949494278608 -0.2918603109462655 -0.8519228448624232 -0.2866866726451161 
0.5516656852588110 -0.4463335065815921 0.02471544871951969 -0.2682527663314020 0.4974933495910562 -0.3592882106563891 
0.8857164542903387 0.2032820808933243 -0.3596650558190410 -0.6849523658929644 -0.1671913007970806 0.1228101873254232 
0.8033924253009078 0.6013029785011826 0.5218256900432019 -1.583456188515071 0.003934092629562602 -0.3469989979597836 
-0.1875814059696476 -0.6879448987681505 0.6890571494810556 0.6183100253437710 -0.7208340170469657 0.2889931469599408 
-0.1750934466983037 0.6478903139240840 -0.4068279618746332 0.1354886917978105 0.6142589039513331 -0.8157165011002788 
-0.1266456103869714 0.07961629457449508 -0.02575003765394967 -0.1378920058273489 0.4127189433451088 -0.2020475840513294 
-0.03304075485990120 -0.3617982156290470 -0.1348474095286693 0.2558899295185420 0.4806147956929194 -0.2068183451938400 
0.9687637838402049 -0.4317538356111765 -0.7458293647538136 0.4699784182121910 -0.5742239007444324 0.3130648990570222 
0.2178929082660103 0.7306467283271854 -0.2028095685534234 -0.06870054294407225 -0.2122004964891757 -0.4648290286065241 
-0.3812663957700384 0.1013105053303248 0.02316105980151449 0.2448809230133076 -0.1020376560042947 0.1139515636291870 
-0.1828678622203970 -0.8354113258309364 0.7861153263670035 -0.5122161754122819 0.2124190213742909 0.5319610157223251 
-1.273030024119708 0.8581878286438849 -1.250835987664521 0.5194794690263271 1.218068505413394 -0.07186979129936917 
-0.8980280708453964 0.5932234794067016 0.2997150324135698 0.7634772854429253 -0.8435466744735614 0.08515894805575615 
0.7821047193779452 -0.2956615696333800 0.1791025329183100 -0.3371435071133394 -0.4088708647533005 0.08046868920376869 
1.113386037840848 -0.06299527354048115 -0.5602597278258210 -0.7063846909106390 0.2331598947991255 -0.01690624036304089 
0.5507374606450621 0.2885029964313525 -0.6311968376005410 -0.04446879118035681 0.2498697211571316 -0.4134445494526409 
0.9744127514834489 -0.9844068924812490 -1.138249548818384 0.3868225559917070 0.2651800856727798 0.4962410481517011 
0.1847726310335915 0.3439709222882360 -0.9837819981262603 -0.1697562683351298 0.3843073679235424 0.2404873452160160 
-0.5529923675079832 0.1595728141102412 0.9879312708303840 -0.1678537489720559 -0.8691158320773379 0.4424578636167457 
0.8481099651874170 -0.1430255246006376 -0.1492748673435047 -0.6139595289096761 0.4031864718634726 -0.3450365161970687 
-0.1610647827878129 -0.1866355416587427 0.004519150669970499 0.2001967641697083 0.03316987384512638 0.1098145357617513 
-0.2043555316349444 0.8545707129468857 -0.8195265860475984 0.3882770480032532 0.1507219276189308 -0.3696875708865255 
-0.7197002083065831 -0.6153100472662429 0.3311091834808218 1.000067783842004 0.1865039925314048 -0.1826707042813998 
-0.5642085572926308 -0.1060118632544076 -0.6082304960370951 0.3950536837325430 0.5954204225811524 0.2879768102704398 
0.4199000314176649 0.6394061276995064 -0.3065129328378945 -1.182940320025206 1.000653357455262 -0.5705062637093139 
0.1153345396973377 -0.7424662108995250 0.3182645536401267 0.4415546765842934 -0.1160508744119384 -0.01663668461028699 
0.3908205424761432 -0.3241089333421447 0.9860855273137143 0.1156201776585849 -1.257151293052738 0.08873397894644107 
-0.5795359504388113 -0.1473300338887144 0.1955871489905271 -0.6138167188233269 1.200422799949764 -0.05532724578943712 
0.9634755022617758 -0.1498670358863017 1.200076236151631 -0.3312357971980106 -1.281022352428701 -0.4014265529003927 
-0.6091094546903019 -0.3822022701228978 -0.3735249023978433 0.1896361422721405 0.4242303542548083 0.7509701306840965 
0.5296207886288717 -0.7345819870082059 -0.6341314788255697 0.1427948821936450 0.3170414707393042 0.3792563242719647 
-0.5308811860349409 0.6407327745637723 0.05494780788035789 0.2897899699876128 0.1959477759716945 -0.6505371423684938 
0.4919086697118459 -0.4887675309392653 -0.1997329772514799 0.3542898995224930 -0.05062216341837018 -0.1070758976252214 
0.9966245068492314 0.6703779783404831 0.8363814687995741 -2.562293506177815 0.4499042874236821 -0.3909947352351726 
0.01815194592475583 -0.1342490821550549 0.6319888587870770 -1.004776301103544 -0.6456290795902709 1.134513658137024 
0.4052644214750025 0.5815948522924406 -0.1494602826606787 -0.6652525331907448 -0.1506830843914598 -0.02146337352456050 
-0.03189224986788894 -0.07328544784606299 -1.152118574173664 0.7280961692216614 0.7434379568191544 -0.2142378541532038 
-0.5447137460811766 0.8490902898109459 -0.4353286145210070 0.8194027942947123 0.01416047801711281 -0.7026112015205919 
-0.5002036704718887 0.2414639331848547 -0.3506950056123808 0.6108397949073144 -0.4191071846128813 0.4177021326049836 
-0.7352450603573515 -0.7363881027541237 -0.1712850603039080 0.4521918520239571 1.062958295333963 0.1277680760574630 
-1.074539043089890 -0.2950263283471047 0.03249865428795867 1.324108633867132 0.05204889766865369 -0.03909081438674342 
-0.2946693683760719 -0.04811768141885244 -0.3791645383901784 0.8516140013763842 -0.2721868983949287 0.1425244852036491 
0.1348973028607793 -0.1366611775110520 -0.5194797754270912 -0.1127715896956843 0.1967672406426121 0.4372479991304378 
-0.4881133200693673 0.05505056677265879 -0.4190032294439284 -0.03984757048751070 0.2155965564102698 0.6763169968178807 
-0.6482829137717563 -0.2331148822709066 0.6233060223130600 -0.05104827398052015 -0.03649502638001918 0.3456350740901396 
-0.4756523345956746 -0.3030163412640584 1.592368848242949 -0.8731895329508796 0.1576630332289270 -0.09817367266126473 
-0.6744353378422964 -0.3686931239427481 0.5534798669383321 0.06202056669747530 0.9696398134008204 -0.5420117852515833 
0.3351421273813612 0.3326184944291344 -0.4818413808264548 0.02932404894608015 0.04430989410289705 -0.2595531840330120 
0.4076896459146847 0.3513246306875562 -0.3135511146047685 0.3330855714061567 -0.4170520986612573 -0.3614966347423718 
-0.1385753724239115 0.2847134581608764 0.2706747579119342 0.2110684281512961 -0.4825152431591737 -0.1453660286410174 
-1.050278293929107 0.6678720947126497 -0.7555659242341919 0.6143699225962904 0.7270534627392854 -0.2034512618849268 
0.6480852213690343 0.5747842281539949 -0.1137036319249897 -0.5052619967414168 -0.2700614047354172 -0.3338424161212020 
-0.7681126881129509 0.03746211137307678 -0.08804097130470424 -0.01785560959183214 0.3564921223065389 0.4800550353298812 
-0.7338795920017749 0.05623996332545649 0.2328613503220874 0.2591903665926112 -0.08578800252411603 0.2713759142857363 
-0.5566441684876137 0.6434956295037644 0.8823593137431828 0.5408425885229594 -1.013676294457804 -0.4963770688244951 
0.5738494409036403 0.7057586728687264 0.1740177962600579 0.5735565377514641 -1.595586866586060 -0.4315955811978177 
-1.325864351730144 1.497222030780317 -0.4690832506034922 0.1318115799591490 0.6787380587127764 -0.5128240671185906 
1.261312925569305 -0.4838570363542794 -1.486458395119681 0.6387469691322523 -0.05295127786443622 0.1232068146368439 
-0.1070590834621407 0.5869638861045411 0.01350255620252504 0.7230703917825795 -0.6260943216855449 -0.5903834289419571 
-0.5958277768254552 0.002845441104981204 -0.007062660425879798 0.03437159673621742 -0.3407371051064938 0.9064105045166285 
0.7030465475474130 0.3972872414992452 -0.6832423897855260 0.4819080165349974 -0.7214262717807839 -0.1775731440153434 
-0.2579714974566007 0.3022046059777107 -0.3681614188442628 -0.06759901305656209 1.073651144897412 -0.6821238215176902 
0.5415261022714453 -0.2975277229029444 0.6745970586648143 -0.5141926166285611 -0.3400469788614218 -0.06435584254332900 
0.8148679241167796 0.5665752886076466 0.2028932807904499 -1.216666977707865 0.3711204681000405 -0.7387899839070451 
-0.4302979144509875 -0.2133700780870434 -0.2496287718931174 0.8822319213756620 -0.1459552882698310 0.1570201313253129 
0.8259956473352403 -1.447477841392970 0.7023576508754007 -1.413493116341518 0.8392514604468752 0.4933661990769607 
-0.7694976572402403 -0.5221397906153535 0.5068727310447328 0.2044842993569613 0.1595026821358584 0.4207777353180446 
-0.4629180282050577 0.5886667451246554 -0.1886305820389282 0.2032064563147314 0.2859360790391960 -0.4262606702345949 
-0.6726985981321558 1.021717386329665 0.3596614066888183 -0.6630549666279402 -0.3506266353496013 0.3050014070912214 
-0.03061778920748588 -0.5592773138904008 0.2966206519586348 -0.3078739650825113 -0.04714940657788810 0.6482978227996533 
0.3831836815447411 0.8749184965818741 -0.8727093510401058 -0.006159419569426779 -0.5150859192966359 0.1358525117795596 
-0.3929201425016512 0.5290540231172989 -0.6437840354838770 0.01074099730543439 0.5475328842639837 -0.05062372670118574 
1.574711241044940 0.5895022769839555 -1.249841595708904 0.2270540647953896 -1.282513458136988 0.1410874710216004 
-0.6949617213724698 0.7490943800356981 0.3925554751196554 -0.06991501009758480 -0.7161507384875523 0.3393776148022542 
-0.7621111809084471 0.7520044246965673 1.017289521654926 -0.08661222738808600 -0.6189125863204847 -0.3016579517344704 
-0.7376950341555456 0.2145080672709730 -0.08361602460008280 -0.3762840692116337 0.2063087564965400 0.7767783041997453 
-1.204667776274577 -0.1152214796547287 0.8376944074974612 0.7152974275993538 0.1817047331079690 -0.4148073122754721 
-0.3914984289212797 0.7819476311766852 -1.451462590542317 0.05727241189170828 0.5784525298329408 0.4252884465622708 
0.9204028781983807 0.09150995348250397 -0.1474057234480712 -1.424321760783891 0.3112371326641514 0.2485775198869339 
0.4306203226154999 0.9447018272805903 0.2472233129746785 0.2407878200995403 -0.8299003310392716 -1.033432951931038 
-0.9339738956213407 -0.5867314579887711 0.7190488706842743 0.5251161690186650 -0.4583666257374927 0.7349069396446640 
-0.5229021534073846 0.1085271662176492 0.9813956220273298 -0.3265808105922067 0.1632582863029321 -0.4036981105483291 
0.8528046936347644 0.1904336892330781 0.7087438193014738 -1.336207901255534 -0.0007451973756483072 -0.4150291035381432 
-0.03829252688715708 -0.8841760934706514 0.6464913452548282 -0.6385753585837630 0.03639519552874049 0.8781574381580151 
0.06744347894817648 -0.3249913397034468 -0.9015539767577256 -0.4611108561612908 0.7643812412725297 0.8558314524017583 
-0.3912861420427017 -0.2408414142667516 -0.4845726205232787 0.2144122182963721 0.2532815652342619 0.6490063933020993 
0.1698861054247411 0.06555442957107226 0.5577132201307995 -0.4356442094154761 0.09329399733130501 -0.4508035430424413 
0.2772407761886189 0.09264667769956256 0.4631851249296661 0.01023846667121231 -0.1636855148795706 -0.6796255306094804 
-0.4257344584365705 0.08664843490393792 0.01681043559789473 -0.04225555932009575 0.04754877330135151 0.3169823739534899 
0.4331374900245017 -1.114768286371956 1.214130685778912 -0.4772126342883888 0.05907327653102757 -0.1143605316740952 
-0.3328433382608819 0.5936306866523280 -0.5080273511574963 0.8793398473330095 -0.4118938909170474 -0.2202059536499111 
0.4922362643259330 0.4420207910806168 -1.012421320734342 -0.04428681103526143 0.3434943624373535 -0.2210432860743002 
0.1053206987407943 -0.7978089892506490 0.1591437821769765 0.1077069225525327 0.02224757175328657 0.4033900140270611 
-0.4615016572476288 0.1670283824736557 -0.09120258639105078 0.7113645963546023 -0.09105217833960311 -0.2346365568499824 
0.7905532712545987 0.2477001757167918 -0.05223979819894505 -0.3784120648877042 -0.4352454407054012 -0.1723561431793477 
0.2574901960613942 0.1318188714135820 -0.7466742862565098 0.6539251632258540 -0.4518801922161989 0.1553202477718729 
1.623109630468332 -0.2626325819325450 -0.4605636715228232 -0.4951589486156635 -0.2452349210333691 -0.1595195073639391 
0.3198909509562153 -0.09020335994001294 -0.2347676689448748 -0.1799941418612099 0.2239723492068012 -0.03889812941691830 
0.5526085932631004 -0.3871107672753495 -1.174358190061359 -0.3748231347819091 1.523157640301917 -0.1394741414464005 
-1.701731515664421 -0.2726646775800694 0.7262571406148416 0.1264092935821834 0.5720173764576326 0.5497123825898140 
0.3562201305442570 -0.2949532078240880 0.3706415678256515 0.4969257427943162 0.1134723801306737 -1.042306613470816 
0.4941901556168798 -0.4520114493825334 -0.3849264942830151 0.1171383523844709 0.5679048500948374 -0.3422954144306419 
-1.072223356228094 -0.07751828824599422 0.4438388425815001 0.3470783440011496 -0.7256480775166761 1.084472535408114 
-0.6275660330698274 -0.2090391547326098 1.135437865751673 0.1027626522938126 -0.1898390139866919 -0.2117563162563518 
0.6182656061326328 -0.8819051977199130 -0.1988238325523987 0.2479290329932277 0.3438296858951160 -0.1292952947486709 
-0.05472725651378218 0.1419572347317839 -0.2514253118314377 -0.1079003716590066 0.2861604439434757 -0.01406473867103138 
0.2136584685733937 -0.4950942333887879 -0.09718420110693045 -0.2353840686897922 0.3918615879965640 0.2221424466155552 
-0.4310991281607848 -0.03497610928227897 -0.5155797609274279 -0.2287532919944678 0.9117921242861946 0.2986161660787628 
-0.2763923850248828 0.2983679301130662 0.3675264568573879 -0.6797219071895615 0.2148423763652593 0.07537752887872798 
-0.1335823969780774 -0.3244117979467998 0.1461346579606737 0.7538579575478603 -0.01966399441299053 -0.4223344261706578 
0.5781461037374070 -0.6438492091901448 0.06716936978521147 0.06197676903671517 -0.3494382947846305 0.2859952614154461 
-0.2311581938652262 0.1986859940139913 -0.04470340937748384 0.4013075706425814 -0.2011898706484276 -0.1229420907654337 
-0.02747428217059441 -0.03716439741793084 0.1532560226786197 -0.1172984772430809 -0.1105743176308640 0.1392554517838508 
-1.839283879562862 1.075241874172141 0.1684411038572643 0.7669498524685037 -0.2897782614992679 0.1184293105642102 
0.1503690726912923 -0.1686844227618393 0.06878694827679227 0.5353475345558073 -0.5454970827956164 -0.04032204996644181 
-0.7479535506801214 0.3260352574563054 -0.2022220025562943 -0.1700756654962116 0.4192201269000357 0.3749958343762883 
-0.3887970757926905 0.6973908751312817 -0.1603141967499760 -0.8764477582914392 0.1620929936616075 0.5660751620412204 
-1.254507928090870 -0.09424622983833193 0.6762267138992516 0.7289950699923663 -0.2876683404755110 0.2312007145130879 
-0.6219494892263706 0.6835368697152363 0.6547485241140390 -0.7494423472091206 -0.01613173310002864 0.04923817570624866 
-0.4531455647490280 0.4027409893228995 -0.2246337486918887 0.2995615320522537 -0.3805760127931834 0.3560528048589533 
0.7098355682234202 -0.3738698500415446 -0.4259728584437037 -0.7842360780697488 0.4536296407642645 0.4206135775673264 
0.1675651079351779 0.3198002028551987 0.05979158472898205 -0.5798299511847940 -0.1140449987598894 0.1467180544253277 
0.1234994963086331 0.2551731379995303 -0.4506405374615641 0.7348241224745237 -0.6356884825133045 -0.02716773680782248 
-0.2324471830127706 -1.063642667026941 -0.2379059633121656 0.09803542720232501 0.2378503722049455 1.198110013944599 
-0.1319470834471180 -0.6003344067925350 -1.341833025957152 1.336603318011566 1.000514205342892 -0.2630030071576461 
0.03855758545759486 -0.1963640478848021 -0.4661894302658448 0.7226516771956933 -0.4995330507530764 0.4008772662504331 
1.289361317212216 -0.9118139687485585 -0.4459659169539477 0.2933757551844542 -0.2821421023434111 0.05718491564925558 
0.2548747884605937 0.2175252509539843 -0.1891651253907707 -0.4660465423114569 -0.4144389848626729 0.5972506131503230 
-0.9354235231108575 -0.3855874297619857 0.001227474927634215 0.2863148211316036 0.7624118048196743 0.2710568519939214 
0.4043947483838341 0.08973447031260919 -0.2464983187596805 0.7503938671860911 -0.05545901628897849 -0.9425657508338764 
-1.614807034582450 -0.2458552970168385 -0.1312755115200347 1.880651696611410 -0.4184862054334093 0.5297723519413293 
0.9247454090252360 0.006412915067569365 0.4650372085649868 -0.7649536577070040 -0.7547029897490428 0.1234611147982632 
0.6216688771821861 -0.05391644119381007 -1.011162677345753 1.430992548691338 -0.5651736688159658 -0.4224086385179831 
1.013620201484352 -0.5968372070331432 -0.5609713731350529 0.2070753535383145 -0.6974573459495761 0.6345703710951099 
-0.3660952572949345 -0.08956214521852741 0.1567314775787441 -0.6571673818021775 0.1458585311344229 0.8102347756024720 
-0.3183729903901096 0.1334344243261409 -0.7326295719954342 1.028095069248842 -0.1319761214723262 0.02144919028288227 
1.046968550911195 -0.1977090057208045 -0.4014681417509597 -0.8784953548802404 0.8246492480249490 -0.3939452965841472 
-0.009517913793371134 0.2989846946953402 0.6523454008902227 -0.6737455465059617 -0.7929568739626147 0.5248902386763853 
-0.08127507100204455 -0.8127968283979119 0.1314669822756834 0.05879983680964161 0.5938540060177858 0.1099510742968441 
-0.3535757849138895 0.6766088304659179 -0.3546696899135775 0.6132788996418456 -0.4001301079078661 -0.1815121473724156 
-0.1380377815572499 1.210972106776157 0.7270218243713578 -1.235881877073518 -0.4276596638755379 -0.1364146086412153 
0.6552370059948347 -0.3567536011933341 -0.3163862145284013 0.4584057449000027 -0.8794933785266331 0.4389904433535320 
-0.1063540362340300 -0.7471780819343291 0.03631502788766798 0.3808684856464026 -0.03895366500354680 0.4753022696378411 
-0.4826979405700030 -0.1109390132827572 -0.5052994765198693 0.7879226425995154 -0.1948054510975537 0.5058192388706678 
0.3207671695062917 -0.7860691314030503 -0.002278729211944133 -0.4312319163043875 -0.09295361311146588 0.9917662205245578 
0.1020653876713035 0.1575997581412659 -0.3893297072229870 0.3434728098954346 -0.2937398004969162 0.07993155201189854 
-0.06494989653149232 0.4423010569600975 0.5407851883865726 -0.4979885850095636 -0.04256151033342182 -0.3775862534721964 
-1.069473040052786 -0.06101505767581090 1.606638949548781 -0.4043373788376979 0.5413581277716006 -0.6131716007540910 
0.1835111681405020 -0.03997672255593648 -0.4077392838762530 -0.03082475735696854 0.4630363452782003 -0.1680067496295449 
-0.05536021186926805 0.4618243888064654 -0.2035646313002248 0.3577651942587311 -0.1417285785726744 -0.4189361613230272 
0.9114754104973933 -0.2323418110337709 0.2901421223244951 -0.3261340634990400 -0.4999009512754296 -0.1432407070136521 
0.1223154312132135 -0.2364500522988596 1.193221187920979 -0.5273546218186705 -0.08610349593422242 -0.4656284490824451 
1.089684981548610 -0.4866475608763882 -0.3400929141795367 -0.5669543195279545 0.02440134678575635 0.2796084662495197 
-0.3701441130999710 0.8670830475823569 -0.9222003706262342 0.4434779565188209 0.4582314722848228 -0.4764479926597856 
-0.2843831314021750 -0.1690413086277156 0.5739017413779799 -0.4632987618367090 0.6085329053934637 -0.2657114449048404 
