solver_type MCSVM_CS
nr_class 6
label 0 1 4 2 5 3
nr_feature 199
bias 0.000000000000000
w
-2.224408150011767 1.815826358637856 0.7236200104861951 0.6706142084005442 -0.3850681700120161 -0.6005842575008395 
0.3902549548633197 -0.7768662416801780 1.984730571340824 -0.9821832051975706 -1.258645445811960 0.6427093664855598 
-0.4304664656793100 -1.544089456432057 1.518423632680639 -0.8092435257173520 1.183284337603849 0.08209147754417127 
-0.7388754668540886 0.09183536072458313 0.5505821610410216 -1.204107676439242 0.6431338193685399 0.6574318021592066 
-0.8012584963983753 -0.1045056834963887 0.7185637102958573 0.3574969640097389 -0.1269006879427289 -0.04339580646810051 
-0.1865668655122507 -0.4222589621984522 0.3488019779818170 1.379981176686023 -0.3518951469679501 -0.7680621799892026 
-1.318274583128977 1.172812782247964 0.1704101110704074 -2.241549372010946 1.493243514423615 0.7233575473979306 
-0.8075805392328981 -0.7473980239479510 0.6363632619354083 -0.1438392042629466 0.5371366254194184 0.5253178800889641 
1.847392613031200 0.4412935391594000 -1.957630297855669 -1.281475576927366 0.04839364618933503 0.9020260764030872 
1.059354432781969 -0.4083411329406749 -1.199766395439250 0.6069129813670695 0.7347908912484938 -0.7929507770176532 
0.02058139372003448 -0.3614217977668424 1.117575278642731 -0.2849108777253432 -0.05469224624502779 -0.4371317506255508 
-0.01507936290165398 -0.5562679196898384 0.7091939226964855 -1.126411583568257 -0.1495482867056591 1.138113230168962 
-1.554615021978107 -2.467875046171894 -1.423310338353916 3.303286731669267 2.044190032529380 0.09832364230526368 
-0.4839932625835844 1.337238208628265 1.501353147416618 -1.156195222765429 -0.9328278416146910 -0.2655750290812303 
-1.706449181225789 -1.389486304243633 -0.2330042415759754 3.184849423291879 -0.2985949751970041 0.4426852789505081 
0.5770369276867825 1.571491957591522 -0.7402188735019835 -0.4953592629225034 -0.6131584441526309 -0.2997923047012098 
0.8928132681855615 -0.2141655986753882 0.5830034787370548 -1.364545787682930 1.159744839917219 -1.056850200481533 
0.05540874733763835 -1.877688572138151 -0.6804711577217644 -0.09512171731776596 1.602333826603819 0.9955388732362260 
0.8128735271450610 0.6616114192634859 0.2590928814195402 -1.247643175471215 -0.2519888845500845 -0.2339457678067864 
0.7028179604046513 -0.1427849444061835 -1.782121275960685 1.303295427565307 0.3513140703809838 -0.4325212379840862 
-1.601380395442207 -0.2501526038676671 1.430475755015411 0.4806192397616465 -0.2588249055974128 0.1992629101302104 
0.7612858959607458 -1.477421127626289 -0.5807395473473370 1.303264273909197 -1.115759479495884 1.109369984599570 
-1.522311539868318 -0.5972941245420035 0.8353149276222060 -1.301923143765398 1.336402232129659 1.249811648423888 
0.8024595713957048 -0.8171663038278402 -0.5938104593726053 0.06618755771641735 0.1573112736841135 0.3850183604042213 
-0.1557118878333345 -0.6511671725055246 -0.3575949976015713 2.125028307399791 -0.9317361387860824 -0.02881811067327665 
-0.2969912080638583 0.9633352798050785 -0.2364391256480728 0.1489738097507708 -1.826010425575618 1.247131669731736 
1.713918429741631 -0.9426350553773121 -0.6003846921035433 -0.5671311614198744 0.2247772584546082 0.1714552207044991 
-1.000124343894790 -1.870508405366291 -0.2105037800385571 0.6282978228552025 1.082571328719650 1.370267377724757 
0.2879239840330526 1.719060941320642 0.2643628202354675 -0.7536730118578981 -0.9482540161990075 -0.5694207175322640 
0.8315668452186962 -2.337148969368717 -1.615339669455385 1.548005918675287 1.425296514362013 0.1476193605681279 
0.1356202922278163 1.866323482010363 0.1484090101837482 -1.231347128399018 -0.4379390221981995 -0.4810666338246842 
-1.190826369970975 1.437471677741397 -1.100726367399566 0.5182847698931523 0.3623658834396604 -0.02656959370367175 
1.346531528601884 0.8839964454410875 0.5648972930555214 -2.646575261304852 -1.044118608899552 0.8952686031059041 
-0.5935191190788557 1.902234235231554 -0.4639962676101780 -1.023140879915338 -0.6809161220569686 0.8593381534297952 
1.999933676294234 -0.4695276057708790 -1.102787328645433 0.4042296447368550 -0.6653079094774490 -0.1665404771373576 
-2.711450057424279 0.3985610085451517 2.800598380297061 0.4290385098846269 -0.4840979654545768 -0.4326498758479730 
1.191352590639538 1.743015199905087 -0.9796868191565502 -0.9073141236380091 -0.6125161984602370 -0.4348506492898506 
0.4677967689647871 -2.091832018237943 -0.2559593012096845 -0.4362586825607678 1.456591086992486 0.8596621460511596 
0.4688578054103482 1.654044237721107 -1.707769376793531 -0.2076013960128750 -0.2250117386630042 0.01748046833794516 
0.4693314328073818 0.5892775030721623 -0.3783142028763131 0.2935739896695792 0.05413969916570454 -1.028008421838509 
0.1711725790323920 -0.1228198539455258 -1.242814908451664 1.741254293914175 0.2501007763132901 -0.7968928868626856 
1.060651640614132 1.037757168565863 -0.5279617301795974 -0.7966424279358538 0.03939804556524004 -0.8132026966298124 
-1.650096901970689 2.125603786245687 -1.427775576158001 -0.02939066107769841 0.2742165260606276 0.7074428269000744 
-1.835835724017814 0.9146789641538878 0.2144368609619408 2.424615450788894 -0.4609159229303169 -1.256979628956546 
-0.2210043551325445 -0.3950578774989293 0.6757483802805112 -1.116133028624473 1.101461225016300 -0.04501434404085804 
2.011392962797791 -1.047525097562628 0.1158329654312092 -0.5682039914209992 0.4391708217709808 -0.9506676610163736 
-1.093430374759630 1.979249439075115 0.8329266774977114 -0.6113862268309260 -0.3591907490756021 -0.7481687659066525 
1.296363427730278 1.220804029398007 -1.208682497287142 -1.838205211502167 0.1001290446224022 0.4295912070385969 
0.9615069411481789 0.7053139829238491 0.2528748669831148 -1.669069824081293 -0.1603414182296098 -0.09028454874423120 
-0.3332901483792055 -1.616225835583912 0.9270108000364744 -0.4604449625992295 1.455024988001668 0.02792515852421327 
1.914170299478098 0.5917309396921970 -2.332456308321227 -0.9519610517083917 -0.6172083470475445 1.395724467906832 
0.2682331690310810 1.615576414465901 0.1699363618069356 -1.798638257827059 -0.03840613781774189 -0.2167015496591166 
0.9471944779818969 0.2511027262327756 -1.553220806542096 -1.682571862134809 1.987349305066905 0.05014615939538911 
0.4164110971586387 0.9100773578225650 -0.6533932905429832 0.5046198002678188 -0.9659410114208201 -0.2117739532852248 
0.3608181244651388 -1.703363648787017 1.393761841830159 -0.2845103456994348 0.5557952100838995 -0.3225011818927774 
0.08313646676163394 -0.7590249985182932 1.598170957682735 0.8969040351713833 -1.589257395460221 -0.2299290656372391 
1.422824408587784 -2.306513096564097 -0.3575499717455050 -0.1412804029102119 1.840271809391201 -0.4577527467591822 
0.6642927290766465 -1.083312883214286 -1.053223496818420 -0.3841878623982549 1.262892220002537 0.5935392933518149 
-0.4010759311003860 -0.2098849676414057 -0.8102054419979967 0.0007830916669586080 0.9487280155889467 0.4716552334838673 
-1.049627444100599 1.646682439156770 0.3379676516007616 -0.8511216231108794 -0.4495222843802547 0.3656212608341984 
1.302088364169102 -1.241917835453512 0.8158840370294589 0.04970591331131411 0.9653799427446701 -1.891140421801064 
-0.9783692041061531 -0.3304426743252784 0.7416922148292300 1.042695284867242 0.1326658334454497 -0.6082414547105072 
-0.4442401353266599 -3.269751104941245 2.243369157260733 1.017164836033661 -0.4682605725019485 0.9217178194755258 
0.6041006568128778 -0.02010841531272476 0.07904748087206213 -1.164256387345215 -0.1077061258935587 0.6089227908666247 
-0.7525379137082950 0.1062812728890434 0.8506133446095157 0.9124150202551627 0.4758353071712033 -1.592607031216603 
-1.390602953497266 1.203098670988643 1.010336962843095 -0.7643368285653963 0.007415697861979455 -0.06591154963105011 
-0.9360668927597873 -1.621254381066538 -0.004280060696909629 1.106697703211369 1.028822602237594 0.4260810290742797 
-1.307779696882409 -0.6806626851686570 0.6036632781084208 1.443547710740396 -0.2332643125257640 0.1744957057280076 
1.119388863468390 -0.1039211924429229 -0.3188593487904164 2.008867108649581 -1.754958177207863 -0.9505172536768094 
0.06691248197863260 1.726834437629072 0.1735349775400276 -0.6996967314767647 -1.001452093768486 -0.2661330719024804 
-1.711309447752656 -0.5972752746261073 2.076098645998685 -0.4654349688634512 0.9335546973065518 -0.2356336520630225 
0.4172138528291322 0.09912197774236997 -1.064762471662010 0.05026942617801634 -0.04544824993810088 0.5436054648506056 
-1.390767056444985 0.5112423061118626 0.1925014519884385 0.6378513990676692 -0.7496874637868133 0.7988593630638382 
0.9277000590162849 -1.046894504360062 -0.4948072430209061 0.6113668420067788 0.7389338456760097 -0.7362989993180640 
0.7401931262196723 -1.275659976980189 -0.002697067703505044 0.2933339720790029 -0.1293139262444138 0.3741438726294509 
-0.2901735068571349 -1.123018779673359 0.3154268066019166 0.1709943615183067 1.297202924425325 -0.3704318060150337 
-1.068035620193300 -0.09782336494274144 0.8467576279545878 -0.01758155244846315 1.122704655008491 -0.7860217453786008 
-0.7294557820330921 -0.5145690621320355 0.1656618927947370 -0.1477560262584277 1.339399287855555 -0.1132803102267202 
0.6992759421252724 0.9782158162391770 0.9371584638198871 -1.206084382804870 -0.4891343844133020 -0.9194314549661669 
-1.490090182097280 -0.4112796287498419 0.7242366785552290 0.5510853534738090 -0.05418575752631940 0.6802335363444137 
-1.937257346172477 0.6707200174011997 1.158298214526493 -0.01195889568491874 -0.3253675237552381 0.4455655336849467 
1.638358838810970 -1.977389412953965 -0.5029103683669888 0.4984192117469355 0.8768194909779695 -0.5332977602149052 
0.8047133416984955 0.7379977934274292 0.3800093436128194 -2.286437595402995 0.007798894750721758 0.3559182219135164 
-1.263067754935728 1.633986646952996 -0.1879114885103825 -1.129443387055422 0.03554931437876484 0.9108866691697309 
0.7201172698794231 0.7591233155311586 -0.3298892145837980 -1.717503262341956 0.1207056767264260 0.4474462147887493 
-1.527459385948113 0.8907275922136918 -0.1431746393857909 -0.3259900470761135 -0.05912754966325547 1.165024029859556 
1.261759077315156 -0.4339402537524584 -2.127496158656889 0.7009555050924953 0.7453626438135191 -0.1466408138118420 
-1.201363399361500 -1.102671380934041 1.328769263090423 1.041045047753006 -0.4955185367590902 0.4297390062112219 
1.103759946053742 -1.052745754546129 -1.582693676649853 0.2361509270611069 1.094984283721204 0.2005442743599398 
1.569319299343867 -1.785749403754420 1.222637728329986 0.7063161529414848 -0.4426258593954405 -1.269897917465459 
-0.7793759854658068 -3.213631692167725 0.6605272742535514 1.928769544027927 1.599651504674773 -0.1959406453227704 
-1.810899535832557 1.686198493716647 2.040078334969917 -0.9358907294697332 -0.9737332796472874 -0.005753283736938683 
0.2695854139305340 2.055614003764851 -0.6474107206562658 0.7437247399057626 -0.4901747079686627 -1.931338728976202 
-1.196580945521054 0.5195371623340673 0.4987346503678015 -0.3077067982901036 0.9181480306030085 -0.4321320994937417 
0.2180414625693365 -1.159182870484571 -0.2467203287311723 0.5287310743377119 0.5187131686085084 0.1404174937002031 
-0.3352360120278796 -0.4304482084931764 0.5444118328770793 -0.5602243086489544 0.2572925449121234 0.5242041513808279 
-1.897920701057243 0.3117119296679731 -1.343352582743835 0.4304666378869320 -0.4347766550791806 2.933871371325371 
-0.2987159234580943 0.4358284675511289 -0.6780331522031029 1.943715167213767 -1.065826568463030 -0.3369679906406920 
0.1779207222917284 0.4136082027004439 -0.8001003500209597 0.06600176788633498 -0.1127335921722447 0.2553032493147088 
1.130214841426911 1.332508171324980 -0.4404295375889883 -2.693278463577239 0.6165585256528777 0.05442646276144224 
-0.5355298655733948 -1.833767987630065 0.01065903043208332 2.177552171201959 1.057619004278997 -0.8765323527096012 
-0.5177389206161955 1.053943518971973 0.5281248788327990 -0.4450153873788804 -0.7914433878065964 0.1721292979969160 
-0.4701714271879441 1.725698692957444 -1.270013706726189 -1.040747578314329 1.640311584440358 -0.5850775651693276 
0.7614532521165135 0.3518536769237907 -1.585420865647438 0.4450461495257860 -0.2473039453364286 0.2743717324177397 
-0.008003905030961012 -0.2368806403412521 0.6824595057772195 -1.003027586819234 -0.2743463185932842 0.8397989450075117 
0.1902626142401838 -0.4858970583796106 -0.5616803698374859 0.4790832991682794 0.6839453275184979 -0.3057138127098960 
-0.06637170889648528 0.1734358490474709 0.5787643079294192 -0.9530780271753135 0.7133821222383181 -0.4461325431433775 
3.186519519945761 0.07738065280738189 -0.3467869701451495 -0.002827059574013623 -2.199582947982561 -0.7147031950513584 
-1.283398584020644 0.9167108646389869 0.5824734636232921 0.3167193841437206 -1.018986209274889 0.4864810808895170 
0.9686219069235407 -0.1681452219002964 0.6985413127357679 -0.8436782995127604 -1.214019109613259 0.5586794113669938 
-0.08114793384018983 0.2127565548473817 0.2851797595127253 -1.864629511372218 0.6044698868299687 0.8433712440223126 
-0.8307657780675473 -0.08072239104890410 -0.3768973003210713 1.408489588359888 -0.1823068936979469 0.06220277477557564 
1.112725300012933 0.7452536908169549 -0.3627603629227375 -0.2319501339854554 -0.5934090725246575 -0.6698594213970076 
0.8113718154651008 0.7135818984473083 -1.299526904208834 -1.389696311505607 1.147185146466320 0.01708435533571577 
-0.5176689764353848 0.3777850591362691 -1.557567309409287 0.7434670731226846 -0.4573101754129235 1.411294328998666 
0.4853837007627607 -0.2936785535635251 -0.3117570609822269 -1.096212613244931 0.5847288132045410 0.6315357138233895 
-0.4419958487838777 0.6078656634685781 1.219263408670958 0.5558119734943083 -1.769552559859348 -0.1713926369905980 
0.01781440268476548 0.6099448286015539 1.063076995658409 -0.9612072248654873 -0.8123383721860424 0.08270937010680147 
0.1389637976794494 -1.204296430393987 0.8022486537654717 0.8773688344701046 -1.443549868158089 0.8292650126370161 
-1.966043758331018 0.5772128765694335 0.3682502084121176 0.2574668423023404 0.9038348138437048 -0.1407209827965947 
0.8384045611963282 1.811452243293662 0.7163705651942597 -0.8305312120429281 -1.976029543897587 -0.5596666137437636 
-1.955320231013113 -0.7763060266333557 0.6336330019674506 1.414691814387897 0.3159984875839277 0.3673029537071711 
1.414169948505411 0.5494709373632322 -1.598686346155119 -1.395164423379284 1.731940898424074 -0.7017310147583453 
0.6207167219990362 1.258509371239289 -1.485043725504755 0.2872323977478188 -1.198438692778293 0.5170239272968552 
1.389522206564112 -1.431785259803020 0.01096257131477886 0.8851825484128474 -0.9459255275902381 0.09204346110153229 
1.358067365430097 -0.1018610666514429 -1.145269503600497 0.7222314188665677 -0.9783830808501954 0.1452148668055016 
-0.4283222681171811 0.7282902880138594 0.5995955076118382 1.273008944627637 -1.645932084386368 -0.5266403877497985 
-1.108321841104032 -1.154919865388140 -0.7177401888184799 1.725713902447333 0.9258508933056901 0.3294170995576726 
0.3323894699449831 -1.235896140318590 0.6878085842913491 -1.110216970229375 1.677408015367173 -0.3514929590555442 
0.9040266450518832 -2.158020637319692 1.500670331655603 -0.6205376907215279 -0.3627807102448196 0.7366420615785603 
-1.423411598804134 0.09619023922042592 -0.3519616819394567 0.08159500081171220 1.950870996470476 -0.3532829557590602 
0.9817880272085583 0.6548064463276876 -0.4378184271069238 -1.719067830368894 -0.2040428241437919 0.7243346080833496 
-1.262325944559081 0.2340166121964618 -0.3239779297907279 2.071554606489906 -0.09831258631279917 -0.6209547580238195 
-0.6015699055012643 0.5674458792783816 0.6628640364399754 -0.9742818099666719 0.1392658766862001 0.2062759230633744 
1.053506169464439 -0.8333600838306965 0.8898249960195244 0.01037997242261713 -1.641949312822275 0.5215982587464155 
-0.5693079189046647 0.4710354202130343 -0.3216609305780274 0.7821555168947540 0.4998383756053733 -0.8620604632304513 
-0.7242188119985350 1.566162868704749 0.3378395664303462 -1.097750445162054 -0.8110334191653416 0.7290002411907929 
0.01481425229301097 0.2897430419293999 2.997753521345816 -1.416230219950605 -2.944246803070246 1.058166207452644 
2.674871690592213 0.8780829531400037 -0.6737165640658583 -2.122006029372740 0.1298374735059975 -0.8870695237996354 
1.237125654649343 0.02467730541060475 -1.825992819547812 1.271872999625589 0.5556074638307181 -1.263290603968420 
-0.9659443424894413 -1.119889118556402 1.330278570223330 0.1880386908613873 -0.6202094373241230 1.187725637285256 
1.120802488598691 -0.9985593812320241 -0.2128158717488463 -0.5190149055408673 1.097268277915320 -0.4876806079922921 
-0.1330342940146502 1.387478762273839 0.3720938879131401 -0.6566914573162582 -2.092321156994871 1.122474258138823 
-0.2760373317173206 -0.2979909310114894 0.9974246514964773 -1.242603078921680 0.7567463797189715 0.06246031043502082 
-0.9057260098487735 -2.744332495912494 0.8084357530448165 1.450216014864365 1.544453157599242 -0.1530464197471716 
0.7969246623770825 2.988760673589610 -0.6024589568557104 -0.9185163195192525 0.01315596249228116 -2.277866022084009 
-0.5717498492383649 -0.02899759432844106 -0.3073296560891921 0.9930066131066159 0.2625094548098063 -0.3474389682604168 
-1.170799042124893 -0.9362133366983129 2.058094231492824 0.4958490979846935 0.02411096401202192 -0.4710419146663407 
-0.5857666863300824 0.4641770895047896 0.5128669321123017 0.2306316751753038 -1.129967975223494 0.5080589647611444 
0.8340665120097295 0.02069453317838770 0.9042698575135950 -0.8980682313208896 -0.09754079721125708 -0.7634218741695831 
-1.139081112970587 -1.447679653091814 0.7098896606355897 0.1130021479442139 1.586559555001686 0.1773094024809276 
0.6733993374890587 -2.743793997415277 -0.6902793365066503 0.2303550340641067 2.825769781242966 -0.2954508188741929 
0.7467624699058503 -2.746517558451671 1.315216023872699 1.291249379511576 -1.102610460266752 0.4959001454283298 
0.9793900059896206 1.254958145094230 0.03651164418769168 -0.3756449824357118 -1.217477783040861 -0.6777370297950017 
-0.8995973914868045 2.006250839904752 -0.1078301637692579 -1.183846491688530 -0.1730839915276476 0.3581071985675249 
0.8578914595967752 0.1536910657231796 0.6952403570470954 1.785713980111112 -3.125958647497112 -0.3665782149810649 
-0.3545417019316646 -1.319753184754249 2.459073238996888 0.2195389869643048 -0.8696843580555031 -0.1346329812197576 
-0.01962290678894641 0.5914800150464384 -1.235124287321528 0.2633355324894621 0.6798906635438643 -0.2799590169692835 
0.6651167440833821 -0.02700338428052483 -0.8896992852053330 0.7967307433144021 0.3151140457021741 -0.8602588636140850 
1.472111554520908 -0.7112855800322954 -1.634521126346737 1.762589925407299 0.2649645736482154 -1.153859347197365 
0.8891633896860794 1.877035535194992 -0.4164545871081791 -0.3522649158203645 -1.422985655684095 -0.5744937662684197 
-0.1613649858141916 -0.08756648651581332 -0.9170864334062786 0.1623393604072247 1.166485796875189 -0.1628072515461300 
-1.243074405627070 0.6954215481325521 -1.721474975486921 1.392668792763753 0.3025433034391238 0.5739157367785830 
0.4146683245538274 -1.426589814266045 -1.168524368940150 1.193200112626755 0.09141842875597563 0.8958273172696101 
-0.7510377211257540 -1.404788316866116 1.521729878334905 1.690236290053032 -1.335809828625875 0.2796696982297492 
-1.785173272386101 1.083041141214459 0.6132413482138540 -0.1523429039488071 1.235694415337129 -0.9944607284304875 
0.8104402787077459 -0.02790203080846456 0.6920442667878367 -0.8372397502513466 -0.2778959369424103 -0.3594468274933631 
0.04185554115740602 2.897513770016809 -1.811793349200794 1.109262036373762 -1.046872587536242 -1.189965410810936 
-0.2641755935850442 -1.691043818637146 0.5443679936095955 1.738969330806731 -0.8105513282915251 0.4824334160973660 
-0.7218371278269258 -0.1269969819783763 0.6253451969270504 1.128977051537081 -0.2539568659347083 -0.6515312727241428 
1.169544966146081 -2.016762449929189 -0.2155067343692102 -0.08872643761927537 0.4975077416399007 0.6539429141316737 
2.223872578471414 2.851283544261556 -1.994435333086710 -1.369022208766068 -1.117104431542124 -0.5945941493380589 
0.7491176324818504 -1.040394092331468 0.04643307121371830 0.2071459600921187 -0.4074615260351312 0.4451589545789118 
-1.052226009928863 -2.330493288759223 -0.2325841427323265 0.8841567979061897 2.561115850443322 0.1700307930708931 
2.131128150870134 0.1033944206824761 -0.4879037409330496 1.239055567916823 -0.7078051562998074 -2.277869242236605 
-0.7888846457323705 -0.2155494471196991 0.05660445047432748 0.4521156968032379 -0.3820372669969602 0.8777512125714719 
1.277377087036417 1.065818081582864 -1.070310325166312 -0.8626707971446612 0.1127846835099750 -0.5229987298183106 
-0.9078656410789048 -0.2165593206747281 0.1927939758266151 -0.5218763376967020 0.7772916823198962 0.6762156413038300 
0.07074851756526324 1.174712852932793 -0.3088754855089584 -0.3313412645246356 -0.8836839516236924 0.2784393311592802 
-0.4628623332031798 -1.327455170878914 -0.6621852868431342 1.726787843401655 0.005323704898671070 0.7203912426249250 
-1.352797738750846 0.7159422160425485 -0.4680567468894984 1.552428180652005 -0.9017105535862359 0.4541946425320335 
0.4815917772904201 -0.9241689232580759 0.1662278224274547 0.3009146047905867 -0.2868284034090348 0.2622631221586332 
-0.4466578627146371 -1.512411416618662 1.181173151050228 2.013550870504140 -0.3523788887848356 -0.8832758534362289 
0.5870418627850792 0.3781492439154132 -0.4341011709852877 -0.1289271459150182 1.060956812173704 -1.463119601973884 
-0.4605600847163505 0.3333865494089221 0.5197222122927261 1.513087443349508 -1.319579650591853 -0.5860564697429220 
0.5190747141229378 0.5327871803835644 0.9368850518537145 0.06914434899934872 -3.134752720836919 1.076861425477353 
-0.2097921692797343 0.6151689835613214 -1.650055783942053 0.1524683727559870 0.5247905309502114 0.5674200659542644 
2.560799253591147 0.1165919458085956 -0.2873547970782965 -1.100520263684625 -1.431268432965816 0.1417522943290438 
-1.742100856324155 -0.3208182489665130 0.9491474534673778 1.808192875209595 -1.667211334975752 0.9727901115894376 
-0.08536723007273331 0.7247460007039940 0.5755643938525205 -0.3015981347837811 -0.1998673771252474 -0.7134776525747429 
0.6182552474917480 -1.553460418557982 -0.04260694501594178 1.108686024088825 -0.3084736709665000 0.1775997629598385 
0.5853666261367362 1.257204680711078 -1.250590792676192 -1.188963257101857 0.2428292979072725 0.3541534450229874 
-1.371672016380463 -0.1963807468298650 0.8896370146117063 0.5930476040430395 -1.139121512530805 1.224489657086413 
0.7205441265999631 0.2447754345608085 -0.4804273495028624 -0.7111396023751342 1.089257073399454 -0.8630096826822710 
-1.426895865411398 0.4351585187466756 0.6487447627457278 0.3681751882890656 0.5390286334727556 -0.5642112378428233 
0.1662432470434734 -0.6741773198704676 -1.136368328467902 0.5481948695723196 0.4448968599192100 0.6512106718033510 
1.320421384248224 1.085991504348994 0.08105788409077480 -0.5270163703426004 0.9864868913465379 -2.946941293691927 
-0.1068840097797418 0.4114592246028996 -0.2488035867850831 -0.6824610620589762 0.07093978687501654 0.5557496471458886 
-1.971707593721242 1.240379618668864 0.4813273886715735 -0.6840146342162870 -0.3440914565456783 1.278106677142787 
0.1893088741720616 -0.5647573966444404 0.5153855405231078 -0.6753260975361128 0.1661356472858206 0.3692534321995526 
