solver_type MCSVM_CS
nr_class 7
label 2 0 5 6 4 3 1
nr_feature 199
bias 0.000000000000000
w
-0.3049202870106391 -0.1544391913859125 0.6677220999382792 1.491008497250251 -1.025036008235733 -0.7470242221268476 0.07268911157060655 
-0.1967311143638412 0.1278057551143993 0.001807078349196227 0.06577501519655661 -1.134608876250778 1.562335538405401 -0.4263833964509378 
-0.3536352533120396 0.6799259771660797 0.1197272542785148 -0.04908093187667089 -0.2065188166299627 -0.3479364230570342 0.1575181934311220 
0.7385989529817828 -0.5245475273889226 0.3078222661753602 0.06567292019896417 -0.2041517662892747 -0.7225043648470506 0.3391095191691518 
-0.4901254901759911 -0.9771779743295538 -0.09789508611772212 0.5238178283478377 0.4823825110999639 0.8011175973491914 -0.2421193861737260 
0.9987217901518509 -1.165533646461383 -0.1634928092310042 -0.1192640036792032 0.7784266712896312 -1.059917462271479 0.7310594602015803 
-1.082141098119668 0.9019971512127599 0.2461285642463510 1.248816082342367 -0.6941049692622421 0.05971172551254467 -0.6804074559321127 
0.1146821669730172 -0.3315784133120752 -0.6967064564640228 0.5902325949202280 0.06362199752912175 -0.05466448854251261 0.3144125988962497 
-0.2871413943879618 -1.122460181694382 0.3189412194981002 1.712447643617038 -0.09894049468926679 -0.06659497064270460 -0.4562518217008232 
0.06422848717434010 2.052498317997196 -1.216386788085262 -1.681149902914521 0.1088046307111531 0.2057858533702415 0.4662194017468435 
0.2391422084063989 -1.234510497656884 0.8279482741476663 0.1020650130261711 0.4151859441818512 -0.1831239823124660 -0.1667069597927373 
-0.2963258586494240 -0.8422099959543594 -0.03210212548254647 -0.09489692081339683 1.790035908736895 0.2682487640434006 -0.7927497718805482 
-0.2446427272579616 0.3595285390257300 -0.7978032272630725 -0.6780427208202607 -0.5576920393616865 1.358875371278111 0.5597768043991483 
0.1598898308342124 -0.5740944283258552 -0.7887225719583364 1.484089135197365 -0.4893649221325365 -0.2877621479855859 0.4959651043707570 
0.05949778096485035 -1.150216700048269 0.2769989761812557 0.8441305297769319 0.2178513590712835 -0.6102229776498330 0.3619610317037765 
-0.3225763862504506 -0.6013405904766634 0.4317596873415544 0.3915991484177369 -0.7445603492683953 0.7646746277535322 0.08044386248268719 
1.022465099336188 0.09497569931239405 -0.8240663210752330 -0.8264383249823030 1.371632949964565 -0.7647168003475961 -0.07385230220801318 
-0.5153247632660669 -3.200237709257051 0.5046492422410817 1.537850421494383 0.4969796853639077 0.8445566650229185 0.3315264584008018 
-0.1776125611205430 0.2114132012896677 0.8043928745855197 0.3206227999993915 -2.630084323740729 0.9469426588453579 0.5243253501413369 
-0.001698914006480277 0.9865203608251373 -0.6336593017258286 0.7388283503909842 -0.8847539636850679 0.6155520783471616 -0.8207886101459142 
0.5688627823012041 0.3084389361771859 -0.5988497638718079 -0.5402026025204825 0.06311570111502643 0.5799588255428193 -0.3813238787439469 
0.1584548971436547 -2.204259500297829 0.2246391296975913 0.2174248579324881 1.083011882560050 0.09322403036442711 0.4275047025995994 
-0.5229389986001541 -0.5633367476981069 -0.4880742476012226 1.213922724163894 -0.5621273974441505 0.3320600550853503 0.5904946120943909 
-0.1620356763539907 1.348936971696901 0.5876514261132620 -0.1098486277882073 -0.7296541091620162 -1.089528138694283 0.1544781541883387 
-0.5033003442779725 0.2570750234392528 0.2595294596311941 1.188184551229944 -1.697440751381715 -0.05002678453747311 0.5459788458967817 
0.1483485597745730 -0.05693936709485827 -0.8634556653648489 -0.1186621513568242 -1.077287691349588 1.157708745743832 0.8102875696477161 
0.5693330436783139 0.4756552080238623 0.5399860821273280 -0.3708253901083490 -0.9137070907840400 -0.7262333917697863 0.4257915388326629 
0.8002099343583010 1.062812685991355 0.3169980417372647 -0.7959491242664826 -1.146384428687986 -0.3454232594811762 0.1077361503487156 
0.4088082656845481 0.4686711673688793 0.4261618649195820 -0.3590568426994454 -1.160616480553182 0.3683849606194752 -0.1523529353398461 
-0.04278122644538341 0.6055319452950922 -0.4495669180627417 -0.2365138892884882 -0.6708462814443066 1.202330407058612 -0.4081540371127927 
-0.5294603279914085 0.09882544556786317 0.8253519286257532 1.253136303646961 0.3060097899920307 -0.9757445649213624 -0.9781185749198468 
0.2030901203440547 -1.286357299169435 -0.7385488286058642 0.7061413684980067 -0.6725718176330018 1.340977540195279 0.4472689163709628 
0.7204521244754083 -0.07150714861856457 -0.1297632400708174 -1.047912944895200 0.4960396852347681 -0.03653148634472688 0.06922301021912837 
-0.5887249927033935 -0.9848036230334453 0.3032110297950073 -1.273182942860489 2.321098747028335 1.207371914023216 -0.9849701322492728 
0.08480034529910233 -0.5641209504442726 0.6315389367109789 -0.6738580186462570 0.5003453549869757 0.07385207765606104 -0.05255774556258321 
-0.7213705022164780 0.7647953057595303 0.5325451237208777 -0.6725268750178023 0.3206952533804389 0.6767601151062884 -0.9008984207328494 
0.5237162259623040 0.2694005391388991 -0.7648527702744188 -0.02237963693077997 0.6962390445399389 -0.6909482980220171 -0.01117510441392451 
1.442622641474738 0.1659868966941544 -0.1054186944535632 -1.235620770270305 -0.4033736822717103 0.3206656893752782 -0.1848620805485884 
-0.2897973058720651 -0.2532473913002178 0.09377468785402263 0.8952870731859820 -1.509243301573712 0.1899031511733681 0.8733230865326296 
0.9048441752392985 -0.8581102109693188 -0.3688432076118477 -0.06901959657940288 1.169200446831300 -0.1658933311683024 -0.6121782757417277 
-0.3096459715684729 0.1415611236600634 0.6106586646262387 -0.9427504469582798 0.1688317572356640 0.05745098109413004 0.2738938919106641 
0.1631523909022102 -1.904019847175280 0.5151783911173696 0.7751787435700644 1.398983690163374 -1.029110629468165 0.08063726089041642 
-0.3033283685121955 -0.6495785478499543 0.6519739285439549 0.2698800471821943 0.7140473624529565 0.007834949959905893 -0.6908293717768476 
-0.5933806932468435 1.244960875598143 -0.7194673002995975 0.7964962247944130 -0.9995773162419289 0.002294417476396494 0.2686737919194036 
-1.197510852160927 2.509767131316941 -0.3335676407828127 -0.1387292647881347 0.2314849247228729 -0.8709753230452658 -0.2004689752626862 
0.2295470678466017 -2.054963536055021 -0.3162454200839424 0.3352796948215170 1.239086131073529 1.027204060927502 -0.4599079985301812 
-1.300112253600602 1.162785591385348 0.7984917184134507 0.3256075870628065 -0.2852704006480432 0.06460038679002648 -0.7661026294029799 
-0.6256789374602258 1.122989069312911 -0.1921448656502716 1.281107453943373 -1.257889747775435 0.1493116558640196 -0.4776946282343773 
0.3172605119643017 -1.621080925749709 0.6513056243234657 0.2673084102372710 -0.1096168337728656 0.4122165856911493 0.08260662730637651 
-0.3294527106796491 2.408516125883250 -0.5249300646293039 -0.8355910216742262 0.1109670456846173 -0.8991020012092636 0.06959262662455615 
-0.4812656208795221 0.7270288912943612 0.2584475929501027 -0.5053743400394479 0.4827416465308786 -0.8295467354572811 0.3479685656009046 
-0.2281646414252608 1.451220669585443 0.01669257292311328 -0.1702371173893522 0.6234832235041925 -1.076107034102337 -0.6168876730957810 
0.7602955079983974 -1.400191694983904 0.3141972059683436 0.4261322746239433 0.4459238625260644 0.03004632288619768 -0.5764034790190334 
0.4027589632591592 -1.506171488078802 -0.4398379433723919 -0.4795801883433696 2.319504950829441 -0.1343928899275426 -0.1622814043664740 
0.5460985059405049 -0.3452470584609207 1.264493606234346 -1.081179568852958 0.1204710085677845 -0.5239083299263637 0.01927183649760223 
-1.083996704558267 -1.111978180942144 0.6068195495754104 0.5763558794804420 0.8183153784651818 -0.02603819007597017 0.2205222680553697 
0.04371402218419897 0.1829038346016150 0.6998835836939247 -0.1090422029965203 0.2864620567961645 0.09767909621763043 -1.201600390497019 
0.06852064969339196 -0.3082900312391901 -1.241561828277858 0.1908370351168304 0.5282308656082053 0.9439219631401888 -0.1816586540415695 
0.3597088320298364 -0.4434036556480566 -0.3099817051549274 0.6245536323597219 -0.9782262959258133 0.7578853337111628 -0.01053614137192743 
0.6981371051277749 -0.9262163850195322 0.5517063821258790 0.6112414777382198 -1.386560968411871 -0.2286505240238419 0.6803429124633558 
-0.6199435337874251 -1.415991623334876 0.04077685107493782 0.3911360228809702 1.187454645334378 0.2554402228952016 0.1611274149368017 
-0.1887066012615501 0.2068715280749959 -0.7315816189402009 0.3007024753684078 0.5263897711372796 0.2455420356697100 -0.3592175900486477 
0.3602941956015078 0.02575467897728563 0.4866155995061904 0.2941280749309604 0.2332409389548986 -0.3136890914444134 -1.086344396526444 
0.4201188763086426 -0.2754413941261485 -0.2116126786040205 -0.07003936872711920 -0.05483310685310647 -0.02525501082027666 0.2170626828220327 
1.374187877434783 -0.001228026650289702 -0.3950376186425307 -0.8140006845648339 0.5275173724068362 -1.033591200925468 0.3421522809414954 
-0.3100104924950951 1.362137249799511 -0.7361939404565010 0.3782132823975570 -0.9326248954150658 -0.4294419673464455 0.6679207635160355 
0.4900460467301125 -0.9511829982034371 -0.4300212650608928 -0.2149458973101620 1.324067935115902 -1.667208868869781 1.449245047598249 
0.4383642145804666 0.1975193052928238 -0.3430118258105256 -0.06472570884981071 0.5307199931858351 -0.9379698073685420 0.1791038289697489 
-0.1167115524550169 -0.5799801676214185 -0.2316866460016434 2.032985970612886 -1.153501811393399 -0.8229456006946400 0.8718398075532328 
-0.4727792134956828 -0.2256902442497054 0.2703376208624740 -1.032014653102946 2.066815253693644 0.3469974627689548 -0.9536662264767699 
0.5125981621729772 0.4184947391839543 -0.5603904922059533 0.2171281943544319 -0.2211328624496065 0.3041868546739242 -0.6708845957297139 
-0.2242646217281128 0.4887851417104605 -0.3952366869069814 -0.9239303204960883 0.4457685770741388 -0.5951855133149410 1.204063423661517 
0.5213663731281257 -0.4788056551885826 -0.2815743215199992 -1.061659803350485 0.9850520037618394 0.6227206856646595 -0.3070992824955491 
-0.1813336777098672 1.185285968657937 -0.04307570372164000 -0.4703867355264499 -1.247420423875725 0.4654817146693115 0.2914488575064526 
0.5432836053636397 -1.578361446778143 -0.4405340971475729 0.1498516160212035 1.736972734511082 -1.226164758736756 0.8149523467665336 
0.2822578133393723 -0.4222264865139930 0.1529758154742686 -0.6238704640138459 -1.478887444495861 1.612591503312700 0.4771592628973770 
-0.5969846626959503 -1.438811712694114 -0.5943891425000895 1.135239530324385 0.5847619677425048 0.5620140783547591 0.3481699414685067 
0.1514885835006785 0.3917575385461758 0.03726395599809879 -0.08796440918092258 -1.199872666825296 0.5142842454267189 0.1930427525345430 
-0.3719828956901766 -2.098266308445106 1.062355618328909 1.075491072654708 -0.3206790893154252 -0.07466749714999209 0.7277490996170811 
0.7667502211954175 -0.9873270904679150 0.3644665334706461 -0.5603918512287657 0.01959020565417695 0.3552243999482846 0.04168758142815233 
0.2053477849870174 0.7145778124684220 -0.9217288241814054 -0.2291884199207962 -1.659139307889227 0.8783632606612662 1.011767693874722 
-1.077965727091955 0.3127336936493909 0.5172497735585837 1.140291720566072 -0.3341665758018266 0.2463320948705554 -0.8044749797508247 
0.1915203328279841 0.5720659142004881 0.07963460050033812 -0.4159127858086159 -0.4989913096677840 -0.4091367618439548 0.4808200097915404 
-0.6595181274188069 -1.182364414330817 0.3931575335137898 0.3021337610683146 0.3452819671290497 0.7536315100756973 0.04767776996277512 
0.6183997758119575 -2.041170084710781 -0.2616353229581680 1.781586556262863 -0.3893407549961281 -0.3571167703924979 0.6492766009827493 
-0.04490074716635110 0.04161624332142935 0.04063448660548368 0.9766318180815998 -0.8757370127365846 -0.07179158014548834 -0.06645320796009759 
0.7888134133925577 -1.152087452912942 0.1617878392753646 -0.5312129163356906 -1.362445963555095 1.311648806247645 0.7834962738881649 
-0.8828521268637352 1.554313419760893 0.9283999783269912 -0.8776978610934094 0.7603817672751465 -0.9432455823070439 -0.5392995950988294 
-0.02740411421505069 1.073359779192310 0.005218028906534962 0.8004908873085467 -1.265782669764213 -0.3235399455053122 -0.2623419659228264 
0.6261526662843114 -0.03230377307731400 -0.3550562131763944 -1.148626170816735 1.698388066568744 -0.8016991357261751 0.01314455994355700 
-0.6972872487941709 1.688019510549043 0.6356429910506506 -0.2858588025637460 -1.237596861092439 0.2034167179091146 -0.3063363070584515 
0.9310851459672210 -0.7506479967535696 -0.5328724012271017 -0.3005948869245717 -0.08064144185751644 0.8433765829352535 -0.1097050021397285 
0.2298500251846766 0.01161880988756379 -0.6037825723980259 1.158445645796719 -0.2595557320604814 -0.5421233457154006 0.005547169304945960 
0.2413718971049927 1.108680966203652 -0.5112734754594480 -0.7935912833023636 0.4933396272030905 -1.161153204051941 0.6226254723020261 
0.5979326388643225 -0.8200437095438914 0.2090841042635789 -1.101951002406829 0.6862679835286113 0.07075214845486467 0.3579578368393432 
-0.6809897807492070 -0.5437821073230656 -0.4210619294256666 -0.09563338594593127 0.6483534705156206 0.4326619223983443 0.6604518105299048 
0.7301307826688487 -0.1945937003615183 0.2712075004945280 -0.4705656030305406 -0.7372969031872114 0.3146981366810632 0.08641978673483065 
-1.434563747010072 -2.152709008143042 0.7330010724484497 0.1137922544695569 2.466967746588490 0.6326247908670477 -0.3591131092204236 
-0.4850139266491816 1.062846786954502 0.03084553585011846 0.09259456050845445 -0.1665129106113649 -0.1922809325011899 -0.3424791135513550 
0.3012900511013307 0.2751609790041761 -0.5089256239377684 -0.7138716834942741 0.06200446394302964 0.2571152067088183 0.3272266066746824 
0.7283160576934364 1.108136996137738 0.2437843681636157 -0.6659505552148313 -1.344830195537830 -0.1950346775770313 0.1255780063349034 
-0.4015420798472318 -0.1837306935183217 -0.4358112061312655 0.3940790305407055 0.1429101899514436 0.1227458051412341 0.3613489538634350 
0.2515460987293667 -0.7345373083289468 -1.190064415625694 0.1453571496253807 0.9712878783507793 0.4579440054857757 0.09846659176334675 
0.2529601920839663 -0.2700551588410405 -0.7278419961996220 -0.2531384245424109 -0.2167894659214246 0.02738001156290919 1.187484841857617 
-0.9836329951964528 0.8265495052452816 0.6892358202490021 -0.7486426787598690 0.7632165485661767 -1.197665170575471 0.6509389704713395 
0.9865083239170694 -2.579683500666094 1.336909745962502 -1.296734561002688 1.161953890450403 0.9826266625192040 -0.5915805611804051 
-0.8508798363852277 -1.316895478190269 0.5442792623505105 -0.1924401709040987 -0.1990640448607080 0.3127352248920216 1.702265043097781 
0.08838531299436651 -0.5706644936548655 0.3791894440603371 0.2002564919953196 -0.7123359770346264 0.004721954201145383 0.6104472674383224 
-1.196458576919405 1.292239781905907 0.8949154385353504 0.4473298203129537 -0.9721811444644783 0.1280770550906038 -0.5939223744609214 
-0.3299842180908411 -0.01094393950601840 -0.01176941375785148 0.5254825238148532 -0.4782318086724892 0.1839869065562206 0.1214599496561251 
-0.9801859171941795 -0.9185292779374875 -0.2861675856218036 -0.5097156832156778 1.136840267324006 1.311070135366087 0.2466880612790464 
-0.3711058723201686 1.338574388512762 -0.2289598545451327 0.1731270644186276 -0.8136953790041286 -0.4351092221188659 0.3371688750569139 
0.2865580988294234 -0.8093179304909051 -0.8811720588252591 -0.09727880302701810 0.2192392555541164 1.345388077456623 -0.06341663949696698 
-0.4924161312562931 0.04616807086070777 0.7344877481064906 -0.1618172375919066 0.05456881635284300 -0.4660937369255784 0.2851024704537342 
0.6790439528272498 0.2060928155508394 -1.295889474304563 -0.5882012842942257 0.5962989719568277 -0.003515568371757654 0.4061705866356342 
0.09794038859993620 0.03753039009239906 0.7230468423365871 -0.4554523691851210 1.302819423618992 -0.8018844879027816 -0.9040001875600112 
-0.04944118899458387 1.005724885310526 0.2924192260620080 0.6521001146574376 -1.203481162709690 -0.7631186549341455 0.06579678060845344 
-0.004793857839646737 1.826976265716914 0.3719338659690705 -0.1908022087548381 -1.181854866397222 -0.1456507684797561 -0.6758084302145316 
-0.9565742507611302 -0.5878300209163768 1.416084088633169 0.9211459356897793 -0.2899748517542398 0.5714273133119409 -1.074278214203127 
-1.253963195503297 0.2701436864149353 0.3206653515184690 0.9269796915365663 -1.077706770563518 0.7041616749713959 0.1097195616254332 
-0.7160524757551066 0.7839099421520422 -0.1070674886243148 -0.5509278423316145 2.193368787951866 -0.4435004289336086 -1.159730494459266 
-0.1101443221650907 -0.7826183599015574 -0.1801281853596574 -0.1648217756057860 1.908754407109452 -0.9272824750378534 0.2562407109604906 
0.9156507616589674 -0.1883615660437579 -0.3180525435722921 -0.01514407069435034 -0.9740235196759630 0.4044523907296364 0.1754785475977757 
0.6357109758793561 -0.2161631037750565 -0.7883115013905858 -0.03460469148851724 0.5576710229960180 0.2567644114716495 -0.4110671136928458 
-0.3931634156932770 1.728267853146905 -0.2917707690579255 -0.9521594805132867 0.5220544763713490 0.6858131120448907 -1.299041776298649 
0.07596392582262594 1.229106845607437 -0.5733581985426347 -1.083646038510478 -1.014231259328598 1.190698736096308 0.1754659888553360 
-0.1261139514079114 1.284518803112058 -0.1656982957630268 -0.01281349375549275 -0.4792183241914190 -0.6501614700194080 0.1494867320251963 
-0.5034276012738937 -0.1573908329537651 0.1609001919799394 1.122491698837208 -0.3788166442512814 -1.230760296097386 0.9870034837591773 
-0.6696336706266663 0.8860788845318885 -0.6620110514454552 -0.9576740486916036 1.059177039914154 -0.2325290868912132 0.5765919332088845 
0.2879473019063407 0.1108193797391817 0.004329304470263711 0.6216832680251415 0.4320033676549638 -1.284415831180374 -0.1723667906155285 
0.2785202188105534 0.5847842560693390 -1.217189912565344 0.3459660775442954 1.571577061641428 -1.094746755238254 -0.4689109462620232 
-0.1172775427507706 1.136552401183628 -0.6792827770312636 0.4008212234578098 0.4305651568575014 -0.5989124973222398 -0.5724659643946841 
-0.3173725279748225 -0.5403750459647858 -0.02499803513932860 0.4838336529411642 -0.1901993407904329 0.9879691389998035 -0.3988578420716032 
0.7794109747168899 0.4171161041416908 -0.5104314009710079 0.09664219358282604 -1.645375746736796 -0.1696932863861878 1.032331161652589 
0.4398091586689255 0.3399118395341765 -0.2945606877101344 -0.2203216109942977 0.01039175536870998 0.6009411302632793 -0.8761715851306662 
-0.4199448847654504 -0.6643166641371325 0.08883795591200140 -0.8302965196689416 1.164066984764798 0.3828697469432664 0.2787833809514766 
0.5693404199707893 -1.021625039965235 -0.2855091556642257 1.015343075581053 -0.2221099655567943 0.6413616098783059 -0.6968009442438886 
0.2669747226282434 -0.006802447261270074 -0.7420001206488981 0.06627657116046033 1.568719876062699 -0.4061203782626060 -0.7470482236786208 
0.2549123457131828 0.7182066415287365 -0.5350756439377228 0.1961980245769655 -0.3825504724461502 -1.033102648840630 0.7814117534056234 
-0.4368764413300828 2.143201742113693 -0.2844797870581328 0.4957184667935987 -1.157358473113489 -1.806847300156198 1.046641792750636 
-1.682879072176420 1.865180372169575 0.5126684881406693 0.3340298673167482 -1.700288742268444 -0.4122096895865489 1.083498776404400 
-1.584178901391183 -0.03579648274087507 0.1976248062424339 0.2939162334596684 0.1561306309908858 1.415006262770437 -0.4427025493313683 
-0.5676499650476240 0.5426223882711504 0.5755442275466250 -0.6636191475773905 -0.04349056920100981 -0.4923178398240739 0.6489109058323272 
0.1368719985335211 2.236500145886664 0.006182372461034732 -0.9899330359332872 -1.399874424112014 -0.5651647840948900 0.5754177272589677 
-0.8078060225553361 0.7022784628076316 0.3226915275046006 -0.9734851662928771 1.161107469536111 0.1232475353958097 -0.5280338063959356 
0.5660025635673115 0.6719092438598856 0.3416512351905063 -1.118659480492414 -0.4244751373062315 -0.2847806734639938 0.2483522486449441 
0.6799916087760478 -0.4591120866430317 0.7142484501090557 -0.5141805788767236 0.9032555363838485 -1.599081813234624 0.2748788834854442 
0.7871075635600676 -0.7259823250122526 0.4027282518527451 -1.505439731992169 1.018740063529949 -0.08824626399133889 0.1110924420530035 
0.2009698247511961 -0.4182219256517417 -0.08233326972329365 0.009257185221801120 1.566486246040202 -0.9877000782604557 -0.2884579823777007 
0.6809483897548151 -1.650094542244998 0.4408684075170472 -0.7797896603806700 -0.6015458537267048 1.569135836650054 0.3404774224304618 
-0.2427812061008742 0.05274417639936859 0.7558111311569818 -0.2487334968317673 -0.01287772489584174 0.2025891177424535 -0.5067519974703241 
0.3492725209358785 0.4808355043074594 -0.6982041520765995 0.7691620840532490 -1.015323543419605 0.06289236505277053 0.05136522114685669 
-0.1759623208411592 0.4265989848785704 0.5046132304208067 -0.3102829950140706 -0.6627178727935606 -0.05072210698946232 0.2684730803388831 
1.701706953776188 -0.5506442364644641 -0.8723372351095656 -1.077888564186274 -0.09822929207416146 0.004172421472163099 0.8932199525861088 
-0.1097592022505435 -0.2155436088921431 -0.1440878867099333 -0.7336500376173238 -0.2723148053744496 1.404771619612914 0.07058392123147790 
-1.340795570336044 2.156901502733568 -0.04678747068754804 -0.6273019157729253 1.140784533243106 -0.8732637388474824 -0.4095373403326635 
0.09950917768179009 -1.052864498272514 0.2413387674454617 1.072745667690745 0.6520535396430085 -0.9087331846473772 -0.1040494695410949 
-0.1525228275739277 -0.1252607875768567 0.4303159786457471 -0.8076399450292895 1.216268350885315 0.3672455244628985 -0.9284062938138794 
-0.6257694231209462 -0.08337240836522643 0.3376241106729799 0.5300387837820617 -0.9563426512928499 0.7262890288059400 0.07153255951803911 
-0.1175770584841417 1.085771796771239 0.006783681639934528 -0.7058939901671685 -0.6419920670861439 0.1805435293039396 0.1923641080223441 
-0.8281797803421369 1.644516178086309 -0.03060283221361630 -0.9224582349831794 0.5428311528546956 0.6853047604379285 -1.091411243840016 
-0.8032276504919895 0.9287463654145113 -1.052204118912764 0.7585630639331727 0.3145861026477968 0.4752556818291930 -0.6217194444199108 
-1.064814438474443 0.4057539540503690 0.2830813438877166 -0.7694524896789127 2.314022109764465 -0.3105100337512645 -0.8580804457979374 
-0.7043602376788073 0.4479771342344949 -0.3593842242012790 0.5423114051453924 -0.9661686090098480 0.3746494125308267 0.6649751189792277 
-1.107774143544414 0.09408263405604435 0.3679718637392751 1.662009916299435 -0.6603667259176227 -0.6005278106710131 0.2446042660383004 
-0.1559955484900749 1.156231564093787 0.7284873953364205 -0.3096076211669173 -0.9793773206320021 -1.258675133655022 0.8189366645137971 
0.2789785035351725 0.4653240226636104 -0.3995472003857756 0.3182664926941478 -0.4475704186016335 -0.0008028058613657654 -0.2146485940441579 
0.2904369171730541 -0.7407409848894878 0.7922289183982721 -0.02736606025662283 -0.1478216924206830 -0.3514067460869390 0.1846696480824121 
0.2295235741247583 -1.464438843334529 -0.02095046954654629 0.2545755010904633 1.159175578060134 0.02957653780441298 -0.1874618781986938 
-0.6646527110026004 0.9893085487567430 -0.02634067282597436 0.4231616950316630 -1.142721743531129 -0.4832883498677554 0.9045332334390684 
-0.4811828903362931 1.083928020753608 -0.04406893503017147 1.107408398326957 -0.1922496092181694 -1.349665681929991 -0.1241693025659355 
0.1635585237790374 -0.7139825845983997 -0.2045164868740188 1.764377268204893 0.7446825724013392 -1.183624583539934 -0.5704947093729209 
-0.8073179888503996 0.3300617711903210 -0.2336528270496607 1.542244942325964 -0.4732296124379364 -0.2365299571323179 -0.1215763280459702 
0.1919213828505221 -0.2484116691805215 -0.1493098450982163 -0.7613531736697721 0.9787609075449900 -0.5278108007764830 0.5162031983294780 
0.5577313621309187 -0.1839732044944329 -0.8204452232926706 -0.7176060457398321 1.091018906177736 0.4811294200813143 -0.4078552148630393 
0.01505901460870554 -0.6740157368954441 0.1328708082626818 0.1567205789781975 0.5226925872122447 -0.2026271248990047 0.04929987273262029 
0.3441385367620639 0.5939046002123430 -0.1741238293314376 -0.7355096953763395 -0.5622399369376647 0.6436470341539103 -0.1098167094828799 
-0.04683261995596567 -0.3114324773779587 0.6268136836049244 -0.3450633082834586 -0.7254679620022119 0.7557419699183865 0.04624071409628920 
0.5924412313789124 1.821424894439614 -0.9539352271007633 0.9045253790775114 -1.316205829650877 -1.276184888978687 0.2279344408342702 
-0.7078624952184569 0.9243199114449439 0.05863588290570291 0.3896835643100699 0.9930656041139617 -1.110032291276169 -0.5478101762800511 
-0.03022015171482231 -0.7730381230019299 0.4328373833531528 1.310741070538384 -1.348365473342846 0.4918969218009703 -0.08385162763291770 
0.7576461927258284 -1.329131329072492 -0.4492253777469442 0.4528625277237615 0.7123729518769120 -0.1933960867790709 0.04887112127200521 
0.8789810580080082 -0.6140913752219638 -0.05969857166192667 0.4009212463675462 -1.146181589019833 -0.1262564399235443 0.6663256714517096 
1.200217344398277 -0.8371714088960960 0.8143927982218770 -1.572961275477205 -0.3451427932753740 0.7820945409001614 -0.04142920587164545 
0.3127204205098062 0.3387361618730264 0.3307445187697393 0.5754221896995687 -0.2905562145561945 -1.181241075348156 -0.08582600094778747 
-0.6300943391497189 -0.03591003134281856 -0.05208495844720913 0.09489764165777595 -0.2906903787214735 0.07843905749568111 0.8354430085077645 
0.06135245283791701 -0.01807770303043918 0.07345516543201591 -0.5922692147121544 0.2891474916622626 -0.4637347294745018 0.6501265372849033 
-0.4595958003937214 2.247041768069080 -0.7114944875721908 0.5685792170943539 -0.09650946042308023 -0.9687360947487509 -0.5792851420256833 
-0.4613810606732264 -0.08685922196686946 -0.01616352090549220 0.01764828578558424 -0.2909367091999977 0.7210399998341819 0.1166522271258215 
0.1641139353487515 -0.2314515094742717 0.09201755696575055 0.1405432339511409 -0.2804288162806669 0.4172753187159980 -0.3020697192266984 
0.4608378789794072 0.2317305151399000 0.6687616816308372 -0.9959780888137184 -0.06837237174116056 -0.4529288344269213 0.1559492192316634 
-0.07858697424735113 0.1346389338803727 0.09490165706406538 -0.09780590198312715 -0.05803976034393187 -0.4343926995730679 0.4392847452030441 
0.5319738489929704 -0.8117601613998107 -0.5320716408149295 0.8761216400147130 -0.5781015439981333 0.04424641663063068 0.4695914405745630 
-0.5591916411248000 -0.4764478305991683 -0.3598946879260447 1.388986960510330 0.1666029901440634 0.01229285833663236 -0.1723486493409922 
-0.3353599250303133 1.669702962852039 0.9278056637097274 -0.003747839218501031 -1.735727848668428 -1.052644047434798 0.5299710337902898 
0.3533132748658248 -0.6305210261721079 0.9152017260734586 0.3495285235891436 -1.458531242818431 -0.2557062438951365 0.7267149883572558 
-0.8989693496765290 1.430282249311833 -0.4840232669934715 -0.2304786155567494 0.3048927991850228 -0.05384682568484947 -0.06785699058523799 
0.3140260311078074 -0.002436068540085410 -0.2510040766182792 -0.4576970073594100 1.311747244052216 -1.180302204416982 0.2656660817747417 
-0.09323372534253160 0.2932489235459223 0.1879400317215493 1.125311129911763 -0.9739176187932305 0.1283246828563431 -0.6676734238997939 
0.1647243546975230 -0.9390424341524111 0.4182007019960868 -0.5923846686736522 1.357474077508703 0.7667415765289362 -1.175713607905179 
