solver_type MCSVM_CS
nr_class 7
label 0 6 3 2 4 1 5
nr_feature 199
bias 0.000000000000000
w
0.05704001879221372 0.5886100896051903 -0.5391520411484860 0.1171657132154735 -0.5739041810548686 0.2722783104903989 0.07796209010007360 
0.6624114967318968 -0.3372934915145399 -0.1014422324912797 0.08276702142511320 0.2590781068471416 -0.1594761478950407 -0.4060447531032922 
-0.08000534061734402 0.4248387731451522 0.1406914860764821 -0.06405562774088594 -0.3615506706832192 -0.1048906830730525 0.04497206289286691 
0.1327744900497025 0.2432624087200444 -0.3290311183987302 0.08183847918824794 -0.08931836279066212 -0.1520626261961660 0.1125367294275648 
0.9722271606755404 -0.2086827905813965 0.03091649532800121 -0.3217604811854065 0.1737346708938457 -0.8935134666211550 0.2470784114905754 
-0.9320354666936644 -0.2207037972843892 -0.9739778177527101 0.7071226338819164 0.5868837108819009 0.8080003412373400 0.02471039572960677 
0.4707413087599230 0.2298644136239046 0.2645517314802634 0.1357808167649146 -1.022423621997501 -0.5740955360088527 0.4955808873773493 
0.9680949751786440 0.05422555895445767 0.08428558942281147 -0.2290069359906422 -1.271605155407932 0.6377553213200067 -0.2437493534773422 
-0.3242788767138924 0.1446295845505675 -0.5377924359455911 0.3862998390168699 0.1277904979335142 0.4625864034623176 -0.2592350123037889 
0.03861208528453402 -0.6912690919296927 0.3940258805303399 -0.3478808568441654 0.6700436142706804 0.3685738224452641 -0.4321054537569625 
-0.6831242515144759 0.1218971593699625 -0.1757085668803133 -0.007206285586793699 0.5541873270361461 -0.02478271403577131 0.2147373316112463 
-0.2755216291148501 0.2017747120895635 -0.04593776719352311 -0.1477076598646847 0.6424117204403067 0.1200345452236599 -0.4950539215804713 
-0.3416378549056748 0.2056029880076895 0.9781973553867561 -0.4711246768271404 -0.6319461115352794 0.4050551110341190 -0.1441468111604692 
-1.177846886367422 0.6842014142548840 -0.2355390011127691 0.4082779102669488 0.7403395817327616 0.1416429840207178 -0.5610760027951207 
-0.8351446897549575 0.9608748694196231 -0.1112043029560920 -0.3840449335761078 0.4618302357106005 0.2380796820281088 -0.3303908608711704 
-0.5875970064736799 0.1645688934538117 -0.2690547182898131 0.3300971377867388 -0.4458773065466644 0.4694132102615668 0.3384497898080351 
-0.3377917131468066 -0.2604996257817830 -0.4862710940562584 0.3569724080556963 0.4683912246409480 -0.01166525262400395 0.2708640529122106 
-0.9598015610284880 -0.04512106271110401 0.4221557570065695 -0.3567069528100388 0.1234873095323635 0.7558985156906147 0.06008799432008951 
0.4518232019134813 0.4836526231090277 -0.01224402308114378 0.2311328713418506 -1.400907515688012 0.03921317792156046 0.2073296644832423 
-0.4527610416532284 0.3459586190595441 -0.3652468876909447 0.01975091145305524 0.6279114496321762 0.2337138023317221 -0.4093268531323286 
-0.3393346517038364 0.2079228307064693 0.3265506393063744 0.009655174936224732 -0.4328824348275258 0.02792541426313214 0.2001630273191615 
-0.7700548155898671 -0.04239045674510741 0.5470140324254750 -0.1785199622015646 0.1175454340813848 0.5948747629757037 -0.2684689949460304 
0.3583679935583621 0.6268093431538191 -0.1623711254802479 -0.2945238322653010 0.2100697057688144 -0.1155562588667474 -0.6227958258686992 
-0.6653405415454757 -0.1003535128821076 -0.2503145039348545 0.08913956493492796 0.1998987820246082 0.05789025469299756 0.6690799567099006 
0.08813309198647166 0.4686389335384110 0.2273041416900105 0.2236604000325250 -0.7774124829304213 -0.01762310160121184 -0.2127009827157829 
0.4886824381111878 -0.3271479336574331 0.07342051324470908 -0.3107889431785455 0.2885427089631029 -0.1709598592322571 -0.04174892425076491 
-0.5243402488961705 -0.7649736701006734 -0.4394933037724562 -0.03034841789561731 0.2860868622877603 0.5271662202747467 0.9459025581024165 
-0.1087704011701678 -0.9054600981269081 0.1671641777485218 0.3454774775155714 0.4573217310952830 -0.1886797610890997 0.2329468740267998 
0.9205135475879656 -0.06097703093286759 0.003424680051962426 -0.1841876270216427 -0.5225807600408552 -0.3625027568091413 0.2063099471645799 
0.2440531684730430 -0.3865891197914709 0.5173039294988729 -0.1230393912946123 -0.5487576022394925 0.3193663487998540 -0.02233733344619526 
-0.02538990641258268 0.7079860536205644 -0.3367698846325715 -0.1810091170584874 -0.2414083380015949 -0.4149119869838565 0.4915031794685277 
-0.7065440334144373 0.6632867122529054 0.4557110021748216 -0.007971275346910878 -0.4722036779975127 0.2588908164126365 -0.1911695440814996 
0.8154143174393387 -0.5953617379328279 0.07750520669926422 0.2779818953126155 -0.6409336573701655 -0.03755861720341240 0.1029525930551767 
-0.6827492360721034 -0.7635986538966698 0.9156633183340929 0.2028804413324893 -0.1604241107036491 0.1387809660544525 0.3494472749513858 
0.2511211486818797 -0.1432013842125244 0.3474690937750741 0.01438894483786884 -0.7100967126583160 0.1358503953664030 0.1044685142096167 
-0.5497060105476506 -0.4534050247586409 0.3876819583844493 0.08491096486173666 0.5495183275531622 -0.06108117780838149 0.04208096231533128 
0.09404460605323858 0.1555679909435952 -0.2304231891310156 0.2577537748316191 -0.4698362791253249 0.4442657291991208 -0.2513726327712340 
0.4751780513886411 -0.8281068404861067 0.5578659745205358 0.4534253649581195 -0.3712415492004204 -0.7834213327464176 0.4963003315656512 
0.05836054295983623 0.4415339654850310 -0.3037956065110262 -0.6051991236162964 -0.3254390058971201 0.3528064243963730 0.3817328031832037 
-1.217505406039676 -0.007327791812578480 0.2532111052269099 0.1383883701047240 1.029233504625405 -0.5175299763470870 0.3215301942423028 
0.2676930085606029 -0.6381050141795997 0.1090066742958940 0.007349797838552537 -0.07605122593248144 0.1610558477118963 0.1690509117051365 
-1.054263117447473 0.2455163080276192 0.03860812092102978 0.3523090428226495 0.7210596916097230 0.04153980512819802 -0.3447698510617428 
0.2785539252045498 0.2934128776515640 -0.2850791118705482 -0.9098206005420715 0.1306361827416274 0.3409761084128633 0.1513206184020169 
-0.06661538419389629 0.5341516321392414 0.4682100943784638 -0.1739060218789594 -0.5585360785235634 0.08674276463711330 -0.2900470065583980 
0.1660789499590057 0.2410477504420716 0.1275687651194588 -0.5452720416310786 0.5853032646293107 -0.2057736732430765 -0.3689530152756925 
-0.7679202121012204 -0.7718584633774257 0.8048079498685631 0.8049223167796034 0.5708177190541326 -0.3571231802049785 -0.2836461300186723 
0.3174778399116373 -0.2457051775350559 0.4146287511406493 -0.6582667373186012 0.2356915002864812 -0.1638552626673510 0.1000290861822402 
0.7766159980318008 0.4996838805677323 -0.2911723924900149 -0.1262133061050302 0.7695025502220307 -0.7211030543084198 -0.9073136759181010 
-0.7832553991048882 -0.2557266572065717 0.1606051749507461 0.3557702820163648 -0.3275503022523602 0.2432216393730742 0.6069352622236366 
-0.3128915673217249 0.6795478617614952 -0.06169427787268985 -0.5583220165153391 0.4227041647036083 -0.3385479471229888 0.1692037823676398 
-0.03755414293227433 -0.2262562785081158 -0.1614698933224419 -0.2932931624528739 0.9417009051171702 -0.02791733481180150 -0.1952100930896639 
-0.6576877019511540 -0.2520414992409307 0.04683864631458735 -0.1995295642297017 1.464318611842775 -0.5081019351195301 0.1062034423839538 
-0.8372447035296927 0.1274525565886020 0.3192592500930662 0.2297625414608537 0.5829846214882360 -0.7857964202141290 0.3635821541130590 
-0.2466467600075900 0.1585226757310059 -0.2576281267078375 -0.02787890195863179 1.116083531848340 -0.5875463044094172 -0.1549061144958642 
-0.8725540164818182 -0.5516866855499141 -0.003896062552462140 0.5840824822996616 0.6018510810079472 -0.2830317846245627 0.5252349859011546 
-0.7419470400997438 0.5660822392896305 -0.01510450416181810 -0.3287511947922993 -0.4509367581019825 0.5864266260302623 0.3842306318359503 
0.4704506461398496 0.2323232512512873 -0.3417048090294627 0.5503224855215835 -0.1408211761278860 -0.4459138643333714 -0.3246565334220025 
0.1913164003300797 0.8183067214851348 0.3371073571292210 -0.1436621173451256 -0.7280840948405632 0.04321704043025769 -0.5182013071889997 
-0.4835697749578095 0.1898310113446815 0.3493802946973365 0.6779192720445460 -1.003337321674434 0.2859250599589817 -0.01614854141330280 
0.3049189967601779 0.3241680797805754 -0.01255624397733676 0.3256784359712227 -0.7959650657702514 -0.3248507008050859 0.1786064980406975 
-1.273787681709532 0.9326873118637322 0.1004363931879294 -0.2333313324603731 0.2548224395312057 0.6210060119031876 -0.4018331423161436 
0.5377341970835228 0.5105166451516836 -0.05674759166519416 -0.4846017642048459 0.2447500506903093 -0.3327880589614679 -0.4188634780940095 
0.4205694860903736 -0.1804049097153353 0.1250764767916708 0.2415784520689872 -0.4831983848876165 -0.5554110743249804 0.4317899539769024 
0.05623888315565649 0.6322451564285136 0.5938207991572084 0.1893721781371983 -0.5202105988188712 -0.5725999287968436 -0.3788664892628544 
-0.3870179185033008 -0.4945134755420911 0.1984518757221983 0.5473929485466071 -0.1938491563438489 0.2887688914724625 0.04076683464796924 
0.02466138794697383 0.1905707890296353 0.1242966911330439 -0.1477203456682723 -0.2702403341982355 0.6241952079950085 -0.5457633962381518 
-0.3752729608966877 -0.2485115512190025 -0.8447759642392560 0.1544722735620565 0.6803751167043139 0.8048391728539405 -0.1711260867653587 
0.8806463632103090 0.2292557933123398 -0.8702535750045816 0.2603530102183014 0.07161085679357772 -0.3931104055449224 -0.1785020429850283 
0.01772423567386137 0.6076138673629835 -0.5756934573939928 0.4315822781812001 -0.2042770744318223 0.5135323101225675 -0.7904821595148016 
-0.1369088599511442 -0.5593381229563239 0.2236194447839717 -0.2466571485663914 0.9941058688987763 -0.4147583871494196 0.1399372049405293 
-0.3553814475162130 -0.4049329249426216 0.5162998221453052 -0.3590089733249330 0.8871452130622884 -0.4729075978741278 0.1887859084503036 
0.7775824178463219 -0.3564473275931820 -0.8741895741970020 -0.1462350885330085 -0.7878488670994487 0.9873881424449218 0.3997502971313979 
0.08720230217475011 -0.4068525892795656 0.3513297432064038 0.1939609039417221 -0.2466055536004159 -0.1282779698215500 0.1492431633786544 
-0.9546765214063496 0.4844311307524297 0.4192273128717306 0.1432100828459170 -0.8721068561833304 0.5257222415234979 0.2541926095961100 
0.4382415975716898 -0.002927445803745394 -0.5405270174113194 -0.09858888781798243 0.6418646728824261 -0.1896430936522691 -0.2484198257687968 
-0.009053280045243589 -0.08155406300080228 0.5666935696492106 0.4294210532064664 -1.453835451568838 0.3146431855154088 0.2336849862437914 
0.08126404786855246 0.4859688055733258 -0.4521071280987484 -0.01618637317898883 0.1756090023698710 0.2334766043911663 -0.5080249589251783 
0.6463052279030450 0.01057282406546373 -0.08712857010819988 0.1449757376550465 -0.07532749231124623 -0.4555734087190032 -0.1838243184851101 
-0.6750018239136305 -0.04923616725911719 0.2421531409609113 -0.1739925679130881 -0.2681689506832348 0.7652291699723808 0.1590171988357839 
-0.3970607358471823 -0.2059076420389316 0.1792587192442411 0.5715695104409148 0.08930442731225752 -0.1207201642817623 -0.1164441148295374 
0.1101684992583988 0.3812881126293266 -0.2300633236110145 -0.2965056548715715 -0.04548403522978735 0.3701631989599984 -0.2895667971353531 
-0.7580120488554566 0.8827804075011039 -0.1743548414259025 0.2478007317064601 -0.06271798052482923 -0.3458720825269606 0.2103758141255850 
0.1529408794886607 -0.5631016751605773 -0.6187604270633302 0.4517754812493980 0.4912764031057654 -0.09221366727068100 0.1780830056507650 
-1.793830477549665 0.2409831467210879 0.4064616574663253 0.3986041304820301 0.4744875098196759 -0.01637104806206624 0.2896650811226172 
-1.370503469751833 0.3130885783050650 -0.1220263841156527 0.8432906924434638 -0.09002292115765351 0.3606261307945188 0.06554737348208928 
-0.7860804638054093 0.5139060984188073 0.2073185093088587 -0.2800411306077429 0.8030623935235436 -0.7554883489699002 0.2973229421318414 
-0.3607421405647923 -0.4927879483091511 0.9163353828600624 -0.3644305167513826 -0.1829083572835738 0.2480262375647159 0.2365073424841280 
0.3633825398417846 -0.1280407487441596 -0.8158448904972448 0.1371163705685294 -0.1468108477790271 0.4425593178269967 0.1476382587831192 
-0.2420991195575602 -0.1132734895798613 0.1432188946093909 0.01089335287523363 -0.1235653833818955 0.09399729603958251 0.2308284489951075 
0.2636230796280735 -0.3973126218431556 -0.03475858887035394 -0.2010475581423962 0.3689109620914487 0.03579779570569696 -0.03521306856931347 
-0.3693843144600859 0.1515162569838843 0.2606832301126328 0.3304940506504949 -0.5536165557873642 -0.3195171551411909 0.4998244876416257 
-0.3174767603983529 0.1800183631106704 0.1382256753711027 0.8369153772922165 -0.6461455663586076 0.006711267311242076 -0.1982483563282744 
-0.5533668384772630 0.4756565645996881 0.01849029443284935 0.1778239336795967 0.06373700280966206 -0.05769777890921845 -0.1246431781353163 
1.210176313584261 0.3619915068798532 -0.5281436265701908 -0.6517531531173550 -0.6192024109319749 0.3678671837745772 -0.1409358136191708 
-0.8838614620537302 0.1185649366977522 0.4542645036872944 0.3462438183214363 0.3511883840861809 -0.3703535423325966 -0.01604663840633375 
0.5986988668958707 -0.06771116113458454 -0.7177368173460210 0.3369573379270167 0.3467852143040324 0.1540572050205389 -0.6510506456668501 
-0.8639983979575481 -0.4072197933854415 0.3606695266911492 0.3703746721444962 -0.3157370012448160 0.7666281753431787 0.08928281840898071 
0.1063329727600725 -0.4581687038530127 0.03326909797381251 -0.2445514061171651 0.5389367945088739 -0.002124666277006141 0.02630591100442586 
0.1654901880924094 0.8512488846491474 -0.2833721618636758 -0.3569682666435368 -0.7110713162114125 0.2610405986757649 0.07363207330130635 
-0.4716358449418610 -0.2375293187189368 0.8536932333357884 -0.6929061389426421 0.4560491766267535 -0.09375934449148443 0.1860882371323820 
-0.1342264572274444 -0.4541830083844802 0.1028689318795875 0.1064301337922122 -0.3342803297449444 0.4142764469447064 0.2991142827403621 
-0.02182848832629974 -0.2579371476393542 0.08243918774427214 -0.7379566082167060 1.641684529592389 -0.2524751536317380 -0.4539263195225645 
0.2830351041264365 0.1271017883720769 -0.5620251195661548 0.2068844374526623 -0.1016724599189501 0.6123688197064974 -0.5656925701725719 
0.4553717987346063 0.6997512193164271 -0.1987212797170513 -0.1653554325663097 -0.8381752318353604 0.4218582181575701 -0.3747292920898764 
-0.03671523515702020 -0.8516050605449130 -0.3954357087192472 -0.03413148607850602 0.6268952810703022 0.07201257158499472 0.6189796378443928 
-0.6453699734012110 -1.106092946345995 0.7286073958841934 -0.1974277731689292 1.277592894679369 -0.4549969632891524 0.3976873656417251 
0.009632076978977114 0.1904727425446583 -0.8009937081293085 -0.3604963976316379 0.1065088073860282 0.7617908770737347 0.09308560177755316 
1.439160408557638 0.2347211552644122 -0.0005825832374556281 -0.03399532873434207 -2.115695791799925 0.2752394494622735 0.2011526904874018 
0.3367193158197063 0.3264491883710652 -0.3217143956871018 -0.1548066262968305 0.2713384529587626 -0.6406867325407000 0.1827007973750938 
-0.6739813747078615 0.01386128282898507 -0.4182183662795599 -0.1641335922451380 0.8640232696679472 0.1282451505748324 0.2502036301607894 
-0.3558852547457480 0.06058996838942622 0.8595505315563722 -0.9854089928755213 -0.1274869408411796 0.9154541484110713 -0.3668134598944181 
0.9606413090080389 0.3435353562670307 0.01695108283807180 -0.07997935772345668 -1.496829145737063 0.07438206950742672 0.1812986858399504 
0.2247783387459316 -0.3117922826045873 0.7152425765187601 0.1290110218278924 -0.7044370919236866 0.4462421276211470 -0.4990446901854559 
-0.3675335408767948 -0.2583206871950198 -0.2816434467853727 0.01112687374159465 0.4059641258876719 0.6296978776214985 -0.1392912023935797 
-0.2823832057545428 -0.4277518335927075 0.09902106075181798 0.6988016281495973 0.6261810909323502 0.2397601888888553 -0.9536289293753764 
0.2881720923557717 -0.6860649305306429 -0.4518489137055760 -0.3305749872680927 0.5465505895925998 0.4612619339261355 0.1725042156298071 
0.07122088221744192 0.5923403724030100 -0.2583842932709358 0.3807917328252803 0.6265230962773215 -0.7527919918576677 -0.6596997985944512 
-0.2323837158862108 0.1466752239910477 0.3716187150797458 -0.04600346978681586 -0.3328922404050607 -0.01066391241480311 0.1036493994221006 
-0.7204238001219746 0.1102819904033896 0.6892725207065917 -0.3167789563651287 -0.1859773054883619 -0.1370433218505920 0.5606688727160742 
0.3613283900049854 -0.2020583086822042 -0.2090504929129884 -0.3456644184264424 0.1799408786404621 0.2110978244785260 0.004406126897661625 
-0.4253362800579610 0.2216376165206177 -0.4971784482923052 -0.02943232119332592 0.9275571072161886 -0.1280308125484116 -0.06921686164480102 
-1.008736335813714 -0.5289504061833133 0.02212110023430725 -0.05454721967844834 0.8749208547991330 0.7458645060272390 -0.05067249938519639 
0.6368058835496753 0.1484525703751686 0.5990955647573887 0.1296387885769806 -0.7653426812874462 -0.8135076329579197 0.06485750698615506 
-0.5860854425219741 -0.5666058557981911 0.08751627478660295 0.2950353680888571 0.8139017914236171 0.04640005078694229 -0.09016218676585400 
-0.009732639613239056 -0.3440039641697155 0.03676319178178596 0.3648026680917908 0.7565892588696835 -0.5235827596796150 -0.2808357552806891 
0.4308990003860969 -0.6243564810374682 0.8158219597110860 -0.1482735159031025 -0.2151715561386362 0.1337653352194917 -0.3926847422374714 
0.2572665655130108 0.3483740418650566 0.3797044444448091 -0.3600147187399909 0.1180977974305564 -0.6286948555336794 -0.1147332749797652 
0.002487665633683716 1.335254673500741 -0.1058290517435533 0.1021919684771784 -1.224746711139305 0.2364955225577492 -0.3458540672864899 
-0.3923095042407606 -0.2362756080863988 -0.2590275674220423 -0.2659922979532971 0.6627802284238198 0.7114236023800343 -0.2205988531013565 
0.5911626678343826 0.3951976754163993 -0.5628555725263293 0.1583434029492052 0.02728809971667526 -0.4160060158867751 -0.1931302575035566 
-0.3131596251523328 0.008765413725583192 0.3298933858438494 -0.07523784704929300 0.4842979141252183 0.03429789837626982 -0.4688571398692940 
-0.04076171353447763 0.1026772323342901 0.2146223014022883 -0.4343845516158117 0.8550480958629779 -0.7669599108895695 0.06975854644030238 
0.1830506996166588 0.01928769874203704 0.5089503488684111 -0.1747455557279357 -0.5186103314375307 0.1972783903266699 -0.2152112503883105 
0.5341564955704511 -0.2044393627457977 0.6577846673762144 -0.1048371197207564 -1.393049021932644 0.2233232507724423 0.2870610906800978 
-0.7759761379690030 -0.1608643526734781 0.5615877275006074 0.07761216083194838 0.2076786615391925 -0.1727875045857816 0.2627494453565190 
-0.9261102814833099 0.03416375064541590 0.4745869924754342 -0.1609555249337703 0.2641362040521850 0.1988909192956598 0.1152879399483814 
-0.6079840251399624 0.3412695276717435 0.5614559785253679 0.1290120416164714 -0.3164067360561189 -0.2532293937050079 0.1458826070875076 
-0.1599347683679298 0.2584934454875575 -0.05237787103165591 -0.1165797804280720 0.6457325357940459 -0.4730748820252090 -0.1022586794287372 
0.2719248978521151 0.001992075806295167 -0.9134421991178041 -0.2442834204450134 0.7781788544469616 0.007766269375642523 0.09786352208179969 
-0.5747726911465134 0.2306503029995514 -0.4858773374052787 0.1228915180908172 0.1189694260011878 0.6642395588246677 -0.07610077736442872 
0.6950803217291526 0.3240195639706562 -1.209630220548223 0.2280303665305255 -0.9355921171489997 0.9188947913242055 -0.02080270585732392 
-0.03304151175549273 0.8260040611986402 0.4039209032611616 -0.1223337903957438 -0.8995811854086301 -0.3488982873081680 0.1739298104082322 
0.3464483723880688 -0.2406245802425163 -0.6787895859790213 0.06420558608551809 -0.02136492459736120 0.6185218107171147 -0.08839667837180228 
0.4943328631022336 -0.8010818595746954 -0.4648175625041550 -0.05662521524979073 0.2261037123338173 0.3563157385677662 0.2457723233248264 
-0.4203623830548116 0.1744495126727378 0.3777552431652846 -0.1465969293288279 0.7811565609263510 -0.8805590438009366 0.1141570394202007 
-0.5251753657151369 0.1058085204308972 0.5690617435610594 -0.08366492903966823 0.4515105828954143 -0.6441521653074632 0.1266116131748990 
-0.4495806390010086 -0.1855128871364276 -0.6867956377122308 0.1532781242369466 0.1557690853979030 0.3930665477616795 0.6197754064531384 
0.4012716137824697 -0.03707782972274695 -0.01511177706278351 0.5253932494622482 -1.069031113246479 0.1487275702675511 0.04582828651973941 
-0.2623894264625538 -0.2179414870964063 -0.2083576296456023 0.1898451730908390 -0.04239423765510920 0.3549544293735822 0.1862831783952477 
-0.8324119770838967 -0.6410339942611871 0.4599266399377497 0.6737946945251467 -0.7699267124754543 0.7097588496389755 0.3998924997186622 
0.08211331041558596 -0.5502591008082910 0.7730886045621360 -0.3522936434131293 -0.4278327453326502 0.01797580577518356 0.4572077688011642 
-0.09902345129282203 0.1428812823303834 -0.007105633494444540 -0.1591683839170727 0.04710729851617285 0.1333942956607248 -0.05808540780294245 
0.07623199223601720 -0.1765269117541270 -0.003507948264351824 0.3171597811936719 -0.3865555822849329 0.3741773578599194 -0.2009786889861964 
-1.007321768956839 1.151544347145866 0.5202428675915575 -0.004401851404256718 -0.2162858671490626 -0.06641949973800813 -0.3773582274892571 
-0.5109254392589493 -0.9350918354099375 0.6538137471619948 0.01120134231361918 0.7758881474623512 0.2410535768015199 -0.2359395390705993 
-0.7618651535935761 -0.3076187083978726 0.3529887389722599 -0.07222652872776222 0.5783119771333500 0.5021331623191667 -0.2917234877055660 
-1.009546008489840 0.7704381633636675 -0.3973996767107809 0.4420395773746855 0.1330552025037195 0.08952926687340460 -0.02811652491485995 
0.8165925516685157 0.3254585752542225 -0.06971531551357099 -0.2370720467753046 -0.1861723358430291 -0.6165517554312305 -0.03253967335960324 
0.6295509954172065 0.1496163389846401 0.1124436693698309 -0.3298432116005701 -0.5437188365270172 -0.2424129660366747 0.2243640103925833 
0.2117567186874863 -0.1780936528726179 0.1393002599660779 0.2974417817986361 -1.218848603144750 0.2409815426529928 0.5074619529121726 
0.3093613355507439 -0.1313331535054360 0.6782293499101211 -0.5337366365860168 -0.2051686271971142 -0.1842319468723777 0.06687967870007895 
0.1846142327828863 0.2542597449336223 0.2558230241084998 -0.6291641638133361 0.8284751137844912 -0.3421831886181332 -0.5518247631780293 
-0.5849949476108054 -0.6732276086342771 0.3044458581113267 -0.4579874356007790 1.406695650751587 -0.2244575526065382 0.2295260355894890 
-0.005270417166242966 0.3046541985158268 0.006251046737491278 -0.3180937662127860 0.007149315746115878 0.09531494285536005 -0.09000532047576375 
-0.6839752686765133 0.4726512770886518 0.1048991359561871 -0.5388393496160869 0.4277438519618590 0.4215556594180692 -0.2040353061321633 
-0.1787268845942708 0.07849728739684625 -0.02080393739150454 -0.004616971987225845 -0.4418853353063985 0.1361504350063860 0.4313854068761683 
0.05523455080527700 0.09592745171934541 -0.6500902363030001 0.3615318589977538 0.6007494441192123 -0.3414507229493338 -0.1219023463892596 
-0.1069324530547938 -0.4923396087652537 -0.04375662553934152 0.6528198996740566 0.05499516793681709 -0.4044444058218021 0.3396580255703189 
0.04744512029449993 0.2419347441983260 -0.7109908391491648 0.03300314919216917 0.1695987247581212 0.1803664592643231 0.03864264144172590 
0.7885699845590617 0.2292610561928193 -0.8023379539859335 -0.07675816626893903 -0.5215690331526980 0.3625262807191221 0.02030783193656620 
0.3482334446804349 0.3125666241901703 -0.4561031166969794 -0.4519314689077350 0.3915965522722869 -0.3192286303054820 0.1748665947673053 
-0.6673414876749385 0.3979194347487168 -0.2686648969893810 -0.07150912112676015 0.3842515318951629 0.2052959559141684 0.02004858323304172 
-0.07730064800934225 0.3491276228562614 -0.04746593426427835 -0.8046356828813230 0.6385978373329789 -0.2754790419785514 0.2171558469442632 
0.2359690684388171 -0.08964221516738670 0.1808764294254481 0.1432704165449100 -0.6212255689676407 0.4491590980574131 -0.2984072283315618 
0.2888965640805263 -0.1696855698318812 0.8648247894773636 0.3859232354330440 -0.5518909935440577 -0.4381397451557042 -0.3799282804592918 
-0.2642813956748956 0.3411893296760198 -0.1983798619520659 0.07521069997164014 0.7961391941990003 -0.8853911935214615 0.1355132273017666 
0.5349464298269011 -0.2128107185458391 0.2532102767500923 -0.3999285818395814 -0.5312989888498622 0.2131734110983772 0.1427081715599116 
1.694184225056249 -0.9001677618589338 -0.02248009049384173 0.003078991359854392 -1.055797937313464 0.2869876759951275 -0.005805102744994582 
0.7577789171692731 0.3021290893035739 -1.380145548157026 0.09402485289859058 0.8724658581260587 -0.3239511973111218 -0.3223019720293454 
-0.4865820558338926 0.1444978411328605 -0.3449000329534158 0.3520398632213891 1.042421392404046 -0.2936850354946798 -0.4137919724763089 
0.3751632267198533 0.2858613448358132 -0.4238083024511835 -0.03514908347778295 -0.1743765937392080 -0.3534132967095540 0.3257227048220610 
-0.5056920051242845 0.6077688597564253 -0.4578034716908795 0.2540506646962907 0.5788584654119134 -0.4970556994623380 0.01987318641287154 
0.4610387851041407 -0.5557116437224290 0.1239648771379670 0.008308904639538636 -0.6307072804001529 -0.09542318366922471 0.6885295409101580 
0.1123966660244694 -1.139202131820823 0.7061409377199859 -0.04316899661190549 -0.1577505118617635 0.09304881730012908 0.4285352192499108 
0.2147146793320143 -0.3956157812783515 -0.3676482036920614 0.5974672968303814 -0.3425343949995515 -0.08733009580269245 0.3809464996102595 
-1.412436783864743 0.3786661667905736 0.5320098687978264 -0.3510698064382100 0.6387692067453162 0.5782724362257260 -0.3642110882564881 
0.01556420271275600 0.2697036598289904 -0.2340258513040658 -0.3214927624045135 0.1307487492246676 0.1032459780602366 0.03625602388192969 
1.302025854338581 0.7897760320666739 -0.5776228834628105 -0.1910494143283257 -0.08031186969261163 -0.8727311569849739 -0.3700865619365323 
-0.1748679514841659 0.1236368313744093 0.6050075745872249 -0.05331953207464945 -0.1328046865834156 -0.2989872827561280 -0.06866495306327611 
0.5046844520449480 -0.2595932903255711 0.3031524133111077 0.2919204863214657 -0.2850160779574442 -0.3979216913180880 -0.1572262920764183 
2.019348927053402 -0.2285309806059862 -0.8545326350577046 -0.09779171020212621 -0.5118881874720836 -0.2964982719867831 -0.03010714172871019 
0.5029186796314433 -0.4789933426553645 -0.2050252888569583 -0.1699652011658888 -0.1119887729783941 0.3202077530933891 0.1428461729317724 
-0.3493161783266678 0.6233425092892063 0.8432728796144952 0.2175724033632415 -1.116943178136819 -0.2601785531963544 0.04225011739290185 
-0.007642824946758617 1.161040632412975 -0.05758229547597370 0.1056168880784548 -0.09953395071890697 -0.3004271559002728 -0.8014712934495180 
0.4403373698730375 -0.2900073781431132 -0.6008531848215539 0.005998263797774447 -0.3621684453405528 0.6388559027398350 0.1678374718945666 
-0.5184728888591509 -0.2230125124546369 -0.1478469769140835 0.2540019403925637 -0.6592274512331494 0.8626678614719177 0.4318900275965429 
-0.3068331794403719 0.3450716559915366 0.3780624362871666 -0.3114443253706846 -0.2091454708437142 0.2677174481406974 -0.1634285647646301 
-0.4154913247111924 -0.4559820091083236 -0.4475417339175029 -0.06976946482002010 1.404762872412557 0.1165110318095749 -0.1324893716650930 
0.6762792309884981 0.4202456803362769 -0.02940178799948657 -0.04420010951094335 -0.3388683702988205 -0.4848734285143794 -0.1991812150011464 
-0.2471676218207978 -0.6766448921728258 0.3340358949835109 0.2678379431410148 0.05377493512266197 -0.06500028350804625 0.3331640242544826 
