solver_type MCSVM_CS
nr_class 7
label 2 0 5 6 4 3 1
nr_feature 199
bias 0.000000000000000
w
-0.6922397911220094 -0.7164276546083448 0.3219706543771030 1.979410043338486 -0.6552454062651428 -0.2267948908956867 -0.01067295482440255 
-0.04691892397333794 0.6637176048549502 0.6863131389148994 -0.4429893076178355 -1.925422027721072 1.027830003222689 0.03746951231968117 
-0.6482234931676445 0.4046396963172250 0.3926358115117967 0.3726006665517558 -0.4542249764516733 0.1088914052710792 -0.1763191100325380 
0.6257190773441299 -0.4203854823845031 0.2085281753079117 0.3824454552002273 0.07815869371440520 -0.8669906444735841 -0.007475274708577440 
-0.6918385998952423 -0.5171712776104684 0.02241389223522143 0.6142567602401870 0.8476497741720339 0.2014837723611349 -0.4767943215028767 
0.3848986702175860 -1.170507215682504 0.1762993503416986 0.1271108566923498 0.5179377427240297 -0.6360331454872932 0.6002937411941314 
-0.8981255935490283 0.3137438071303308 0.8887077051751523 1.122428255135338 -0.7211637978895111 0.5353950904198196 -1.240985466422090 
-0.3294170541364564 -0.6090365328338532 -1.386657403874040 1.080687018677355 0.6675817918258500 0.2849587594742086 0.2918834208669396 
0.7514104379370244 -1.000624908107545 -0.5067599343785263 1.790328204835970 0.1460845720342895 -0.7760200375658405 -0.4044183347553367 
0.6928207886031030 1.691959944733166 -1.233381029963934 -2.354864345618267 0.6530360091828273 -0.1606809161530201 0.7111095492161178 
0.5223646923650170 -1.202656114026814 1.003603292658287 -0.08777250608261020 -0.7257858869760929 0.2396321115033458 0.2506144105588642 
-0.8486088151317115 -0.3360157711851766 -0.1333562316012046 -0.5208598113189584 2.097934210974347 0.5478198663127776 -0.8069134480500745 
-0.1450519530949831 1.238490065777656 -0.6864247742339882 -0.008166547871608270 -1.538995208302264 0.8760935360907789 0.2640548816343970 
0.3464000040950135 -1.327631365246019 -0.8001341309123574 1.437639022831281 -0.7539220007698166 -0.1726082434930553 1.270256713494949 
0.1483698385504752 -1.333759982266503 0.3482895720090548 0.1835056929242534 0.7191938478794989 -0.3362148290463518 0.2706158599495824 
-0.3940892810960642 -1.174622251249864 1.308270163360568 0.5129602096751087 -0.8846110777930203 1.064561477465817 -0.4324692403625181 
1.785715426279177 -2.005585904754611 -0.5527993771446580 -0.5846619486443702 1.254587621745621 -0.5947142146590412 0.6974583971778372 
-0.5080679122777860 -3.110151682240598 0.9406735892751615 0.1846957611755024 0.6273328408818680 1.298615345785453 0.5669020574004360 
-0.7114311171285792 1.565086919167416 0.7087821613792792 -0.1118806718722341 -3.202048472642365 0.7630597366687674 0.9884314444277136 
-0.3921721106435847 0.7318983482898747 -0.5108629933515995 0.4554368237441725 -0.007473397639055187 0.4150619903015984 -0.6918886607014073 
0.6290402772579556 0.4783200978655425 -0.5379331681026401 -0.6470864279786218 0.2752767261474513 0.4804848636838509 -0.6781023688735345 
-0.6254676683999052 -1.710960970656313 0.2715130964492885 1.116174609797258 0.3890026372862462 0.2878568960821201 0.2718813994413111 
-1.274427299936632 -1.484979559145779 -0.1865419516088832 1.617124853055206 -0.1720749483111978 0.8628617202100018 0.6380371857372880 
-0.2025299877262242 1.442308694975375 0.4045264336629013 -0.5973330237483736 0.1406051522388236 -1.252043899670238 0.06446663026775346 
-0.6402787635882954 0.2880255813401248 -0.1385104233841883 1.315800210708982 -0.7771396069842595 -0.3616715943472081 0.3137745962548293 
0.1449894713801680 -0.004371266431463679 -0.8143836564286271 0.001071760740422865 -1.540312332111392 0.7266976329366683 1.486308389914236 
0.9932142125650983 0.005501016700614696 0.4613749337621569 -0.2367075450556708 -1.187194308462415 -0.6035514464459010 0.5673631369361265 
-0.3405398056874685 2.407176708197751 0.8154826705717668 -0.7746785080220284 -0.5888036306664977 -1.087604069982811 -0.4310333644106764 
0.5117959083239156 0.6628284504361156 0.3107881167027277 -0.4907261369037199 -0.4167338596066187 -0.07773918268192533 -0.5002132962704852 
-0.3335442695632856 0.2965440467936048 0.2041153566723996 0.3012747448043250 -0.7782112095723592 0.9690208065685714 -0.6591994757032462 
-0.3364497160272143 0.7221163841966820 0.6672856185478746 0.6548307819704177 -0.08007849105727319 -0.6190039990607868 -1.008700578569690 
0.3378628400643729 -1.592459702620046 -0.6519398548063601 0.7217362650877752 -0.8834825853355814 1.426721633927079 0.6415614036827431 
1.222905225765351 -0.3638857129942746 -0.3290497696814356 -1.156363342060401 0.3246164865209652 0.4232651482970784 -0.1214880358473033 
-1.403205675118320 -1.848620634732731 -9.418777318689718e-05 -1.116326370855697 2.849186018947899 2.027993033782338 -0.5089321842502798 
0.1541932974229334 -1.306322225547049 0.7182291071707387 -0.5429355444750363 0.8920113970110093 0.1774001754923708 -0.09257620707496002 
-0.6703107431004452 0.7253636898944106 0.4323727837114189 -0.8532966675522969 0.3910065920135533 0.06348182316283380 -0.08861747812947912 
1.332360092145153 1.047711735966239 -1.417171886901923 0.05084374950896868 0.3278828398206089 -1.298486358687192 -0.04314017185186394 
0.7146695872779396 -0.1201888054784294 1.252581246241557 -0.8066050399628625 -0.8588362571819452 0.5247549524658550 -0.7063756833621035 
0.08693661338564310 -0.7293153027313309 -0.4070183346068291 0.6583121265508642 -0.3388730924510182 0.1598546981718836 0.5701032916807870 
0.2460507992176410 -0.5970822753922587 -0.5529189072703786 0.3425557114372537 1.236936381084642 -0.1372678733957074 -0.5382738356811876 
-0.004587922694745329 0.03430879331392644 0.7441124152622106 -1.430962296761020 -0.5771998001837049 0.4870030376943116 0.7473257733690234 
0.7538413551174274 -2.179290869405461 0.5778194320482892 0.5149833058644572 0.6607393980642938 -0.5895846200944023 0.2614919984054223 
-0.8944223856813782 -0.2910601205997102 0.3216202605179717 0.6928854556549494 0.4624596741671359 -0.3575590852225269 0.06607620116356752 
-0.02979993911387459 1.055052101932539 -0.9819831865539159 0.7182822352905767 -1.812881332162587 0.3206537426101719 0.7306763779970838 
-1.303175268361711 2.910606985664593 -0.3800603994389918 -0.1421974894004089 -0.4643235312551305 -0.9254048658211009 0.3045545686127406 
-0.09880553898665681 -0.9721889554402251 -0.4228029052391034 0.04210364969870722 0.6065550648224163 0.8227565609841255 0.02238212416073956 
-0.8853766025876170 2.149495989742459 0.02567942210605768 -0.2539698451360683 0.2654839199434527 -0.3695534623965623 -0.9317594216717361 
-0.5176111525525772 0.5864729415866955 -0.5308468019943221 1.168451471572010 -1.350868597917344 0.05421793691848945 0.5901842023870442 
-0.2177644997425419 0.5462135811890899 0.7130641501930126 0.1067795783526742 -1.094343024706095 0.5463833110784966 -0.6003330963646282 
-0.1368506215823160 2.164245308306008 -0.7047576659367599 -0.5414336400218089 -0.2213595437980843 -0.7667671595014589 0.2069233225344375 
-0.7373124455647860 0.8739877986942991 0.03043956930764257 0.2552881859167538 0.6503300246232517 -1.080504970124667 0.007771837147501714 
0.1274109297893963 1.138124171734245 1.021034152511255 -0.6654891590683196 -0.04025572635481243 -1.195291044420652 -0.3855333241911090 
0.7451374621902433 -1.274433338709961 -0.07931307624541457 0.4440200345067434 -0.07030145223875668 0.2097109317314652 0.02517943876568569 
0.5229023213791343 -1.379064991205123 -0.3099971013754901 0.01906678357603277 1.594115380481099 0.4966015111223093 -0.9436239039779725 
0.3786043298709367 1.593910084923611 0.6224641679012111 -1.936741738544025 0.08557504445023362 -0.4396412605525775 -0.3041706280493864 
-0.7731305626009933 -0.3858656608371908 0.8997105858193295 0.1818095082068822 0.1720776743143840 -0.2434989566475972 0.1488974117451858 
0.8879043871826424 0.4328253593900994 0.5166420549548274 0.1014813199159572 0.2036769022172825 -0.6610946788847877 -1.481435344776020 
0.7276724748903045 -0.5266610896338974 -1.080467834182287 -0.4916927299328139 1.588143209893204 0.7846177780990466 -1.001611809133553 
0.2549645302705121 -0.1835102739633401 -0.3528110374215835 0.5236462066749955 -1.717919452255161 0.7215398612017498 0.7540901654928372 
-0.2033538896500496 0.2813241699116655 0.1009080076762733 1.407437543182726 -0.8047231114271002 -0.7405645888765428 -0.04102813081695945 
-0.2643336595997163 0.09463080321213281 -0.4505963975554673 0.01795254783687482 1.438512024045185 -0.4309022222930352 -0.4052630956459623 
-0.6494938260485447 0.8544690827857642 -0.9042718666294959 0.7053762182249951 0.4746666570234180 -0.3312433115797224 -0.1495029537764195 
1.115491248679000 -1.349921782460692 0.7333504638492561 0.7125950688220273 -0.5456314449888010 -0.3716039792861459 -0.2942795746146525 
-0.3266689842438382 -0.07164799360676988 -0.9940417035730389 -0.04957509733251651 0.4113723708958132 0.8072314542897309 0.2233299535706071 
1.483834077310036 -1.821432947524233 -0.1388614796677675 -1.545675090054069 0.9255301006062686 -0.2550391762318640 1.351644515561630 
-1.360400604387086 0.6853394994936187 0.4461475073863414 0.2655733049113195 -0.6258803113020933 0.08091552202733558 0.5083050818705583 
0.1957006170714786 0.09965846393320385 -0.8186027745949109 -0.4121434499228943 1.173293659122633 -1.488673348374079 1.250766832764551 
-0.1049065238543825 -0.07255078577850342 -0.4469278753042950 -0.3270185524597051 0.8862735877157993 -0.5569101777918625 0.6220403274729527 
-0.7522839478422491 -0.4920804505137644 -0.5104010050293522 1.984514818035166 -0.6431646855302353 0.04168980006441368 0.3717254708160336 
-0.8800006083665766 -0.5989233503247264 0.6594333939041437 -0.1995455484105426 2.020418151648673 0.09319116316940262 -1.094573201620385 
0.7844483751909072 0.4364911906314357 -1.271056223184170 0.2054455125038638 0.06215759185564925 0.6878827995888855 -0.9053692465865817 
-0.1668812846713495 -0.1934047251379371 -0.2681731586535444 -0.2336771732458779 -0.07777471168762778 -0.4107374303940617 1.350648483790401 
1.300175569943366 -0.6254390128132024 0.5510548283076651 -0.3269816227579662 -1.871941817818127 0.3570792532204670 0.6160528019177927 
0.2179641185218805 0.2857158073587508 0.2352059021748980 -0.8221684489127297 -0.9151746022402674 0.5853596883461467 0.4130975347513072 
0.2797630914768500 -2.181727490615502 -0.5051405303375657 0.2708240787153334 1.836313250040947 -0.1696814219168273 0.4696490226367885 
0.3906581401508957 -0.1725646212931980 -0.3173400022812008 -0.06842946588729648 -1.961328395365899 1.674183063399486 0.4548212812772042 
-0.8818119534418128 -1.167750363404547 0.2708763393314737 0.8254275909566742 0.5152073420362879 0.3127169440667690 0.1253341004551417 
0.08255702679320134 -1.411782181992050 0.6314344350443621 0.2715862966827217 -0.9843757620463767 1.359713192482468 0.05086699303566805 
-0.1024448249843103 -1.546349294563396 0.5913346699807861 1.076993245827639 0.2498358246499106 -0.5452894213502302 0.2759198004396069 
0.7436195645722349 -0.3074573882887958 0.04578779883732360 -0.3288914562734376 0.2250510102618771 0.4231746902510417 -0.8012842193602434 
-0.1139787766869327 1.055667953586615 -0.9024414838927964 0.2461542316675691 -1.680865287606224 0.2311123694875162 1.164350993444256 
-1.374086487202371 2.002389944802029 -0.3276912702801179 1.026941019969857 -0.05091191236607873 0.03738069923448056 -1.314021994157741 
-0.3196346553597454 0.8588989056439976 0.6524361404771377 -0.7172970905355489 -0.3351822634906076 -0.7404886304084995 0.6012675936732697 
-0.2219211708788162 -1.470445486048692 0.2349689419423557 1.448799233361088 -0.3051239201268561 0.9179153458029676 -0.6041929440520510 
1.220776017813106 -1.742944885660346 -0.2429741660413678 1.618533015680813 -0.8293583532205395 -0.4134332021372252 0.3894015735655386 
-0.3045460602002216 0.06960775755587119 -0.2838187796640666 0.7306344417857144 -0.1365681228282760 -0.2240198498005325 0.1487106131515076 
0.4970519340320237 -1.238431892582107 0.1375733778666365 -0.7076268913229213 -0.7777866279350755 0.9960201729074781 1.093199927033962 
-0.7361326446839299 2.119119825712214 1.241712559354975 -1.331106438675509 0.8664613096796938 -1.347190792754053 -0.8128638186334232 
0.2724166955635685 0.8051278667789195 -0.2453795839973513 0.8824658472027089 0.1510921404233944 -1.054227502270209 -0.8114954637010269 
0.3185647515637541 -0.04723964313732024 -0.2342008046951432 -1.213940091122374 1.589084641490757 -0.4808755934796137 0.06860673937994496 
-0.9373048399570304 1.561489037018946 0.6509700002307625 -0.05981930087761816 -0.6068070263542878 0.1166405169204720 -0.7251683869812524 
1.516155211871952 -2.133221878932853 -0.08379049612603802 -0.06546646675697751 -1.067909364330599 0.9279069506093564 0.9063260436651429 
0.06245454602722756 -0.6533496825601409 -1.146616154389605 1.692078888829831 0.8283038958143288 -0.2044609234960225 -0.5784105702256381 
0.9931173432463166 1.087697607473402 -1.519396054438440 -0.5908628532676834 0.2798793266426385 -1.098990118326203 0.8485547486699513 
0.1456685409971157 -0.8995450879550573 0.6927257308567414 -0.6670938858858952 0.2833649430415905 0.3428282393931023 0.1020515195524094 
-1.391448291145033 -0.8182774104171655 -0.3492489587073850 0.2284477745105661 1.354532865223948 0.6837451208294805 0.2922488997055979 
0.5556124944935134 0.1540247606322044 -0.2186205120392328 -0.1044358765193622 -0.2650338877135731 0.09001917337459780 -0.2115661522281483 
-0.7491340132021272 -1.876461909667892 0.2602801027638778 0.2050804308213486 1.444932669615741 1.196013229943389 -0.4807105102743201 
-0.4923466219294140 0.8896976329194753 0.1886124941563967 0.3183237291393550 0.4693891529381754 -1.096263545749288 -0.2774128414747115 
1.147727135787620 0.03052291639849809 -1.092859307384956 -0.4748718711577006 0.5810115412935547 0.5147330492647194 -0.7062634642017583 
1.602521142606363 0.5913958311014631 -0.02197415104350384 -0.3933818760432387 -1.053550518862416 -0.6449077069854734 -0.08010272077318982 
-0.9263359030496134 -0.2451807354078298 0.2836516758137058 0.02325871064363157 0.2956031748138600 0.1448192568329482 0.4241838203532963 
0.4236069230035264 -2.323836258890858 -0.008101340423052356 0.9315603411676393 -0.007929904356612744 0.5291349968546726 0.4555652426446735 
0.9291202116727173 -2.097192336799311 -0.6233194397350302 -0.04624751540618151 0.5474375172462513 -0.2127867117646426 1.502988274786233 
-0.1153934937101500 0.9114113979635415 0.2518803516044776 -1.004762811379999 1.064443113247765 -1.145496517515058 0.03791795978943308 
1.212446823676780 -1.525882083078340 0.5024008888720298 -1.245570389041435 1.561840386387821 0.06347600163237882 -0.5687116284492323 
-2.070333794943704 0.4055186974765032 0.8258646275896933 0.1538540167453062 -0.08046203417524514 0.02818341890155613 0.7373750684058603 
0.3054355894966752 -0.5510965135432359 0.9000180981898800 -0.1261492439729298 -0.8447615314197072 0.04400638245845044 0.2725472187908754 
-0.6220899129550512 0.9890165032788263 0.5284991854036081 0.3845854450504867 -1.499109222104925 0.4460366722561437 -0.2269386709290970 
-0.7577471381490980 1.202732557832988 -0.3083141022723509 0.7677597005756160 0.04122378170892505 -0.4009673653404825 -0.5446874343555931 
-0.5499626534338821 -0.8041729134095901 -0.5513377926971629 -0.9320982582853841 1.281425236702594 1.184136904285076 0.3720094768383642 
-0.7260962004778002 1.376543792470750 0.4467351389121406 -0.1355014928635926 -0.5291681804777658 -0.9410834397212386 0.5085703821575160 
0.7748143556277945 -1.180938705831190 -1.250258119894113 0.4872268512345820 0.1858524952989708 1.334250197325891 -0.3509470737619428 
0.2152943043982935 0.5521730881984633 0.5890184064978202 -0.3705129641766020 0.4778165589018783 -1.479625768072412 0.01583637425255803 
0.1485173490910524 0.4653761148799232 -0.4114703566745983 -1.076531494986017 -0.7642002811321429 0.2735415162455624 1.364767152576228 
0.1838237351546522 0.1724957393607156 0.1071628764331555 -0.8232458643807292 1.355307781839703 -0.5150719442238001 -0.4804723241837042 
0.5379259333302198 0.1474650412873344 -0.0006649688068051206 0.4828443907842276 0.3029765731584875 -0.9901734815023421 -0.4803734882511202 
-0.3952891124777678 1.181921894897221 1.178438242104274 0.1583191823710146 -1.366649692540506 -0.4313779673798506 -0.3253625469743959 
-0.4403125778624403 -0.9944024178228392 2.180448012308907 0.7505429452496284 -1.581112817102709 1.097231914213848 -1.012395058984370 
-1.156567822232518 -0.2046918390686688 0.2580199628123118 0.9058322546422636 -1.189575548463344 0.9950293652912376 0.3919536270187153 
-0.2567234718667983 0.8669204109230583 0.01717363574434414 -0.4463248129155989 1.416201110150554 -0.7068109303140977 -0.8904359417214597 
0.6943034784681430 -0.3837237196481672 -0.4961936783303464 -1.445829844878577 1.800365894463221 -0.7817217176572856 0.6127995875830462 
0.2871588990910576 -0.04199216132490534 -0.3558616399294547 -0.7034676135344523 -0.5761536978739380 0.5558580317476881 0.8344581818240147 
0.6906585333148623 0.3959275117329956 -0.9255973532851520 -1.095016770955033 2.065863061422359 -0.01340736397214934 -1.118427618257877 
-0.3219776004018112 0.7027243326086640 0.1726093718557807 -0.03077460400084349 1.011673184368018 0.2310298446309468 -1.765284529060765 
0.4204844429429353 1.533524817763927 -1.078458548159884 -0.7949136158620825 -0.4920989067471679 0.9441912760201390 -0.5327294659578632 
-0.7199735775387077 0.3616592719656644 0.3570636612063711 0.06399318719744165 0.1114392736460461 -0.005516338437059148 -0.1686654780397485 
-0.2277323325052343 -1.184486096837713 -0.09947749523746709 0.7070846623496628 -0.2060566166153759 -1.062524789615003 2.073192668461120 
-0.6634071553863082 1.154733510947836 -0.02206172578409880 -0.8977666401925924 0.1908676349123656 -0.6726727274038240 0.9103071029066212 
-0.6224992411673678 1.489393726139677 -0.08447282536668625 0.6396805296762279 1.082081558439086 -1.482762663098665 -1.021421084622268 
0.3874635862678153 -0.1854641039110158 -1.561027468546030 0.2146064564718739 2.456222666716972 -1.145647821916417 -0.1661533150831907 
-0.4822158993547446 1.108530838434381 -0.6395099878002842 0.5769161617119100 0.1895168800013157 -0.1481154665591895 -0.6051225264333766 
-0.09060401801079873 0.7582383557496678 -0.005077278341243730 0.1443554461849606 -0.3368190085632038 0.1576822161905378 -0.6277757132099085 
0.1402852314979640 0.6189632066358608 0.5649905048169519 -0.7737255097062816 -1.986040220219751 0.3163274779080210 1.119199309067225 
0.6873703375698383 0.2750429999721306 -0.4175977932083007 -0.5874189388224360 0.04483721134979298 0.3824833706961047 -0.3847171875571313 
-0.4318615284873834 -1.103637436387811 -0.3458323964681879 -0.2907977755374493 1.420803996197273 0.2011790989562066 0.5501460417273255 
0.8965233650461912 0.5912615296862163 -0.6135623817492090 1.042340885098104 -1.938823259843244 0.5166462948766687 -0.4943864331147204 
0.7088949732175205 -0.8033153443058296 -1.220731380377332 -0.01793902722807342 1.931877898375410 -0.1446788767300988 -0.4541082429516139 
0.4740942944130336 1.942058492784970 -1.270886289636239 -0.03564759133042936 -0.4970135563399709 -0.6466672340660976 0.03406188417471538 
0.2693168445902907 0.7694904475409862 0.02679859675985320 -0.5407696031643027 0.8924758342354511 -2.333816507764312 0.9165043878020501 
-0.6925016923776772 0.9736394070452028 0.5745902837442212 0.9534469876589647 -1.231798968734101 -1.045540051396873 0.4681640340602534 
-1.538367321878759 0.3624891655827515 -0.3490320294205040 1.047847456688282 0.2855805204710136 1.347282328473244 -1.155800119916019 
-1.361962877796177 0.9967543586853718 1.171954941023073 -0.6330684800909566 -0.2329218809728789 -0.3128146658818390 0.3720586050333889 
-0.1700118835390282 2.451203186306117 0.9252462734793749 -1.093385307366009 -1.128520990549233 -1.240529406844768 0.2559981285135236 
-0.5096789265124941 -0.3707585892718006 0.3691927016359571 0.1887718147474296 1.058597408348903 0.2091154018420309 -0.9452398107900152 
1.120099805491721 -0.5492338971482565 0.3124492278286496 -0.5696398698190108 0.4288945895510766 -0.6956800773799380 -0.04688977852423993 
0.3706427116480296 -0.9370827725734915 0.8792259679974077 -0.8377235961767465 0.7000393930293058 -1.458708898414374 1.283607194489875 
0.8984156300767093 -0.7572764606513086 0.3791709726576636 -1.012745251690656 0.6545292136631196 0.05399368844823867 -0.2160877925037654 
-0.8710611768431219 1.918910380945587 -0.2791440800411821 -0.7761717464599801 1.273309184334541 -1.421361213172447 0.1555186512365914 
-0.3614170733484450 -1.063758018069954 0.4871516698923042 -0.6542078928345266 0.05173081826890246 1.968985676258789 -0.4284851801670840 
-0.1103769449849417 0.3216515687277967 1.071655616357323 -0.9638038059275325 -0.3293154755424432 0.1759906761817469 -0.1658016348119457 
0.4712112275870780 -0.5305476792197434 -0.2068454742694348 0.9730467581123204 -0.6762689393366516 0.08961284975300617 -0.1202087426265745 
-0.5960488767701628 2.038713182108050 0.6535684920764155 -0.5575974348636328 -1.227529801642902 -0.05402207406732270 -0.2570834868404441 
0.6849213665346822 -0.2627649164550899 -0.2408421695930602 -0.7068958792254693 0.4184657102702312 -0.2953507714632151 0.4024666599319243 
-0.7620047082860886 0.06706278984579447 0.3134537686435474 -0.7024459055842701 0.003562966686580975 1.436547916971752 -0.3561768282773181 
-0.8696970835638064 1.090061436257620 0.4517501463078505 -1.656517766839378 1.541669929707604 -0.5246238087241822 -0.03264285314571762 
0.2370383791868377 -2.308287452636237 0.3064910971419870 0.5873567914855350 1.533432443867519 -0.1235599978790911 -0.2324712611665331 
-0.1152407414659978 -0.1614184745374499 0.7690192239423849 -0.9115482668896628 0.5973222897255771 0.5331068293833372 -0.7112408601581883 
-0.9940645703204833 0.5599756272987993 0.7295635543777147 1.167499669292769 -1.894197443427275 0.1032005343964770 0.3280226283820223 
-0.4502544300300067 1.150746965495417 0.08743972182432320 -0.7780119690701092 -0.6311031034779830 0.004432429915092379 0.6167503853432579 
-0.1714906396436473 0.03092390692929560 -0.4277597019576427 0.03604313137399844 0.5911251291400083 0.7570714713319876 -0.8159132971739994 
-1.263782566916506 1.389735120195074 -0.9511361919078636 0.2568216532950998 0.7860233581634751 0.9169030086221336 -1.134564381451389 
-0.4741882629993947 -0.01598331953333314 -0.1531680118871963 -0.1479513116225940 2.797018292246561 -0.8798919106183910 -1.125835475585647 
-0.3686552775640588 2.266475171082099 -1.335587749051925 0.6346914679918401 -1.305429226612277 -0.4895909917901376 0.5980966059444687 
-0.4471087312481342 1.118135894992057 -0.4385854047699510 1.032792802383290 0.05682464007439798 -1.160897770502394 -0.1611614309292719 
-0.6584692959178143 0.8574151656878488 1.261288777491769 0.4256660655457444 -1.504043166644776 -1.065178398203739 0.6833208520409346 
0.8318659328015002 0.4388654644161533 -1.066260006553651 -0.5400641078795013 -0.7669878105808714 0.08898118121774422 1.013599346578624 
0.6791435287330873 -1.106444998906558 0.3720346037026149 0.1791854554266505 -0.8375961743062219 0.6442729124939622 0.06940467285647880 
0.2800142491311490 -0.2036326533235087 0.2008281221778487 0.05534648844057397 0.3297140457073243 -0.4250694732453861 -0.2372007788879997 
-0.7936913897166984 0.3319709561802429 0.3955902375616346 0.9113658773320158 -1.768311115609287 -0.5798526988700251 1.502928133122117 
-0.8960403302851511 1.530083998623704 -0.02478752410075250 0.5512314034761343 -0.1583349450092092 -0.5907976109716437 -0.4113549917330837 
0.3343972596627511 -0.7828404802742628 -0.2674299448994374 1.880608953147418 -0.3258486603835212 -0.9217234941776952 0.08283636692472891 
-1.167658829125964 -0.8388608597484872 0.1994982481865151 1.157792245015794 -0.2371257111518638 0.2658891641503534 0.6204657426736660 
-0.3656724392070891 0.7582924117234112 0.1434017612007543 -1.427269226670230 1.022978959733630 -0.4127333418777304 0.2810018750972454 
0.3464807230696986 -1.649967963636864 -0.1754387638255957 0.2005444468432471 1.246766237400889 0.7103256170112112 -0.6787102968625901 
0.6288867255583924 0.04308898132847688 -0.3047276342591154 0.4685075216351826 -0.4447003188565585 -0.3353438723434578 -0.05571140306291341 
0.9044731563769215 0.6685687780013160 -0.3598402883891216 -0.8808367345164154 -0.8634034959867460 0.4853775556089527 0.04566102890510375 
-0.5032080600783508 0.9847954947456797 -0.1827330378111517 0.08191170132352620 -0.6899915545911427 0.3243549826099261 -0.01512952619848650 
-0.1223865103744154 1.762648679024579 -1.095918825292703 0.7002520091403603 -0.2044873166082508 -1.450454019889594 0.4103459840000288 
-0.7257303542014286 1.012868183074914 -0.3589166346675695 0.4660181142522926 0.3567516706461440 -0.8380666122168259 0.08707563311247951 
0.02027521064709670 -1.000278023919195 0.6089494271795869 1.283072374688306 -1.468923406733851 0.4418653562989033 0.1150390618391623 
-0.04181593841552249 -0.3156213315317854 0.2294455685758476 0.6925396677535924 -0.09392667918385345 -0.09100601006955787 -0.3796152771287145 
0.6519684752110941 -0.9917222400618637 0.3621614544463255 -0.07527724490505996 -0.4505429220173954 0.2589848095282464 0.2444276677986534 
0.9669882782843795 -0.8846928114837875 0.8481297330290620 -1.046089225598953 0.2107865854307767 0.6810350042668328 -0.7761575639283166 
0.6444045739529306 -0.07835827407511235 -0.02669830052380246 0.3359785474820941 0.3595269429911219 -1.168076106949296 -0.06677738287793772 
-0.8828823363902365 1.020839394890019 0.05176642352747570 0.5721413563095303 -1.009197170445842 -0.3995820428045612 0.6469143749136131 
-1.340906826280399 -0.5568962944060389 0.9637220313145063 0.1913440021352446 0.2855181381738765 -0.2226763458358095 0.6798952948986271 
-0.6143128396028614 0.9975497312512209 -0.5151016144170213 1.223849923082903 -0.3015281240198965 -0.6750821535380992 -0.1153749227562368 
1.044867059185776 -1.064004535714319 0.3542276131829539 0.6224128061181238 -0.9257489621998440 -0.1117821420903376 0.08002816151767456 
0.8935567886272519 -0.4219071387827653 -0.2021831233401407 0.02723314606465701 -0.3332806982730894 0.2858778492450473 -0.2492968235409579 
1.050581830913799 -0.4781097155066781 0.5963865531305610 -0.8033127003663394 0.2607789848691990 -0.2327700313765017 -0.3935549216640409 
-0.3333611325299605 -0.4397461188832351 -0.4763356872251109 0.1290843169051933 0.5989005368695207 0.1147635092605566 0.4066945756030327 
0.6471739038976516 -1.285046962740542 -0.4833682341200646 -0.3469320834688391 -0.5834055914897980 0.8411442880648499 1.210434679856737 
-1.634894021578287 0.01396702460812407 -0.3665661799326894 1.126121024400915 0.4655826760581914 0.5162915218104679 -0.1205020453667421 
-0.8349221238331780 1.528651345863492 1.215203058988425 -0.3459081587929488 -1.259931291142658 -1.394418605678156 1.091325774595031 
0.4798920220747567 0.2271522410365804 0.6409383411659060 0.8277407011052277 -2.027059778117559 -0.9996689669793025 0.8510054397144051 
-0.5374858627847581 0.9488675753151189 -0.5520810452227405 -0.2848920241547685 0.8553557839501914 -0.5399278931001579 0.1101634659971225 
0.8178751111769861 -0.4450114942369040 -0.5469979596316789 -0.4634820081453572 1.178226220529152 -0.8638331984846976 0.3232233287925157 
0.3517803621442650 0.3634979717063082 -0.01755348661505169 0.6441453011447096 -1.498549492124441 0.2530418206718806 -0.09636247692767455 
1.392518090281359 -1.366259535941978 0.1062900012830765 -0.5612061723862071 1.042174999321628 0.2002351764010700 -0.8137525589589726 
