solver_type MCSVM_CS
nr_class 7
label 2 0 4 5 6 3 1
nr_feature 199
bias 0.000000000000000
w
-0.3126591876653391 -1.835932868012969 0.5823255979289256 0.6000878998070440 1.357479563467862 -0.6589225806491573 0.2676215751236227 
0.4568037716612377 0.03230234741425742 -1.914399888476718 0.3511850154682363 -0.3246919933138007 0.7426680390791010 0.6561327081677010 
-0.09581544329608276 -0.2040815946172978 0.2819695711583850 -0.2498403944256711 0.9152106641242450 -0.2184721620784133 -0.4289706408651492 
1.138981171996995 -1.829344986693899 -1.680195028116428 0.8728479540213995 1.135090577213954 -0.2616406616314567 0.6242609732094760 
-0.1739520829638659 -0.7911601928643117 0.9014951400161871 0.4233287967863936 0.9580760230521396 -0.8103000304949001 -0.5074876535316346 
0.2711052542403629 -1.597029135289487 1.053063775995501 0.3083130931681540 -1.748379343955488 0.8618299296147074 0.8510964262262318 
-1.306436943344651 0.1910067852551659 -0.1514325776555406 1.517359067934078 1.370794598134962 -0.007120936428607192 -1.614169993895389 
-0.5587370704521809 -1.138761016557901 1.005735519341732 -1.794061611161256 1.852331857341571 0.1434879766226556 0.4900043448654042 
0.6235190731602093 -0.3211404754922084 -0.5407637810826400 -0.1322149007795664 2.200609976170004 -1.384291375604512 -0.4457185163712573 
1.496256487806229 0.7024627344934264 1.349364654707705 -1.220348874576807 -1.964819235787852 -0.7416691559781030 0.3787533893354095 
1.544375160911137 -1.592307120517785 -0.2566047896881354 0.9303054676372461 0.9397909226847531 -1.189929276993794 -0.3756303640334388 
-0.7396886296934412 -0.9827424964687606 -0.07215745545249470 -0.09149104163666373 0.1230058395579826 2.022493403455737 -0.2594196197623470 
0.05846917304528600 1.896006195603855 -1.302010622246629 -1.404198758664222 0.4342300468958859 0.2603613568812193 0.05714260848460377 
0.6346577815533954 0.1901026709192074 -2.148929621002726 -1.375416425413164 2.031075599228105 0.2152800793296747 0.4532299153855549 
1.021169389507934 -2.405232218836019 0.6632507308743321 -0.2266860567181574 -0.5302674435226754 0.1564228735437976 1.321342725150777 
0.2422867504362486 -0.7366829614894432 -0.5323056953163517 0.8094069947014035 0.3908814441082087 0.8290845195567981 -1.002671051996867 
2.274095137328205 -0.6559614093403395 -0.7551091111842596 -1.104197088460860 -0.4656180148727894 -0.7854118384691257 1.492202324999182 
-0.7647197995773536 -1.637234232958931 -0.04577517509849272 0.9183180243017107 0.3703487102077824 0.8629946294806234 0.2960678436446624 
-0.9686426323830039 0.9292612808954046 -2.304447936496481 0.6130048010151214 0.8554830164099506 0.5032563721430970 0.3720850984159452 
0.5390865915899737 0.001235085924016389 -0.6976572705252495 -0.5955674790053724 0.9900169858754538 0.4685895964830208 -0.7057035103418529 
0.3197860887538450 -0.6583052869236414 0.8316276978181931 0.4685568249121914 -1.120197987057419 0.8208255312633939 -0.6622928687665560 
-0.1479685514617259 -0.2502427189994850 -1.249668302432020 0.6854839478446172 0.01862802541028179 0.3935174977687275 0.5502501018696163 
-0.7505003623057778 -3.550412842728254 -0.7290335221368573 0.1000364971006276 0.7731555829398794 2.496977122828189 1.659777524302157 
0.4015637125088091 0.8347614488771885 1.176841672378632 -0.009001665264229543 0.4700185579930173 -2.452283284551576 -0.4219004419418705 
-0.7015766969347593 2.385566452118799 -1.655670250627015 0.2036130255131659 0.9709879297786601 -0.9498252889292599 -0.2530951709195867 
1.191120406075043 -2.452788152366388 -1.366905925016834 0.07981253283198940 0.2007964298540506 1.208152532863831 1.139812175758335 
1.015615773384709 -1.310910521074656 -0.4652565001116557 0.8540631328876093 -0.4367073826995570 0.6540502013902452 -0.3108547037767106 
0.5570337678623491 1.761907323055411 -1.207928542206733 0.1218254662401103 -0.5710446683909078 -0.4204830283272995 -0.2413103182329086 
0.5546017898923960 1.026580000918408 -1.463694490078147 0.4654499104834246 -0.007620860052602976 0.1849533274644089 -0.7602696786278912 
-0.2771774673526590 1.259356902661206 -0.1323680930611051 -0.9676949031972430 -0.04532319741527673 0.9817352232286349 -0.8185284648635615 
-0.3165271032018498 2.124349452989301 -1.266251163935423 0.9617960568819189 0.6297063921318631 -0.5309839821374929 -1.602089652728312 
-0.2530990010208463 -1.043105792422005 0.4403140787044198 -0.2822670621019857 0.1442266372028261 1.339620665921459 -0.3456895262838701 
1.490176953716065 -1.788549084641122 0.3073219127463386 -0.5230278801717828 -0.2961254632158853 0.8214881392221680 -0.01128457765576106 
-1.004925317815065 -1.047874451370265 3.234011835818693 -0.1106893641074013 -1.544453758070946 1.461845567427309 -0.9879145118823158 
-0.3316622674838067 -0.4515118978239664 -0.1724936626919439 0.9261601628861401 -0.6558688018852785 0.2281502604206409 0.4572262065782256 
-0.04570878218684118 1.107253485692657 -0.4325004967294920 0.6101847113708156 -0.3640393461238994 -0.7286358328669466 -0.1465537391562799 
2.281004216366313 -0.7403018955874574 1.502781779435111 -1.276980187306035 -0.2314999945458346 -1.030216317604123 -0.5047876007579511 
1.539625478035890 0.1620227561046267 -1.864553109253310 0.8084141365399915 -0.5708996153417767 1.126409860083754 -1.201019506169137 
0.6290284785512760 -0.8634521593858974 0.06898457065966045 -0.5278734701474901 0.4888022660292369 -0.2364324458873502 0.4409427601805681 
0.9350017425703014 -0.4738191880418856 0.1976581230221435 -0.4425405889358881 0.2034587480471575 -0.1130306865125952 -0.3067281501492430 
-1.301113649816842 1.216496325205238 -1.103447007893494 0.7959914351686740 -0.9130377749388898 0.5718056628043572 0.7333050094709668 
-0.7176614178077549 -0.1064825888521565 -0.9061860766041244 0.8705023286566824 1.113148519577000 -0.5938234934874310 0.3405027285177693 
-0.2535746028330410 -1.214587295231919 1.616144818174769 0.5930566636997257 -0.1545664897114154 0.2915067184254826 -0.8779798125236081 
-0.5682653400988993 3.220598152547770 -1.600298889366018 -1.244137140707540 0.1271663376489106 -0.1605431324569724 0.2254800124327663 
-0.7422962158584641 2.262182703093549 -1.279696613946468 -0.2245989110450161 0.7226531129415040 -0.7914867636563665 0.05324268847128500 
-1.523869657315773 -0.5925415567838148 0.03519208147331480 0.3728213721834155 -0.3155261614032457 1.221223426147476 0.8027004956986346 
-0.8169657900782359 1.095657958089981 0.8482371343317642 0.09999388345615913 0.7029907651195584 -0.8766399904229359 -1.053273960496308 
-0.6167251961690147 -0.4309676869238022 -1.601245839390703 -0.4217244903351422 2.342502229952925 -0.04462285560337843 0.7727838384691139 
1.136506836378762 -0.9262393646761334 0.2020489662683491 0.1276511889982897 -0.5067076534187839 0.6894367184519903 -0.7226966920024431 
0.3918264938930240 1.921558836335945 -0.8748050612131154 -0.6727473778381633 0.07927224474743215 -0.6925571764144614 -0.1525479595106537 
-0.3057266044194641 0.7765821678342252 0.7874821105590977 0.01465069511400177 1.035231576100121 -1.617725079180662 -0.6904948660073265 
0.1342061070846002 1.341822629059341 0.2624616448961588 0.8857397818762831 -0.9181703609742136 -0.6617630738495025 -1.044296728092662 
-1.152118332042326 0.02568724648492587 -0.7433858458178156 1.098791665438921 0.3967285396899486 0.2330707392182940 0.1412259870280631 
0.6229680654965160 -1.255877990364261 2.530263545830160 -0.6645419341004178 -0.8951528660259094 -0.01147356588688950 -0.3261852549491626 
-0.2193765506522853 0.5277000587805797 -0.2273294844582252 1.382519825035367 -1.852779967335418 0.5018557219138272 -0.1125896032838337 
-1.763311036553407 -2.439291982485600 0.4067435205877536 2.073635599202756 0.3647828820482548 0.3047254295364150 1.052715587663807 
0.6535053685576353 -0.5904538065190980 0.6659391051987508 -0.2165595636938309 0.08180400182687930 0.2290585567074172 -0.8232936620777657 
0.7555920294991666 -0.7374023276107843 -0.0005577785396777108 0.02945158605829065 0.1155240771481179 0.3945335450896327 -0.5571411316447556 
0.7770292567498965 -1.759715937990150 -1.569296464879759 -0.1294345124154418 0.6830944546510560 0.8404263520425733 1.157896851841874 
-0.05160770617467948 0.8633686360781825 -0.5220989595240102 -0.1691664345198286 0.5324233842645646 -0.6455195453838598 -0.007399374740348240 
-0.6521871939242442 0.3718071041573856 3.324485757257062 -0.2305908143646000 -0.05898762863400475 -1.607729111424660 -1.146798113066946 
-0.4879111674995267 1.185423314688991 0.5373123904511421 -0.4675209212898132 -0.06814812784158096 0.6545425220464094 -1.353698010555636 
0.7305602000769201 0.1487132213762034 -0.4549773951244493 1.368360917160388 0.2417708236088031 -1.135131457628015 -0.8992963094698389 
0.2391315632634123 -0.7111015712654915 1.601673548051465 -2.020444800171583 0.5685379219593335 0.3754068878992671 -0.05320354973639994 
1.318365490380156 -1.355735181970728 -0.01368349789031324 0.1993316611627485 -0.06012603187552426 -0.7575174932026177 0.6693650533962385 
-1.336095092693860 0.9412208609078541 1.738729596181332 0.5494840431067087 -0.7481929523676727 -0.6948576007042865 -0.4502888544300608 
0.5071257131733623 1.364606116110137 0.3298512961788221 -0.6149835511124455 -0.7900433795624537 -1.161880669018831 0.3653244742314219 
-0.8426140158209621 0.1250673810504954 0.4034640526389786 0.03046943773581967 -0.5098867485373204 -0.4684869980647956 1.261986890997771 
0.1027840368383315 -0.6952936831645298 0.6398665407949328 -2.002768463432455 2.487450902134824 -1.147374521225781 0.6153351880546669 
-0.8654351929920763 -0.2065023082902446 2.139859059935461 0.2550934316739315 -1.580292237769279 0.01362918912053913 0.2436480583216502 
0.3549009205891321 0.7815682536244103 0.8949477384584641 -1.835390893908387 0.9735342678802864 0.7011503073834200 -1.870710594027335 
1.412921085422658 0.3027836740004806 0.4856869352755077 -1.016942597380045 -0.3767624245004163 -1.518785843380468 0.7110991705622710 
1.749743804064929 -1.921803785674955 -0.01215444559171314 0.6709112990946738 -0.9059946583664552 1.383619749568411 -0.9643219630948566 
-0.9322140161157755 1.001268437036234 -0.8015132308427260 -0.3666717330204629 -1.349531783876096 1.261827063133920 1.186835263684903 
1.183302477936642 -1.993122793838805 1.410938800224504 -0.04875982297199217 0.5126527164197975 -0.9619469264443257 -0.1030644513257895 
0.8251460786331485 0.7268791984893943 -3.672631475639161 -0.3182183031597739 -0.5507320264103812 2.236485129667766 0.7530713984190353 
-2.658168581285417 -0.02854630750314858 1.791095847542708 0.3143464718360421 1.057217797497674 -0.5633074546112498 0.08736222652334096 
-0.3050183177731982 -1.186984600673007 -1.261581325023491 0.6736414788678152 0.6662025781842459 1.639120219656929 -0.2253800332392819 
-0.4863970245228946 -0.4823614283193979 -0.9954656952147584 1.566731476508674 -0.05762597234854062 -0.3318604248855871 0.7869790687825186 
0.4187956878117233 -0.1822936058116749 1.592192943326178 -0.8717137740295742 -0.6942817124307978 0.3260581495374987 -0.5887576884033336 
-0.1049812227420389 -0.7411508407053945 -1.568089045948263 -0.5429632846177072 0.1541924737364080 1.566066329434593 1.236925590842412 
-1.744647489104515 3.487364175311837 0.2967498316709007 0.1320496582934701 0.5381114229790280 -1.190827402356723 -1.518800196793984 
-0.1923133109350548 1.424469887919250 -0.6549968410318421 0.04075103995158524 -0.3347667347784359 -0.8428776118450771 0.5597335707195645 
-0.02008691075717345 -2.103552603270736 -1.531116625656893 0.4197071365170908 1.075681733171970 1.845398531293291 0.3139687387024349 
0.6734807258712698 -1.304430765481266 -0.7343861807882267 -0.2034139576403617 1.037704468128954 -0.04590791253118180 0.5769536224407954 
-0.5266032487112434 -0.5146982525834950 0.3715867970905137 -0.03638995259061389 -0.1378967140921352 -0.3161851061222569 1.160186477009221 
0.6321069571014669 -3.880551482332097 -0.2858757745308741 0.5521282293571409 0.002375696667533303 1.931511840126567 1.048304533610290 
-0.5907304700632277 1.700495848805139 0.07046341078824982 1.457333655144392 -0.7324774943676541 -1.802374226487042 -0.1027107238198853 
-0.3978689944150242 0.2656271031348023 -0.4920607303291538 0.1696060028281932 0.1000006914525174 -0.4753714597207125 0.8300673870493862 
0.7358204898328845 1.407760145322618 0.3743017837955733 -1.178869253425644 -1.173460833719316 -0.1189492458655651 -0.04660308594054165 
-0.7051226965806434 0.4436527108236875 -1.189683810076569 0.7222169427084075 -0.01807568094212297 0.7878883901511217 -0.04087585608387451 
1.536931104671584 -2.862339841504561 -1.358768277362187 -0.3882440294145688 0.6782636469292065 2.467739759706205 -0.07358236302565274 
-0.3449263394939732 1.117374008471477 0.003747741925634051 -1.569737587805492 0.8592791286368336 0.2074906229822831 -0.2732275747167899 
0.3295631718573824 1.941566397348601 -1.827178507769628 -1.174941703534989 -0.5010565642606286 -0.1825805332711883 1.414627739630448 
0.6730884967104608 -1.605748580057556 -0.1932576739102707 0.9889475005399024 -1.037983404037140 1.275685540357697 -0.1007318796031112 
-1.045631418257740 -2.030016323359722 1.586370090520793 0.9036509686065020 -0.001903491877992589 0.6489444444619339 -0.06141427009377787 
0.6143631011491152 2.304407329716592 -1.730741365883598 -1.018399237167253 0.7216425135209573 -0.4037646267105275 -0.4875077146252729 
-1.954554043243377 -0.5825007613387447 2.155246200871147 0.08038127704783754 0.2185812923293478 0.3488305764058671 -0.2659845420721032 
-0.1544572330387850 0.5336945677221058 0.09883883920552156 0.05431345061323267 0.3371928807486825 -1.022798061212942 0.1532155559621955 
0.7503466669162041 -0.4820739941270600 1.317116923082223 -1.591194567204674 -0.8562702662161833 0.4695994079092819 0.3924758296402073 
1.934371181354267 -0.8100457676665079 0.03152810847691000 -0.3055532662121805 -1.044967159235180 -0.03516841226408177 0.2298353155467669 
-0.3658612531194762 -0.8804438838212058 1.010132844258789 -0.4801509383387680 -0.4508668061403948 0.5208745561481593 0.6463154810128918 
-0.1861600008969456 -0.5685510909226350 -0.02159494446056106 -0.2707576470496751 0.2142841793157374 0.5410412901176812 0.2917382138963953 
-0.2408825791844961 -1.976561031989919 1.624829157469539 0.5740278691467326 0.01871620542266939 -0.7824252745901061 0.7822956537255985 
-0.4508655862664291 -0.6555908237724123 -0.4452418736223619 0.9930824165054450 0.7293143461625100 -0.3015539677835969 0.1308554887768457 
0.8884501364107270 -1.739340499187709 1.022641995994358 1.197895482670094 -1.101193134180622 -0.2712783640491038 0.002824382342270141 
-0.4128230099153529 -1.753102089275170 -0.7587173885148905 2.088958055465140 -0.5185353396040560 0.07414368112413883 1.280076090720149 
0.7990312898516382 -2.138653458800073 0.5241417192646828 0.8384401809972255 0.02094874992688566 -0.2600408335489984 0.2161323523086448 
-1.074974459704962 -0.03267001256530865 0.2517184010064467 0.8794653678668019 0.7683100347805518 -0.2415499968338276 -0.5502993345496843 
-2.097799035402191 0.7207709239549442 0.3392006511353670 0.4692536309799912 0.9853124394432777 0.4728206161113013 -0.8895592262226814 
-0.5971889469984882 -1.302367852419540 0.2119764156899035 0.08384378011101824 -0.9047401653437190 1.628771985791649 0.8797047831691787 
-0.5296557975490941 1.401484034600431 -0.5293665534131443 0.4385402200249257 -0.2787606780588186 -0.8012002375450015 0.2989590119407247 
0.3803137141865553 -0.08999807323906277 -3.037235385125736 0.5012029180291055 0.6521766120983589 0.7083211352955240 0.8852190787552545 
1.053776488524783 0.4057936216229189 -0.2553291305467425 0.4376893859241162 -0.02201748554398054 -1.288949255035463 -0.3309636249456239 
0.2627343923163299 0.9012448626212190 -0.6680814301893053 -1.591311503284999 -1.802190730393313 1.370424991695168 1.527179417234911 
0.1136630881875938 2.164588388356074 0.3286615656514437 0.5911389022088173 -1.400350287331934 -1.491674352480404 -0.3060273045915621 
0.3453791941831984 0.4192657545131742 0.7843762552982189 -0.3053630043275376 0.3015120719526492 -1.258423462704911 -0.2867468089148066 
-0.9921208791337736 1.177373127053873 -0.001919010982721699 0.2538673408785843 -0.05124291443377824 -0.3507684787450873 -0.03518918463708733 
-2.217924313471032 -0.04689766085959067 -0.6627044304670950 2.594816642757247 1.148521658221938 0.5915364228563135 -1.407348319037802 
-0.5918551375158533 -2.155372327017320 -0.2165806710629634 0.1263018565367178 1.408834213840683 1.698198116216039 -0.2695260509972702 
0.2583378997681482 1.504016224610485 -0.5262114961479514 0.4733072303733386 -0.3001460222213424 -1.220318939250491 -0.1889848971321654 
0.5197920217387867 -0.4044815877589814 1.611779921367065 -0.5348486318384492 -0.6842064917397522 -1.166174045229595 0.6581388134609502 
0.3662052846431629 0.1435049797554144 0.5634109860388696 -0.8466763895502833 -0.1897662696351242 0.3159446188211615 -0.3526232100732008 
1.706406136066615 -0.1160350005218500 2.374297868098812 -1.204425792345263 -0.5111432983213944 -1.085942005785575 -1.163157907191339 
-1.070043017963992 0.5104803016910272 -0.05759322451081168 -0.002487294349161208 0.6888509945917317 0.5257634640860621 -0.5949712235448605 
-0.2958055696317540 0.8491885271323266 -1.597417596579149 -0.6488367523409361 -0.2541725562648252 1.770369824958967 0.1766741227253440 
-0.003829171564380531 -0.03253335807760826 -0.2044759808708601 0.1229860590815415 0.9073769077680829 -0.1639035775194435 -0.6256208788173280 
-1.068998445766918 0.5189502133038018 -1.011492428153530 -0.6278105864618179 1.333559366908107 -0.9962373862504736 1.852029266420834 
0.1094641111111032 3.184335008004749 -1.743295195335001 -0.7999033656731360 -1.980489189396183 -0.3529928053856938 1.582881436674143 
-0.4025903420686037 2.150576460602190 0.1751391407564679 0.3590921704503672 0.3625321081389868 -2.019048952300705 -0.6257005855787073 
-0.6587302949357785 1.236380322429350 0.3614377884364431 -1.041393719388024 1.015593370877194 -0.5645024575243845 -0.3487850098948157 
-0.4165500768541119 1.927177245869755 -0.2070206497864098 -0.8826266804660780 0.6025909502130530 -0.3583720330972560 -0.6651987558789489 
-0.1859140998216727 0.3649142021654033 0.3710105556895129 0.2984599447551259 0.1646471269733656 0.1810093182876787 -1.194127048049425 
0.3231146072141312 0.08974472958344473 0.7150473222796976 -1.264978475330443 -0.9188095385747853 0.07328872539725807 0.9825926294306915 
1.297335358175980 -1.773763334503045 2.474173905913434 -1.068838376331555 -0.8391354721420163 0.02130809137695689 -0.1110801724897412 
-1.022130335852008 -0.8509897200970046 0.4204901663065590 0.6070336923757674 0.2136730316564689 0.1846947082237515 0.4472284573864526 
2.587729175740642 -0.3407832598713147 -2.453407693111386 -0.7841026756501930 1.877731453546293 0.3343477479657663 -1.221514748619852 
0.5116171669578619 -2.528700409424783 3.357825248288332 -1.432474977638010 -0.2608219004196025 -0.1300164776654731 0.4825713499016550 
0.7796698160347122 1.761826667559279 0.1937340901889118 -0.8593150047992434 -1.277101248209132 -0.4655734346184296 -0.1332408861560839 
0.1049986037400537 1.013069361101968 0.9141676672784227 0.1488005873173871 -1.294215409669039 -1.520953603077866 0.6341327933090602 
-1.024668162462121 -0.01511566784082878 -0.9820511055714948 1.485961361068242 1.459870145437613 -1.444645612916153 0.5206490422847151 
-1.265038010740327 -0.5095489300935253 0.9544493639435985 -0.3011799891688011 0.9344109745915575 0.9053008462646372 -0.7183942547971549 
-1.805606783320397 1.689074825465565 -1.078410668544175 2.056982250601125 -0.4094222499436566 -0.3422916997251242 -0.1103256745333472 
1.457148714928438 0.8702246927868529 -1.357778049637361 0.4429061620900409 -0.5423968748316567 -0.7497948759346359 -0.1203097694016517 
-0.9991313524795820 -0.7274882136795210 2.214843603060327 0.2890194797600573 -0.03600929822218432 0.2778123564220587 -1.019046574861132 
0.6367827910855831 -1.240606887772391 -0.5918713111901435 0.1528159688124327 1.290253748434989 -0.3132349231661815 0.06586061379572668 
0.2868670122104654 -1.237434670680429 0.1147460953979157 0.9169199022695496 -0.5357381850185887 -0.7273572752140849 1.181997121035132 
1.147615931444515 0.1763843514680998 0.8641572931707173 -0.3270957113347690 -0.9274319841528974 -0.1101384227873819 -0.8234914578082789 
-0.3592605881753169 3.308213011921341 0.08400347554032109 -0.2886271247729021 -1.023516979003859 -2.069898031664599 0.3490862361550168 
0.3797907942284545 -2.154468515455251 -0.6239533025529695 0.5062826940171201 -0.6293563098824809 1.994082365663729 0.5276222739813603 
-1.633989646867041 -0.6252046548423443 0.2506372079348939 1.943739942744729 -0.1148208867155138 0.3781909938006592 -0.1985529560553686 
0.5452445194742445 -0.4156782114527609 0.1420821110068440 -0.07570289556302000 1.019805431187539 -0.7153310308094555 -0.5004199238433861 
-0.1227522283324537 1.721859450327789 -0.6766758316071174 0.5804713410803134 -0.6074083134163599 -0.4018499897915491 -0.4936444282606020 
0.8162363809726805 -2.447489297704998 2.193831946413319 -0.8049733567020951 -0.2754702901286265 0.6123013527236356 -0.09443673557389112 
0.1329867984903387 -2.536882978481226 0.5725292364688513 0.7509370922986575 -1.091640115861114 1.626486260165426 0.5455837069190551 
-0.5097508298374862 1.078271212029231 1.437769114676109 0.2724267443695158 -1.654390097840970 -0.7061076369446018 0.08178149354821578 
-0.3115415699781913 -2.135893042798515 1.393043100299897 0.2107395178759050 0.4328449442292817 0.9542319024917042 -0.5434248521200616 
0.2711553356113534 1.306499433742870 -0.3418415471626469 0.6974210190305478 -0.5492131511815893 -0.3955723113833848 -0.9884487786571639 
-1.045981039080292 0.4064238696105061 -2.211713401625326 0.9054972590531103 1.232293950743721 0.8517428884013575 -0.1382635271030602 
-0.4018007790497346 1.537946277201149 -0.02057519769332120 -0.2375808291001383 -0.3104766215223301 -0.3239631727990124 -0.2435496770366242 
0.8245356089968068 -0.1725781904078539 0.4469587612591720 -0.8135102721229198 -0.2738945486947079 0.9381730492807890 -0.9496844083112839 
-0.8473641229333856 1.864176113056759 2.281875471654087 -1.882230676325880 -0.2344421064284055 -0.2032497271301310 -0.9787649518930432 
-0.9169130536181159 0.2547381110342238 1.263344015761454 0.3318648295801061 0.2058790991096176 -0.1144687174201475 -1.024444284447118 
0.3361594063957484 1.996849901100180 -2.512123250186503 -1.225815423110430 1.007495171281828 -0.6113548838621238 1.008789078381281 
-0.5843299313040224 -0.8358722761896576 0.6381191774980491 -0.3944649791647235 1.981568524185474 -0.3393066428916359 -0.4657138721334900 
-0.9702961710039202 0.6255408858179056 0.4169321307564317 1.177983166249448 0.8903857010261613 -1.297752652945972 -0.8427930599000201 
-0.5779587517257339 0.8344429163765373 0.8709419278594950 -1.173958195009313 0.1841623139996322 -0.5211838034470616 0.3835535919464511 
0.1279534462887095 -1.029725541989426 -0.9548912715138321 0.8299038763425512 0.3898852614985791 0.6975165540451692 -0.06064232467174252 
0.3763714454906608 1.708201996069572 -0.6675757514621125 0.3055804382392344 -0.2043063910074833 -1.139685918122141 -0.3785858192077790 
-0.5695402381521260 0.5806906356033444 -2.770837333368959 0.8443760860040020 0.7242116743892405 -0.3106327625133274 1.501731938037841 
-0.4165460712484430 0.7817149205431302 0.6048251711575118 -0.4362380906314858 2.010205310343234 -1.651455111757003 -0.8925061284069700 
0.3563859351483943 -1.357221856261034 -1.581382079640017 0.5964607925280014 2.548675316322762 -0.3598907667420749 -0.2030273413560315 
-1.137078461804048 -1.887425342241767 1.168579690432182 -0.5248125236503597 0.7351766981473681 1.046304955726227 0.5992549833903592 
0.4479218324325275 1.099944724298257 -0.9796540851474244 -0.4938454406418148 -0.4164673847244582 -0.3827149154979866 0.7248152692809309 
0.4885909113584782 -0.6247943961447491 1.629916715969993 -0.5659541703551708 -0.02851909362111292 0.6214848033957636 -1.520724770603214 
-0.2762685429993232 -0.04638602646351187 0.7670403871240814 -0.2635884934155915 1.255165677866801 -0.5947404573662236 -0.8412225447462330 
1.053921737057708 0.3285549228450146 -0.9605361309107328 0.4587469991209324 -0.3614984661671148 -0.3775123604092388 -0.1416767015365666 
-0.4920200391278938 1.700225270771213 -1.896908062670934 0.4785734462523310 -0.3002791443029955 0.3684825251847883 0.1419260038934697 
0.8090747773991396 0.7613146581966636 -0.3348534757725106 -0.9066693896163268 -0.4694007803403893 -0.3555508124533408 0.4960850225867826 
-1.419944458060365 3.508478516006974 -0.8971569256709506 -0.06862303368049423 -0.05912358326777402 -1.025661807847380 -0.03796870748004525 
0.8160505434388144 -0.03561182786826030 -0.8966530639501669 0.5244916004922797 0.06352995933710072 -0.3590226031252474 -0.1127846083245058 
-0.1747674646129609 -0.07526414272779158 -1.172896301080942 0.4987410322786846 1.075586388592059 0.03628804803371613 -0.1876875604827601 
0.5030206320235131 0.2519844767087416 -1.978241218546066 -0.1701406332876090 0.2251947077986751 0.6147859217038381 0.5533961135988912 
0.8053188945631871 -0.2372670683989455 0.2729815732010921 -0.05413628169436170 -1.501120922114358 1.051638229398112 -0.3374144249547424 
1.240031077171599 0.1734065629858321 -0.02400157455774527 -0.03079679589508719 -1.111424031174390 -1.187045554460731 0.9398303159305389 
-1.588927529466867 0.5975477890150298 -0.8781165057025965 -0.3205024295246454 0.7999913854383325 -0.1633295400054481 1.553336830246177 
-1.431228389433839 1.947342865509118 -0.02656289325771201 0.7143371599259998 -0.5982871169491076 -0.4291215449233120 -0.1764800808711332 
-0.6765515750742725 0.04370904361298705 1.154124282183200 -0.1843281047847492 0.5662906874183001 -0.7282572456424439 -0.1749870877130410 
1.221659920471673 -0.3082634583731928 -2.128172238520445 -0.3883714773830839 0.9217257707344031 0.2201051641839885 0.4613163188866586 
0.4874234885240715 -1.072259702216841 0.3565436462008014 0.3745577153308128 -0.1020777793728198 0.7393238381700522 -0.7835112066360693 
0.7552792358048900 -1.568334855779830 2.039973234796645 0.5904375100354708 -0.8644706829978185 0.02342944042548310 -0.9763138822848435 
-0.3645031272349400 -2.036917450645229 0.9800089863778999 -0.9238636074687339 1.476062084650585 0.1017677405956978 0.7674453737247048 
-0.4190980940701272 -0.6211812927845350 -0.6140033732768247 -0.7096275201007719 -0.001057246676924889 1.012766541394712 1.352200985514464 
-1.965397113476539 -0.5247581616373433 0.2739113115022624 -0.9535626077949370 1.700336490082035 1.126049747565554 0.3434203337589729 
-0.9474424601082453 1.447272438035031 -2.330899061457095 1.018957408871181 0.7017315428986700 -0.5672399148208529 0.6776200465813629 
1.015369976141755 0.4105418648393148 -2.004493590897959 1.096341817801575 1.250301423922312 -2.438967149068314 0.6709056572613252 
-0.7431987513251971 1.706483006726701 -1.275921449595027 0.3901228984602377 0.07994252921630576 -0.9468768189665734 0.7894485854835843 
0.8046676172882894 0.3127286579724983 1.089554259196171 -0.6843562397687996 -0.7489190428976072 -0.9605136900734474 0.1868384382828902 
0.7038705147140231 -0.3824609833986610 -0.7374274323689967 0.4761570040454351 0.1612693376010178 -0.5440299322511258 0.3226214916583100 
0.2349592419678198 -1.391959241964206 2.214539806511425 0.6644877638116237 -1.463827795139014 0.5176724522180863 -0.7758722274057366 
