solver_type MCSVM_CS
nr_class 7
label 2 0 5 6 4 3 1
nr_feature 199
bias 0.000000000000000
w
-1.085737821165886 -1.801172863950273 0.7664882835865544 1.460200636914726 -0.1280403833616765 0.3741942467181126 0.4140679012584367 
0.9590353552962957 0.04805219383663652 0.6745507495499599 -0.02515642930248914 -2.864329535814696 0.5824343518129850 0.6254133146213220 
0.3355940265490571 -0.1325649997380464 0.006097357402163318 0.6910434425961364 0.3888521488630158 -0.5272730309022368 -0.7617489447700884 
0.09597346245105745 -0.3487331935442711 1.083336541361583 0.8132327272065875 -1.150459574108197 -0.5792356605975738 0.08588569723079532 
-0.3535859040321944 -1.139950132366821 0.3424772519581267 0.7823272069590194 0.5947530586922684 0.04772287126856651 -0.2737443524789773 
0.08355026731216383 -1.453215080471203 0.6899072432792879 -1.177417450429640 1.229528393718689 -0.4192158823348630 1.046862508925573 
-0.05516920334394045 -0.6283164768952949 1.127634011775015 1.047697258046393 -0.5964286783019896 -0.2632539178794413 -0.6321629934007438 
-0.3054207808096243 0.04232622605741859 -1.696373357486959 1.232543479390804 1.493702824987335 -0.7408915693319493 -0.02588682280701364 
0.7690863627457398 -0.06148104131846591 -0.9399495264162719 1.462217326955927 0.5197683844159315 -1.283005595270446 -0.4666359111124260 
0.7570976796854084 0.4169257962883699 -0.6243633997383414 -2.020718255935221 1.485627797336709 -0.2387427042267879 0.2241730865898876 
1.478013154652282 -1.755545138085594 1.103463869518941 0.7057744015565462 -1.009942344154868 -0.2247157023852454 -0.2970482411020573 
-0.8822291387705978 -0.8013933908286908 -0.3705484663858010 0.3697861037509859 1.963461420303683 0.5784509823319562 -0.8575275104015301 
-0.4937489780208896 1.467446521731475 -1.244100954104630 0.1765811271673234 -0.7012911845005617 0.8922325273554206 -0.09711905962814325 
0.9942317025096651 -0.7857568381557327 -1.057649846610445 1.061947835473343 -0.6870285793992139 -0.4049574808898449 0.8792132070722203 
-0.1657677249700048 -1.276368762822772 0.6813018089495985 0.2393985439512255 0.7297231078461804 -0.6533878222565729 0.4451008493023724 
0.3310721189159865 -0.4999230982720385 0.8809614436087456 -0.3117583085024470 -0.1568715271767634 0.7357623742372247 -0.9792430028107209 
1.896251532723063 -1.472134639291472 -0.8234084007045162 -0.5688739405924660 0.4422720749842689 -1.060345656456565 1.586239029337672 
-0.4738099592798140 -1.443528630885289 0.1699476636989234 0.3895119792534773 -0.2084969848930404 0.9666616518412002 0.5997142802645428 
-1.258103624118271 0.8300089594983959 1.087527101867720 0.1182083246981862 -3.159080081037614 1.248384995015668 1.133054324075910 
1.024029776751697 -0.02503611521415761 -1.002198568140153 0.2310199950918718 -0.1059987048798050 0.1353423603037977 -0.2571587439132481 
0.7674382220441432 -0.3099398958099236 0.004818877176908390 -0.03011488841560821 -0.7854836006038757 0.9547011245889195 -0.6014198389805543 
-1.190128528782612 -0.6395881120274264 0.3696728693532354 0.6145481314028557 -0.07915501043687068 0.5213396495490092 0.4033110009418068 
-0.7330960315044466 -1.816974217681700 -0.1660967263559568 0.6268889655882895 0.4731180367898062 1.013567670920308 0.6025923022436599 
0.1855520936135658 2.365798777612968 -0.1667366676648856 0.5932978258538190 -0.2682505036716631 -2.678900758446807 -0.03076076729700398 
-1.210813787447114 2.278948930744133 0.3313388091687756 1.202112564579835 -0.7849668905800309 -0.9680089603606431 -0.8486106661049600 
0.6348711636136657 -0.03950724570072984 0.1265520961824970 -0.1742699909495313 -1.616931262461309 0.1891335850340505 0.8801516542813506 
1.510243343885684 -1.826357502330763 0.9163521281471594 -0.09354937897216527 -0.8213666345624885 0.09310951410067382 0.2215685297318966 
0.06790180057087430 0.5841609353160959 0.3751775952926994 -0.2524384570744462 -0.4810977285633574 -0.06523445024268824 -0.2284696952991872 
0.7673449832311646 1.106061831131590 0.07227238246517060 -0.1627686098610671 -1.100424360904251 -0.4319994959248488 -0.2504867301377433 
-0.03660512439942704 0.4049843674895825 -0.3412192103734276 -0.3873589485740160 -0.9022095981591485 1.341765471503948 -0.07935695748752460 
-0.2185418212382699 0.5990313995427862 1.398259157065010 1.150190479894055 -1.099126652071741 -1.108126615179437 -0.7216859480124257 
-0.2998386137012271 -1.387781611381290 -0.4671350110781059 0.5965476906725873 -0.05886428200303471 1.640180793314764 -0.02310896582366990 
0.9748623052761995 0.3654214021475678 -0.8098696594118810 -0.5385743301976107 -0.5345234099282911 0.5104130665612527 0.03227062555277753 
-1.355228198536185 -1.085815065786715 0.4921794113682220 -1.917330544303752 2.927992023686954 1.324814326239746 -0.3866119526682336 
0.1319578591988774 -0.1840339796025146 0.4917360355595533 -0.7474403945466299 0.9450003733646820 -0.6006379259717906 -0.03658196800217117 
-0.5050682477041062 0.9239619251575687 0.6762678020997607 -0.9151711369385442 -0.4468293245411530 0.04947244219818463 0.2173665397282991 
1.463645242081106 1.057765261162162 -1.157900357005541 0.1436931656257052 0.3785101728228003 -1.402190308549936 -0.4835231761362941 
1.638002825678742 -0.2097860398744034 0.4125383804364982 -0.5135950801942688 -1.485750659566907 1.082399279518432 -0.9238087059980934 
-0.1968462687433176 -0.4308547087872384 -0.8052981596304505 0.7142727922676025 -0.3017385978286800 0.4446301102652360 0.5758348324568554 
0.4340384103249953 1.251182263869502 -0.8651494690250338 0.8649981710488678 -0.9476662645379064 -0.2922918981509555 -0.4451112135294663 
-0.6872199715855450 1.288509910730804 0.4828296107988646 -1.714155209246729 -1.481105181243653 1.119068717632321 0.9920721229139366 
0.04163538032908152 -1.374741740317348 1.017836271731452 1.164026411637092 -0.9823173419168304 -0.08914007066142146 0.2227010891979634 
-0.8466423692686910 0.2597480438548654 0.7717783074590457 0.5567835053253526 0.5212679105045018 -0.6086004633128275 -0.6543349345622590 
-0.3651938300018479 2.916729460241490 -0.9713187075808608 0.5462587939643201 -2.672344686262969 0.2168390847175619 0.3290298849223080 
-1.014426030237044 3.647321564850965 -0.9689084592757794 0.2097942976357118 -1.079515291557433 -0.8268862312649216 0.03262014984847624 
-0.8791031934064130 -2.001492718091162 0.3564499412551794 -0.4560859470612719 1.065603634382283 0.9310552392563213 0.9835730436650613 
-0.5357002786170184 1.492530600374420 0.1359260312111849 0.7845427319158887 -0.06298952757532414 -0.9495578884530168 -0.8647516688561310 
-0.8037476104596094 0.5127644019904586 -0.3418967891218681 2.063032878732654 -1.979918606853906 -0.08402586412632579 0.6337915898385754 
1.235215016455925 -0.1407654158644846 0.3092902340407546 -0.3442750532218902 -0.5701908542748222 -0.06535059981206374 -0.4239233273234154 
0.5398949592360213 2.104828553221545 -0.8865532293277212 -0.6182385053655122 0.05619812107626851 -0.8290816906709557 -0.3670482081696099 
-0.5164752234266573 -0.1217739183445223 0.2950509286356003 1.411968140404793 -0.01924756738372744 -0.5435033023255346 -0.5060190575599504 
-0.2597515169844000 -0.5322193626298046 1.643994848980765 -0.4269320577276970 0.6426462939212030 -0.3957697864829790 -0.6719684190770909 
-0.05468943777311941 -0.7094711422696753 0.4180928728414883 0.6665640871475123 -0.7941424316549410 0.5463775255846979 -0.07273147387595374 
1.225748243673214 -2.093924224439332 -0.3431206456007069 -0.9878716183359217 2.273785688484898 0.5071836699484884 -0.5818011137305898 
-0.2338040840881645 2.130916163679874 1.613383429860115 -1.868125215473983 -0.9207567604928594 -0.1766950459127339 -0.5449184875722674 
-0.9269447403563107 -1.815329139984852 0.9911330345844083 0.3945589226391680 0.7165889873253720 0.3016061778716291 0.3383867579206044 
0.3702774898367706 0.2481185967586848 -0.03404403204818593 0.3028231279969124 0.5298496870583945 -0.3346102408678272 -1.082414628734759 
0.4941770643950856 0.1197308546860657 -0.4702991638768205 0.1162562929589969 -0.07984872385979849 0.0008711566341105629 -0.1808874809376344 
0.5714948619810254 -0.2357329838098788 -0.6167047873346112 -0.4564536369597825 -1.612230263231646 0.8240651015598964 1.525561707794993 
-0.8880425914028474 0.9313765069365566 -0.4133474333852758 1.128271789028780 -0.8176685074378228 -0.6883348733228544 0.7477451095834710 
0.03273941440036644 -1.775099523514281 -0.3277312898128808 -0.3452981415906329 2.865017137747643 0.06728481223904088 -0.5169124094692600 
-0.7762894103032147 0.3841733140183563 -0.6330251185119432 0.1591056042876910 0.4914377906360771 0.9293927710018582 -0.5547949511288388 
0.3273251694362459 0.02781298777794721 0.9572459456317922 0.007025480780460608 -0.07599533135466740 -0.5796053639486335 -0.6638088883231419 
-0.02903251764500824 -0.9437910859326109 -1.396046932622677 0.2543620294161224 1.304546415268335 0.7057497665955491 0.1042123249202937 
1.805313489417624 -1.803222249557292 0.1150095150546383 -1.118192783238568 0.5341170309577041 -0.7504827597838283 1.217457757149703 
-0.8428768754831503 0.5185822263347680 0.06186273630743901 -0.3851533533172826 0.9188506691508247 0.3516727585108465 -0.6229381615034343 
0.3700876262864704 0.9373444245311104 -0.5608613832820762 -1.165861073236237 1.109557997340085 -0.8897930718358876 0.1995254801965478 
-0.5956148999669146 0.7029734836568003 0.08434381049448436 -0.4066824286954466 0.1086779523723296 -1.013352262849650 1.119654344988408 
-0.5304048813025756 -0.5172517455769775 -0.5991939063600862 1.394957688635371 -0.09604008815647178 -0.3729711839166733 0.7209041166774176 
-1.088280407729371 -1.448223260654596 0.7339794471246748 -1.049660748353299 2.755399916732286 0.7400783637604176 -0.6432933108801180 
0.6429549688358092 0.08044270639963813 -1.075997896814391 0.0006646900501134977 0.8468763709327857 0.4584799307751051 -0.9534207701790620 
0.5505145448191909 -0.03572404369284193 -1.178417325322969 -0.8807153009597074 1.495500583562924 -1.107016797426534 1.155858339019953 
1.026182898958551 -0.1177369006278425 0.9257469423592618 -0.7070401314384098 -0.7572076656312935 0.4608125404838935 -0.8307576841041640 
0.1054585398617600 -0.5912282091708728 -0.2695436036779517 -0.4575085836196060 -0.1239312979597104 0.9080067849024965 0.4287463696638922 
0.6571718832224692 -2.351667814402064 0.4146650737090091 -0.3065899365130704 1.957812104616900 -0.5295284339134213 0.1581371232801764 
-0.5526627505679221 1.163638769088768 -0.1508967176096654 -0.1343631714344243 -2.255687233129418 1.639603139341502 0.2903679643111627 
-0.9469778848433825 -0.6972065654217846 -0.8226316356253088 -0.03859083806850146 1.631034480564135 0.5671035551492818 0.3072688882455589 
-0.1301913179119705 -1.172803051692878 0.6811369083130542 0.9133440722074339 -1.257313041224056 1.162502970280061 -0.1966765399716317 
-0.2567070214555909 -0.4401080061982738 0.8753509388933125 -0.09407841521919984 0.06115689847536882 -0.6635326314498153 0.5179182369541886 
0.3706798908909686 -0.5266217868926034 0.2817311686759067 -0.4720275139093461 0.7672646541031366 0.8637184082617315 -1.284744821129778 
-0.8751855189803825 0.7793543374512762 -0.1286282878265740 0.3787650695511375 -2.364585752984997 0.9890293897733942 1.221250763016139 
-0.5695801393914761 1.241639777158894 -0.4653447845885434 1.029240170215227 0.6080999217825371 -0.5262398434388408 -1.317815101737803 
-0.6172952307193327 1.564527935453464 0.7280426213296518 -1.150116430077095 -0.3050141809494795 -0.8363850325636526 0.6162403175264537 
0.3337069721485339 -2.638662602490814 0.4541044878554300 1.087826897932206 -0.7589987016601539 1.393811788668455 0.1282111575463186 
0.9369144987552461 -0.7824682942216116 0.1182776576751365 1.260171438145493 -1.472034253414469 -0.7222810756723790 0.6614200287325765 
0.2467366853203504 -0.8879274628898036 -0.2459663281865340 0.5394416511017104 -0.8554096703167313 -0.01092105153494635 1.214046176505963 
0.4256737533562632 -2.202835536539813 0.3392537942604547 -0.2167176316995643 -0.6045125297193985 1.126110617958654 1.133027532383439 
-0.9455812626478599 2.058194834432366 1.034876773108971 -1.224990890796385 1.263882411048186 -1.775264448381112 -0.4111174167641409 
-0.2721906865414378 0.4821348628743579 -0.007683782314365482 0.2060652073382668 0.07229397482022351 -0.5218969008929749 0.04127732471592675 
0.6219239955858638 -0.001244984817231510 -0.2252989813886868 -1.314008091372692 1.416696599658924 -0.3974528864386115 -0.1006156512275515 
0.05810660313394709 1.182275471298602 -0.06770335120613385 -0.3300232987458031 -0.3514947732118262 -0.1739994484452919 -0.3171612028235039 
1.427117658117671 -1.920197474566585 -0.3043268222204783 0.06942204514907390 -0.4868453763060748 0.6809229337301114 0.5339070360962794 
-0.1207410975020269 -0.3986370298001514 -0.7840733706479124 1.310866698544692 -0.1045338639952681 0.001702155935394512 0.09541650746528116 
0.1892287374048900 1.259546123587495 -0.6834669717314427 -1.116028628958179 -0.1259172650712940 -0.2974754865765992 0.7741134913451302 
0.6712441574939223 -1.613407673072706 0.7265571647405714 -1.089776233993258 0.4753115268755522 0.4082331747550503 0.4218378832008696 
-0.9732429493198335 -0.8092157387929921 0.2470785579402216 0.3633493030013538 0.9644591866231988 0.1126603820961261 0.09491125845191578 
0.5632439891970530 0.8296962283789641 0.2151537299824111 0.7399379308446583 -1.229328743132318 -0.2825069687797917 -0.8361961664909746 
-1.463148196700217 -1.568136731465305 0.1985792714527321 0.3118208857330824 1.630560457669003 1.402996519373571 -0.5126722060628721 
-0.5080952158248634 0.9724848474377731 0.2209417165227460 0.05252060685700392 0.3430713599877319 -1.170458350492591 0.08953503551219558 
1.019825220269259 -1.684554737539445 -1.400469946426109 -0.1346868883447280 1.500138529814215 0.2587639169496364 0.4409839052771891 
1.730819393815414 -0.1420930795936332 -0.4905232839734664 -0.3834461884889324 0.1620069936267031 -0.5326834053089582 -0.3440804300771296 
-0.5841329017894950 -0.5066238458784951 -0.5917515462495863 -0.04027849949293876 0.7693497306145967 0.5954738307922973 0.3579632320036312 
-0.2012497171291282 -1.314308197690105 -0.2315219435968508 1.634962109957297 -0.8871123869251285 0.8004079332597310 0.1988222021241849 
1.070132996895080 -2.511562389851581 -0.4632459289132692 0.1247758770134600 1.011418932700712 -0.3026518313311329 1.071132343486724 
0.1371533811651094 -0.2829062821922679 0.6102820349843252 -0.1470685929196448 -0.6569275991557889 -0.4865507091422034 0.8260177672604674 
0.5039620526667832 -0.6741804338505788 1.020330812721530 -1.403962099913810 1.027855573733970 -0.4406718179922367 -0.03333408736567173 
-0.7879256586296631 -1.472553638845553 1.112958657218161 -0.1877462444767890 -0.3416478285994604 0.4188217193635516 1.258092993969763 
0.3817021987773426 -1.397624784821135 0.2828271600791266 0.4598217282622473 0.4183037040552730 -0.05880585571814956 -0.08622415063470353 
-0.9931836842147688 0.7062692535136664 1.037739511955908 1.350062800011275 -2.250451487214668 0.5112532785099891 -0.3616896725614002 
-0.5655170105241455 0.2459163952091889 -0.2425692853249327 0.3957697034977769 0.9093043555850622 0.1019901608368524 -0.8448943192797941 
0.01059560900172181 -2.120588737474972 -0.01787556664094466 -0.3479249370204299 0.2924052326790194 1.416968361291610 0.7664200381640060 
-1.153817994222273 1.621609345518464 -0.009305680539334258 0.2509012772096698 -0.1876311882360519 -0.9137709125523672 0.3920151528218920 
0.4270348370829494 0.03649989421416718 -0.2547828208326111 0.3732940653527468 -2.019783185624444 1.052234007559090 0.3855032022481049 
0.6363636832992589 0.5050020681306743 0.5018516945216940 0.4032038869532704 -0.4716531131233602 -1.396176427810269 -0.1785917919712689 
0.5547065338401967 1.640956000894049 -0.9761557329805814 -1.254312598725486 -1.658617152991789 0.1428862785813348 1.550536671382249 
0.4725892221263269 0.8719166431378770 0.1083050759884274 -1.336241927457822 0.7836403112050788 -0.6736777288312564 -0.2265315961686550 
0.1185230477708461 0.6367587418828269 -0.2843208017892526 0.2720837551357556 1.451641231261856 -1.225477609199311 -0.9692083650627346 
-1.136516364667281 0.9919800177002642 1.229271610117168 0.2649055158288457 -1.221617800736246 0.02333414064885275 -0.1513571188916145 
-0.8108609964584947 -0.03276718129586603 1.580431430107677 0.2561085598316570 -0.3668565790912544 0.5111684522304140 -1.137223685324126 
-0.1341454569850364 -1.305180362966516 -0.04075190067334661 0.9895338536755140 -0.4324788656262239 0.5643921928900391 0.3586305396855761 
0.3676277512237376 1.460488616202656 -0.004163814468053521 -0.4894589274258206 0.6430072727371089 -0.9988040248710831 -0.9786968733985495 
0.1749605839731273 0.03828991326777057 -0.6177341964673798 -0.6142084178278172 0.6028122846850936 -0.8141957012314437 1.230075533600641 
-0.06462987729548450 0.9214194667402784 -0.3712961858828746 -0.9241017267578756 0.3644918870712203 0.5268033823580555 -0.4526869462333123 
0.8211560231847223 -0.8180327935580220 -0.5565021978429391 -0.8550230426543449 1.769991079487517 0.6058085599252849 -0.9673976285422180 
-0.5221615682510411 0.05140799571293432 0.04695863840141688 1.395479947135589 0.4509092481884496 -0.04438453864285982 -1.378209722544485 
0.2928153930602028 1.027380614073339 -1.123999930294221 -0.08141495869617753 -1.275913374441045 1.141266458151030 0.01986579814690114 
-0.6308524314268669 0.1304254664041955 -0.03578391532838760 0.1865097599999062 0.04579776894604482 0.2155280292890894 0.08837532211601871 
-0.7415597857216916 0.2986112816793941 -0.1818544188691788 0.4038237948451802 -0.3736649523729843 -1.069411515588769 1.664055596028076 
-0.7369887487770400 1.658173666802249 -0.2621834171030494 -1.831611977151247 -0.3216327740758546 0.1839718926767033 1.310271357628247 
-0.9736410145441434 1.366741522479613 0.1990946076874572 0.7873470453604098 0.3301360266641897 -1.067211228401193 -0.6424669592463542 
-0.2847033428634838 0.2659166485094406 -1.436149654569594 0.6816715324088715 1.388248600754320 -0.3647043105134302 -0.2502794737261244 
-1.190276823798180 1.681849296488228 -0.5772596680409052 0.1011875597382249 0.5248855272070590 -0.2046005555306857 -0.3357853360637639 
1.061022414288275 -0.4805692078202633 -0.1534538241230505 0.2683802232714950 -0.1869718412618982 -0.04981503638382740 -0.4585927279707288 
0.7254797588111637 0.4582328325065528 -0.3810848575135924 -1.188802362951602 -1.042240509950373 -0.02446778720012159 1.452882926297951 
0.8751304592436774 -0.3771995877746483 -0.4972092288892077 -0.2585696185404016 0.4142353058181576 -0.04076568475151342 -0.1156216451060649 
-0.07920618095215747 -1.672037415258065 -0.4711085892512868 -0.03448363199030106 2.189026496989385 0.02484888747934616 0.04296043298308003 
2.274511017172936 -0.01361650601819201 -0.4591771923644248 0.9945533518332051 -2.328584490991521 0.4143335004839068 -0.8820196801159008 
1.124181070639785 -0.4715813758281461 -1.562330330931699 -0.4695667663508865 2.183559378487142 -0.9333824167240433 0.1291204407078485 
-0.3137765012722795 2.279022065713398 -0.8087627223484659 -0.3980758269056151 -0.3377238071672886 0.2421419040996771 -0.6628251121194400 
0.5417233327300500 -0.8227469431917652 -0.1602439301887098 -0.6101117515641816 2.136559308371870 -1.362272767893162 0.2770927517359282 
-0.8393134012572407 -0.2657875378444674 0.8335982362467967 1.945870137519142 -1.664439409795848 -0.7425409050880002 0.7326128802196202 
-0.5184048977256839 -0.3643936022454420 -0.4730106953085821 0.9145171351640784 0.3913636439677563 1.283887145181208 -1.233958729033317 
-1.856835170450354 0.6109713176004614 1.866858498895929 -0.4936614208213124 0.08428674020145850 -0.4589210196290389 0.2473010542028734 
-0.002691552712007732 1.943699368711939 0.6854211535067908 -0.2511274210934739 -1.087509886048295 -1.097517007393225 -0.1902746549717263 
-1.214564731138743 -0.6601672387085658 -0.3520608059167663 -0.04264971861290734 2.406310464371056 1.319120096772147 -1.455988066766212 
1.214100832057184 -1.060131446010366 -0.09763468766783170 0.4678424640291359 -0.4943071439704870 -0.5866240689260592 0.5567540504884307 
0.04909280543029908 -0.3840853465533490 1.255694496745321 -0.6186810528454917 -0.4549890527875776 -1.191358932906243 1.344327082917034 
1.220497703100620 -1.100251639727616 0.2601357527702505 -1.051193210372848 1.241055453636037 -0.08285010092303086 -0.4873939584834013 
-0.6363675543209518 2.369471329690861 0.08468099787731606 -0.7117725266765997 0.2477213194050515 -1.597654288782070 0.2439207228063866 
-0.2221322698979976 -1.143632609461410 1.095624278228071 -1.561852251515352 0.3569054018544898 0.8505697604753916 0.6245176903167989 
-0.4852801624196213 -0.1130377646160680 1.212650882795419 0.4613153209872656 -0.6695378470699065 -0.3912429923508789 -0.01486743732620903 
0.5933827658619724 -0.4920631599170679 -0.2431525276812606 0.7452903243604442 -0.4600443971178119 0.6622547713711850 -0.8056677768774670 
-0.2644333239392179 0.7978290230045633 0.6704005237274128 -0.6255220501774248 -0.1407729267086632 -0.1411086483365817 -0.2963925975700759 
1.373073113579840 -2.078508549234893 -0.1660961663960276 -0.7767297928089689 0.7423482697172457 0.6307523963375855 0.2751607288052310 
-0.9061072713214060 0.2983248927563403 0.5973868178953207 0.05836341225894393 -0.1035716640666428 0.5511767049272948 -0.4955728924498499 
-0.2890913947945377 1.855783188495672 0.1620993500053179 -0.9632780735673939 0.8891217529480416 -0.9185613052035414 -0.7360735178835489 
-0.4216435938244710 -1.858791456592270 0.8446703740729280 -0.1813562080987242 2.492314442372106 -0.3114039367238991 -0.5637896212056763 
-0.008597962031763393 0.1855047669510350 0.6828780502824833 -0.6049169292666070 0.4167208488792992 0.3450555697465965 -1.016644344561035 
-0.4741508091560402 0.6557347917596140 0.4546487090679799 0.7919347656875708 -1.431494944274477 0.2049760808159418 -0.2016485939005872 
-0.3094933210610645 2.002146568784029 -0.5963636160171400 -0.2034531597847788 -0.8150169419555854 0.08684350037554885 -0.1646630303410158 
0.6559243366483342 -0.8664582776703290 -1.311335938433083 0.1049382049915871 0.9871900905949366 1.402860486728758 -0.9731189028602220 
-0.6712529272402754 0.1794435470067675 -0.8955912170890702 0.5376747145209480 1.118061276601389 0.7741475874704915 -1.042482981270237 
-0.8559531931066137 0.3552042077987734 0.02839949165687762 -0.5048679914740001 2.552921963730405 -0.9098585693502877 -0.6658459092551687 
-0.6584323265616716 2.434485033493827 -1.518604571703940 1.199816295006818 -1.600072130492893 -0.3242292147582606 0.4670369150160765 
-0.08320030845195730 0.09852092597934528 -0.6426797379106549 1.405148978538180 0.4052951047910949 -0.9065604719969549 -0.2765244909490471 
0.004201126013102911 0.08928276484611987 0.9403068556356051 0.4887026894915337 -1.091988701787858 -0.8044985176546292 0.3739937834561213 
0.4882026124951260 0.7002455802461283 -0.9171824034842555 -0.7858606954511789 -0.5602079621821714 0.2229938326333657 0.8518090357429800 
0.3522863119324496 -1.546982644503341 0.6357239771349660 -0.3974122688555903 0.2197381962107457 0.5136134512727677 0.2230329768080066 
0.6030262625850378 0.4714656969737257 0.05127509855967549 0.4781998891595121 -0.7459059087525765 -0.5239806935417570 -0.3340803449836150 
-0.4741545630630177 0.2018139101298452 0.5114533096602797 1.095613679298565 -1.890055760565623 -0.7059826661232783 1.261312090663226 
-0.7325976053898782 1.347635507384064 -0.3457152922878760 1.291714080652069 -0.3984437914500105 -1.026066345387099 -0.1365265535212542 
0.4990140886311348 -1.388097154097776 0.1853549867162759 2.633938907823346 -0.9401532421261399 -0.8684902798729919 -0.1215673070738191 
-0.3771824304625903 -1.655388447648541 -0.3450995246512374 0.8407623715835420 0.5263129859563151 0.4716943135022608 0.5389007317202390 
0.6594823863867316 0.8913444723946330 -0.8293816518846425 -1.012599623425187 -0.1045094869342745 -0.2370326323681225 0.6326965358308485 
0.5860713763498790 -1.236362655064268 0.1701368304550977 -0.4051352695169771 0.7777506426973111 0.7925219403234015 -0.6849828652444375 
0.3690902437321871 -0.6064410475316264 -0.2731944721874932 0.8078107643181336 -0.3636507886392993 0.3260961262413684 -0.2597108259332727 
0.6221918926986573 1.054636782848264 -0.4312700632918147 -0.3105657978971526 -1.625400110164045 0.9814709361334596 -0.2910636403273612 
-0.6276214445326392 0.2530924589659772 -0.1656540164719469 -0.05945404368915893 -0.3786020644081382 0.7650991240155934 0.2131399861203086 
0.5191936727543072 1.576118130620425 -1.163410289532385 0.3662172821571032 -0.01554762169812006 -1.445281702729455 0.1627105284281159 
-0.2668166754070911 2.032934511803798 -0.3842538491177107 0.2323182682959686 -1.119806624398927 -1.183749907194460 0.6893742760183991 
0.1523295653527405 -0.5366749669181616 0.2691587406561829 1.254583341615392 -0.4989752449021430 0.01419048466067519 -0.6546119204646808 
0.4871070836068340 -0.7339298826625433 -0.2386860069394899 0.9266556639244540 -0.3821144799303555 -0.1963664356628008 0.1373340576639015 
-0.01858402658821391 -0.7117677184398347 0.4308867876025304 0.6201920023240942 -1.265534982425863 0.1333324320451791 0.8114755054821317 
1.097059388611295 -1.767683731939394 0.7485597124715733 -1.360497370738506 0.6688891524452888 1.401224291074995 -0.7875514419252673 
0.5824945770031934 0.8527575481793992 0.1195586921971216 -0.5479030004884502 0.1016041759241859 -1.227621252372729 0.1191092595572834 
-1.804317011851128 0.6242551740011663 -0.1205172908244336 0.6340182440743520 0.09523344706728902 -0.2358627129347354 0.8071901504674930 
-1.808958006580301 0.5505875814374454 1.155448015382237 0.3764095068084953 -0.2084338588531484 -0.1755038574841501 0.1104506192894191 
-0.5624793835427571 0.2178003985858007 -0.3129267300307413 0.8828135263917710 0.5767812775599547 -0.6108128315472060 -0.1911762574168237 
1.351466250450542 0.1498711924951634 -0.4074003373917461 0.9084044933702006 -1.892195460937438 -0.3346290927062628 0.2244829547195300 
0.3836312002332327 1.001329310403167 -0.4539205092665292 -0.6091757724577993 -0.1398235151579284 0.4828420490487570 -0.6648827628029008 
0.6583682943690123 0.2078702738619220 0.6249059376530873 -0.3014234794909134 0.3917153253220218 -0.5838195705564484 -0.9976167811586879 
-1.028324449270689 -0.7991477436433493 -0.1334733464501503 1.282891835889961 0.7889198211021387 -0.2391386069874397 0.1282724893595321 
-0.3698476872677471 -1.344629862664622 0.01721639154206896 -0.8571533817335031 -0.1360103496481918 0.9502451891423721 1.740179700629595 
-1.463765969092030 -0.5162031738935766 -0.6455749499572538 1.543226112714052 0.7600459435138531 0.6647987872532640 -0.3425267505383013 
-0.7496937247261316 1.309583058220735 0.9378057030803166 -0.3777137130147077 -1.812214429597583 -0.8777918553232054 1.570024961360586 
0.1319230665231776 0.04169835513225782 1.436768079290692 0.4243265009310830 -1.226044558787754 -1.250044929680045 0.4413734865906038 
-1.098343567251073 1.838334155861674 -0.5404749190493797 -0.2040517048640469 0.09449431447144584 -0.9670905991737090 0.8771323200051052 
1.159202400827408 -0.3632414789258157 -0.7016909190649910 -0.7903730703451746 1.182487492731663 -0.7289167302056452 0.2425323049825566 
0.9950680700937243 0.2310388502277279 -0.3453021076286337 0.2552293386930810 -1.257413691632884 0.1584829474395132 -0.03710340719253409 
0.3798964330429203 -0.6175853400988512 0.2642078380458578 -1.239091546662641 1.947621479361321 0.1607906233318647 -0.8958394870204970 
