solver_type MCSVM_CS
nr_class 7
label 0 2 4 5 6 3 1
nr_feature 199
bias 0.000000000000000
w
1.157559652927880 -0.1550344300490895 -0.05073078277489725 -0.02583933767568564 1.441315203642327 -2.432118606687122 0.06484830061657519 
-1.998277502043746 0.9619476891790285 -1.091821280286386 0.7854919330174062 0.1806073727745925 1.391297113992998 -0.2292453266338828 
-0.5251353322979223 -0.6918839417740724 0.5470067175062028 0.2741343143486628 1.115768782917365 0.01626323265948721 -0.7361537733596926 
-2.357410833956280 1.366155162806642 0.4224624076302648 0.9067234108425078 0.5629235541262013 -1.151256355869833 0.2504026544205246 
-1.051808758831914 -0.9550970010151341 -0.1658145891758765 0.4444027133023487 2.903022003019042 -0.6486360657441802 -0.5260683015542721 
0.6557226779309897 0.07416732879247886 -1.924499681706261 1.074688394213990 -1.246291431597104 0.2817532499725806 1.084459462393331 
0.1664175918445689 -0.5247096809485405 -0.3573868773493941 0.5708680960899235 1.380089096826624 0.2094749819913285 -1.444753208454509 
-0.4827424211213109 -0.1560278951476439 -0.2113964444691509 -2.145050514820958 2.073948178491583 0.6267363473090904 0.2945327497583994 
0.3954396559233991 0.7331596326651850 -0.05249113519884587 -0.3226167540855645 0.9008361470291618 -0.9765947633596341 -0.6777327829737012 
0.8092146856183450 1.696582806424519 0.08605759430120559 -0.3867088261463472 -2.109640528783848 -0.2382279380714649 0.1427222066575984 
1.087776378895374 0.6470544536255007 -0.6861581646109604 1.173692038349355 0.8758800083076284 -1.769900652005346 -1.328344062561524 
-0.9858844189757310 -0.7378039470948167 1.949708515038424 -0.9967980670678731 0.03220573723598576 1.389835055910267 -0.6512628750462459 
0.6587165564715430 1.197140791925429 -2.273659042043348 -2.163055862489588 2.154000502908123 0.8708646861996294 -0.4440076329717942 
0.3422194827712393 1.182255931930887 -2.665465687765436 -1.569962522923975 0.9479257450940158 0.3927972579519087 1.370229792941338 
-1.357688510599904 0.6774908424391657 1.714272555971257 -1.130084496743358 -0.7594487752612951 -0.1741062756569818 1.029564659851068 
0.7104526322413172 0.1303076012652677 -2.304987167992078 0.8015947888403802 -0.4211676696787050 0.9361752207248916 0.1476245945989142 
-2.088599918841366 0.5612339477162704 1.446972084602671 -1.097022085537762 -0.09006670096281676 -0.06161131576800628 1.329093988791013 
-1.235838038848095 0.09775568799989370 -0.8472257930685466 1.248476022020773 -0.8404443042216081 0.6466524270053835 0.9306239991122094 
1.715007649779179 -0.9845056848758472 -2.912424382588648 0.5416241903733519 0.7295865243152940 0.6117395460759466 0.2989721569207466 
-0.4565881654366539 -0.3195107730891833 -1.350003217207713 0.4991369009026911 0.5646521185370742 1.940052679750646 -0.8777395434568436 
-1.771282637318987 0.4924532101490706 0.05345588133728403 0.1100778786440759 -0.6245660500282477 1.963993449137846 -0.2241317319210184 
-1.194284915861236 -0.5471795590360208 0.5897790815024844 -0.7951304555580280 0.5786467452078267 0.5975607686557377 0.7706083350892594 
-2.798229035193868 -0.7934624783699549 -0.7734911382436795 0.5818377517068413 -0.2416175277395052 2.435156359950790 1.589806067889432 
2.048477250669293 -0.2193424053184589 1.306637965748621 0.05175073644879626 0.6407756212934905 -3.182889501346190 -0.6454096674955604 
0.6215189501206476 -1.383793081408828 -1.240927806379518 0.6552167302878895 1.517438345930093 -0.03351481477598714 -0.1359383237742652 
-1.149977440454136 1.803316137082563 -2.596906448103496 0.3670820990227481 -0.5854702712759307 0.8818919592083720 1.280063964519867 
-2.484301318986537 1.338782274644624 0.3048092239736839 0.7348435259804632 -0.4147782339377053 0.1367497988699592 0.3838947294555511 
0.6895917466153322 -0.08688105672077913 -0.5478147621395157 0.2369964852221962 -0.1898439889541319 0.3192292897761393 -0.4212777137992572 
-0.4854376011420975 0.8089537875278630 -1.176275842964020 0.6484299719494016 -0.2116161224697707 0.4282063006186530 -0.01226049352001761 
1.158321926802396 -0.5149578388775979 0.6489312243073077 -0.5674550959959591 -0.4853144784392526 0.5359433302037919 -0.7754690680007005 
-1.190233337409655 -0.3263622363141105 0.1646602758674494 1.273345666613382 1.114550948218662 0.3878912923088801 -1.423852609284607 
0.7880858762591450 0.2801341392357385 -1.038734875113614 0.1875231095567740 -0.6217159961418932 -0.2307132882943225 0.6354210344981726 
0.5612052177946420 0.4144014723565373 -0.6574128099085154 0.3462701591721620 -0.1616560537837856 -0.4957775983347570 -0.007030387296288498 
-0.3095106136928163 -2.756586306169459 3.861256045154315 0.1401045775001066 -1.666004649628356 2.110836265359894 -1.380095318523661 
-0.2575611784788942 -0.3758500381770177 -0.2701999854119547 0.7376986405087828 -0.9038266327459796 -0.4266651266800470 1.496404320985117 
3.399473474873520 -0.6349664139673432 -2.161413077896872 1.104418627311787 -0.1158491764389350 -0.9935927706569370 -0.5980706632252052 
0.8092908132553740 2.358265534868000 0.1619031501819647 -2.022999127452937 0.7070561543249225 -1.399526414491234 -0.6139901106860594 
-1.461940370359935 -0.1453675919361819 -0.4678481241160923 1.932743075306427 0.4223316215757227 1.278104109771702 -1.558022720241638 
-0.5801367861628370 -0.08340629050661773 -0.9943885450273030 -0.1671467542144567 0.6609816010707750 -0.1230598085871825 1.287156583427619 
0.7287092837838783 1.018681688604353 0.2502361530435132 -1.479494662868480 0.09565874205958225 0.1443136247765937 -0.7581048293994360 
2.659688299060464 -1.231088899931777 -0.2388527561787211 0.6993289346807772 -2.627303082723037 0.4634586951027130 0.2747688099895801 
0.6113515841487135 -1.298137555286673 -0.07626166292699667 0.6179055039008408 0.6055725342515504 -1.275011295950705 0.8145808918632774 
-1.637033466589606 -0.9775928117766065 1.698760928800050 0.9318476890311866 0.7225113575479358 0.03566897349603329 -0.7741626705090084 
1.261803185903619 -0.3991773083782015 -0.9490465913226731 -0.3290882845754256 -0.2963191931572420 -0.06236895244733012 0.7741971439772289 
2.048047529925711 0.6057485304052298 -1.342001456284340 -1.508107593873970 0.3003470848127799 -0.4708858853470072 0.3668517903615673 
-1.761318355482499 -1.368256247277621 2.079996203294504 0.2826794644737180 -1.701594280808323 1.728576866819769 0.7399163489804541 
0.2123361114221785 0.2288800261311783 0.4687271306237781 -0.02922390303805047 0.4907943613958116 -1.184185462644072 -0.1873282638908137 
-1.602612904946966 -0.4787990291020344 -0.007848790777266287 0.5157220457595405 2.156983506295604 -0.8469253157081832 0.2634804884792706 
0.02635404345376550 1.158422501389236 -0.3167916423077797 0.5810312863078736 -0.8086396111942388 -0.1529923511996505 -0.4873842264492066 
0.8528328116367788 -0.3261818114619383 -0.5619048717494814 -0.8417460834955930 1.639358554561545 -0.3571947461089793 -0.4051638533823240 
0.2019099694569231 -0.1910878698032482 0.7360945103552855 -0.5429304537306698 1.749208439880413 -0.9240815103069918 -1.029113085851726 
1.472366360479134 0.8979558292866406 -0.1701131837581576 -0.09102108818310259 -0.5181692598916826 -1.039366672283761 -0.5516519856490327 
-1.398443875205535 0.02505771732790590 -0.4082036610551353 0.2372214718199584 0.9173592537153659 0.4755818020508678 0.1514272913465802 
-2.403036367302085 1.099948789120338 2.976374427660558 0.05394962325610776 -0.9530593465116424 0.4083945613759029 -1.182571687599187 
2.879075837382309 -0.2489805145837844 0.8681088503705151 0.3790697057844115 -2.205774425521249 -1.165818657409553 -0.5056807960226154 
-2.155107157851924 -1.984873012795630 -0.08788428649962776 1.914735998063217 1.109048586096658 0.6199586211868628 0.5841212518004553 
-1.798701692045340 0.8628264863327645 0.4135807475382899 0.4781556210874971 0.2381499848127708 0.1854413477457833 -0.3794524954717503 
-2.143105415995841 1.792988523643656 0.2635652024854936 -0.2763221379834068 -0.2278507220311664 0.8591840905881125 -0.2684595407068318 
0.9606480823064696 0.003360580037383309 -2.101952076889226 -0.2264100552572008 0.4812267534644269 0.1173920143374969 0.7657347020006363 
0.2372561391702228 -0.1653926296248346 -1.222672964249550 0.09987010313440824 1.962974586847535 -1.238342266343030 0.3263070310652519 
-0.4659732428999215 -0.6562691421054708 2.457118656425643 0.5037339969240979 -0.1891038231284167 -1.195149423406110 -0.4543570218097920 
-0.1696728300955212 0.5181939121825445 1.140845948304651 -1.578977396713368 0.5230519992189087 0.6815983516468642 -1.115039984544074 
0.2225118403548529 0.8225433288659479 1.154632605854941 0.6439991671521891 -0.2362303915871677 -1.790225391647243 -0.8172311589935264 
-1.045794343252750 -0.4297724360508786 2.744964003356587 -1.401293058375660 0.8183451207912921 -0.2885692845334321 -0.3978800019351761 
-1.952876652722543 1.311574964439495 1.446846457095833 0.3030073384152774 -1.324126715360452 -0.8650281381274034 1.080602746259797 
0.1675805669686663 -1.747581120647863 -0.1150824773757670 0.02359504313910223 1.347544123196709 0.2689287633063214 0.05501510141283850 
1.874215440237685 0.2191897173858884 0.05251694676979399 -1.082729722749177 -0.7028744436531771 -1.082864627368678 0.7225466893776252 
0.7939222480109634 -0.3834587659930054 -0.1462204730602720 0.1896027401177687 -0.2932594461242856 -1.236740160441908 1.076153857490731 
-0.4587749370363941 -1.769006733489877 0.6229090731310565 -1.393243152603145 2.011872350644066 -0.4094224018661160 1.395665801220368 
-0.4727631493759809 -0.4050113534411323 3.158712130523631 0.06355816184397003 -1.748308402809347 0.3744831975066379 -0.9706705842478232 
1.376903406157427 -0.9237290375569006 -0.02042204732972866 -0.2767219355207147 1.055258654723169 1.123085687859570 -2.334374728332794 
-1.202799023412127 1.517327637710799 2.610901413074464 -1.329305798358740 -0.1543371669626961 -1.533655261814558 0.09186819976284029 
-0.008184653489626428 1.106028450454774 1.743741318513002 0.4639821882583014 -1.674724140133280 0.3120925206906339 -1.942935684293804 
1.352627652149658 -0.1431490752069268 -0.7742108019040085 0.1990992129513776 -1.424397858175408 0.2680458380280736 0.5219850321572603 
-1.251830178294233 1.135873816536730 0.3117573699233629 -0.3498462630406398 -0.2659490820242348 -0.3191551486771130 0.7391494855761674 
1.478205394938563 1.104755430993375 -1.794693532803786 -1.074629458793752 -1.325344362935894 1.170268311221689 0.4414382173798113 
1.759169722905108 -3.200836571038324 1.637728620388652 -0.02121295025225280 0.8806801201137836 -0.5576238716452779 -0.4979050704716957 
-2.059289430621369 0.1434761272296117 -1.369314020145122 1.879858094814788 0.2261136610104536 1.210699629363101 -0.03154406165145833 
0.1049274047995338 -0.7573552995041826 -0.2963662773360148 0.8978649591002185 -0.4161777170830311 -0.2006498421918906 0.6677567722153525 
0.5961406808248054 1.368285441444309 0.06537266159554675 -0.4011275010765074 -1.872714983296421 0.5766450127481686 -0.3326013122399142 
0.1190413244243346 0.05624965826576846 -0.1092738026025258 -0.9275103521502172 -1.385510808965295 1.313957684744469 0.9330462962834645 
0.7459561296142329 -0.7585416733008921 1.578930500262004 -0.7055093439104584 0.8934567620628082 -0.2449193860598327 -1.509372988667873 
0.1948878039061721 -0.05888757349606987 0.4380347885217195 -0.04502293603593758 -0.9069592598449009 -0.2176256078932027 0.5955727848422164 
-1.517790788765538 0.4979139156469256 -2.269474022227328 0.2061902777984440 1.240237096930215 1.180128394653552 0.6627951259637306 
-2.004835422884164 1.732335785120418 -1.792118794839811 -0.3995948493670455 1.565581056265903 0.6783727279954993 0.2202594977092020 
-1.308940263465358 0.4164822193710595 1.536131236575700 -0.5342864379113268 -0.4810406431910812 -0.02003650817793642 0.3916903967989401 
-2.439168867851644 1.347556366127805 -0.03050253374203814 -0.4246084512068867 -0.5812310115796018 1.391031736224812 0.7369227620275880 
2.918583683601577 -0.7909820448732378 0.6722207087312443 1.762657250138383 -1.740319500897119 -2.827496252018388 0.005336155317539829 
-1.579226710069229 0.09255758210941321 0.8808315512421834 0.05683776162926089 0.9390990470768524 -0.3452950106723030 -0.04480422131618950 
2.137295756179363 -0.5343765266146704 1.104750003730882 -0.5378570730659307 -0.7845852726201938 -1.070990816232108 -0.3142360713773592 
-0.5950198635977151 -1.408513400493487 0.2259345968896829 1.255942330275238 0.8589646957781370 0.3748581576087569 -0.7121665164606328 
-1.288898687101463 0.5104695927227608 0.2938154087236226 0.1569466108853264 -0.6163052051528741 1.233815332408405 -0.2898430524857717 
1.142931137712432 -0.6596088096671018 0.5927488116717434 -1.406701050681276 1.229431632270579 -0.4467047640094300 -0.4520969572969625 
0.1025186067226007 0.2804398163580880 -2.428506652663069 -1.595404760547014 0.3585625478011554 1.362995388643142 1.919395053685077 
-0.1755186615805437 0.7674413883819652 0.6430683618423823 -0.5729396521738104 -1.369322391523689 0.9981611821899248 -0.2908902271362119 
-0.2599020119632043 -1.863914479643228 1.720079688903912 1.079059710293021 -0.9032208447171864 0.1791106799779182 0.04878725714878027 
1.644068078703026 1.148823368434761 -0.4062369792493144 -0.8697366753579809 -0.004231358983380057 -1.195727770005258 -0.3169586635418656 
-2.637727914792185 0.3730280625352341 0.1520753154616190 0.3488273723170021 1.238434483595365 0.6392553711974555 -0.1138926903145063 
0.2122024819585809 0.01533992351202340 -0.3015496835940422 -0.4604894437968253 1.097450441390163 -0.6944555288384378 0.1315018093685320 
-1.916986363876528 1.805673397156392 0.5211207872904119 -0.9590852201804833 -0.8439455009820103 0.9436080215162804 0.4496148790759109 
0.7832528553909678 1.130993750680338 0.03367246411018197 0.3412844832725351 -1.259450505137907 -1.406768773437441 0.3770157251213348 
-1.645302738726418 -0.9063949663436239 0.5934888864874199 -0.07250295040864801 -0.2366242992335196 1.649089255817247 0.6182468124075386 
-0.09362467850726637 -0.2277389983041152 0.7531680604151073 -1.203139709229519 -0.2589227149218126 0.7450543185800793 0.2852037219675390 
-2.437243886027385 0.8567058217181172 1.316834501190927 -0.5058182496447299 0.2166344095106535 -0.4299521308668753 0.9828395341192357 
0.9807412933878547 0.02499015816020251 -1.878942637936550 1.267371101533314 1.060379451761144 -1.778647581334032 0.3241082144280397 
0.4904316437544492 1.263183522132161 1.356632383984603 0.5418260281710068 -2.871967168228687 -1.142239137144660 0.3621327273311313 
-2.892555970259954 -0.1834914698213372 -0.3403209432342889 1.648716885248024 -0.1013765442079460 0.6128120830119623 1.256215959263516 
-0.9694521924552350 -0.2962442615350816 0.04315167130588597 0.3209368267510072 0.6386908390509053 -0.7496852440733702 1.012602360955927 
-1.281602303486226 0.1302154553473183 0.5926679699173544 0.6141133969731709 1.125672289355298 -0.3736486519066133 -0.8074181562003103 
0.5876874772752403 -0.7756243514689222 -0.6360801517447818 1.013304260825378 0.4073053829959178 0.2172826000795851 -0.8138752179624226 
-1.555364564839733 1.229332941865079 -0.9597425553295829 -0.3389573702098175 -1.208546231958954 1.585241853679305 1.248035926793708 
-0.1914164030041572 -0.6485577437478728 -0.8386616770019174 -0.2370350217974374 0.7055087510843113 0.9655266079948687 0.2446354864721949 
-1.378555193199600 -0.02189244445890484 -0.7461506724414887 -0.6524729462976696 1.081204459024953 0.9174687694651887 0.8003980279075362 
-0.1746701236917906 1.101107308816626 -0.5136396137233978 -0.3690125540194068 -0.2124854980767178 -0.2469317218904810 0.4156322025851663 
-0.01323483875586890 0.09443189473310176 -2.417065636299415 -0.8985271800749290 -0.9879140885860465 2.485560434405743 1.736749414577391 
3.040960545851944 -0.7938543645279167 -1.000824525381840 0.1093905517841897 -1.098976582433102 0.2394372472018611 -0.4961328724951634 
0.2581486361984757 0.4234775809622152 0.2712538164288125 -0.3552861951492708 1.840893483565757 -1.504019299710955 -0.9344680222950473 
0.6015630015074724 -0.8437124607924822 -1.178811480486218 0.9531419345964282 0.4524641063675168 -0.4477226885596310 0.4630775873669238 
-0.9329697707608259 -1.931701354146092 0.8508003432812873 2.031477862099473 0.2597188543379740 0.8557731188155610 -1.133099053627423 
-0.6866261505001224 -0.5868093746091171 -1.108906697712398 0.04628620157964404 1.151881165303120 1.159697885493530 0.02447697044536587 
0.02617273916556900 -0.2809067712684823 -0.3736890196590045 0.9279410477288217 0.4411685953677419 -0.02159173004792376 -0.7190948612867340 
0.5685614224252699 0.2256681270944367 0.07741317281408656 -0.1065200137033246 -1.453180778660229 -0.9343456295711045 1.622403699600894 
0.9951609711806283 0.04032955447493850 -1.530593902883064 -1.073333060103009 0.2710025137146117 0.6599113147442413 0.6375226088716598 
-0.2011307102595584 1.407861669297717 2.662244567917900 -1.892260591505604 -1.199810570925953 -0.5141057336061285 -0.2627986309183455 
0.1175728090840527 -0.3174726722769346 -1.202796138111888 0.4962230813337342 1.894062823960366 0.1360884900886859 -1.123678394078014 
0.09224725821539867 -0.2037402384382759 -2.823364299893950 -0.8478569241823110 0.4447627751153718 2.702533758523270 0.6354176706605470 
-0.5348651941510322 0.1249528979380973 -1.081644440650796 -0.2174628005020799 1.452797491967663 0.6347156771202018 -0.3784936317220619 
0.1812779278730254 -1.044621701054140 -1.044693283246941 -0.4365613943373012 1.094388704545948 -0.5812928265111263 1.831502572730555 
1.748994603291906 -0.7571421603052539 -2.104302125327361 -0.3744102685475756 -0.5248829256128552 0.3259116741034860 1.685831202397683 
0.6614370966437338 -1.689391975480405 2.748556316512181 0.1396371257652410 -0.3302660751158793 -0.8161518850680671 -0.7138206032567758 
0.6893237999762244 -0.1536994418235050 0.9549834552371594 -1.259444139340348 0.7785059924429568 -0.1588246836399448 -0.8508449828525313 
2.472072834993521 -0.7038252471585172 -0.9887596112195969 -0.07509450349887428 0.5792243305798899 -0.8259546707842227 -0.4576631329121427 
2.926883602988852 -0.2111457081758237 -0.7448110068822722 -0.4361056068606369 0.4848399236087404 -1.027104850938230 -0.9925563537406313 
1.503221424790344 0.2602873078160760 0.1527265959688257 -0.4586880565884864 -2.358187039722442 -0.4854144256929202 1.386054193428576 
0.5297349361215224 1.219657060246930 1.685905312244597 -1.409700596224420 -1.423591129371427 -0.2995377622684590 -0.3024678207487689 
-2.496315844379320 -0.2032657860285518 2.235545661860057 0.1124464320589665 -0.1339881754164822 0.4234726194684756 0.06210509243687623 
-1.545177047489985 2.891778346352846 -1.839572415881679 -0.3420649192335299 2.567476159761218 -0.6945608361181892 -1.037879287390675 
-3.092225634893383 1.382075103054538 3.540852811306366 -1.537514832791402 -0.6381624897633412 -0.3580203011490739 0.7029953442363173 
1.739203582472994 -0.3849320940779166 0.7845387154247773 -1.203710154513159 -0.7008837204821871 0.08001714025393124 -0.3142334690784366 
0.7975942240152125 0.1090867756293651 -0.4785895300302818 0.1017427502593308 0.1039715010562545 -1.601186840358557 0.9673811194286828 
-0.6373249918201208 -0.8132098360372685 -1.652358877038651 1.860425880021096 1.682352590376130 -0.5652495834573804 0.1253648179561950 
0.1425993479185772 -0.2363808389863448 -0.6960044211732603 0.2910753239269525 0.09892080712675266 0.6662743115733691 -0.2664845303860414 
2.896726606709615 -2.346216769707374 -1.245271093232739 1.842273704990196 -0.2672789299804870 -0.3835565719378382 -0.4966769468414054 
0.7313452655893993 0.8315465816588443 -0.5978358060469905 0.9504597122735674 -0.1529201971344100 -0.7953977941653835 -0.9671977621750210 
0.02344343710035528 -3.344010711300653 1.348807701999496 0.2395623187052588 1.399848705205122 1.300909442057967 -0.9685608937675769 
-0.7434516818738182 0.7789765160800396 -0.4301995182410590 0.2771774467246349 1.416187588010377 -0.6486429634606754 -0.6500473872394934 
-1.196144259506110 0.03032125833144465 1.776249791892917 0.6060584639413563 -1.257021221495947 -1.004183381196220 1.044719348032592 
-0.4427258729136596 1.024618235143584 0.8673228889782436 0.3516572140593980 -1.026272741941100 0.1294438441385078 -0.9040435674649495 
2.475755501842303 -0.7197979366084042 0.1490280460979108 -0.2911771499085836 -0.7756256041609996 -1.021579035309708 0.1833961780475187 
-2.186268324748443 0.03629018973493912 0.9825540758385181 0.1785078046682346 -0.9677486933862540 1.723815939592348 0.2328490083006386 
-0.2095216825359162 -0.9311616848785009 -0.2338399787514416 1.697875714325899 -0.2674021616145849 -0.6529121333180321 0.5969619267725886 
1.100096320797822 0.005823739574158810 -1.477371148423641 -0.1565219711454338 -0.2131957453525181 -0.1109538166052842 0.8521226211548937 
1.525622666202045 0.1912771794067400 -1.160819350121305 0.1602297838866459 -0.5697585752868858 -0.1488393728063925 0.002287668719143404 
-1.132224994554967 1.136295938357513 1.878991126403254 -0.5001950030118741 -0.7255787999351683 -0.3491465279976166 -0.3081417392611284 
-1.795426870061701 -0.8691031527566870 0.5332196009142797 0.5765208390211329 -0.4678949299240701 1.898330487302854 0.1243540255041754 
2.354412865105050 -0.1989631531353259 0.1008684097730944 0.2796454828139610 -1.091213114595248 -1.826752181135634 0.3820016911741235 
-1.344363127350968 -0.8547219608534996 0.3990248883175619 0.9318355236978535 0.3078827740565207 0.5898792744874832 -0.02953737235494842 
1.642312056358727 0.8364438842629520 -0.4128298225371244 0.9355943572374718 -0.9941266453355466 -1.244190511017709 -0.7632033189687760 
-0.2855916255042318 1.211747394436097 -1.162308998168754 0.6002815467615890 -0.2254583371545686 0.9412059767337319 -1.079875957103853 
1.909717039576214 -0.2560348128233996 -1.535639943737663 0.3477996635409986 -0.3646298128259397 -0.3999694000887746 0.2987572663585671 
-2.185211004787253 0.3613076359367834 0.7414277795884403 -0.8063365823952826 0.1095335435312040 1.873448467955109 -0.09416983982903779 
1.170498612161635 -1.251016803289039 0.07663842060169844 -0.6867165308274638 0.8162522793006896 0.5723529437655729 -0.6980089217130834 
0.2150292260799002 -0.4512868747375814 2.032854969403584 0.3616888217444811 -1.012691551462707 -1.069662827909340 -0.07593176311834596 
1.003882572595033 1.054509993978953 -2.711195476896195 -2.008242459584452 2.323708065621049 0.2012528444545933 0.1360844598311009 
-1.493346513248557 0.4601614972711117 0.8985007080172017 -0.01891831802704382 0.9574094784159671 -0.6452457180783624 -0.1585611343503173 
-2.511164279797522 -0.6095005046744405 -0.01305480219986822 1.610868872508439 0.9933800503404523 0.1587041480181764 0.3707665158047603 
-0.1421931986387269 0.1271880070367449 0.4031617670400970 -0.7978526595206621 -1.154434052610990 0.6325893636461400 0.9315407730474097 
-0.8703839183655696 0.7182379227564438 -0.4229664324517736 0.8834873218479927 -0.3656788716175231 0.2876039469094030 -0.2302999690789628 
1.793681484454462 0.7426003951279391 -0.3991982660929621 -0.6221986975044631 -0.05413309660235683 -1.057303321731041 -0.4034484976515680 
0.1723446310651099 -0.3176941742402965 -1.863371980771220 -0.9895187323284165 1.700995322168243 0.3141203150567695 0.9831246190498076 
1.670205961580568 0.4102883449134775 -1.223837658101474 0.2805865549916956 0.2234413009218662 -1.343557568503190 -0.01712693580293293 
-0.5388449985234967 0.2863843428247359 -2.191922459434879 0.2686668942740090 1.967850991750582 0.2632160121608488 -0.05535078305177348 
-2.414482757637791 -1.832024702031351 0.6198076356907638 0.8271246030147936 0.2751551432184454 1.120902438421257 1.403517639323888 
-1.057475673545933 0.2079655063185604 0.7557645663389708 -0.2981872979842183 -0.8552598786705792 0.4841902478454556 0.7630025296977389 
-0.2888202371810689 0.4923976479151422 1.184286783374372 -0.3146278569055915 -0.1900548427809166 0.5399659139683778 -1.423147408390322 
-0.5628968100950759 -0.1145694919797132 0.3197239924729194 -0.03523655090272294 1.178263775013539 -0.05137928043304642 -0.7339056340758783 
1.940471083859066 -0.3858578477028899 1.185872989041551 0.03071283310613654 -1.182462246099955 -1.634147235116808 0.04541042291285383 
2.684650278330508 -0.5116250174152615 -1.095258934179171 -0.3782784055902542 -0.1732451343617560 -0.1762385903116771 -0.3500041964723837 
0.5898051005639838 0.8330300276174628 0.2697980171137367 -1.209520827172331 0.2259199915153801 -0.7833585629546441 0.07432625331640416 
3.557242491140381 -1.368514603504842 -1.293763684219280 0.5637938125351596 -0.08355715184932604 -1.179916256612823 -0.1952846074892539 
2.045143213068231 0.5045541090621963 -2.698983771661764 0.1023019220380421 0.07710725151692868 -0.001817721929985194 -0.02830500209364644 
-0.5389067083322493 0.9123859772105660 -0.2413668243541922 -0.1924588124454047 1.423675058680104 -1.091100844144866 -0.2722278466139914 
-0.1116486473050418 0.03488863378635319 -1.064428899828517 -0.7214247838702944 0.8412862913980368 0.6642297866807420 0.3570976191386910 
0.09413181691754682 0.6335619242316172 0.2536870266155930 -0.2766151026341010 -0.3750202507474158 0.9557245886033675 -1.285470002986620 
-0.5079816492504098 1.233527719861391 -0.4981608055404815 0.08558185975380549 0.1836061287314908 -0.6321010436173010 0.1355277900615202 
-0.4105556014994146 -1.488798822598114 0.8537973703174955 -0.2536783310175259 -0.2735591528271638 0.2347872036852180 1.338007333939494 
0.7515597155683545 -0.9184359980994053 0.8267033926510930 -0.09544172471919290 -0.5970768494670996 -0.4194069981808805 0.4520984622471228 
0.8079890004979826 -0.8673357445969841 1.292876551536488 -0.3679561775691926 1.056566306863691 -1.185813851716641 -0.7363260850153318 
-0.2025740361230637 1.371506308345716 -3.335253470324393 -0.4767474009796941 0.9858319836825116 0.7157754916020501 0.9414611237968765 
-1.406226186347562 0.6044677516908423 0.7576581999649400 -0.4741046869878424 0.7044244082731184 0.1440711258110504 -0.3302906124045290 
0.4177718965985584 -0.2345580724971193 0.5427788356949230 0.9649303202146887 0.2492274542787697 -0.9011386398643008 -1.039011794425520 
-1.794672180816841 0.1896952998068662 1.870210612341423 -0.5260393595342031 0.5853234253584880 -0.3120017252882104 -0.01251607186751810 
-0.4719311921054175 -0.4963146725026226 0.9746486877764591 -0.5164273569175510 -1.643464541969676 0.7146591978075594 1.438829877911223 
0.7598488477649614 -2.021118966193823 0.1264789973424213 -0.4723975960769524 0.7321475016679284 1.001586650081290 -0.1265454345858416 
0.1376661503314103 0.1172537790159885 -2.190463897524179 1.372218747520870 0.3883940833917645 -0.6536125685835616 0.8285437058476742 
-1.283824399707742 -0.04051504017330400 1.936363242279993 0.4718222195782875 0.04075767301843319 -1.220741458883569 0.09613776388788348 
2.246581221887881 -0.3840561930218315 -0.8579987357177333 0.02733931045499805 -0.5781076058593864 -1.213460762118207 0.7597027643742746 
-0.5321301327582042 1.220700235540946 0.7338339556790227 -0.8415843881532914 -0.7240241146195350 -0.1178034304812589 0.2610078747923080 
-0.5740176839757900 -0.6933835188603606 0.4168126786467966 0.5352637558391045 0.6742579884338833 0.3692232693977184 -0.7281564894813819 
-2.142244323689792 0.4823965786750121 1.834980141037912 0.7889491188773657 -0.8659140054441750 0.6044445635932016 -0.7026120730495018 
