solver_type MCSVM_CS
nr_class 7
label 0 2 3 4 5 6 1
nr_feature 199
bias 0.000000000000000
w
0.4507423071973664 -0.8147360227488917 -1.500177881864631 0.7245918377055849 0.6571550096319907 1.051569203632697 -0.5691444535541215 
-2.626883522191042 1.167713431271924 1.109213663761522 -0.6875817660708007 0.04008780046570752 1.053956701312533 -0.05650630854980984 
-1.665622617272579 -0.3333125301102444 0.09984246885245479 2.001247273020517 0.02140993396637960 0.6501668017580776 -0.7737313302145880 
-2.558703260064027 1.308848968582551 -1.332937168251132 0.4013388938232094 1.928401069215220 0.7941178578908078 -0.5410663611966373 
0.08173404945588648 -1.045186847724441 -0.7151843559794812 -1.108996850805928 0.1640239253516352 2.810108258697696 -0.1864981789953892 
0.03286269368871119 0.9966312581025504 -0.9165883076711158 -0.1989892200176517 0.5138856438364092 -1.316338185495459 0.8885361175565766 
0.6208319540609938 -1.577713958969079 0.9452550291831769 0.2553083166095336 0.6170568451268118 0.3906645707459547 -1.251402756757420 
0.6178882992361179 -0.04528790875695440 0.8234327229401602 -0.9640724276242478 -2.202901202912668 1.622442939168068 0.1484975779495559 
1.199448523105403 -0.2029620564763511 -1.018180091501050 -1.002669396462415 0.2589439843790443 1.251627354748582 -0.4862083177932370 
0.7766633768304327 1.673582123342260 -0.8742146731398519 -0.2996176861078467 -0.3684468574357165 -1.441782335773631 0.5338160522843608 
0.9487568923483924 0.8849478603451549 -1.573212127726651 -1.921341965670331 1.194206126264340 0.9752308134426706 -0.5085875990035741 
-0.3706989936167198 -0.6760971198046980 1.031787441603429 1.235848770720116 -0.5419090308018787 -0.6724142848886315 -0.006516783211637236 
0.7231573609652067 1.544922334977554 0.2758144145699871 -2.418555459647856 -1.700105370047381 2.046963581415844 -0.4721968622333299 
-0.3826549849866234 1.242625627082885 0.02496344053810116 -2.377392702634253 -1.117632233743732 1.568936795539319 1.041154058204355 
-0.7813862045758512 -0.7767621459896933 -0.8632186179445460 2.462854518331894 -0.4737808299712524 -0.1410116957686632 0.5733049759181390 
0.8350712091858605 -0.3894010835485841 0.7925973421713302 -0.5862615372275900 1.046203298443881 -2.109508954957466 0.4112997259325669 
-1.891542941843061 0.4088352157106826 0.2811776857917773 1.966428352477460 -1.148884575443561 -0.6513330191372819 1.035319282444001 
-0.4853242496828585 0.2027859255141656 0.6421740218162741 -2.277967834058014 1.507684927747640 -0.9257327232828412 1.336379931945644 
2.401504170902249 0.1852979529724800 0.08326127754184075 -3.610598369838670 -0.3209763587402436 0.3653173922179658 0.8961939349443875 
-3.034772201265604 0.8647148087368318 1.935286295140819 -0.09138885529721708 0.04933355193839330 1.468820133367095 -1.191993732620345 
0.5219036111683981 0.3185290795115260 1.932048557063681 -1.693841253290437 -0.2483862821789429 -0.5955641655455669 -0.2346895467286730 
-0.1955587632571569 0.6752537355316356 0.1076045816587686 -1.234966259432962 -0.6087329380171993 0.8442954983390595 0.4121041451778557 
-2.469160836278210 -0.5068516968033794 1.978368402685976 -0.2093503113794646 0.2039359641194930 -0.2072652086294854 1.210323686285020 
2.637793761199184 -0.9353878915334420 -2.570491899661607 2.580020775519029 0.01815336133429215 -0.6885205305315159 -1.041567576325996 
3.396179697720595 -2.175921344706380 -0.9572535060559674 -1.511122545763526 1.031265909350229 0.4364132368973642 -0.2195614474422990 
0.002585723627900642 1.332722187961890 0.2494484936098943 -2.059565635083569 -0.9149510224256127 0.02603038606893470 1.363729866240512 
-3.366169608864822 1.118121182536218 0.1357347502274208 1.441983192285698 0.8321076996870697 0.8541457976055781 -1.015923013477156 
1.806685175739193 -0.3879728170672561 0.9618659103555000 -2.264187508226094 0.6579573005338777 -0.9562543475806383 0.1819062862453651 
0.1103460053261954 1.542636155181930 0.3950947569898900 -1.121785797647815 -0.06676541443285199 -1.023595856243561 0.1640701508262194 
1.769030075107027 -1.334954843792799 0.09943775564179187 -0.1432881441990835 0.3407052424300565 -0.3462001898912333 -0.3847298952957398 
-0.6873070379197270 0.3451059377211901 0.1025958512734416 -0.3303078941145319 1.829027768579334 -1.070326517001694 -0.1887881085379991 
-0.04532618964503624 -0.1417699816471677 0.1012081799291890 -1.104149811530558 0.1945239299750413 0.009870662690629108 0.9856432102279050 
0.07169341719062673 0.5215390766991325 0.6221435332692191 -0.8568174703278282 -0.5302277554397745 0.2931067579305975 -0.1214375593219650 
-1.839517447262298 -2.655277626336314 2.276537263601872 3.866144071173517 0.1263955530200845 -1.347766073722206 -0.4265157404745910 
-0.1072838425076143 0.1084662090204644 -0.8403047765054111 0.09339600932224196 0.7876664713635019 -1.705332932322938 1.663392861629754 
3.534747649578966 -0.9455280418457007 -1.311815872651565 -1.070802771156601 0.9347347282239411 -0.6970089432102622 -0.4443267489387487 
0.06279146844525971 2.274059882332788 -1.046762896378183 0.7583447426464726 -1.838952803243344 0.2331276241840584 -0.4426080179870545 
-1.110138618081849 0.1394473158586843 1.442498653086357 -0.1605524360337377 1.367776052968790 -0.2456181929314669 -1.433412774866793 
-0.8681400536903390 0.6727031651535124 -0.2418098620806184 -0.2378625947910735 -0.7675140636424256 0.6733436917381350 0.7692797173128062 
0.9383983688514728 1.160692395302986 -0.4859369257330598 -0.7349072548048873 -0.7515220915295964 0.7282558785955463 -0.8549803706824580 
2.404206221746108 -1.699275483016710 0.6762941554311178 1.334901858259238 -0.07165572618374655 -2.567342819036776 -0.07712820719919650 
1.007870595908599 -1.019630092940592 -0.4638142269432010 -0.2553872941969582 -0.2669147702722851 0.06083667422892117 0.9370391142155031 
-0.6600996900964394 -0.8409123138551893 0.9787701485136205 -0.7817091268129010 1.381009119099646 1.136180021827570 -1.213238158676302 
1.576846712768857 0.3686776641574366 0.1516377214731134 -1.070632465930437 -1.322489191235621 -0.9717351285694645 1.267694687336098 
2.193689428529444 1.143612949743780 -0.01496434549701421 -1.615187286251825 -1.780156857076250 0.1568295738869977 -0.08382346333512251 
-0.7825703691914153 -2.514851990309237 1.894879303269281 1.526057549625198 0.05785487085578779 -1.102911303144309 0.9215419388947025 
0.9348090289970119 0.6540182340978133 -1.070631846287070 -0.7701370411519105 0.06532509290315587 0.9654710799051229 -0.7788545484641074 
-2.250393491307269 0.1995983641036424 -0.9202856995665821 0.1745803454845982 0.5534633094184255 1.505685886745382 0.7373512851217716 
-1.114070379309199 1.575263385984479 -0.9815694231757868 -0.8978520820156578 0.6663139606954157 0.8930790296718928 -0.1411644918511716 
-0.1600430377568502 0.1098552733112343 -0.3108315574300180 -0.3347067170773692 -0.7349773200465708 1.266790597085562 0.1639127619139781 
1.635832380983264 -0.1500784309996109 -1.018654691428001 1.203209445682062 -0.8549039279583703 0.4240425782967923 -1.239447354576139 
2.444215330703885 0.3663922066393858 -0.8619915495654450 -1.460848093615331 1.165771441586953 -1.864788634833619 0.2112492990842370 
0.3144500239229474 -0.06645351572506296 0.3715139360333765 -2.151039229302451 0.3343125446427118 1.130895310162243 0.06632093026620876 
-3.382827232460319 0.7050346345473575 0.4996869314811246 3.810065346512328 0.4165343405919482 -1.072999724643106 -0.9754942960293584 
3.054518614441510 0.7381320781170417 -0.9297150319246646 0.04744442337309186 -0.1351859936786259 -2.317716764077939 -0.4574773262504099 
-1.919800697772339 -1.929319153037006 0.6250718574839860 -1.420734600816552 1.542234364208296 2.108133218618760 0.9944150113148768 
-0.07198928604625900 1.307750668217671 -0.3666637014275156 -0.9784430272770459 0.3869697146754235 0.2333213222825325 -0.5109456904248016 
-2.236347644505801 1.360740565643526 -0.3352173542951825 1.390609616253323 -0.3568505607158846 -0.3237101657105532 0.5007755433305948 
0.8868871969174352 0.1078651342080924 -0.4624959116126901 -0.8379947692541616 -0.4955098737747692 -1.144671889509484 1.945920113025610 
1.980678857233278 -0.4559903071942271 -1.298537812332766 -1.851955252593791 0.1727967092664725 1.194268492009681 0.2587393136113524 
-1.229573758098937 -0.1420785182705567 -0.3359298091759268 1.448958693241842 0.08838605614446380 0.9447061858039657 -0.7744688496448242 
-1.947825179504119 0.5354419890999199 1.206847108192265 1.639178500950151 -0.8502510704797398 0.8802521214729346 -1.463643469731394 
0.1935390938139117 0.1794356022828924 -0.8928470254197550 1.324830801375176 0.9358491566162110 -0.8196559151835735 -0.9211517134848677 
-0.9008633356451029 0.1485203929813448 0.03999547763595442 1.561073576598565 -1.635255283793483 1.138981156517680 -0.3524519842949412 
-2.386794670245715 1.278988795527722 -0.6584082721494977 1.621545647928853 0.3238902541165818 -1.099503418349680 0.9202816631716907 
0.5721532489496226 -1.970010618068732 0.9379219161133014 -0.01524038501337469 -0.2173959086235754 0.6341398159509745 0.05843193069179796 
0.9447767463603581 0.03994897769075926 -0.8609054644865011 0.4688282052717842 -0.8159824833389052 -1.068449629765882 1.291783648268412 
1.488176744958483 -0.5517860845912995 -1.707844011003833 0.1931968475241497 -0.2442189723826597 -0.7593502268719857 1.581825702367132 
1.297926512779919 -2.411853729947089 -0.2737679705370238 0.2708839032694778 -1.807471757904860 2.131623065059817 0.7926599772797637 
-0.1306181643089465 -0.7898850541734439 -0.009413814545947119 2.276836858761012 0.9623325482898512 -2.087141449619188 -0.2221109244032809 
0.7951411007681225 -0.3494942419352637 1.169252315395012 -0.1762626509294750 -0.4372402506668840 1.708759780025601 -2.710156052657149 
-0.6360332276821657 1.545035903781167 -2.020824404936750 0.6284081368591905 -0.5123552819041687 0.7701058602809283 0.2256630136017591 
-1.530686723002794 1.122689285675630 0.8573925707101536 3.448366426889627 0.2548247924096960 -1.986949505305971 -2.165636847376374 
-0.8423167383116449 0.008102593044198391 1.242075373107664 0.9437477656349617 0.2772577581262190 -1.240327863961309 -0.3885388876400716 
-1.971449875206824 1.509710895415357 -0.9112067887815363 1.124933820876267 0.4120588592614879 -0.7638633358448274 0.5998164242800987 
0.7610566701124806 1.398579335881309 1.620182973059595 -3.078914860071579 -0.9711760650337176 -0.3016239618011087 0.5718959078530343 
-0.3035742548380872 -2.759359775155864 0.6140424654527807 1.504753842089857 0.5454736615259520 0.2179343589258235 0.1807297019995216 
-2.878532963858873 0.5645092412729493 1.047519494964074 -0.6386790134014575 2.294410432103816 0.04143513550275824 -0.4306623265832391 
1.557091060234646 -0.4739539835211102 -1.333068094771987 -0.2195891467382247 0.9532007433739144 -1.083732519166959 0.6000519405896898 
0.2488555065445223 0.7228803977303203 0.5254394314330489 0.08390109557383882 0.4669359138431106 -2.025985285627721 -0.02202705949713360 
-0.4500820524138527 0.6061403826583485 0.9314088447278308 0.1277308787160181 -1.143337610887151 -1.049313985504433 0.9774535427032559 
1.126377977792151 -0.6597538858189629 0.1600669178221263 -0.08269420169520246 -0.2306059900522606 1.267959502302142 -1.581350320349977 
0.2677518151712579 -0.8235102454396243 -0.9926084206140351 1.204043094754100 -0.3463453894585804 -0.1689600328238561 0.8596291784107373 
-2.662583136698233 1.110727461561158 0.7200428893709565 -2.060567753226033 0.1703762022210544 1.578834814390643 1.143169522380477 
-1.470930438672990 1.154677440942232 -0.1160428567229322 -1.947565703388140 0.1632076527915765 1.380993399319656 0.8356605057306196 
-1.513078228265385 1.345526815973591 0.3186995045584102 0.2151494831333526 -0.1396818353630725 -0.7781975187182512 0.5515817786814013 
-1.984615131802475 1.154244555180688 0.3343535743099460 0.1520126735159043 -0.06693239128227446 0.1031867343743908 0.3077499857038668 
2.624397450299261 0.3063518061136879 -3.388452766689614 0.4350551388480092 1.085145728776626 -0.6659884247744475 -0.3965089325735445 
0.04826941440870584 -0.01923106091557867 -0.07606134553200186 0.7331808667625823 -0.6881585819332531 -0.009181940303067673 0.01118264751261274 
1.623644241431857 0.4803514257910242 -1.460178287467515 0.8556896454219210 -0.9906116905970609 -0.4032855975785545 -0.1056097370016393 
0.6201823171987416 -0.5963237064413325 -0.4531062241394337 -0.4470184375975829 -0.1244696730270924 1.451398611591833 -0.4506628875851287 
-1.913873749045656 0.8878256732184255 0.8039040771924628 0.01931694283635296 -0.2395621494830658 -0.3050069738576353 0.7473961791391420 
1.466229781516476 -0.7255630905374285 -0.001147982861711469 1.245512969307968 -0.6847146506716851 0.1812873569801663 -1.481604383733772 
-0.4251136720380395 1.332228010771111 -0.2278809333400623 -3.092642067719727 -0.8540335350540873 1.897309468524244 1.370132728856508 
0.5035912508651115 -0.1422607311705395 1.258379577750228 -0.9647841602160975 -0.04958584046402424 -0.6678891348705599 0.06254903810585350 
-0.4670320214410968 -1.112694630578444 -0.7988011839964814 2.596759321827491 0.6588204329588740 -0.08859540911265835 -0.7884565096576440 
2.140328336715752 1.509203884738826 -0.04149257424729144 -0.9609020868544754 -1.050792579894143 -1.163413139985966 -0.4329318404726965 
-5.466494142108968 0.4118555379814871 0.6269287929127018 2.604837843029437 0.5678414215552702 2.028180795334961 -0.7731502487048586 
0.4143228987871239 0.6575656155246526 -0.4513674022109903 -0.7322574013443482 0.2379063632918078 -0.08177452817742305 -0.04439554587083801 
-1.261285393352074 1.767181915515616 1.329230840354144 0.5018727894973087 -1.636051856108147 -0.3374607096052529 -0.3634875863016100 
-0.2255198213881281 2.546901237047660 -1.329417175116304 1.159381323806539 -0.4155136973958219 -1.119012170547482 -0.6168196964064974 
-2.170455200423986 -0.06726138809643126 1.700761119120055 0.2365066527869087 0.2466313859769637 -0.1195131962495253 0.1733306268860294 
-0.6382261847028293 0.8685583220083503 0.3890690176394921 0.9663651978993808 -0.3541107448387821 -0.9014012153739140 -0.3302543926316914 
-1.403660176298005 1.224567269731081 0.08174438945432866 0.5719273737193639 -0.8287822942721693 -0.008969713820019634 0.3631731514854245 
0.3013707253205474 -0.1870830558211679 -1.592967598927457 -0.6400161050569962 0.9442945038136350 1.449637947531602 -0.2752364168601733 
1.302101886534395 1.411010847035944 -1.725039626585705 0.5535712344620858 0.1598955776363548 -2.142910574885952 0.4413706558028871 
-1.841965170482375 -0.2962780846450476 0.7853196192116152 -0.5723573916021352 1.493983216110966 -0.8291044607120660 1.260402272119022 
-1.005644264341766 -0.2337074770205680 -0.06801996866654039 -1.798470712906363 0.6666934768700831 1.851280524640663 0.5878684214245248 
0.5720186520713123 -0.1995277005704755 0.06423949134727329 -0.4889401918497750 0.8467220775025867 -0.9558564630510561 0.1613441345501308 
1.260811027052425 -0.6361985572897405 0.6699621063870319 -1.551359098242727 0.8611090813945339 -0.0008228794181812931 -0.6035016798833381 
-1.985958987595600 1.569887008471353 1.102272958398247 0.6291298345760172 -0.4481573191706380 -1.744275427519114 0.8771019328397609 
-0.7657291860582219 -1.089058011824902 0.3962669998308706 0.2755223082973136 0.1337024137150432 1.022867947409514 0.02642752863037912 
1.500243187708729 -1.117013210269862 -0.3595219925452113 -0.7873817083774194 -0.5927671598073538 1.080409227619808 0.2760316556713213 
0.3706077125795821 1.787039177114851 -1.037145554544992 -1.501801595495557 0.8078178268303917 -1.619877257773778 1.193359691289547 
-0.03292401885645558 -0.4013626835964519 1.565592789806666 -1.858417858572999 -0.9261300423274266 -0.04268827750868553 1.695930091055328 
0.9988341079671976 -0.7181656219284472 0.4512753254887858 -0.6551361728529972 1.318033949064521 -1.149299400220737 -0.2455421875183183 
-0.5926971011266622 0.3130633364816678 -1.653657736540752 1.637121979364572 -0.7761342650171432 2.629294907964176 -1.556991121125818 
0.8697548644484074 -1.348691098594657 -0.2148461459974376 -1.650108132159581 1.231621494424879 0.5410990317447193 0.5711699861336328 
-0.8043850080847784 -1.740766554712920 2.053805840693251 -0.9335360032510319 2.615323589184381 0.4120219675529079 -1.602463831381843 
-3.376662137068728 1.145796536191789 2.278028015509069 -0.6924669055046422 -0.5833139202928351 1.116182088224512 0.1124363229408080 
0.005549775204062861 0.2012239578545850 -0.3861109225157228 0.4837308313472228 0.6408553919306383 -0.2186434001341159 -0.7266056336866683 
-1.302742120983628 1.309641211518602 -0.8239377446375341 0.2000399100585901 -0.1840987759982176 -1.588818600911278 2.389916120953462 
0.4888159382392608 0.3968823941820440 0.9529956497203927 -2.048411767337899 -0.4619432315246023 0.3108294781051896 0.3608315386156015 
-0.6215136500333853 0.5018381800546938 -0.1696073630576472 2.223121219485920 -0.8193906824699945 -0.7566339678154193 -0.3578137361641484 
-1.427905018234746 0.04253193930500988 0.6845075831358838 -0.7896394452663015 0.6387734536545673 1.050687808266441 -0.1989563208608392 
0.07313535645175699 0.3978414829010842 2.145170984156590 -2.787735801926567 -1.118543681372301 0.6192345501341254 0.6708971096553136 
0.1431018630726443 -0.3991878478587114 -0.1564702680812755 -1.439914228032226 0.09537408884996774 1.291251707347807 0.4658446847017746 
-1.462470247309971 -0.02877776204556961 0.05956974577092749 -0.8770918765704776 -0.2191291706607333 0.8598039446196484 1.668095366196169 
1.743393617588874 -0.5398662040197175 -0.09730737254893747 -1.691668782968668 -0.1018908796919989 -0.6075580778834749 1.294897699523910 
1.356731817045861 -1.768630166382148 -0.2630549041514587 2.782907917780533 -0.1501632168352051 -0.09681713357310553 -1.860974313884470 
1.470468897093002 0.1503035157387912 0.004817575510593252 -1.100619758148607 -1.144558801719372 1.305098314422536 -0.6855097428969775 
2.226089207237276 -0.6367776891994110 -0.1477647195533372 -2.143701955653584 -0.1121873662078342 0.8009794993534776 0.01336302402336900 
2.466019252653860 1.381216753291917 -1.346153424028061 -1.403583209060342 -0.8502101567825859 0.07663454983763342 -0.3239237659124051 
0.3423748000707751 0.8368110879140790 -0.3845266206468385 0.9561513768315700 -1.196497556878623 -2.368406154647265 1.814093067356331 
-0.6028551173707808 0.6753396269236751 0.6781158565425602 0.5710045876789227 -0.2477268047114253 -0.5811211703816849 -0.4927569786812946 
-2.428099062104423 0.3228083752222112 0.007748584036549106 1.800676491843661 0.2997232226840202 -0.5440538335942364 0.5411962219122314 
-1.511134744884384 2.412785641469880 -0.8428409792692658 -0.9370313188672665 -0.01873121321003682 2.000224613502920 -1.103271998741865 
-3.480794542245668 0.9550701559168399 -0.006011698359719557 5.260384073785067 -1.298582546655309 -2.172326285535429 0.7422608430941542 
1.370377601636578 0.6140675300338059 -0.0003277605611538098 1.370630693988155 -1.634949479167020 -1.265770860781653 -0.4540277251487033 
0.3639693352201167 0.7863935371002021 -0.9670248951692203 0.8913080447611282 -0.2926754321789530 -1.232957194262512 0.4509866045292413 
0.2144955885452383 -0.9742668531317604 -0.8885540259363410 -0.6309130565769168 2.149211298455763 0.3450428206805304 -0.2150157720365168 
-0.5275343939579179 -0.03062547041901070 -0.1052939015171570 0.5274005628260694 -0.2892708672201363 0.9353417463991367 -0.5100176761109634 
3.066128380540041 -1.936595711822092 -0.8310720127857544 -0.5164805523842907 1.135163444971975 -0.5742916204744690 -0.3428519280454069 
0.2914601923218905 0.2324856049833615 0.002158599033286728 -0.7433007753163900 0.9162414504955527 0.4436602030071574 -1.142705274524861 
1.221629812991490 -2.554498059569024 0.5773274731806664 0.8701881677244800 -0.06057024443415651 0.7312444553753528 -0.7853216052687967 
-1.795557004844772 1.124007989014106 0.1125377279849736 -0.8444794123535171 0.2202626940200099 1.541913130216080 -0.3586851240368843 
-1.278039920457877 0.5309987856402586 -1.388937934676386 1.382639362772202 0.5457092149628506 -1.019815475368635 1.227445967127614 
-0.7057910808610828 0.9188531653636113 0.3768299662783632 0.8886191348073788 0.1351290517362423 -0.7373665593668253 -0.8762736779576810 
2.260235390538501 -0.7974034800968630 -0.4098786934883374 1.788423561935896 -1.154274430732549 -1.926873804146193 0.2397714559896170 
-0.5920778031670918 -0.1112409286537299 0.5888374005124046 0.1661455705138763 0.7732274559333627 -1.256365884756431 0.4314741896176114 
0.6445929619679044 -1.912499157372979 -0.8796621525560664 -1.289477706263074 2.069951725597043 0.1872484199930569 1.179845908634073 
1.713846843699487 -0.4373058311929017 0.06325796046447090 -2.369042696641223 0.3195499586536182 -0.08633488968692515 0.7960286547034866 
-1.474971059060884 1.462860266704129 1.062627459610985 -0.5624161226712217 -0.3763988977997227 0.07645441703861432 -0.1881560638219111 
-3.198090324997161 1.567870454217653 0.1114032441595430 2.810286606227359 -0.4165780094017106 -0.9288064527967292 0.05391448259100838 
-1.828842470543541 -0.9161550172268417 1.488787126597069 0.6393700240756133 0.7219441180884765 -0.1091051026966864 0.004001321705918946 
1.462902223940412 0.4195743131635713 -1.109330866089263 0.7129804834329129 0.1100259779681910 -2.137415263382324 0.5412631309665350 
-1.354621989828131 -0.4635107555391056 1.119420820112494 -0.06382685416387820 0.4595364106897836 0.4784786492312869 -0.1754762805024489 
1.125413036254026 -0.1261300016928849 -1.241468511023605 0.2044800594621614 1.559925128870370 0.01097912392054934 -1.533198835790603 
-1.715598267102821 0.9370062276076879 0.9410338840737382 -0.2582823754619376 0.4214046795679516 0.02495470928630377 -0.3505188579709246 
1.700229834471551 -0.2725572562823910 -0.3382063506715104 -2.088737958655088 0.1299455055681938 0.5583404644790945 0.3109857610901826 
-1.740635933752693 0.1384876098721067 2.256719122541346 -0.6215691706991879 -0.5626322155142722 1.096842055579699 -0.5672114680270541 
-0.1415856585369662 -0.5103309884794166 1.128476471059708 1.222121090474526 -0.5649995414263242 -0.5059489313575575 -0.6277324417339665 
-0.1936234898787364 -1.142849430084112 -0.8649778517448031 3.290839494932552 0.8862137664764325 -0.8354987166525902 -1.140103773048738 
1.359732427680338 1.469761142332031 -0.3617264443267134 -1.887648988842251 -1.817017341022200 1.844776502350924 -0.6078772981721156 
0.1815802497572628 0.3670111652143188 -1.082126428234066 -0.03655744856542503 0.06720883190772013 0.5187081488813494 -0.01582451896117044 
-2.246224773058548 -0.8479541939511146 0.3595056385917153 1.158673478083635 1.305033137608711 0.5739884566476642 -0.3030217439220376 
-0.01961758063517758 -1.048933209615545 1.659528231622703 -0.2820285275761555 -0.9321666855745620 -0.008609953149385804 0.6318277249281419 
-0.6829160061074530 -0.08873072337292498 0.4722571965283755 -0.8716645458772010 1.402194574677362 0.004396865365522184 -0.2355373612137065 
2.110752453207661 1.494921701194001 -1.802547220628506 -0.8994444840891571 -0.8192076706074035 0.8781550969910988 -0.9626298760677111 
0.4311748947436808 -0.4532652192679654 -0.2122952128734136 -1.683136514751030 -0.6519940456571142 1.089587021198982 1.479929076606872 
0.9874307215297039 0.3504998132855438 -0.7489576873934608 -0.2896576923125565 0.1114899961039779 -0.3484773825883521 -0.06232776862486897 
-0.6700602592868015 -0.9084790160230085 0.06167051833125466 -0.9375540943248022 0.7894496959743468 2.138052785103701 -0.4730796297746840 
-1.618873730553464 -1.955565210667231 1.567499395733731 0.9728154237302543 0.04193280632636161 -0.3304772952340815 1.322668610664402 
-0.002018008979528832 0.5445820753839294 -0.4660133071334703 0.09051345650254475 -0.7038995692816178 -0.2178022145973969 0.7546375681055392 
0.3810302159349980 -0.5372376373442539 0.5959485942196656 1.830200517351433 -0.5820251425620130 -0.6270324369242559 -1.060884110675565 
0.008942045936515597 -0.1814434678443737 -0.02307875811486049 0.4607651450605265 -0.1833260697159002 1.234616621723792 -1.316475517045675 
1.618855252283213 -0.05095774445914322 -1.164076788961842 0.8207384912439695 0.1362196151190781 -1.146156179607377 -0.2146226456178993 
2.155742555215387 -0.6536280978193666 -0.1764388802721461 -1.341287230267344 0.2202682980493140 -0.4774536567630501 0.2727970118571627 
0.2338661342503400 1.682245334345938 -0.6353525835520987 -1.171487997478747 -0.3553253480942558 0.6709366651183979 -0.4248822045895667 
2.082558646362849 -0.9100975715645783 -0.8666529008551057 -0.5709303119861384 0.5835707938243273 0.2648781935351235 -0.5833268493164845 
1.926374316155967 0.09898843695935564 0.4711363681061591 -2.782479924388621 0.04817255992016457 -0.2282227795477929 0.4660310227947535 
0.5093901232920487 -0.03030230175201763 -1.341075176724870 0.7457252780861279 0.2119722942918788 0.3904201190668328 -0.4861303362599949 
0.3612613766725792 0.3211735302178007 0.2482245757957850 -1.821651770822236 -1.020563857305585 1.171280891158921 0.7402752542827378 
-0.4423060555336559 1.147633943126628 0.4205115545752970 0.6620291292223117 -0.02926794698486033 -0.4171046276351423 -1.341495996770570 
-0.9921217277288300 0.8650501133291512 0.2768536253241525 -0.5419077596102570 -0.1761944465921505 -0.9243199899264752 1.492640185204419 
-1.347179658664536 -0.7606480348238073 -0.4668150027726949 0.6820473266853521 0.3410157237872761 0.7571824985629955 0.7943971472254105 
0.4043386721841557 -0.8245055289870530 0.2190407542834995 -0.6695412608370609 0.8044799279628008 -0.5552582267029192 0.6214456620965958 
0.6636280890746212 -1.371107452197901 -0.7001578870950723 1.580254070878006 -0.7430249766344394 1.219849738856412 -0.6494415828816740 
-0.1525809697801230 0.7185973348869518 -0.2794549199439266 -0.7159958885191785 -0.03861396242995680 -0.4963849690344660 0.9644333748207032 
-0.3287268309691963 -0.2146115257820606 0.7643985339391434 -0.3882600742528619 -0.5199399997198991 0.6707212392331797 0.01641865755169993 
0.5938072695652458 -0.3755925057452755 -0.3890927257533206 0.2432207981178371 0.7170839529147506 -0.01761512104610140 -0.7718116680531362 
-2.863861938315945 -0.3550717022950909 0.3710298257634709 2.415773901144316 -0.2701532871418697 0.7656996633212221 -0.06341646247612552 
-1.269397696955604 -0.4715236651404119 0.1054811326690272 2.046757628249909 -0.8183709569035055 -0.7032734034621978 1.110326961542787 
1.185570365009027 -2.370781866666175 1.435212131156336 -0.01950639617559234 -0.3592993875315487 0.6123650438253672 -0.4835598896174103 
-2.540726713754686 0.9785293641470395 -0.7424754749188922 -1.415239300500977 1.470169556900477 0.8306346541402679 1.419107913986731 
-1.760933918256875 0.4094547404222011 -1.512198964369310 0.4191982989517155 0.5491148336208067 1.728406950451919 0.1669580591795424 
2.227183850772514 -0.6439896261635500 -2.291197119550883 0.8807853699761105 0.09245706196284988 -0.7360688799359320 0.4708293429389167 
0.2614038480816355 0.6615131273726931 0.01269412089104343 1.301250895691438 -1.544427559353626 -0.5671509584584126 -0.1252834742247994 
-1.362071697718802 0.2522478833861021 1.135060478724608 -0.1433637005079198 -0.3257636698604143 0.4415012382066330 0.002389467769818494 
-2.231409073214367 0.7703567781789046 0.8892859207855918 0.2038676919204518 1.074460306302892 0.2337151149765293 -0.9402767389500052 
