solver_type MCSVM_CS
nr_class 7
label 0 5 6 2 3 4 1
nr_feature 199
bias 0.000000000000000
w
0.1045378073533584 0.03145742819962340 1.272013643595989 -0.007645647957196696 -0.4304325323621803 -0.4626296775200743 -0.5073010213095175 
0.6048643701479274 -0.3914717977897547 -0.7334731940051522 0.2772629753405304 0.3723386075820948 -0.07734177523624171 -0.05217918603941239 
0.4870841294240416 0.1644986105154012 0.6103730852180603 -0.7533637354695064 -0.07791705101520724 -0.4294615625471359 -0.001213476125660792 
-1.167612097623315 0.3553555993261531 -0.3113957614834188 0.1575786922521318 -0.05344964894645075 0.6485310065861192 0.3709922098887765 
0.5675290131562564 -0.1663329774463619 -0.2383673266781654 -0.4858083860548199 0.08489273994774948 1.448961197984301 -1.210874260908952 
-1.123590368487352 0.3264461579450714 -0.4757009920281671 0.8773399953533842 -0.7896629118224099 0.3443048021311025 0.8408633169083642 
0.9893054058307924 0.4142038116400185 1.277969009861256 -0.8012616230698608 -0.1202932231613171 -0.7086132498255889 -1.051310131275300 
-0.4964881968160440 -0.4319500749662052 -0.3925602949109841 0.1591323546353249 -0.1773586800653290 0.9753169413153661 0.3639079508078746 
-0.7760487705334420 -0.06463304448852668 0.8342811270546525 0.01124883935763091 -0.1245427403794927 0.2436042735103897 -0.1239096845212089 
0.5648798374563223 -0.7581428691258566 -0.7937723003406423 0.2805995990867838 -0.1261681231182236 0.8191958972999447 0.01340795874167991 
-0.6978297803291319 0.5579320732882884 0.5656978569157187 -0.2080489745940416 0.7333657691841121 -1.192868602524098 0.2417516580591340 
-0.1960807853938063 -0.8723043908464888 -0.6109442651875423 -0.5722971118342910 0.1123944824445974 2.048479093159414 0.09075297765810975 
0.8052469085274632 -0.5941696225547809 -0.2550060037977230 -0.2520437576476678 0.7988895820758937 -0.9336672463380294 0.4307501397348451 
-0.5230676983562225 -0.3688049153689642 1.337577997472649 0.01209415250092783 -0.5560688858359766 -0.8549400980564742 0.9532094476440622 
-2.032286544352838 0.06541564305698283 1.032036958839691 -0.5354869453703353 0.1388030076486084 0.7798886387516696 0.5516292414262020 
0.1508646512106968 0.3621301302526765 0.02868880492209656 -0.1246620788334865 0.6065417836758988 -1.843297644857503 0.8197343536296214 
-0.8304620988207557 -0.1919862107028229 -0.5857330836961100 1.173617229421497 -0.2203024841030639 0.5376032444373730 0.1172634034638771 
-2.338611989876459 0.1153006549564696 0.2253335736066135 -0.1100833957924094 0.4042044117991649 1.184066546604757 0.5197901987018699 
0.7877939284689996 0.6535781871146217 0.1589549208757221 -0.2570398871388842 0.2508135875126106 -1.760866568751600 0.1667658319185233 
-0.1025294951341097 -0.6753287176473942 0.05544641592490805 0.3866274343593409 -0.1300960372424575 0.2732565376548299 0.1926238620848839 
-0.1275029843631388 0.02277395245374936 0.3140791359597078 -0.2068696450113056 0.6149520250700300 -0.6424056615542965 0.02497317744524936 
-2.183001123417208 0.2334051084340700 -0.1739179227596809 -0.2955436671826555 1.231463023238503 0.7144357039150971 0.4731588777718946 
-1.298010651488026 -0.05456388483582750 1.025415688259106 -0.3654303968039063 0.5381973170288484 -0.4558379672931044 0.6102298951329088 
0.2926738391963982 0.6206232174212164 -0.0001706866681715563 0.2747648056824665 -0.7513366671552918 -0.1801444948415467 -0.2564100136350673 
0.6345133875737627 -0.04028153983758963 0.7851847957166437 0.01420540905600344 -0.1745080954236229 -1.478673614432976 0.2595596573477745 
0.8661657967676475 -0.4130480199253638 0.3836719809690264 -0.5871811073306965 0.3254517706578908 -0.4861803624709340 -0.08888005866756580 
1.226254180430161 0.6121425216713322 -0.5932882970910759 0.3451891719659571 -0.9845253631724514 -1.301190709251746 0.6954184954478024 
0.8928462463320919 0.02748215098956520 -0.4981841028608949 0.7117381403215555 -0.4921410249913105 -0.5831236453394716 -0.05861776445154145 
1.054620531734866 0.1043877224512406 -0.4836936955784665 0.2331885831694952 0.3078553078220313 -0.8074972245807218 -0.4088612250184399 
-0.01134042255288575 -0.2112246878637914 0.5679110073496233 0.01504465805565120 0.9811254859506758 -0.6752932565893445 -0.6662227843499273 
-1.326417879675538 0.9726456161019987 0.8822989237569848 -0.2873322967862944 -0.3918628172174179 0.4686194067427587 -0.3179509529224874 
-0.6532199744213990 -0.6248428063454597 0.3331368270738069 0.05870504006873344 1.086126625968062 -0.1303837466227161 -0.06952196572101953 
1.407263645893461 -0.4091031519852414 -1.263757510046177 0.6089225137177121 -0.3964277418679721 -0.5691480702601119 0.6222503145483357 
-1.359363332542294 0.1407278068638569 -0.2635127735888845 -0.5594528902425400 1.665016146139095 1.515074707163879 -1.138489663793108 
0.05196927828214918 0.07305206966203949 -0.4747006195082362 -0.01194958564439260 0.3132664239285525 -0.2524594803460351 0.3008219136259211 
0.04398837827024953 0.3618770959394193 0.2057526120178022 -0.4171394353327565 0.3380050655223061 0.1319151176029343 -0.6643988340199578 
-0.5359888646472190 -0.4191531676517876 0.8238679416249901 0.3615550994491029 -0.4158625819068684 -0.001733284360735869 0.1873148574925244 
1.254836901682426 0.3396798194385073 -1.290189910632339 0.5327447619995284 0.5648682331091529 -0.5233166825609036 -0.8786231230363701 
0.8769443461867847 0.2718397519753339 1.051967478339111 -0.8142042214823471 -0.2374580500537736 -1.949746205835609 0.8006569008704744 
-0.5193593912607168 -0.5301369617333834 0.5212112075455514 0.7031122940443582 -0.1717498475482753 0.6394365424272763 -0.6425138434748072 
0.9033204225029220 -0.1226837746281917 -0.7121203945232867 -0.1390996608877269 -0.1624610878196439 0.3843691800565486 -0.1513246847006160 
-0.4421125321594499 0.04862069011202436 0.5304343317590947 0.2919931208274493 -1.330550398055382 0.5989058513272120 0.3027089361890491 
0.08684124173134086 0.6104149492766723 -0.2243408994189368 -0.7079579019037177 -0.02771378638786579 0.2506493701066744 0.01210702659583241 
0.2105268044239333 -0.8398160880961332 1.069692915336698 -0.3214108075875903 0.2137210844679350 -0.4889460505423274 0.1562321419974744 
0.4514891858894213 -0.1167326382937659 0.4296369946997342 -0.9577128063738833 0.01554357444447597 0.07203283855013620 0.1057428510838871 
-0.4338076254315829 -0.6693539962343836 -0.5195373632572593 0.5390003576281475 0.3344163806075691 0.9343213422411767 -0.1850390955536697 
1.025796979716311 0.4083384891849731 0.4937706747592358 -1.512418745173035 -0.1818601348424699 0.3630787953158026 -0.5967060589608330 
1.708996871897258 -0.5485495083256329 0.5435241998901583 -0.6916310452808002 -0.6757311114893036 0.5438427611975886 -0.8804521678892621 
-2.404543793477544 0.8898764275735491 0.1527758928121778 0.3178359208644980 1.016335655416251 -0.08537303624720980 0.1130929330582714 
0.6498313864983677 -0.2110735445283308 -0.4217957058417802 -0.5757241309832123 -0.1047779576281287 0.9802338169642199 -0.3166938644811284 
0.4353589260848933 0.1411694818481350 -0.4747569211739925 -0.2564980676257681 -0.9543132600055882 0.5575121608350925 0.5515276800372253 
0.4978776621893076 0.8432735948777292 -0.1934373049757056 -0.01766045946041395 -1.268380095683419 0.2347698283979477 -0.09644322534545360 
-0.9038007177489809 0.01894760516076615 0.2078300508533897 0.3109731873180097 0.7159938367137790 0.6867752724140507 -1.036719234711014 
-0.7582705928762360 -0.2556827833812819 0.7035352614556205 -0.06375421999234378 0.01716439776527651 0.6379013952927530 -0.2808934582637894 
-0.6549193671106928 0.4893410354337534 -1.143872083228215 0.7575526366725918 0.1790244860140392 0.01902354424104720 0.3538497479774678 
-1.322565804794264 0.6783797260420162 0.3527762704096245 -0.5693049638554390 0.6625229372744473 -0.1455060524616615 0.3436978873852754 
-0.2294751872383099 0.3758406182487430 0.05333441697971948 0.05326026773892358 0.009257980528206230 0.6383276493038448 -0.9005457455611292 
-0.5740109338580037 -1.246138425959558 0.5662923629889876 0.3589867872347248 0.7338370041130863 -0.06123288842618779 0.2222660939069493 
-1.085278706293156 -0.2199091935447537 0.5930326435364343 0.4524389986980902 1.118867465114739 -0.7406346389232004 -0.1185165685881693 
-0.07855904147408152 0.5762675503332800 0.2457964135998511 0.3859559751882599 -0.5761532930970625 0.1604080091822409 -0.7137156137324826 
-2.234065370686817 -0.4041175824542511 0.6359397874083138 -0.1897882432599490 0.6356698025328436 0.7818187731031429 0.7745428333567149 
1.000656082378108 -0.8933076180817410 0.01186506781603491 -1.008725004401889 0.7227333638999303 0.7677649745747981 -0.6009868661852413 
0.5219893661284822 -0.1385776679367956 0.08917710152064465 0.6270028852585686 -0.4372499911523282 -0.3242411782113921 -0.3381005156071864 
1.524806940464061 -0.7315104851461752 0.4269129224165367 -0.07327684110322867 -0.09770034549013397 -0.4707941875247886 -0.5784380036162766 
-1.066145546819190 0.1001064098591307 -0.5144607556989256 1.340805994996784 -0.5805132622859838 0.5979781340427712 0.1222290259054147 
0.8758573820320524 -0.9619034645296344 0.06777612492795043 0.04431395240478536 -0.1441502582997292 -0.5556255155602188 0.6737317790248035 
-1.234283850409287 0.2933749589966812 0.2624165887767954 0.2203439122276540 -0.9591737494346909 0.5020047139608137 0.9153174258820349 
1.374074530191032 -0.1400582459172358 -0.4214692391621808 0.2830241885781717 -1.836985515499132 0.7443534595910652 -0.002939177781722182 
-0.2034719990865818 -0.7704182833757175 1.246885200230452 -0.1057033622659587 -0.3351914375344636 -0.3068489033850758 0.4747487854173523 
0.08579110970628501 0.4143379394983484 -0.9597375136839106 -0.7165076621783133 0.08121939464631686 1.741872242281108 -0.6469755102698321 
0.07607809819460447 -0.3694114778130557 -0.3686574476717368 0.5139275712563957 -0.09754699953446935 1.179107638558111 -0.9334973829898496 
0.1635327384533558 0.4194194029151280 0.1795880301322512 -0.3873788492912071 -0.8006984929535332 0.1358052312319895 0.2897319395120163 
-1.027279957052109 0.04678046876581091 -0.3595608258103081 1.215708240295052 0.8517335705052889 -1.094411861231781 0.3670303645280363 
-0.3007514703698395 0.3411089278515765 -0.3544871656392728 -0.1592777043710279 0.7079913083063729 -0.9990929382653567 0.7645090424875458 
-0.5812138684285753 -0.5236974296649000 -0.1847716279588518 0.4356214968103387 -0.9046463716971848 1.372164042006773 0.3865437589324047 
-0.2811713584659819 -0.002370580510321495 -0.3265091911659987 -0.2121670265692981 2.206924227753956 -1.534782170736912 0.1500760996945765 
-0.6611365553572679 -0.5202643650507913 0.8402065667619787 -0.3125787924837998 0.1862393802185215 0.4164122434201145 0.05112152249124097 
0.2914210334135876 0.3737910096501600 -0.2788729197985918 -0.1120620219854915 0.1886960914336006 0.003144574822614644 -0.4661177675358843 
-1.066055127384455 0.6323443450024088 0.5644467023002526 -0.4175109209448537 0.3498026084230457 -0.9956253548213367 0.9325977474249350 
0.1447973916255164 -0.2431524623715189 -0.6902210257179706 0.8641595948436945 0.3546823753652061 -0.3838830301516643 -0.04638284359326509 
0.3610118817847044 -0.6413408206240260 -0.3990876699295297 -0.06961231502953096 0.7396735199351789 -0.8519864966037053 0.8613419004669125 
0.4586056389834093 0.8157660090954113 1.222530291683059 -1.178621768807092 -0.1930058678439856 -0.3432827122831250 -0.7819915908276700 
0.1668103258135259 0.3075313241676456 -0.1645651049583033 0.2984222856523585 -0.4431574066417230 -0.08736857639779387 -0.07767284763570940 
-1.423054452905756 0.4817934209339465 -0.02153298709881383 -0.1843758824171271 1.042064696348954 0.1542019265998337 -0.04909672146104811 
-1.675954668632565 -0.1050503255706365 1.059974382409457 0.7010585732739346 -0.1701162321224623 -0.6451931269976544 0.8352813976399180 
-1.085966345849502 0.3925540586894280 1.420923336759508 -0.2580231501854438 0.01557300197638539 0.02996803122100715 -0.5150289326113820 
-1.348834782537989 -0.3002222838099313 -1.025606340855930 1.132031087318711 1.184874928945386 0.08028995532781934 0.2774674356119285 
0.9155439886733990 0.7075058930950750 -0.6201460468748468 -0.5346394505194563 -0.9979543431631643 0.6665015429495449 -0.1368115841605628 
0.9564805054166079 -0.6868290425964330 -0.1626746924924910 0.02790315602963477 -0.03440747561297736 -0.7450779756843850 0.6446055249400461 
0.1825557164167869 -0.5464359761482950 -0.1620922353667160 0.2888880240764945 -0.4679663656516097 0.9881708388040572 -0.2831200021307089 
0.4064522071985671 0.9257542066280889 0.1533857728412289 -0.1960126346543345 -0.09558976566755764 -0.6875596418583840 -0.5064301444876003 
-1.695632861778806 0.2637685353144269 0.4488671447889580 0.9107677420963775 0.3085900941966878 -0.2488506847171579 0.01249003009951719 
-1.852689280995944 -0.3268661859136223 0.7148512726342959 0.5762281243643166 -0.1538508845251575 1.214355975466362 -0.1720290210302380 
0.9867194096709611 0.06645255693432096 -0.2435868844268117 -0.6939483043089665 -0.8057133826131982 -0.4551162016095627 1.145192806353264 
-1.147549513709842 -0.1441088166362114 -0.6659795492368047 0.1366993111910320 0.6878246356880366 1.664074096103580 -0.5309601633997932 
0.4238557038981726 0.001597066033352940 -0.4008246039293475 -0.5453465623784193 -0.1843082474125936 0.07730847333441808 0.6277181704544107 
0.7371250709248540 0.3006286613143626 -0.1294875000752667 -0.1416223224050083 -0.4446246456341892 -0.7879056310477103 0.4658863669229543 
0.1670178890549054 0.4999050899282318 -0.8228353783884251 -0.7424993776355441 -0.3241968938559493 1.163661197489394 0.05894747340739552 
0.5072783835179390 0.1699300381280451 0.04455888066757580 -0.4743784186332395 -0.1477263115087817 -0.6634486250492289 0.5637860528776898 
0.4358096272784520 -0.1773135582724079 -0.8445809366307333 0.1261576877706641 0.2027543859347342 0.6385480828790084 -0.3813752889597180 
-0.4087167489632800 0.1264249034291687 -0.7633909083288818 0.7416842483584889 0.4062693769317809 -0.4713881881175058 0.3691173166902365 
0.6437018066735408 -0.3293133229678551 -0.4035469829975475 -0.8675435663559912 0.3338577116375353 0.5736856767523254 0.04915867725799248 
-1.374480576087387 -0.7472178720153558 -0.05525878914228796 0.06014656579891864 0.1975630545026991 1.221521691003942 0.6977259259394790 
0.3006485716026480 -0.7354764047847205 0.1877863014715340 0.1515835159566724 -0.1205779843104839 -0.07095432080358106 0.2869903208679364 
-0.3087784307489078 0.2798500070950966 -0.2310655435691663 -0.1749714781433268 -0.4947145088632722 0.2873547837205762 0.6423251705090055 
-2.297250817182176 0.7626059519776482 -1.238424874377370 0.2760075544545255 1.345155349844479 1.857880219134484 -0.7059733838515864 
-0.1161390960710908 0.09420961751874089 0.5847115575788003 -0.7955631800700064 0.1682950606043788 -1.412030474904823 1.476516515344002 
-0.2950435562380469 0.6634262904046170 0.1127476199062417 -0.007587532824445948 0.6071007789497695 -1.720332187595722 0.6396885873975862 
1.789575162480926 0.5830918455641540 0.9735837377037463 -0.9892012960678225 -0.5114725126575935 -1.394194350912962 -0.4513825861104533 
-0.2820480680672396 0.5572509916151752 0.3276199988602472 -0.4365514556987793 0.01053140497135666 -0.7760444421889432 0.5992415705081826 
-0.9378720596580350 0.05834056850308990 0.5105570509621835 -0.9689736622777556 1.339789053911130 -0.4389728008307119 0.4371318493901056 
0.3238447114495046 -0.3131072668967463 -0.3441728511701500 0.5231336776354997 -0.3747294009883738 0.05289369733823313 0.1321374326320332 
-0.2504048988345985 -1.103798273547780 -0.2895476850192018 -0.2188039382365585 1.392215292608320 0.3955038110294990 0.07483569200032118 
0.3233680357818420 0.2515744887844923 -0.6906813307588766 -0.4196222960348917 -0.6831007063935806 0.5429536036548643 0.6755082049661534 
-0.7468153491874604 -0.6578336201805947 -0.5623116576394945 0.2702861094493798 0.6850281916129742 1.007586530998425 0.004059794946769381 
0.1164498082059181 0.2403741745129037 -0.3296547360841314 0.2703528200266173 -0.7086974180476535 0.5855193470513714 -0.1743439956650284 
0.3302112943393764 -3.317430949345240e-05 0.2885958280534952 -0.2503477610764424 -0.3034609736082367 0.2053477252793992 -0.2703129386780996 
-0.4202570449978195 0.05931659740997012 0.01106479699837968 0.7715341082980627 0.3910046184499117 -0.8188159191363787 0.006152842977859891 
-0.7144109767948376 1.171570044959444 0.4299992425240468 -0.3903305329460459 0.7180866921622655 -0.4718145973087051 -0.7430998725961695 
0.7604671337050619 0.4506659912516696 0.4868754658664212 -1.293568319525145 -0.02264596260177365 -0.4433856464032334 0.06159133770698910 
-1.215489660018594 0.9059863514946701 -0.3598279763696694 -0.7060706824012171 -0.3013941370848283 1.048355770572850 0.6284403338068012 
-0.9471149286273679 0.02299349754407711 -0.4117396860399834 0.09463674388249965 -0.5153064961775486 0.8132744254734287 0.9432564439448973 
0.4982998669957087 -0.1136818668894983 -0.1462186821932685 0.6988114693199309 -0.6389777983013518 0.05422969355037547 -0.3524626824818968 
-0.4883389257834025 -0.1589826715355591 -0.08226959193845754 0.2665687996175987 0.2905950721588401 0.4965915586231386 -0.3241642411421534 
1.297359804682026 0.02430437219186689 -0.3158311321825031 -0.4270845554742917 0.3984064092557646 0.03995063791671160 -1.017105536389572 
1.636587075786857 -0.7845226989305919 -0.5922925344349318 -0.3111393015161187 1.053665202426342 -1.094242522043988 0.09194477871243573 
1.335557090860230 -0.5547155752715442 0.8966419721380025 0.3441374074600979 -1.017238193441283 -0.1424670300402587 -0.8619156717052464 
-0.0004133590515087892 -0.4726457772181958 0.9362936653059937 -0.02190479555109733 -0.5448372737801138 -0.6403942537294421 0.7439017940243605 
-0.4994004480755407 -0.2094217421181856 -1.182835954117260 -0.5734883201211254 0.6607986453936119 0.8807764688980219 0.9235713501404732 
-0.3563896685984272 -0.03579672375099671 0.2178674580063426 0.2012703966387266 -0.7852709510441490 0.7298721142031386 0.02844737454535902 
0.1908279099690192 -0.7393110896991882 0.2258834693703747 -0.3355953043494531 -1.071963256473187 1.448959270296180 0.2811990008862492 
0.2030005875064622 -0.3825530031832930 0.6742797644277868 0.2376338144116902 -0.3803955532049892 0.03164375246906542 -0.3836093624267246 
-0.4661411975074907 0.2207834599922330 0.6466456135829705 -0.3712013519978940 0.8412747899769536 -0.6013923419285295 -0.2699689721182373 
0.8250704674162244 -0.1676329583031938 -0.3668034111093001 0.7372769847160787 -0.3574408043986427 -1.124847564742848 0.4543772864216771 
0.9593301279150738 -0.02346407268608646 -0.7224038439864210 -0.09501948620146339 0.9164642841099434 -0.01631927571956084 -1.018587733431491 
-0.3216842065308209 -0.3515558857912834 -0.8269696633918738 -0.5179999181916987 0.7624529063687658 1.372810521354823 -0.1170537538179222 
-1.319264765201960 -0.2661862136651153 1.265434634128711 1.085761531097131 -0.07398410583529541 -0.2427841817858845 -0.4489768987375909 
0.3712413268336104 -0.8563478383394787 0.4364110498960289 0.7921517984174546 -0.6717933849969869 0.4266216034075259 -0.4982845552181569 
0.03598222033417971 -0.3415572501463431 -0.3834817444244685 0.3966296815435909 -0.4249886403357503 -0.5105039944401955 1.227919727468987 
-0.1959442538839688 0.5612621495337362 0.7930153409581933 0.1270472209226729 -1.464734189623112 -0.6457427932985221 0.8250965253909921 
0.4880898680430169 0.6577697253469224 0.8558106555280941 -1.130678067441969 -0.2051776166219462 -1.506096956943465 0.8402823920893476 
-0.09969136372768340 0.09821340093947250 0.5160774980668651 -0.9027924516734114 1.017073256509143 -1.160610235856584 0.5317298957421958 
-0.3659140329788780 0.6368245869187276 -0.5375020292106620 -0.7914402064367955 -0.04894137455031380 0.4904020003791088 0.6165710558788172 
1.942606736733256 -0.1677921077357556 -0.8970313096045561 -0.3149687002449782 -0.3347436933569297 -0.4838016542599575 0.2557307284689144 
-0.8671180857825624 0.4069106209616611 -0.04443858856154140 -0.3272733625175480 0.4656611544370063 0.8930801051526578 -0.5268218436896832 
-0.8149267204633113 0.3016591978639823 -0.4421430345707616 0.2541549072333563 0.04694194210395770 1.002523143508502 -0.3482094356757258 
-0.2658089217281773 0.7192379334347780 -0.7125991527700795 0.04492825611851649 -1.406564617454932 1.527481145039937 0.09332535735995630 
0.1796726172373035 0.2195162477175597 -0.7148252750004962 0.8409470133431555 -0.2132327622369014 -0.3051999135530306 -0.006877927507586534 
0.05303084498715458 -0.05674566891344073 0.1190590611641751 -0.1566959344076126 -0.8730936288343255 0.5956651359024239 0.3187801901016196 
-2.809060399942446 0.2547018708262056 -1.320214416946944 0.8959774083005309 2.537007408942576 -0.2162710664298969 0.6578591952499766 
0.5404879138543005 0.5199158756513501 -0.4662566024439586 -0.7743524573000017 0.04632565602134030 0.5242005246666896 -0.3903209104497257 
0.4800966495402094 -0.8311716685292501 0.7599781155477588 0.3282896550992762 -0.1400971535877646 -0.2051297741241506 -0.3919658239460863 
1.574285342526158 0.4259903766641519 -0.1102933565368538 -0.1632622356067625 -0.5557302799888509 -1.022221137517269 -0.1487687095405739 
-0.2716985958905265 -0.6573455541489133 -0.2574389140586322 0.8175136433264791 0.4004788432977156 -0.6596444647309276 0.6281350422047913 
-0.2059711754444151 0.001743279920446348 -0.3992836492321849 -0.1570999792987697 0.5412632197050077 0.3998168328002278 -0.1804685284503105 
0.9399580748103912 0.2169320196323304 -0.4473765947509559 -1.389993006977083 -0.2402206348761408 0.5268548891941115 0.3938452529673580 
-0.5817138000924742 0.4672807889828259 0.8966687596957562 0.3852949747329057 -1.043192028149311 0.08664007540299713 -0.2109787705726947 
0.1889484252837311 0.1102110360863465 -0.3226168790751383 -0.2890840549559747 0.004853560681562357 1.298945773940997 -0.9912578619615323 
-0.5498124868209221 0.2604886422219827 0.6093482528450110 0.08548886142370926 0.5766310089327584 -0.3725773492769572 -0.6095669293255896 
0.6705767171807139 0.1515752808717014 -0.3837338598723026 -0.1355392606968310 0.3479734266671264 -1.054691741246469 0.4038394370960544 
2.482770593963975 -0.2407447266586111 -0.01600318804473783 -0.9754922221246800 0.2459138245276945 -0.5068355635851849 -0.9896087180784641 
0.3189422388149747 -0.9326234794146041 0.9068086230899156 -0.4474278757434293 0.9031051133785114 -0.1850287786380908 -0.5637758414872764 
0.007030066674632006 0.4560925618835569 -0.5714893593457953 -0.8729297926222133 0.1824666480317402 1.083062646526094 -0.2842327711480162 
1.068016268382056 -0.1771721301770610 0.4234232925796608 -0.4699083376873152 -0.5048562500659322 -0.1556836395768537 -0.1838192034545529 
0.01094167562467946 -0.1240646911958027 0.6247387066426748 -0.8842625882953552 -0.2639294337200139 -0.05477028457787814 0.6913466155216947 
0.8823436220911023 0.8413192816559126 -0.5754191453251386 -0.2195994043985448 -0.6911039582940701 -0.6309261300206531 0.3933857342913959 
0.7595412599845879 -0.6364330326794116 0.02516698547993948 0.5621069799783323 -0.3760472200393026 0.02577615828156136 -0.3601111310057119 
0.2941773768149613 0.06346030246845757 -0.09002852093866887 0.4130772420438695 -0.08857616510083821 -0.3995505435665708 -0.1925596917212120 
-0.2052068138153007 0.5831173434626565 -0.2456440938457097 -0.3031475543894389 -0.2182284464557344 0.4640784030170561 -0.07496883797351862 
0.9670335016368128 0.2087135944949447 0.5947463490994824 -0.5027424745247351 -0.9517378405439442 -1.167455363706556 0.8514422335440139 
1.420129354778217 -0.1400057558049598 0.8460703007369208 -0.4462893270154839 -0.9828450078677684 -0.5025772430425643 -0.1944823217843762 
-0.7401650192360212 -0.04924763457752422 0.8550193164819233 0.6573323730162269 -1.540791238086060 0.6090366032490417 0.2088155991524047 
0.05784289821735093 0.2725817041569364 1.035411501804886 -1.185742422637955 0.1557606207918984 -0.2955995037989377 -0.04025479853418978 
0.02776642007441845 -0.2477004365419307 -0.3903307351298435 0.09680347511508168 -0.1114134389900809 0.08655965341650468 0.5383150620558479 
0.5110491793867078 -0.5781370495841152 -0.1510568294357225 0.3465672055809017 0.2161910611692746 0.2200374371135503 -0.5646510042305991 
1.254907585232642 -0.2094369640778044 0.3858908637531367 0.4467679305532762 -1.011950385735030 -0.1807511676693467 -0.6854278620568757 
-0.5809022055470219 -0.4562709412057240 -0.6609570105059762 0.9935242656388612 0.5522968351019922 -0.3874252448364499 0.5397343013543191 
0.5492588857948482 0.06800635638643664 -0.3866844892156959 -0.1913715506674199 0.4571484025462459 -0.7500511016722218 0.2536934968278063 
1.811653036313150 -0.5736745174341337 0.4791451061161018 0.05949966520472114 -1.652818269097460 -0.1109486120348538 -0.01285640906752967 
-1.373932287677645 0.3998659165166739 0.3195662150486040 0.2739644944783555 -0.02258265639565934 0.6655404945952383 -0.2624221765655668 
-1.116435466587756 0.4883831925482086 0.9347590946661689 0.3823343173888317 -0.08886851174915610 0.05488921029869811 -0.6550618365650018 
-1.125326290528684 -0.4700502943999725 -0.4707303211693181 1.190201630485419 -0.8222409246475765 1.452029425300799 0.2461167749593214 
0.2649286995814451 0.07003445755116657 -0.9452613985531377 0.5960783581073285 -0.1035765183948832 -0.4081138171553489 0.5259102188634318 
0.3053220382038321 0.8982992455235157 -1.150390864750796 0.2645340125598358 0.1114090611260095 -0.5514730308444089 0.1222995381820125 
0.5187601378618654 0.6636501588121809 0.5039690819646820 0.6407319716161186 -1.498750917554597 -1.119674377936106 0.2913139452358628 
0.2177028518360377 -0.09516493441297570 0.1810225029111174 -0.7072115214969442 0.2162550325247480 -0.8159692806789632 1.003365349316983 
0.4245928084109489 -0.2982157846969856 -0.3300774409021923 -0.1167523567091159 -0.1038042767410292 0.1271883930733700 0.2970686575650027 
2.431820227512236 -0.2901709796241374 0.2693898078472298 -0.1646050814886887 -1.632841422139639 -0.7487557840670426 0.1351632319600550 
-0.003669518494787419 -0.5730675664401506 0.9556790600607934 0.3450182876332183 0.2252702373696615 -0.4060651762790897 -0.5431653238496460 
0.9539402558382950 -0.1338631221768286 -0.05265502582824962 0.04998928196249920 0.2397995705632195 -0.5282581609088750 -0.5289527994500581 
1.659788785920445 -0.03859894303062526 -0.6557223221560726 -0.06287855528874432 -0.6846607682835569 -0.02465888596843806 -0.1932693111930139 
1.113649171607394 -0.5613588690939489 -0.2287392655180529 0.03539275535849125 -0.3401964937362447 -0.5083172085646807 0.4895699099470302 
-1.278362036596027 -0.7412033356758493 0.8598418482634312 0.9366062958989423 0.6890325454445552 -0.9016910656672757 0.4357757483322138 
-0.2088029843864661 -0.4911654800160494 1.448351845106625 -0.2980364597173540 -0.006428431048473612 -0.03649124865986061 -0.4074272412784194 
1.453291597997920 0.6133597907373463 -0.003799266223722213 -0.2380303949832217 -0.6714631640325481 -1.535832395265856 0.3824738317700789 
-0.1442390946706512 0.7756888486692510 0.1328548014694942 0.5573388414013841 -0.3641839798262316 -1.147876849030096 0.1904174319868285 
0.3632151931675229 -0.07172834218441006 -0.2026386782172289 -0.8650559534410127 0.3622253516803701 -0.05165858347004294 0.4656410124647950 
0.4573784856161719 -0.3145238838353524 0.1069249002985961 0.4872553350394501 -1.321015016579397 0.4554674271582438 0.1285127523022806 
-0.1206099896563535 0.2293354933839381 0.6466709629554169 0.2294907361025759 -0.4753134167314025 0.4704805245228278 -0.9800543105770034 
-0.6511457094955476 0.2514009607152251 -1.172997055768772 0.6629164721069298 -0.2936521672756521 1.506906883233994 -0.3034293835161785 
