solver_type MCSVM_CS
nr_class 17
label 8 1 0 6 5 13 12 15 16 9 10 3 11 4 7 2 14
nr_feature 199
bias 0.000000000000000
w
-0.4601903264629100 -0.4079427945394482 -0.4593650895706914 -0.8486367566393648 -0.8590696817330779 -0.2011748891298983 0.008966754315095430 -0.5096058837628122 0.2851004160247229 0.7737934491770300 -1.091085930028859 0.3175276359414834 0.05130523095706902 0.5094389905781456 0.5173510512466940 0.9649944863697725 1.408593337257023 
0.1160667445621237 -0.5216877719898947 0.9744478476597848 -0.2227314075160146 1.226941738767146 -0.05559668824694351 0.3953923992229591 -0.8239974947583923 -1.282863612125575 0.1601396299057405 0.3204788212558436 0.4263098354171382 -0.4703477273844948 0.7261314740082008 -0.4005045184691315 0.2145352979504590 -0.7827145682589701 
-0.1135787669659462 -1.845367837810352 -0.2228917338635833 1.378537298216785 1.246859707592061 0.5274812801818927 0.07384853375252166 1.919245980323009 -0.02568917007572176 0.1116070945686517 -2.947279398201586 -1.789198346246953 -1.064203104759993 0.4157915026786785 1.478675569152118 0.6519176331357632 0.2042437583226986 
-1.401822140520924 -0.1033453178443024 -1.342098679199440 0.7686039940326889 1.089741543260024 1.146549298849666 0.9755443884718230 0.4159284987940615 -0.6036044570242708 0.4241585687797018 1.106378954415192 -0.2483393188479292 0.6519224581124095 -0.3295797125976722 -0.3381892762193399 -1.000743868350011 -1.211104934111674 
-1.142184361435823 1.809809858789271 0.6292256152965234 0.7068115600700914 1.462747034748369 -0.4513454179764542 -0.2986787013090634 1.595103151699290 0.1777269790244886 0.2272672989828959 -1.834496943363648 -0.3831319996227540 -1.388283426681016 0.3438593979423515 0.5354654515669283 -0.7848262713831150 -1.205069226348397 
0.3724440179064224 2.494519151254129 -0.05051689778521769 -1.375833185284915 0.5338440311406222 -1.123831632187624 0.2837297400189995 -2.008983344250547 1.714851924036170 0.1344453367932487 -0.1876505290336931 0.04820113810923789 -0.3416520766323170 -0.5277696239055430 -1.028430969006705 0.3812229012083900 0.6814100176192580 
1.452165552733367 1.410141540783015 -0.3608827379934712 1.894782537578435 -2.459012934737751 0.03659765492839954 -0.06955487339820986 -0.2196705371205559 0.3280110864530706 -1.126304559279346 0.6949920410581280 0.8993543570182257 -0.6211603350819273 -0.01173603332307864 -1.761237865699927 0.8481080635605249 -0.9345929574788452 
0.5419601504667132 -2.546535023010957 -0.4019477852151198 0.5473474632178851 1.285935582752551 -0.1303603998461657 -0.5413960269267428 0.09754027090525562 -0.6643544481691157 -0.3247635919930227 0.2803053848832536 0.6844207800724158 1.712792502561953 0.1874071576308041 -2.578497448955845 1.101810276651703 0.7483351549744869 
-0.4233375924836493 -3.100304699600538 -1.093949831382468 1.718123901692795 1.165636791092344 -0.2096516709278467 -0.4685515126469562 0.8291568986885465 -0.7483226646741055 0.5083452458094246 0.4088799799271505 -1.326890830487372 0.9297657785252320 0.08515301566890347 -0.3410945459747450 1.108678433458621 0.9583633033146810 
1.298196560026200 3.780925744181829 0.1876102992709055 -2.819336033764666 2.422165297790873 0.5499829653327594 -0.3548452132459189 -1.625813902430498 -0.3043878404997086 0.07075997184662441 -0.3104430216036141 -0.4645664792600908 0.4359515212903596 -0.0006809919472682386 -1.667240521760199 -0.5877068851688706 -0.6105714700586740 
2.298390226297161 -1.111801138851547 -0.9736533117601259 0.6796364656878129 -0.2098154343786725 0.9990828962796358 0.7207390668187201 -0.4163841755024771 0.1836625389884750 -0.1350840892295935 -0.8407669109172662 -0.6467935845580918 1.713670690206415 0.3643512626479323 -0.004327982827475841 -1.702543984276965 -0.9183625346239479 
-1.648574287703696 0.7416140472919617 -0.6327177637182626 0.1836929432518566 1.517501966949265 -0.04080970069124333 0.1341576912978829 -0.7230900759300799 -0.3741826533185135 -0.8526492664749767 0.3769095586978553 0.7788613810330037 1.440976214041776 0.2697171092447077 -0.6683570311504635 0.2495811471667668 -0.7526312799877949 
0.7318870272027511 -2.287854539171503 -0.08264904761757198 0.5166911762812539 -1.155534238243902 0.06721336150577575 -0.01772553803355615 -0.2895705130916265 0.4483069565581348 -0.2212842319150387 2.441607907021806 1.489737611434682 0.1755916965297775 0.05359237009580908 -0.7506012621600314 -0.3858879921691769 -0.7335207442275848 
0.8402915234466806 -1.006195572652660 -0.06825926854155001 0.8147231715782985 -1.489137664477584 0.03102429710233960 -0.2427474959508105 0.7539870336277569 0.2543879926252218 0.3876276871307492 -0.6903169054630104 0.7921534363156891 2.063017953306035 0.2514433063347122 0.2302434916103098 -1.435858354256556 -1.486384631735631 
-1.681635701862865 -1.980817118506185 1.043579700091188 0.5147963120087000 0.7330727210286871 0.01827819980384254 0.2163616991071212 1.646041596301694 -0.05833681583215881 0.3362388037633715 -2.176760687505789 -0.03506518661455330 0.1522879841269977 -0.6774633716000766 1.137212951701177 0.05733114599148916 0.7548777679973413 
-0.06471123956015554 -0.2349856559720904 1.099007305995453 -0.1235824490589340 1.118747403901481 0.6659868880007517 -0.8422775683583617 2.159834227579720 0.4808045317489196 -0.1851148241808622 -3.512681738938205 0.3621432045918670 -0.2878440468417252 -0.4135073578816039 -0.5141014339958738 -0.08747949421948105 0.3797622471890448 
0.2555912638931365 0.7891064102943025 1.843948307469006 -0.3112284586224646 0.1038378702189707 -1.392546249745152 -0.7831551205793021 0.9731803376518282 -1.328545039582603 0.5762164530031595 -1.234248309224097 -0.05100572299106906 0.7070040703591478 0.2839105693129005 0.3848716203993570 -0.8273375153344257 0.01039951347728529 
-2.239434849386782 -6.362887508035176 1.409783240489430 0.1163079106482056 2.139675038299816 0.1884072369836766 0.9113239157508337 1.629919475014372 -0.5960830949904652 0.06570633889306747 -0.1477807599258515 -0.5293666196244964 0.8065226839247489 0.3431962758500213 1.728404234260348 -0.8392717727285196 1.375578254576686 
0.1215873894470741 0.7497616153440916 -0.6959941613569504 -0.5491240867163746 -1.281134925300586 1.121993495915224 -0.4475214414903287 4.213319938493383 -0.6637244333763794 -0.6039829752614115 0.7625293159660339 -0.7503590266884368 0.9849148579058850 0.8152243077771727 -0.2311658036969842 -2.938175240215357 -0.6081488267460454 
0.004139354375793227 1.940185598558666 0.5439332500428726 0.6644426282989943 -0.1540882607825838 0.5958366587247879 -1.175688375493530 -0.9920273380661925 -0.06457089115837837 -0.5634651548848999 -2.647052495657372 1.027944439147028 0.9557278962945981 -0.4034939110783401 -0.2284459343645168 -0.4563812069887525 0.9530037430318096 
0.03937279689311329 0.9278437030349110 -0.6819180808208521 -0.7943310373864931 -2.705796927698444 1.266616561653958 0.2463155904357348 0.6181047110589284 -0.2330546551783717 0.1811093322404778 1.844189959419223 -0.1678164995078885 -0.9177686781847223 0.9898948333750555 0.7960048123951261 -0.2603015856573393 -1.148464836072425 
1.186860234504870 0.4466316092139253 1.773282167377710 -0.6953168058165340 0.7568169896541582 0.5262866617919449 -0.05856107044069578 -1.087469070554221 -0.9756498208674298 -0.4539372113751304 0.2841274099558989 0.2577542056508456 -0.8067851685924075 -0.1557309265509484 0.1023836743810332 1.017333205229354 -2.118026083562364 
0.3530915693005067 1.148438916413314 0.1547750154015131 -1.916387454866440 0.4820091861312775 0.5609265984122975 0.2341927854973065 -2.937688094759752 -0.4899008638585904 -0.08611993026640628 2.329387401085103 1.107650077497068 0.5192550017090230 0.2669285293420711 -1.093652867181009 -1.178181437673533 0.5452755678162505 
-0.2069755136145701 2.819031421923403 1.335345757863356 0.9363459429485137 1.615762802114044 -0.09068425995144729 -0.5485231485217338 1.027699156568130 0.5359230163417906 -0.9394131645520030 -1.352116935993875 -0.3059838346176891 -0.5414359291820203 -0.1554523701471287 -1.557929804387627 -1.314061507876084 -1.257531628915073 
-0.1652885252625137 0.6452752056099703 -0.7730389744738648 -0.6769560774476729 0.9986265146963422 -0.8463335006564956 0.3315209363460897 2.245003647223328 -0.1151157566643083 -0.03443372775329864 -1.961540916706741 1.114413131782909 -0.09418458860284658 -0.1141770550067972 -0.2728606826002534 -0.5319064190933610 0.2509967886095351 
1.270469378199616 -0.2410430938684938 0.2322179323915606 0.3318635056618991 -2.269448285222401 -1.133988246452205 0.3645102997563601 -1.285273370897480 -0.04438250758952784 0.8755601230139937 -0.5477511409126236 -0.3049074238810448 1.420959251449140 -0.1158601376069382 0.7691721014355741 0.06385666946175417 0.6140449450608455 
-0.5896952416562450 1.103076737202919 0.4001851507316551 0.4051285058928982 -0.5791716739406804 1.093107947652386 -0.5642889549642600 -2.086795188027688 0.04339803007421336 0.2683799623389542 -0.8729940081883517 -0.6851265750075037 1.510014674750112 0.1918709742507376 -1.265207109818875 0.7872715679305935 0.8408452007791168 
2.031153430127538 0.3587371778689215 -1.603978092829092 -2.019655961736802 -0.5612287566655247 0.02053047089210893 0.5638662920387363 -1.260726525199113 0.7604652562041169 0.02756114206044507 0.2092369174250277 0.6289261464400200 0.5565378826673486 -0.2308990983230695 -0.1692575509139241 -0.6583954852076788 1.347126755150905 
-0.9916327937538812 2.009320753999008 -1.208789590410793 -0.2212523658729229 2.466697664223816 -1.014642669009550 -0.5894950464709163 -0.2345357995441260 0.1309641094064158 0.1545614965445449 0.8711118999964067 -0.3623122482490095 -0.3655628141760174 0.03972212971359821 -0.08250021566380401 0.4576845387674992 -1.059339049500277 
1.008656301713418 1.230357130284718 0.8271285302311571 1.763325065321456 -2.360161056028156 -0.4814856587986469 -0.1458879784276010 1.117026004616027 0.5247029484919323 0.6373069817316243 0.002039131662611306 -0.4211366291372952 -0.6696621272032005 0.4050943764715028 -0.002953827403961514 -1.209928210762104 -2.224420982763479 
1.000258388102627 0.03954874360453910 -0.6607100369342097 0.07003904870508915 0.7005821484843263 0.3909774784207522 0.5268054235672324 -1.415642130438759 -0.2841749857572796 0.4963764451435764 1.086018817690809 -0.6690704389061074 -1.301228122355293 0.3687426094426485 -0.6362996937226562 -1.157118713670903 1.444895018623597 
0.7786186618399644 1.282963721645789 -0.8411030974185750 -1.406074077835806 -1.070748693219846 -0.1120560712467063 0.5284935267815937 0.6708529399604330 0.1093994511243736 0.9132313618325643 0.7956244673972322 -0.5121295396315131 -0.1861327944926450 -0.3266649160220770 -0.4051869794387754 -0.07197951187291794 -0.1471084494030879 
-1.356686092681558 -0.1081574055687676 -0.03729302976755154 -0.09130952670617240 -0.7857891419760139 0.6880070312712738 -0.2638287031109473 -0.3503698855473582 1.137573475362099 -0.4713271423539851 0.9412865328115840 0.9334034052678584 0.1778396279383415 -0.5011528156956162 0.6993411788716460 -0.5139038311352737 -0.09763367697955345 
0.5153882735225644 0.8546853935323765 1.217492682503232 -2.112559318769028 1.233866814549952 -0.5214367608883362 0.2411666289481734 2.499209967505702 -0.4301670281368035 -0.5252645159712518 -0.9854047491926032 0.05266937545078464 -0.2324699014070570 -0.7245823344003828 -0.3782590104170489 -0.1265137855294022 -0.5778217313008417 
-0.04696765556081763 1.220522895641553 0.7803071038827356 1.653691479438155 -2.147944001108180 -0.02873603173811121 -0.6405918954581941 3.247929668287386 -1.817271579480860 0.1194053389373566 -2.051202926784223 0.3649386635451085 -0.2621659646261721 0.5146167943709312 -0.7050587800487992 -0.4958368592545310 0.2943637499566466 
1.074446089008973 -3.917651474277134 0.4236599948586619 -1.095643078727401 -0.6873720742268447 -0.5085865350762059 -0.8543116781201691 2.196034597125391 1.353607174655541 0.1378491777120252 -0.2370145663937580 0.6126595010169211 -0.08449431791068863 0.2584553061699330 0.09672991571773869 2.077019995469650 -0.8453880270026626 
-1.513506513193536 0.5169175795668983 -2.493034478317342 -1.098414334204397 2.844598988738335 -0.7367161764059263 0.007975271207437625 1.570840736116599 0.2103151213951076 0.4999619527797540 1.479284494153641 -0.8868139522182119 -0.8236647392309119 -0.1150393330781108 1.774804842131346 -1.103266188607396 -0.1342432708333348 
-0.9103664479132817 0.1155641442447349 0.6841035159118765 -1.311454676914752 -2.259060572382023 0.2001486181389161 -1.342634601637684 0.4239201684901641 -0.05154199027917891 0.3723641554488339 1.757248845544927 0.3624531853297210 1.429350157880914 -0.1872551378515741 0.2098375697168874 0.5529924233649018 -0.04566935709336811 
-1.854304224869057 -1.237435213068762 0.6394201765782547 0.3551746111681479 0.2845289294070371 0.2629700750253975 0.0007148638673984076 -0.02487454306280123 0.6234879317262986 -0.3807172876502335 1.890799693897336 -0.4759308838459032 -0.5651667709198884 0.08691227612141240 -0.7001614621279824 0.03975461299707556 1.054827214756260 
1.421142530221387 1.485861090878005 0.6394812289742520 3.009066940722860 0.4288866772495267 -0.8501195146739090 0.006427288845972653 -3.647721228096837 -0.1298685142337596 0.01012725282512083 -0.6195136896949296 1.160815200000390 -0.7952457416155576 -0.2120299143711538 -1.809105424311579 -1.005773097131824 0.9075689144121247 
0.7160003496223937 0.1588411518325808 0.7342586444418946 1.286991772622715 -1.904797591839909 0.4535485964343703 -0.6701304576880379 -0.1557043798779792 -0.6895902757642666 0.6458254317249366 0.1527629403743963 -0.4260746582590899 -0.6379035581947918 0.5295677055184552 -0.2554734538805671 0.3486410674615081 -0.2867632845285954 
-1.444767651068742 1.284187374681289 -0.3345019777899481 1.369228207760360 -0.9384731432588048 0.3483468816525466 -0.2336766567293862 0.6253576692738542 -0.5380574649391840 -0.1565158742840393 -1.270018757715429 0.3803828614492608 -0.2602036936739852 -0.05671586281904024 0.3692110047881390 -0.3300985883938490 1.186315671066965 
0.5380521045670132 1.457802116752847 0.02339729290826585 -1.089787991062399 -1.156060677968589 0.1754890760147741 -0.4812976921496386 0.1352241876305275 -1.003332859461805 0.2066121223744994 -0.7430434169213168 0.3668845552087701 0.5789104083903113 0.2378795882628750 0.3847881837146249 -0.4248135941453286 0.7932965958845788 
-0.5743082451828682 -0.5596856661241774 0.7545247067661975 1.027897449381985 -0.9365578751265790 0.004411256964935014 -0.7373169955189954 1.156368799456290 0.1900502156243961 -0.1725497851540951 0.5762090252431528 -0.6881247138252208 0.7081818613194240 -0.1950655398453311 -0.3887804414529866 0.01558417973794677 -0.1808382322641028 
1.139085708305086 0.05051848577367618 0.3071191158031939 -0.4027081364819279 0.1670984312392772 0.5265116565744697 -0.5301460897962271 0.7648265866082149 -0.6774649834180717 0.001392336292313174 -2.817487368075776 0.2250435654051914 1.334440699091240 0.1940094485487296 -1.720482309130795 0.3769113500018477 1.061331503259586 
-1.175770243165552 -1.998288426344233 -2.186324738623058 2.479686250750836 2.774624540378792 -1.127531769054030 -0.3033106118834575 2.261844570258151 0.3403616036406418 -0.5418456873677051 0.2500375373710888 0.1456423631931603 0.04297569169455435 -0.6900956154059006 -0.2325901866133276 -0.8132217242010393 0.7738064453710360 
1.814673775929323 -1.702078860993548 -1.465331246227953 0.7770239658315927 -1.183820714395190 1.018887605687943 -0.6641521308929924 1.106252767781433 0.2830853119286941 0.3196603949569407 0.7128887929837597 -0.1625064466129769 -0.1916692213189568 -0.02488703493484915 -0.6524125382459012 0.02951038775900572 -0.01512480923636814 
-0.7796621796971142 0.9160125086241186 -1.039226285638600 -1.554680035042968 2.313080020983148 0.2241441853944386 0.5634214007754111 1.862226508572088 0.1712526833772916 -0.5212662142001667 -1.821407835176784 0.7265717206913643 -0.8954273843386916 -0.2255805350314205 0.9850312085987909 -0.2827260316144777 -0.6417637362764420 
0.7210960442959330 1.350858306127946 -1.534161595069031 0.8514667935164236 -0.8623101380643137 -0.3762192995335623 -0.4484635416026088 -0.8671395680161477 0.1807961245701145 0.5548471456222291 0.2567182279321534 -0.9306198251518796 0.3817519073078509 -0.4352566268252541 0.6646446652683112 0.2533356171613165 0.2386557624605377 
0.8224086426507579 1.525107416875359 0.4648759722543319 -0.1204547753902608 -1.107888857803617 -0.4233787977178595 -0.8578541667989540 -2.555212075254012 0.8147210406841708 0.1947935191604578 -0.4771983242028330 1.024138645849924 -0.7035323364512956 0.2326910804095142 -0.6538523422069660 0.4513181161874372 1.369317241753890 
-0.5389593308943557 -0.4036951454173753 0.4379788602019410 -0.2598626242173141 0.6964514437658060 0.1211402842181042 -0.1603595964545422 -0.4083580948843950 -0.8181216272540823 0.1796963113111920 0.4274570876483902 -0.4783169051233884 0.1499158807077745 0.5359093914830292 0.3865485363202666 1.331422054672208 -1.198846526083243 
-0.8985186598355920 2.022821693163712 0.07422680411667586 0.8585371413814722 -1.943880636139400 -0.01891518556558454 -0.08785765829150399 -3.272641966179364 0.07820979161168032 0.04394333226966529 2.034658991999908 -0.1841271658138223 1.859635568897407 0.05108925177027154 -0.4528345810765983 -0.7424969715935934 0.5781502492846715 
-1.087042129790267 -0.008035047190697866 1.189069595187604 -0.4161781799079688 0.8710335883696787 0.9846515830763137 -0.4965600466017988 -4.079930022603531 0.5898784924460410 0.6799713593815377 0.08818353420642676 0.7826987246661303 -0.5194891486059924 0.2923762747065229 -0.5736144255503904 0.1212861157026684 1.581699732507677 
-0.7893262527330807 -0.9378601550908321 0.07567003108783540 0.1507000900998527 -0.9878411443400511 -0.5309795395936655 0.6266134684965873 -0.9009438335271446 0.4439711000683708 0.08329682249796994 -0.07016998994873211 -1.713694837753631 1.100287720914911 -0.1758897532246924 1.119373234352661 2.156249546786868 0.3505434919067538 
-2.544614599958818 -0.2325511918973728 -1.358289104425331 0.1351023770668827 0.5943090231781017 0.3848632295630773 0.1872319633235055 3.325488769751761 -0.2600648315480712 -0.06410782388459868 1.173546038379027 -0.6188742860897314 -0.5786511476640660 -0.4417064955325807 0.4560318825182214 -1.099459114918609 0.9417453121385987 
-0.4659619761006672 -1.348929473603694 0.3948928733799857 0.1053120088496017 3.004634871011696 -0.1054620652996438 1.069179231262017 -1.835230027483777 0.2299042685620632 -0.6280615681415077 -0.5544062941981693 0.7981357711840841 0.2243350298774161 -0.1691240654969909 -1.307179559267866 -0.7760631978121347 1.364024173277551 
2.063635093075466 0.3471335362549332 -0.04092343046517587 1.089570456893529 -0.001368957452796416 0.8424957506988391 0.2479926344011855 -0.005175826982981719 -0.5232339151603328 -1.131977686406581 -1.601243766283482 -1.015321220199880 0.003182552918659369 -0.6868291782478286 -0.7529847223992944 0.5577897154700474 0.6072589638857151 
1.654100683403239 0.06802211691250648 -0.8280743957916175 0.7065273540177939 -0.2829741323453389 -0.4472932342916327 1.006210604778529 -1.878852262112353 -0.3732377061878054 0.1245936195557160 0.07090163994755885 1.239954470418848 -0.3720587081185788 -0.1465548221750721 -0.4081472438899837 -0.1752668221853797 0.04214883806354818 
0.4430313511998157 -1.459287711056497 -0.7357435467875011 -0.3226228849419207 1.862236587699909 -0.01235686529021106 -0.6478548932144198 -1.692235228326016 0.8198532071138636 0.6949866834707661 -0.3364948387357361 0.09093819902966929 1.510568983791236 0.2157856568587373 -0.9342286122046171 0.6136396534450245 -0.1102157420520523 
0.9710654172430184 0.6082807929495442 -0.5294444349998688 0.004083211447596577 -0.8445522604602904 0.8994238113210548 0.8122281823152185 0.4484311936151699 0.5387953338426438 0.6617359599290692 -1.130059720567162 -0.8884722539916613 -0.007993163017694172 0.4554286017918298 -1.923588875235770 -0.9103925491310201 0.8350307529482767 
-0.4755446652828547 -0.3938522755234838 0.8371507840049388 -0.2755896981414467 0.5373249767536978 -0.1777451203466995 0.6816148482484429 -1.168682512030842 0.3746674100200141 0.6091539990537336 0.3770566491784950 -0.6327720128717518 -1.147856442120700 0.3031657756178631 -0.9173905004959453 0.04878456548869438 1.420514218447839 
-0.4935202187013197 1.397158447384554 1.815523903330132 -0.1595913704440916 3.185626562405135 -0.2768992705142276 -1.325040626058541 -2.330630848280026 0.1944753718995627 -0.8220786582329482 -0.8031358598905570 -0.04070087272361571 -1.003594036119762 0.3928075594340407 -0.09401383326806537 -0.2026847207135016 0.5662984704932192 
-2.639129580721702 1.710734960627404 0.02041077421292098 -2.912974922723922 -0.6771408023808027 1.099671590001924 -0.3902413848525692 0.3280495840305985 0.9599024761103566 -0.4642923939230103 0.05400450206387811 1.201493676647874 0.2894103102057519 -0.8020730539725184 0.5609651930688830 1.932057036696786 -0.2708479650917944 
-0.6351827674297894 -0.3382677462025269 1.354289162030106 1.393857804061193 -1.520675395357327 -0.9717501523279432 0.2160966996731550 2.328373087913305 -0.3276058838358772 -0.04773967819204400 0.9820128498566828 -0.5806661505006037 -0.5928820026130140 0.4073712350779392 -0.07144220921956765 -1.143722982943069 -0.4520658699905802 
0.6563005986969652 0.6253076318375207 0.6053778950458455 -0.8214385010808276 -1.148555967148588 -0.1813852494242567 -0.8955690230222233 4.191357590549374 -1.280761589543682 0.3977942515711719 -0.4025305974269747 0.9812236484113772 0.4389520302351180 -0.3984936138466199 -0.3956506088741678 -1.996480032145004 -0.3754484638350229 
1.246801649591443 -0.8180173121372656 -1.130946753671511 1.690876692595678 -0.7564310460735696 -0.8325926958465556 -0.1403984246513100 -0.5966021103943892 0.4471732914744536 -0.3210847256657733 0.1924907940668237 -2.013740382899050 2.039512912817995 0.2550378976382972 -0.6848802259979282 -0.6148572431450802 2.037657682297761 
-2.392923550204327 2.522339248551998 -0.8256353734043227 -0.5869948728708163 -2.453081495842631 0.6255774574349705 0.7040048832826722 2.090370090549779 0.05474106176334478 0.6429760721866865 -0.06705209922357666 0.6938973583575928 -0.2453386712668244 -0.1262926643445654 -0.3780862508339928 0.5359268238268433 -0.7944280179628611 
0.3236576192363121 1.129210267082306 -1.972569126201280 -0.2876306906407998 -0.9058228505203206 0.5081200247363378 -0.4446761075018689 0.4422487724744014 -0.2724850621769329 -0.3277762878409667 1.312805421748834 0.1236586975236309 -1.455834208208650 0.06716811173406778 0.2304380683079751 0.5878068688916562 0.9416804813552620 
-0.7251807388035605 0.1492877628554968 0.002264976528687947 -0.5427926266997386 -1.849175644103512 -1.269892382492482 0.2527523634561852 3.448464683262001 0.5138150565819768 -0.4609796054874253 -1.798820787982957 -0.5937119014025444 0.3436454568944048 0.5150449812470962 0.2788337832783181 1.025455077688077 0.7109895451799823 
-0.9901643325848376 -0.9646863059425302 -0.7462850436013909 0.9742197728830930 -3.449786857439559 -0.3296822417094947 -0.4469734408020744 3.016267024073112 0.2271645615366124 0.3407785240157658 1.091249797509352 -0.9738117108952485 1.558326288094214 0.02496033342504879 0.9373803257862590 0.2322404223366514 -0.5011971166849740 
0.2354523953867660 -1.856261432319390 0.09571264901223873 0.1907786169659107 -0.003529262856645947 0.01945118220999934 -0.03113243008975616 -0.5465200363791858 0.4908097074049325 -0.1996947194302491 2.303627600044762 0.3156846564843539 0.2049205939151677 -0.1347431766423229 0.09818537372340835 0.9220049903223632 -2.104746707752356 
-0.5317597132358649 2.016633311892769 -0.1284462127150127 -0.8777531253376427 -0.2709500335841319 -1.154120642911889 -0.6714837071845580 -2.492856464498343 1.254440576814603 -0.5712351298790788 0.9223687235696183 0.2738597168756287 0.7265125680916696 0.5513276534410397 0.01437118449483470 -0.1243755390928242 1.063466833259283 
-0.4775525178889706 -2.370005001361911 1.147008073231481 -0.3164750282016672 1.231606895158742 1.469373516786421 1.185231351277565 -0.6231549913704149 -0.6584652428679558 -0.1472090267028637 -2.437190542217293 0.9467724988541525 -0.1204327011207298 0.2096843090754125 0.3627955136548095 0.5703546066943957 0.02765828699880552 
0.5482784517597639 0.05572884685099942 -1.286945507623444 0.8516033852461368 0.3866995708394496 0.4649389559822800 -0.7429032935876978 -0.3121606454645788 1.221062388823029 0.1772004287700823 -1.446838647763091 -0.3470874744023426 0.3167279534332423 -0.7004521019172979 -0.1163901563855496 1.006470426560419 -0.07593258112143648 
0.2724550613418240 -1.377736957152218 0.7845601175699215 -0.3012637129008560 0.3892003909164413 0.2519957863219732 -0.4673932845635671 1.399922673550458 -0.1608955356250404 -0.1199505907178490 -0.3274908685849954 0.1529669932917353 0.01370076810298074 -0.4487693939890408 -0.7518429789096152 0.4764308463406632 0.2141106850072004 
-1.858235094138715 1.635793823476936 1.230400699279382 -1.108117703528749 -0.9620756641221730 -0.4943837792748016 -0.02674616816989685 1.056361612969478 0.4329538948055758 -0.07044948709976316 0.1766902428418813 -0.8786752471427078 0.9675334200778611 0.03350317860456731 -0.8184650976924098 1.296828180470444 -0.6129168113568891 
0.4977160435220891 -2.060046832535004 0.4469181508079362 -0.6207592818872093 -0.4374150127181173 0.1465098141959191 0.8097065520583092 2.745582693990876 -0.6014563246074210 0.3248116637450338 -0.9800582233811127 0.9914438998201621 -1.236841632020784 -0.7984117284645060 -0.4031467107397865 1.496788837480152 -0.3213419092664997 
-0.3670897983485619 -1.016090561148354 -1.119925555702499 1.488872511487278 -0.2153606728345246 -0.1792218727228615 0.8001719140849818 -2.428102768286747 0.6050168170801190 0.06097555941538872 1.025799313393087 0.3185758849873616 0.004963131118090436 0.6634637258715796 -0.5286931767148325 0.5508863924430198 0.3357591558774508 
-0.9153229207436407 1.861017851763891 -1.348588853185138 1.227791589592084 -0.6175150616523786 -0.6052415090733768 0.1681967830416774 1.088564622342870 -0.5357943253160491 -0.3917181969874966 0.9192447866327195 -1.175761198569297 -1.110580307815075 -0.3736783938884501 -0.7637197420596653 1.141077564735315 1.432027311181990 
-0.5211618959918046 -0.4152071330945403 -0.03633684082107593 1.289981872143885 1.992707865194753 0.3979166106348867 -0.7499091387529822 1.278301971348049 0.1478680631829143 -0.2284483953125829 -0.3485043227550677 -0.7525843361902833 -0.1907975189621854 -0.1014239083686859 0.6218392699765156 -0.7293758331981670 -1.654866329033678 
-0.6843913512041518 -0.3785504306308888 -0.6002690084888765 0.3243514915344021 -0.9592681375786448 0.1595599395104032 0.2705373311829805 -1.285470152480488 0.5680871109588770 0.2331337071591844 2.191754843254303 0.1962198531968137 -0.8599056659796868 0.08301896645680644 -0.09433820789057298 1.539583020641067 -0.7040533096414631 
0.2169429255827677 -0.1254736451585160 0.7611272200825402 -0.03338553960891684 1.996828977818877 -0.2179807239824692 -0.09534864767345756 -0.7993462406286997 0.3577730815831191 0.4951713687090024 0.4438967880624730 0.4895948803534702 -1.719582317241156 -0.2696203400645326 -0.1514347264597150 -0.4550291810661390 -0.8941338803086776 
-0.6495402898219814 -0.9336030913111584 -0.2136783205913709 1.017536339650408 1.142648902599380 0.9430088235353511 0.2315247246128880 0.8367667497325577 0.5493554681378056 0.8722282916028109 -3.256182898462428 0.5014803445084156 0.8536278035789034 -0.3661518141181586 1.219287412539357 -1.390572818280945 -1.357735627911804 
-2.153324763979121 1.763384573979538 0.3400249149102655 -1.571487209003227 -0.5136294169191883 0.5468311080344266 0.8147036353697474 0.03107964671645856 -0.02804930489249156 -0.07748089613571087 3.352882082188714 -0.1084926596889318 0.9436094955169816 0.4829819233551291 -0.5527812579610131 -1.286752845265951 -1.983499026225657 
-2.747302145559142 -1.116026056760283 0.3930337228353083 -0.4504025516797019 1.608459590064989 0.3412237856061664 0.04591772267639618 -0.4681620461741333 -0.05194670966253481 0.4340513702709086 1.674744664771948 -1.680752956150527 -0.8043066048350030 0.4202958165578619 1.813762981146791 0.1179150954709335 0.4694943214199931 
1.275715840107630 1.804933131708308 -0.7736585546932357 -0.5267367349880876 0.1900169602025974 0.6773374113620136 -0.3698234643939976 -0.5488375161631983 -0.1131165547429205 -0.8682921600452695 0.1251551557591042 1.352856728960473 -1.334564144543994 0.4716262984784767 -0.7688977191075897 0.5690445888967349 -1.162759266797006 
1.382515118900814 0.3142933380310725 0.5292893511554829 -0.4107914921437417 2.571287718867434 0.2730530253154335 -0.9893596399517581 0.01285655483276936 -0.7529626905990859 -0.2040414813891404 -0.5531994207464256 0.2992535421166189 -0.7577960392559564 0.2157361679674530 0.09559088352597656 -1.775452562757449 -0.2502723738694953 
1.334231735441740 -0.2609332990088918 2.101509107714971 -2.347911787707606 0.4035714921129003 -0.4727461748330209 0.8670015133032805 -0.8248130258856541 0.7452759126246981 -0.4806895908133524 -1.019120426081592 -0.1187605940866261 1.381752673799028 -0.5437889085739460 1.381147171895906 -0.6982698355813957 -1.447455964320466 
-0.8077712412158292 1.496870392265390 2.753956692280943 0.9284215423002397 -0.5172962372208603 -1.366117274074908 0.6697431897580110 -3.952193607065682 0.3732342665008410 0.1258832044430129 0.5032269468039384 -1.099195402816434 0.7319102050089827 -0.1082948996877368 0.5689244527080569 -0.6127691039973690 0.3114668740093819 
0.1616896659068201 0.5178276712817095 1.748086010832448 0.2881863490327186 -1.932614523441216 0.4470905302188474 -0.1764629740827391 -1.084770163251953 -1.324958523269462 -0.2710602412763858 -0.7989495219967115 1.544436850374082 0.1466152773199476 -0.1114815336543610 0.7731218559088380 -0.08470665367909816 0.1579499237764771 
0.2401680578265536 -1.344663374537943 0.4848657122327331 -1.726680251700523 2.255846306163651 0.1107979781317355 0.1214947423592400 0.3316438399886749 0.04164402373052287 -0.1753377655765011 -1.257604550728016 1.198978670612851 1.433126822080015 0.1074313931944762 0.9225534730298278 -1.050011832657100 -1.694253244150220 
1.179536831175234 -0.8962593011205146 0.7094151663569946 0.09931590156061036 2.870511821831856 -0.7647223138061682 -0.1243708670523124 -0.1000450302598402 -0.2909526768367878 -0.6733321821556877 -1.767857439009631 0.9492664690354999 0.5283012374406875 -0.1807047320958111 -0.4766553800569934 0.2197045961130824 -1.281152101120214 
-1.452422692059712 -2.243959256972105 0.8002085861595538 -0.3095023907400481 0.2692092118404047 -0.1895406689447517 0.004995867460195464 -2.529229661117816 0.1096109418312019 0.8445457508929736 2.404703611672580 1.429847112774282 -0.4208565809828952 -0.6137010579656945 1.675236456873656 -0.3614058853292300 0.5822606546073611 
-0.2493219968868763 1.628042116321393 1.580206373488843 -0.2956995596515711 0.1994880494570931 -0.1417924137498953 -0.5394607462104591 -0.8882595868683845 0.3662197331571235 0.4264131999679640 0.2903580046701906 0.4998504935417376 0.2171257435469295 -0.4420823621860104 -0.9175710779929519 -1.668414546374632 -0.06510142423048240 
-0.6287184849134873 -0.6270188071682081 -0.4034993523584224 -0.9282179920406843 0.7036564221174005 -0.07837470559669064 0.4856148176048820 2.503159355390331 -0.8803762950929457 0.4427118913760715 0.4034747954590793 0.2157660253756396 0.4188586693077450 -0.5421001268866855 -0.3511333917486702 -0.4072172886262739 -0.3265855321990597 
-0.7703420008102049 -2.393045720126348 0.7419033802844599 0.8377257098989853 1.049161484893087 -0.3820705605309099 -0.05628883566126287 -2.491130304871120 -1.722215918537852 -0.2187880230911277 3.595713192921013 1.142938903449206 0.4262850601400745 0.2951330495492788 0.1367102028632524 -0.8205399805552240 0.6288503601845480 
0.8162933291056965 -1.638834229640579 -0.5521848128247149 -1.200129708858343 1.120502378295251 -0.4314791860276708 -0.02845413149563113 -2.024489861506978 -0.05724249128630021 0.1951553354218121 1.793828744707735 0.8180764864135545 0.3089254880115452 0.4075640614537245 0.3769013984545695 0.9035100829777926 -0.8079428832014434 
1.394000057169494 0.9403122722894498 1.648802690957604 -1.171660601621173 0.2274300555622135 -0.7558442439676840 -0.01904822706253784 1.773324832583336 0.6498132029775098 -0.5502520409407615 -1.988029759279101 -0.6213719329887930 1.786113534818754 -0.2020861665004488 -2.325745520184485 -1.900027351303453 1.114269197490081 
0.6017830116027480 3.153339912636705 0.9520829017721216 0.8590624557941742 0.7637548276724133 -0.03020991093861231 0.01852768534831901 -3.778827756696157 -0.5602584979109977 -0.5592847796576923 -0.5177600635279267 -0.8896580783224819 -0.5491633865811850 -0.8997697485086394 0.5991830424815527 0.6924000521312391 0.1447983327044410 
-1.448523477932652 0.8667165511144747 1.342387114185834 0.3280344864088907 -0.4601054675880919 -0.08696977537433880 -0.3769704652697618 1.053628518521067 -0.1993204525266034 0.4503803916590816 -0.5981823501868097 -0.1239281322088491 -0.4071762435960527 -0.5517455905019497 0.6386677179605234 -1.681527101530127 1.254634276865380 
0.4065878253956251 1.276046599293421 -0.5212636368594075 0.6066720694963579 -0.9477538756278354 -0.4735734137206659 -0.4885991319978388 0.1323499316551111 0.5153374771608096 0.1284421065420411 -0.2373281839525219 0.7207439227711704 -0.01829683058956282 -0.2422500297091841 0.03296943122564852 -0.4882295301756065 -0.4018547309075808 
0.1136266649910787 -1.001333579815608 -0.2504266359044704 1.685734810737085 0.08004317325417890 0.5926684620216356 0.005712121492659858 -0.9446751515306363 0.2339547828180377 0.2192519353863502 1.519294838101479 -1.475151294300546 -0.05656266823978250 -0.8656895207160586 -0.4964696786558990 1.186762281682235 -0.5467405413217257 
-0.7608046221684123 -0.4881783777476427 -0.3707387558136245 -0.9727567278114648 0.9700293497222712 0.7406998446663423 0.5415570133160796 -2.972594015770828 -0.4448000833431456 -0.2337313783794743 1.561571426776499 0.8976953431518963 0.03803779404073811 0.7657534003953423 0.2735424150705499 0.7593603117328731 -0.3046429378379816 
0.1941296340033448 -0.3141142908561379 -0.1469057663943273 0.3624808807905762 1.938107541527498 -0.7459544279660647 0.4281407153157499 -1.398169362608734 0.6306480889087118 0.1206990010636300 -1.444222049567633 1.097327572323566 1.098390663475079 0.1662478348344435 0.09845636900301433 -0.6041707533458445 -1.481091650506924 
-0.9003035382953688 1.969162594986685 -0.1230040694112529 -1.860079346866379 -0.02465154277713768 0.3325108125504088 0.5113817185843833 -0.6517892507464698 -0.2604279136696237 0.3246869242431001 -0.7213029471848520 0.007978813520861766 0.3051570224784540 0.5504033224966889 0.3881104672993185 0.5031925475828951 -0.3510256147917253 
-0.4511041011442905 0.1672430090629384 0.3380022382878059 -0.6083338616898145 -0.9484397033765317 0.09386706068833639 0.06661243046938907 -0.6534019176200890 -1.302539769416907 0.1106639015130172 0.2103686422980897 1.807542335293402 1.139230728003808 -0.5084493153310172 0.3134832380985727 0.1538908500387712 0.07136423482453873 
-0.2394961719881796 -1.362970511309009 0.05119329664749741 1.161442779325952 -0.5125731924099822 0.1236370637617775 0.3426347959454330 0.4350661493125793 -0.9374628229227859 -0.3916221569955526 2.766228625852194 -0.9051100012245417 -0.2027004791476706 -0.2167438946123085 -0.9583908447754553 0.5924943367674781 0.2543730277725945 
1.323057050400087 -3.882021088873807 0.5958096081515719 -0.4404844049547413 -0.03125876936072413 -0.5373713671083820 -0.08379817517734846 1.391510852139689 1.483222653373010 -0.004468811970433383 0.4285233766015280 1.165880768816654 -0.5096675513002347 -0.06806388562565992 -0.2510996334239900 -0.7715171042917977 0.1917464826046288 
-0.9448790282492758 3.013168277729073 0.3455883178665220 -1.079199959405522 1.777750468358012 -0.3383990483063293 0.02059670288337860 -0.4974566800137311 0.03380484398476164 -0.7839192326714887 -0.8927594961462050 -2.027344289285336 -1.058554837610827 0.7451745652009083 0.2291800463635002 1.240954419345319 0.2162949299572128 
0.2571977823531745 1.504613525506291 -0.5068129703005224 -0.4257518568270483 -1.906014177229566 -0.5908780741343427 0.1204839630229883 2.853172004423450 0.9660129742612151 -0.1328130397422824 -1.886756074632768 -0.003929548967512272 0.8011796565569644 0.1347613709197326 -0.8516566336596895 0.1223630924767465 -0.4551719940268568 
-1.159681774040055 0.8037061468424765 0.06098729504721167 0.1032334852526511 0.8972202955059934 0.3612868363839025 -1.151823402976803 2.085480137571297 -0.3105305881617478 0.2913808436402957 -1.034475104681681 0.1502810612715022 -0.2963816696098752 0.02281597960530007 -0.4527571239803572 0.2704588908608464 -0.6412013085309970 
-0.7811772804059374 2.187896307144816 -1.082294948148321 -0.9730387162054399 -1.598944255226371 0.1719047728595706 0.5258686753508429 0.6192664046401429 -0.8771714905071812 -0.3702714384023657 1.111332588200410 0.1849809463386857 -0.4372053002221259 0.4768612493532393 0.1703715260549244 0.1192364530007448 0.5523845061743997 
0.06234703406375683 0.7303058702326216 0.06656256590608353 -0.8084250714125930 1.051079756323694 0.4202715420976713 -0.2737514958891164 0.4989708934582430 -0.4516543436460307 -0.2619733243234685 0.02133769393052309 0.1150625119810042 0.6542435208595535 0.05458166648588665 -0.9836766795226040 -0.6249035775752343 -0.2703785629699622 
0.1962112214272268 -0.6339275733214405 -2.106493363834872 1.788813439660141 -0.3564205990794126 -0.2700268882504999 -0.4468136917132592 0.3142739159460196 0.9849005846977195 -0.1572656339870975 1.171555438482070 0.4121003042879726 -0.1256284409234152 -0.5576891225062477 -0.5323465585593923 0.6621081374594899 -0.3433511697850042 
-1.384269278244612 -0.05915981039387774 -0.4769533943309807 -0.1455086648779717 1.705576466810510 -0.1912445753468922 -1.050316999628388 -1.614680750649652 0.1098646628131351 -0.06646833504056941 1.259980597089010 0.2487847999845843 0.1549936572994551 -0.2413625435729426 -0.3895208217198606 0.9607935579962521 1.179491431812811 
2.352137077046903 -0.9535960557452303 -0.9443789955296017 1.157589479956347 -0.7967973533592563 0.007729068032799953 0.2185840837761537 -0.4127933822425460 -0.6320965286387218 0.1702351775271070 -0.9911732800255100 -1.279975423939475 0.2539962826119196 0.2917302890897828 -0.3819562322985754 1.424606669346687 0.5161591243911816 
0.6054944180843929 -0.8423579959172396 0.5290844988331433 -1.992492114215596 0.03748300499126105 0.2589929839421204 0.07125849623764385 0.6685430793266443 -0.1676553987239918 -0.6005089819355419 1.478887315969237 0.7629579408019179 1.120416983925242 -0.3300117364719376 -0.4488579331012247 -0.3856060292594665 -0.7656285324866006 
-0.4426479971327996 0.4131550608629997 -1.389603018687310 1.498002040696443 1.476361141588329 1.127781574283291 0.5897247036176336 -3.427768628101382 0.1532968229597830 -0.2951061880364532 1.081729805669635 -0.9002467626435685 -0.8808993480328010 0.04797238150138297 0.3895205387835527 0.5068844577027326 0.05184341496853274 
-0.2632817085883461 -2.593324506050061 -0.6328374103995812 0.03265472317160354 -0.5148274783374008 0.7555301995415573 -0.4968140427472780 0.1583189929342952 0.7319631472824600 0.3544405273812587 1.072089786234713 -1.325025948153418 -0.2636135087312014 0.1504295003006383 0.9567045662680683 1.768240516312611 0.1093526435800530 
1.265315941546241 -1.742084951992392 1.477131097231284 0.8592326392006244 -0.5542813978721711 -0.5054035226512767 0.7225997899212278 -0.7035262604922791 -0.3726537598840604 0.5193367405077932 -0.7202330022970761 -1.624791442080789 -0.2297848255131108 0.008575296936053032 -0.2128184219064975 0.09756587287925812 1.715820206467187 
-1.055314652736661 3.723057664810508 -0.4923906548293595 1.776298854584886 2.599786142605331 -0.9354024671469588 -0.5349409894550675 -0.6836491207423344 -1.470197987109973 -0.3621011358393177 0.6478293039865110 -1.794738807106309 -0.9653988451021074 -0.08991185594359930 0.3479250663364692 0.1304161370309480 -0.8412666533430150 
0.5367032520371136 -2.899904143910762 0.6237425070144215 -1.529606473695055 1.253976928713176 -0.4821721512565882 0.1505507861435035 3.312339848128095 0.8883875338072448 0.07757803530162598 -0.5059739600803073 -1.584906475013723 0.2253026625767328 -0.08698008016646451 -0.2092943304086028 0.3481797028030153 -0.1179236419934232 
0.1380602649123794 0.5261300604989166 0.2233590669971667 -2.507577464577948 -0.6721674752187552 0.1931386198382988 0.08036273119284497 2.597311804137027 -0.006552633994737623 0.3092332323554935 0.09474969680101952 0.6802754092535580 -0.1729066968526877 -0.5744722799677848 0.9195927352130053 -0.7442614675819743 -1.084275603005820 
-1.325731147207530 0.7592755037536687 0.01146715465290153 0.8583674882860076 -0.1821527258835851 0.5661290158599992 0.03938503748673860 1.317618748658386 -1.163193603868008 0.2860131690159227 0.6906750265227563 -0.03624556931591987 -0.3972854916965845 0.5075568139322468 0.4406516237495181 -2.427528769986247 0.05499772603973470 
-1.289704324643715 1.293038198085208 -0.1606397379712573 -0.6243783688657714 0.7461329646850560 -0.7016465538525500 -0.1416445291676352 -0.1245298229791645 0.7593590361272212 0.6859250481826907 2.351938285888277 -2.284288129207339 -0.5721535885287703 0.01576664501502351 0.1293075317109357 1.448312356450269 -1.530795010928479 
1.293400645122568 1.577124569734200 1.532304216886060 -0.6765036664047092 -1.484024961242007 0.3137911393732991 1.031335488975248 -4.921903870241465 -0.7383024674720642 0.5096294126520413 -1.104836344521069 0.1464494332975284 -0.6054674260688025 0.2098421035365958 1.337222297221897 1.748962073493009 -0.1690226443422905 
1.845064849259646 -5.337162314499488 1.521328179763504 0.8503414419768227 1.786302845360956 0.3662786073222714 -0.1239423634031607 -0.6203339655036724 -0.2783217338318375 0.3647070394548210 -1.133329847964127 -0.3056423685013890 -0.3388402917602220 0.7949322506485743 0.08035818605624770 -0.6370607936093702 1.165320279230378 
2.206698044205556 0.2404381213747115 0.08210319176896651 1.556409805700465 -0.9845248919236130 -0.4496537820005528 0.6319900209486802 1.315510875298303 0.3134377984594507 0.4109092689228913 -1.647666532330470 -1.037189968219527 -1.400282638929997 -0.6230025643005556 -0.3489990062487672 0.2912111990311370 -0.5573889417566141 
1.549299999763087 0.1240517259224459 -0.2907763976354427 -1.257462639389840 0.05527249025561075 -0.5101530212458945 -0.6977454949755457 0.1277005391635485 -0.001359052314249954 0.5836484204682778 1.306674002311768 -0.3973489079406509 -0.3091403464140468 0.2399181024689097 0.3780781338563912 -0.4146463703259527 -0.4860111839684581 
-0.1306432113228045 2.188182006486422 0.7627827955277360 0.2634890099048077 -0.03183862411420764 1.093897120011215 -0.2782621685631513 0.2693471496423670 -0.3423596468228263 -0.1967378240218789 -1.241083683662647 -1.248540465092691 -0.2969576305192126 -0.5367423784086640 -0.2890862467724437 0.3757356330374264 -0.3611818353094362 
-1.074699411244281 0.3961093168726657 -1.022648910383059 -1.645253226290758 -0.1578984560024196 0.2563014720120772 -0.2123651140012471 1.329712975078264 0.9033100731867155 -0.3090264039337541 0.8522680078924817 -0.3430557706752626 -0.1255797671613725 0.8680958328892148 0.5453912293370514 -0.3367947668387900 0.07613291926243074 
-0.9841954719407737 -0.1000558740866313 -2.132200774292491 0.5189776772053198 -0.7359872148357218 -0.05547415482266931 -0.7583319263059615 1.194348329295892 0.7482369277980494 -0.5070448484102209 1.734134072954241 0.09639768888360344 0.07594358045896106 0.5016432330534055 0.4910576883555023 0.7264138846725554 -0.8138628179831108 
0.9511497927829116 1.775255795145601 0.2036647708088891 -1.754864723631388 -1.743341596496817 0.3473952961669162 -0.4045653148202953 1.179834107472005 0.1676694569455421 0.2524835761685112 -1.448061432874176 0.6710058221108134 -0.3880902958679537 0.3158510003122650 0.6821453092441527 -1.519931624468290 0.7124000610012992 
1.213010630380352 2.624695623924588 -0.8542044316041549 -0.3193897298440986 -1.455261034790207 -0.3540707778663209 -0.5179632815285926 0.6184463718098530 -0.8527940940369030 0.2630646129792351 -1.694638008172420 -1.489969283072454 0.7912918759620673 -0.04039288578315127 1.602387957599668 -0.07044946801233141 0.5362359220548828 
-0.8868783848353635 -3.475689101930416 -0.2190363528796293 1.034169661887599 -0.2046347723918117 0.6098458949738603 0.2587292506505834 1.276462531576917 -0.2799331393518585 -0.6345908784406266 -0.5141404377642226 1.047999338598532 -0.5574291281769351 0.09118065381455086 1.087105449710498 0.9322535913026470 0.4345858232556605 
-1.989317235739179 -1.109519586045396 0.6691764961988274 0.04203156307075407 1.599815709777850 -0.07084328121169102 -0.2292461925820874 -0.2443031506179030 1.493567803384553 0.08675787654321784 -1.043116932460073 -0.1000782763443528 0.9512899917037425 -0.1611084221675364 0.5830040256934101 0.4525244140065502 -0.9306348032106802 
1.324250036377060 0.8184664266779942 -0.5038893916905216 -0.1795960262961223 -1.217281052320783 0.09800121453536115 0.1665257084240664 -1.966057764329852 -1.009715294909905 -0.01203047833021048 0.9379184824798275 1.143384956507699 -0.7698144397355430 0.1898197382693543 -0.9393024084031861 0.7571939142795279 1.162126378465217 
-0.7576372515656580 0.6015714386762401 -0.8532002882061147 0.2128651294262178 -0.4690825784814374 -0.3380931926398906 0.08752383511950934 1.906587527742500 0.3409838489782995 0.3712074176401141 -0.3598321009907416 -1.722209216638119 1.554129868093225 -0.1526999847712435 0.4956722605198828 -1.015027614701791 0.09724090179901086 
0.5509040685017752 -0.6742589637688503 0.1647843204482290 -0.2920888845994709 -0.2266697445597266 1.068160027402159 -0.3473159169212023 0.2747820553511643 -1.441648104973659 0.5234246474628680 -0.1479605835442373 0.2901027031000464 1.012389780111223 -1.042475532745310 0.5998227257382046 0.1902849128731307 -0.5022375098763793 
1.124525902467897 -1.940843312352928 1.912341646047870 1.471873752161983 -3.669865705701632 0.6487014756729672 -0.02345163811108280 -0.4874473175523592 -0.4199842234730642 0.6781140288421613 0.9514962409367496 -1.582390342802603 -0.3811192210036171 0.7385436842418502 -0.4856261774649127 0.5531060113990656 0.9120251966917113 
1.248598023984264 -0.4300050863290722 0.2979051658745214 0.3016361745350001 2.106777690001042 -0.4738123080569032 -0.4058383045215190 -2.029201726969431 0.9072710965077352 0.6104103346238521 -0.4128194558846223 0.7291208384996528 -1.560696201747015 -0.3105843540530997 0.2699804188403914 -1.092787943512518 0.2440456382076611 
0.7533025230796261 0.8083096336333324 0.6552613161851502 0.6665936916226186 -0.6054498339012359 -0.2637377113187108 1.033509654518641 -0.1815721587142415 1.033061708073167 -0.5192324088008657 -0.04673329348331895 -0.6334374662970417 0.4620121217372585 -0.8631660121371894 -0.2283312760609979 0.3927690925620578 -2.463159580698257 
-1.671790301646194 -0.9113693909139107 0.3227813828858386 -1.253737983368507 1.015499370344647 -1.449231893920745 -0.4465871168950361 -0.03110912564263607 0.3384716501510101 -0.1104597432938419 1.657273432479465 0.9565809673334117 -0.4405501394165623 0.04475111535869907 -1.004121641892380 1.183211139153204 1.800388279283565 
-0.4426858179298753 0.2767218749024932 -1.613508233863173 -0.08668145921875432 1.391828662631766 0.09587830946668900 0.7732171538687849 0.003644219886277602 -1.568687259014808 0.02839467937506675 -0.04947574560774708 0.3138092202915191 -0.3201143732645340 0.3737435465850277 0.2400530968258822 0.6968812074257743 -0.1130190823604006 
-1.470769973597766 1.222858600202078 0.5586155922490503 0.9649455720531432 -1.179222905209139 0.6980232915247757 0.7960782007991759 -0.9576000590084192 0.2383569444510940 -0.7730498531404918 0.1210212781813934 -0.3356271832370509 -0.7797790793375248 0.4348040439853861 1.220568343325108 -0.8232408701145614 0.06401805687374346 
0.4039814629110637 2.136715977603484 0.1853965333946194 -0.8245585130380491 -0.5015750150697955 0.06084021381241127 0.3073387953812665 -0.2529063873802167 -0.5098206376780272 0.4628551749281148 0.1308762548801949 -1.086114075862299 -0.03934835283616110 -0.1868525969975789 0.7931033251191054 -0.4484973208229479 -0.6314348383451643 
0.2179761210582639 -0.8911937689807671 1.546517603760110 -0.08899287233012684 -1.927664581094238 0.7622647217095898 -0.1626537317836501 -0.07835653657681191 1.463331909558840 -0.6879636143420448 1.207636419381349 -1.216408503724402 -3.119996114588076 -0.08960600253246405 1.619424553481651 1.314061951309535 0.1316224456932348 
-0.4967069896484602 -1.692479251774107 0.9826331835201371 3.222801350410015 1.423889700739278 0.6933366959217208 0.08684248170240810 -0.2309403231461553 -0.05098668426200040 -0.1699519490820529 -0.02668744014030742 -1.283356401322208 -0.4073894663225478 -0.4000806109223967 -0.08431627734418226 -1.308570704132237 -0.2580373141968894 
0.4785718293510329 0.5196735423783678 -0.9223674744023148 -0.9641264058410067 -0.4855097430054603 0.2756988800317971 -0.4666845616090973 0.06200165490225343 0.4117523089047231 -0.4807365255636552 -0.2808073510174607 0.4208856937169342 1.180700405403509 -0.1602998633133929 0.1922370439869074 -0.5817452735290644 0.8007558396059191 
-1.059402568531644 -0.6191664275769536 -0.3018688551879816 -0.07662676347561463 0.7923542368929641 0.2241114792920485 -0.3677509080080371 1.157345240849769 0.3054005247721389 0.1215371430944052 1.742332152410584 -0.2499184518453425 -0.6858719466972238 0.3543397492681435 0.1888181902227154 -1.395971653518580 -0.1296611419614119 
1.081974466212844 -5.574546190809144 0.01780757181627883 -2.222032926978601 -0.9993594066189863 -0.02791997185232673 0.5048273202963112 2.720032710101955 0.7389021971244146 0.4908832232524881 -1.428086761757793 0.9803918414147635 0.8825039572288749 0.2729956007091764 1.249741467572067 1.653013123169054 -0.3411282208814505 
0.7230618018007300 0.1821750003996208 0.2640965779040854 -0.3969350148321503 1.341147917960973 -0.03833780436029793 -0.3773499056714791 -0.01835360103888501 0.07345916620396777 1.039622911287881 -0.5199601618738820 0.4351442520949397 -0.3718067092579120 0.07251870805821584 -1.252149821672128 -0.5543719388654401 -0.6019613781382631 
1.206693099641652 1.683866711056294 -0.2834531242383574 -1.207290967598096 -1.406226778135062 -0.8513957027314384 0.8716987718854673 -0.5106637190076638 -0.1000501416257591 0.4656413362917755 0.4444134999508800 -1.204348917345609 -1.083952959150266 0.5419725204626948 0.7286851355826847 0.9931451086618217 -0.2887338737010161 
2.182606540160403 1.255778802991438 -0.8657289525071576 -0.2975843450661446 0.4344657480096927 0.4027802858738503 -0.1672315292766345 -3.979087199347237 0.7314470502877641 0.8146759714661551 -1.652683427637466 -0.5923717977743369 1.645872114755428 -0.4204813249328930 -0.7980309029870570 -0.04765502142644275 1.353227987410671 
1.729715146309868 2.687438645635608 -1.245724835635897 -0.3633216112751703 -0.7236060541447253 1.337061946202226 -0.8306367911205266 -1.385634980288097 -0.08310376443216179 0.1169261414067901 0.04131218516536041 -0.1354216190721045 -0.04973009207958502 -0.02023843079799987 -0.2606170784835484 -0.9052022099484462 0.09078340255841283 
-1.424714137627954 -0.7606073686028594 0.9282364672113854 -0.1822387063141274 1.972171468668994 -1.407239730542594 -0.1637824055587666 -1.270481634280295 0.1587726457282873 -0.7637543721806292 1.521769145643996 -0.05731292745660095 -0.8264425606066683 0.1479083559314914 0.6179251473952695 1.282077467069802 0.2277131455213240 
0.4140801446996136 0.6595363210760985 -0.1059561734538809 0.2683220825949464 -0.7838975719910489 -0.09485807336786067 0.9387072247164888 -0.04138264036939461 -0.6859153186615348 -0.2846893934039020 0.1049893981933670 -0.5148766387498989 -0.6679422956690755 0.3803565320738601 0.08099936407245764 0.5283583012182462 -0.1958312629784775 
1.384654868225546 -1.689394154947798 -0.2860468680529549 0.5409381502936051 1.407918177715530 0.2959742810011460 -0.2353185864342866 0.7740142443936066 0.1568552340305730 -0.2344813116332653 -0.8673878592078964 0.1447709567196261 -0.7529771972513489 -0.1853722462822592 -0.9455713822093014 0.1797086135865651 0.3117150800528827 
0.5074347448699946 0.5912723808124979 0.6596286664308028 -1.180618011124061 0.1380481205412967 -0.6618323407681735 -0.6506119599254462 -1.719980237307924 0.3289627580950337 0.06200807513896130 -0.9750468272988395 0.5243078104796344 -0.4698731202122805 0.2578444114216513 0.6983044365913874 1.238052129807391 0.6520989624480028 
-0.2469398962544369 0.2213997467113252 -0.2381758519759263 0.6184002500271135 -0.6507778083792228 0.6265766857882401 0.4293526297125120 -1.651461775457623 0.4256213673293355 0.3765757210950148 -1.115683718021343 -0.2921537283641144 1.541071358830175 -0.1969394312239156 0.6764368751032451 -0.4709334413400688 -0.05236898358033112 
-1.668511292278321 -2.176679786978332 -2.205968718918355 0.2953803423836983 1.108364726618922 -1.519820284030006 -0.1518308606041829 0.7332852060916415 0.4601881247585020 0.4023249843667606 4.047388340229317 0.7497914539930893 -0.6741920382837071 0.5324857391546601 0.03103002183498133 -0.002867090795868508 0.03963113245715276 
0.1607098801213724 0.9007858482992531 -1.023628405146802 0.2214380613782502 2.470170191048540 -0.2366313545195204 0.6447737134850177 -1.396779776171174 -0.7540565295059899 0.4742353237432734 -0.1482621926972415 -0.07695448640237075 0.6200640900334538 -0.2275119776918970 -0.6236553126728168 -0.7755691272269475 -0.2291279460744468 
-0.1677370255801958 1.353810159415132 -1.576913022751077 0.8726890113950942 2.094304521750628 0.4385091187813790 -0.7440256605398036 2.155299958180440 -0.7465471715698248 0.1776803117555305 -1.532380430843860 0.5924537629106991 -0.003223215466584951 -0.3662474797423038 -0.8187882402251645 -2.396116049849455 0.6672314523793169 
0.2669374429314055 -2.073519977128762 -0.5652114349925993 0.9325256529475172 -2.036829887117994 1.251712132240242 0.2314008009955107 2.749519715111522 0.3583849391656146 -0.07747024541556624 -0.8900034758845803 -0.04188639922981882 -1.421676323621542 0.2459602741370513 0.1504177343372044 1.064937479782526 -0.1451984282576955 
-0.7466554510965269 -0.5089160321721984 -0.2643713022351003 0.02901162294630471 -0.5089723492714958 -0.7225824874795466 -0.8376775328818183 2.647812592167068 -0.3280424207636356 0.5547245039569470 0.4667621485710732 -0.9268115598477783 0.4412147195264738 0.2556955788713613 0.1598083607554785 1.379105126322073 -1.090105517368586 
-0.5048736906581492 -0.7906323027374453 1.437477499200459 -0.2851975666434761 -1.220913367879690 -0.2506777566326175 0.06912851084785898 1.006528239464802 0.7413972068172225 -0.3413647163204841 -1.165227472355590 -0.1263515305538253 2.157876223190173 0.4474893729539541 0.5066353153890656 -0.2357379335681276 -1.445556030514045 
1.328525999615063 -2.408758539855169 0.1342453489124876 0.4659465102530324 0.02888574453286597 -1.073572725314201 0.3517605997974203 0.5529557023316589 0.3554705003218238 -0.3780804703206189 -0.5549588784105051 1.207394709988837 -0.6455058792671550 0.08727082207652541 0.04680618703593240 -0.2129115250273136 0.7145258933293220 
1.699993566866378 2.806494919301479 0.4961604188749502 0.1985743120155875 -1.889196082651470 -0.2503706602689307 -0.6273762783260214 0.2611209497216335 -0.3542379998547087 0.2211146468457004 -1.691034370454136 1.739279557421021 -2.527508012813032 -0.4752938175134682 0.4804619005120156 -0.4809506856887568 0.3927676360117484 
-1.699714764068290 0.1288305748836825 0.6820707044739200 0.8616591922185769 0.2580716778090803 0.2985878835221054 -0.2402234104569056 0.9235969541832911 -1.631352912099571 0.1859645049555321 1.125617946627973 -0.2074572228752863 -0.1770222947862717 -0.9296332291986199 -0.1381702637937123 0.4799514690661786 0.07922318953830730 
0.5163287954034134 -0.6248721020397858 0.5438812567786573 -1.650335255283288 1.157102605546433 -0.1972725666727930 0.6509809115678911 -0.7078447879119133 -0.8893141918232045 -0.1210284204339478 2.855311343861116 -1.187213669402830 0.01989548701978794 0.2018838387776614 -0.6779147886103842 -0.3144037603913666 0.4248153036146143 
-1.589460382196523 -1.464105849481757 0.2993373609150014 0.4480237658571837 0.9486352486641066 -1.369294824556409 -0.05002424083482270 0.8028539697736479 0.4491999967468454 -0.6881980471065083 -0.04249301437731723 -0.5554686691422969 1.283766164057330 -0.1030946167306580 -0.1047687677173522 0.3291873557578572 1.405904550371661 
-1.843526683103178 -1.291297348440160 1.379260526659847 -0.6537780128845230 -0.5561396727682738 0.5527481874338772 0.1414391760874906 2.959682774985441 -1.057361516258394 0.06951892502051919 -0.04679241316280737 0.3902216809983923 -1.072999762379941 0.3499727192537318 -0.4178423460509035 1.194850786841808 -0.09795702223293269 
0.08291028120644635 -2.083051658499167 0.7497293547926104 0.5465969376388303 -0.8985448420285900 0.1654254772943525 0.6706749252112562 -0.3996898861481785 -0.5807409379259314 0.4526365538483272 -0.4294449847067113 1.401443845263604 -0.9149190510590682 -0.3750323120964263 -0.2234115443003211 1.557720055123255 0.2776977863857004 
0.01852261974499341 1.677406153486620 -0.8963351351667296 1.168143773817878 0.8775850740472970 -0.2966491774628417 -1.126558645243127 -0.6861241607735160 -0.2684197277092123 -0.05282881052241484 -1.027279131496987 -1.273284501724959 0.1710084808937042 -0.6075203173914954 0.5106417088624283 0.06520566180939324 1.746486134828955 
1.071558947836744 1.233684394967199 -1.003959705529079 -0.6553961938415614 0.8814971135432176 0.07201424513974065 -0.4576084591005583 -2.226584124196488 -0.8167425441632082 -0.4156374207486391 2.066336688913280 0.6363572375575093 0.7793670544255699 0.07785354142152550 -0.3687392229981841 0.5789575523169637 -1.452959105544013 
-0.2972113395514577 2.647017096556730 -0.8622333249349523 -0.1606090037612248 -0.4536935591561158 0.1793248342966734 1.414511892476869 -0.4925047091965861 -1.395361481579518 -0.7060172806547802 -0.8012588812543010 0.5965877009582218 0.1606950030449706 -0.05480491404656789 0.6597242650224365 -0.2178409206353513 -0.2163253775850711 
1.063816864799236 -0.7870034705539832 0.07466748587619347 0.3300504287153580 -1.789855204234441 -0.7939699143456130 0.3725333332236194 0.2204000038772539 -1.070517075984808 -0.2305343054158663 1.091323264180277 1.445884790249722 0.3872919090956959 -0.7124463682703244 0.04342430567543996 1.041340352516789 -0.6864063994045053 
1.359634153106676 2.591026703076001 -0.4537779172525664 -0.1616233779898727 0.4951406391687023 1.070733570229255 0.3962691185222818 -0.4637444924205063 -0.7315860962056890 0.2174027093800182 -2.932270274896469 0.1022666613140328 -1.932503619311370 -0.5596060447019516 -0.2209996514046142 0.06661893460672409 1.157018984779316 
1.535685999403584 0.1458170676306194 -1.662852019450929 0.5773696796896920 -0.04346716863492694 0.01354369681567372 0.3981867342409876 0.4944274981316626 -0.3835281652114213 -0.2735903792794272 -0.06915188926846291 -0.5201011782919615 1.038207544480515 -0.1994183786397767 0.2097075991026473 -1.725762470375450 0.4649258296569506 
0.2437322331296312 -1.288645694588837 1.745489065633918 -0.2083839527357675 1.291115003308331 -1.187596215605840 0.3069132171083323 1.299252226427082 0.1824145173507314 0.2236558717436785 -0.2259126932695129 -0.3807507343194799 -0.3044495411491340 -0.6880329518484961 -1.745544868067415 -0.2215774606082592 0.9583219774910322 
-0.6318103661115142 0.6143039143126928 -0.4609463485684527 1.490546171631714 -1.490026328785572 0.05951066547578437 -0.01957969515923116 0.2356051903384152 1.685223983378746 0.2069272668375247 -0.9075013221843166 -0.7496722896631376 0.7143453010167343 -0.4428227254785696 0.2405638359451394 0.5619534698598005 -1.106620722845764 
0.9563452080997766 0.5507043478186640 -1.414078753245126 -0.7342646710760180 -1.160004223062161 -0.04968359562736863 -0.2903480119688410 0.6563505204110957 0.6460936524982716 0.2442880279770660 -1.571897247656687 0.4081464964097116 0.5159884730719287 0.3844410663951645 0.05779061152865034 -0.9940799126334883 1.794208011059359 
0.9709111213826556 -0.8983147775273205 -0.4097748570031118 1.167510211051900 -0.7036242428748488 0.3130207142115271 -0.2263015066692488 -1.405896924284820 -0.1395918174383261 0.7198407593557403 2.164870673231582 -0.3047941413552448 1.005324629467360 0.5134677349057165 -0.04948859112805664 -0.3430227667459018 -2.374136218579614 
-0.2273261008286481 -0.1221783294021849 -1.734490634755229 0.8158214708828749 1.981470390851527 -1.189074790484201 -0.3567144054478512 -0.9495218914995627 -0.3107331313423427 0.07381609091880094 0.4701995326795866 -0.7689446744226179 -0.3460369740774590 0.1250294218450423 1.524377996795174 -0.04976221169241323 1.064068239979459 
0.7728370066152968 2.962769311025555 -0.9826741497345880 -1.533221099101004 0.1462789576689411 -0.3937554962230719 0.6697610012017449 0.3224181558257384 0.7414501667804027 0.4222121669934816 -1.249800651882781 -0.1798825846507593 -1.641295880805728 0.01625510346522490 -0.6387608670572488 0.4195306191375760 0.1458782407412083 
0.1517574403988407 0.4610674991192093 -0.8819229739549224 -0.4639185581876624 1.624340760303136 -0.4616294030001060 -0.4323817467122101 -2.293610103088622 -0.9030020170926907 0.3745912368922047 0.1245811054222510 0.8060600693660211 0.5080554312025701 -0.4231376656252636 -0.09316278613769545 0.6460829720038820 1.256228739091088 
-1.587775431649773 2.454979829442153 0.7965777798628570 -0.9608801726047476 1.535523468965830 -0.7034112003745915 -0.8383443199880377 0.5184814429847837 -1.067606781170321 -0.3439545018824078 -2.753254313751512 0.3791162790849004 0.09109213437278317 -0.03269568826060799 2.011862023688067 -0.2000650117498772 0.7003544630304581 
0.03494397756932288 2.193025688811746 -0.3624545389976595 0.9206317900706326 -1.747170940911250 -0.8076966826388495 -0.3493443385165560 1.209103190641180 0.7668709704788139 -0.3954361555438304 -0.5105231312071739 -0.2137095643710590 1.297522060035947 0.3088526615795958 -0.2963097014040070 -0.9339505109200374 -1.114354774676846 
-1.320105717445646 -0.4555197698942449 -0.6441818821651716 -0.8024690066842532 3.000235775359256 0.05249296039880343 0.6734211323859414 -1.206488693222020 0.07850009609876608 0.6289315415737333 0.1361711869075268 0.4835882889168859 0.02796857865159585 -0.2041358732016260 -1.016206259343546 0.1697960051581097 0.3980016365059029 
-2.097308141840617 1.810838947840065 -0.5178603777108464 1.276352530350881 2.035668689395763 -0.9029193502798082 0.5769692008826270 -0.9846884211267019 -0.7966104744352749 -0.1984070657733561 -1.569263228249545 0.8637217459550679 -1.418191738204886 0.4429834043947481 0.3937715590377788 0.8166745493177372 0.2682681704463572 
-0.08130475384643640 2.667571461359809 0.2375293650212057 -1.752459728823861 0.5377203939506952 0.6188029785491604 0.2556836441058777 -0.8095081040331118 2.263726780151431 -0.06996572254363148 -0.6009873112370907 -0.8693910310093788 -1.607186036328701 -0.3925659373173194 -0.7863459851766650 1.070660010966722 -0.6819800237886748 
-0.1614423945916386 0.9365981578391617 -1.098143118632333 -0.1953632109825891 0.7285821617523910 -0.009758349522945080 -0.9711247720969076 -0.9030950961764448 -0.6952512643863601 -0.2143914500880275 3.886657403500716 0.2218271580735902 0.2181400049458532 0.4712194770256157 -1.458613047317803 -0.5709645221235732 -0.1848771372186484 
-0.9310744508581277 0.4240503339464776 1.283001790658346 -1.563695842828265 -1.542899546848168 -0.09700382413287707 -0.2913753244251934 -0.6331258353115014 0.1642694910964569 0.6709176877214048 -1.534334900680074 0.3886673504224806 0.5632872850218315 0.6011011617724327 0.1937153027653430 0.7706828497972762 1.533816471882132 
1.273283375078469 -3.016990408779114 0.6682542478050217 1.065287143979040 -0.06775969271128554 0.7675341459564480 -0.2671024341286907 -1.158400022985290 0.4221675994939640 0.06884258681963862 -0.2496589218434230 1.145137974471676 -0.4550496499312349 0.2573379761595098 0.4195018790508756 -0.5213546004266207 -0.3510311980089465 
-0.6452023817389870 -1.305113546439217 0.8576665199743141 1.524449109014158 0.1618387005515997 -0.6234643186053088 -0.4863106294384897 -0.4318602699085954 0.3547491361875274 0.4118806384826478 -0.1707408808397661 0.5996750692803162 -0.5007839399355530 -0.1933546238553778 -0.1693596843062639 -0.1518765082914924 0.7678076098685195 
-0.1225243701755502 1.683330327263023 1.334627415338360 -0.1013365196847933 0.5465371945041130 -1.080640352588997 -0.3082800123185083 0.02606859394247210 -0.9753390629417144 -0.9137963367724575 -0.2927424250963788 0.6394225953094216 0.2870534245709579 -0.1939728990372270 0.2701144384125111 0.1492381073249632 -0.9477601180501994 
1.382970738456283 -3.280104885932730 1.240667620192264 1.406996170163102 -3.867882414121886 -0.2740896987815998 0.5156766255853398 2.068566246979450 0.9743060004260697 -1.104792781307500 -0.4240786946435323 1.559739836506462 -0.7627459794643405 0.1066729759529301 -0.3773742309887038 0.2952879660187059 0.5401845049596302 
-0.9249016411798138 -1.415863661585515 -1.567185760083170 1.395729072482899 1.382993660143907 0.5443599762213424 -0.8254504788208158 -0.8378924320567231 1.205036822082285 -0.001118210195229856 0.5728697144597568 0.8983232458992676 0.5450738345816107 -1.146633484558788 0.3901966748998240 -1.038657646005531 0.8231203137146967 
0.04042736333389444 -2.813233720320168 0.8450445359952271 0.4611910030672751 0.6757581951729572 0.3294740443276651 -0.2596718458258613 -0.2442374262437174 0.5380134652296168 0.1364872051767903 0.5811750558914500 1.001990456548088 -0.8015603385328709 -0.8527662068055248 0.06633443855441762 0.9093739119149405 -0.6138001374841463 
0.3744667716418715 -5.591414884961694 1.472549676300284 1.286562482924387 -2.459917553685142 0.9148068669297492 0.7840101215888549 0.9904155647740770 -0.5775867163070930 0.1124709180547553 0.8092658225338919 0.09842839268883645 0.8284894062394280 0.02883995176513167 0.4484699694259848 0.1411809588980386 0.3389622511887054 
