solver_type MCSVM_CS
nr_class 17
label 8 1 0 6 5 13 12 15 16 9 10 3 11 4 7 2 14
nr_feature 199
bias 0.000000000000000
w
-0.5031024961152359 0.8380171812759168 0.1253276441398794 -1.223007912145187 -0.4916984397128032 -0.4933094096558334 0.04200769557565991 -2.894600113000189 0.4997581442906751 0.5862946524614175 -0.8699394416522716 -0.4594130730394934 0.4731695696921768 0.6130200418546400 0.7612329273089823 1.889820453003891 1.106422575717758 
-0.03662509008047590 0.7139178599004057 0.4249064638018504 0.1241090804999893 0.6781077023703614 0.3320917281055645 0.1951589305083624 -0.3410629958860683 -1.400350903500674 0.03480896860729686 0.5100629778368331 0.1934319338979302 -0.1268132638626794 0.5830641361157214 0.1891911537201886 -0.6313638405128098 -1.442634841521791 
-0.8889943384163057 -0.5098557886266485 0.3398529037191689 1.156920940821839 0.6186140776548523 0.7204163773629437 -0.1428897268181550 2.221943836693082 0.06708169463680652 0.2837594407223354 -3.327247005197211 -1.874343772600812 -1.319912140093241 0.02044059720505403 1.475354603869524 0.8520352999593284 0.3068229991074565 
-0.2399671501357786 2.246523093086785 -0.6110762878488593 2.226461965917014 -0.7817720550529524 0.3299189230534289 0.4219609253422751 -0.7807685552916371 -0.5232786182665655 0.2496910763263816 -0.8409627572731873 -0.6484837993090808 0.5302525160704907 -0.4005973021002115 -0.6584793789884857 -0.3752122219250416 -0.1442103736045614 
-1.091666338943100 2.205129292634851 1.644826465498257 0.3939571586300640 0.9450662218746514 -0.5542129389030929 -0.2092439533057184 0.9399669198341903 -0.3991624092549018 0.1181556881098990 -1.737485335589595 -0.1837477784963912 -1.130211814997204 0.4118950664216464 0.3074281314235996 -0.7994527249328557 -0.8612416500042864 
0.5885013122589934 1.330270033680629 -0.2138164027826493 -0.4571430012252359 -0.006468303169011865 -0.5443528149918208 0.4200838587658816 -1.363956254831848 1.590273895967439 -0.2407405040322825 0.1144765567794588 0.5994194055559048 -0.4794322622316926 -0.5389600663753703 -1.228966120080883 0.5524675113541246 -0.1216568446416297 
0.5894701508487180 2.375621740232022 -0.9800422939212762 -0.3376137984583066 -1.740402071406822 0.3250717766193925 -0.03547272091952491 0.1239091603590136 0.9973187517905076 -1.052819655268364 0.6430113272867592 0.9124803771695484 -0.5510520389604299 -0.03168104023780543 -1.481404002517495 0.8469841427990191 -0.6033798054149723 
0.4426511772142704 -1.373906678602357 -0.5410706723547228 -0.4619346449671222 0.9797857161032403 -0.4849292784219183 -0.1151101685988818 -0.5515491009413749 -0.4633856650114100 -0.2090906288265316 0.3853668442483499 1.329325124093952 1.210497247287962 0.2887265006190308 -2.685553019799271 1.284835474711015 0.9653417732457417 
-0.09896311080248870 -3.158793954121649 -1.269133342386976 2.280869202681451 -0.1505923192021162 -0.2465162432611217 0.02005749424456012 0.5711183589922295 -0.7270232326789482 0.4039023051000301 0.1333736979563190 -0.9029788391247313 0.9313408190965753 0.2002695197403071 -0.1064773375719639 0.8364282198566312 1.283118761481829 
0.9197216206398142 3.649905014279253 0.04634956581218299 -1.974375973926920 2.368093507717742 0.5271350497529373 -0.5074194939885743 -1.349723083819524 -0.6766085375936383 -0.1261108443376713 -0.07159764620781411 -0.8772250930013364 0.5938438165485146 -0.08255089013184060 -0.6085429029079946 -0.4683467911182404 -1.362547317716829 
1.755463363031551 1.142416649231167 -0.7843525014815720 -0.1958593400332934 0.7648312758715778 0.8798735945647134 0.4372551288648849 -0.5552960951647264 -0.02146247843419686 -0.3820284593186772 -2.097136604145934 -0.8530151040401025 1.808530445844270 0.2469621890414150 0.3665049516239951 -1.841055492236193 -0.6716315232188413 
-1.947966972139155 1.005327018452542 -0.4852652625010988 -0.1610875652186468 1.565769864684357 0.05995428027271662 0.03408142331507909 -0.8047516400318232 0.02696247300412906 -0.6819655006846783 -0.0006762345148938467 0.6358684138892808 1.695549262665642 0.2399752841959275 -0.8456720590512155 0.3367661357395171 -0.6728689220777115 
0.4200230371492755 -2.185417371334065 0.1526464993322859 0.6445496864647036 -2.180733389137295 -0.3357374630531237 0.1902993711341797 1.171095683515802 -0.08438037837348024 0.1040142567121971 2.122369246449317 0.9146940822092184 -0.3289978890299511 0.1746508098086334 -0.3949224315920272 0.9209269288111783 -1.305080679066835 
0.9330087008386038 -0.008089923096470917 -0.8706072320693654 0.2010374490922600 -0.5675551466343529 0.4713402298523025 -0.06685686335038361 0.6016164856531191 -0.04670456707294192 0.6672434518445481 -0.1717248720040198 0.9199129225822071 1.390196171442507 -0.04976596448691632 0.2341274163947257 -2.062955347920501 -1.574222911065316 
-1.435365982222305 -1.099500094441674 1.810989368571110 0.9155991791404704 1.026136917991670 -0.2659594779666918 0.1575998540556223 0.3517426724240276 0.02558439914041239 0.2648530373647585 -2.065336314729440 -0.5038222262981017 -0.1299645008075281 -0.1255087910061598 0.7727348204430304 -0.5052395115143835 0.8054566498551483 
-0.3277720369396674 0.3359692714032248 0.6318874256828311 0.2853269167959013 0.3479666186528619 1.130602555951991 -0.6752827653620639 3.288626292250978 0.4224368152490089 -0.1024374009299342 -3.735473630446964 -0.2986811237491797 -0.6572255970793583 -0.2480378266730776 -0.5376807958351739 0.07256424076818470 0.06721104026054067 
-0.3187183627372422 1.924691500311635 0.9258952234603890 -0.6920052875135487 -0.9964845266279113 -0.9538034128507483 -0.7647080968377086 0.9408670423167523 -0.7886113592925205 0.6882522492957464 -1.414078299073303 -0.05986669509916116 1.115094049812772 0.3213794996610994 0.9080267489237195 -1.415756161965585 0.5798258882156160 
-1.511202508447300 -6.082099218395463 1.519724736294238 0.2344025855883988 2.735748922424463 -0.4633013056005931 1.019270718833044 1.672595966480061 -0.7073672431351077 -0.2578380623499391 0.1118181708290981 -0.4205808058007843 0.8332757337840362 0.1285453450077216 1.784344995300838 -1.393013081719998 0.7956750509073848 
-0.3334043594375911 1.614188282123805 -0.1158663139871445 -0.4448999248291513 -1.400396098938960 1.282081523780685 -0.3324198191397738 3.191000650063648 -0.9988625277368351 -0.3736103744288524 1.335510855725225 -0.8174555836846990 0.1568842376198447 0.7935187235062893 -0.4583127353341834 -2.462800165314704 -0.6351563699875881 
0.6358256530091811 2.191509205600605 0.5932614843657624 0.6134501080888881 -0.2614097197045036 0.5262331559825897 -0.6987664474038894 -1.422686762516724 0.01838549459789621 -0.6575040087841470 -2.708275672635856 0.8562173804285529 0.7684486585450704 -0.4935936284803176 -0.09064980656451345 -0.7097678362352114 0.8393227417066222 
0.2765372107433504 0.3083006007494188 -0.2360118619945099 -0.2349445437907853 -0.7077222518873219 0.6989326028429824 0.1543694274154374 0.2649447980604271 -0.3709876458546025 -0.009772729244723999 1.061463925064171 -0.3780049352650681 -1.333255846215541 0.9805776597025946 0.5756463249694153 -0.3851250452831497 -0.6649476900120894 
0.5000703240466654 1.358478149554708 0.6634626827827546 -0.7993604053591414 1.370420363865361 0.1118536834668366 -0.08893271720998296 -0.6727377619224827 -0.5477958831581533 -0.3312139907065191 1.225576062089228 0.08383643100945674 -0.9137800414421500 -0.1033990999668291 -0.1283378567840629 0.4694278190752665 -2.197567759340935 
0.6508565261736667 1.217998933526749 0.6489029801749736 -2.020162985801924 0.2302182935041629 -0.1903076415376545 0.03899856471148908 -2.711645489125871 -0.09604461879389364 -0.2321193450160283 2.199404276573175 1.235830655482685 0.6948312748487451 0.1759866962298922 -1.447366191018112 -0.9417953473614371 0.5464134174294198 
0.6745763012878557 0.9974783528079824 0.4840179621684286 0.5393120021009199 1.402664643033403 0.1082939597022596 -0.4452387822930596 1.832248494536408 0.9238497016667880 -0.5617638481798745 -2.019856062797867 -0.1197397020216927 -0.8514595754510514 -0.05263541879944160 -1.283151075977018 -0.8108705621995882 -0.8177263895844429 
-0.4264042561671195 -0.4097519706916036 -1.039287370462900 0.2591059896350974 1.035729911204909 -0.8034180194748552 -0.05735646239325529 3.270025545926901 -0.1733794953916791 -0.1426670580448665 -1.814703764462869 0.5356287199070011 -0.3326320048926925 -0.08944208835010571 0.09711611987900930 -0.2489685567833685 0.3404047605623970 
1.077405981390749 0.3881799087155048 0.5478631909620939 0.9101293260993785 -1.299976366246150 -1.524736551262165 0.2638385087518287 0.005464224149241414 -0.1508397689970522 0.5468872164447220 -1.448496774401097 -0.3295306229248460 1.201204668518290 -0.4027826095747150 0.5585251802812118 -1.018640364162208 0.6755048522552730 
0.3641729160602388 0.2314961269318765 0.3692395553982957 0.1932479747476097 -0.6034378558221097 0.7926138579883004 -0.4184160610384497 -1.889854706762069 0.08654107224050543 0.3072859797521751 -0.6724712286599268 -0.5388750617139711 1.719307950233068 -0.09023124295285133 -1.429929865200460 1.231473989847198 0.3478365989505926 
2.009107394579357 0.3491618814853038 -1.124951961398190 -1.326525306439394 -0.5005773176600576 0.1110459312371109 0.1764661639693936 -0.9642198480798602 0.8724143684714152 0.06116527345549545 0.1220518716176786 0.6064175903289472 0.1917017301478543 -0.1426778401414162 -0.5208757076668932 -0.7417864917577905 0.8220822678510070 
-0.3057117270996901 0.7099873342947274 -0.09392075359846601 -0.1317045688782398 1.340395871619235 -0.3817981521805801 -0.5146880621563864 -0.1381334959914460 0.1683366017072705 -0.005379069493632312 0.3089404546867520 0.3694011844677771 -0.1845555432623799 0.2361544988484547 -0.4802357833811616 0.1817080304568981 -1.078796820039188 
-0.09980003245553956 0.1393237278364843 0.9109463373566427 1.954295096697078 -2.914739373401876 -0.3733808278903522 -0.1753193289150861 1.166899761452954 0.3379078592491459 0.5768491628511773 1.439044495623161 -0.9841281858525690 -0.9687330042540278 0.4742803904482455 0.2258562007137087 -0.7092172587456316 -1.000085020713451 
0.9396080042489563 1.031046496999370 -0.5923327854256675 -0.3805973372888528 1.476584417021327 0.5923127158013181 0.4828666287487524 -2.685114836319204 -0.8189371601180316 0.3744332889289240 1.342310552233180 -0.7659858155989616 -1.438729180822708 0.2970759622076843 -0.4123943121109436 -0.7078841043839929 1.265737465878836 
0.6553366324692516 1.840621711220423 -0.9980360208337721 -0.5148545167895657 -0.1602736276359785 -0.3256747177951158 0.4373816558940778 0.2450362889576278 0.04110080533888811 0.4788247446259262 0.08411350816553455 -0.4335019239628954 -0.4817401121751576 -0.3955401051459886 0.08718077543609941 -0.3129295580674383 -0.2470455397019322 
-1.029817454472985 -1.067179358438437 -0.3088534850964256 -1.257334730697416 -0.1782554313302328 0.5814707280770594 -0.1463817773123660 1.012527820632908 1.161057844512771 -0.3110470482530020 0.7505449669222742 1.074184240557879 0.7292766483387051 -0.7102928532679789 0.8882504446465981 -1.008385374757648 -0.1797651800616919 
0.7629550696480242 -1.027980881175098 0.7587468169297906 -2.096017708051708 1.833040193112117 -0.7417452700083238 0.3637987800639230 1.597690115525388 0.3124225661456560 -0.3989832685912840 -0.3507632855791791 -0.1728618450476039 0.2130286481209514 -0.7422784794477505 -0.6313692124409638 1.017264663963659 -0.6969469031676062 
0.4086791717490700 2.645038887198726 0.5647223827627004 0.8379238032926504 -2.441143714143500 -0.08855056930344749 -0.5728201946302615 0.9686560828467697 -1.566696504080140 0.2573273532893635 -1.968165487282692 0.4517467599290288 -0.1041715510461521 0.7217953734416183 -0.8851235230822058 -0.05534767791298904 0.8261294069714402 
1.081663143199805 -2.377669216779271 0.5876596375463723 -0.6331664536216579 -1.281498942888405 -0.8954891874769590 -0.5777941663152182 0.6556013349858149 1.206777016893428 0.07197291005053284 -0.01342292403091826 0.1338139087406209 0.09405894442126829 0.2034162280477092 0.6164955579571723 1.640717665156036 -0.5131354558863542 
-1.219645277992366 0.002830442451476227 -2.975631366578041 -0.6665680133144705 2.438040352877932 -1.053671661696224 -0.3904470358439779 2.953252424379191 0.4063127162405690 0.3740680920127475 1.560650642936622 -1.477561757378652 -1.072396006347144 0.2007750763417884 1.840015288029287 -1.101210267865514 0.1811863517467544 
0.1334645554686690 0.5272874758991299 0.3288451606212506 -1.829084977891160 -1.856826381800168 0.1602940763325844 -1.041131053892121 1.023661467837372 -0.06922696478801049 -0.01397362047875052 1.572930225868544 0.3833745502153760 1.348413238237982 -0.3059233353981981 -0.1203086936547150 -0.1140005826474576 -0.1277951399303701 
-1.270580063160320 -1.192537256379588 1.163074105783376 -0.4824906285064958 0.6097997390822065 -0.1208295949240739 0.05433329635237610 0.03238354430446653 0.8468405471310188 -0.05749726297277989 1.542585084572066 -0.6034028743450863 -0.3345983598929923 0.2178751603034528 -0.8981504906238372 -0.3310003920422878 0.8241954453184970 
1.454516361651231 0.7454079406310644 0.4496653716663816 1.936936891063962 0.4111850091098330 -0.9410162831115991 0.3613120590765793 -3.855753461182272 0.01319090456202584 0.09369700986780413 -0.2925242965709692 1.755165829580041 -1.081049228870338 -0.1913845814651731 -1.844000787187047 0.01512109259542830 0.9695301685830632 
1.550520994580528 -1.526248708509392 1.349595115247056 1.248276279397405 -0.8150519031390343 0.7675186805027021 -0.3616966031363493 -0.2859100305179200 -0.5579597668587849 0.4531574210698382 -0.2943877439528069 -0.02862183787323945 -1.018272797478793 0.4844852672875619 -0.8944645500582694 1.131424718340106 -1.202364534900630 
-1.873791476129063 1.302498047146225 -0.8181673335515423 2.035598543129861 -0.6859541857668304 0.5462017909071360 -1.434996877226668e-05 0.1093220565041314 -0.4904106960531156 -0.1610010213841262 -1.240183868035306 0.3282422356038182 -0.3823561236663541 0.1781770409537300 0.2100883207779085 0.05784920542320916 0.8839018141090786 
1.352022391474220 -0.3708728031215806 0.3420066907931341 -0.9737497405624932 -1.571077114134506 0.4151740914853472 -0.1593305844050348 0.7818282752951784 -1.148463236015744 0.5935819695178043 -1.694455110549091 0.6705601301468960 0.9394419311598984 0.2210689060809246 0.5287957968250416 -0.6093657833493276 0.6828341893593350 
0.04432442431539954 -1.694637238534270 0.6073379067688222 0.9188653240265724 -1.239893722727679 0.3411785810523931 -0.2357810796487724 0.2960447513123569 -0.1006884819424392 0.07756289475594999 0.3258649309532473 -0.4071933966397742 0.7854168043528228 -0.1090477201202821 -0.09011051607465223 0.4247554096715739 0.05600112847876145 
1.422142232791920 -0.5494530426522997 0.6353491329577423 -2.029217518897165 0.2884456855258984 1.021997481632096 -0.4484852390470407 1.673392913942222 -0.4498055323916798 0.02934028180263636 -3.380061824402032 -0.04839629037095455 1.176058909993148 0.1244980659177421 -1.475597365576978 1.011133331873428 0.9986587769013054 
-0.9629196603210296 -1.117140709043840 -2.514102679741319 2.721217333645968 3.414618942808359 -1.084847138032408 -0.6488399812598397 1.338937224097203 -0.3756399915036887 -0.3376298260566735 0.4867953240620447 0.1958616009528575 -0.2653153137985703 -0.8823705032857246 0.04918175647309055 -0.4603961020154080 0.4425897230189487 
3.072380634488837 -1.521805342998090 -0.8162696698768784 -0.05420774027298654 0.03602657450048296 0.6223680551047542 -0.4653039657643268 0.3210187127509531 0.3837494109082125 -0.1531233971038374 -0.0005920331167371355 -0.2964865154295329 -0.7521184525162021 -0.002961748029941728 -0.9740813358632723 0.3721620068569046 0.2292448063616400 
-1.270014070905433 1.661878054339577 -1.087749407716288 -1.193790756039713 2.979003889727034 -0.3785284002054975 0.2863103958549847 1.417342939140875 0.7640090002764082 -0.6667264310656984 -2.444459973176833 0.3864402888679531 -0.9306964823203476 -0.4071025308853206 0.9974334212590400 0.07364098069686591 -0.1869909178476288 
1.835344938712286 0.5877753145811797 -0.9376337949691490 1.656718161101424 -0.7451482101734325 0.03455705740883364 -0.5236802053599183 -2.391457179147134 0.2310716036017898 0.4674246872265043 -0.6740706107659014 -0.9109355425932569 0.3144756826689037 -0.3541319947016244 0.7172131519924951 -0.07926132921236740 0.7717382696293895 
0.8704946077388578 0.8123943520004664 -0.8603528248189642 0.4694291470386218 -2.541415788739669 -0.1104064226664666 -0.4989713092113576 -0.07041110196773886 0.6936573434669837 0.1103250093626950 -0.9575208774717366 1.361997485268449 -0.7261917411761186 0.4054743034976908 -0.5198707022566645 0.1030426029103025 1.458325917024646 
-0.4182274828433710 -0.3095309462560139 0.09863750784118237 0.02524656233819329 -0.5033482010362738 0.4294434448954163 -0.2360885880322700 0.1717731228775116 -0.9982405804693950 0.3347067017163078 0.7265160326351228 -0.4694170471998878 0.1417658113063197 0.3860293519457808 0.9180434146352062 1.161735742768669 -1.459044847122461 
-0.8562901885975234 1.773385281069924 1.319985334092966 0.3030125896409136 -1.692164754433762 -0.4873465742579227 -0.2225369131231084 -2.562538271878823 0.1225035001233623 -0.2597239853041484 0.5839423436395779 -0.5903478909002906 1.803653283515646 -0.06889970495696734 0.3670840585028606 -0.05274171182726354 0.5190236046945690 
-0.5541672344812058 0.4041160587999983 -0.1587729965554966 -0.2536173434522915 1.407395545779621 1.072781370447519 -0.6109561333668857 -2.674497119773937 0.3961912714230159 0.7381790365740970 -1.323463596108343 1.296261158253395 -0.1987073239293645 0.2126207755547876 -0.2586101159568000 0.01460102454210931 0.4906456222498083 
-0.5777387418464331 0.4040463103985243 -0.4375971143126858 0.3315792158028443 -1.820523751040739 -0.4819828935119269 0.3556962906929296 -0.9486755957321723 0.2517711776896686 0.2149321761233938 0.7995430384946096 -1.795313984769069 1.482709325103461 0.002469128607260420 0.7487770261267944 1.583768733586508 -0.1134603414129438 
-1.939616386636587 0.3475152210337633 -0.4720319998089503 -1.784498458376193 0.9250416561489769 0.4101401839822226 0.2548695020575485 1.854426202920218 0.1504485295181781 -0.008913822492394533 1.147878963391019 -0.3772095704395667 -0.6197300307344291 -0.5970912724497041 0.5939925489651917 -0.5794293133864116 0.6942080463071337 
-0.6360148486791878 -2.107520656916262 0.5989590431208323 0.5194114113551589 1.845227870012407 0.3984340195202694 0.6745130779410257 -0.2684835520836841 0.2026380668240956 -0.1271773117747330 -0.8511872872625988 0.5653334819862000 0.5659736308164156 -0.1920291606371727 -1.557940590544914 -1.398471928789509 1.768334735111643 
1.702507891446426 0.9096410027075031 0.2861005727064948 0.9136621197047095 -0.7739176681618571 0.8966946022816360 0.5198316712149872 -0.1118889536010075 -0.1810078043919155 -1.368753272018588 -0.9682465528280056 -1.071778616729978 -0.4032191860825753 -0.6976283319892526 -0.2631893307937778 0.3804982223735481 0.2306936341616779 
0.9225142617547548 -0.6372193254984375 -1.307047917063378 -0.2909074609623489 0.5077956843507805 -0.2651886901818691 0.9564984706039279 -1.751408240678195 -0.7299040828528675 0.1299558327773909 0.6214651203429042 1.177143962755638 -0.3282038988300630 -0.2596693262050124 -0.1333201014091595 1.059437092577712 0.3280586185182400 
-0.4582354832806015 -0.1028276827636099 -0.6970314264214097 0.6746371588801753 2.091029229730984 0.2724733873321276 -0.9491742453093553 -1.959359907956021 0.3679867159342866 0.3534860366407792 -0.6102513817888922 0.04280151467799581 1.523930895287619 0.1130891416826517 -0.3428567743598248 0.3500572820035868 -0.6697544602905089 
1.651991663949026 0.1362155669746160 -0.2309586563707589 -0.005695554437563245 -0.6302993595297759 0.7493077982459394 0.3577036847559558 0.3080891189932786 0.7640044793461217 0.3641129700704172 -0.05436986769440630 -1.344482999841087 -0.1544878371641582 0.4889755651305783 -2.138170612472976 -0.9453191633059762 0.6833832033507766 
-0.8363646337889173 -0.06418116111369929 0.2783621233600351 -0.2702006713708353 -0.6715890297727364 0.1507251511377233 0.4890473181950261 1.076148453551534 0.3389323504238730 0.1840958247946285 0.3374938945664657 -0.4929463315683426 -0.4650045909113635 0.04446435570265019 -0.5664275163621852 -0.2890047883834244 0.7564492515395728 
-0.4497180799530197 1.155867463165408 0.6953903610223153 -0.8021972164071312 3.573330766543052 0.1591278995620646 -0.7989613059821215 -2.413716989923382 0.2651092514718353 -0.5859636030310343 -0.7302148765806173 -0.5161892389516268 -0.5119645917555726 0.6213414622794066 -0.5595983886638062 0.3848297734749818 0.5135273137292398 
-2.533908660532043 0.7195609966986163 0.6171542309367414 -1.409199839332326 -0.7320897832824641 1.054184136320498 -0.3196312207928343 1.860703584781231 0.5544144361432688 -0.5966620699961812 0.1792532514462885 1.026559930924056 0.1819198302104233 -0.8688859068925928 0.2866514994407514 0.8245767301046985 -0.8446011461781541 
-1.385688140103181 0.8456356199889350 1.809553620641359 0.1937186491593267 -2.101164770740117 -0.8338078819482508 -0.03345913167094498 2.155911627784248 -0.1729766011233031 -0.1442218865630572 1.090049059548435 0.006148203868926061 -0.7273619005549881 0.2278505894933110 0.2718513177564373 -0.6618747269141869 -0.5401636486228875 
0.7344756709098758 -1.288870876679596 0.9080657284148776 0.6845847910172698 -1.412444223299034 -0.6232869759632000 -0.7675460099334629 2.732020346504864 -1.299661262578921 0.09627994872888321 0.5673291235096325 1.133401830133508 -0.1620180923390843 -0.2073601078071152 -0.3137355090830054 -1.175339623633741 0.3941052420982544 
0.4450047538919901 1.129530930361650 -0.9001527728173909 1.453431210120699 -0.03504215124851048 -0.1056100141981866 -0.1882736654203504 -1.699348183842817 -0.1164671283229392 -0.7776757527126100 -0.4288107564410892 -0.8116962461085606 2.031267159104004 0.08195396989776436 -0.6901061069014146 -1.213756349330698 1.825751103968458 
-2.191143751748029 0.9647672368804933 -1.021806332196453 -0.4281570070851208 -2.573226253893527 1.191955195129714 0.3992201603453325 1.641540316036177 0.3943033013954024 0.7087260433242453 0.4950879308396071 0.6042217003371207 -0.5690667354827789 0.008863584583890324 0.001294168347236013 1.135006360299568 -0.7615859171129075 
0.8405122099549351 1.177703665243284 -1.220466530605820 -0.2625448182836432 -1.708575994897060 0.1084507871038223 -0.2409665497063598 -0.2128747769135696 -0.3033410670960263 -0.5394840835611920 1.882316051458512 0.3889922801236444 -1.803855587185097 -0.03357471571345714 0.7152875355809770 0.2217509533433562 0.9906706411536871 
-0.1319582549044330 -0.4295530207937672 -0.02540248420914798 -0.5622381837356909 -1.739447387377352 -1.175734512348402 0.3169446564186349 3.341560340531720 0.2577082975959962 -0.4484410030439741 -2.484561523772064 -0.2925662845871956 0.7049532456167384 0.5141597137243383 0.6586947094445010 1.116835151038129 0.3790465404019531 
-0.6045490796643823 -0.9386609239273251 -1.257425783539464 1.686328110260956 -2.789027220749206 -0.1527366258745131 -0.2044258663566446 2.895956359099190 -0.05950850971076904 0.4478958676433624 -0.01919625381554274 -0.6262250205981263 1.662623703867807 -0.1298380855459453 0.9525690922599591 0.3222370487380146 -1.186016812087340 
0.3465091719290027 -1.420160384873004 -0.1552483234377994 1.264613059994714 0.5970665436915479 -0.2981730790266799 -0.06962528050972838 -1.048660131987926 0.5439922084857937 -0.3086223119628571 1.053926206308541 0.6766810580856691 -0.03495868772275295 -0.2004759417565271 0.4997268492660283 -0.2928114613306890 -1.153779495153325 
-0.5903658440398333 1.952585071244970 -0.2762147870581024 -0.4385907500847880 -0.08622840186292130 -0.9601723849559727 -0.3586302252735402 -1.472560230143187 1.268825604395597 -0.4374659274991242 -0.1359917967522579 0.5428865177488665 0.9265562238728187 0.4562135022219448 -0.6834709558678792 -0.8047940612273935 1.097418445280776 
-0.1895544553636443 -2.783957099895233 0.7689742866991987 -0.09355104514797603 1.898902534666822 1.091735350597526 1.228091578445472 0.2715721690219395 -0.3179400196276773 -0.3571978721292233 -1.738964901612872 0.4775304785574965 0.2561355413755247 0.1471903363022573 0.08321310967310672 -0.4930220815555262 -0.2491579100071261 
1.074559315078609 0.7265817475135953 -0.8307565550262219 0.4239907968780649 0.2749260209037217 0.3629245519130048 -0.4160293789646623 -0.5018138528377969 0.6769657216621842 0.2020839821745460 -2.302862087504355 -0.06160114153499712 0.3365445898905287 -0.6467799142560126 -0.1432594470924765 1.197507908512767 -0.3729822573105242 
0.2311254978360046 -1.732504260285954 0.7249341662794199 -0.6814706842152397 1.056787755716210 0.3264437504182279 -0.6140551977602351 1.168933839804598 0.1986933734998216 -0.003581089433499742 -1.412345995069760 0.4077634532764315 0.5204035151211387 -0.4885556413657340 -0.5077798853330171 0.3978162699165755 0.4073911315950311 
-0.9238167504519033 -0.2396054529088649 1.286220460444676 0.07275029378613100 -1.387345146087491 -0.01638675804441261 0.3187676558108574 -0.1350540740391525 0.3508039131390832 -0.07371256918905873 0.4387336611825666 -1.068937046542085 1.294759663535527 0.08337617374137099 -0.7055682293124027 1.479445704288888 -0.7744314993537400 
0.3694442758376456 -0.9215124871885190 0.2463758463632999 -0.2854155202556712 -0.7749665164281072 -0.4350564135893233 0.4765436776356400 2.435834255591648 -0.5112096168843480 0.2963557156682157 -0.03157971702424123 0.6768987108838006 -1.680619457126554 -0.8608335745115238 -0.7898715127184477 2.050572338955042 -0.2609600052086292 
-0.02621522985543042 -0.3001464687702787 -0.2750084903513009 0.6012286948371924 0.2933601419975381 0.5356229327584927 0.6856504073943298 -2.533188493557184 0.3648897353216937 0.03731032070271421 0.5924424873466165 -0.2246243295537551 -0.01140782512885087 0.8208350915735975 0.1641066625338955 -0.8467658477041757 0.1219102104548747 
-0.1947550113392278 3.509035548276830 -1.535063842485231 1.108973418408890 -1.071399860849727 -0.2235295869653205 0.5272899444209275 0.8503461783768956 -0.6576991068990851 -0.2680448078322045 -0.3677715743129004 -0.9559044138169697 -0.9284817921888977 -0.03489700301656606 -0.7099327033921417 0.6710619049648990 0.2807727086497905 
-0.6123419829476466 -0.08673869499151331 0.4895483487731168 1.560692650950344 2.388931508815752 0.1351132226919650 -1.069293699097820 -0.7512123405800066 0.3601130277084159 -0.4600490873318132 0.3960433450873023 -0.5342243158443343 0.07418010060350985 0.1543452205976973 0.2966407846402878 -0.4350518575534622 -1.906696231521735 
-0.5552765951414160 -1.281764629494634 -0.4927402506202351 -0.02384943111178639 -0.6379149657451280 0.5069926096523758 0.2031819992618456 -0.7971686524712411 0.3163089355866348 0.4259231239358342 1.833596890370896 0.5055881308662650 -0.6426712421191682 0.04167285753391178 0.1495976192892795 1.398981821867706 -0.9504582216611493 
0.2570333295381276 0.3643240889989824 0.4421577152946712 1.464034664339767 0.2370330181446574 -0.08575449517169975 -0.3248802266149204 0.2273572319387316 0.2312276905201766 0.6243858630878442 0.2154850717062325 0.1963499788966789 -1.787173556871825 -0.2728571298881731 -0.2036929596355546 -0.4430196184716597 -1.142010665812011 
0.01534636137804336 -0.9584548048657524 0.2415535770288159 1.293636306737740 1.474970684181553 0.3771393229644691 -0.01965973287485073 1.553378129879619 0.3853495064445361 0.6373470876012868 -3.229543216332603 0.4334575104625286 0.1099557764274838 -0.4334328056589194 0.5610713115765519 -1.310592385653074 -1.131522629297461 
-1.777507863455506 1.335760332184041 0.7917145933109576 -2.101311135296827 -0.04969422865704761 0.2464216521516534 0.3605158344073690 1.276880222130716 -0.1713044886632229 0.3537333770155673 2.319265923527001 -0.2791272413411344 1.065213393456455 0.6384060593287425 -0.6013744379038085 -1.937126981777445 -1.470465010417525 
-2.834518253128229 -0.2654598644605518 -0.3613554373993850 -0.4839011491953019 0.6617106268692551 0.5306841911515869 0.04652091314090657 -1.721576989026588 0.6965970418206048 0.7310891024195006 2.278734802472645 -1.585527279178155 -0.5181655512091446 0.3695689123810625 1.693390557748833 0.08879405016823987 0.6734143254247594 
1.280441422674871 2.061594512798169 -1.223953604129514 -0.5892884250074194 -0.2106204565801526 0.1185586830609260 -0.6126217785774547 0.002268923864655670 -0.07440925883244778 -1.007289619693998 -0.1101834408416159 0.1885086680111164 -0.7340315568127742 0.5360808398213255 -0.2044513623479549 0.9561572780671976 -0.3767608254748869 
0.7287840462300054 -1.232580107083536 1.112725192719265 0.4119635934361158 2.826968322534051 -0.06639024470636293 -0.7711004583720755 0.3777359321615030 -1.076270960920118 0.03791807318595306 -0.5225007203673939 0.1059422672917171 -1.004577366339366 0.1000873452154919 0.9848357168592481 -1.533723860633609 -0.4798167712109106 
1.131317207589398 0.3049408544474236 1.173227908253234 -2.367377884736051 -0.06597019529472381 -0.6354231810757134 0.5443951607459231 0.1340182519737594 0.3017164490997502 -0.4201450156264214 -0.1151857066576044 -0.4175598444626400 1.118532169028830 -0.5693770214544374 0.9954037441166160 -0.2665346188901883 -0.8459782770571568 
-1.166095013634589 2.984153111466098 2.458795398012796 0.02885160391069964 -0.2150413664753086 -1.252775720846525 0.3859720564622792 -3.016783016329020 0.2955315136242454 0.1311715598315823 -0.08921072933888721 -0.9067562242404903 0.2729756553551361 -0.2173225076406493 0.8774141401264525 -0.5095264553070069 -0.06135400497675903 
0.6931786986254305 0.2647908314671942 1.803637260983273 0.6782766196525681 -1.642245531431067 0.5118594499833847 0.06216467014330945 -1.471750052778462 -1.070160639157418 -0.3772206913254627 -2.186722092868366 1.172162998573731 0.1851393741610669 0.07759855882787128 0.7561382380970647 -0.08311386544523285 0.6262661724910620 
-0.3029962284985425 -0.5269987178114743 0.1566759001355179 -1.425535355566978 1.434608220456779 0.5088743723562368 -0.3266620780040965 0.09467128695702717 0.1084371545060599 -0.03940934387355714 -0.6793496514165752 1.283066560412015 1.036384031750960 0.04743677847712424 0.5586199612551324 -0.6383967475274920 -1.289426143608147 
1.278555189053493 -0.7961208017102422 0.7250369205651236 0.7300223334590984 1.023473125593721 -0.7341430702033617 0.07111417632845318 0.6820233092195632 -0.4837795023150899 -0.9424194212690177 -1.097017098845702 0.4519036357126861 0.6317248105184591 -0.08674941410326847 -0.2526931625035471 0.3086336695198826 -1.509564699020265 
-2.025538488589111 -1.459496777710252 1.154963452296798 -0.6014965481239375 0.6795078492284906 -0.2457392424365977 0.03133165885089113 -3.472936009153977 0.3747139468762144 0.5952127114458227 2.024331019059247 1.402492518718728 -0.3120801966404973 -0.4544372192460874 1.831908077206557 -0.05059033299138757 0.5278535812091846 
-0.4899711228553326 0.9190492303315205 0.9454620016134615 0.5166457792383161 0.3350644667740344 -0.3879005147404027 -0.5239810207418591 0.3894388979436720 0.5301453729914282 0.07772900420999128 -0.01038631301856406 0.9292237707336095 -0.2567848948866247 -0.5765989983773175 -1.296598496669379 -1.004918021715820 -0.09561914083073321 
-1.008588280871673 -0.9850046768201890 -1.248378145480780 -0.3131340113498163 1.920996712779987 -0.4112324421737395 0.5559977713768702 1.838371574933934 -0.2130053497232722 0.4882004201954785 0.8982233313454175 -0.1290997197806186 0.7377613857875184 -0.8065013031540484 -0.3797908034301564 -0.7628605896222691 -0.1819558740126567 
-1.112889494094606 -0.9563863248374505 0.4790780797373627 0.8871771290754973 0.5731543665198913 -0.5528709766677906 -0.2968411540921607 -2.304072988480902 -1.141575657796396 0.1451166473019912 3.124774166206853 0.3905623731584491 0.6082219247997142 0.2134774622416996 -0.1264296641320668 -0.9050324527416390 0.9745365638014991 
0.2549794032780215 -1.799272470843943 -0.7738638204802950 -1.168024797599644 2.671914949896528 -0.5332770032446879 -0.2056241354448688 -1.636953922997219 -0.2251348134874881 0.2154990204897202 0.6455366012381546 1.038611652390321 0.3762558432095849 0.4943958562870661 0.1301042228066070 1.005894429341208 -0.4910410148391320 
1.220509827592097 0.07191730332149440 1.320782023163574 -1.538553404383381 0.6344511458246785 -0.4465471915671680 -0.1326320402085049 -0.4209178437627287 0.8966773633498377 -0.2030173075447751 0.02058761256041111 -0.2938903705702829 1.581569190080781 -0.3408969331287091 -2.094169000735306 -1.407458250197309 1.131587876205279 
0.2898921869871614 3.017240318321568 0.2949018163601594 -0.8041607859472933 1.743465864379650 -0.1482124243791916 0.1146264638417375 -2.942311197392594 0.01889200730487330 -0.4079988175046049 -0.3085430264529985 -0.5083368273508426 0.05411262226826188 -1.035278967237177 0.4744667731722350 0.06707866347623684 0.08016533015275067 
-1.211740083756607 0.6251887428432920 1.259744692371638 -0.6193974748342403 -1.409773674883158 -0.1292241146977913 -0.2972759873153078 2.576472707057194 -0.008231532248043405 0.1541021095555641 -0.3004305258823496 -0.5872538905475546 0.1776412406295669 -0.4136252986537327 0.8350486319142550 -1.257419408256680 0.6061738667039542 
0.05696929803982598 2.293826306614975 -1.456997755921560 0.1502866990245819 -0.8732834997583696 -0.1978752682379282 -0.1630431742963900 -0.07746088423640941 0.2189454661854200 0.1953043056894022 -0.1131837586335480 0.5094983339156426 0.1571055893866521 -0.4775558674715006 0.6276367044926481 -0.6276629546010695 -0.2225095401923792 
-0.2569710568011184 -0.01217079218270217 -0.5828318164638960 0.6498771110481668 0.7642059768138780 0.6782189141038180 -0.1973619362579613 -0.3352215709783945 0.4102935285670848 -0.08378030878324529 1.397186524848530 -0.7341199248784517 -0.1695152330764211 -0.9382162916230020 -0.6554933803851105 0.7885888727257340 -0.7226886166768945 
-0.3100334391360820 -1.349328237928495 -0.1143800743975381 -1.123611756343073 1.437752807087820 0.7931607156305515 0.3059280037696013 -4.178857455488508 -0.3843813253554115 -0.2202249955670089 2.938188139801849 0.9905289586333060 -0.2650938820747465 0.8548635338792526 -0.1470026889186865 0.8598823071339540 -0.08739061072671966 
-0.06707327208463361 1.211097355534704 -0.6673398650165235 0.5181991491362911 1.962832375069172 -0.8657393075324392 0.3721145391084227 -1.131222492609554 0.1530951641200912 -0.2214656936394955 -0.8318094298713000 0.9811540742204445 0.9487348838984296 0.3060999978243491 0.04280849982680090 -1.419248016875452 -1.292237961109293 
-1.445882604687131 2.704265714989721 0.09556344382449017 -2.203345598662078 0.4217294362342915 0.5609318242445823 0.1019018865839037 -0.3530864491413631 -0.2548644016383048 -0.08571699151416916 -1.477059324490214 0.1056779812097164 0.6379854707712087 0.4156367622154894 0.6376557320150354 -0.08864086533567571 0.2272479833805427 
-0.8706311572579302 0.2030983262718201 0.7586512963495355 -0.2740076249532475 -0.009921709973650519 -0.7171943622714041 0.2888185602796937 -1.289474657380892 -1.220893342190043 -0.3195528546282214 0.4404659309362074 2.213837585948867 1.405601457944748 -0.6651250583625866 0.4890425048261264 -0.6984508054368049 0.2657359098978022 
-0.2148852107518106 -1.859178715844730 -0.2906155832761710 1.794873274125617 -0.6775756588316677 0.1306956513913731 0.07890712786890655 0.8887250026811301 -0.6118298965422350 -0.03605165971476305 2.569229744122478 -0.6512069027727827 -1.086467515878598 -0.2629314717457833 -0.7310204554510656 1.514083722824711 -0.5547514522045546 
0.8204956040999511 -2.963662958552639 0.2350415535779466 -0.5711866385925214 0.1753207360631974 -0.6460297479312016 -0.1284933492739798 2.185202351315112 0.9142924437223683 0.3396135974521794 0.6263949182147739 0.8238786138075109 -0.8856726455268009 0.01417752125826094 0.4540642228880422 -1.299600944525543 -0.09383527799663700 
-0.8959823621791373 1.197403685950857 0.1389744480546649 -1.258958506870600 1.735374358848814 0.04536060617033894 -0.04946095230775287 -0.2241009546896900 0.03762025235646537 -0.1649615440585618 -0.2221460864099660 -2.243389462377964 -0.7588635815751765 0.4993554298519801 -0.1800898383084336 1.160680139584798 1.183184367959406 
-1.033183837460815 2.328534197864860 -0.8825552560550398 -0.1115445991374599 -0.8096827410575366 -0.03729211606317742 0.1063869115437436 2.667370684301714 0.8756338124452911 -0.04925047383028085 -2.299379886496387 -0.08226719807805061 -0.2932178431512148 0.1433851592483945 -0.5980011542412943 0.3878370236330306 -0.3127726834657891 
-1.445420845443300 0.9024724358762097 0.6904617862586362 -0.7907410921445074 1.142128798682289 0.1299032924813267 -0.6398508011509014 2.214091313657105 -0.2980163345957207 0.2883307096774801 -1.296050562505324 -0.6605813939381586 -0.3756061502604464 0.3013754427624081 -0.01104203874210394 0.2836369095211000 -0.4350914701360594 
-0.6575452969989133 0.3308584983742172 -0.7783319044044825 0.1236590106154706 -2.302281969645326 0.4940054586385543 0.3262747891708661 -0.1869408607253320 -0.9878159591707218 -0.2644053838435891 2.266680290035193 0.3916214359017612 -0.2578614886774702 0.3453877308716789 -0.006660726746372859 0.4951890727023556 0.6681673039021314 
-0.2724827772551571 1.602133436679885 0.4679996294890323 -1.174765067495781 0.2101775198212048 0.4218373980186400 -0.07880940075835301 1.073563087699675 -1.107633217039514 -0.04751013518749103 -0.1626360302662469 -0.1065784313287675 1.176193853956591 0.002477358361642980 -1.189716283384244 -0.6390748067508574 -0.1751761345602392 
0.01895384063036050 -1.543993944173389 -2.886572817271708 1.914675743189513 -1.443384232408258 -0.1196169962397685 -0.2015161391569270 2.058077090973397 0.6730485105639872 0.2889556340084343 1.570364842092272 0.08357087081058212 0.07638564697382824 -0.2992555445838331 -0.9810636343777757 0.8642510437730687 -0.07287991480376078 
-2.429123661697985 -0.1882154715336730 -0.2143137742313560 -0.7465615946571910 1.685172679314887 0.03190916102184766 -0.7981684831159169 -0.8659327938806813 0.1630290786631580 -0.004039821342495259 1.894380711690588 0.3021399798351274 0.2226726208115157 -0.2130821376868802 -0.1308704347245102 0.8658160471542423 0.4251878943792848 
1.725260412037465 -0.02085191370277044 -1.451121013911399 1.019523870417385 -2.750067995402707 0.4748403010408102 0.2572951844335639 0.2875602679151799 -0.8195812812796122 -0.009968210229659140 0.1523170262941895 -1.392864146240521 0.7585319801036045 0.2865198876569662 0.1403040698846614 1.129095534758277 0.2132060262245341 
0.4224591685168820 -1.412235114975445 0.1811332878895788 -1.312117302433612 0.4275688678187224 0.1002541358881831 -0.09259189606965444 0.02857347863641911 0.1702635225356808 0.05914736240164507 1.004295134623988 0.4007659135714449 1.486943421777101 -0.3209441884980790 -0.8071080598678045 -0.06336968651915749 -0.2730380452959187 
-0.3703689398744344 1.918369945514507 -1.876828088396186 0.8571813300928124 1.005449751121548 1.456363008855815 0.2605263810152144 -3.033138153696705 0.4133735286694510 0.3019658781701349 0.3208127997409898 -1.591239152224489 -0.6263252448948773 -0.1180524950695453 0.3608303663079711 0.1777081887863108 0.5433708958814365 
-0.3501631273632829 -2.087893145873367 -0.3813393267053636 0.1187079974735940 -0.2918909529888473 0.3839023005060627 -0.006488258236224359 0.5931762967503768 0.4517706613032086 0.03157256779175473 0.3774031074272968 -1.853871117628805 -0.1266474107992045 0.6013423162614077 0.8899612289225133 1.903455890859231 -0.2529990277003174 
0.7248731504501842 -1.553739983159640 1.200551846571867 0.2897074649647337 0.1288066275044137 -0.1948008525928507 0.3017026120038864 -0.05913392550181798 -0.02423603662867022 0.2838854102398910 0.07717181384182915 -1.200762743116663 -0.7242521260661464 -0.2627984438400368 0.2127497111261233 -0.2474234038900616 1.047698878093001 
-1.273403745098720 2.156468763480623 0.4504036184609991 0.06408108981379426 1.986632670734150 -1.011285238420125 -0.1620899159349309 -0.2621954480013208 -0.8223071957247299 -0.1760505727118868 1.233918462929219 -1.646680613782637 -0.7803238018242590 -0.1534283656328959 0.7799149721985136 0.1060884323047837 -0.4897431127905829 
0.2433807818666413 -2.633611896214260 0.2882828617807673 -1.900641674209907 1.796247469003533 -0.7244937706282768 -0.1048472209700961 4.390015468951480 0.8451321872418505 0.06435785265098078 -0.8313358781159846 -1.678327587290860 0.1419854709674031 0.009981499186243557 -0.2128241495480981 0.4125508469005425 -0.1058522615719729 
0.5722872864704708 -0.5520898870661506 0.4288028253907849 -0.8789193667452618 -1.433283279301089 0.3746518348193156 -0.09475637653795511 2.158806025975964 0.3348311080861862 0.1200334940001796 0.5826742854517980 0.3908480422832020 -1.174504382442145 -0.4716847364943194 0.8203482851947127 -0.7701823717427437 -0.4078627873429779 
-1.269891505363328 -0.3877668507231494 2.420749101983790 0.01725345815633592 0.09967813609583470 0.4019698669772701 0.1321482343832154 1.173862756476636 -1.174631547693326 -0.1084801185712168 0.3780005006251830 -0.4209361011608535 -0.4815065650065909 0.5444065931373573 0.3470188148583974 -2.170471177652335 0.4985964034767818 
-0.5415342836459488 1.785788126089662 -0.8411584296882976 -0.09110019462965507 0.6077909626420236 -1.257864969727860 -0.1885208524144235 -0.5360121156924877 0.4787961232038481 0.7214260959748022 0.8865878255687513 -1.813908306554538 -0.2766822949474794 -0.02825200579096689 0.3832591982355351 0.4718320596004434 0.2395530617765947 
0.05177831414954885 0.3671906090325496 1.134699742293971 -0.1847320705177846 -1.710259531477052 0.8593145645856018 0.9168619188942954 -2.214996552213220 -0.8303130722118933 0.4997990033887769 -0.9729948699019919 0.1729704385868604 -1.007557113483290 0.04645120921404388 1.170654502750228 2.182499979430078 -0.4813670725207264 
2.214695884678169 -4.783911957124131 1.116803069745612 0.8416654072651388 0.3500631095663154 -0.1849836178672882 0.07964160580783994 -0.5696796179437019 -0.1808313130941401 0.4813822278069918 -1.463952786833990 -0.5240543464482188 -0.2470211528648952 0.7161404593588826 0.7310967971025651 0.2055493935661514 1.217396837278773 
2.279976706340033 -0.5320898983879586 0.4241672534538162 1.490751732792523 -1.095506888485609 -0.3344342951416606 0.8343922793748186 1.466549602615430 0.1691005852808370 0.2978812877220977 -1.802914444394056 -0.5546971249117917 -1.456149169625195 -0.4955265537944945 -1.126629211136020 0.2877651257155070 0.1473630125817362 
1.565654853809279 0.8010166524930203 -0.1306821715625454 -0.2679443574999442 -1.094921364280634 -0.5785974020837432 -0.7183133395633705 -0.8368780822412791 -0.6196414626590988 0.3244037812837046 1.874123293803047 -0.3423600914423471 -0.3742201429931721 0.2041840060382578 -0.2927815660073714 0.3111883270051666 0.1757690659010443 
-0.4782324005751136 2.185720348190382 0.6157218733469320 -0.4024020906746994 0.3644765678695545 1.185139767792785 -0.6023074494279197 -0.5576571212034572 -0.1483389466310414 -0.1314700993490151 -0.1700614027632885 -1.142832235623812 0.4475599709805540 -0.5038969077240328 -0.4326928654025904 -0.2147797969999587 -0.01394721180528821 
-1.132974921205499 1.097074334182439 -1.395443357365526 -1.371944470482015 -0.3849066730441877 0.4398590306483272 -0.07888171974342240 1.488503526486320 0.4226217875723861 -0.3102840452850834 -0.2184210477647239 -0.08435094067452502 -0.08051397071763566 0.8208354427578584 0.7265682496617855 -0.5199251533436839 0.5821839283171671 
0.3352359552471350 -1.587075234344169 -1.429504254289420 0.6824571217993808 0.3032961921439646 -0.1564101196391427 -0.3999266243134691 0.8184400597307336 0.05246022049733297 -0.8871188112836206 2.170300914755159 0.3406375305415813 -0.06377531677910744 0.4960108935856456 -0.3474674155947937 0.3819609216631282 -0.7095220337203211 
0.7728064393703220 3.666590943034762 -0.2477755146825050 -2.236529195361015 -0.8265082504126268 0.4518127020741699 -0.3362803913059102 -1.691756546143077 0.1500633649180062 0.1144592406956103 -1.009188256735337 0.6087825660803526 0.3093040516508714 -0.009975279653323867 0.6076626233367775 -1.293477689460411 0.9700091925933395 
1.566272207464715 0.7866519551877443 -1.514615102050116 0.4490299134286144 -0.5290719163579041 0.05595665135895933 -0.5171813535686607 -1.470418508319200 -0.6518926052262801 0.5184998368846222 0.4417554439837824 -1.480240943084983 0.7360676503587126 0.1308000166282732 1.538770585706202 -0.7763290907772507 0.7159452583827576 
-1.127680810922381 -2.741494137804363 -0.1702701397950975 0.3688817438491188 0.2659524172549980 0.06570432067330251 0.2164346680847375 -0.09922195859235249 0.03872673432728892 -0.6126209389413685 1.311576836501462 0.8917020737631052 -0.5080700398360003 -0.04924575470666485 0.6953747460696366 0.8972584435337717 0.5569917965407585 
-1.836495363907704 -0.07226742998139850 0.1614470082870456 0.6499941746897410 0.6437406296806448 -0.1725376038198883 -0.2248612795645350 -0.9049166833156598 1.242715718845149 -0.01183137447304739 -0.5168518148248124 0.4312417919003731 0.1525048547286692 -0.1110786829198217 -0.1960511583481559 1.568481195890995 -0.8032339828676040 
0.5932036440856385 0.4698850131789409 -0.3004005061882991 0.4621958640620120 -0.1593983204088985 -0.03316048836801725 -0.007401003435667489 -1.128201764916744 -1.139657877231872 0.2255898759033626 0.7077663831655369 0.6296517076138894 -0.9902535913912213 0.2243058042004131 -0.5499262868585792 0.2246182700895815 0.7711832764999133 
0.8269668615701505 -0.7594553931726411 -1.303156709009314 0.5725885476098566 0.6699171699692459 -0.3033458329417417 0.09476457856094911 1.438959584906700 0.5911278674384622 0.06746920370402494 -0.7631252698362238 -0.5596561627308962 1.152390009120588 -0.1788616798306763 -0.08383482486869780 -1.152443357130533 -0.3103045933592589 
0.2770730517427694 -0.4564437726992789 -0.2243410873374066 -1.426326936020038 0.4786076275520760 1.001408196394213 -0.02329558500783908 2.277923226415871 -1.219291512828601 0.2723061299495147 -0.4790554614670338 -0.3362100149453351 1.066954615976350 -1.232593078082301 0.7361101043980060 -0.2319691963286169 -0.4808563077123418 
1.287271239319447 -1.061942983496209 2.136283302352080 1.492820315083281 -3.799726515015743 0.9321716573998137 0.07312346340599332 -0.4139819062039309 0.1126627122139264 0.1703590322815575 0.7737797063318232 -1.142547821462613 -0.4222571546503965 0.8062988208941261 -0.7385563674326929 -0.1936399997836246 -0.01211750123685716 
0.6024640584083538 0.5929159373834906 -1.024770416473590 -0.6646070535407863 1.498972369476200 -0.1366125558710521 -0.4738008444749101 0.2480666217983042 0.3734152510512104 0.5105828380801342 -0.4692706991355940 0.3092784115027888 -0.9085014877827895 -0.5484700176513815 0.5399653400933322 -1.009531877457881 0.5599041245941920 
-0.4329157901356369 1.278053768997220 1.167226522513099 1.058020097125981 -0.5006591965291088 -0.2361292836449480 0.4621219586482936 0.2392400035285185 1.330800905383599 -0.4764514821295791 -0.8526999030771737 -0.5497870089756611 0.4660923434474476 -0.8463275878727986 0.1824397656873168 -0.02672768279825750 -2.262297430168323 
-1.735258518126293 -2.173691926764144 0.2854729264339201 -0.8671372406748631 -0.5740728045744828 -1.155066567404044 -0.07421628242068729 0.5053323897810521 -0.05227923004044047 0.2790022198834917 1.854575519686180 1.145237643270248 -0.8211258295453110 0.1471157880927082 -0.1029232780312124 0.6216787234526997 2.717356466981184 
-0.1132390735175823 -0.09353171763753410 -0.7646001426183519 0.4320360802514372 0.5513571456651444 -0.05697416082036574 0.6738362961004087 -0.1847445018080262 -1.304470438162443 -0.1908637645653570 0.1237975980947500 0.7024800373449716 -0.7908977420504245 0.4988119183748052 0.02730733317028910 0.6140511614635610 -0.1243560292852781 
-0.6350429344280963 1.098353642514566 -0.2698728129790943 0.3317636921417610 -0.9335266944338722 0.5847629345854006 0.7063745306859652 -1.208286327952100 0.4109255947364887 -0.5920233541193286 0.01519068439160578 0.1602508882758919 -0.3640751094591557 0.2490644272674386 0.6639201478642717 -0.5485473481657250 0.3307680390740020 
0.9879189971535997 1.124664144826397 0.4222595703198063 -0.3205884928321185 0.3120889435630289 0.2712986023475100 0.1572462199522984 -0.7577795592250913 -0.7772552339651747 -0.02925035160514893 -0.03865476432469334 -0.7559467963557130 -0.5486873792825455 -0.2530137128962279 -0.4715859330904891 1.048414925153772 -0.3711291797392102 
0.5756442965825721 -0.2974134312748075 0.8641311763024989 -0.3974137559398494 -0.8806091817526882 0.9217437512723454 0.008537794100721868 -0.8017265548748617 1.831082225400303 -0.2564280891576125 0.4573214324852039 -1.454966857006972 -2.780510900264461 0.09449782873873645 1.551908094188617 0.6992469142457436 -0.1350447430454582 
-0.4395836783802064 -1.710885571995539 0.9997674631540711 3.324780370820021 1.401082341093092 0.8810908310848472 0.2307152390018425 -0.7495318071461634 -0.1809456832753880 -0.2818513163918893 0.6471253532563533 -1.363976884268044 -0.9760127302220118 -0.2095675128061308 0.1907173820451556 -0.8017692787997384 -0.9611545171702031 
-0.07756518010169763 0.04643393228816462 -0.3205580451014545 -0.01986376733709951 -1.836290739721436 0.2483667353284512 -0.3669743005154106 -0.4806186773529270 0.6528656876380015 -0.01922863514859433 -0.01947592592601344 0.3763056673724085 1.265788065621039 -0.2027734976155515 0.1417726549855837 -0.5247277794204324 1.136543805006951 
-0.4900630282957296 0.8624416734219529 -0.09160085882623910 -0.4272537081654187 0.3666899867040841 0.2612480364136158 -0.5719613480247316 0.03000366023547578 0.3223580266808652 0.1342227559391190 0.9418897309421844 0.2352080762025531 -0.3366814018914944 0.2000571315433214 -0.5310356323388368 -1.392025349554663 0.4865022490139103 
0.8087094059792777 -5.102810717833275 0.3388767372318849 -1.025761858125578 -0.9216864481905241 -1.077582926133827 0.6755607519316235 1.691113935368367 0.5340486089606068 0.5809861290603324 -0.8927193141239278 1.123838696324923 0.8542903513300271 0.4351960081776855 0.7133593870721169 1.676848685917192 -0.4122674329468684 
0.5358072776051727 -1.121394245270866 -0.03282857966692524 -0.5487211557571199 1.413506319061813 0.06539375424786537 -0.4921201371866765 -0.7431744764431002 0.4722211718573554 0.9536373430968681 1.288696228882473 -0.6101284580697853 0.2895043038024431 -0.01824069022972608 -1.242746842382476 0.8954653876621917 -1.104877201209518 
1.694843017679818 2.452050822776785 -0.6196265784712388 -0.7936257804776969 -0.5484480228340496 -0.5882993804861525 0.6558665158142024 0.04555684134760954 -0.4268960728450186 0.1685471079151064 0.5782626786310764 -1.932221834570779 -0.8470867524414304 0.4122042167887016 0.4951878069748744 0.09188717466388892 -0.8382017604657157 
1.791197861096487 -0.8631926746537709 -0.6700307242677006 0.7743878042476904 1.519360055132438 0.05068248751804400 -0.2440743906592853 -1.593713053904723 0.8438700589889601 0.4327847562638828 -2.066565147628202 -0.8489344486934859 1.170806655946965 -0.6305923537942199 -1.190708251314791 0.7400262437307751 0.7846951219909011 
1.640862870941826 1.945712541479085 -1.167499751427946 -0.5112169026037233 -0.7635345799160573 0.8501903289338438 -0.5427697841664784 -1.196750833925945 -0.2952643776950463 0.1757285497879700 -0.1850569551305830 -0.03484783137484968 0.2234082816839311 0.07389147824743560 0.07920410832782972 0.2466766173721770 -0.5387337605334479 
-1.518771580450336 -0.9183221799469138 1.136260789431149 -0.5774403445959121 1.994228242938903 -1.429059980827106 -0.08195117124890292 -0.7771964670670429 0.3327887930180024 -0.1600375902152624 1.699329748991990 -0.5956011559718069 -0.9644394160259425 0.06046812665750784 0.7651355899516202 0.5144142756622939 0.5201943196977691 
0.1399414230333920 -0.1308873534499043 0.4963262527315701 0.3087772807332939 -0.2690273752684611 -0.3118868933050344 0.8774882727729417 -0.6961732342244048 -0.2609887536735376 0.2715722269851720 0.1385213619327073 -0.3187462657916299 -0.5615872050139129 0.3817527875847864 -0.4288915122351569 -0.1998797139649413 0.5636887011531360 
1.843508911101564 0.1716281635641163 -0.4734274999909094 0.5410593862688164 0.8955229791912446 0.3800537312938629 -0.3495457664175291 1.592968425111816 -0.3251802407052318 0.2175568410747716 -1.484638232616582 -0.09430536120848325 -0.5460633031737041 -0.1586825997409177 -1.181934618797804 -0.9666785007258134 -0.06184231422920530 
0.5743184954102183 1.034889374410961 0.05295949890859774 -1.559466774396614 0.2048170002548689 -0.8369612270842992 -0.2940264978997139 -1.026775520184481 0.5958203518880332 -0.04125131770409277 -1.758170215308232 0.7887730815505534 -0.3000481991716388 0.2313942099986314 0.3542720027597847 1.319002618270916 0.6604531182965276 
-0.4401328707614272 -0.7683376453270429 -0.06295897016574842 0.2839082384228558 -0.04776841995259423 0.2241594178941550 0.3054416377698243 0.04272565350519563 0.2780328839999731 0.1161970235888410 -0.2475490676641131 -0.1445323878985439 1.896940185101651 -0.4597958641372075 0.03258504019027581 -1.055536620366695 0.04662176580060391 
-1.970059917303629 -0.4005482550727009 -2.183024373616978 0.5075608757670542 0.1730467184105279 -1.628005319670208 -0.2933168006127655 0.3478642807362229 0.1797134187809255 0.5236433490527360 4.237890040678903 0.5678632182743446 -0.7235245614313981 0.5847366959028697 -0.1385260150619855 -0.1113675522427957 0.3260541974088817 
0.2596822751522575 0.7203637151877408 -0.4014351195203839 0.5727514437429027 2.585098952904193 -0.07107907688939756 0.7573406451592213 -1.424599032318884 -0.2526807276921684 0.2984498523371055 -0.07948529384536374 -1.082865446693311 0.8359493592040927 -0.1806636373714207 -0.1804314370274824 -1.149976327113174 -1.206420145215903 
-0.6636748485033137 1.280863028869939 -2.120758944747131 1.096724126542971 1.795493815692490 0.7114226682469758 -0.7924299921714790 2.526032154263847 -0.2209851881070279 -0.04970208122990889 -1.925778650254831 0.2989465755624579 -0.1110375586964303 -0.5473117631558266 -0.7591604262332987 -0.4742073447954652 -0.04443557128397712 
-0.2531960700737664 -1.590702196912409 -1.018935621205963 0.6266978357638663 -1.922439865772097 1.591819843768442 0.1614639463028252 1.726127825594701 0.7421645981912168 0.1569564983026713 -0.8498237617087457 -0.2294507002868108 -1.235915172520477 0.1827637206759257 0.5280769014822099 0.9828509529801683 0.4015412654182292 
-0.09750644098959037 -0.8863576328779279 0.2003392397815521 0.03831651868653477 -0.6332403964274714 -0.9023615271487934 -0.7109306782732012 2.777006751334713 -0.1323300296975075 0.2889547937268907 0.5643772265868428 -0.8576167430819197 0.1072434604633306 0.2870046976599961 0.1751075322471455 0.2301177475475443 -0.4481245195382014 
-1.298203677193578 -0.5092186810239361 0.4785858869311976 -0.4834840604634292 -1.120273067688341 -0.1660014027396009 -0.1254590062092738 0.5621027470865575 0.8136606243775665 -0.5116021671740801 0.2751030007936122 -0.03810914307104592 2.316548845933090 0.4897558820992569 0.5285202904236109 -0.3225051089941036 -0.8894209630874759 
1.080065456524842 -1.271650875747676 0.1027664980367612 -0.6055670924675702 0.1839716273304040 -1.232608235526859 0.5251365597263024 0.6623053277843974 0.1861861967186715 0.1577881149882397 -0.5699589408877590 0.9165179455021503 -0.2395720222512483 0.1588937113347974 0.01619984877017373 -0.3061933394208224 0.2357192195852043 
1.790972258202533 2.848251535725986 0.6233902001840278 0.2854458975738241 -0.2714260016612283 -0.5065399801593963 -0.6961689884104589 0.6227131754739723 -0.5421990260575236 -0.1945953684715319 -1.765164846644683 1.577509555414217 -2.052280467332973 -0.4126522821655708 -0.3802502023139412 0.01171868483755566 -0.9387241441947607 
-1.538040254653922 1.101911484040061 0.9577386891426400 0.7017241276831344 0.06342498779552766 0.04369645182388349 -0.2355600442644548 -0.9191658927251779 -1.413420744847652 -0.1087294243319454 1.007094691651661 -0.1022364469297121 -0.3480834374423468 -0.8054266457341887 0.01133896976492553 0.9322060416531931 0.6515274473743730 
-0.8628613555183534 -1.512312561053409 0.7371476133479964 -1.095648692698208 1.482503431291692 -0.4101941987056251 0.2793904652644919 -0.3856446577272015 -0.4431338878295222 0.004743980558462188 2.464451137861818 -0.1761171690677191 0.1733381738489286 -0.01082413086015288 -0.2377637853111723 -0.2431565607960783 0.2360821973940500 
-1.587570304572702 -0.4491404963606747 0.7992990199426543 0.4245558896963008 -0.9132193626721591 -0.5607186396379409 -0.007674413242825860 0.4428727923261404 0.3135279312013429 -0.4117042919933527 -0.02590364176121171 -0.2917022965536941 1.040754158441756 -0.1879344579212277 0.4076598383244599 0.002232561596684412 1.004665713186438 
-2.158231234758024 -1.383071241689490 1.439105784204190 -0.7156719791822866 0.5719725658231896 0.7923223392277123 0.1239664633609291 0.9261265144123761 -0.5883997952451787 0.3172762783720600 0.4418468433107309 0.5666231570715950 -0.8938088564604718 0.2733526948822072 -0.5732462402718067 0.9884072155740585 -0.1285705086317950 
0.5735015850583931 -1.773331283110006 0.6130050945164673 0.4179607926413236 1.578828011905828 -0.6747322248363826 0.5530757909242415 -0.6024334028336229 -0.6274809803834245 -0.09146148059632724 -1.469326785950911 2.076355811456572 -0.8691543794903107 -0.4487298677779146 -0.6004250374586411 0.6356496650739457 0.7086986908607928 
0.7127198151381277 1.165442296272683 0.5676108089998051 0.1963459411350265 0.6103195132395848 -0.2784449110009504 -0.9012562363220721 -1.102692786918910 -0.1596482902259059 -0.03093005996195525 -1.847010702688558 -0.7982778172963418 -0.06823534302771216 -0.6872826665078448 0.5437113175531828 0.7905330574680088 1.287096064143875 
0.7962221314334818 0.5674648990026411 -0.02544020340103699 -1.411488406816638 1.048360722887332 0.1363731602336961 -0.7484339299061300 -2.298432172784453 -0.6641281711629742 -0.4769158095089341 1.280022181450248 0.2011515772288685 1.631611282024791 0.0006538031694649974 -0.04753508582379739 0.7984773924113471 -0.7879633704379455 
-0.7161128748652315 1.591769806401120 0.5685432075610237 -0.3583663105728054 1.056473959418355 0.6009880793538738 0.9408511817152553 -3.170622764773511 -0.9918094057183479 -0.6648422021868753 -0.8485668919643968 0.4850793329908658 0.2178393419597439 0.009737603413486666 0.9750503607581273 0.5024618248305484 -0.1984742483212503 
1.466715695087951 -0.6339707823473186 1.129987541912880 0.4542017251142668 -1.786670392872424 -1.064644328504428 0.4747539872800929 -1.219176190048056 -1.120830248009078 -0.2016817812344490 1.470463581459210 1.201826659498579 0.01341965685823891 -0.5150501428402134 0.2420023123981284 0.4153723564122551 -0.3267196501656532 
1.535125476174719 2.688969084374570 -0.3850166004115098 -0.002133978709275594 -1.413138582858882 1.386925631465790 0.4565314477128026 0.1448316746314359 -0.6529819205331737 0.3987245325642330 -2.429497238381074 -0.4779703866991120 -2.238672904975838 -0.3183680145564962 0.02246311661057113 1.139298780476979 0.1449098831142619 
1.692090486588673 1.375885939276061 -1.903009231800158 0.3228596605761571 -0.02235849728188677 -0.1891435404988229 0.2010653773419123 -0.07922822036813569 -0.02427254912390869 0.3384772767668752 -0.002316008243013744 -0.6411060719714010 1.234762547128104 -0.3907894488200916 0.0008058599547889876 -2.568161231953356 0.6544376524282064 
-1.028849080984302 -0.3070798853482819 1.375119678239403 0.2190798956458221 0.5111980282638386 -1.009919353764430 0.03038170069584499 1.724204381519682 0.2250081868765670 0.3834230881315041 -0.2643639259988079 -0.5655986200057900 0.1680342740843676 -0.6889729974099608 -1.719780305766034 -0.1378337819572062 1.085948717777764 
0.5741508524444043 -0.5393213224623908 -0.1150940340621327 2.054110511460418 -1.428469877293461 -0.2495787133103620 0.1524215210707862 -0.03813914226333020 1.014269757640493 0.09403870519426177 -0.5082902387550721 -0.1404386981523602 0.5305480344988280 -0.4064553726859710 -0.4715726663453039 0.6586657538340088 -1.180845070812819 
1.155437284782014 -1.580213694667027 -1.327051923695086 -1.743017398153829 -0.6474496337757656 0.3019938195529252 -0.2862949516866731 2.549794734815815 0.1933295515949106 0.2204362826365721 -0.9921049086743225 0.9620515885799634 0.1001973530278684 0.3553656890829445 0.01037690993998092 -0.5121413875529592 1.239290684192632 
1.413809728286324 -2.047031672600181 0.2528879059390787 1.557554552201906 -0.4941358994290130 0.4591332810340441 -0.1722591068141946 -2.105913199909071 -0.2653415443612008 0.7693195064619852 1.736984472120919 0.4174860103095889 1.141804967788762 0.5612580853119462 -0.2146066697396117 -1.162380374435280 -1.848570042166012 
0.05201322384585036 -1.298009402563316 -1.552615351201344 0.4234101107305934 1.127308750276702 -0.3845620997730549 -0.1991902150642230 -2.252654183809001 -0.2392253657503406 0.2267853967454723 1.288992122746413 0.1989337540867823 -0.02613220310123796 -0.1874041000005751 1.435282603448713 0.2811039494464516 1.105963009936111 
0.9050676504708818 2.752816581371914 -1.196277824472472 -0.7974445261176804 0.03999567622073957 -0.2639181265841187 0.4234846400105681 -0.3175220333913968 0.3448920523660490 0.1430787310860433 -1.019677312697945 -0.3026911534232495 -1.127787417584959 0.2677392080945570 -0.3341780589111322 -0.1091965091245013 0.5916184226866291 
0.8176959638203839 -0.05702384896255947 -0.4810114701251883 -0.03559491831604767 1.570419706090925 -0.6750092445960848 -0.3767048588651917 -2.016069491517130 -0.8087141904773857 -0.07214517675595156 0.04472564364077262 1.324951359550033 0.4957281435781653 -0.3914800588712075 -0.4783707043898219 0.4233184377608356 0.7152847084354574 
-1.823417142907318 2.056883553154824 0.1795148419803778 -0.5399554253751694 0.03865572295753734 -0.4656488273550477 -0.7451426700517048 0.9448014440781326 -0.6748482264242718 -0.8221351384996850 -1.232866204730666 0.3055372130467817 -0.3633617405613740 -0.1357231800170131 1.947807334146920 0.1671663983570620 1.162732048200638 
-0.2462370783416232 0.9816672520038379 -0.1250836025657058 0.7946204915320276 -1.387953445779252 -0.7458835799951290 -0.07328677853414337 0.7789103484684073 0.3340423367755134 -0.3039381547787550 0.7400562750709376 -0.1491209048112042 1.136741679265531 0.2696952330153050 -0.07305394774014727 -1.381991099177027 -0.5491850244085825 
-1.412237572874407 -0.1726546795102056 -0.4435532599903989 -0.7935756158871405 3.238792597437659 0.3034573811024328 0.3586727094826486 -1.098995550656879 -0.01830893554011299 0.3103123540953338 -0.1528041768909503 -0.05082477610551579 -0.04713514426197468 -0.5347642590873941 -0.6268533161543120 0.4292713256646734 0.7112009191765983 
-1.929993198970532 0.8778339674208703 -0.04329878378621502 1.465577627042869 1.390908277936068 -0.3596293252579902 0.5357008784815329 -0.2911935440406759 -0.6490449922295403 -0.5802261796690920 -1.399771211349491 0.6541831195305167 -2.193204021666161 0.7540966443901321 0.5758341153990512 0.7238482333183949 0.4683783934502850 
0.05380478695619125 0.8275903052739720 -0.4981192693197419 -0.4678242224027291 0.8944090252732989 0.2358828729999165 0.2218959765331868 -0.7055437210900370 2.247193550218080 -0.1412317544413681 0.05191276932637191 -0.5849193260007082 -0.8044988999355862 -0.1930814954769467 -0.4698140093884953 0.08127954919623613 -0.7489361377216595 
-0.04518500824358298 -0.5769895870189128 -0.6349790559193014 -0.1252605527717657 0.8329769331305572 0.1973673259263752 -0.5823890944842097 -1.389123232673840 -0.7335784532077400 -0.2110211841060307 3.549500113403166 0.2803787429952118 0.4875344597706037 0.7159084621631588 -1.633584278030349 0.006468823194069403 -0.1380244141274079 
-1.216900683051187 1.255093419179513 0.2652649114883191 -1.422044731155105 -2.910850628966985 0.2655573499405698 -0.2062476044115072 -0.1464994337814934 0.3436258521836167 0.3452881501496813 -0.9072058925712442 0.5016491380309557 1.370303834899165 0.3480297566228651 -0.5087448213015566 1.317299087877077 1.306382294867348 
0.6889485290982255 -1.898691778187736 0.6294841868092700 0.5156049626712634 0.4458900559836758 0.4601844250058857 0.05687298111255218 0.05877735880953493 0.4970336886589807 0.04327589891621963 -0.4783948258689399 0.6426272336486547 -0.6814517309930521 0.2937022806686861 0.6144225355577437 -0.7095484537753280 -1.178737348115621 
-0.5959135964895195 -2.086519433347963 1.607266065642908 1.819274911742208 -0.4423029381080000 -0.5083900094222558 -0.3658075252311734 0.7173251582536697 0.6731130246344990 -0.07446806614515948 -0.6206002383153219 0.6766602400736441 -0.6348776724620033 -0.05420066988501255 -0.06491398257766600 -0.05886975689778618 0.01322448853496129 
-0.6888758450852964 0.9844240014729702 1.002234554127413 -1.094971009331198 0.4075698882355243 -0.4780475605582968 -0.3274916139667701 0.2935671616701100 -0.9785836825622617 -0.5493220226711530 -0.5534406565974466 0.5428039309636901 0.8747529928105784 -0.3104974073713828 0.7808768962514844 -0.2172934275074066 0.3122938001194406 
1.001686209762518 -2.490740889010840 0.9039373358306393 0.8828144859440340 -3.849771161682396 -0.2575693957019160 0.8365403433593326 1.661344081276075 1.060670654185336 -0.8894065388043796 0.5130499477793715 1.625827583700202 -0.4647464056826420 0.4168338716612793 -0.2900302890432276 -0.4126812901442316 -0.2477585434291052 
-0.3145420935246615 -0.9373337726320363 -0.8083016378893500 2.045476785266005 1.167031301140656 0.2282791202093311 -0.5254969939262575 -0.6421144389717960 0.9712176695303184 0.01021540830602135 -0.5800891577388888 0.3718358538945804 0.4418454379018841 -1.016794832189279 0.1618672702344661 -1.247013211662585 0.6739172920515912 
1.166603679744404 -3.349837382010521 1.629127449453774 0.2246038432936163 1.626421014785949 -0.3865434219341552 0.07507881975492911 -1.992666089720496 0.5952852418423452 0.1788723428923529 -0.1203554812416806 1.703850013775781 -0.2164295268321715 -0.7436272847242709 0.2155832183664257 0.004106507565431110 -0.6100729450116346 
0.2277907285920786 -4.504541410296690 1.770938959559767 0.8595040424680875 -1.514166975260752 0.5586238647071482 0.9476013204326389 0.2811338849736507 -0.2852012863968292 0.1505196194271796 -0.1102899933803791 0.9160742899700857 0.2434017244873154 0.1705152322668163 0.2678642747053141 0.1615910194776437 -0.1413592957331195 
