solver_type MCSVM_CS
nr_class 17
label 8 1 0 6 5 13 12 15 16 9 10 3 11 4 7 2 14
nr_feature 199
bias 0.000000000000000
w
0.1130322464618777 0.9409570319235948 -0.2181925258351918 -0.09615931479659370 -0.6932243318453448 -0.4491583928612149 0.008548823954916997 -2.839052116026136 0.1863069350553629 0.6345896633147435 -0.5282269421937860 0.03602731885128284 -0.2432512365496254 0.3219761131967496 -0.01766370026612068 1.717524632318259 1.125965795297248 
-1.489419912777452 0.3528445895562822 0.4790306690081349 -0.1370266844732206 0.9532004364713756 -0.06207638378231223 0.1173861976229517 0.9807538018335236 -0.9366171831357348 -0.07302987180789132 0.1409728567321191 0.2957773847830307 -0.3464601244365881 0.1311756632823572 0.7441493691390216 0.2282146898555452 -1.378875497871159 
-2.024115990998955 0.2024551283251370 0.9642963675069705 1.040526888709612 -0.9097795481604716 0.6171630904476587 0.5298783717178075 2.154186883689753 -0.1130962422302778 -0.3703690039098890 -2.097105340056601 -1.162082873346277 -0.9134257336383012 -0.01299071222525947 0.8728567767641332 0.8094727577966542 0.4121291796083672 
0.5011985569808936 0.9263339265505504 -2.189442882172005 0.4313150336951806 0.5874896072504452 0.5713385113850994 0.1527154220332697 -0.4264930937577564 -0.4560006275784214 0.2416289732872651 0.1388710843911288 -0.1733394470631752 0.5131367375002909 -0.1312393924733053 -0.7239701031160822 -0.3149517657591980 0.3514094588458437 
-0.6570179440218844 2.227046691156804 1.722866225742296 0.7901401591213734 1.156005772632837 -0.04142630673520019 -0.8410631036935373 -0.5190470859570296 0.1242829462750229 -0.1357269819165251 -0.07487899213156436 -0.3465657902419674 -1.152772442155214 0.008064037115965705 -0.01691328661452761 -0.3172522348915133 -1.925741663685399 
0.7943533478278563 -0.3102049743725628 -0.2599921941873267 -0.1846604410135398 0.5531079937286929 -0.9164560372307263 0.1911800773394311 -0.7821331326736903 1.369755197947653 -0.4113786714380172 1.211195708822853 0.3945941088090354 0.1079532252979440 -0.3641175544035085 -1.320033449019949 0.1898870518198310 -0.2630502572539950 
1.215101870910923 1.133119328148541 -0.4196589170678540 -0.3823872734315280 -2.594674187717370 0.6484020520674667 -0.3890251079052002 -0.3487055404721518 0.6686686868093598 -1.128126638459328 1.624538395743548 0.6134134291461696 -0.1249175811939411 -0.009973320032645080 -1.677595812920390 1.584190997521987 -0.4123703811476057 
0.9474385686327249 0.1424676187203661 -1.306668132274063 0.8346598197554959 0.8862369874728199 0.04604185142495169 -0.2026189848738196 -1.240162358086600 -0.5030598343366633 -0.3576771474052561 -0.3256523346894201 1.261346790465738 0.8420393190026645 -0.09483953079369410 -1.600092003229185 0.3294158530114796 0.3411235172024562 
0.6489132016604423 -0.9256902122014927 -1.533826727413395 1.028244269805704 0.6469604208241012 0.3752140476771843 -0.03744649286067329 -0.2086913128810895 -0.3028238205319280 0.3849181562165406 -0.5366705200852241 -1.270518075066489 0.6695248700847338 0.4853782407237572 -0.2476345813747933 1.149757645985324 -0.3256091105627123 
0.004313172638209772 2.338902959943631 1.377566852939831 -1.443775349561721 1.361149377108697 0.5183957234518245 -0.4189274178609399 -0.05337073650327361 -0.7452181202876514 0.1443355479862703 -0.5352759444250823 -1.169341108295450 0.2869619688656823 0.2537866185721577 -0.7751204662372568 -0.6591574867691341 -0.4852255915657461 
1.510229022458875 0.2051199869540557 -1.811114958977366 1.187183546441695 -0.4095139190635256 0.4531895190776499 0.5380209620254903 0.4515362912018189 -0.03445034099925019 -0.08323482792829058 -1.430792436378903 -0.5023692477901381 0.7836853182957890 0.1183337052268483 0.7896052953476749 -0.7796358356140569 -0.9857920802783803 
-1.680400981322688 0.8175941851397189 -1.148004105548810 -0.5251364290042766 0.3249694480724996 -0.2423444432294338 0.4628905630795846 0.7564079412762763 0.07974565148511649 -0.2930804827634293 0.6211393992671959 0.9973289232426461 1.601929234604866 0.3393490176555861 -1.052503260347995 0.07138407691481549 -1.131268738521676 
0.4185473045059777 -0.8787567511709948 -0.08671795267868747 1.984298966484365 -1.153441690635426 -0.0004342147274698461 -0.1534020383274042 -0.08271621079929985 -0.1173544755356014 -0.001194571177070057 0.7547025649165803 0.5640944305785982 -0.6301355142031766 0.1715947953552249 0.6124542991227876 -0.4551308135105854 -0.9464081281978080 
1.562565634158929 -0.8098012772107557 -0.5489327097958360 2.047417455191788 -0.9956926852321029 0.7935628722338450 -0.3493716368047821 -0.6613790367563779 0.01433956119254445 0.6186407185773525 -0.01931674094832492 0.8011365495021062 0.7477510659031247 -0.3043083633196150 -0.01572219844956796 -2.000154453634956 -0.8807347546073565 
-0.7130904459704138 -1.327405179602816 0.4215615780484250 0.2747436380073447 1.172049248745703 -0.5674855510262896 0.005025590987784242 0.6375265082684524 0.4127771973103211 0.3206571883578106 -2.487792619360433 0.6311038141469253 0.1100550693750656 -0.3859616152059990 0.9030527509807222 -0.03232125895503682 0.6255040858924267 
-0.6193978042383502 -1.205916293776428 1.476841513367435 -0.2430001316698368 -0.08055584490769735 0.9125435227295258 -0.6171644354687503 3.233315354155736 0.5372747146106592 -0.09008897645976300 -2.991256592661985 0.08817877403556276 -0.1906835334137670 -0.1466938847253561 -0.4686616360715834 -0.4653839085429396 0.8706491630375369 
-0.8119134278227723 2.369478005782109 0.9400862325976469 -0.7864092714563397 -0.2090799375168896 -1.163311820738266 -0.3318290397017889 1.793915820719944 -0.9328347189533040 0.4857529060669145 -1.916977727658704 -0.01948865489695885 0.6678770373166449 0.01560385759756046 0.5913310823913087 -1.895990639870836 1.203790296143746 
-0.9179636645229880 -3.741177946907925 2.092304188345906 0.2742810739179320 2.988737168802476 -0.2560130911222092 0.6599125585967844 2.061274972908791 -0.9610616110405487 -0.1415861298321892 -0.3356798534182734 -1.631821395186188 0.3771827042363672 -0.3661895275450004 1.019458963695228 -1.371179447141432 0.2495210362133069 
-0.2624160670433099 -0.5484098469981796 -0.009799877712627305 -0.2592534375240682 -0.9064387203853629 0.4785759012741496 -0.04919230112263443 2.087976245645088 -0.5400969054443227 -0.1245026016181053 1.763012374667099 -0.3374479135096325 0.3554879737263677 0.6863900973826835 -0.4336965198929613 -1.160076594517214 -0.7401118069269157 
-0.3962950568604745 2.119273783545691 0.2237242519968840 -0.3599007308219668 0.9173455727690523 0.7239830024234498 -0.7679289116982985 -1.656997865192088 -0.2277569084144092 -0.3650798039229036 -1.741573540699742 0.6910035963370322 0.6002322758052191 -0.3443650871711817 0.05410940409687413 -0.7461093421327868 1.276335359939619 
0.6629815466928736 0.1884744939933110 -0.1455878972565196 0.2965761848704895 -0.4125153689516404 0.7550445337657378 -0.3400325636359153 0.1518809399203395 -0.4579216727636026 0.4056872416825302 2.081830287967704 -0.1574499126132321 -1.622180358923871 0.2841357584598458 -0.05503270037176199 0.4096611500307350 -2.045551662867077 
0.2464011873966437 1.134455779466870 0.9521221613948815 -0.7463730310995677 0.4251904913770301 0.1603160158602997 0.2175915935323801 0.4159105167571248 -0.6975257480227022 -0.4625422927573479 0.4500297861753931 -0.2321378977265296 -1.051524282597752 -0.1383474884009207 0.3526480632992787 -0.08320818558571173 -0.9430066690693722 
1.167033168057251 1.510643757936924 -0.6005034459723260 -1.554265585388094 -0.1472760623428104 0.4110362894202462 0.1276817700807568 -2.429473858566627 -0.5811657149518671 -0.2165951946021945 1.138377195369076 0.6857480892048672 0.6505275185615137 0.6323666016840067 -1.127758644729906 -0.1277113246359119 0.4613354408750558 
0.8211968436943389 1.611850437394713 1.120457828215710 -0.3485932743444296 0.2740956918451483 0.4064381452385490 -0.3775275986329549 0.8616585020386902 0.8904244913543463 -0.1502675466621763 -0.9674996437436829 -0.007095595258417136 -1.411386577545571 0.1241143831072717 -1.369676612131169 -0.8315008815787653 -0.6466885929915868 
0.6421511387864439 -0.2892154258730129 -1.230138031686461 0.2116386654336404 1.495342217767197 -1.110049691909409 -0.04748586587050916 1.209215570125484 -0.1540003490153357 -0.1119375259780337 -2.286697904666160 0.8062507545524628 -0.2226277012271118 0.3103121552463380 -0.4201965753178639 0.1375704904639183 1.059868079168415 
0.7991607333594768 -0.03978963648738641 1.633506739564731 -0.04846009253544960 -0.5754350396599327 -0.7733450455324596 0.7255940840192232 -2.293144918506611 -0.7532453249609475 0.6657552265306763 -0.2022616044848599 -0.6657166005103858 0.8117330779781952 -0.3000780855442880 0.5430044180802881 -0.3950501859391399 0.8677722546288906 
-0.3295724982301375 -0.1166240674149402 0.2209148327979815 -0.3014896960186146 -1.714784980056856 0.1445614139686380 -0.3176668755964517 -0.3892971170538472 0.09736702424380070 0.3430245668858662 0.6015371311373618 -0.2048676449266321 1.589227981888361 0.1026678859466492 -0.7939866131024419 0.7028524609111892 0.3661361946200510 
2.087026578911376 0.2313048215646572 -1.101545427438694 -1.326790961311019 0.08395556243591673 -0.3340478751986339 0.2516920711292823 -0.7531930481514395 0.7374770142097923 -0.1453239851119574 0.2567675066935837 -0.09461885530210734 0.5570150275616730 0.06452821061473240 -0.5828850794553622 -0.9941981611617343 1.062836600009947 
-0.6413413326385291 2.269103290547787 -0.5249002302442877 -0.5356823521506757 1.293979849871224 -0.5643113629428305 -0.6752207101878132 0.6512926022676959 0.2533687020219012 0.1181427335852572 0.7399378514982750 0.7541737457164213 -1.039720327676109 0.07113175656036692 -0.3990570521457255 0.2744988833213152 -2.045396047404259 
-0.8605556379658157 1.327099228644213 -0.4087696986097509 0.6126643632515986 -1.826537869972208 -0.1580974158929064 -0.2464972569996241 0.4261806637864959 0.4036137041097003 0.2569911292175506 0.4441961833903146 -0.6642411635104143 -0.2680363073573713 0.1528644638344755 0.3285046285637466 0.5501588010539258 -0.06953781554394836 
0.9903044326923760 0.3932182581195767 -0.03443284823431250 -0.01154567431972547 1.426625677379045 0.2180552069040619 -0.04956747737962361 -1.452849798972697 -0.9424715258895058 -0.2461973572436738 0.5877218332174458 -0.4223812037199519 -0.7724830807365605 0.5223246037265369 -0.5923438974168701 -0.9358709615658521 1.321893813439725 
0.3871643249970342 2.031803372786880 -0.9582012287230375 -0.05840569746812619 0.6018721524502986 0.4985018155476938 0.2304026559352018 -0.4120728378741579 -0.3197463451546336 0.1495060473612183 0.8326675226699609 -1.461940013892316 -0.9937352334711652 -0.1011353792895409 -0.3011298405271995 0.3007266370511552 -0.4262779523992495 
0.2452147112206737 -0.9618790334847886 -0.1724328533052583 -1.433189918322740 -1.646792174778800 1.050079773697753 -0.4262420330430186 1.802522282897855 0.9471799805187622 -0.5586803042392690 -1.050892316743464 0.5882348462484317 1.742139091304849 -0.3655784641925142 0.07179000136659190 0.05085332333560893 0.1176730875192998 
1.027003246848753 -0.5753133004405234 -1.091569819063846 -1.208454431471322 -0.08778364169725439 -0.5045202129091862 0.05644612052031132 2.076318045450232 0.1171111171392470 0.02598470456617565 0.1076706309641475 0.1077010530102936 0.1391752246524993 -0.0008326122928063722 -0.8279010878081192 1.121750560050177 -0.4827855975187601 
0.5749622487488450 -0.2171728752411697 0.2709066031241494 1.163959439486377 -0.3898391458886650 0.3076209782779898 -0.5277626690249358 0.006483496501049722 -1.419067861087681 0.1546506998196181 -1.153738633951650 0.9846101706266195 0.4788532357582585 0.2930892578382115 -0.6113669284086689 -0.2123200958051167 0.2961320792267775 
1.117163950972226 -0.4981041365904777 0.08954208009248138 -0.7519349903318616 -0.8884198434773879 -0.8923451042267273 -0.5087916853786311 1.675211791591037 1.563006108082592 -0.3097737577832390 -0.7597164387117966 -0.1493742268092435 -0.05026420454587120 0.3136049338177293 0.7375691869103244 0.5465050586446524 -1.233878722255806 
-1.947427537232167 1.702801486615387 -3.119249318101743 -1.469563813404392 1.599351850374591 -0.6236860470454315 -0.1016046109074416 2.836586371124304 0.2361250438611818 0.04169278537674542 1.861968235644838 -0.6724075586077042 -0.1866158235219450 -0.1941749703435533 0.9560931333566735 -1.120282343386043 0.2003931161966947 
-0.2737810496705384 -1.060995860298152 1.446117088350972 -0.8431132991346304 0.5974138435627948 -0.3202677681137562 -0.5387651427667093 -0.06092076191273342 0.3293606486067777 0.1535886233198391 -0.4410196387954845 0.8802480520815363 1.369650469557878 -0.4461562657880450 0.07499689681968467 -0.5386555895813555 -0.3277002462380792 
0.3852710703273953 -1.502014781303892 0.8669260132041207 0.1832454868688611 -1.249429923209912 0.6503666561433644 0.3414897757727722 1.946242474126531 1.218426713022158 0.1616921623651356 -0.1470534722829069 -0.9806277754668024 0.03593169917765315 -0.1577067227892120 -0.7707134497609265 -0.9484859954342388 -0.03355993076011225 
1.170847356852938 0.7525149024235364 0.7719370227677111 0.8793116403440611 -0.2995789215956710 -0.2236643428865673 0.003402827715326962 -2.230847052679153 0.1892807290028814 0.3467211518444857 -1.632471913504766 1.615212142703907 -1.836329149481551 -0.3255599076271899 -0.3426514663432878 0.4248105870256910 0.7370643934376395 
1.271351870576181 0.09387510529815400 0.8083269564864960 0.3739993934509958 -1.374803766862459 0.9167378045185605 -0.7905096809185211 1.035357908462585 -0.5689283911492629 0.4513727547788993 -0.8111459951000829 -0.5066457941838219 -0.4894244427786292 0.1119628181939796 -0.8013045487188345 0.9888224897539186 -0.7090444818081514 
-0.4155633431196040 0.8284815930921033 -0.08536028954543520 1.342749163577012 0.8191324742674008 -0.09137725997339050 -0.02863235871932153 -0.4709170438847993 -0.5114193986659100 -0.1543777477637610 -1.802408624415494 -0.3419724232572889 -0.5314407325635161 -0.1256519024722107 -0.3385140363815594 0.1937622354351764 1.713509694390594 
0.2265253961620931 -0.7734223201855167 0.8008137663454470 -0.5395636500519273 0.002681606893093531 0.1936634519874999 -0.3697223291435342 1.020296519114624 -1.069563424376830 0.6169676712004865 -0.3616960263684129 0.01450643528686654 -0.1058187797233956 0.001391128400066569 0.2014738079364948 -0.3110665795094496 0.4525333260324168 
-1.267955564615134 0.3346535378115049 -1.016127026038751 1.427079531737095 -0.2732408157898805 -0.1886343497763883 -0.9330994337758917 -0.07622894555575528 0.3669165490593634 -0.04918026637344219 -0.07863430138712503 -0.03701468805846497 0.4459968554027157 -0.2853354464906834 0.8134011947883093 -0.1130341362912378 0.9304373053537600 
1.275566166657595 0.7218032479312980 -0.7074952113013737 -1.521653120140346 1.717601151992496 1.108618517654190 0.05289169697770169 -0.3565253002859368 -0.5795399088175586 -0.1632866396132958 -3.073623779157291 -0.2118324272760659 1.543871549025523 0.1135703086160797 -1.173359347167545 1.053605234833372 0.1997878600711322 
-0.7143444272848021 -0.7240385027654086 -1.490390670095042 0.4147715456347809 2.471852373754008 -0.9608707946076365 -0.08471475587503209 0.8252175463907966 -0.1817684348440506 -0.2404290402347487 1.012226169370693 0.1293475220006688 -0.2219561087911837 -0.4840780955137479 0.4582338639473868 -0.3213461820356505 0.1122879909490081 
1.835354256022157 -1.914903396901764 -1.058741023840035 -0.07799895404146882 0.3265129392062593 0.6824305657907781 -0.1108891859195852 2.101614538012565 0.6340785567739937 -0.2540563510043365 -1.016466031002399 -0.3900447439226731 -0.5838945484963239 -0.1978680185873170 -0.7254035187460498 0.1438252008366039 0.6064497158196052 
-0.6771782939124346 0.7317659786660063 -0.003976797731710289 -0.9107810702558238 0.9276123545720937 -0.06282913377987691 0.7342473068823873 0.2019761160772510 0.5518989667137567 -0.6668025750604635 -2.000162683278544 0.2832439840434177 0.3631123587497985 0.1168781367122993 0.1479662070864826 0.1124967286646201 0.1505324158507461 
0.7923439117415669 3.379793249981639 -1.326502734704663 -0.1413640960602719 -1.061427318797805 0.02104557193556892 -0.3758372560961004 -1.516543849659250 -0.5463497536366664 0.1576914383341166 0.09206258312422494 -0.8271522961129754 0.4267419088601349 -0.1275578675346447 0.4096562675490899 -0.1538395322334513 0.7972397733094575 
-0.4670671619408795 0.2897637987121937 -0.1477410105911085 0.3137992462803379 -1.226844345754748 -0.3257733962490128 -0.8761342500547754 -0.9176904033719461 0.5366021613575235 0.2735224303007394 0.5795379556461290 1.519487304722776 -0.3287256395722456 0.4654794674487099 -0.6278936785927395 0.2771780907692055 0.6624994308898512 
0.5074210878575086 -0.1546773121978685 -0.9200990736467501 0.2753702461493477 0.6452196694206767 0.2080883898086156 -0.4750274926850796 -0.2511740301401530 -0.9885459736981532 0.02529219914274383 0.1370441400382388 0.6271959155135685 -0.2971731269349529 0.2325067732100509 0.1378323407885245 0.9053774408403517 -0.6146511934666675 
-0.09606418291738722 0.9033791796476864 0.6628394403457465 1.153707062991296 -0.5196719944892175 -0.5950031890227944 -0.3744025157097784 -1.915394302581889 0.2202037496021260 -0.2930732288244795 0.3441453160540701 -0.4928671717685556 1.307335904344709 -0.2490098512703716 -0.01474270019312992 0.2910712554428145 -0.3324527716508244 
-0.3799704589596807 -0.6323577378906685 0.05389171397258095 0.4218188424882934 -0.3343777023353105 0.7228945032658906 -0.5943767788039778 -1.447366530384890 0.6129679466208962 0.3033050466038544 -0.5695370911930052 1.924104784595391 -0.4588666632831689 0.5132441470373409 0.05765040735462762 -0.3877146094744047 0.1946901803862335 
-0.5252002533866854 0.6930722846273235 -1.430600634851931 0.8936140698922241 -0.2863149533039354 -0.8672370361077744 0.07824327351227950 0.5717825814317486 -0.1842466968420037 0.1771729498993687 -0.5082179648541229 -1.454072004675099 0.8546855003105446 -0.06032331334353087 0.5681337744903389 0.7931805647585852 0.6863278584426855 
-0.8484767689015030 0.9336649956654307 -0.6370142418981176 -0.1120403858626068 0.01962329187043000 0.09140506992901120 0.3054068013786250 1.843396095645018 -0.2272218139481130 -0.06330435584029988 0.7354275697463045 -0.2351098779754395 -0.7210823494709987 -0.2067436559095128 -0.2194425869159364 -1.567739814049384 0.9092520265371178 
0.4158682017860763 -0.06003035499490717 -0.1270158983177958 -0.1121247461928574 1.386830470295438 0.3048738758417080 0.7369809893318138 -2.693073586289502 0.5537686405681239 -0.06849130174155870 -1.083911396820251 0.6282962981799323 0.7660096409504351 0.07539213363740621 -2.015383229503308 -0.3042597800480509 1.596270043317339 
0.7462874472673914 1.463442534516799 -0.6388151983833206 1.295690553490884 -1.993205705159284 0.7654471009010806 0.05589222998193028 0.8860903947350408 -0.5751896516087315 -0.7878897902301919 0.1677942509906619 -0.9533652337727935 0.8098887910156135 -0.3117220945368781 -0.1455940019322989 -0.4907284101632637 -0.2940232171126467 
0.9588250287522565 -0.5660036110531915 -1.800916426771034 -0.7084315315576103 -0.3557718104192622 -0.8022240128694400 0.3954053782879501 0.4071628332470906 -0.7198874234189040 0.02569950653500472 1.346041205402972 0.8325341264031311 -0.4416706028752397 -0.2655975095905089 0.1265436501090107 0.5038826774987146 1.064408522319092 
-0.9106479052675772 1.404367595814678 -0.6736488478323750 1.277423547019376 2.320843187306897 -0.1962552116401022 -0.6904170792912415 -1.525905460732775 0.5566088829370808 -0.01982773188082654 -0.7385384591594520 0.07890646453407207 -0.1643605927074301 -0.003002271353002254 -0.2943050940497264 -0.2105511955540922 -0.2106898281435421 
0.7692067740522455 0.7018441626959078 -0.7049306812211033 0.03753650893795400 0.4744005569713155 0.3849708053666452 0.2182622549497476 -0.4335444976350902 0.4087397678738839 0.5349142386582370 1.618435211310124 -1.798224386740335 -0.8433835605229907 0.1695974442465752 -1.613261637242461 -0.2804945936654217 0.3559316319647722 
-0.04956607726804447 0.8723491127105015 -0.5579392297940208 -1.205240173255528 -1.143274125232950 -0.2493791407141032 0.5262756668262055 0.4843336346798791 0.5984217030471287 0.3751961990163084 1.344291701893389 -0.5142213814931369 -0.2713212363900585 -0.1757699042405396 -0.3713452630464527 0.2075148530907146 0.1296736601706747 
-0.3486349499880275 2.790451588739036 0.09663535408336302 -0.1938560710837438 3.847537789103859 -0.6800982264027379 -0.7844436291439094 -0.2438726972802520 0.03115943355145813 -0.5511749523010803 -2.624511557546528 -1.022935862690791 -0.3240569797851738 0.2923139249851308 -0.5079721310163839 -0.4310668089269671 0.6545257757027837 
-2.118704154968180 -0.1476902456155464 -0.4287407137136469 -0.5752681208899126 0.8896322392219281 0.8378636737777573 -0.3913486410813216 0.5539748653412895 0.5980373760469574 -0.2580962932969767 0.8521774110345702 0.6424585408914226 -0.5902762823888137 -0.6018379304432039 -0.5518949307020232 1.445858414527709 -0.1561452077420191 
0.1142295440568106 0.002669550714510610 2.177378984838979 -0.6544173439200727 -2.369781498064238 -0.7522441276341778 0.03664990077991259 -0.1820605382621969 -0.3844011448174686 -0.1489739033310973 0.5568704395304195 0.4857125603096807 0.2086437899893097 0.4959235404248721 -0.01292694524421545 0.3279751157707905 0.09875207485817665 
1.589006831657936 -1.788651995537453 0.8036737804179123 0.9470524982995331 -0.8854283103622257 0.08309106834206739 -0.6194916759634190 1.016329104139865 -0.7868034346885302 -0.2893215774930378 -0.2095767903907537 0.9783989379871669 0.6984792983853990 -0.5305106855608100 -0.6351979893823990 -1.074977415576348 0.7039283557251046 
-0.2117850427624162 0.6475522469924010 -1.302426951451204 1.289436294500796 0.8357365225685296 -0.3658801220426258 -0.2128219711225549 -1.339122402862647 0.3641742916670257 -0.5444125726783158 1.307839967572129 -0.7907149936883686 1.354954026151862 -0.3023226772950182 -0.4151408811705727 -0.9516701906060412 0.6366044562269924 
-1.514281964424247 2.126717936224424 -0.9047693770724864 -1.089449991586160 -0.8156033374162325 1.446808970925609 0.1553539260248326 -0.6817360968349471 0.4372081783887994 0.3685857970104063 -0.4625164457397614 0.8637619569777668 -0.2102049306616425 0.07736839492100861 0.8615761133766248 -0.02755492513357745 -0.6312642049804009 
0.4943977279906996 1.953713421421317 -0.02699180408732309 0.3673046097678722 -1.178088580977415 0.2688415526955731 -0.6482010171638267 -1.211554010803851 -0.2710714157023275 -0.5503860327227823 1.280524440551896 -0.07019774617219982 -2.428912621967744 0.03686561222893211 0.7881134749695086 0.8892334302517060 0.3064089597199664 
-1.521442487664866 0.5580162332113940 -1.046823452909448 0.1355501509754238 -0.8579707649434620 -1.484981555087863 0.05940556915516598 2.172400402143007 0.2192085135135632 -0.1259341714516970 -0.09721196027271109 0.05804425095546643 0.3645198560549039 0.009646044099471060 0.2859965525642776 0.8877195483400708 0.3838572713173303 
-0.7654199336880434 0.2711266824682104 -1.290403808711927 0.6119060147329831 -0.8405948999273397 -0.3272863445725405 -0.4481249852800190 2.558104524954833 -0.1756349914212368 0.5581348623128547 -0.2464526172409577 -1.402728340015079 1.365628165839391 0.1553285733594452 1.034365507926769 -0.2178910952053471 -0.8400573155320210 
-0.3092912828070137 -0.5962216018038253 -1.273685229762837 -0.08829407672271423 1.167937320385305 0.09147259160760764 -0.3216485156943704 -1.059675432632893 0.6740818509391082 -0.6700115824425508 1.309604916575159 0.4159751312367201 0.1962966559573432 -0.4384151730594918 0.7626445891643071 0.9233947569068209 -0.7841649178466809 
-0.2530041450459818 1.359926782800598 0.5486052106370523 0.7491495196286204 -1.148131719085837 -0.8131018816875837 -0.4031729341066288 -1.205332166738020 0.8540311512421119 -0.5161004137624550 0.06894486874962374 0.5074330575149569 0.8967005875814535 0.2900489185410349 -1.255120103262523 -0.04713159396864407 0.3662548609622212 
-0.3133634771982663 -2.527884575132525 1.329814099880115 0.3198394144848879 1.678396530138672 0.8603902934876834 0.6352136953088605 0.4243385676173201 0.03602175540758812 -0.3260931799920491 -2.860692188168415 0.8628058046783752 -0.1813642860580094 -0.02007726485124330 0.1412820747578656 -0.4169502297838881 0.3583229654230206 
0.2190493492506120 1.427348791793291 -0.06780832743542987 0.3333171771121143 0.7397221897055319 0.1384113586610285 -1.055885519147791 0.7376925862816428 0.9788288068225075 0.3394954778486616 -2.594278790545509 -0.9332694366242624 -0.2587285726002859 -0.5116751648201139 0.2496819688693928 1.506666696599726 -1.248568591771089 
1.693067399750497 -1.883449533760063 1.365024794241233 -0.6909357731798415 -0.4001114584026231 0.4281146374795283 -0.3392686175863696 0.3975735570894414 -0.02366674874954306 0.3153465391605583 -1.337135376602881 0.3255421325421199 -0.08915634447370617 -0.1173980733621874 0.1655480267336620 0.3513494577615712 -0.1604446186413749 
-2.244713607777451 -0.4126636551565840 0.7443305847837511 -1.381825308673419 0.4043093179790230 -0.5270237529714020 0.05763585332671333 0.9375236946058242 0.4791236641397209 -0.01478610491396769 1.089373229103068 -1.293144946762661 0.8866702476769330 0.2572589326745449 0.1291527641147261 1.642622563641785 -0.7538434757905929 
0.8298827823059002 -1.932589170243712 -0.3752098443168044 0.4024148630725015 -0.5181573204832693 -0.2281943224035184 0.4217757455918398 3.896290348690118 -1.099125828402502 0.1599122535161829 0.3161759731131684 -0.01115888571438183 0.3864905922056668 -0.5563672104058414 -1.200020567221810 0.5650181369721591 -1.057137546275711 
-0.2389269934853230 -1.890529045241041 -1.031703411090958 1.352853321427466 0.02521273036772892 0.5117255351906115 0.2166500456818124 -0.2406924072452692 -0.09008273989662370 0.3774235298558767 1.101341103507074 0.1115428148938432 0.4305672091097196 0.6018981376893939 -0.1057799723828938 -0.3797960335682931 -0.7517038248131261 
-0.5519465370137563 1.942083198319792 -0.5988619384572046 0.9420981214260643 -1.518934517338460 -0.3789263723312574 0.03696634019868817 0.7822540253735890 0.03511072798433310 -0.2031225101568982 0.7375097228000502 -0.7367785719349715 -0.7164644504553029 0.0005135025587050593 0.02450205930752923 0.6006075122537737 -0.3966103125346508 
-0.8989496914725570 -0.7295619525377637 0.02782595724205067 2.808562092825216 2.205210488394509 0.3057583586001098 -0.2662548901378371 -0.5672079425239387 0.009622764596377896 -0.1521727380696811 -0.1324722073584679 -0.4257915842397433 -0.1060867366958607 -0.07602681217497118 0.7114659366396395 -0.8853226715086201 -1.828598371578414 
-0.1079607256826062 -0.3470251104471477 0.09731528212975889 1.262207372265247 -1.409876687210517 0.8222771923306446 -0.004608946033804866 -1.044420925923668 0.2526573675578220 0.2587680112617687 2.115704588237976 -0.8647728956286609 -0.9811309030237540 -0.1700147796329165 0.2466738346379401 0.2658766901881584 -0.3916693650262308 
-0.1947099622762713 -0.7593147953928520 0.09465659076463981 -0.3337237929021626 2.011326733928933 -0.3172772537813048 0.06877765771786509 -0.2501514426548611 0.07600694338622971 0.5551672402763588 1.489020053345963 0.4705548050117568 -1.215140273064961 0.2470718494650726 -1.087732033862804 -0.9493034760449822 0.09477115608338867 
-0.3038385424352418 -0.7350097119004995 -0.8113260445251697 0.3510887314372742 0.4709617584215095 0.4360344656592547 0.2985392705155992 1.457015712704716 -0.02422595683512804 0.8619162783426377 -0.3872916205634441 0.3925165249922393 0.6284766854714645 -0.2604896019141681 -0.2773595585211707 -1.196262261323731 -0.9007461295261509 
-1.908851075323170 0.2153142391469801 0.4069404403293487 -0.8803484468291579 0.1706292876860645 0.5097999536098662 0.3580401301557910 0.8684831903778336 -0.3051148124652093 0.4890849109693821 1.609925911443696 -0.4576396700199924 0.9850975555893546 0.3932914951649815 -0.4774831696832746 -0.9664546980157426 -1.010715242136729 
-1.358872016520313 0.7521573250774286 0.1720640159710716 -0.01490497693372742 1.560805607182544 0.2652837605671624 0.01829985323111361 -1.860851777070965 0.5644263291308744 0.7661243664171918 0.05085632746424562 -1.108591248583841 -0.3818244950437906 0.2080970285750518 0.8394797002032441 -0.9572616154651473 0.4847118157978637 
0.04077853433605971 1.227837817970861 -0.7182184749660903 -0.5849374769576620 -0.2557636477128211 0.2354250245716781 -0.1120709580550830 -0.6050056429964761 -0.2723176252262514 -0.9037990786933315 1.058935761151132 0.07177161875479156 -1.162816032469520 0.4848886781554879 0.08647211529622827 1.823574401898421 -0.4147550150574523 
0.1735113602676050 -0.06591594399366800 -0.02964651326662579 0.4173142503706910 1.242277807886533 -0.2675438476387562 -0.5263770357427870 1.892197707560068 -0.7552081317355502 -0.4654776156043419 -1.309718183226405 0.8558785313701963 -0.4423025484200847 -0.2051633775714129 0.6526029256547697 -0.9568464464425408 -0.2095829394676905 
1.172856355432110 1.182439935169513 0.7794543151110850 -0.6200144104902046 0.2896999644265494 -0.3300566576007817 0.5097551908627337 -1.173113766870910 -0.06417584620491830 -0.1515443675646142 -0.3311440645441685 -1.034248325235782 0.1719606582241842 -0.3916503976968779 0.6657276441975134 0.1056984287042711 -0.7816446559197252 
-0.06679782800438558 0.5760416256522443 2.707139739642497 0.8629657218152317 -0.4556463331955345 -1.233822667721529 0.4905444004163508 -2.579229842974702 0.2980829798394631 0.1298720243965620 -0.4974090890311621 -1.224219782339154 1.028128799166084 -0.08768050610823283 0.5769850431665334 -0.7910411409124337 0.2660868561921800 
0.1115427390087427 -0.8755900032018367 2.761405796611221 0.8116552053355837 -1.180392915609599 0.4048330551309276 0.09021100111262609 -0.5470927976873933 -0.9833846396699910 -0.1623991159577808 -1.222825934977137 1.191801235870400 -0.1933034880256370 0.3077282899399725 -0.1444620102240846 -0.03668117778840348 -0.3330452398675922 
0.1427019440958997 -0.4502521843377980 0.3124759574590272 -2.135088920408975 1.525575220351006 -0.3354787667617853 0.1300980500037480 0.03352394525763468 -0.2865166704867930 -0.3398973909306112 -1.466009091770152 0.5682912215715066 1.938806613443533 0.2295696840021809 0.8281733775746216 -1.296188017806921 0.6002150287438444 
0.05286695306725674 -1.437311874609354 0.5445463434262610 0.8741559906501335 -0.7358378923545917 -0.4062015020039001 0.02956372530773692 0.1726526387640354 -0.2040299451437621 -0.5722431029134505 0.6692819724271726 0.5691437848918064 0.02369040153152600 -0.2321629378239728 0.3232862553103429 0.8192591863742735 -0.4906599969014988 
-0.5910156270258536 -0.4950294221256005 0.4025458356769610 -0.5702885296557831 0.02626146935070399 0.06617537485496776 -0.1921463852733238 -3.441213838070453 0.7925192572262210 0.5002081975781929 2.196674892637526 1.738517759154246 -0.3315157336903830 -0.6070797235801675 0.8852616903349471 -0.7801793830947593 0.4003041657025204 
0.1268644020871080 -0.1707843239919062 0.8291796808612071 0.4425673098272898 0.1525296887560983 -0.4122488978759415 -0.3095063016445013 -0.8452677154823235 0.7407712758783220 0.1093333704836973 -0.3657435944553279 1.219553805206372 0.6607935029410411 -0.7844326034097058 -0.9960701964476203 -0.4468661006511757 0.04932669791737013 
-1.348473925927342 -0.7759642854402246 0.09756946789292018 0.2330726503852408 1.398935066532314 0.01385017946201905 0.3094818166929552 1.787189122018450 -0.8700143229889686 0.2737939255725925 0.8032767869305422 -0.4791130315774388 -0.4147923764933534 -0.7094020215434940 0.4388997330097727 -0.7254460335307624 -0.03286275099523128 
-0.5738267253817371 -0.7048980216962721 0.2379541543795026 0.4660361057820644 0.3258180898049455 -0.3447401815974079 0.06916439121401681 -1.229017425105493 -1.087929654754636 -0.02928882402720136 1.513481137823884 0.5353042516424588 -0.4000913798717120 -0.005584488319869282 0.6440622476232660 -0.8696305737759110 1.453186896260126 
-0.5028967510653674 0.6996427301197878 -1.537571753638932 -0.2557650617914388 1.168582613215555 -0.6133355220215047 -0.1398294134863499 -1.641460525115474 -0.7341847340615070 0.4807568791183453 0.8763871795190860 1.560408757104450 0.8461399192628240 0.3622764768776131 0.3688597048441668 -0.2823248293578884 -0.6556856695233673 
0.9432762158983070 -1.251367394054689 0.9072084631551930 -0.6581797465322913 1.501101539436467 -0.9124289515423173 0.09831384834183186 -0.2569253586559381 0.3380932574481260 -0.1763740003659412 -0.4646049195495020 -0.05971659689698696 0.6560634056997723 -0.02308723198003142 -0.8613353940336923 -0.01812943947414101 0.2380923031058402 
0.5154555758657824 3.251773531355703 1.155456231444981 -0.2239887762608098 1.202469732074476 0.07026176993691050 0.03329762484209708 -2.038694265058815 -0.4469846819361499 -0.4590056701153060 -1.095511773806453 -0.9218817550279463 -0.2318840291783357 -0.3756186057900542 0.3659798472337491 -0.2987198381534786 -0.5024049174263250 
-0.6453565726612918 1.105018744992770 0.9861280132445956 -1.485036040068686 -0.2709272702635274 0.04601541007984990 -0.1541893068690057 2.068344418870971 -0.5424271484852914 0.2144811353322896 -0.5933465684284607 -0.5022292339937565 0.9443286678557781 -0.1841593960119923 -0.2741789917801831 -1.011627613663475 0.2991617518494273 
-0.5089275674731923 0.5979283876363968 -0.5869568675751657 0.3402579676604856 -2.252923191838161 -0.3522321883222396 0.2397699334463055 2.268592218762450 0.3448222389260717 0.1195488125441230 0.6012049909593123 -0.3368540116456470 0.07162120137855380 -0.5857697292948647 1.213457785962044 -1.154258734203207 -0.01928124692330569 
0.06364664207250591 -0.6235647682586554 -0.7801258093608184 0.6548900329607051 -0.7256330130884735 0.9248977451017802 0.3631457238330272 0.7178131572844980 0.3721332276520024 0.1457526914571626 1.818379616627962 -1.444253717285587 0.2514565297718704 -0.4205606891250034 -1.033791537712360 1.247868825514055 -1.532054657444704 
-0.3190913922982024 -2.816041237462023 0.5399478517712186 -1.026694440315305 0.6413808872250922 0.3163808205744413 0.1418095328106460 -3.977663897784784 0.2183762611436121 -0.1520146231310888 1.832371153503009 1.076664379116499 1.634212803993085 0.4754464241990156 0.3447005539936319 0.2507816361859625 0.8194332864752290 
-0.09956968723228408 -0.5696148513018989 -0.1720820659735174 1.705903491636636 0.7221806655459235 -0.6821291346485541 0.07031314238808058 -0.1683338166686036 -0.01502422721843597 0.3079379174812586 -0.3671988396192720 -0.1157955481437501 0.07120548658956093 0.4749239437264289 -0.06566014316211972 -0.4374956136830854 -0.6595607197163810 
-0.4845890343807647 -0.3380510241150884 0.2311715921823218 -0.9404370264577993 0.6580862245962533 0.7519299595830120 0.5091474069539148 -0.2973912229715932 -0.2791662020786291 0.2067140220082075 -1.273674648172874 0.1169613200542085 0.3511495270106143 0.5628299585461888 0.1498722703842710 0.6226624613040255 -0.5472155844462477 
-0.5387313847864170 -0.8592372867745683 0.5457177251723412 -0.6967685312549026 0.5668133104689759 -0.4056514474499214 0.2577304642067569 0.5803725630338369 -1.264730168683617 0.03141354696442526 -0.0009712645801314653 2.029610636490726 1.263344025621311 -0.2489689701707945 0.08318279130293890 -1.332797799249040 -0.01032821031193970 
0.4438460967959816 -0.09733854167259509 0.1001540271240046 0.8414921124792210 -0.4556056677599316 0.03645878399701144 0.02576200933960820 0.2015782239628067 -0.4441884817752766 -0.5430026901841017 0.3527935220075176 -0.1981937051880272 -0.01385238223957682 -0.4771783490563192 0.4014574967256618 0.09844957006048283 -0.2726320246164520 
1.394400117251959 -1.776170884325726 -0.2755613483222838 -1.194594012508353 -0.3049301286784382 0.4288839518170131 -0.2516691285035465 1.158226277961041 0.9352855675895428 0.5129272750783905 0.8644733721217014 -0.4072563502374521 0.08561094790566792 -0.1750515034105048 1.035718453298180 -1.266757730174721 -0.7635348768625145 
-0.8347935958743320 -0.7471656092681048 -0.06326302545260910 -0.3495460249362006 1.847958356955583 0.3564421997079192 0.1623734490698224 -0.1559042329790333 0.1137680341065336 0.1136545621109003 -0.3398585143929487 -1.970995590417125 -0.3264905867658239 0.9195537002121895 0.3956660149106505 1.599975332880167 -0.7213744698675738 
0.1531634419543008 1.919871705545615 0.3046321224948412 0.1023807616656155 -1.074503765588495 -0.3895605839114056 0.2446363487321318 0.9464582071027345 0.3078443372534621 -0.5482726108276068 -2.062923840879125 0.2023511888746259 0.2215728511337143 0.3591100520977485 -0.2192426277109577 -0.3231933044132396 -0.1443242835239889 
-1.340229181183004 -0.06560127529941982 0.5950466558035835 -0.6949056968435314 -0.2550248880330532 -0.1072062108573282 -0.7596377428004587 3.531159217766399 -0.2498110550304683 0.3816232818902646 -1.501599964069908 0.1690381110141770 0.2387947449598087 0.2692792597175408 0.3422305015070339 0.1151542783620679 -0.6683100369037346 
-0.2880820770533471 0.9360586589778749 0.1812186134983953 -0.1533135958064570 -1.031605057162083 0.5656703394544891 0.3878349181203800 -1.215933023617371 -0.7973398422694927 -0.4182936636635696 0.9317550538891098 0.6753168707826617 -0.9264963571310477 0.2152220224060206 -0.3076561111809175 0.6744214040086781 0.5712218467466601 
0.1622619971048470 0.8383385547208265 0.7084117415364719 -0.6425721601077024 -0.05777706370253834 0.5438022600393646 -0.1447374671397222 0.4258732491725264 -0.7985573853830567 0.1093108727500366 0.5115374171836940 -0.2146475421317896 0.2980233059293399 0.06392899939483687 -0.5952285314977140 -0.2555124471654872 -0.9524558007039348 
1.188037063200759 -0.7074624277096505 -1.715525269906620 -0.2339683166394503 -1.694377505523749 0.2062463998416110 0.01703745645322277 0.4787948396795936 0.8681134223534318 0.1708539431496983 0.4791165325360883 0.09608945903333310 0.3715702379480034 0.07633974312267820 -0.7617295687825845 1.097518168332295 0.06334582291135209 
-0.2855652433449570 -1.450823908539464 1.011402737461827 -2.148239927301745 0.9851209515655924 -0.05550745375100390 -0.4729030443601343 -0.4156121894730825 -0.1528777354906404 -0.05004846887999250 1.234111786935145 1.054848592054507 0.5508411552965448 -0.01633704409201862 -0.8858737173020073 1.184655837846004 -0.08719232862457592 
1.193985103407046 0.9161602645901009 -1.260892759205802 1.062100528003386 -0.7314952440579856 0.1108063901491261 0.06492997917428595 -0.6136222098938304 -0.7435950225834227 -0.1089862261334768 -0.4186139342544509 -0.9960080684543399 -0.2486976309033510 -0.05115546463203090 0.4935933294077512 1.422710810483007 -0.09121984509603936 
0.9679375230322572 -2.884643563534535 0.6801092115798828 -1.394317067179230 1.720195163095467 -0.5870308611104894 0.3611365165618564 0.8199766399331758 0.2288344378147335 -0.1628754689438416 0.3336209636184512 0.1192282181440329 0.1350367843851518 0.05439862774276259 -0.7189544728116252 0.2523565491903683 0.07499079848161125 
-0.1860307468846651 1.894887789039179 -0.05573073796658461 0.5752201966995420 -1.553467473594862 0.4345916805592093 0.3036512136326818 -3.035161919569832 0.3251057491441851 0.5503934073095368 1.084375641158215 -0.9140281110953679 -0.04005314328319878 0.2471086379476981 -0.7371381125404725 -0.1145424147238514 1.220818344168610 
-0.2882626543099382 -1.825843631594265 -1.551220185470574 0.1849656944969702 -0.3054448591118982 0.3395014751238056 -0.1374226521929920 0.6035413769838539 0.7609895119968965 0.1071678143817373 0.7906894700639331 -1.135790971277686 0.5729319656067896 0.2047622489705146 -0.06032224597453153 1.744056220768712 -0.004298578461301481 
-0.3415910021640971 -0.4187677434175548 1.412166157347029 1.473006583094207 -0.5113659172902911 -0.6599608300088108 0.3339351441759918 1.124703079744783 -0.3415370876173625 -0.002380039063531892 0.2579570107008750 -1.908044462589919 -0.8350321846032782 -0.3263159152204224 0.1259762326318522 -0.5759654844374676 1.193216458717986 
-1.411956101892549 1.800661106256983 1.161250707087654 0.6248547708100568 0.9576848834880627 -0.5266713492352975 -0.02296968710351063 -0.6502467948661729 -0.7130289395718122 -0.6526852743097654 0.9146920924502612 -1.758738444791413 -1.109508466284002 -0.02479275442133214 0.9504306953846371 0.4501931675125426 0.01083038948565280 
0.4520216825262237 -1.878463271657573 0.4008657706149831 -2.152028502772356 1.244256879668337 -0.3380097015122049 0.009852996524784736 3.077490962348434 0.6795205573478571 0.1694649120087898 -0.9425225113000129 -1.573423730659958 0.3564803716012402 -0.002249847051126431 -0.03819743109597790 0.5135167844017637 0.02142407900684305 
0.8663279065294197 -0.5787070445104052 -0.7629892375999202 -0.7532573450739476 -2.122973976407363 0.3911783878666893 0.1853610274136400 2.066707179725871 -0.3096587595048604 0.2002405327609390 0.3636500059848331 0.8581419955053119 -0.3066906403516090 -0.3109433975982950 0.5031598267215345 -1.085440226320155 0.7958937648583151 
-0.2917222518066434 -1.429796769098748 1.326919672397175 0.3592192184661550 -1.148976350013837 0.4369458360088315 0.1971587577507025 0.7168747019963733 -1.093700924103941 0.1145718069190806 0.1758088940201585 -0.5298998475851899 -0.1889193329904026 0.3541053190264613 0.8742431995589065 -1.111882509618388 1.239050579073310 
-0.7170501882052026 0.4810896858675656 0.7215928490730475 -0.2056463261625685 -1.048381231273774 -1.147671907122121 -0.2671292076728295 -1.007456396089075 0.7210432491608926 0.8303172684216750 1.626126009609651 -1.497296738500219 0.2698400285056482 0.2748522131689707 -0.2307715640188829 0.8339962022651234 0.3625460529721153 
0.06652956169175389 -0.07935240958506316 1.673137010060869 -0.06780607731559520 0.5096190011929779 0.3984032161966262 0.5445379235850150 -1.477418813905336 -1.174443392994024 0.3926524212691472 -0.4351442894190227 -0.6807437687278418 -0.8568258678053579 0.2991542601855974 -0.01441368796202892 1.502754829099142 -0.6006399155668801 
0.6252398582655492 -2.566486845293119 -0.01011703720376193 1.044284177213168 0.6098367393178521 0.06592257953142033 0.002948449204561365 0.5211549002894917 -0.4865471767280066 0.5932534990058428 -1.193530515270369 0.08232245587461158 -0.4609438999929830 0.7791599562615656 0.3873609365274653 -0.02782849729778302 0.03397042029446269 
0.3503395794981450 -0.2311525434015409 0.2447052122890518 -0.1292439193341274 0.03263322569982629 -1.199012418622119 0.3103733010265741 1.613855559184757 -0.07992840402506461 0.2802973383026776 0.1247241737205012 -1.069418044537455 -1.214390869385821 0.1756493111785374 -0.2316851012558657 0.4057114694741392 0.6165421301877393 
1.611557002171313 -0.3584441425532781 -0.4088985697402912 -0.2170816851307642 -1.116785831951932 -0.1191010678902253 -0.5038900968252692 -1.052922381560747 -0.2357705490320141 0.2452550510024892 1.647344617558596 0.08488158211811830 -0.5318794208270616 -0.09189959910135473 -0.3372938563612482 0.3377738921175291 1.047155056006109 
-0.04122385678905045 1.127251447059784 0.7818808036312596 -1.401088093026965 -0.3631213606242918 0.9244760379133036 0.1576900643740872 0.7419148922685392 0.1546390729328495 0.02755227512197706 -1.431752896676591 0.5163181660495463 0.2332606053501198 0.2030974903996925 -1.604068338630698 -0.3681487995194980 0.3413224901659226 
-2.286924143367958 1.367550467358214 -2.323853199979894 -1.164923297929128 0.07655111158062464 0.6426269375054604 0.1888970116480460 0.9446548618503486 0.6181897343870412 -0.3687731613538186 -0.04547732204275982 1.047194901412992 0.7103572183898660 0.7354279131374779 0.4462595817569200 -0.8233888175998556 0.2356302032464248 
-1.051209623544976 -0.4935989711139361 -0.9941951322649921 0.2034722601911009 -0.3105833400983141 0.2440926939448888 -0.7648021765838049 0.6841647673057432 0.1046869955939558 -0.4696405657128325 1.401151271639179 1.228724924659878 -0.05272131996921911 0.04969678860963770 -0.2767385943169921 0.3309864242843965 0.1665135973762867 
0.6974249607645175 2.578616121171953 0.4840539633975468 -1.244798144376223 -0.04256391107731494 0.5913275915103964 -0.1249673582328008 -1.261036689694653 -0.4638233755033305 0.3992740804810073 0.3015524452980904 0.2543896094033580 -0.6868353540554460 -0.05010441771226823 -0.2514839766584725 -1.074962967916742 -0.1060625767996237 
1.820279017509368 -0.2793475298588224 -0.6989504005846142 0.2786881037644561 -1.879117038699603 0.4200245056176992 -0.4581849953303215 -0.5558695086546748 -0.8403609019868211 0.3058911566636884 -0.2350459233402720 -0.5729971990363802 0.6632621659271312 0.2396474606877192 1.341986636964228 -0.3723676025352155 0.8224620528924040 
-0.3166964772493988 -1.112367800516779 -0.5084754644017891 1.033615254564788 -0.3108154020717253 -0.3004780927097085 0.7265869266830556 0.4481474813166826 -0.4135408754069154 -0.3689950812861194 -0.6039741719197783 0.6407703558921989 -0.6951758374728294 0.1549046663421313 0.7821269664162670 0.1764821243517676 0.6678854274681703 
-1.515856405184857 -1.031617562458058 0.1929152772980949 -0.2538762398723295 1.061550955566099 0.1257442087315762 -0.3723605498299086 -0.4732023454632699 1.381199896962519 0.01907739951642525 0.4778600132470813 -0.1774211886520710 0.1897043158577032 -0.3713443122989198 -0.3344633208731515 1.093410952913649 -0.01132109546055984 
0.7917246976782039 0.9710358118705033 -0.4245276024423959 0.2561783072697603 0.05644767694822184 -0.05630552733597719 -0.1544728212677165 -2.038289552709511 -1.247800102860619 -0.03536509479226056 1.179541591898057 0.2148473099914885 -0.8035409441133290 0.1463819407169085 -0.4610722359474642 0.9946584226088886 0.6105581224872346 
0.7885668202868968 -1.742584275069055 -0.8082855043952988 1.105480757265442 1.800230964981963 -0.1269339190756516 0.2577801561330597 -0.3565295862909008 0.6929249390325900 -0.05974616721626761 -0.4511708296959772 -0.6474132207607542 1.139148786602673 0.1740749187568809 -0.07464469056035080 -0.9697665345700227 -0.7211326154252484 
1.161558364277955 0.4245243263390159 -0.09308425504099357 -1.256515025707617 -0.1165880307189452 1.375697772569843 -0.06416302895683484 0.01800476315574754 -1.238256431046413 0.2926820103172246 -0.1104093885099486 -0.8842527651636186 1.053866608968502 -0.4276866581300939 0.3810428715315326 0.07377857556938640 -0.5901997094547142 
0.1391892278210764 -3.254716305934482 2.713150728794394 1.366173016397679 -1.099777368854281 0.2742255472226366 -0.05967054768503479 -0.4172481791914936 0.1665002648786335 0.3403231796590549 -0.01411498345318927 -0.4753985988848494 -0.6962638540039056 0.2644957725670905 -0.2691299048120525 0.5861252544034322 0.4361367510753004 
1.096617897163720 0.6474380923350768 -0.1181904431747200 -1.466605884066025 -0.005602135573931726 -0.3011151135652290 -0.4259421182781300 0.05076469418426324 1.061554765683426 0.3742509655476509 -0.9802615172257919 -0.01584432074286328 0.3523543653256370 -0.1923486316771894 0.6982227580811110 -1.035188162745122 0.2598947887280975 
0.2185722671649971 1.451750558193821 1.085042670110738 0.7075695531162475 -0.7311050969605639 -0.2990684402250061 0.3204167645805659 -0.5588304095299619 0.8610318290710859 -0.01438396417331457 0.2461404854743694 -0.9800294808550924 0.2923769009130599 -0.2772861872719010 -1.039774491155890 0.4468406749758110 -1.729263633428936 
-1.522225055887589 -3.072007821956075 -0.2235951219314236 -0.2851287685551827 0.09528333801668624 -0.8727352731424822 -0.7545050172723160 1.534491639347567 -0.1204876024135559 0.1857271504221629 2.303961143376760 1.167415658183587 -0.6274439650562380 -0.005701078264255560 -0.8539155559683798 0.7702923952387384 2.280573935861995 
-0.7060925552776076 0.5835279373123239 -0.2919943729117796 0.9108101795029830 1.194396043617833 -0.07788303868004691 0.3280927625552758 -1.024764243029787 -0.9488540369275392 -0.3210396899920018 0.6351097354789739 0.3853473059469552 -0.7135153521792610 -0.2366531583675021 0.3713616740407258 0.1560397023180596 -0.2438888934076138 
0.2255874883075320 0.9822896218010073 -0.2764525164431353 -0.9073125544458307 -0.4602076664137570 0.6059854880763612 0.3180813306481881 -2.240630036481579 0.6139123777932238 -0.6338561666740421 0.7314258752657514 0.7177035349047602 -0.3299317545531663 0.2150059847263702 0.1612295627043658 0.3919716387162673 -0.1148022079323059 
0.7708506038748116 0.8194913187797510 0.4740134821791538 -0.4791840681289298 0.4852970265422384 0.1339750237633265 0.1034008369255406 -0.8922515687877611 -0.4298020550599978 0.3676185623024079 0.4394452213508428 -0.6855269706186184 -0.2762752458182065 -0.08961460816775216 -1.018887353398060 0.3784777052725252 -0.1010279110112500 
1.854029454059102 -1.691773773129976 0.6184354475219118 -0.2851296138843185 1.341849136446443 0.8717474059282552 -0.02962113042361603 -1.595172320212204 1.496087922906958 -0.2194968423281367 0.1352466805836084 -0.9111994211421584 -2.379212870923682 0.2552546169236896 0.9074538017282792 0.2770472665884246 -0.6455457606426003 
-0.4934557861734054 -0.5148470761041350 0.4110452782409366 2.430383967259509 0.9800394662022321 0.3018173600066728 0.2095114819953304 -1.658497176822623 0.1296049636318453 -0.2815508700460868 0.3163326382708708 -1.445837739554705 0.2781570089635618 -0.1490077184864151 0.02031282739765974 -1.120277469202359 0.5862688444210904 
-0.1899726819057849 -0.8958983993849755 -0.3319280414080766 -1.316432652439828 -0.04334317574453198 -0.07024741260596684 -0.03319619425394393 -0.8913345873751509 0.4317272167507039 -0.2441375646307434 0.3244325262529927 0.3597908115163366 1.323622780055903 0.02189605492213544 0.7133085028833203 -0.06590279957432527 0.9076156169419478 
-0.6116820460133490 0.2248636582984856 -0.03584212861941267 -0.6408523761209433 0.07441575156150317 0.1914251788016307 -0.2142763340419675 1.128069451179098 0.5335602859071403 0.2531688430829530 -0.1264365885980032 0.4121158387614807 -1.049795345082329 0.1067140250540607 0.02327651934523491 -1.132419188568963 0.8636944550534064 
0.5982740235088980 -4.033214206619507 -0.6273591568224466 -0.4234778771271180 0.3070271168176749 -0.8063608641778366 0.8656503486689000 1.180632027978941 0.5619185158779820 0.2982837608545858 0.5661077578948469 0.01953098685540353 0.8184702930824090 0.3040229800156449 0.06961789853499674 1.348793333809927 -1.047916939153326 
-0.7887859130970540 -0.8228750826118943 0.4501447382343056 -0.3497067309456707 1.101714214018385 -0.2798817437648466 -0.02452947378735156 -0.8330000784545839 0.05241809531274148 0.6634966284950399 1.320527803695435 0.1104013641777769 0.3173325464385702 0.2744088681272429 -0.3544569143040431 -0.1924410522138244 -0.6447672693202248 
0.4219316945483697 1.959438310232394 0.6945179882316866 -0.1799608638587507 -1.221384451554175 -0.6915733801261420 0.2117443644834227 -0.5621576905917248 -0.2022546539379107 -0.2315337187930575 -0.1335936578561380 -1.068212956633069 -0.6622826649477970 0.3136048742863029 0.6233017231558001 0.7118637662683798 0.01655131709241739 
1.652027968853626 -1.341308993116805 -0.5128543625395888 0.8648550082160747 0.1759207526669903 -0.02228874254153905 -0.2451264776371686 -1.274909402909178 0.6982264401169126 -0.006077778389027266 -0.1068645302888707 -0.1011230877977656 1.132291604279978 -0.3107070378370166 -0.9746771476980374 0.3661982810412138 0.006417505580242166 
0.7604477436988721 2.624000304270349 -0.9355857487695324 -0.9134543021608376 -0.7275625097395136 1.030795793259343 -0.2941378035557253 -0.4939912759187550 -0.3586761924918852 0.06147173014224324 -0.1460370450332086 -0.5304186489708155 -0.5156028291080141 0.1009016082783873 -0.1002681329636433 0.3390922112057349 0.09902509785700164 
-0.8504787151392610 -1.097759980726837 0.5346072257907768 -0.2706001841799384 1.577606232565573 -1.481190672451930 0.1896903485635352 -1.097199464153258 0.4515682051007459 -0.5229215726642500 0.9173781802882883 0.1063561014218016 -0.5722719531620566 0.01969870477857767 0.2247588682424321 1.291517942164235 0.5792407335616085 
0.1352712884388435 0.5939707952520228 -0.08084594116035847 0.8294032841250802 -1.234427255429619 0.2047708810079749 0.3051629908140360 0.1435130767089676 -0.4370497624079832 0.3306433791391499 -1.351616622196315 -0.1143680638686054 -0.1399699578290272 0.3446558422609295 0.1541804110924261 -0.3365816959772520 0.6532873500297180 
1.361157225977689 1.428179705233832 -0.4550649735806468 0.3929115182866880 0.1035937108485249 0.2865244816558392 -0.5553793333970921 0.8401602347209632 0.2568483571480887 0.2918267131471038 -1.103802617179406 -0.3184691157750306 -0.6931566425634464 0.1816606904877876 -0.8415451064449230 -1.097383291325671 -0.07806155724031365 
0.9857377718705980 1.371419138492011 0.8138449526778228 -1.358313662502341 -0.1904172658350189 -1.180722755132652 -0.3065368138951531 -1.858976905634633 0.1871146818666615 -0.1264493826152500 -1.238180064241157 0.7089557289996054 0.5863057283246912 -0.4404129574255721 0.4818914081575480 1.832614693740105 -0.2678742968472949 
-0.3754931754109452 -0.7478933980792539 0.3793684110702794 0.2888883202849130 -2.167308743136646 0.4123759021664828 0.3117105230238493 -0.6551662229032812 -0.01053848277986646 -0.01892220962192286 0.4216526824305061 0.7580383603619014 1.225438657957904 -0.3550354436937018 -0.1562972138326473 -0.3055924327879587 0.9947744649503835 
-1.516347412698488 -1.001709208217025 -0.5941057712064155 1.083116084706423 -0.1656134520215093 -1.237344188694850 -0.2015476131264405 0.1398698634561265 0.07060406118693478 0.4047905578259410 2.225135995005494 -0.1014825808992881 0.1810198859268793 0.07529312041020604 -0.1577898946823931 -0.4105623319863708 1.206672885014736 
0.4809211287891391 0.1366934906799755 -0.4911206178477098 2.190886375223173 2.167047099425655 -0.3976801483992364 0.3335740427897986 -0.8929478532149959 -0.2774502345443063 0.2679863447525914 -0.7533700000141197 -1.070729771417310 0.05968449948492752 0.06530070444871805 -0.1207087915875028 -0.4811841873459689 -1.216902081222851 
-0.1613975735258049 1.276907078794953 -1.139530196737386 -0.3190632755968687 0.8812418633705678 0.7228585809887440 -0.7901922847911949 1.053567956360851 -0.04528935251951283 -0.4666470722093396 -0.9126775044296215 0.6917198688878131 -0.07884410552187482 -0.1401299320259829 -0.8626153670924945 0.2408974573427098 0.04919385870445029 
-0.03533287499609150 -0.2210308770996672 -1.475801982115738 0.4939632437786408 -1.732849416600045 1.566774027757885 0.2122070990805122 0.6582008382884251 0.6799682991108582 0.2601256220529426 -0.3224786578772904 -0.09953275753490519 -1.319518818876483 -0.1205222583252759 0.7078194912265623 0.7345099923831376 0.01349902974651039 
-0.8529874143244887 -1.103584163847611 -1.169334802332925 0.1748962221725434 -1.221159345038436 -0.8672847950345673 -0.7986049930230908 2.998417757603013 0.007992385955692977 0.2324358092177061 1.692747312824644 0.007109014102687715 0.1743658362087379 -0.08269819349515171 0.3629875407208414 0.8124914225025229 -0.3677895942121686 
-1.259566068074327 -0.02817597318850798 0.6103713843947667 -1.285938830281502 -2.317175612008703 0.07502674241410179 -0.1265090272016259 -0.6764130131409722 1.083567034328330 -0.05715984637175375 0.8196446639414403 0.04320027078687473 1.750530524160238 0.3088245382972343 0.8952569008836627 -0.1008485271520892 0.2653648382128195 
0.3024935052508032 1.504346718243003 0.3228824760387449 -0.6002353517708660 -0.5380083220474594 -1.243350835921901 0.4372683422756258 1.866379078710968 0.05061039133015027 -0.05181100249261542 -1.434392690088742 0.04395573414603027 -0.9437548199524772 0.3192454684069649 0.3185187285558372 0.1399679285134065 -0.4941153491974826 
1.403810688976615 2.743602585844283 1.653414402880543 -0.008111870262628160 0.1539189711872969 -0.1600666412916553 -0.4908597353192172 -0.3912201896024434 -0.01352706974047301 -0.1829076307049115 -1.672355404588476 0.5941572429151557 -1.846197079161861 -0.4407830407707439 0.3409659285332996 -0.6366090763748672 -1.047232082519939 
-0.5098351253664717 -0.04819971615695360 0.5157766227242078 0.2395635327372839 -0.3884380735009039 0.2613390926738121 -0.03984264870357449 0.3148107880561804 -1.264153383115649 0.07276625528620300 -0.3395028465813854 0.7852046267446846 -2.076105414013928 -0.3127053039713952 0.6734571824341417 0.8266618130461210 1.289202597707592 
-0.4739202216465235 -2.729998171139559 1.005913218345318 -0.5705025880291918 1.980768171274408 -0.2230469910224005 0.3604828041732084 0.2590408281770848 -0.5054280589783114 0.1758258649500400 1.871646459164751 -0.4356842599583058 -0.7426268483405654 0.1221302508303571 -0.01245699249985781 0.05643204668765475 -0.1385755119881061 
-1.594551698739149 0.3852115855746646 0.2339453563982268 -0.7828919449635544 -1.530918121281207 -0.5535077454838940 0.2343495544427732 1.872619866667920 0.3641256788922974 -0.3881285346595291 -0.6632811541493140 0.5824865419674972 1.745962939750722 0.1548399842311070 0.3807426560589263 -0.8382662082892802 0.3972612435817791 
-0.7151034113564609 -0.8337814676575072 -0.5044121069686683 -0.1242317095173938 1.080762045620160 0.6582448356057780 -0.2499035167861577 1.876911099942409 -0.2613661471694003 0.4554797261203737 -0.1809675480247153 0.2610534561754753 -1.352658924723902 0.1302663626431328 -0.6225571758963174 0.4666648395117990 -0.08440035751859153 
1.202381520520254 -3.574337100265078 0.8459045120986554 -0.1141979255434377 0.2771495037832150 -0.3018596019078429 0.6894611849488959 -0.3231902453960489 -0.2192744848236060 0.04950307665075636 -0.9508675044267682 1.922067483914793 -0.7092373913775893 -0.2027315990290536 -0.09091517726479714 0.7969780017431871 0.7031657463744500 
0.9745067392278010 0.4156786397058684 0.9368271802767534 0.3770219365934229 -1.441346276955425 -0.2182834416003896 -0.2823988329361561 -1.163676959725715 -0.03958147498829476 0.1016251410035297 -0.8617216617225198 -1.173676254523022 0.4623931202791138 -0.3001188818084926 0.3512653734575262 0.9133605744599171 0.9481250792560717 
0.8486344376562698 0.4349357450605393 -0.4229353759138201 -1.390164579811716 1.254781974671337 0.8204122445248856 -0.3470992809324690 -1.471265856861443 -0.2721132187666502 -0.4531667475602441 1.095772385340641 -0.3164012149714024 1.273131283885471 -0.3267741935627552 0.4276941856207731 0.4281232698600915 -1.583565058239481 
-0.3060388575316618 1.008783258194039 0.1168678699731327 0.3249465769636335 0.6337529345762746 -0.09835199675676588 0.5094386423547160 -0.5927760336785539 -0.9955886247136078 -0.2962908129142422 -1.567848288897121 0.2716025845537982 -0.7416121668878827 0.005895494139986216 0.2362589132679502 1.727811044900508 -0.2368505375441931 
0.7463633592795154 0.1914358767715556 0.8233350729102036 0.4502126348202258 -1.324299928919267 -0.4890238853201098 0.08886535109239870 -1.488207362108101 -0.9777826394358072 0.1301435903946660 0.3637898316550133 1.386663008603730 0.2458834083061513 -0.3120722635500807 0.1549846843764470 -0.6302887759465234 0.6399980370699985 
1.498618086121058 0.8139468280396025 -0.2831607984323700 -0.05333444490497523 -0.009557081281054543 1.283629700184724 0.1427999818861262 -0.4616485414796042 -0.6017710972988782 0.2485423950047839 -1.929387836702466 -0.3749077439307461 -0.7018653105086660 -0.2967540573658744 0.08764748410272157 0.4322520039385767 0.2049504326270536 
1.410635888232018 2.081249756956809 -1.475105486645833 0.2469443351151280 -0.3350556473070960 0.1062526058020119 0.3327317486291100 -0.8428391988502355 -0.2692234085874175 0.3925191792635727 -0.4155338069667751 -1.151559617933502 0.7255465383758006 -0.05614486609790784 0.6764041386889845 -1.791650158874578 0.3648280001999293 
-0.9171317014674533 0.8813725451303532 -0.02425518650168828 -0.5892494858731043 0.8135381625163105 -0.4636757477956116 0.1665456049871673 0.07537854332566411 0.2706851222512646 0.2097112124600750 1.260803310069820 0.2799960069218038 -0.1505620507423284 -0.3993858900587539 -1.275291526231665 0.02254746110262540 -0.1610263800944826 
-1.041560491689885 1.099467927889630 -1.435139305712639 1.247400889269081 -0.03621368149941311 0.1292926396237138 0.07432941051817887 0.5349014692457726 1.016418379862271 -0.09008957134890119 -0.4264970094918030 -0.8733326060074723 0.08368442772213627 -0.4677549184693875 -0.1970444949121185 0.9791765247384190 -0.5970395897375861 
0.9544537293641933 -0.7911285692154407 -0.3335637809565743 -1.182969415480722 -0.4102028472048954 0.1015459025580889 -0.4148601701445083 1.193982532329732 0.02898236697154047 -0.1421663617788535 -1.117627134799035 0.8585690447870622 0.2365393903352104 0.5076370107857555 0.02502259566227982 -0.4418976407961392 0.9276833475823367 
1.388390273105143 -1.395387920007889 -0.6553572907343105 0.7089425033684907 0.5919003885094364 0.8822033778537982 -0.1898954969414381 -0.7267002158839115 -0.07092360399912465 0.6293021335125766 1.238709687967701 0.4587745329179792 0.1336529029265629 0.2151018966348640 -0.3940502643746489 -1.209429803082634 -1.605233101772597 
-0.3195307703589403 0.04955653014299287 -0.4236506457100956 -0.8948515120681491 3.661212094534039 -1.166940351172527 -0.2079699699419294 -2.587003957941672 -0.2618943203806438 0.2237727208972732 0.4080328121309515 0.2236593371237670 -0.8512028559264718 -0.2650800491307375 1.244938527931546 0.4378552799192009 0.7290971299514342 
0.1978929329995381 3.235857598553614 -1.931989675687140 0.2314410923961692 -1.404931277056777 -0.2915384364824759 0.5047969057833337 0.1839264397975546 0.4366794474290551 0.08262161251659092 0.08474446872550304 -0.7188559138756223 -0.6178151188469829 0.02753281036624649 -0.8011289554271603 -0.07141594801712706 0.8521820168257417 
1.541993543975791 -0.7071565225453604 0.4136300294341468 -1.467803952833724 2.586766061188405 -0.7102229168143663 -0.1350519962149137 -2.137599379940094 -0.4846109203115667 0.09274232685378869 -1.616595422645495 0.9537547518713682 0.08695121263542857 -0.05550921939913694 0.4107295293097134 1.034349250113173 0.1936336253228659 
-2.225718688448374 2.615413360675732 1.018906898728030 -0.9570028838555162 0.6804438745279049 -0.6843278897700983 -0.2196301090570638 -0.1847148979502462 -0.4326481843824339 -0.8553412114135537 -0.8463349276166996 0.1272052884276158 -0.02621506061911654 -0.02181374235799870 0.7871494812191554 0.8066478628582566 0.4179808290344048 
-0.1431506690687372 0.3504068390935953 -0.05287825866440454 0.3234277939658478 -1.593908707478337 -0.9652339311630462 0.07489822087549954 2.057786180357385 0.3734988133346668 -0.2800857197006919 -0.04487547246567582 -0.6791854050866692 1.717740755876399 0.07788395538562033 0.07817666867013538 -0.6801125168453818 -0.6143885470861992 
-2.101212899799062 -0.01711700690375237 -0.9743637315573316 0.1052476202161487 1.414959865370442 0.3178286175178101 0.3052069442186716 -1.625130278094759 0.3869638871380781 0.2151975709249249 0.2813720442475711 0.8027600016388616 0.2240017011092907 -0.3577289384939539 -0.2220728694463017 0.1385700184245462 1.105517453488814 
-0.4536306467747633 -0.5120679635610769 1.538284838443827 -0.3999228045914642 1.964135641656320 -0.4354587921928425 0.2522900240738473 1.074898440705909 -0.6569685004325610 -0.6156292588850781 -1.484103194324091 1.081893569136415 -1.462577737318727 0.4699494907222449 0.08821746227526180 0.3033159132070389 -0.7526264821402833 
-1.049739624055598 -0.1942901643460979 -0.8759932998880040 -0.4611209726328999 2.073015434339385 0.08488332214151147 0.4431089707854859 0.3081283008383134 1.630604162699455 0.09355497788913147 -0.7853916980549186 -0.6885293425207496 -1.039876253208741 0.2865150803599428 0.6595571011324329 0.1732299441809320 -0.6576559396595693 
-0.3610706887059150 -1.507398864899610 -0.2750768595299150 1.953242606462796 -0.4058069398915138 0.1097889662246826 -0.3835219714190565 -0.1509787503528830 -0.3570661718344352 -0.2373663962377469 2.639613697037153 0.4061084888107348 -0.05118061473213700 0.3334987179771772 -1.706842191992994 -0.8310502658895592 0.8251072389732246 
-1.655687436474705 1.547496818871591 1.165893649964279 -1.047981789287753 -1.219615397905171 0.4357933916131971 -0.05893176357352856 -0.1477504711893083 0.5808801852248061 0.2718970782988833 -1.338338909483724 -0.2187833782918447 0.5597956903261958 0.1142474596616614 -0.2126936433038706 0.5441027467846757 0.6796757687645898 
0.7138163982126840 -2.964232746854014 0.3430317140209091 0.6905277307136358 0.2966119577233521 0.7522392021966474 -0.1483071589931778 1.291934103734778 0.4336867433392245 0.1092716381784896 -1.385139735202362 0.2574920005414158 -0.8803385390556775 0.3082461608235801 -0.2807915687533684 0.4525907544549939 0.009361344918894537 
-1.172899660760656 -2.172102012216439 1.512945545581353 0.9547999118946177 -0.001652238119272100 -0.9160182713978542 -0.1383961099577154 0.9939940491055159 0.4696250583940828 0.05257484797378556 0.008721505302456950 0.8578460164350887 -0.3542101445200472 -0.3282408091832278 -0.05324990383056745 0.1211644271801601 0.1650977881187430 
-0.8044988501642749 0.5559804488596887 -0.08231383263699471 -0.009629237686042071 0.6598646315624358 -0.6119465595791717 0.007076235044088863 0.1611046449373033 -0.7435413236646493 -0.7056909866043608 -0.05026986432989858 0.3867511863313811 0.8916256408324243 0.1910405269463700 -0.1367998384219818 -0.4069445925239093 0.6981917710976010 
-0.08236093910188304 -1.788927174135244 0.5640135157305739 0.9153855953227693 -2.833472754697343 -0.07914841646054924 0.6497546183862074 2.499812760803795 0.6680323816585370 -0.7628220777223140 0.7244432962095447 0.7990168570473574 -0.1975503732191653 -0.2475093664592074 0.1007122209306010 0.1081646770996625 -1.037544821393422 
-0.1191204663796192 -0.9430118344504054 -1.267859341707155 1.314285040826055 2.331639172579610 -0.009585857538274446 -0.5873802017325351 -0.6204862902640078 0.6447820959474062 0.1805457263366214 -0.09573859341388254 -0.3573960605469740 -0.1765506903261154 -0.5960289561453807 -0.09184557247321587 -0.8691248957438361 1.262876725031713 
1.722983654781055 -1.936413645328975 0.5839313719781613 -0.1510495730048606 1.867601619230024 -0.3201342314877859 -0.1902460040726810 -1.315982836538859 0.4281779556109176 0.02430705694620456 0.008783774396485151 1.483065685419030 -1.014721894815881 -0.07670133681719818 -0.1928913031273196 -0.3176272796860094 -0.6030830134823034 
-0.1971499117052217 -2.050166131224195 0.9244358912919136 0.1500689182162124 -1.799349722520074 0.2179295659926888 0.8995662026317333 -0.5775054780743097 -0.3680274705244666 0.1089512729139051 0.09302797410037740 0.7086964187197989 0.9892539398711895 0.08009259225192607 0.02194559647408144 0.1789023916410088 0.6193279499434039 
