solver_type MCSVM_CS
nr_class 17
label 8 1 0 6 5 13 12 15 16 9 10 3 11 4 7 2 14
nr_feature 199
bias 0.000000000000000
w
0.1150423982633966 0.3441378131866368 0.8498913119109230 0.04492807787158777 1.037513338703006 -0.6829322125516426 -0.1238078474301379 -0.2514129559239838 -0.05582782363817805 0.8546122988433696 -1.506112725039405 -0.2778098629634528 -0.3996403315448532 0.1584730616958952 -0.4998583190086813 0.5669058642009783 -0.1741020865754711 
-0.2391930882678497 -0.08664866375986631 0.3551828643326149 -1.361041595375008 2.010785300754985 0.004241883252497274 0.2299383371546176 -0.2875281137399511 -0.2626953792693652 0.2036239175064989 0.01627938780789559 0.2603620162290527 -1.297230717779674 0.1527815741663467 0.1134533657461890 0.5623267715775320 -0.3746378603365137 
-1.474830509394146 1.245558344727576 -0.3817570574026867 0.3838678693830955 -0.3198379009540646 0.01636746278947289 -0.006810390339496261 0.5953124670451602 -0.2612161844911634 0.2387160393946819 -0.05204504464552868 -0.7274156680607940 -0.02613493275197497 0.07200648541973773 0.3181468742676356 -0.06987723639238441 0.4499493814048902 
0.5933559597410922 -1.659809850139701 -0.2443249492263758 0.1836380364902623 -0.4386787762084610 0.6700940828509243 -0.1138211358329670 2.084292867315300 -0.3516506819078035 0.5464574265904814 0.3700112413237041 -0.5803990540919759 0.3033402740772321 -0.1470503702129955 -0.5547719411279345 -0.7066510649606711 0.04596793531987682 
-0.1336412212320512 1.592768813057838 0.4402325539891116 0.6882820054139042 -0.5433220239238098 0.03463468143862057 -0.3201701746157855 -0.5239460413785305 -0.09999334221029385 -0.1211929064440883 0.09199405787363395 -0.08695878560646232 0.2521139134199046 -0.07677949000956234 -0.4420740311180777 0.1523678200761943 -0.9043158287305398 
0.6668132818234792 1.106317726503792 -0.1337903719750060 0.4511434784804211 0.5091415685782608 -0.6945367061824838 -0.09757741144950975 -0.5469668257901267 0.9196034172954478 -0.03341808830349650 -0.2874785731750946 0.4130789989207060 -0.7812512922410286 -0.1466594618815780 -0.05062082243205421 -0.8591326018700970 -0.4346663163016401 
0.8618015663291675 1.275174425143167 0.003312255860400386 -1.501185083451954 -0.5946063662127017 0.3406105463556509 0.002145152714965104 0.8620914566236422 0.1801249126309845 -0.5286818899886544 -0.5768466038007503 -0.1305497488253659 0.4111556554961045 -0.2005044813629374 -0.4392495282770630 0.3360943499439185 -0.3008866191785644 
0.02170311498587957 1.137829150182112 -0.6964218819201088 0.1499012162469397 -0.5839456381388086 0.3098248768376379 -0.1901434989793585 -1.184701538252244 -0.4555072121717405 0.1997290400329410 0.09865337142545189 0.6979728183325146 0.1261748782376316 -0.04943005187307575 -0.2294908709605445 0.7069282785493116 -0.05907605253452300 
0.4073658963013258 -1.290315550282359 -0.3345251797152175 0.7917198707842100 0.2277135233657325 -0.1739250139133398 0.4191831383062257 1.321317472896146 -0.2254528784836395 0.4269586090631055 -1.037977620185858 -1.060941245707405 0.2030869410788060 0.1055411764099014 -0.01074005930179114 0.1589541387494009 0.07203678063474184 
-0.2198136753490079 0.7951202523597831 0.002660816257663484 -0.7615773432600701 0.7026928183091874 0.2404897008049110 0.06984148962941976 0.9953282863683733 -0.6200362157487684 0.4503601051519247 0.4240596692614341 -0.9313585161632331 -0.01302991468389116 -0.09567089287529236 -0.6465400477146000 -0.2556092110450791 -0.1369173213027594 
0.9973837571090304 -1.135590531700113 -0.3183951627152479 0.7236647690367548 -0.1715853563289186 0.6223136914859310 0.2438869889492513 -0.7587936110966744 0.3322169280786447 0.005138239136412396 -0.2451564237623015 -0.3818303041975708 0.6015988000506539 -0.07731271170824440 0.6462459073817218 -0.7098591945864567 -0.3739257851328682 
-0.1157057218891948 1.301545196668936 -1.091822897243930 0.3384100073995200 -0.3462593943372268 0.1052099375928261 0.07630074062336244 -0.6414096366186706 0.3477816845307814 -0.4296419372299232 -0.02636102751644360 0.4755804774232740 0.2581801655171042 0.2315153281491918 -0.1180027233045341 -0.4487156444058741 0.08339544464080664 
-0.3198627396828370 0.9066094765047434 -1.081991746754954 0.3614545300317961 -0.08551279936457527 -0.2879293037970859 0.1528829366759981 -0.7810494567603413 -0.06118810908097397 0.4410039964763435 0.8599905867572829 0.4133704386691705 -0.1888426740964332 0.1418398759998097 -0.4039345298658236 0.1026950411740403 -0.1695355228861549 
-0.1471129889759380 0.9713594267054168 -0.1776341656351135 0.2588336969357718 0.1073687496884947 0.06458687373803884 -0.8094995273267672 -0.1169787390815088 -0.2828155898519865 0.4609089768147957 -0.8483164353897482 -0.05870397255511743 0.7154919809589470 -0.09006687684362943 0.7988564598787292 -0.5608231693096255 -0.2854546997507587 
-0.5817928626678308 0.9378009273735697 0.5112629191108595 -0.4211756728356658 -0.05915163432660898 0.3110697342804830 -0.1708835190421141 -1.825738344234523 0.5484556569297303 0.5739090995711010 -0.8551928174342632 -0.2325967792067582 0.2854731979789937 0.04050591126836813 0.1917050937801610 0.2829343337316472 0.4634147557228434 
-1.099878852851894 -0.7554554665039176 0.7072274016302854 -0.5078081627706594 0.2190550786927553 0.6107926132794047 -0.2391111684973113 0.5576747444480924 -0.07806456983151534 -0.1491969309586146 -0.008687081897502983 0.2181327072869176 -0.8500548734022426 -0.07903762253875066 0.03119531023138068 0.5902784527127200 0.8329384209708458 
-0.05082494073146236 -0.5003157832062284 0.04674105750312010 -0.01753214629395888 0.3179969107507288 -0.8442466755592349 -0.07700129630713327 0.5917480322957750 -0.2790171964579890 0.7412602179344578 -0.5587815512090225 0.1578665966447699 0.6448875880114860 0.2360330875183836 0.3357027235904052 -1.134267090280187 0.3897504657961069 
-0.7044633353985050 -1.938078823919154 1.184334325880926 0.09485362709396848 1.493413494355189 0.01105341753468059 0.2451786038341308 1.309617346587906 -0.2802165497930827 -0.3066710463734614 -0.2808080957138330 -0.3386419028939309 0.3242563761786540 -0.2887296905641256 0.6844584581606683 -0.5896696007307142 -0.6198866042393167 
0.8146992238471479 -0.04997068579704223 -0.5808367583845317 -0.5095893217045216 -0.4804120714017960 -0.03956913162038596 -0.6693903423783704 0.2971123536723221 -0.1218184909586632 -0.1579755528550035 0.5175134280868127 -0.4151996249634206 0.5161852748423077 0.2426432037183366 0.07637370046189275 0.2646768038697383 0.2955579915651718 
-0.8890862920890265 2.196142470784034 -0.7626936707319221 0.04933461247197083 -0.5901835768661570 0.5934750045875167 -0.1182809795377710 0.04258569978747009 -0.05650919538788218 0.08015461159305436 -0.7386713701268297 -0.2147535640859491 -0.02459157561180309 0.03529680071741159 0.09382848138047101 -0.2757062708599516 0.5796588139753552 
0.4122617739809460 0.3887428651365769 0.5028404850091159 0.3924659397623812 -0.8015678516308683 0.2411838252247111 -0.2144094724860804 -0.2387088019549800 -0.3409464425077380 0.3260077106785890 0.6760642411609322 0.3196877950616295 -0.3572431502504141 0.06986838013324910 0.4574670872615217 -0.8965645128856355 -0.9371498716939369 
-0.6311967815439535 -0.05685192081567426 0.7316232372204944 -0.6966475867377163 0.4121519156297410 0.3158669400381520 0.07784667814603721 0.6315277119762910 0.06254070407493781 -0.5762403640230516 1.436803459340828 -0.5423637495242335 -0.8305293583067134 -0.3209687325473358 0.6029149126435889 -0.2601290361507561 -0.3563480294206337 
0.2464600269083847 1.624850988394368 -0.5177683236573181 -0.4394103355896629 0.3936769452408677 0.2076817387928772 -0.04142925843803744 -0.8316319242918385 -0.3936191849610367 0.04985018978293866 -1.319083576676339 0.07966606718035295 -0.2932830663309079 0.09062406585821696 0.5809981634653625 0.09605356764638294 0.4663639166753916 
0.4694688042232093 -0.6427691908830891 0.5261620764544575 0.1738567374551821 0.8242721684614325 0.4935407206172952 -0.1920899615308475 0.3288224501849378 0.7964742899900427 -0.2938953722378638 -0.2958527622082187 -0.004844735692261903 -0.2681736374172565 0.1279054018296606 -1.013902584252673 -0.2216430990698231 -0.8073313059241761 
-0.01211577416365062 -0.4547536134614288 -0.03351123435103329 0.3396077434752859 0.7011304540586025 -0.4589845227840042 -0.1167467524239187 -0.1251823625235839 0.3093745257580795 0.5485818339495142 -0.3138815021915817 -0.06565485815069261 -0.7629990735242226 0.3105361957213353 -0.7671008667192435 0.4714843446230922 0.4302154627074640 
0.03060653680181804 0.8227203815451536 0.07078388554669558 0.02055095827370823 1.718387447765928 -1.049249420514227 0.7567326871990889 -0.9542090991724878 -0.2318459641503752 0.03838114467991667 -0.7701175795557963 -0.7770176479591134 0.6071229569321460 -0.2444221275512444 -0.2193336009131219 -0.4653320034115650 0.6462414444834659 
-0.6168033502513732 -0.1574059744770918 -0.04055486014987430 0.002025846904235170 -1.584767025737285 -0.08531040746327481 0.03681902970660875 -0.2976778136412264 0.7991307644354849 0.09328930527404479 0.7355457610715757 -0.3598144528594448 0.3741505964084435 0.2753295817876819 0.1854081240367717 0.02813701688138575 0.6124978580733360 
1.172887882395731 -1.303101176130289 0.1446060963369015 -0.5136224338117991 -0.2225571221992871 0.1260004949777645 0.01102176143324125 -0.6028844718037225 0.4459153015645789 -0.1012391358985921 0.7900890963903021 0.05766627892138655 0.3027636282243639 -0.1443097625542018 -0.4043486688567964 0.008340397569749605 0.2327718334406722 
0.3102700801446082 -1.081430464215672 1.199017967993169 -0.3508385873486317 0.03266741549801300 -0.1066879702592685 -0.2581968757513202 0.2233138586632707 0.3130208164436954 -0.04820043523326222 0.2063691684272310 0.4633132684113777 -0.2008213922283574 0.09390579409183854 -0.3830905900598315 -0.5001288286135379 0.08751677403666624 
0.5836693270676439 0.3221136228085656 -0.08495185521177108 0.8916020481040219 -0.4016617060687211 -0.2872736036464660 0.09606287036705449 0.4193734895852800 0.8220568605285216 0.5141806891983454 -1.093284600519907 -0.6007550197948118 -0.6071360534969713 0.09394246265663586 -0.2779887702925039 -0.1445551884097022 -0.2453945728752211 
0.2417613419666881 0.8384072067132705 -0.01532973000989178 -0.3507424814755854 1.530931047530376 -0.1779197842304035 -0.09823968985979277 -1.117318235242745 -0.3244734269723346 -0.05820717324654172 1.156563978334563 -0.4580293050674407 -1.190035945245492 0.1516596418191110 -0.7338874650614003 0.3889506455347219 0.2159093745128871 
0.2301676391636353 0.6287899413192506 -0.9833554400243069 -0.06142896163952068 0.6695998506810247 0.5690714856337701 0.3282885889474822 -0.7014316699670599 -0.2310226135157969 0.4031998528193030 0.1468939405997654 -0.7109879859818091 -0.7367909908634939 -0.1657256993225088 0.6735880868038390 -0.3183643240455836 0.2595082993920013 
0.2167691199295717 -0.2292368250726657 -0.7293104714108725 -0.3060407353534007 -0.2282870186681899 1.110312969977966 -0.03087227585899976 0.3367138495294091 0.2406951647325246 -0.2660875387964286 -1.898946024777351 -0.1744723123388734 0.2764208489557379 -0.1333739845652407 0.2346568780459642 1.059045445450592 0.5220129102202659 
0.6780161470289312 0.1666492089612992 0.4205693755012318 -0.8369945075449751 -0.2008254912131732 -0.1377102277842695 0.4210090368490186 0.3289169635766729 -0.5983630636062294 -0.1797349948786451 -0.4152656756105724 0.2709143410248229 0.5577769654945157 -0.3556041433594637 -0.3373371879710014 0.4647251072114364 -0.2467418536795995 
0.7954956065225753 -0.1995574023253083 0.9139471697258149 0.5728802461834009 0.03017384485799283 -0.5975063912548333 -0.3154090396976383 -0.1246608130836502 -0.8579236066322637 0.04786684483787821 0.3876716299078638 -0.2131672037805932 -0.1907495434458269 0.1768041515445160 -0.5942453590314517 0.1485668926287687 0.01981297304275188 
-0.02230593737759982 1.497877559176372 0.4616978796724869 0.01114216256087171 -0.6152232485232813 -0.6208932209098855 -0.1840218842150295 0.5841349346233100 1.091155761889993 -0.1032643338785529 -1.648653443448409 -0.04259839385660685 0.05487469727225098 0.2980845502189295 0.08875615433220395 -0.02231716753024844 -0.8284460700068010 
-0.9229023979247456 0.9905122726291510 -1.113168392831643 -0.2669466691680225 0.4523838808473259 0.07889756284355800 -0.06023305574328271 0.4570737704600576 0.4704944388117824 0.2255321061205822 0.7343798884267400 -0.4539824604320643 -0.2891506743697680 -0.3185050801960518 -0.01095029264665772 -0.5102104045904278 0.5367755077634740 
0.2983288605834494 -0.2673530115927815 0.5688277681972773 -0.5407990598126953 0.2732973342003692 -0.2069812976518052 -0.7946598273383517 0.04745637458788293 -0.1879399548371810 0.7275452118058400 0.2235408176906935 0.7400080568101439 -0.3724010189278749 -0.2675679172597553 -0.1128062157495680 -0.2073855713067129 0.07888945060106918 
-0.3861595363776588 -0.7196318691048996 0.6075681379969744 -0.8977955052667738 0.1613030784255102 0.2249494735290294 0.1245823269687425 0.9247580177129882 0.5202766517538319 0.03824790199938997 -0.4594681066908850 -1.016999506173756 0.2407960226366719 -0.2091245735294079 -0.1126996078288412 0.9025485739619303 0.05684851998715302 
-0.3524329857448857 -1.435184593712223 0.5452222681277202 0.4430191916211692 0.6269426009920118 0.1486065529397576 0.02362541677131937 0.3915718931226139 -0.3688541123659843 -0.004927031342383703 0.8855678591383052 0.1161214749177169 -1.010378715507408 -0.02555087450406844 -0.1755219004384678 0.4307941463942588 -0.2386211904094485 
-0.1480232985977022 -1.657819614369189 0.8118713150821061 -0.2025429653448383 0.8055928086867338 0.2405503815501282 -0.2175625607389498 0.7992192447034554 -0.6219018489500717 0.3819087285910960 -0.4278405576153816 0.3051677227310290 -0.4004306745976081 0.1285422220890468 -0.1457151657152225 0.4050538863834501 -0.05606962388808318 
-1.471167245795813 0.3887430012601864 -0.4925912152934122 0.3492721527638629 1.000962885784316 0.3552379347945123 0.08163153493757916 -0.2649416111558519 -0.3013626119542726 -0.3141753875225485 -0.5293060622560782 -0.2358522105917857 0.2617350372665060 0.09182352989640043 0.2580766904542995 -0.09723704720594467 0.9191506246180328 
1.646676351621166 0.2927228423475098 1.015857418068489 0.3442540062750892 -0.09786214232874599 0.1646870374548339 -0.6497239179866069 -0.1736454111319599 -0.8402149258319234 0.09702862279816774 -0.4585208143283917 -0.1377967405678724 -0.2739423637092029 -0.03315552602020832 -0.3611093432749458 -1.046134324275791 0.5108792308903921 
-0.4830948574768447 1.875999615845636 -0.7013801179519346 0.8343398016768688 -1.350224582127507 -0.6615469303365011 -0.3949275854131784 0.3270070421665328 0.08312810181120180 -0.2006643365826905 -0.3148361615070747 -0.3075467980938731 -0.1215299409826282 -0.1915539215441903 0.4987829813161747 0.4844002476192478 0.6236474415807591 
0.6661357534447491 -0.7022668414624489 0.1458610221421645 -0.4293734268447395 -0.4671161731330910 1.370753698307295 0.007949685540117941 -0.2177033809761181 -0.3630702288924466 0.2465489651952022 -1.992836570811830 -0.08684071136080401 0.6212553330778169 0.1188103643740440 -0.4296530088112188 1.126465365755131 0.3850801544561766 
-0.2028623423627090 -0.1015651250866748 -0.7564231705850529 0.3924298894465967 0.1572881468270516 -0.6567130066728434 0.05761969884188398 -0.8160735648072739 -0.5098657653562012 0.2777941104663662 -0.2105797529781965 0.3809268677127817 -0.3625050291050972 0.02618265545934800 0.8161325207936043 0.3569312963895803 1.151282571016840 
-0.05275972114681869 -0.4582741845811552 -0.03568184406144905 -1.098290757963567 0.01576226345472532 0.3851951780904285 -0.05938785097755233 -0.1490379893798269 0.2035198798723757 -0.08970307025793516 0.08523415996991782 -0.2718766371412756 0.9411997693725673 -0.06858537718874112 -0.5235861129125337 0.6587882072399114 0.5174840876109347 
-0.1768649007768037 0.7652998191083193 -0.3085758135203129 -0.06180588132248691 -0.8042416912269919 -0.06272753405552910 0.1903678903212670 0.5604903001644561 0.6413589750261265 -0.6144227497670720 -0.1726498215927276 -0.1257163942725063 0.3688646834291839 0.05391671655170292 -0.05149929236606168 0.3034692743391994 -0.5052635800397720 
-0.2455535988630349 -0.6169326766771026 -0.2218720925607722 0.8422687901378123 0.5019465190435666 0.09119288165708496 0.1000010373998035 0.5051593624511631 -0.3340469531436259 0.3387083409799399 -0.02255189472041007 -0.6198202556082749 -0.2960122683287810 -0.01899473525993305 0.1672256776652258 -0.1983896636177614 0.02767152944509098 
-0.2611441053385797 -0.2047764785586462 0.09291324256596913 -0.7890384714717890 -0.7082699886141185 -0.6393444687421204 -0.3156652144489621 -0.2148771136329013 0.4780607685263845 0.04222342288082007 1.503868753329755 0.5873932768683876 0.7001044203741756 0.07900563987779333 -0.09327528620333281 -0.5204851516308183 0.2633067542179899 
-0.2460045904707731 -0.4553945771553850 -0.07956763109900684 0.5502168487692244 -0.006085547435571883 0.07712776802406670 -0.3115580108398381 0.9478930938411297 -0.7060160461434893 0.3229335749606492 -0.09859668054550813 0.1882602298256911 -0.3982145784505859 0.09233860432228547 0.4913640260858077 -0.3355118449640582 -0.03318463872463177 
0.3644875945070618 -0.4140094855039007 -0.08497037705499255 0.2582389217134653 -1.442465105135730 0.3631570698017129 -0.1279798349314458 -0.9614112768893509 -0.09288557300302824 0.1421971026334431 0.5793307443002230 -0.5788118659106442 1.002641728785016 -0.1821594915253653 0.2037155510984235 0.4845510982205850 0.4863731988945404 
-0.1208494010809597 -0.01195425703179779 -0.8848698785007539 0.2796684619034859 0.07422424493295945 -0.04739228340040930 -0.1357937426011702 -1.103726641039436 0.1824433471931894 0.1820469509917564 1.303736568388839 0.09079386059345425 -0.4795704555990743 0.2871213194021371 -0.1075376671842124 0.2189349728736312 0.2727246001583715 
0.02391993261747917 0.8553349203517180 -1.228504413396259 1.123048835607723 -0.7975905389061118 0.1480450286400699 -0.02160150072533240 -0.1553256257501313 -0.1082938392539180 0.05879241444904584 0.5396655540708236 -0.6457486588018804 0.1842982672115688 -0.0006094530146384935 0.2065637842263366 -0.1134463997051861 -0.06854830762132272 
-1.052151500438745 1.150529263970234 -0.1315631432904199 0.05674930141481734 -1.127749865981068 0.8689552334140054 0.2347638997745039 0.9163479302751524 0.3801458757118357 -0.008110662239991956 0.2220295940714854 0.01094620977905527 -0.5107103523484136 -0.02269373631950555 -0.3613712608734121 -0.3046041080432183 -0.3215126788763174 
1.375661203893264 0.7866306172030094 -1.252232796564568 -0.5159405417616687 -0.6172172025877474 1.013300287329373 0.4064426189150629 -1.033150544598063 0.1672167656747518 0.03538363491143232 -0.1897460467105621 -0.06433603737824274 0.8228555747653403 -0.04061450877655089 -0.9977127365631899 -0.4537026524260992 0.5571623646744663 
0.6318396423107212 0.9025643256291858 0.06240794941038672 1.252084761447696 -1.195304163401721 0.6186994614924951 -0.1017051523644891 -0.2134492414400352 -0.1526113273603486 -0.4605147228031949 0.5373177443684674 0.2480420499662499 0.4805235906490459 -0.4107163934306962 -0.4542850788945314 -0.7511147027198213 -0.9937787428593841 
1.211526214360621 1.844528329630815 -1.209471540671304 -0.4834129300594778 -0.4032499793663833 -0.2138976934393920 -0.1704852103080033 -0.8052291755199820 -0.2847390027531220 0.1920903303545281 0.5246497100032669 0.1935360257055651 -0.3188559806457539 -0.2276347799969023 -0.2809917969783709 -0.2134500235592807 0.6450875032431465 
0.1459193231639334 0.9755597796636958 -0.6784517206893248 0.7991200417764180 0.1385445915560769 0.6064662462117221 -0.3595551134493699 -1.197619556542177 0.1695136580211942 0.01430228200520642 -0.3782128400137711 -0.2875669637794541 -0.0003388417829423722 -0.2604663190799280 -0.03999344457778997 0.4971531298884345 -0.1443742523719343 
0.06876875834310880 0.6232638419758829 0.003157688528704001 -0.4700432942346599 -0.1755523915017319 0.3779287104244634 0.2506235419194743 -0.03625671740603891 0.1033368804917631 -0.03101551284009953 0.2510774855224368 -0.7482844500887826 -0.6033114595560362 -0.04950704424753573 -0.7160704057629154 0.9176934044046743 0.2341909640272877 
0.8527699835791770 0.5653270562815331 -0.05815382520694657 -0.8266348307531703 -1.463684698055772 0.1622923088217496 0.2555611675287572 -0.5440042535055231 0.3059568707493476 -0.08694147136335187 0.8219358023172001 -0.4098113589224195 0.05433109490259069 -0.01975821359833005 -0.6858369096767422 0.4121874595465404 0.6644638173553479 
-0.1354978321258221 0.03470912099100044 0.3114888844560103 -0.8291207847781151 0.8407197234682457 0.1499759199431268 -0.4515542098145814 0.1319732483709065 -0.1050394514343709 -0.2423212090747400 -0.5495675832336079 -0.4100500562280784 0.8539770107364262 -0.008834889939753152 -0.7067476417657662 0.8987886567073762 0.2171010937217385 
-1.449145888510469 0.4621822938456269 -1.040313463215099 0.1020079436432941 0.3295233070045309 0.2284617559005324 -0.02816020452120453 2.234653309975998 0.1377665092202259 0.01925726365588797 0.01825977710683751 0.1145365328892085 -0.6149268405719366 -0.1729633743566251 -0.1848933008903865 -0.1320549135319722 -0.02419070764446240 
0.3520830723928972 -2.587346830442015 2.138726141864544 -0.3862625723817405 0.5792735081011609 -0.7372363612153261 -0.3603279484719262 -0.5736106914140511 0.2412891166938052 0.1068774299680045 0.8367662102774119 0.1027558297561612 0.7008845982925183 0.1217136781356537 -0.03793041653717651 -0.9631019395615134 0.4654471745416015 
0.3968565399924761 -0.03736961645552098 -0.2848894129800714 1.210111148420615 -1.221079714838955 0.01404384250885862 -0.3066589934968685 2.163672488760502 -0.8537377240898545 0.4346600656715713 -0.5619662978468130 0.6925457132913605 -0.5150296456327851 -0.03452917203310734 -0.5060090973782139 -0.8722015028540893 0.2815813789608875 
-1.369098875400537 0.7900847384994912 -0.04693062922127062 1.420521730156073 0.5764857332525880 -0.3656536307668983 -0.6220596646493028 -1.722523656534919 0.5227241051900713 -0.04297894608983792 0.6332509910444986 -0.1426317544463946 0.3964017992256956 -0.3994798997333525 -0.4695528908812902 0.07245029967940948 0.7689905506759710 
-0.8699751323870174 -0.2233180918607029 -0.2046373217784130 -0.4517973167660979 -0.03206317716387517 0.7116804493338821 0.1889161132948340 -0.05536895157635394 0.2154309370656311 0.2588046437388252 -0.04653462089099909 -0.1289968355725338 -0.01708013864152776 -0.1967290037737746 0.6789318827914704 -0.2106109629036173 0.3833475270902708 
-0.7726264132497495 0.5083577550212611 0.5208027552152555 -0.007168071451897722 -0.03460082343006263 -0.9358253662485910 -0.2808695278989138 0.4265322468309011 -0.04876391756980852 -0.4250681910991938 0.8560602022434240 -0.4482276688665851 -0.3421419141912623 0.1666460121038054 0.3230667199799067 -0.03316119297198671 0.5269873955834935 
-0.9334415021677879 -0.7736798439678817 -0.1547849238626279 -0.2533161506275329 -0.5630653977525181 -1.120404303476018 0.1541050592283469 2.617080605573856 0.2856746803297540 -0.09116858650580396 -0.2030761115597671 0.6547316703530107 0.6928080842819805 0.1214594336754022 -0.1827396187202213 0.4972294393020408 -0.7474125341042173 
-0.08241077345654998 -0.1964834523759209 -0.6528106669987666 0.6042603490541174 -0.7366653444185413 -0.05344848080861279 -0.06481483045738902 2.256091644333484 -0.2444219829776421 0.3220631183561933 0.005821483127372098 -0.5089308006454596 0.07018143307977015 -0.05358957956691407 0.5993915137438762 -0.6609884513079920 -0.6032451786810151 
-0.8422221874989003 -2.637323909523040 0.01277095792804479 0.6656674087814308 -0.7033501212897149 -0.08316115577525642 -0.05411712955588491 1.582433403417709 0.4549416003898640 -0.2508000900419002 0.4302792733968954 0.3539103498456221 0.8116053055723694 -0.2270822089393195 0.4374277745785054 0.2279916658753900 -0.1789709371618233 
-0.1428948281513103 0.1823785486169992 0.1747029915358738 0.3928879661811081 -1.273289651387847 -0.3115201161546384 -0.2407109673082961 -0.2097430294113316 0.9675132498133091 -0.1136180284384902 -0.06062796317415437 0.2572011859769441 0.9321650991413264 -0.01589775507774170 -0.3467646178923846 -0.8989091837119751 0.7071270994426220 
-0.3772565725850882 -0.4439959520473353 -0.2301232731164104 -0.2126787818291132 -0.3317024987315527 0.2442444127462395 -0.3255084186350435 -0.7099235876199808 -0.1444386857090660 -0.1832143481594872 0.8524195345980484 0.3807178233333848 0.3110365509066462 0.1701297896618554 0.1431817355923114 0.6164667073115379 0.2406455642830533 
0.1797309682406695 -0.2796922370502962 -0.7803955906276093 -0.1839330892331354 0.8203795125303370 0.1753588605144007 -0.1109933318409294 0.8150513689332991 -0.07799436666327556 0.2672844126876108 -1.356696248751652 -0.1029694006348187 0.5756459706635453 -0.2759088090727743 0.03299148789217318 0.5063172290560981 -0.2041767366436274 
-0.1878852076882615 -1.803298916001093 0.7704310032517842 0.2074266922624198 -1.036483239479904 0.1893253179026298 -0.5960902413015160 0.4477233845853006 0.1231359106121959 -0.07897927757185137 -0.1212133132395282 0.3571862948345143 0.7687536985090856 0.02347010019443473 0.5616218417103671 -0.1801235097517466 0.5549994611711824 
-0.3543934883613803 0.02196160206641505 0.9772904592346305 -0.2962836863163788 -0.1090580436542715 -0.2203460103472961 -0.2914964659238602 0.1465433440862166 0.4980100184209163 0.1909241479695290 -0.5265734973882915 -0.9735263566901218 0.7622000904609831 0.2029131526754642 -0.06438693514653789 0.1903242183215186 -0.1541025494075325 
0.5721084847796613 0.2806709317965843 0.05566101239686892 0.2311299073702585 -0.7900642984003892 -0.06403621430020790 -0.05457650174765397 -0.2738778528470505 -0.5057053993229608 0.2607623278091665 0.8893941488633826 0.6715062021176073 0.1569624031247847 -0.08710356225149864 -0.2460684730337485 0.002251499824326343 -1.099014616179135 
-0.1805797384000644 -0.2745076789125595 -0.5012642633163789 1.369286203660566 -0.4402421924138527 0.2854513016148201 0.4372129675844301 -0.5304112842254214 0.07534511910891079 0.2010133378526906 0.4616945385301746 -0.3436602540322665 0.1842623942423235 0.4870614130318093 -0.2697018135498459 -0.3597403467180679 -0.6012197040572701 
-0.4837468768972861 1.702771013199107 0.08890772792079084 1.235427067941441 -1.496305385612859 -0.2441436849404400 0.3438763468905213 0.5659643571481413 -0.1580124141491738 -0.2168898670085946 1.105704835413253 -1.079923005761791 -0.4267389330541559 -0.1294051161386383 0.3166949404700111 -1.050872799744185 -0.07330820567613716 
-0.9472627319022833 0.3534708137371411 0.03236552218836059 0.6770060817689580 0.02046503387733335 0.4927424085455923 -0.3166788342227685 0.6224774788316543 -0.1742890233116682 -0.3235569757091825 0.004515888265547897 -0.7712073009155987 0.3262728847564885 -0.2478943017987747 0.9671524888527583 0.01848252859274960 -0.7340619615563134 
0.5090902351395507 -0.5043357056893495 0.1407075698741733 0.7228084153281995 -0.4000857404593807 0.4164632509044846 0.03922083025466534 -0.2399179359078751 -0.07484673021245686 0.5968993913505630 0.6366079015200099 -0.05969055237427756 -0.8431412003704682 -0.1868495689535688 -0.6226858914295216 -0.7945561242148431 0.6643118552400940 
0.3195715670336796 -2.797650156177182 0.3788491015461465 -0.2325766246476069 -0.09068802405454889 -0.4894801260764365 0.2293792051205601 1.452033071548384 -0.009527676237421515 -0.1456142999638649 0.8635149133755555 -0.1094444281874803 0.3879353949604514 0.1152370635805049 -0.4534451632410605 0.7918376586557330 -0.2099314772353841 
1.078199554909115 -0.5738044299154262 0.3424076130598502 0.1745507347305172 0.4920079394912177 0.3821970664042826 -0.1191296624395355 -0.2234561227706315 0.1340412599655073 0.3608780031879380 -0.2003557513007226 -0.07910594380249071 0.1302491187558582 0.05166035719621680 -0.9445395354103280 -0.6474864767370188 -0.3583137253243477 
-0.4879825814931926 0.3057476192187740 -0.1700586777479834 0.1817884989162859 -0.5003093300850704 0.6698171171273168 0.2644061033182555 0.8107648963125533 -0.1295761601404560 0.2802255988269018 0.4009230237195166 -0.6010410372430964 -0.3910574818101010 0.1079756923335791 -0.2981581168591921 -0.4515178070050809 0.008052642610987716 
-0.1224864333493210 -0.2412349593164166 -0.1663393268624707 0.4509005663310954 1.249164305086670 0.3538233625339702 0.1564208030926901 0.1016096504871102 0.1293193886335059 0.6182400013194568 -1.763833916569649 -0.09027426789299137 0.2103304169294063 0.03543610647963115 0.2435441744446667 -0.9061445584091996 -0.2584753129381679 
0.7483519396695903 1.167479426298811 0.2280920719456327 0.3131274828005916 0.02805192651599990 -0.2952225900831626 0.04235952617517218 -1.472342320017544 0.2906708163865480 -0.7222028937114240 0.1640492365430764 0.1521887966831624 -0.9719448427690881 0.2104931535012181 0.4188647125671207 -0.3702830303661552 0.06826658786042383 
-0.1862715264831953 1.074302187024193 -0.1466583726043036 -0.4791835346021715 -0.1124103355036684 -0.5065166224106087 -0.7260832907933661 0.5208769502405851 -0.6934755478484292 -0.04052140217484838 -0.3957565710518159 0.8021382092616460 0.8135794372947386 -0.1485390704039828 0.3191741030401032 0.02118455563994894 -0.1158391686248301 
0.4352852786370544 -1.323679812053401 0.7922280030312511 0.08588516059458179 0.4546201630754637 -0.4392394340688681 0.4040009194893403 -0.6005211146068824 0.3801543588665877 -0.03231073270603843 -0.5880964250391729 0.06737186730905500 0.5283524532132003 -0.07106245507423124 0.1077417255250313 -0.5770492051881841 0.3763192489952045 
-0.2777433356458934 -0.9407570874515282 0.8732326712894362 0.1687775970319700 0.4625189668503427 -0.7024771356055094 0.6269039925862092 -0.4291456443772058 -0.3650019295220208 0.02538608727965323 0.3757305025671764 -0.3749470549555561 0.7941927246948567 0.01679263426534388 0.1170350843384343 -0.2521972192043032 -0.1183008541414069 
-0.0004982153632956844 -0.1150034850695702 0.8480901561128622 -0.2483652415730743 0.4307236810494657 -0.2737443691965721 -0.2087551602576418 -1.280738661458067 -0.3802998532354471 0.2312396483237477 -0.6667963435097305 0.2590528076298070 1.063598430191462 0.2651852993406507 0.1109713907807400 0.7827708484422926 -0.8174309322076383 
0.3081312694102145 -0.7751818999938097 -0.3535424959797661 -0.8110941707500656 0.6328967977504636 0.1760380466146923 -0.03273436662435298 0.5245165628506673 0.3806640173408344 0.1157637560408807 -0.07491092401421616 0.6620638728995231 0.2829786367545570 0.06109125416170046 0.2801318264474947 -1.199014868494766 -0.1777973144140421 
0.09916519220147783 1.015547508211131 0.01878763201052980 1.116926392709262 0.2483821597290117 -0.7663963365245688 -0.2141958299810204 -1.902195749245093 -0.2937953488218930 0.06763438016919225 1.332222804348276 -0.4757202764583048 -0.3665400920301845 -0.1511813047939435 0.8711746294857969 -0.1369747010578909 -0.4628410599518062 
0.3855033135459545 -0.03238322168069246 0.6859811337496173 -0.2858407226946199 -0.8090533264329273 0.1259600470682850 -0.3600426601525297 -1.984692566114617 0.4735182746542762 0.2488223311358982 -1.042532778460731 1.229177875271352 -0.09667587439954067 -0.1594870907115485 1.090056399769637 0.06989027796280294 0.4617985874893802 
-0.5130265519343990 -0.8888889283024454 1.356031135684466 1.209279663623293 -0.4727895339001752 -0.02150222367149075 0.06280098921553123 -0.2518747087242547 -0.2148133920413002 -0.2277582902098169 1.400351052931348 0.8121683601876646 -0.8941361379173176 -0.05722689411812074 -0.5195082158131983 -0.5205240385841217 -0.2585822864256441 
-0.3081219610803930 0.9204179682085423 -0.2320557395359447 0.6763613288467831 0.04754837009243313 0.1199216685478114 -0.2481924376975554 0.6020767960893092 -0.2280160516466541 -0.3330048141599055 -1.018654888982199 0.04536234512593445 -0.6790361435978022 -0.08693229018935877 0.4239098185522122 -0.1196795556440048 0.4180955870707932 
-0.9783806894173941 0.9809941666167054 0.06962202612336490 0.3565962011064661 0.7028674934770804 0.02572011468160379 -0.03427535228429268 -1.892741502476375 -0.4957258266874856 0.09964412643361445 0.7027277968415349 0.8548607449302273 -0.3863606599853830 0.04900123460227968 -0.2989651674681201 -0.1284283628847902 0.3728436563909582 
0.1194017154010931 -0.5863608125292236 0.8276778420989843 -0.2624323462269173 -1.410642596650488 0.3103396636551579 0.01110799338849754 0.05366201931600057 -0.2232957996825096 0.3401264316457950 0.3013597266019490 0.4294232042900643 0.6742500260293764 0.3480621553833105 0.2003950950819866 -0.7303962903316317 -0.4026780274714500 
-0.1180250477662795 -0.1886266423981276 1.234150254475463 0.4646543405521594 0.4663311992170690 -0.5105055739302526 0.3187823445585959 -0.2753379385772267 -0.2730367558760584 -0.3350508966042836 0.1137614214538829 0.2493404812485183 -0.3044406862751576 -0.3091178412283410 -0.06436976621431749 0.08664799744687321 -0.5551568900825204 
0.5769627597471461 0.3791318032152737 0.7326631847585476 -0.7738441338394506 0.9508307305602762 0.2988459412867990 -0.07894297486034085 -1.816637452867741 -0.6187277454798596 -0.4179353196565530 -0.2648512847668551 0.2944151435690614 1.047351046802392 -0.2478752105322719 0.01614504644351014 0.4572608228601026 -0.5347923572400431 
-0.1007564733101493 1.821192896133982 -0.8889205382147093 -0.8049465468274198 0.8697326804316772 0.1929068395307200 0.07726053196146990 0.2201019566783929 -0.3313813499858222 0.07429759913513834 0.6163003479209802 -0.8301691247916978 -0.5803107633948809 -0.1898373401533245 -0.01100194979741202 -0.7681952863523722 0.6337265210354189 
-0.08924623686608897 -0.2577672017697126 -0.3634270235978056 0.1062387987070455 -0.6559521098634871 -0.2384558107838372 0.1483070232680444 -0.02996703677499795 0.2591357435474143 -0.06900289402644673 0.7100779979378182 0.2610126692841805 0.3682658502584145 -0.1699851944370491 0.01324430567314081 -0.6389252826263776 0.6464464020697506 
0.2157559788228884 -0.8282487423292225 -0.5029905121003960 0.3956246967711373 -0.1862741058260198 0.3501913933844179 0.3971424480544115 0.6102488841966052 -0.2522798742122211 -0.4418726640567221 0.2652320615350046 -0.7050845296808923 0.9327546536781939 -0.04208831566834336 -0.8038398327081127 0.5200003729906414 0.07572808714863806 
0.9361836911553957 -0.3723547491212440 -0.1237204736415537 -0.2321401158496120 0.5334291032991851 -0.3406406779759529 -0.08022735868441790 -1.005819548220092 -0.3788014156883252 -0.3854412289251731 0.9423515876278102 -0.4460598583833432 0.7157762634393332 0.1676455504263369 0.01596723093239607 -0.4633935757051355 0.5172455753144016 
0.9275416242133218 -0.5266080473206303 0.1161604346034080 -0.6831166209010925 0.5705019950009284 -0.4544913828851693 0.2059941624593296 -0.9098556421298126 -0.003062484616084658 0.3916798183204371 -0.5200677642934053 -0.6569755689633083 0.3657530270401694 0.2513678341842918 -0.03137942494199630 0.2168674165941337 0.7396906236354764 
-1.356927550460748 1.043071570252242 1.661983492984615 -0.4118209216709929 0.5342766330175687 0.06082385114762109 0.05176671202788405 -1.549120551140777 0.0003906997323111493 0.2974983991722944 -0.7457878444828481 -0.3246522249554930 -0.06654431558746489 0.3019021414295934 0.3321183445968915 0.4170396594539340 -0.2460180955166423 
0.6021327165600890 0.7551280895667588 -0.2387915953182601 -0.5535806841650235 -1.213382955464766 -0.4632006125854930 -0.2251539423108616 0.3359968096393167 -0.8274173839512469 0.06265460374844788 -1.364456500654714 0.6612719574265163 1.202473751507357 0.08886487448532526 0.3907203808480289 0.1798472814243946 0.6068932092441085 
0.2914944055598110 0.2713956847532946 0.1543467901917415 0.6219927643637904 1.174208405323879 -0.1286936331446092 0.1840459674257947 -1.193770899303063 -0.1411283585242196 -0.4024274715788737 -0.4629780496941926 -0.3880916694470377 -0.6523428948274359 -0.04288964501118759 0.7279306707795641 0.01858901905846637 -0.03168108592573415 
0.7339703085017617 -1.214567607343494 -0.6882055697810643 -1.966887484240156 0.6371483848832508 0.04959121009986248 -0.1392968332383083 1.713432653617338 0.9099557469283903 0.08191396182296440 -0.4405923123443594 -0.1948657086396088 0.3656891318452730 -0.08589805929263410 0.6581843400682784 -0.3976745004876387 -0.02189766239984775 
-0.4855536861725475 -0.2103499490104402 0.4539048911524639 0.4543187057556279 0.6909577054944801 0.06928326140427278 0.2419522121349233 0.5126236635831100 -0.1081077797592090 0.03882409703221329 0.1560542972059819 -1.129099161711092 -0.8987375598566296 0.4502644823789801 0.3596831839516079 0.2199750677100434 -0.8159934312937915 
-1.035103595656801 -0.1119025288611069 -0.5998449024314554 -0.4517178858225048 0.2777239184675895 -0.09381867543384256 0.2177564029297426 0.9325760467825962 -0.2120572322288572 -0.03992132687027511 0.3817607478349201 -0.01221799744660011 -0.03548955797558311 0.2679518433815449 0.6407282994566388 0.1506027900009838 -0.2770263461269860 
0.1520170488506962 0.2140493831231414 0.2086983203009199 -0.2696944296425430 0.2774938661192268 0.3678408843890158 0.09949140357889842 0.1753082224650613 0.0008022578875593561 0.2188656024275140 -0.6682691737397697 0.2400685634412164 -0.3044955377111814 0.4062771456644151 0.2037847825553477 -0.4224714621184502 -0.8997668775910537 
0.6896009351010627 -0.2166628857306878 0.008692508637006099 0.1608645673886571 -0.1055918916410080 0.2106021390134715 0.03155311990152802 -0.6175804931358407 -0.6495833961379573 -0.2711029344006566 0.5962542539427073 0.2115747439111566 -1.012365597412039 -0.1799506350987912 -0.06180006407271058 1.185589793482208 0.01990583625189873 
0.04842213120523911 -0.5975921137531546 -0.2120657228904675 -1.358298734421169 -0.7811941815531006 0.8090916599503180 -0.05305208372459611 1.796931131001860 0.004081745621132779 0.05402306573677938 0.7376313798541057 -0.3828028075283227 0.6215631138435901 0.09381735253549373 0.07665439652346262 -0.2384191982261404 -0.6187911341750392 
0.6167013283589460 -1.896630330024851 -0.8525727089672142 -0.2587686627610833 1.332896478144009 -0.6293786267173085 0.04150196380886382 1.212243714433787 0.2321485602816235 -0.005490003167249808 0.5095117020295785 0.6940291978095418 0.4035570617394928 0.2307598152583092 -0.5116932267970771 -0.2768422591835229 -0.8419740042458503 
0.3514074551482177 -0.3681455367838605 0.2125396274559205 -0.8891288936720312 0.3484663961039660 0.3662828788125124 0.1025037161101206 0.3876606981821547 -0.2524136789517910 -0.01066533934287189 0.5507419310383768 0.1792193274827797 0.1335311077147456 -0.08045457005594944 -0.3679044140274566 -0.3355115773064465 -0.3281291279083822 
-0.6134643818905988 0.2023037037489527 0.7158321232741995 0.5751019606341219 -0.1318786348506826 0.1140677672336694 0.2933884117711945 0.4665292130709200 -0.6993037347209015 -0.1255110978274489 -0.3711472190019594 -0.1961570944283671 0.4049288888109990 -0.1269984988146536 0.1038388382030793 0.07856507235755232 -0.6900953175700746 
0.7023163830801586 -1.235287205446114 0.4770337849906228 -0.7169162178220634 0.04927568691465806 -0.04135043472257272 0.2473165147263016 1.648975383009937 -0.01789702254199563 -0.1850499139498975 -0.5937563385590908 -0.6454816839004467 0.5085948857238449 0.2014956615904412 -0.3240768893810629 0.4722029123241426 -0.5473955060368556 
0.1668233337330214 0.5691559455937363 0.5855188402844581 -0.2557877238193764 0.2099100999621091 0.1727117055575993 0.1121854373753354 -0.6578296150204128 -0.03184502989884106 0.08712857871966266 1.235601810689565 -0.6040345273796912 -0.5622918565437450 -0.2516100229170941 -0.5259196417089285 -0.2671392092257152 0.01742187459832518 
-0.7678865424322011 0.7895250564889320 -0.2754772990783641 0.1417030472935631 -0.2944664255622341 -0.7292630946728069 0.06469986912424791 -0.2235600040808138 0.1207477479084464 0.07641391323165417 0.5550596007385439 -1.179642365059971 0.9180683417750136 0.09480142803440884 0.08690227321976343 1.616467652815473 -0.9940931997436598 
-0.1243643058111933 0.3246667778809591 -0.5079470335294849 -0.2244935535422499 1.203443166901173 -0.3005324129246132 -0.3015644124510624 -0.1922372039221356 -0.1499398298323361 0.1676662406814216 0.2391980633740459 -0.4015664562992438 0.3435059402647753 -0.2844370949137965 -0.1966772694475966 0.6038240754436280 -0.1985446918722887 
-1.521364814312806 0.3047288052828515 0.2828095306393705 -0.06399159833141999 1.517216634452265 -0.6301603533489801 0.06396589205960766 -0.8683529565084508 -0.2266329182279911 -0.4339621074889424 0.8318556674178952 0.4160831892480575 -0.3714945453204886 0.05389043652152891 0.4873977405105947 -0.1094354941238479 0.2674468915307592 
0.9902899170062409 0.1522238120231113 0.2207882405370055 -0.6769790160257844 0.2534778316398990 -0.1667965517615016 0.2236826461924740 -1.069597138273432 0.02084986800424842 0.3782687762093434 0.9002895687518884 -0.04008653223688456 -0.9095484325573361 -0.1872622425389267 -0.03321148292855941 0.1810303859751884 -0.2374196500169755 
0.5375074420995851 0.3757941805131936 0.9433031141742918 0.04326417756375291 -1.149482703763005 0.1206981657258006 -0.1215191820878177 1.483332346765622 0.1191489870977317 0.2331731223951996 -1.525328290059438 0.3354337987342964 -0.3839919994645496 -0.08501701986943512 0.07068489722943253 -1.007141792262473 0.01014075520781732 
-1.263521447257196 -0.01703713539865908 0.2693803530327907 0.2437968035801414 -1.017927185387227 0.4083457908689163 -0.3767049631248400 0.6527284225470363 -0.6057809512786796 -0.2221191459034320 0.5489148343144066 0.1662060309856643 0.6904167107917394 0.1733721963048029 1.037453976843386 -0.3518916611388883 -0.3356326297799641 
-0.01601520743482194 -0.4952633674224644 0.2087407934472607 -0.1506122832937676 -0.8482936439749871 -0.6937428759866211 0.2420390393362756 0.8822810859251855 -0.09249584528643374 0.5022840550138189 0.3927931510361474 -0.5811853893726127 0.08948425028988093 0.1995690809790158 -0.2333729778512759 0.4899160357867703 0.1038740988086342 
-1.304989100055198 -0.1335692892276408 0.5869941089951461 0.7643771207480394 1.623762605494465 -0.3944159702816461 -0.1684217808008360 -0.2737230008427931 -0.1226170889997138 -0.06479476131827570 0.5448398301116626 -0.9621657628538086 0.1390494723793303 0.2178068633695865 0.3513252512046844 -0.4465579029342449 -0.3569005949887326 
0.2284586268443577 -1.513245070480751 0.5138852400069533 1.015570978721418 0.5365329873873307 0.2929574394962203 -0.08796621482084610 -2.251882858470361 -0.03323623961930564 0.03691459090600237 -0.1195363405153070 0.009588432152777602 -0.4142589349268895 0.1693120153625421 0.08641193836197371 0.5042313944159886 1.026262015177872 
0.1805114483128007 -1.211537899882544 0.2568383547894507 0.1281839411020233 -0.2130854747399935 -0.7425224052181390 0.3336480358343377 1.403101508358724 -0.2049780614166672 0.4614501807327289 0.4921798339323750 -0.5788360280626025 0.07003727909904910 0.3807128123308426 -0.3353787598492740 -0.2844295967829226 -0.1358951685401834 
0.8811768060151577 0.05778486307277499 0.2974568180399571 -0.1900094384889566 0.3538829440650584 -0.2362635066117561 -0.5090780299709909 -0.3670671112246228 0.09651202467316666 0.4535607073227717 -0.5342294694471114 -0.1908188875331539 -0.3840253340463876 -0.05436947911608402 0.6734538046233838 -0.2311397734477929 -0.1168269379254134 
1.033641091060628 -0.3916153312983294 0.4221416122963421 -0.6806906013205536 -0.3778094700652735 0.1782243363447336 -0.1670625114096394 0.2531215446969436 0.1952726117002669 0.1310239857737898 -0.5955559306489255 0.07298512248501121 -0.08717405208787580 -0.08332839567869474 -0.3273037059086818 -0.3662102632558327 0.7903399573161002 
-0.8818805737606232 1.058875763644743 -1.768407257983720 -0.4641226745247257 -0.5453673611607102 0.6540242190737136 0.2731383377874830 -0.5948655321753855 -0.1038396860800797 -0.7740458275972131 0.9031994757056943 0.8028332254302742 0.04165982243790523 0.1670368130753032 0.4768095958394953 0.9220158976674387 -0.1670642373795901 
0.4180092238720556 -0.3663793214387184 -1.673074156070609 -0.2925671498041298 1.013347332957518 0.4015287188443394 -0.3092885258628174 0.2168512802805315 0.5368040492640099 -0.3874464773552196 0.3492747683689257 0.5871793011176095 -0.2449750643615882 -0.07197886792255416 0.1784916114134453 -0.06033951392883013 -0.2954372093739682 
-0.2118059859257430 0.03677901485520901 -0.1664152517025679 1.321102921803234 -1.887368775133892 0.006564770422352767 0.4534551973552638 0.7277856705964658 0.07568678675966076 0.1118115792642496 0.5373145218807683 0.02872638072485387 -0.1557968615804153 0.1282049679204259 0.3921556355150148 -0.8700090309775064 -0.5281915417773834 
-0.9331645804110646 -0.6864597966820127 -0.09312823672136361 0.4243535915799325 -0.2237146871077681 0.3590371131999173 -0.1734066304265005 0.6630747705186750 0.1986688797217067 0.1305491728528987 -0.4067919752686451 -0.2777343506928337 0.2581616298588367 0.03600922206532094 0.3164845496133845 -0.2396134916875593 0.6476748195870757 
-0.6134585074142658 -0.06674876033589061 -0.3287310294155976 0.5368582241669198 -0.4025496651482240 -0.2966604772398589 0.4471625861796169 0.002397481813735909 0.0001383946147766917 -0.3972379650950159 0.4845772368758801 0.05703963931473428 -0.6972169296285349 -0.01271158063935574 0.3293266705966562 0.2181629356138063 0.7396517457406133 
-1.023560765340388 -1.105294590269363 1.207105503806906 0.1618320286318395 -0.01510529812995165 -0.2404475308848948 -0.2632473847649037 -1.184305187921117 0.4604242880700306 0.1514749106230167 0.4727023751609430 0.1100022728060858 0.1617361187321902 0.1491675860850986 -0.5006374244809693 1.404248412978452 0.05390468489701748 
0.7346417471208235 0.3751633573058463 -0.3301740140475117 0.08217410475783030 0.6104136857299440 -0.1706654241321046 -0.2528745492394739 -1.830391423057886 -0.7464208069709752 0.02811366293165464 -0.05751504697341939 0.5501791420581639 0.1274540391102757 -0.2035790315586910 0.04071966887224786 -0.6301577681060748 1.672918656199354 
0.4597145054248205 -0.4331447851501513 -0.7859357902810118 0.03838161518699487 1.252014761768856 0.4012571017898910 0.2559528262150808 -0.3724956275418595 0.2926444103431360 -0.1436824231331955 -0.2117079017397909 -0.6695649985434636 -0.3683752754683773 0.04281422156640546 -0.4365604281030463 0.6881309465375478 -0.009443158871834086 
1.238878763806727 0.2236330605651823 0.1413672784651832 -0.6917545637192186 0.5729825412559558 0.5516373721995914 -0.4871400687464137 -0.1241011795831392 -0.7875839938031172 0.7343958115032180 -0.9389042690884402 0.3623749529965550 -0.2897619582202425 -0.04597439376933921 0.01276483756862351 -0.1432345927043217 -0.3295795987268195 
0.6698261214437818 -1.315094760525158 0.6943463900956378 0.6552237953113330 -1.809122181313437 0.2490033730667485 -0.2452221074043949 0.7253161180834287 0.3587640740149354 0.2116739767225210 -0.6100608236014900 -0.1429797898736780 -0.03007589189404309 0.2269942289149252 -0.7283695386424301 0.6130054108526125 0.4767716047487426 
0.7377488454010439 1.285909433012392 -0.4790035264084974 -0.09274962909856867 -0.6880130786412200 -0.6189160357128332 -0.8403049455237969 1.441807951089920 0.04746937698957672 0.4645464150860134 -0.6879719623206230 -0.4990216597015820 0.07351724449156813 0.04855430165405866 0.07719750754826825 -0.2351019591095067 -0.03566827875621117 
-0.3559307855471194 0.1934385351389143 0.6600082159602109 0.1662526347954296 0.3355924322311177 0.1778493561186566 0.1262441622452985 0.4365684681794269 0.2919903774043348 0.03708780964112326 -1.400824886468827 0.4140240710459813 -0.001399978429695600 -0.03687151368599136 -0.1005064164187369 -0.07796946888713058 -0.8655530133229978 
-0.3681350354518345 -0.9573546480256643 0.6215744904668907 -0.09590633546091701 0.1165585334062481 -0.4413379683807724 -0.06452736829166510 2.159493376123547 0.002471721907053652 -0.1760587543679263 -0.6715964044460448 0.8587522333511185 0.02217918609803647 -0.2516950964264564 -0.5414933628828013 -0.6166488790482413 0.4037243114294322 
-0.09639123370916540 -0.8406677154427739 0.8268124169399997 0.07803537727557708 -1.424284410204340 0.2770915866622789 0.1557627105150722 -0.9902158349967765 -0.2886661518862533 -0.2681465071720024 0.9401089569136640 1.106480297450252 0.6703364300050090 -0.1200295959352978 0.02153037897011735 -0.3816498795941548 0.3338931742087748 
-0.1312295762987019 1.884185538638553 -0.3253869476472669 0.3349333910171374 0.8844244291027058 0.1630833962595988 0.5523238387478135 -0.3830935346077877 0.2837062390307005 -0.6817188076247057 -1.627625400831016 0.1112206262730058 -0.8483114851686712 0.1304015861956186 -0.01933128081088916 -0.05331622938676927 -0.2742657828893179 
0.6760168911240386 1.273820312315533 1.335614110327931 -0.02266572852145002 -0.3046538315029091 0.2411070964119075 -0.05354999379585350 -1.789460582751311 -0.4471076240127036 0.03115919202628433 -0.4615135959163972 -0.3795325776282886 -0.01779610573852983 0.1473332227069264 -0.2294233539040986 0.9292521966827450 -0.9285996278238318 
1.337413337615771 -2.741787863116479 0.3108529178392910 -0.9435880747838278 1.637088582544163 0.4571197746752871 -0.04583263972990321 -2.498955401371396 0.5423067919728463 0.03736366862924841 0.9784746044943760 -0.4582505363463025 0.1620289427506371 -0.2953123651744144 0.9076620605273117 0.0001578847519221943 0.6132583147214892 
0.2736809982295014 -1.590387670800027 0.4328113228112515 1.238308099020721 -0.2288807326102288 -0.1114012613018295 0.08582625396905384 -0.2385028965688842 -0.06622944192680476 -0.008958357602393037 0.9410469981171418 -1.074949465621585 0.4446993830846170 -0.06902853533987525 0.04779764403805737 -0.1123000328602029 0.03646769536147552 
-0.4070155196708847 0.3788095267456339 0.4399829025027640 -0.3087268072541317 0.3159795074787736 0.1688451949165985 0.4061698355257568 -0.4386633320911051 0.7250049660271318 -0.5525122770885306 -1.202650844577467 0.2005440769816444 0.4232824189721885 -0.06178446243607413 -0.02178573790378083 -0.8818301240281552 0.8163506758996281 
0.09020618738246815 1.525430379021497 -0.2270474275587752 -0.1895622810922238 -1.222248182618387 -0.2882187842302800 -0.1039948411154643 1.552175562426199 -0.03964651684389088 0.04252518150361517 -0.4192374482102553 -0.1426370893286879 -0.8724495518320902 0.02132778215371737 -0.2395152265590343 0.4706219057082569 0.04227035119333372 
1.160303572340813 -1.919582615754329 0.3972525737559164 -0.5249483806463108 -0.4787395387697129 -0.4288022234857639 0.4227622154417741 1.921965513527293 0.3055742977945282 -0.3223914002027569 -1.034205060136136 0.1816173349801715 0.3278544963823576 -0.08100536861585206 0.2094861011339468 0.05356652475047388 -0.1907080424963946 
-0.6257926526783680 -0.6427930697798202 0.01945513846208876 -0.2126234791536567 0.6050735807377463 -0.3357028843711748 0.09758055207738008 0.4105642022838066 0.1876782716861732 0.3111574006830539 1.140694394792772 0.02184903040177222 -0.05989229992344301 0.2747630918870490 -0.6038063812043963 -0.5383166274634310 -0.04988826843754795 
0.9739778626981187 0.5394513305994011 -0.4560647867149208 -0.1887389855571741 0.6951190406539359 -0.6255024946756301 -0.3127550749891280 -0.3315675785836704 -0.01924582765569470 0.1291516844265838 -0.02520114989255714 -0.5764140375633453 0.2474943523309749 -0.3391954193189625 0.2912309471636435 0.3797261598663264 -0.3814660227879071 
0.1991800494844993 -0.7632942106009422 -0.5182910114793454 0.7956201647270300 2.355210660770052 0.03203299795544074 -0.1175447954052638 -1.063397656511792 0.1525002895191671 -0.1381323808078284 -0.8762228144556024 -0.1469599138985893 0.4781753298398233 0.06037140077060899 -0.4708860980235317 -0.1525471312986861 0.1741851194149929 
-0.1589984928711429 1.759307608736875 0.8876773582531998 -0.8061606294038073 -1.930060749945482 0.4272625273148245 0.01709559975677635 -0.8767783118652729 -0.3425221352697641 0.2556929095774589 -0.1281403104999175 0.05059342082655301 -0.3527852321499946 0.1479721780437624 0.2669897298085223 0.4529935592009256 0.3298609704864885 
0.4701450125958138 -0.2941287743296646 0.8408546067799575 0.1958521058798322 0.2412113408006661 -0.7949309362003434 0.09419269638283506 -0.4403303561740553 0.06058783206982860 -0.2949960077515886 0.4127386451670440 0.2055525945772550 -0.4270242683455847 0.07621780398986841 -0.1287345987215914 -0.6270066765537897 0.4097989798335309 
0.04069983583557239 1.540435569459551 0.2300715857708604 0.9590071675165751 -0.6960019319951095 0.1410447996400171 -0.3706043501843186 -0.4055060099335447 -0.7496714152051356 0.4361677170274741 -0.2375478406883667 -0.7092784851814103 -0.03210129951252499 0.1013622645176710 -0.2447044802887135 -0.1782113219159718 0.1748381951373783 
0.8182632078257550 1.570748106253896 0.3138053669511580 -0.4182663506957649 -0.7333093396022097 -0.1207475470779177 -0.05721570072099188 0.3409508779629403 -0.1969333912721140 -0.1565695673104744 -0.9363672696707805 -0.6058433393918533 0.1524199747349901 0.09584782956301072 -0.4242940678667211 -0.01799939140529489 0.3755106017223617 
0.2917384550384317 0.3451828281875878 -0.2158962969615032 -1.271108576002581 3.056534957981285 -0.6952313550129468 -0.5369512648187562 -0.4949410402801834 0.4131400591811338 -0.2984502543198483 -1.195876497445237 -0.3078845901421219 -0.1354220824217385 -0.02463303093904185 0.2018178762316481 0.6530442835353039 0.2149365281885771 
-0.4448889491239065 -1.662082826245896 0.2279760562971861 0.7899560354883731 0.1630903880508617 0.5777542924107681 0.03063198731414737 0.07193884105379819 0.2241524008425384 0.02892444111679594 -0.1723506913169789 0.1838444801681589 -0.1284223381208574 -0.2584046373307535 -0.4399970925811149 0.3558358670067198 0.4520417449701706 
-0.2266231422064253 0.1994843049514416 -1.152608159353434 -0.8191949709028573 0.1893634977239281 -0.6933707655151587 0.1551145761774642 -0.6477355902915052 0.2957868783947145 0.2942613307459917 0.7332190885614870 0.1126545705005096 0.5925712282078216 0.1863883794730210 0.5640597218714631 0.1167062000673583 0.09992285159416102 
0.1382516299641101 2.882703174025589 -0.7627554546419621 0.9257640760218075 0.9680296438471996 -0.9376347236587779 -0.03881293766814469 0.4848125925315923 0.1814190876536674 0.1360302981356358 -0.2546213020389348 -0.9991618694971207 0.2144769503652172 0.02115231255420786 -0.7126261590542694 -1.113832622932044 -1.133194695607749 
0.09018761450278463 -0.4920743880719379 -0.6384969160728672 -0.5394398215227065 1.459409539362040 -0.005569922261521620 -0.2963922239916197 0.9337684725159858 -0.006776351344444274 -0.2163539193076057 -0.6379193391498704 0.1457792442654764 0.4175259884129359 -0.1965223907744579 -0.02739122376684401 -0.06782146203776078 0.07808709924240927 
0.3113185749811785 -1.310679030863058 -0.8643407922041586 0.09568143845013770 -1.975786856006082 0.6226552443333342 0.3205949019489178 0.7433342256834967 0.6543584047576231 -0.07496494430533879 0.7991107460857455 0.3284403674584357 -0.5743752716854957 0.1631155302536689 0.2567946547195411 0.3945789578943115 0.1101638484977427 
0.3832022314821630 0.7687365769071407 -0.05109230574312309 0.3970727375605099 -0.03782289866157304 -0.8012169939820587 -0.1725401362022216 -1.081910213092544 -0.1257585681162410 0.4618755337948362 0.7696324427852080 -0.007900523523473870 -0.6170038255905714 -0.03088741695238870 -0.02551784536298889 0.9270720447586728 -0.7559408400613506 
-0.5416731127184132 -0.03278593416680778 0.4062984672731875 -0.6462030897636799 -0.7438362862987458 0.1593670385429165 -0.04870932349646155 -1.336742755639242 0.2838306162535522 0.01617995790439994 0.7286920360186180 0.3859532579415385 0.2023928260629125 0.3045996852711596 0.4707938076024523 0.08385574624588964 0.3079870629667255 
-0.6003552377562742 1.123455041168933 -0.3288380235332163 -0.09715414813434943 0.1146552259406942 -0.8262307115304051 0.2706418670164368 0.3046329126029027 -0.04632421047154220 0.1702664639441106 -0.6416229959384633 0.4371111069550444 -0.2116234042363320 0.02325647808696559 0.1245249123486547 0.7031783813081119 -0.5195736577712803 
-0.1999342880128367 0.1307715098259808 1.450119316469528 0.06941967187142264 -0.1524173262678469 -0.5125906654346974 -0.2737306639534041 0.5808959753496790 0.3448309773121408 0.01534537604355854 -0.1361562891794921 0.4796333539485285 -1.015636762122640 0.06416789163981668 0.6702396661706664 -0.5886491878206401 -0.9263085558397631 
0.2243495437175684 -0.6864268956073275 0.8653816832963769 -0.3569208430370044 -1.062357419512920 -0.2668662273423076 0.01634644817143866 1.198913415873867 -0.6305817260298971 -0.2834743135859358 0.3418161256296468 -0.4310081844498689 -1.083545402756556 -0.2520386025795098 1.155941428082288 0.1359495289610031 1.114521441169147 
0.006988305351883635 -0.3879491339019687 0.4764977965057458 -1.346992194541112 1.487291393824552 -0.5779310680391470 0.1249689225678169 0.3178431021943183 -0.7081793770984309 -0.3772221360589172 1.348945413033948 0.008725352273844817 -0.02251237957389337 -0.1560179975731526 0.03931843907067435 0.08189662402809330 -0.3156710620642539 
-0.5584389571395120 2.701667997616148 0.3150031774068559 -0.9197647738074984 -0.8681676624391929 -0.7346254219156861 -0.1282551271456914 0.6570406554789565 0.1689906766695654 -0.1502442793862664 -0.5634899004228536 -0.2587291723169243 1.026120044559192 0.1417479713590768 -0.1375684192691288 -0.5695540898620545 -0.1217327193849925 
0.9189794571084577 -0.4043259909253935 -0.08462241136172016 -0.2227907716058367 -0.08342699486944542 0.8946499950403578 -0.3426576871273653 1.038588764081883 0.2777975184100288 0.2941194648843478 -0.2040694258816733 0.05536932136122989 -0.8080309361660770 0.1056458417421431 -0.4638806733489873 0.08889629282037437 -1.060241764162314 
0.2655250866389871 -1.838940291797203 0.07253107366841276 0.004459655176286086 0.5437656455293485 0.1325142119631696 -0.05008462061419523 0.3713163643855375 -0.2153248028785778 -0.2395591483202632 -0.4191214375543996 1.278618160873457 0.7277368466634890 -0.06336182872324440 -0.02710825769244350 -0.3207204914622840 -0.2222461658560766 
-0.2836903894146761 0.1470360983653370 -0.6312019849554965 0.7709896627700934 1.167128833255081 -0.2874666803446350 -0.4224755919741345 -1.058556461602922 -0.3080473234677125 -0.3341330739302892 0.5600195002155113 -0.3621553756864802 0.3905643775635230 -0.2014512006093406 -0.3403075354234612 0.2487716700147135 0.9449754752248850 
0.1887503547556629 -0.3973155575767359 -0.1761705522311727 -0.1992400629711127 0.3207342339540432 0.9347489165111199 0.07134099637293400 -1.790189479085540 -0.4669535169328030 0.2136332254252552 -0.3493997600640516 -0.2622345389639231 0.8157358001181743 -0.09736288706833290 0.9307267649911273 0.7869559016972205 -0.5237598389318506 
0.04851986455326608 0.1309774249458259 0.7252867729261526 0.5153141987231754 -0.6397076081549952 0.1284721074616086 0.07940631739079708 0.01983323654736434 -0.3713906602608998 -0.3362601477469882 -0.1848372236542493 0.2936763003415278 0.3695296067558151 0.02536133372213642 0.01533570806625743 -0.6687495022389521 -0.1507677293778321 
0.7832367230951052 -0.02606575350366003 0.3364570228436323 -0.09677373990733946 -0.5807590338741426 -0.6592148134209733 0.2920154277757472 -0.2874828277837328 -0.2527495056083065 -0.07425814842871961 0.3627215606266367 0.7054271528906560 -0.4807571756661864 -0.2593054306781380 0.7137643125092389 -0.4749698776734936 -0.001285893196322520 
0.2946508726087139 0.02740232463372516 -0.6299525557699640 -1.146349380711998 1.298181551897631 0.2940654224013657 0.3661883617614363 -0.8423244564554759 -0.1585182613639724 0.3226782470710946 -1.179650355893879 0.1513613493780140 -0.7229064112402185 0.2174397127958063 0.2741302600401535 0.8808049102877928 0.5527984085597676 
1.137135024541801 1.625131080376203 -1.657894750211260 0.3699284686259329 0.1193217506159708 0.3692418472776027 -0.03036229019334309 -1.224552920720671 0.2487652947078023 0.2049296096931393 -0.8324681769872021 -0.4109659101571299 0.5366321924734824 -0.1783991468224143 0.8427584853627552 -1.458313083297181 0.3391125247145141 
0.3963437911789193 -0.3724193655235953 0.4155600232798981 -0.2152441956223607 0.1201360597511351 0.3027239235367473 -0.01135478330430144 1.692959862662309 0.1795577451365566 0.08332976107636582 -1.581234347363386 -0.04352183357246194 0.2516690279219585 0.007506921104180014 -0.09340572734751766 -0.3710847331634083 -0.7615221297510347 
-0.4962948248758977 -1.036993948082013 -1.254056711899352 -0.1402973766890300 0.4038742298436477 0.3557489891941659 0.2642068446387629 0.1947871522578019 1.392841277582051 -0.3023056672925991 0.4525756989379768 0.07904508851310593 0.5196839655196444 -0.1889513490539134 -0.07313901907087420 0.07741333897292049 -0.2481376884963926 
0.01316219543923789 -0.6512835177106880 0.07956224419853370 -0.5140960088861722 -0.3122606371584215 -0.01437903364881194 -0.3791300923928723 0.4460796920227505 0.3919076600924533 0.08010206506060685 1.284705539458196 -0.3612198832639863 -0.1943977325923446 0.1141946789527483 -0.3333003813541457 0.7329520900655758 -0.3825988782826636 
-0.2429693907684227 0.4849874452911691 -0.7118713993058741 -0.2462872147698615 0.9828923848304889 0.07973716996103920 -0.1434213290031876 0.2039800776689408 -0.2044338662017164 0.1657719550893275 -0.1104094898774435 -0.04755942197663769 -0.2112360220475496 0.1170030593648002 0.2201180543838410 0.07154571030679574 -0.4078477229457058 
0.5548275074481587 -0.6133510361732545 -0.1434373556576420 0.3929435026357992 0.8375119923931813 -0.1732421476424894 -0.2723897422998627 -0.6504181226421550 0.2290967525428112 0.3355245039999170 -0.8319215797292262 0.3114088693359560 -0.3348843845412052 -0.1415770136478421 0.5020382025565134 -0.7171955042065001 0.7150655556278459 
-0.09172345253902012 0.9929447339230375 -0.8407660713348418 -0.4846993873256640 0.2039144989381403 -0.2234842169246538 0.2771401504121856 0.3090609385961023 0.3716443895312331 -0.08820230418284415 0.002820585023073208 -0.7278840749642932 -0.4931920298559437 0.1166193833863698 -0.02833620236333802 0.4728024967029658 0.2313405629774906 
1.442974171036210 -0.5323103699242018 -0.1244887420307035 0.4594262906344408 1.201882062544913 -0.1237505524420495 -0.2787188838249620 -2.425735406610411 -1.036950212728176 0.009056283191072505 -0.1150666675067776 0.8515466949542219 0.4521349961585968 -0.2290877552890900 0.2039908746267026 0.07316830400753899 0.1719289132026552 
-0.7852117405185400 0.7554931575566931 0.5617160855061647 -0.1530196652132895 -1.186111819752017 0.004562202544317659 -0.2399401010784932 0.5758545734214480 -0.2229142429311223 -0.4593000853936974 -1.200884958423355 -0.02786034122112892 0.9101050639198358 0.2088796321435840 1.051249805563668 0.3456412884706735 -0.1382588545947247 
0.2376639915515003 0.4790511733290757 0.2189888149475798 0.04559918607060306 0.1506063542975250 -0.2144850200075604 -0.09052070382661917 -0.2340248564964968 0.6896083028667342 0.01042827133250689 -1.339364318862065 -0.8841101050780926 1.013219034512497 0.2108825144439818 -0.03401615015718644 -0.3552951667778247 0.09576867785384129 
-0.1581224672120596 -0.6746799612141889 -0.1877610400363168 -0.7841117301491037 0.9618513831574770 0.5052272467991795 -0.5206392763109025 -0.1347866292341478 0.1542110220660206 0.2829790659680327 -0.09393941371273848 0.6080802066472561 0.5904895078280388 -0.07989196858343818 -0.7740595738396990 0.2303833226561961 0.07477030517039468 
0.6206943423756307 0.9991977039048884 -0.1925140000443632 0.2536002318451169 -0.3303288164092711 -0.1437363529992351 -0.07052352133763035 -1.125019303070967 0.1047812532703811 -0.3903152539233309 -0.4468011009178567 -0.3144248201205321 0.6549667086744734 0.1620347942480485 -0.1071964128344349 0.1963820069449107 0.1292025403941702 
-0.9379846426547622 -0.4472881313888837 -0.8002271684482883 -0.03759379833981033 0.1104861152215597 0.4677990721004913 0.02503456450063592 0.7657071833346564 1.009264726273832 -0.4088300701296722 0.1148660940588693 -0.08377567885796058 0.1070425836025613 0.3263968856745418 0.1867938274324690 -0.6916940061257314 0.2940024437454807 
-0.7503703501381747 0.9754212670487892 -1.692793499873371 1.559847904262975 0.04518817440881925 0.2796755644317224 -0.1360982165249056 0.06264241107256348 0.005099445449870966 -0.5564708234153259 0.2516955072434408 -0.1246713303467982 0.3384525342894287 0.09920563703363598 -0.6628631805388066 0.1639851023229554 0.1420538532731763 
-0.2173905577202896 1.129519234198280 0.8838038463693496 -0.6533258873872223 -0.6585213131275600 0.07829903202961441 -0.3967532536351762 -2.078703146686365 0.02545308499580545 0.1274845827872224 1.244195127307634 0.4582226904951382 -0.03843973431722788 -0.07846323471787682 -0.4107019230272944 -0.003931687728474181 0.5892531401644442 
-0.4078831272986939 -1.980713348470780 -0.6219980554894003 0.02276398584563415 1.026549733020414 0.7744516614932284 0.1261744415745067 0.7775355351422883 0.5265008967133518 -0.2042804980274490 -0.9152050206811043 -0.08741251980504564 -1.232527187706290 0.2919199630973533 0.4128843798357434 0.4136244293002099 1.077614731456026 
-0.3843481422741594 -2.518743670366931 -0.1008447081876902 0.5144163079355700 -0.2925279754170648 -0.05821894267872965 -0.1918236119858664 1.550050216484293 0.1920776693851222 0.1648235989767453 0.2535574122023112 -0.03567335445797971 -0.5601668716635045 -0.2978424885716052 0.6933258382653508 0.2856520054384640 0.7862867169156752 
-1.224728251499937 0.8869401925426912 -0.1307861445585491 0.3332299013441278 0.1459799967167852 0.08310866292143039 0.1771436542429640 0.1821958567035280 -0.6682821990589212 -0.4308270041502966 0.2622168906249597 -0.4074360538908645 0.4711430943029070 -0.1374366529473038 0.1630203873494370 -0.6308193853032462 0.9253370546602881 
-0.5231349819096457 -2.451711526136167 0.09340346015234058 -0.8657511347437534 0.5712128399725970 0.04766323726806664 0.1642347291015802 1.158097667563953 0.5186819648970771 -0.09288303508821355 0.4323598598731366 1.407095974204980 -0.3396096317844223 0.005273187217566335 0.9900950785355028 -0.4480041973040018 -0.6670234918206059 
-0.5594329880410395 -0.01174451892122008 -0.8715073702436258 0.5803294466090803 0.7809889327328071 -0.2464684853362856 -0.3151817056386116 0.9562064275799569 0.1152922552873385 0.1242125618173546 -0.2699768543648998 0.03634692488954671 0.1582127546854646 -0.1521462479486471 -0.08792210158993796 -0.8165346568983174 0.5793256253810392 
-0.009436297555679974 0.3524621984743437 -0.4160076923050872 -0.4614196967430697 1.057124515516009 0.2057421703176693 -0.01137257320552101 -1.431972913791401 0.3897038130335775 0.2454494111075003 0.4569927460101372 0.6967596823897325 -0.3999640725397011 -0.02172473076871242 0.1944641040811859 -1.024947920572425 0.1781472565514640 
0.06095981616629074 -2.153094318295250 0.05130469424999567 -0.06544030809369297 -0.1805620015843473 0.04813856087329504 0.7362806933960212 0.9034791531050609 0.05979357810820637 -0.3815265259117160 -0.6756144722697368 0.3340480200180427 0.7268300246238901 0.2108000179756926 0.1844608128565748 -0.1492998943722596 0.2894421491539532 
