solver_type MCSVM_CS
nr_class 17
label 8 1 0 6 5 13 12 15 16 9 10 3 11 4 7 2 14
nr_feature 199
bias 0.000000000000000
w
1.035788910477256 0.7951320211701554 0.1191595202787977 0.8530320423596641 -0.2652740139208004 -0.08805345095215046 0.04185004812174178 -2.149968956417928 0.008949252541136736 0.6823769415178036 -0.4345676884128852 -0.04293223197186433 -0.7187665359663529 0.2775622070086804 -0.7510639220865573 0.7928626657328420 -0.1560868094795020 
-1.487146208085110 0.7835889167781217 0.3158838482513543 -1.194008662302082 1.271133545741910 -0.005227059485964797 -0.2176382147256860 0.3371032333068703 -0.6305377100761745 -0.01059599723910169 1.544048991858507 0.04855979895666551 -1.011832895138583 0.08914776552573571 -0.1015268616137783 0.6464054942038490 -0.3773579859565576 
-0.7875813752127268 0.3291446537767176 0.1507713753257435 0.7763641287944030 -1.364759649097376 0.3198622421202514 0.1756925651713892 1.514039143269899 -0.008409034075368922 0.01165662695854555 -1.276813711444306 -0.9040495409039413 -0.9279868043154570 -0.06465622643160518 0.4871807055622432 1.092127453978759 0.4774174465228344 
0.9467558562544565 0.2513430557050583 -0.8973375018510445 0.3408736373211330 0.1241303677272206 0.1888407715087244 -0.03088619090656709 0.3275877061275848 -0.3881112355963418 0.5744159685934772 0.2609587358156746 -0.6660601016567591 -0.04749685543189725 -0.04664260737122689 -0.3585542416320027 -0.7150442013483675 0.1352268367408819 
-0.1656800035541604 2.282906602489709 1.456128355893558 0.9316290962841569 -0.01254797442830087 -0.2087859194048162 -0.3057950782497663 -2.632129292843038 0.4166258677080976 0.002270674807871992 0.5017666121152894 0.2638966270544836 -0.9832961318893129 0.03689290779722258 -0.2613464105225005 0.3732334810060624 -1.695769414264586 
1.218793395362945 -0.2749820408168983 0.5925206513560703 0.2540463002038135 1.771367167545353 -0.9238730332727545 -0.06063188249605892 -0.3100458167550967 0.9939755769991935 -0.1778197716922839 -0.3751739516337436 0.5210167027197291 -0.4891856588770449 -0.06780263659783149 -0.9300075468772095 -1.212903891445318 -0.5292935637228886 
0.7166217930719617 0.2995767103776357 -0.5065483094666164 -0.8557408469212304 -1.597859525469310 0.8422006333407334 -0.1124309129276438 0.9878723811063210 0.1593863331174628 -0.5733042194400317 1.256159201054505 -0.03026547834752702 0.2637456649921869 -0.08269840021505333 -1.055515528813757 0.6727168192564624 -0.3839163147160846 
0.4280446987159087 2.678229852361170 -1.156475590616746 0.4720936636719513 -0.5024445199550140 0.1722607503189355 -0.3999961552531723 -0.3318708125016282 -0.6030885340541118 -0.08197300322590108 -0.8768706677742493 1.125754916643188 -0.2430382099823046 -0.1538170357948248 -0.7294855657838100 0.1919737678880919 0.01070244534254616 
0.6465742454640118 -3.165018557729181 -1.163441984383483 0.8516034170679082 2.532790328997085 0.06151370701717087 0.1087052475968548 1.062638126873372 -0.5576959338334525 0.4720928807137375 -0.3962040824765135 -0.1620319344106280 -0.2744650006656859 0.1281728265619962 -0.5938979459790201 0.6770403182628200 -0.2283756590770505 
0.1073656654995587 1.139914173281856 -0.06380378715331345 -1.435085234905799 1.781677739342576 0.1768932087785027 0.01605955757526807 0.8828902800307892 -0.6315412263186131 0.3037214826998835 -0.5979187737494086 -1.074983797450859 -0.6283055535486765 0.4334455242025924 -0.2889443002062395 -0.6065619277247807 0.4851769696466486 
0.6164303054311173 -0.7236816491488325 -1.107251372287404 0.5554050217941860 0.1379263190428621 0.5227442268855464 0.1307576119560750 1.306337468960552 0.2315998557150867 0.1783802159583583 -0.5816465756153990 -0.9568516660850359 1.713019372794478 0.1895424241411056 0.2771684529749371 -1.624562635976532 -0.8653173765410760 
-1.303754445338492 0.8091621131763154 -1.168653727835354 -1.021339118823392 -1.085942443738527 0.2758292151959325 0.4670964882739639 1.146167889969088 0.6158603801175000 -0.5417319217097165 0.5267568102323221 0.2290517181597327 0.9168986054320833 0.2115532598750770 0.1059840922712908 0.2029879938159938 -0.3859269090737983 
0.1421313865336168 0.6071109110526547 -1.359472325059620 2.073101023165959 -1.132122703404328 -0.1348201443945551 0.1096549188374908 0.6269023298803745 -0.2892291509645356 0.1646995402485809 1.036688195702777 0.7074800076483946 -1.069233376495547 0.04066392661469242 -0.7233395066172341 -0.1302177666030048 -0.6699972661457400 
0.4845282972338749 0.2732643237796708 -0.1174530918907215 1.333972386304299 -0.5322698729442477 0.7895088265174981 -0.9451671228700442 -1.100162923944323 0.4157093526961629 0.3932664564105334 -0.6530395103044716 0.6337203046656618 0.1275744646249447 -0.1918622598535796 -0.07803213149677073 -0.9646665463461974 0.1311090474177016 
-1.183095077794235 2.071857508823735 -0.5904815919028733 -0.3844731665470897 -0.1695200543337546 -0.5053939731620346 -0.3603240290819685 1.155050055384769 0.1196141829367727 0.4344340361890592 -1.547311567233294 -0.4178923104115122 0.2898405370986406 -0.1383939848322056 0.4075584105847844 0.1231737543055197 0.6953572699756920 
-0.4152053466190144 -2.668016608089713 1.967949568421936 0.3344619339424470 0.07382309801515598 1.192041531831980 -0.4036146086725603 2.268039583775854 0.2226237477182159 -0.1230001546159149 -1.901042663812778 0.2370444002828286 -1.473368296903071 -0.1399115860989025 -0.4930861353073479 0.2501807980500168 1.071080738080875 
-0.2007148463789254 -0.1711101167788472 0.5062156713680003 -0.6420477823421488 1.352496581181357 -0.7860196505430408 -0.07200463237977614 1.258001092278464 -0.9757020512419345 0.8706342638429702 -1.596404170715023 0.09954575177516628 0.01111130192344661 0.1724929288400084 0.8495923748104381 -2.226059663739631 1.549972948099488 
-0.8636006599034672 -3.173785208123260 1.592236114979679 0.1086418633309510 1.539887250625846 -0.3375018001763622 0.4086365056403303 2.586164608889594 -0.5882045252163858 -0.4595151216516815 -0.03194934203069102 -0.4396215929981041 0.5669079764960496 -0.4253048171618966 0.6778628679220764 -0.8298590119198918 -0.3309951087027261 
0.6679573276020160 -0.006460033159639943 -0.7205402250258776 -0.2779895134723248 -1.100828072638831 0.4980677900724769 -0.5215815426367044 1.106262136671302 0.1088217433313359 -0.3002248772782018 0.4847371415967480 -0.6055433167007050 0.4235701736802541 0.4351373850429243 -0.2108559893049668 0.1476603839369749 -0.1281905117167809 
-0.7497213504533012 2.914935082462805 -0.4261366801434870 0.6657129815133760 0.2147866955725278 0.7096484266873432 -0.2364276981772536 -0.5742388380098534 0.02398509913144959 0.04589194468857540 -1.764646467863540 -0.3062965558902203 -0.1764704548193006 -0.03975360080902208 -0.1238896831906771 -0.9103421827361963 0.7329632820368048 
0.6746582385965407 -0.4937078613839549 0.8517833955071572 0.2331341370929289 -0.5827050064210646 0.4407473319559442 0.2655973880942114 0.1113357585025145 -0.1836256329112983 0.4590195739672505 -0.6307810832304619 -0.01547295768367358 -0.4574665941273384 0.4170748113888562 0.7159068359726883 -0.6859173980596832 -1.119580937260611 
0.01214215939151483 1.407097667381201 0.01951880486740763 -0.4083931039450587 0.1858627042912973 -0.006378414102247816 0.06585706325219459 -0.5246290385871439 -0.1229701257315600 -0.4653958797307055 0.8340972022760378 -0.2119678160470317 -0.9585855431717734 -0.2597175078073918 0.3552763820252523 0.1447145199217245 -0.06652907428372980 
0.5552110823116366 1.958890423433629 -1.052549946881203 -1.248234635206024 0.6754779505990282 0.02155350308583605 -0.003375853084729998 -1.404676632963324 -0.2787974727183501 0.05859902433439713 -0.2114885325234986 -0.01598435772836009 -0.3982472472981712 0.5355206799516379 -0.3003059684707480 0.8464310598209590 0.2619769233373248 
0.6624111310696847 -0.1940933281206222 0.6565130587785898 0.2334173827440198 1.012003670843073 0.5213068529812362 -0.03152100151967708 0.6328451911634112 0.5421253402243851 -0.3392884499789068 -0.07895111512441900 -0.1135333957897907 -0.8180771937007275 0.1319993111877712 -1.208636842924745 -0.8712871836065224 -0.7372334282267592 
-0.9981277714702596 0.05002516925905433 -1.295977920035537 0.4284814494527726 0.1052828037175028 -0.7302820415096477 0.1069770168378659 0.4988716653482373 -0.2364436121803293 0.5211224455439873 -0.2525852769237436 0.1564359108337436 0.3643019079835493 0.5395397112398229 -0.3321129224948264 0.2143801981330967 0.8601112662647179 
0.2448051348565384 -0.5773740271179529 0.9744290342415900 0.5136788998144434 1.329657500220121 -0.7601358545444078 1.068311607205332 -1.656004757079730 -0.4306448806655585 0.1131774224891023 -0.7961848759947973 -0.5833676973890856 0.3150933658070281 -0.1022568799590061 0.2286815968876755 -0.6204470590785000 0.7385814703071860 
0.4265516498175537 0.5527358906331047 -0.1931422853752159 -0.1195453620847259 -2.015673616377480 0.007894489650071777 -0.2285367844647180 -0.9860138697782064 0.4274095624902671 0.4461178461563818 -0.009266408461379804 -0.6016089159510887 1.329987797532117 0.02700951229122763 0.03898877209325385 0.2826955693066691 0.6143961525221525 
2.027825680257620 -1.415717933023459 -0.8971727253769061 -0.7521644769158042 0.1469978962284807 -0.2701528084886897 -0.04155922994903637 -1.105423709317414 0.1382894362775446 0.1886294616691020 0.3231256653326429 0.1241432718648108 1.351413525999272 0.1314735057050252 -0.5772344878074555 -0.3225489177271191 0.9500758452713826 
0.7480988691822555 1.652058658231828 0.2605612630257281 -0.3096126542856278 0.8367198043711178 -0.6488910765713737 -0.3844704359312640 -1.504439227197386 -0.2345362163722805 0.2121196960710479 0.9016681848685796 0.7285100584190628 -0.6159612571783107 -0.1107802741573064 -0.5983780214305613 -0.1434863483012981 -0.7891810227442092 
-0.2474941285314452 1.442178384635496 -0.2388061326647940 1.367466658547969 -1.568854043645587 -0.6518230504758459 -0.3268843502836086 0.3368586071801784 0.7247005216453832 0.4504069762888172 0.2130395879815138 -1.171441443314937 -0.6487484378248599 0.1443941503001230 -0.06431450453914035 -0.03763166034414092 0.2769528650448720 
0.3323052235888178 0.1691720909326792 -0.2593682435628346 -0.2643150632576178 2.185803617799448 -0.09137663198976599 0.02373016122634587 -1.379872146614323 -0.4532844197795060 -0.1002756499088423 0.5731048834207290 -0.4436336894354619 -0.9639854247249405 0.2190842231042461 -0.6086821376737789 -0.2293400849663689 1.290933291841174 
0.8681908732041614 1.685261284603269 -0.7874584819784193 -0.6461916758054154 0.3426727498665201 0.1652374183468193 0.4423994389575737 0.5368289131863009 -0.3120924842116852 0.3173011973067987 0.5476724581624886 -1.138812584911501 -1.001816094769786 0.03370725345851663 -0.2138041505382018 -0.4636411840069484 -0.3754549308705337 
0.09685703923409641 0.8781681181006241 0.1592084777179491 -0.8283443469197292 -0.9813855482096515 1.279687601805408 -0.4045844410567903 0.01438273305776794 0.09509154588142023 -0.3714793430153354 -1.570621521516892 -0.1686850949421503 0.8011650133611858 -0.3820243575567231 0.2193099604792458 0.6985228084175111 0.4647313551620713 
1.265953138691461 -2.087717146698305 -0.09341391256147875 -0.9631153395764113 -0.1754085198437329 -0.03404550026818853 0.4746083192432395 2.517162360106031 -0.2314130628514685 -0.4448576437166342 0.3590350779854610 0.4499125225563158 0.8050805335831375 -0.1450090254218704 -0.8316443822222787 0.4527447180887242 -1.317872137094028 
1.332592546447489 0.3597663289669569 1.300480591157148 1.168830044541611 -2.337201507784628 -0.04552510042885555 -0.2339970732709435 -0.05677621205574963 -1.275981273758633 -0.0008081887551432778 -0.9368777609775603 0.2987748626572567 1.169476320763713 0.2576270710089474 -0.5146431115559177 -0.1140475845151860 -0.3716899524404690 
0.9185702808457233 0.3757132624679550 0.2377432496110448 0.2649832350766265 -0.6183786486089982 -0.9851143177763741 -0.5083275043572996 1.196939169250816 1.495800914289072 -0.2896506897297694 -2.502990410846023 -0.04324468442997419 0.2320856439235613 0.1475095321134249 0.6874615765716207 -0.05897762830107396 -0.5501229801003080 
-0.8387452274653522 0.6263983678309852 -1.758816845139262 -0.8924363382992545 1.649812978297937 -0.04407189245658923 0.2185349363299495 -0.2859987599258067 0.3784580376559922 0.2902928027917455 1.139361257256502 -0.5425148477653843 -0.6571059494089911 -0.04104997663273464 0.4635695589271036 -0.5939711844915447 0.8882830824947195 
0.3529262079089136 -0.5449896742156899 0.3911478084073464 -0.9949801907121429 0.3081799552772015 -0.3338601271998179 -0.5843246065363489 -0.1176298849630372 0.2973303688287907 0.6813215783802289 0.6437988528922707 0.3943704476934626 -0.5957142360175733 -0.3519194889007699 0.2472573585716845 0.3205127431209712 -0.1134271125354983 
-0.07830867035715536 -0.3634163032014753 1.017974730322687 -0.7836186561307829 -0.9869848844689307 1.256936256142388 -0.2174720235189293 -0.2895202043961104 0.5154527449788502 -0.2094122871599302 0.4284044774821463 -0.9676795685091869 -0.2601561520333864 -0.09363950073544230 0.2820150636273711 0.2853099051186105 0.4641150728393086 
0.8913533119319784 0.2910101082070487 -0.09966071704497059 0.06412954311862537 1.340991897260220 -0.8734700647340626 0.1627343996701564 -0.6368211398533971 -0.9023336062547739 0.07175361645783145 0.09893134609861952 0.5149798049720202 -1.053918897479450 -0.3487596677893993 -0.1160157243947265 0.4224507709658802 0.1726450188683861 
1.137801372387801 -1.408721255756485 1.526089792034399 0.4571763439339901 0.02726734832442300 0.5524475612007248 -0.2542230843250911 0.03264360918399605 -1.012169824969586 0.3021164474176514 0.5908581785112884 0.4395452322323395 -1.157422986081052 -0.2261678770899677 -0.5851793360824080 0.2569656929125638 -0.6790272138346257 
-1.731513444307540 1.432679078872825 -0.03030913699415960 1.664699257887637 -0.3527623118543127 0.3824475820918106 0.2070318599789632 -0.7117057207065429 -0.2726177830325311 -0.5442916798357043 -1.420926541814033 -0.3439550552743559 0.2882833263616763 -0.2194339904462681 0.5639566901560848 -0.6625883557948310 1.751006224711284 
1.778522674740449 -0.1559302957897225 0.2969884177587949 0.4821574398421625 0.3768985354963284 0.3941456834401024 -0.8149642816650412 0.03729112379422237 -1.185153108398624 0.2288587669199750 -0.7729099109056785 0.4820141991079612 -0.3999652364538233 -0.01787575649479411 0.2443314874143043 -2.051847858761483 1.077438119954861 
-1.121890799704276 0.7056874944561918 -1.372797568600986 0.6970065351694273 -1.134127755252884 -0.3251864225204508 -0.5222117563791633 0.5585195494340234 0.1064819742156043 0.03786105090372426 0.4401663541675774 0.07498407551576465 -0.3049649994958188 -0.4299685324836842 1.237803037710660 0.1617845959887194 1.190853166875554 
0.09392974963050037 -0.2362378090270429 0.1558316180715282 -1.005511491992634 0.1904490469557284 1.285837189731225 0.1198907655710207 -0.8451536611127092 -0.7735117466576120 0.3419818035288100 -1.681528436767529 0.03453994783579673 1.322371777413980 0.1233596861061192 -0.7915449442414331 1.164432631289346 0.5008638736648748 
-1.115755784141614 0.07299444147679789 -1.920244923234879 0.2074134863616376 0.7698242916525692 -1.070863467538623 0.1036955555927089 -0.6624238017330246 -0.2864445340436113 -0.0009319398971497444 1.745858639464581 0.7798705305436088 -0.4112882419469672 -0.1560106735081071 0.7460329111230973 0.1218709530676179 1.076402556761366 
0.8922858203869793 -2.077032194284325 -1.009298723751587 -1.227930348478175 0.5835018519933708 1.090324995858098 -0.06766908985107100 1.275839892158485 0.3360650065801586 -0.1399689222430353 0.2308475523258295 -0.4028671385645359 -0.2801169453765432 0.1087485559537253 -0.5097779020763977 0.5112072162558366 0.6858403731131807 
-0.3098693944109450 0.6687820010347081 -0.1951943905442344 -1.561446326403231 1.502130677148710 -0.2559065753255493 0.4774422187551989 0.7535751626257545 0.3040287179549869 -0.5609264273036771 -0.4676541025826697 0.3877005977092044 0.6652103020131594 0.03785482375531771 -0.3400916679178880 -0.01171248324078304 -1.093923133268076 
0.7743918349944121 1.627207196182186 -0.6328972317902809 0.7668076466020308 -0.3679236167034368 -0.1327195069668390 0.09128695320862622 0.5585507594535194 -0.8930883575604606 0.2361251319053937 -0.5221634755651748 -0.8589552901959538 -0.1131453089716039 0.3578709104805359 0.2219349693324272 -0.4433734678034654 -0.6699091466019031 
-0.4819100229006270 -0.2074364460543035 0.6888089742261608 -0.1089245792384808 -1.725922174179763 -0.5858682734588191 0.1287313006103698 0.3464465983235633 -0.1287434783447969 0.2709057903705237 0.4579943212863766 0.8638619465062936 -0.07721520737054094 0.2377158156071005 -0.4857818811764632 0.2771923758232836 0.5301449399701337 
-0.8058048285062297 -0.9811857762547945 -0.6748930528114853 0.9627603161310452 1.303487601508211 0.01610632887313759 -0.2129155337170318 0.7872759664933280 -1.057498582863196 0.05911552014801295 -0.1147836047855710 0.3806145077051237 -0.5980863027699257 0.1658081867902326 0.4032879661961001 0.9362574487997846 -0.5695461609367486 
0.06823923447076560 0.8147086490835000 0.3308431742757382 0.9795183311817001 -1.485443036065296 0.06696566102118134 -0.4800593154685677 -1.296965432324474 0.08656027678975103 0.1331471792299045 0.5490184362388221 -0.8563281173041065 0.8316451360656583 -0.4539007920095239 -0.1538770847277785 0.5479379740104948 0.3179897255322073 
-0.04038381246890661 -0.8279690967030990 -0.02395633245642231 0.9530596024792942 -0.4967123430445887 0.05856015506179857 -0.4212156327833868 -2.191813472750439 0.06716268267340496 0.3254567619522540 1.545416836773983 0.7461149207231811 -0.6908598860648035 0.2912958922659513 -0.2711701273490500 0.6008484824322108 0.3761653692586347 
-0.6601590436352184 -0.07890571646106770 0.1950504494459500 1.161997073890365 -1.008590076554940 -0.4768064162920153 0.2115083433301452 0.4450429883760959 -0.1667984133944119 -0.03823728623434120 -0.2812125230401808 -0.8877572534934929 0.2963773991802562 -0.2626131611492216 1.186341742998254 0.3652574211920063 -0.0004955281582085573 
-1.370785292554091 0.1111804646966964 -0.4876466731750326 -0.7927438653928442 0.03899581728671735 0.9180060454753052 0.3240841146848574 1.267761627604602 0.4248108795973236 -0.02026201012889726 1.594004959434613 0.09687375301889149 -0.8581885761959980 -0.1865334976427325 -0.3042498683581014 -1.000042347515272 0.2447344691639483 
1.197892864259093 -0.1886123458298216 -0.5665747173950586 1.073886315755235 0.2734519864325711 0.2478180576178138 0.7698252604646880 -1.889034418025710 0.1879409211131198 0.03429786841939769 -1.018695488330855 -0.3496017456292370 0.8499068915159353 0.1914522582203221 -0.8693253489359732 -0.6332860241839448 0.6886576645324027 
0.7979496567533221 1.544233283820226 -0.3294891895810705 1.942616830622159 -2.007367381941263 0.4122542354922574 -0.05805165165565763 -0.2976041547386188 0.2113107574888764 -0.4385409211959889 0.7338357344179446 -0.5317039765122991 0.1205121787938403 -0.3939423469958429 -0.1113836805534244 -0.9392617169262384 -0.6553676572882088 
0.9942559432928180 0.3699141062507951 -1.388111638381147 0.2857188850973906 0.2258402755421980 -0.6987615065869949 -0.1339793583744912 -1.677201753754522 -0.2012628546536298 0.1233935805225897 0.8715348801501163 0.3313822669765832 -0.2657764113702465 -0.3544651463897495 -0.2948388664561003 0.8125636248648586 0.9997939732695331 
-0.05077476281558806 0.9567729697566977 -1.108249266574778 0.9146499575280101 1.207723005774865 0.01846460986331674 -0.8733475606409924 -1.278650906401315 0.2185427953020079 0.2738480397842686 0.7395087260298303 -0.3013537097199801 0.06087728473163354 -0.1532992326523963 -0.4407458226522878 0.1785294340466011 -0.3624955613599202 
0.1762750868732287 0.1222408334495324 0.1205688276203133 0.7834397381960018 0.8610022814015882 0.2780893775218748 0.2192599650144196 -0.7999303954121686 0.3750731810045163 0.1949419511955112 0.06291564406200450 -0.6680916034135906 -0.9218247553543338 -0.01747269164017765 -1.349153899176059 0.4686021613970739 0.09406429726026055 
1.145783893373208 1.583953685942534 -0.3115834294857503 -1.023445844536228 -1.685569577525282 0.0006879377434602594 0.04089744344495556 -0.7095604815693000 0.8003371295437662 -0.1050721022658146 1.243668494490347 -0.7356412665479176 -0.2488729661116248 -0.1351783879434463 -0.4931781067976825 0.5255770227006863 0.1071965555440832 
-0.5114655205111864 1.985574450722413 0.2238970830910993 -0.1166851653577875 1.998394517015973 -0.4574855430562777 -0.4467876382084241 0.2157489473168670 0.08414371905303637 -0.4094890432722044 -2.175755287508844 -0.6613675786772248 0.8004496002373851 0.09952745643640178 -0.6010888406527867 0.1921752259896891 -0.2197863826181465 
-1.694023376970516 0.2443524117045277 -0.9672260594416368 -0.06603615759482310 0.07559012055297032 0.9405158666660056 0.02220429280577800 -0.3531291322985429 0.4320723182073724 0.01406718237800944 0.9359668324468845 0.6387970299083849 0.01371515208638852 -0.4005171644226700 -0.3813875051070624 0.8370421725047572 -0.2920039834258377 
-0.5892587314731934 -1.224407582232320 2.619323795501457 -1.194394526993853 -1.009597120856857 -0.8371405678942533 -0.1775651128723046 0.8717382987885457 0.2342964249220559 -0.04817630564149728 0.9318023090348806 0.07962104276392429 -0.3512200441830508 0.2855544337155470 0.009922508090403449 -0.1585443573945468 0.5580455367250619 
0.6786959226072221 0.1905426247986215 -0.4705781631125947 0.8644717430256514 -0.6650471065416015 0.2238894816490521 -0.7634973609534588 1.171076882418342 -0.8639226974827677 0.5053035530373939 -0.2829024097213971 1.050258935712352 -0.2472050906958128 -0.02697078555062640 -1.084828380242113 -1.000329717922414 0.7210425689741649 
-0.7431523130462828 0.8830191102901848 -1.352637806095205 0.8926775191250809 1.813189960925174 -0.2261050466532382 -0.7303426796298887 -2.222447621573917 0.2953119183343178 -0.3071560400884320 2.140260701588155 -0.1609401029074759 0.6032147122451822 -0.2925131266819025 -0.6397472039071137 -0.9679185688190249 1.015286586894421 
-1.390340914208048 2.764379286428176 -0.2425947369167965 -1.104755261571057 -1.329780761983733 0.8069327058333299 -0.01496674060714378 -1.512421529618334 0.1281396206945854 0.04832638996593070 0.2762064450705115 0.1872008174203877 0.5038838071268921 0.004880888136607174 0.9496907278192931 0.4690531166473991 -0.5438338602380622 
0.1497127838165157 1.660284848302821 1.002919447830642 -0.5347799035492349 0.01504414722704808 -0.3776736347766548 -0.4408513167984019 -0.8622717207226868 -0.3566229909260843 -0.2975360410327900 1.473615523372617 -0.4377137835680225 -1.435521867304388 -0.1061516242745455 0.4644595711628051 0.04779386077230091 0.03529270046807605 
-0.5813399725877535 0.1065065722920312 -0.1975596950451894 -0.4825609122359094 0.6648014082990727 -1.048387215089521 0.1794393956181266 1.289019107233077 0.008130481850030888 -0.3503054527185743 -1.007084333355038 0.3488527216889948 0.4935976629204965 -0.02113794309196213 -0.2280522385949626 1.158345935549288 -0.3322655227322167 
-0.4016176864392523 0.5921710159230880 -0.9778863953295430 0.6536662945662935 -1.568884853971147 -0.1978947429538450 -0.08868475203614956 2.987222000328879 -0.1615533181177235 0.3461895192620437 -0.3271175164329835 -0.6675191269092083 0.4573938665713457 -0.2278613992362782 1.209648600160172 -0.5133844352471763 -1.113887070138525 
-1.273705102806877 -2.450389697183900 -0.1319657366106601 0.3794828462598596 1.531830948764432 -0.03191043933262507 -0.03088844612853307 -0.6527789788625681 0.2950851951384116 -0.2514728567960008 0.5390627936873746 0.7684280160427085 0.3125750356443538 -0.3454894722639633 0.6071572924729581 1.372695688013083 -0.6377170860380604 
0.2079910316711201 1.061613412773377 0.5374424958568420 1.440641767845126 -1.164957389987372 -1.088830557088156 -0.05204535720303048 -1.826364794860059 0.8171272283174187 0.01631553849134851 -0.6280503865425380 0.2605924278156639 0.6787555211255624 0.4532872527865769 -0.4823989464685484 -0.4485505106738961 0.2174312661405669 
0.4535563469396545 -1.183599270422541 0.5411118061997420 0.4802946053235109 0.6062161253874396 0.5652592183455711 0.2719977540868265 -0.8170407623697460 -0.1733388846573357 -0.09209239075039616 -1.291097148672754 -0.2067612510497043 -0.5022095748686709 -0.2855999889757749 0.2471041352534110 0.4184778429927564 0.9677214372380275 
0.1720220969274033 1.451558159422435 -0.1969582944628306 0.2084566605228359 0.5198036296839991 -0.04311186466265159 -0.6400036888270383 1.006647015182550 0.7222789955070497 0.2260433937349995 -1.875152463910300 -0.4058462028971251 -0.7629819246439820 -0.4849784587809680 0.07318035163831535 1.170516927854284 -1.141474332288956 
-0.04271483200576557 -1.544412671257806 0.9961803450133027 -0.03249140391863044 -0.3828759070006137 -0.5666223572956208 -0.3306851564373854 1.142989638224699 -0.07455932416279702 0.01300431500853824 -0.2151076950200264 0.5739394210513626 0.4307721523400953 0.01170851441315502 0.4179745219264497 -0.4312702823492003 0.03417072147023720 
-0.7381001170410286 -1.157001187180692 0.7708146425989219 -1.027765622999089 -1.645442865349333 -0.02279679571864883 -0.1520884338843610 1.183113773873438 0.2746842753834338 0.3473757782512357 0.1562193233064215 -0.5443624039231607 0.6044931438755720 0.4229435567337110 0.4259806538699765 1.492491757237566 -0.3905594790339478 
0.6892578019400327 -0.4169407308833910 0.06972617050810045 0.06450052404780149 -1.007583494033401 -0.3282157355737037 0.2350848736139042 1.947772609094878 -0.8861024219827033 0.03502052373728767 0.2291355973479208 0.9231129377076014 0.3831103780464704 -0.4657055121890479 -1.194778671918124 0.5342286518754755 -0.8116235013391065 
-0.1926678688277347 -2.050629779387390 0.3854633866396504 1.305466198377586 0.2229103927253182 0.5858233676979006 0.5105542532170928 -1.800862051025073 -0.1236653742678875 0.1668483487542704 0.4097125924521454 0.2317652462165145 0.8438023489840124 0.7899786069438240 -0.3260770410298439 0.2827917534965779 -1.241214380966954 
-0.7413126093636355 3.841671923367020 -0.2039736147105022 0.6358865612267246 -1.900469078274821 -0.8383960637720885 0.6724145343393171 -0.4677964485613229 0.1496534583853595 -0.3367899162030117 1.069539978724015 -0.7127850569865907 -0.1509612261264073 0.08620704209456605 0.001267740871646461 -0.8223011757509786 -0.2818560492593087 
-0.7067031976350748 0.4328649668214721 -0.03034189896695887 1.588603259627428 1.291961601445762 0.1606981666511967 -0.2182716295383662 -1.021625379139301 -0.08789163135087169 -0.2351083334169835 0.6629626511131838 -0.9820021029975227 -0.01048771605190187 -0.2310245255229002 0.8605686598187912 -0.08634230945648336 -1.387860581401473 
0.1338793677197450 0.2880455046412571 -0.2269644435239714 0.06856060721694651 -1.087584857138604 0.5197384776839007 -0.09188746267049688 -0.3061755131149581 -0.1538448186249428 0.4639482470608046 1.617286204297980 0.1078287936123158 -0.6316921124338756 -0.03625277430048592 -0.5372713015760290 -0.9513903716253236 0.8237764527757130 
-0.1856656102556528 -1.060457833473900 0.4617640343922309 -0.1952588593747430 0.01225090925662217 -0.1575065000767610 0.2466241405595001 1.857675604979261 0.4376792745876869 -0.1223894600941140 0.1483531101919142 0.1968449657283759 -0.3013176506020111 0.1067639987879818 -0.7088862646544577 -0.2380746786707614 -0.4983991812811854 
0.9332238226863305 0.1880777581574149 -0.1377723937237113 0.7898963833980044 0.05045813563576961 0.5888473887786260 0.4107547688412317 -0.5724438310943369 -0.2003414918616872 0.4856090411888192 -0.7980918656323183 0.5027465281142989 0.6875243902407883 -0.1463038888334897 -0.4777524014900901 -0.7365626368050104 -1.567869707600649 
-1.221549137958839 -0.1635955997299184 0.6025014744258806 -0.3245484254236998 0.8625595681392286 0.5192092272650142 0.5943951992595845 0.9051500230734410 -0.4873763155043801 0.1736636696866985 0.7931273329095567 -0.4840842469950136 -0.2130431601103608 0.5922458208126391 -0.2571630784896767 -1.389966261737789 -0.5015260896223722 
-1.349896576318457 -0.3492931406219781 -0.02807236350456664 0.1765930937641234 1.157084518509285 0.4345286061708307 -0.05921328805930116 -0.07930656713047486 0.3221633696854785 0.6392815878531193 -0.02235662174763416 -0.5112335910938200 -0.06640443094644548 0.4333912964215114 0.8710586063714792 -1.271753059390590 -0.2965714399625612 
0.7183188314782689 0.9757062528460111 0.5148417461803045 0.08000270932488163 0.6271705206553242 -0.2779870995454121 0.06155252333358746 -2.590480656438464 0.3412451786303762 -0.4976769243591127 0.2076971990502619 -0.1602399479935989 -1.598730448709624 0.3172082488729178 0.5726199482830110 0.8667768421870208 -0.1580249237957285 
-0.7791255722395917 -0.3065497336399866 0.09475533859792538 -0.3584262544486932 -0.2628418518380661 -0.1388390128374221 -0.4107816711649980 1.497843599556730 -0.8180119127537987 -0.2101848594886412 -0.4881690134218916 0.7843274712866963 0.8556109852843765 -0.2918833907850478 1.239242693138798 -0.9688242711309472 0.5618574558845653 
0.4302577839544828 -0.2329851455674031 1.074093815708228 0.4381043513122597 0.4522518039505882 -0.2426238640905143 0.6009339765082287 -1.368177295564640 0.06474870005981087 0.08444375426751055 -0.6456412913022839 -0.4378736409201294 0.4608772362550495 -0.3248648554999132 0.5136165553104434 -0.2177429077561564 -0.6494189766255548 
-0.2044496226634031 -0.7842965162315675 2.045467889720588 -0.2550172978998380 0.7455036624638685 -1.153957144238407 0.5217596488395645 -2.184880703380508 0.3418785688164434 0.09247727888368319 0.9936494040898693 -1.091085803582269 0.7116638309737079 0.3448251236179642 0.2396881147976077 0.2287033770186501 -0.5919298112259515 
-0.4048445089365130 -0.6856064534982248 0.7050940274238364 1.061268593223487 -1.215955332301413 0.5427648990572300 0.1461207670946411 -0.9337839765423952 -0.6497235687114953 0.1044424453010629 -1.105926145608432 1.036820669024927 0.08155655384263120 0.2010750339724066 0.3498438708892565 0.9771790607640934 -0.2103259349950895 
-0.4102543979241796 -0.2388399019639058 -0.8921174128186942 -1.780870287107331 1.349039713300913 0.04050039649127243 0.09138655551170645 0.2109828654616129 0.4277776829708155 0.04076755565447499 -1.310169732281841 1.085020756185340 1.792815735780904 0.2765109392546690 0.7479734489510224 -1.091237304214067 -0.3392866132527174 
-0.3986359058747722 -1.124232834752877 -0.4599358285027817 0.4024653871406835 0.07073300805223105 -0.6449550264915546 -0.2227940058067102 0.5235789422401742 -0.3423999830868982 -0.3748178832568729 1.133067393909334 0.6601157389344633 0.4388473900265446 -0.1890784635702952 0.9852705200528381 -0.07550633416939281 -0.3817221148440959 
-0.2311839348341901 0.1502795314031294 0.9085598398507742 -0.6172302953710087 -0.9273389721657281 0.3667544994802633 -0.4564577022787190 -3.950318614582342 0.6442872945166510 0.6552757226566086 1.001522356417679 1.223724867744022 -0.2826967479477361 -0.4515667251606410 1.111946827770775 0.07977175655977600 0.7746702959407064 
-0.2587486442135288 -0.1897199418390318 1.267373711977401 0.1322005127044727 -0.8642745161140837 -0.5719125274240353 -0.2087297375053742 -0.3749150157166583 0.6144706101340327 -0.1529148568025290 0.3703310835003110 0.7366108931477339 0.5930459471110293 -0.6264007914355898 -0.4374762554656326 0.2043028631773641 -0.2332433352358716 
-0.3504680517241455 0.1240846622858094 0.04383654979003756 -0.04489347918087786 0.3453996294906099 0.07743565937462467 0.1002406542395711 1.316299373287985 -0.2673891556649743 -0.3924385413685917 0.3770797906809915 -0.4959466945924775 0.3018730954516694 -0.5563228846078091 0.6622516790614564 -0.8143244760938960 -0.4267178104299773 
-1.560348834043943 0.9023291650243436 -0.4276717794193514 0.5506589656816957 1.305702267280467 -0.2656197786703383 -0.0008183682924926931 -0.3634083783936399 -1.037686647043244 -0.1907903816309203 0.7835942237102008 0.6286909940269735 -0.7204984984355477 -0.1021836218285855 0.5415378746392145 -0.5975135035981793 0.5540263009933446 
-0.4999079054334280 0.4863424256089463 -0.4083182759835863 -0.2079775526239089 -0.08013412687382113 -0.6717552412856319 -0.04903140286560055 -0.3726421779924000 -0.6862487730882366 0.2605312692792918 0.5177315690157018 1.033134424169479 0.2493469325496961 0.3369543374263930 0.5415444094699253 -0.3306494919616898 -0.1189204194111242 
-0.1532990219702620 -0.7134141209572119 0.7460005931645718 -0.6219760828967780 1.082966714677635 -0.3387251617668556 -0.1388765610580385 -0.2683355814076353 0.4820599226072059 -0.3216696958092580 1.173433506516719 -0.09355254196492466 0.07636620047623510 -0.3276406638775751 -0.7880879698004731 0.2820925235594529 -0.07734205949277567 
0.4535963149289115 2.632180975308799 0.1164704635753219 -0.8295217458933211 2.796768670775296 -0.06713700449409084 -0.1084003424096903 -1.470772694869696 -0.2517560427452093 -0.5706276138735327 -1.228432507098030 -0.6225870295460365 0.1216285916913462 -0.3208560780539602 -0.3667310742978545 0.03907217084404740 -0.3228950538422882 
-0.1658718183530876 1.140319482896327 0.2650328184097609 -1.410722613675531 0.5799807213073415 0.3181656313950007 0.1013259083044538 1.918592682632969 -0.2515297027873865 -0.07773651555359613 -0.7069876586123465 -0.1075743031620231 -0.3861478014895352 -0.3715069490049627 0.2215715951905131 -1.234660670831070 0.1677491933331675 
0.05949045124503487 0.03453711350299778 -0.7185176301247393 -0.05650548901624519 -2.056186896802822 -1.201663350817836 0.01015017180820464 1.756717106955227 0.4978400814050866 -0.05570576390617251 1.101322454738061 0.3213465462174081 0.4099668787315813 -0.3867001273783299 0.5351735982154849 -0.8696598916006486 0.6183947468277302 
-0.1764203033117168 -1.844521985688817 -0.4375993030236727 0.7613621139284711 -0.4505348116103743 1.003963117080786 0.4705882852356225 2.140661547302532 0.1263356971194378 -0.4388461795758565 0.6549960131343563 -1.119437427242303 0.8056351952555250 -0.1917534164247933 -1.116042504549706 0.1053257549185372 -0.2937117925480437 
-0.2722711397044690 -1.181714543315529 -0.2218668638532645 -0.4568204952304838 1.300739612416896 -0.02918152812997800 0.3328127158931865 -2.173732355042293 -0.3352313172531738 -0.3386454059627856 1.833122933923354 0.09880131094984028 1.544964542037045 0.3513190655455847 -0.1919225684031712 -0.1147915650061678 -0.1455823988646032 
0.3769107769790961 -0.2350431349049558 -0.5104271129216126 1.192467580347935 1.393790196295010 -0.7893303398470618 0.2648105786147971 0.07118325058960209 -0.02709536714271579 0.1905441514614897 -0.1983227063081473 -0.2818675717709199 -0.5491653791183476 0.4542108681280622 0.3673281793942415 -0.7853560037162788 -0.9346379660801823 
-0.6965711922346278 -1.071301953858502 1.393878735315700 -0.5164573586801658 1.956686664673288 0.7584238309383556 0.1240141814624763 -1.810775236541242 0.2117076233610155 0.2933977242610784 -1.238956927020628 0.3640508185108998 -0.3844005302801787 0.5613184043418061 0.1768199756345358 0.5440324999614258 -0.6658672598452035 
0.2449007684381513 -0.7519820537591984 1.316949775215255 -0.5087970991086924 -0.2035187812571953 -0.3146226701902852 0.09432830167042570 0.3645750683871264 -1.115332010403988 -0.04337973214230148 -1.448982932399788 0.9178338530430961 1.724800931418419 -0.2346509451021282 0.6439394843085170 -0.6056834739956611 -0.08037848412176869 
0.2508962041310215 1.509683635201461 -1.223211687298019 0.4612074666751184 -0.02535673242779843 -0.02764580634950674 0.03331806472168744 -0.1290790378522290 0.04163103771132153 -0.2688188541741976 0.1536944398621589 -0.4858113701320597 -0.4440864260465195 -0.3457626317459048 0.6005248297679700 0.6739857605173917 -0.7751688925618924 
1.044352880770720 -1.433744843199111 0.02039986340340941 -2.212177872306306 0.4279081485242944 0.2676108644755494 0.06113167245310530 0.9691882495864044 0.7413492825988925 0.1737654223855412 -0.1359169060309198 0.1112885108489929 0.1565408316744537 -0.1332557557387505 0.6656571881566838 -0.3248857957983332 -0.3992117418046328 
-0.6082655916870235 -1.211689466333072 0.3762108632688512 -0.2199314957052425 1.838547677877415 -0.08640750945129134 0.3744505046241637 2.207487157675642 -0.09577955305401878 0.1497181670477450 -1.392822355121002 -1.397445787782760 -0.7560349388974678 0.7511782973053380 0.3308252276768866 0.6283817605751748 -0.8884229580193069 
-0.5676096750849738 0.9393675969375562 0.2267524494133994 -0.1185129978355738 0.06845092223942971 -0.06516451046478033 0.02594609312257035 -0.03193324935212815 -0.1656150994985262 -0.2979379064661159 -0.1616630592170687 0.2197991211279704 0.1945342333836768 0.3697181217362638 -0.2480012372463175 -0.1942427296953269 -0.1938880731000572 
0.2511100634206698 1.934807894777730 -0.6422875723560250 -0.7499542526112569 -0.5069321326595667 0.4190311173016876 -0.1789287444602853 0.9682082303897360 -0.6238598437119635 0.2765426673607979 -1.083950534962749 -0.1713161753612516 0.1011253822388095 0.1300438323564176 0.4744917311097615 0.4379233831564098 -1.036055045988929 
0.9129251711443984 0.4676610115736000 0.6931942028774161 0.4615623287157382 -1.401096019016846 0.4851583393921887 0.1713532151843822 -0.1943465662872656 -0.7155119074698226 -0.2810962872471264 -0.3651447357677530 -0.1812214073278265 -0.1459554029277064 0.1526121485868157 -0.5448346305505678 0.5889048922817207 -0.1041643531613542 
0.4480689153420809 -1.056064041268288 0.5269774595515547 -0.7347725401074495 -0.3547705086113051 0.4931722027980974 -0.02975197311388755 2.144804595920110 -0.5475571091049451 0.01725555810811630 -0.4443228569635236 0.1377975574952667 0.07994330879661092 0.06196932347058723 0.06542039761538312 0.5114380406086111 -1.319608330537009 
0.3500152161009220 -1.010498813454829 -1.078380707683840 0.9024798181197460 -0.3008374711600655 -0.5057846247871891 0.3726592462027992 0.9235719941846461 0.8067700718907633 0.06775674669232921 -0.4991390436597031 0.3031952578558527 1.157091119193718 -0.07296240219590250 -0.6574168034046528 0.07379341969212423 -0.8323130235867234 
-0.6153942419720510 -0.2240150783698807 -0.3213689824027490 -1.994834054990380 0.6695253829544783 0.02096329708317915 -0.1500744225657440 0.002089546967435029 0.01210545346610033 -0.2112900621638984 2.728832788770481 1.062956461946462 0.7989850400213353 -0.07501426987018190 -0.7048463262121981 -0.8722036531881556 -0.1264168794741996 
0.1239683505568514 0.6381357170736126 -0.1899387730043326 0.5664003446857399 -0.2106734916654554 0.1274644471513712 0.1318651056155545 -0.5321994245953342 -0.5836600010527389 -0.1613720125209159 -0.2910661817183066 -1.066142564503115 0.5875245365206692 0.1071970169977661 0.3685691315509592 0.5418056811103767 -0.1578778822027070 
1.407393198441743 -1.405914706558694 -0.5031838728387854 -1.945511658892857 2.159636527924347 -0.07708039132122290 0.4826856881878144 0.8567597540698088 0.1148499665421665 -0.2644583843044766 -0.4091418008739610 -0.3694052070719221 0.6285068641602571 -0.2004052867700322 -0.3584756108217180 0.2585277948071140 -0.3747828746795491 
0.6160100246541345 1.077625747186439 1.081084339579625 0.3728234321901969 -2.378333334989133 0.4580842401492307 0.3470988957745489 -1.620053295229303 0.07736067964541951 0.1661627709374769 1.414211371397042 -1.348778797637912 -0.1071473617569830 0.2722839718176037 -0.4405446025465741 -0.4677879133710374 0.4798998321992340 
-1.112450945956677 0.6401293728107430 -0.9255155293385269 -0.1071384658915982 -0.5060636335486737 -0.2168069170003559 -0.2427831396546865 0.8142767650511319 0.2086474781294716 0.06673550519039274 0.6676905707436894 -1.307817344072660 1.026820814974474 0.05891089129585275 0.2277251073952948 1.808488039484143 -1.100848569612030 
0.01838751217824785 1.330237035185968 -0.1480901772264589 -0.03805060294031518 0.6406745757325700 -0.08980356398158360 -0.03367504454173382 0.8621927135654883 -0.05086541414111070 0.1695609818502017 -0.01125249066061761 -1.055958289426826 -1.012583260424400 -0.3372126074038673 -0.3533570073728207 -0.2071346779175814 0.3169303175248330 
-1.379322465661229 -0.1285897320122415 -0.4640401217045655 -0.09058718939090520 1.081718278875997 -0.7244142107310909 -0.1827162710732849 0.3851223351472036 -0.8115678603857130 -0.3582706127857608 1.787576108582345 -0.05133836446619354 -0.4244025310189414 -0.1878761420017963 0.7253556232116274 0.2694588891234473 0.5538942662911153 
1.173727438061851 -0.1519425060740871 -0.1274357050301115 -1.593503730091369 -0.01155842596318372 -0.4700426199427332 -0.06175691398402486 0.6557262926405062 0.1484573069152383 0.2838858255692546 0.2803294531746328 -0.5373233569228825 -0.6583983473341911 -0.04445490741870399 -0.3760298290722458 1.010169180095284 0.4801508453767653 
0.7578813021258242 -0.1979704586894050 0.3330129276721421 -0.6761094476278773 -2.565802621378754 0.3128774380663536 0.1439920452856180 1.353734795628491 0.1757775744430249 0.3928865462300750 -0.09141416798304981 0.02074276571347096 -0.8969981005723155 -0.05141860473425446 0.6758358335292720 -0.8293618063498980 1.142333978641317 
-1.717418317027681 -0.1677724727852362 0.3218427166434524 0.7146008547473583 -1.549642296667952 0.6821696082933635 0.001289888258149412 0.8810204814286171 -0.7517157316198634 -0.3205746407219165 1.114129919195997 0.009353938539639072 0.3771462489739311 0.3427086569028164 1.048233565891195 -1.500701982306519 0.5153295622546435 
-0.6327307353680903 1.531173743271032 -0.05818406209280792 0.2300995261265799 -1.809124935685200 -0.8189389540696274 0.1260227739905895 -1.650495683325207 0.5989041665655174 0.3959548299529398 2.259724228857872 -1.076990771656463 -0.01960857957513840 0.1294785554262554 0.03457444995048688 0.1714483871552155 0.5886930604760410 
-0.9936099893579728 -0.5200093937252149 1.100462808815006 0.8379140824492721 0.05557938215926544 -0.4246263955245288 0.3051372887862711 0.1889649337079012 -0.8027132470301972 -0.1837917616441168 1.127865454931043 -0.3869358318523206 -0.02420265920504009 -0.04706462020444541 0.3697625186305917 -0.01508282153822125 -0.5876497493973071 
0.7786362338519657 -2.443129409131590 0.2855496822761698 1.560579554966170 0.9508839715694389 0.02196478611339883 -0.09494764503992556 -1.152860478429402 0.3298186777358904 0.05301681072158260 -0.1012108533094855 0.1239439845643779 -0.6330628475324199 0.2865752457511688 0.3782764880023375 -0.6655781250973992 0.3215439229877143 
0.7058071708258088 -0.6226918962552759 0.4977245309644562 0.2651757683678425 -1.144668774201231 -1.191476498903998 0.6314006545340808 1.160057198669350 -0.2606357206667554 0.4019867328214901 -0.07518589900766144 -0.4714974942666196 -0.9573025075441008 -0.02226665429076561 -0.2464995799858840 0.8457634337010814 0.4843095352381709 
1.181054289313328 -0.1293431499659095 0.2832610838305950 -0.9027272949561906 0.7974507597823106 -0.5047802107802696 -0.3626973857295152 0.9617593750304620 -0.1275948940576137 0.4703176337418913 -0.1830552762380718 0.2189110316176668 -0.7787884462274582 -0.2401391202615157 0.08101736505469544 -0.4704875842913852 -0.2941581758630087 
0.1262147819356199 -0.4382339133854630 -0.01114854556868755 -1.439835009209883 0.1113876740520702 0.4389355226918653 -0.1030772727326292 0.7711933702007702 0.5571880471470239 0.1233819263945443 -0.9899501651768112 0.1540278097848628 0.3901385059959874 0.2697912537905362 -0.6632916620553012 -0.01799075601798604 0.7212684321534891 
-1.072490548470715 0.01515140420877061 -1.004979691725967 -0.9120042721814890 -0.9133859427100945 0.9702592718212362 0.3259911101343667 -0.1301872896968239 0.1882354399316727 -0.5874985026324353 -0.1202927477619655 0.4363160113520504 0.8941945910916992 0.4471742551554091 1.026776155976392 0.1688017253794816 0.2679390301284064 
-0.6854336821481744 -0.1787318848856669 -0.9607746801296171 -0.08788428917236824 0.2925170183503459 0.6236036755543342 -0.5740601596073556 0.6802307817285742 0.3888955269635904 -0.3963061152385384 0.6396697575329167 0.4657263490693514 -0.02751239061939903 -0.2573355044577302 0.2985729779340040 -0.2668151708854371 0.04563779001116211 
0.02595578938657645 -0.1741224200446665 0.8195421501327738 -0.3818561475675998 -0.5720353362691211 0.2402980850560201 0.2155648372506971 0.04142773785936000 -0.1612732677357664 0.02376495942891189 0.6471921757080997 0.4797930490758658 -0.6634111271940609 -0.1076908607901110 0.3159293767918306 -0.7858590479267211 0.03678004683793080 
0.3874371542714031 -0.5771318070214240 -0.3599765183144555 0.9062614279292216 -0.3000350040882552 1.031005819860912 -0.3448475299409276 -1.814276599322331 -0.01783170476069671 0.2465642060254817 0.2119119238919498 -0.2113115997558109 -0.1198538721372348 0.3430531607312853 0.4719616854840495 -0.7102797973265754 0.8573490544734212 
-0.5518917304695240 -1.747285874084981 0.6177968798539638 0.06504358794045634 0.1765600632112162 -0.4449312181096053 0.3655277299493808 0.2679984064106160 -0.2366146209743768 -0.3121864125112751 0.1880310468902477 0.02085153982354907 -0.4947194692307109 0.2965422944464330 0.4826429108602656 0.7067323822683585 0.5999024837259924 
-1.353290888243331 -1.411089347372985 0.9147024473212466 -0.03514008176364693 0.8923475550307476 0.1212688544561057 -0.1272312143330536 -1.045181257808457 0.8915468467944156 0.04855637075474055 0.6241588887510919 0.04596436631374963 -0.03356677998787054 0.1423393294231643 -0.5050413971897806 1.380530523458978 -0.5508742156051125 
0.3946515594057178 0.1520841069966571 -0.08417135437712729 0.4035034169128202 -0.4518341383985798 0.05249887830791838 0.2337281578553683 -1.240724266750517 -0.9068645258858768 -0.1828329302211587 -0.8574438534709257 0.4068670397037633 -0.2806304566617109 0.08237762213358209 -0.1065723041537316 0.9740610911218381 1.411301957481959 
0.9945332368111750 -1.873243868270537 -0.4360790913980310 -0.2352677799915703 1.044534452327637 0.1079682027986100 -0.03523914398418777 0.3276686445614776 0.6112724505028273 -0.09545118835169598 0.2992654432257441 -0.5025536382760896 1.475392249027475 -0.08733173986922152 -1.018902532882919 0.3729867774944399 -0.9495524737251227 
0.8486675309468965 -0.4829747092016880 0.4126109966401977 -0.9657263251990916 0.7078921955141214 1.322144477870959 -0.4310663016969565 0.2441558251273540 -0.6583902050083400 0.4055856916459250 -0.9511266432454034 -0.1936781925665653 0.5904125641295517 -0.1349972150404774 -0.4949021548545102 0.4591821529371707 -0.6777896879991440 
0.3448219378620351 -1.154706245440071 0.6874870692969446 0.4110580238219782 -1.181937243782570 0.04763752325634195 -0.1420235990808471 0.3875988565938858 0.3967148481640924 0.2635554281930442 0.2405403100912625 -0.04236841206962626 -0.05638824095287183 0.2993077439831109 -0.7064673499458105 -0.4037190593110245 0.6088884093201030 
0.7027240143629002 0.2002076774693732 -0.09915780504874730 -0.4396420160795184 -1.246915308231069 0.1038469290518099 -0.3340470447755711 0.3965483332953906 0.9705646400229228 0.3640712162612266 -0.4018126208609168 -0.1170236269256265 0.5182804950342657 -0.06709284106277211 0.06505606894723696 -1.267684714028765 0.6520766025678493 
0.2583494452399542 0.4652849028705869 1.046343712421426 0.3660598942458183 -0.2011705189764848 0.4790374178057448 0.1639167036927447 0.06694767215155460 0.8082183537012215 -0.1577074894024606 -1.806186053736213 -0.1948771381049879 -0.2489666553738069 -0.1591689374672544 -0.9746735618441351 0.8059305090070639 -0.7173382562307796 
-1.229254216233092 -2.146014472026036 0.1099422353924876 0.6172370071262803 1.444127638166032 -0.9160409169228173 -0.8109392867730476 1.917135982776651 -0.1199847458996507 0.03438785381479417 0.1659400778685030 0.5934535654999040 -0.1961039863403533 0.1052638352604686 -0.4898962028037908 -0.03179289366328273 0.9525385247569664 
-0.7169453223054234 0.6618371975487190 -0.2522756350613695 0.7148838896805936 -0.9922543295384771 0.1466563328475347 0.5618489065451999 -2.282802592358661 -0.9376966189440419 -0.3222173117218095 0.2326378936802959 0.8952600897262206 0.9828403796503153 -0.1107559373433959 0.2791532310811349 1.027325034117859 0.1125047923952871 
0.1668157963584268 1.287292891956444 -0.1143625024092156 0.3567324757896976 0.3830434170950126 0.1457155129640956 0.5396113817511832 -1.252431507160292 0.3923580499973720 -0.7834933131662924 -0.2892898366588136 0.1157003191372929 -0.6366817599321231 0.007425828747973200 0.1613902818119349 -0.2951778968545312 -0.1846491394281853 
0.7117025516751798 1.343483261119468 0.8025410776770404 -0.7375933693261822 -0.8412178322885099 0.1400134163972165 0.4369413234053645 -1.208044534220449 -0.3390578534410733 0.2717188850005192 0.7187757582236584 0.006438390786656670 -0.1659243794187144 -0.001647848693669982 -0.1412572381482616 0.07633846651713520 -1.073210075265373 
0.7477060007494878 -1.227498661563388 -0.02934241778575871 -0.2514806174322337 0.4675851737844482 0.6738617311068177 -0.2130610271132717 -0.7632991084752925 1.247615027614889 0.07484521749686088 -0.01046501106818049 -1.283246972552804 -0.9606022808487883 0.1639432127514907 1.422270443267828 -0.01943452277581613 -0.03939618715628854 
0.3380853327973744 -0.8585433676302452 0.6943779446238062 1.976165843756873 -0.03598046698866341 0.1493010350106095 0.1411602319128058 -0.3244560667753747 -0.1124224906773430 -0.01926734144315934 -0.09744637444433717 -1.700944314983442 0.04776170038962788 -0.08922449448779167 0.3163594584013732 -0.8951834372969656 0.4702568078348534 
0.07839348977836481 0.5021653094757782 0.7821812226894294 -1.143739222227034 -0.2542644910503664 -0.2323537226395673 0.1865052544278597 -0.9757168221473873 0.4716693238238996 -0.4788486483295782 -0.6726537991390112 0.2105875920467916 0.7947203762554905 -0.2289394658773238 0.3764141175384800 0.2731805613722058 0.3106989240019804 
0.2727056824511815 0.2929554661815932 0.5079335221219934 -0.02608377674336022 -1.208935194972703 0.04691546582704419 0.09088274014321202 1.711447494802383 0.2228393421050377 0.09930101055868022 -1.108195154348062 0.2953240852246727 -1.193982028140123 0.02181915710817374 -0.04290317233757681 -0.5660591259274101 0.5840344859452653 
1.167906883681491 -2.928380891634035 -0.1989896541045308 -0.3542907197780710 -0.9567495604238951 -0.2424477959934393 0.6325896067137089 1.276992641587897 0.4555604052619426 -0.3044221981215815 -0.1484722086731996 0.4505175585942207 1.281444379206975 0.08943320232615679 -0.2215204042118830 0.1241709118203786 -0.1233421562521464 
-0.8637685395327238 -0.8266671557418723 0.3899588230620024 -0.1568968932737338 0.5697372641630706 -0.2567329783228295 -0.09186215207322458 0.6897107724352880 0.2415536013640250 0.3242783991548128 0.1014772434613317 -0.1336894704300302 0.5399872681594502 0.7283925389616621 -0.6958907270574213 -0.1702779629286755 -0.3893100314011545 
0.8322584486364513 0.4080142803390806 0.3280910454254458 0.1206904603037743 -1.330638069657994 -0.5735697456483050 -0.2811208487898607 -0.8095263194988607 -0.06208718916625345 0.3205679028689271 0.1323720220924700 -0.1604655481113630 0.03230685476163166 0.06150850761504979 0.3165863300749198 1.025012255584739 -0.3600003868298337 
0.4557425063591387 -0.5678179639127312 -0.3263118051495967 0.06442618867153124 0.5143839277345250 -0.4386981487851084 -0.4254903996639796 -0.9056987691114022 0.4043936908403719 0.2684319720409066 -0.8497756624480665 0.2694644132559123 1.847707349782993 -0.2871453121489932 -0.7493819862220285 0.7218242532679469 0.003945745488583421 
0.7510359642050517 2.080568177474111 0.2032335159289550 -0.2895564636435513 -0.9624249345082647 0.7084098438267386 -0.1861979124687807 -0.8228101615631028 -0.4104010643842889 0.1602536684311852 0.2876759667811253 0.05769661590102470 -0.2980426510558536 0.09319832309226676 0.06758725605464810 -1.339278716376892 -0.1009474276944113 
0.5412310335124506 -1.438260511442372 0.2130072193413387 -0.7620875199660277 -0.002861550800293854 -0.9783826574590083 0.2604975630258519 -0.6700517839111366 0.4485143594095528 0.001259351618390509 0.7061448199006372 0.3583281429320880 0.1986157006784851 -0.02837022181169704 -0.04432732550564952 0.4914159728526290 0.7053274076247782 
0.6535646158070460 0.7424481520069762 0.07001867487539398 0.4332652361041597 -0.5379249818600551 -0.09687760641877415 -0.02944038822192130 -0.04285038600377460 -0.2861671172178652 0.3413371369105341 -1.358261003200443 -0.7417822988507952 -0.4785243986922297 0.1847742005970210 -0.03106322724314395 0.3106780768870356 0.8668053145208224 
1.776262818236692 0.5277310419741122 -0.005264716795307068 -1.206452326600554 1.454950766590911 -0.3851715698612809 -0.02858000270814942 6.279378743292836e-05 0.1464445959902579 -0.005999138611876540 -0.2340282505238624 -0.2735884534034707 -0.1609623541628052 0.2540624190476711 -0.9938904058405695 -0.5975097633791293 -0.2680674537400801 
0.3866011023287379 1.352223710420309 0.4795188878718069 -1.474398853833970 1.191036924169290 -0.5941610106551238 -0.4023834652854329 -2.420701845515005 0.2117851750406226 0.03011247940771985 -0.9419924099507827 0.2344479637496379 0.08126778657153068 -0.4401149906541517 0.4435210271588715 0.8884448421844239 0.9747926769915574 
-0.8190951957873307 -0.04229365098169893 0.3208967205255634 1.346786922520396 -1.344785095098097 0.2332469944771782 -0.09300967657224894 0.1194444529179616 -0.1905069524959380 -0.1169317032465561 -0.07551691408246056 0.05612690680577880 0.9143004715206974 -0.4274787490971729 0.1241425343303464 -0.3278582124116691 0.3225311466752718 
-1.659375574197156 0.3160322868986286 -0.8710321573013045 -0.2336887918998660 0.6727790631884891 -1.392851211465531 -0.2064372953570203 1.006137729792327 -0.6034275450038658 0.2574753783170609 1.060515460320316 -0.2108419641342265 0.4369532343015610 0.3345781678712707 0.3161686841309809 0.3170761577486602 0.4599383767896914 
0.1712833363691373 0.4712058223314649 0.2783795696079970 1.242353410877018 1.029085662262685 -0.1011784810279833 -0.04224437937798443 -1.272606089057466 0.1341007053800974 0.2186460459885972 -0.4973390386549975 -1.587116583436260 0.7099585362440596 0.2533745185422154 -0.05465715856585096 -0.5134268926623673 -0.4398189848203679 
-0.2594645071309999 1.349603234357049 -1.177298414193288 -0.3087565397966718 1.740621390907502 0.4686641050053074 -0.3518387053035356 0.8904548802657692 0.008436757456142440 -0.2419074731480398 -1.523211361251491 -0.06467980480015419 -0.1644727766500451 -0.1604541654143153 -0.6143891132339111 0.3763284658748963 0.03236402705577209 
0.07922369496549010 -1.640228370503842 -0.8660705719907421 0.6630971537135660 -3.049291410691492 0.9606913847127617 0.05244691057519070 1.435666107469470 0.5630527556708814 0.1231317261662568 0.4793971431086553 0.1757986802396174 -0.7409690897783159 0.1827724277537905 0.3981859592943836 0.7338726182542906 0.4492228810400236 
-0.1908013580025027 -0.2944541115848082 -0.8319625867686529 0.1034482263256192 -0.2340895319522136 -0.6781704644534468 -0.6533721434668301 2.144931322917908 -0.1995620975863729 0.5059204086724606 0.4740357240845324 0.08499035242680832 -0.7782837864574517 -0.1506427899761848 0.5442146167344767 0.7767665074516309 -0.6229682883649714 
-1.021231786073295 -1.053945647053026 1.675752725317294 -0.2390902167527482 -1.908972826051202 0.2675630614649185 -0.01005498530412628 -0.8256421561133732 0.9228457506111322 0.1924086904724509 -0.3846200363962775 -0.1391036805166848 1.381874578987801 0.2173059996895749 0.1216848027168642 0.4703956238432031 0.3328301011574981 
0.1683022721484606 1.309716592875576 -0.2083028603281937 0.4170067586030508 -0.02904457393931532 -1.085732325027463 -0.04364346024191704 1.800247231385367 0.3433112566880155 -0.03866706934211917 -0.7948635915666947 0.3347540783399474 -1.171396881251424 0.1184890153230031 -0.1705141478768241 -0.5145058091626358 -0.4351564866268054 
0.6957585356758378 0.5202850064936244 1.280067649407726 -0.1092071236115622 1.143388693506695 -0.1251622444452159 -0.5714979334975486 -0.4290800485893878 0.4301130610562440 -0.07565799233226198 -0.6567464528620833 0.9581187368571299 -1.924391600378879 -0.1775591625981025 0.4388013091278742 -0.7832824465028645 -0.6139479873072254 
0.2333429346311511 0.4851857909861037 0.6126885426856915 0.3816174420900918 0.08396112596404129 0.003374230975936609 -0.2572105981314182 0.3974294193119796 -0.7182283187235035 -0.3156276722270632 -0.8646111487283430 -0.1444787407419290 -2.117266058549272 -0.3983719078721919 0.6776037298004280 1.042260740837020 0.8983304876913051 
-0.5599891790273921 -2.956884637765043 0.4216678677478949 -0.7518153416422388 1.864076630825462 -0.5251033133838533 0.5146855105939027 0.1903435695826492 -0.7651108259857860 -0.2552874591613459 2.434111709728786 -0.06145153647803822 0.2487501292015235 0.1157771182989399 -0.5355621252560680 0.8155709709346475 -0.1937790882140233 
-0.7141318671582884 -0.5663007840262098 0.5435623763759548 -1.280749575009831 0.1929280936757986 -0.5925912663365737 0.3894780290414450 1.105662100755798 0.4346433357505866 0.004511773309824173 -0.3372446508094992 0.3425417611699197 1.022635562119086 0.1700862150919369 0.3089815665402717 -0.9459503539373241 -0.07806231655290362 
0.01240578495618959 -0.8586438419446332 0.7222537370163543 -0.4918955719684861 -1.038779110943990 1.093592625839829 -0.3264987865305923 1.182381117595314 0.3554103828746683 0.3038648289452766 0.3429660140518891 0.2744447305366360 -0.7971047021148298 0.1613048654647036 -0.4092596955700842 0.2027735364137825 -0.7292159146220194 
0.8903177380202922 -3.091473231387704 0.1092729013509272 0.2402036437409543 2.020190354034084 -0.4709317401490474 0.4267878139267385 -0.7491262417928775 -0.1643307037797748 -0.01675752502347054 -0.6215457527470886 1.943244986064201 -0.4053899100400466 -0.4027031353713868 -0.2335581824908072 -0.3375018116421365 0.8633007972871176 
0.0001451765240224111 0.4819333547802992 -0.6752343456692635 0.4603810856709231 0.8128512199666036 -0.3223362697993364 -0.2874481587419090 -0.1927719635356218 -0.09375209974822067 -0.04494294607570104 -1.684285296185793 -0.6222924271660906 0.5196396030944689 -0.1597881316915969 0.01713109266421835 0.4717287734413283 1.319041332471687 
0.7053001810149875 0.8200177009084393 -0.007795940915114239 -1.446249888597955 1.048273279193433 0.7482981649432209 -0.2282917800843619 -2.638787114539352 0.1600916140833042 0.01565659364154241 0.03207168109110876 -0.4481020657331795 0.8617972547070135 -0.1671559742173788 0.3680984417272432 0.8081863502633935 -0.6314084974863411 
-0.8203036648799625 0.6041775799096860 0.6233552951243514 0.2983240860052747 0.1480549826322500 -0.1741784314867961 0.3394146205329609 -0.5391585269551662 -0.7979273410273638 -0.2735504945439490 -0.4856321824821048 0.1524672622050940 0.4630124531425638 -0.006254923016711864 0.5337364500101257 0.01768903534524328 -0.08322620051548575 
1.200441987379834 -0.1645633237741945 0.8747031890687539 0.003958269123849573 0.7258871483466685 -0.7724944514365573 0.1126070037640762 -1.784043769993921 -0.4449563328478834 -0.02826878377142090 0.3207548746684931 1.014920563672694 -0.4145883235861878 -0.4905615927742146 0.4341389469375264 -1.028001153445002 0.4400657486674852 
1.669455732314953 0.8499360127947613 -0.2931050893410682 -0.1916383814213266 0.3838249261973684 1.348315791061588 -0.07619604303804407 -0.3522759987173261 -0.5686383391545097 0.3841855411781109 -2.830963295040992 -0.3227021508949541 -1.348570922077449 -0.2348755486342916 -0.1506439187176578 1.122734317322864 0.6111573661679899 
0.8598669835325798 1.176675971310461 -2.384295254533618 -0.4888361489127138 -0.2205757161478832 -0.02849814699082432 -0.2009693303966899 1.258873456442380 0.4535703827667922 0.008339297955933725 -0.01380298531279337 -0.4503780968607232 1.088461436939912 0.1599586726139528 0.5479321320409160 -1.107912328929404 -0.6584103255182391 
-0.5604836079161044 0.8592688607568220 0.3402080292173559 -1.164239824419476 1.196032064161182 -0.2300469462339302 0.03288648470423430 0.1513185176150611 0.4131679048085394 -0.2806896950464006 0.01123395367539196 -0.4696725457393668 0.1552639334010472 -0.1453339452277729 -0.5038718347092627 1.052618577085703 -0.8576599261330404 
-0.09889649728170250 0.3804788479515724 -1.649009344071335 0.9880463624323685 -0.7330279018959036 0.3933965616883713 0.1209376623071006 0.02701072993517856 1.588720077436403 -0.08155438079294810 -0.4763686420477116 0.1906487852816151 0.3242296800961830 -0.4775134876106938 -0.2107129107236319 0.3339802441421482 -0.6203657868470358 
1.103640888627582 -0.8760192250499594 -0.5296645166133032 -0.8955335058226941 0.5707742514845249 -0.1944063715117503 -0.1596609769824736 0.3779067294017873 -0.2542463365856698 0.1514600049787963 -0.7423507928014197 0.5886033118919151 0.6295715629631394 0.09777891423187797 -0.08429996702601204 0.07083979296958916 0.1456062358440769 
-0.08047588188926984 -0.6616693237262322 -0.8211057719960777 -0.03798294699920570 -0.2344298118477369 0.9569964622199034 -0.09090664260284492 -0.2672344222547063 -0.1011597966833448 0.3245236739787215 0.9812692434515033 0.1609089369269705 0.1482372987116885 0.5407303092988740 -0.05191572188357629 -0.4968280874590967 -0.2689575172455625 
0.02427609013533681 -0.1189213286649754 -0.3717387305571381 -0.8355875842886196 2.243466482580613 -0.6470389280753411 -0.6358481542803375 -1.147163388442027 0.2706878976498163 0.3480540852793629 -0.5382053035276225 0.3607668862605610 -0.3046196185910380 -0.03129732451580893 0.9979789964289204 -0.2282078778276682 0.6133978004359403 
0.2352975042672739 1.655809016680403 -0.9195540318795115 0.1858833799926791 -0.7679519959732242 0.3207460407072740 0.5208156320117598 0.4855428725763602 0.7896131196333855 -0.2063026804522793 -0.5086614584593674 -0.6581359674785376 -0.8905039507953268 -0.0006083569864452024 -0.9700938668553591 -0.3558799224186151 1.083984665429500 
1.793665776478558 -0.8281259886317870 0.04141640468346310 -0.07408761927801631 2.337977544251368 -0.5668667581051015 -0.6249560189454115 -2.490592984467257 -0.7714114777698277 -0.04161232630930258 0.9932560998065368 -0.01909438329573746 -0.1722318123117648 0.01484357097531843 0.2989229358948663 0.1984381061924014 -0.08954106916828428 
-0.7714424509171272 1.593437739563884 0.4127236244669383 -0.9051579701039683 -0.6281539929876827 -0.5457928834458946 -0.02209831573139593 0.3810827031228761 -0.6357108697124562 -0.4604964875675120 -0.06106958240371407 0.08258916224813324 0.8337470343630626 -0.01443269252622610 0.6387867599732130 0.3684937932310919 -0.2665055715732093 
-0.3134198911059306 1.572271155023725 -0.3647622089300264 0.06468291469824519 0.04126048708575704 -1.256794795941444 -0.2437789837430448 -0.2111250704406618 0.2388867473381532 -0.1286140451469383 -0.3445852888129173 -0.8283776744496582 1.251296883909284 0.2350313413311090 0.2408237073075126 0.1386477327821069 -0.09144301090524674 
-1.211288178105152 -0.7071842095006600 -0.4426493127229322 -0.6781059029536438 0.6714859635792412 0.05980562531428939 -0.07857981286461133 0.3526295502803870 0.5655435208491980 0.3707271431160630 0.4903116593355614 0.3912824955416208 0.3725044871790536 0.1174003547775293 -0.7135089993656502 -0.04029184548895306 0.4799174610286617 
-0.1861949336555591 1.559967974786664 0.5678630503483512 -0.1846697216074313 0.4986490166408387 -0.3500421097537902 0.2010690826784206 -1.565872674400228 -0.2493905643555279 -0.6064265464314443 -0.8093205866120664 0.3987149130968794 -0.4372249504580550 0.09260252389771625 0.2767804179644638 0.7450396111447662 0.04845549671599838 
-0.8241633865589394 -0.8745182993862700 -0.6969371525316803 -0.02783743992878308 1.252634536811311 0.5420127869854540 0.2481539724477886 1.317204276544892 1.449281542930284 -0.3095703902780378 -0.3382189508865657 -0.3310703643790384 -1.495429323272654 -0.003450668702926943 0.4571387787971964 -0.6484631351234607 0.2832332165314274 
-0.4582313294446773 0.2746765005045024 -1.582663321601997 1.308689305297922 -0.4080640296861507 0.7892545510065940 0.09558763738422021 -0.8072766781438779 -0.2894519774773404 -0.6029413329987179 1.030282348200858 0.6528630981798734 0.04306636486028703 0.2338647907712147 -0.7185041000123621 -0.1956976179607912 0.6345457911204356 
-0.9386069465175430 1.769435717626855 2.221814757933165 -1.271624383030712 -1.284197003184920 0.4422188686946585 -0.01584320914570780 -1.425340035675096 0.3941884747312678 -0.01597629059844309 -1.836208750347384 -0.1624563083401812 0.7872295428596797 0.3453912425668073 -0.4985574732871309 0.2645555235522745 1.223976272162410 
-0.4440271699923007 -2.334703275215500 -0.2254218417532021 0.7797624658739747 1.006321251551147 0.5851497000135979 0.4430059175368968 1.618003594123786 0.3756851628085058 -0.06456374394963463 -1.697109470156091 -0.1924852995853655 -1.596725085310544 0.1222191563923841 0.7963866351539874 -0.2144296245856233 1.042931627093951 
-1.196258811043296 -0.2423614968773323 -0.6674194837428199 0.9704753876905490 -0.5604323547935590 -1.036873724290990 -0.3050352974740552 0.7186474158061718 0.2421531333785140 -0.08183597429128103 0.4530579013078341 0.1298648219589927 0.07146588582956703 -0.2357773270310259 -0.06141390754196940 1.338636835309789 0.4631069958049259 
-1.386084067314489 -1.581716380365686 -0.06888998954560747 0.3599133778593023 0.4801981814449759 -0.4176157064916368 0.2890358207110984 2.335223910510473 -0.7782573474903599 -0.4761836996700056 0.2798835339462318 -0.4441132204476081 0.8319313794910560 -0.01032749088307893 -0.1788494651251379 -0.3393142750973335 1.105165438467806 
-0.6472067094707084 -2.253047560164954 0.1237860452558113 -0.07746595245323976 -0.6627736427349840 -0.1703015683244200 0.5657549832910932 1.027992053589394 0.05704439471914336 -0.1455549030065771 0.8954454365628549 1.063451600619424 0.1911296926336550 -0.09904652398246647 0.3863577956855004 -0.1824726570179060 -0.07309248520158743 
-1.394806654887093 -1.241002541715836 -0.8106239536767132 0.8799687696044379 2.129968587231985 0.07205270045964952 -0.2986371299400972 0.9207191199251522 0.5346576882484029 0.1653056087349920 0.4440900524718063 -0.3357400000407931 -0.5266173969540487 -0.4005889273940377 0.1689911161889289 -0.7231293289755415 0.4153922907188026 
-0.1783993251989436 -2.567668393662527 1.079490126342831 0.003741315983710091 0.5579007107325097 -0.2985916567750485 0.1087037081325603 -1.059925111748848 0.2006893431398323 0.4152209737352638 0.9032681925613041 1.385327003345959 -0.9067558420809118 -0.2164277158657731 0.4017100032192173 0.3810180269729595 -0.2093013588341063 
0.1630269678361609 -2.181059749855823 0.2518809594874452 0.3521819057193011 -0.4063810708297570 -0.2199085578250496 0.6152988079379659 -0.1387505896236293 -0.03879815585445971 -0.3019240564611156 0.3997817304932613 0.8842538507467684 0.1903546835931443 0.06158106483993570 -0.1757248166353431 -0.2755161717112079 0.8197031981423728 
