solver_type MCSVM_CS
nr_class 17
label 8 1 0 6 5 13 12 15 16 9 10 3 11 4 7 2 14
nr_feature 199
bias 0.000000000000000
w
-0.6733493500320290 0.6678753625262371 0.06023450584073161 0.04198993211994852 -0.03143277930185176 0.1070465084246688 -0.02893402614640427 0.1672074993443819 0.1549935488082089 0.3148865169966826 -0.5339662427796177 -0.2981324727908613 0.2045176598791474 -0.04284929527389694 -0.01992337739917617 0.4279184882106536 -0.5180824784268212 
-0.1918648471234258 0.6061422472416480 0.3734018451752625 -0.5458467994958087 0.8847109479322292 -0.3586965216102950 0.07319670902661933 0.2597480706621164 -0.5184408763908477 -0.1428990991862575 -0.2868124129691649 -0.3759075520484045 -0.5524307031768996 0.1684839192421490 -0.2462036349003674 0.1827941182067812 0.6706245894146671 
-1.076520190309654 0.9356457289809941 0.4823128770272473 -0.09774011591816245 0.8741424656281133 -0.1606612414882299 -0.04764937528790429 -0.8234372844307872 -0.3322878036805095 0.09891698077797277 0.5107929748891578 -0.2629148287446603 -0.4035780246249473 0.1261651464184945 0.1250018757175677 -0.2591187830991153 0.3109295981444391 
0.1700364600119878 -0.9661745133801651 0.2623476594625609 0.1722752885665295 -0.1604091984495153 0.2648513245541733 -0.4095707340697309 1.766263156979381 -0.3945698883026618 0.3202229946462355 0.2796774162348500 -0.4915440685195467 -0.3137884060682230 -0.08472778475496771 -0.002369762208691527 -0.3573694899690004 -0.05515045473321784 
0.4693168480208568 1.318069529432378 -0.1636827840281840 0.1884442358667652 -1.247619399968553 0.1269416291749264 -0.3588760584150558 0.2748628125537965 0.2221745768768214 -0.1014867431599720 -0.05460337627595101 -0.2648873493844151 0.2353252123535474 -0.05914576402982950 -0.1384056576103052 -0.1028775782705248 -0.3435501331362931 
0.5192827571568284 1.281432997706725 -0.3798569706081601 0.08648244763025488 -0.7353360868943141 -0.5545769424336259 -0.5904471781747451 -0.1774279467957162 1.091220423870861 -0.08941797793155504 0.4655447312244094 -0.3839114789106997 0.3658506866905953 -0.1558716361253800 -0.01446151968048563 -0.6664732624884036 -0.06203304423658530 
0.4277796093489220 0.4329370003988683 0.3022405375782172 -1.086458862052877 -1.451885610925805 0.1554403260736264 0.3158526965244490 0.4801775862908619 -0.2886968062551323 -0.3241810336066987 0.1203610455993652 -0.04517558221562855 0.5873280576254335 -0.1126316009511613 0.05363329300747220 0.2511638991484994 0.1821154444115899 
0.2251528044336998 0.5338518953657038 -0.2293648410580011 -0.6362679637459002 1.164348566751287 0.01359242065879159 -0.2313092797996725 -0.5599308069854468 -0.2198846863287476 0.1024468719782045 -0.4915150132258560 -0.01887627645761820 0.2972264604368994 0.03433748025710435 0.003217946206283101 0.1305071427708533 -0.1175327212575883 
0.3781413141382697 -2.012051612774915 0.1997894049852478 -0.4243234541280152 1.171253106779340 -0.4999865399055979 0.1518186239442590 1.244556829804606 -0.3354124382688209 0.03146683724258766 -0.8138308360744501 -0.1816705403320556 0.3930417767147634 0.1151966159300936 0.1487260786460699 0.2679494931287563 0.1653353401698580 
0.1619071406294119 0.7977428584172692 0.2268983019271628 -0.2694907873747855 -1.337259418176944 0.1106677645000110 0.08878753826657096 0.4464063967016827 -0.4425227061395414 0.02403445398654322 0.5192670813502390 0.07112014883970591 -0.3863622452890039 -0.05519482457952012 -0.2995335627063822 0.04538317827476895 0.2981486813728084 
0.3839731013540478 0.1705258638684211 -0.2447491420882336 0.6805001767249138 -0.1910315021937857 0.1129880983551438 -0.1555408102044952 0.008306963911564378 0.03702208617871257 0.09618951972112964 0.6775916870045189 -0.4797218423080636 -0.2592228793425346 -0.06762038813974350 0.1935204088907735 -0.3817487889894599 -0.5809825527429098 
-0.2305072040014889 0.8731743104485163 0.1139237008601678 0.6728327973755555 -1.163232376384807 0.01449117798189217 0.2563881473963819 -0.8254638310726338 0.1645414404101493 -0.1055379324000242 -0.3371576651076956 -0.1026744887033337 0.7320634010692353 0.1645799056272053 -0.07844273327265097 -0.2555697308773092 0.1065910806508363 
-0.5354756128005677 1.076353126672448 -0.9625854821917674 -0.5201184896220254 1.228984727284526 0.1295923425776436 -0.1866453581094401 -1.665395259897994 -0.2770979975221066 0.1265826770600911 0.5050691168950582 0.5757332717015790 -0.3046703418780697 0.1765533121199678 -0.008010643618508286 0.4149450229443422 0.2261855883848131 
0.7568411490510620 0.5069850322272609 0.6020562883398857 0.4515453375204113 0.1625406537704865 -0.1842301521336993 -0.1876793214535400 -1.604227713738201 -0.2010489916092715 0.3436168468502539 0.01859528622594345 0.2399715875525286 0.03972136493716473 -0.07316685887552721 -0.1339290691069035 -0.5261445077510308 -0.2114469318068265 
-0.5226586748775988 0.4078629145822286 -0.4585228912351172 0.5953737604693720 0.3190333220381891 0.1966430506301458 0.008209471246330050 -0.3117507879794958 0.1709676123768098 -0.01668011255770456 -0.5795783329651436 -0.6438007171875613 -0.3077031807247672 -0.008131506814668656 -0.04125417347746314 0.4432232797035061 0.7487669667729444 
-0.9728085790459234 0.1681460439052330 -0.2232605086043361 0.4918185241610399 0.006567463380062888 -0.03763925643752541 0.03436309080627203 0.6849816089246813 -0.09757094615711320 -0.03916030117265943 -0.3539610990169524 -0.3543964129410025 -0.2104597948423087 -0.04490712556619980 -0.1552361333052876 0.4540742075086965 0.6494492184033195 
-0.4538710006358370 -0.1595286854928592 -0.2258798029666024 1.287034000891448 0.4914077008165367 -0.2868758893946757 0.09706789683251697 -0.7149374603826871 -0.1650682182707567 0.1587298264796711 -0.2018189616086098 0.2713716129160555 0.2140168812449038 0.02834890526423606 0.05443378667029002 -0.6819939052738494 0.2875633129102224 
0.2396378934782464 0.5999229651746181 1.323511727357895 -0.1522977037381308 0.3419150086265453 -0.1156739207521757 0.1747676838123772 -0.8713868707999839 -0.05799657390076125 -0.05213388444941542 0.05949145245063285 -0.7669768078555604 0.08562342255973678 -0.1057792458850288 0.05381246092571043 -0.3939116540209861 -0.3625259529837216 
0.8648143148781406 0.1940290107274626 0.3022292768541741 -0.1223570081598631 -0.3715693963984356 -0.2821075935371168 -0.4896122462619766 -0.09119700016445752 -0.4800327314467481 0.07302141733826928 -0.1444293336805514 -0.3081848527256708 -0.1547305944865563 0.2585633673163036 0.03521657354851736 0.2917218638360291 0.4246249323624792 
-0.1605448393703805 0.4725802701082048 -0.04279015193263904 -0.1582657167498504 -1.057968808289878 0.2218463119818376 -0.1788681082978351 0.3606362890015832 -0.3506364232604210 0.2431268753109868 -0.8014437535746214 -0.002463476874074153 0.7217875197047547 0.04250164245731909 0.3787694953192640 -0.3250811298625842 0.6368140043283387 
0.2647521108180164 1.488883327597226 0.2461981199543630 0.1702112654588032 -0.7209297699441066 -0.3284298764303180 -0.1675225935157690 -0.7836509855320676 -0.003586760557109910 0.1017811092479956 0.3450419331286074 -0.02923203271118914 -0.5598183857574387 0.1594285716740112 0.3063004492900887 -0.3892360329506540 -0.1001904497704677 
-0.2116073115715261 0.2355647209003474 0.2370393010399438 0.05935898788848589 0.4255189840547674 -0.1688115425647641 -0.005130275983014986 -0.5094221425023006 0.009229017696799948 -0.2115360752937316 1.053729460473361 -0.3107464377199313 -0.5369829161626637 -0.1955541103463205 0.1413712577483125 -0.2558022214228480 0.2437813037650780 
0.1667789479551269 0.6104100629838247 -0.2520380838898423 -0.1688473981886191 -0.06020100737150228 0.001679164086488928 0.1492301222954114 0.3650670620411533 -0.1541345461018383 0.03189947638243876 -0.4166151541538525 0.004002235193476995 0.1207725588485523 0.04793730864686951 -0.04329333142132378 -0.7847669119194371 0.3821194946130720 
0.1915607124360891 -0.1062128678541067 0.6635713748278960 0.3037205477846564 -0.1050693578546134 0.1450742957792595 -0.2632213254957400 -0.4953213018683179 0.5752220840858835 0.1210367695373016 -0.3301620622552126 0.5590421793940322 -0.3766794810765370 0.07943642284101424 -0.3364745741350548 -0.3177842059616102 -0.3077392101849358 
-0.8238993435403631 0.5458995575674808 0.08276583771344675 0.1831393996405711 -0.4177618660414562 -0.3725138677914449 0.01232156334473374 -0.01137581419815251 0.5677655924265879 0.1135801484073035 0.1812411924077640 -0.3536915094270604 -0.2642276797492933 0.08387412028242917 0.09026389895196492 0.1756005725944054 0.2070181974110857 
-0.9513989607105361 0.2854491809863993 -0.03047906221060429 -0.3675359068480822 1.136055706880242 -0.3609685679083244 0.4750778528547103 -0.4459427566533093 0.2105861000090296 -0.1433520696393705 -0.07623207403346880 -0.8107149636080803 0.5242765939781727 -0.2702623305963915 0.1668046324556296 0.1213938829357388 0.5372427421082472 
-0.03533129049028910 0.4472700789635095 -0.5506865557951630 -0.6042619350113103 -0.5167951876776793 0.03858025186846458 -0.2536481518932660 -0.5523989314179694 0.9075964320288472 0.1430763195076987 0.3915589116192065 -0.2318288334833108 0.1012255305921769 0.2062711847763250 0.05745055337235195 0.1712403104927557 0.2806813125476553 
0.2773262426691316 -0.4614694659802519 0.8351178095062002 -0.4027615763544498 -0.3090118631051281 0.03960839565710994 -0.08019519426373627 -0.4079774563318045 0.2732540625284531 -0.03277806764529127 0.3929325723767635 0.09235047107354900 -0.004551373760313080 -0.07946353833669265 -0.08783444834882023 -0.02223799141840116 -0.02230857826631810 
-0.3963728667226256 -0.3308056256608735 0.4871578427954585 0.1126823790714477 0.4769993829411576 -0.02718657811184212 0.05949316787436781 -1.286491247787453 0.2061962967045764 0.09980030435636696 0.8546988620536783 0.2829849055868782 -0.6021172469452419 0.04291297551736407 0.2583010083587556 -0.5711881327559423 0.3329345727239325 
0.3464423744325522 1.538396217773068 -0.7588947816002274 -0.1168906392179226 0.5523322960903326 0.1168195848306691 -0.2247839010137124 -0.4586714385109278 0.4779259194415219 0.1184187321153944 -0.4464716390461396 -0.8368613023011893 -0.4599943568607968 0.08523849147366053 -0.1767227780096984 -0.1719620584627488 0.4156792788661627 
0.2348217323948205 1.127798230578438 0.006999235904177033 -0.1181116003845532 0.7400206312807909 -0.3696046152066363 0.1869146436455814 -1.467029164057911 -0.01590853255967449 -0.009324559234029337 -0.2961772112318375 -0.4117144055896810 0.07125377288297090 0.2983920871129372 -0.2856325790104389 0.5346314373510396 -0.2273291038759984 
0.2957082932620589 -0.8050367063489723 0.002777493501384976 -0.2893352017820439 0.5461323729878887 0.3152688678779493 0.3193978286830853 0.5944946875120914 -0.4693292892452342 0.1289501032871443 -0.1653768152689770 -0.1234776136025456 0.07107682189811737 0.02250140009292590 0.2636590042897174 -0.1106306578510574 -0.5967805892935291 
0.1165191769943000 -0.3272203265852580 -1.261398399459295 0.03550467377115854 -0.3752489631379134 0.1707329247735429 0.08246941835863011 0.6380400373168591 0.1157807165456032 0.1263674056877682 -0.7181264854302969 0.1199724944825894 -0.3105178774460032 -0.01423203753291968 -0.06718105294708095 0.4558272203805748 1.212711074227740 
-0.3087409074262471 0.05444535780735529 0.4424008810661961 -0.4409743138829376 0.1961909804282638 0.5431445932101203 0.2462613354486382 -0.1352214558199401 -0.2877639394240867 -0.1522556891163398 0.2237330246736501 -0.1289266723955947 0.001000266399789674 -0.1583201337023105 -0.05766062267857541 -0.1470916956145823 0.1097789910266006 
0.7094715810438126 -0.5154982453063095 0.7509280009529036 -0.4251639568773327 0.7126693232255843 -0.1256929715892317 -0.1104697465819930 -1.094826626224127 -0.7937470063482244 0.1317081341774181 0.8751505874057289 -0.07302867986199849 0.2172269397288152 0.2170274447001931 -0.06724846975242509 -0.3031851189909594 -0.1053211897018464 
-0.7210761979155753 0.5325251414551277 -0.006056055455117997 -0.3456311153013676 -0.9552531766413390 -0.3099020695561980 0.04083094504719437 0.7050752014099382 0.6161901220197987 0.02271879330924724 -1.088731535842129 0.6659175550760164 0.3246438908022722 0.1318609870355601 0.2472918917356232 0.1812562576653969 -0.04166063484445378 
-0.5740053452477777 -0.3821039508466566 -0.9869708047805283 -0.08293304508454255 0.7651974982473789 -0.1869501024366155 0.1711652141150558 1.002633210374297 0.3791235443789935 0.1631962710147259 0.1735052996223797 -0.04697470479735790 -0.3518625154785699 -0.2553652994310798 -0.05834744513582323 0.2386367295190953 0.03205544596702609 
0.2215050622104706 0.2564197405520718 0.1658214531561762 0.4549930020452908 -0.6581840796027572 -0.2039831817565303 -0.5553257737225867 0.1220864635681534 0.2585453456995785 0.1714232925442579 -0.3778765873511675 0.2933626223144037 -0.2125429756274676 -0.2625576586477398 0.02590094699314322 -0.1890158253081613 0.4894281529328590 
-0.1140654847010935 0.07772211636687296 -0.2493501386858188 0.1218730226070041 0.1832891918691701 -0.4262846402601690 -0.2392964305672185 1.245357144625326 0.6723761146934965 -0.2998522082044307 -1.029574950389971 -0.8833210642583953 0.2510984422027582 -0.1905998662719188 0.07275893825053925 0.2006846692481700 0.6071851434756799 
-0.7278566049151738 -0.7256648211969956 0.3605811600711948 0.09734020572945133 0.4753466713640206 -0.1345442715787186 -0.08476980554018047 0.1676251822093161 -0.2097439723747548 0.07674063695747470 1.240843000106710 0.03393044528018634 -0.4144766235527617 0.06864354537891963 0.06898719958842711 -0.009754285334716555 -0.2832276621923952 
-0.1731017229191293 -1.218194665464413 0.1669282030711608 0.06088588195823758 1.216588227904198 -0.2239427280434559 0.03726434723074588 0.7758174591451537 -0.5351874971035673 0.09419784567370090 -0.08641379782897836 0.4897194480856265 0.09485846144459452 0.2969150934550623 -0.1072079792976643 -0.09737479121768350 -0.7917517860935768 
-0.4089715191818320 0.5347219362599406 -0.01057485857120418 0.9164753233492468 -0.1782285066004736 0.07488178446334318 -0.4432877643847303 0.5388387758542640 -0.1306977463583914 -0.08671410258395410 -0.7682760253714620 -0.3460150297040097 0.1698731632133828 0.07161261324764914 -0.3237819915708199 -0.1192005562421190 0.5093445041811735 
0.5405993312612320 -0.6171392251897900 0.9646830207785833 0.4224179680995182 -0.3906412905332028 0.3098162006811054 -0.5877022773556696 -0.8472299771071328 -0.6986762132444085 0.0009809683675319454 0.3253099897813748 0.2030694105492620 -0.1275253223653407 0.01491068459866281 0.2112032822330536 -0.3749820301130010 0.6509054795582209 
-0.3112360633929178 1.383448564168319 -0.6237068474167669 -0.2505785090926021 0.2068348038078692 -0.4894733718511026 -0.5115744567529227 -1.833226889179038 -0.03545428682548597 -0.1151785037353241 1.026707082948233 -0.2181548212134876 0.3621457896959596 -0.3338706272883612 0.05955683708230446 0.4196404052629501 1.264120893782377 
-0.5309337008276980 -0.8862117886707701 -0.5404893864391119 0.3703256195253287 -0.3623496817117367 0.6445788609720480 0.3229891123558905 0.1214599030396570 -0.2892882012651654 -0.1466019512700560 -0.9409166553978158 0.2143438602351359 0.3449918529220549 0.2377771016475584 0.1761948107464771 0.4637910248520200 0.8003392192861850 
0.9132711460279750 0.5924191653125913 -0.7387332824947259 0.2487987163485705 -0.4974228152708122 -0.3105720746889488 0.1037344964617245 -0.9926631254686415 -0.1514820331208739 0.1089534084934262 0.3484559071131887 0.2864452607845658 -0.1978363332917988 0.02222964683652855 -0.3317609143895506 0.3941048530903163 0.2020579782564649 
-0.1977037579446623 0.8682975747151419 0.5499215676840377 -0.5568543115555618 -0.4050886859421974 -0.1510254288342665 -0.1971764850894797 -1.457284900709986 0.3927495143663581 -0.1422850696304027 0.1815324049123005 -0.2054921895127959 1.054821052578671 -0.1619047417429465 0.08475367736516633 0.2775386672938628 0.06520111204676386 
-0.7182951419312540 -0.9103519236764882 -0.7489000897918585 0.07531476635619327 0.5331538562422903 -0.1499816733472384 0.2150500408286312 0.09029544586611078 0.3699779271658675 -0.01428839752292569 0.3000315836417974 -0.07964248188977584 0.01399479300877298 -0.01754430329270148 0.2046491922193146 0.8279141513912360 0.008622254732032165 
0.1854853729572247 0.2217324371223862 -0.04660713532722493 0.4584574197278056 -0.2147171751536185 -0.1403794593240707 0.1521520403934977 0.3646207895318007 -0.5266950331973180 0.1562721129412099 -0.1395671488867526 -0.6344478941201319 0.6135789792066709 -0.04988463055532594 0.1459401870538242 -0.09864395664859000 -0.4472969057213904 
-0.3134184449826281 -0.4022119432508916 0.8553381495565142 -0.5352450121580274 -0.2258742224294193 -0.1965820353131912 -0.5914577960528592 0.1164381521087532 0.1821162881739810 0.01148297766819628 0.8201086036779315 0.7080030534017361 0.4862136121447765 0.03391895254035616 -0.1337631036291930 -0.3111849668757360 -0.5038822645803000 
-0.2024051445753052 -1.131701162967147 0.5132537249064566 0.1572481418475711 0.9199649301660141 0.1794524707201369 -0.02339407205122006 -0.07115608745432975 -0.7240560184004786 0.05748187491982075 0.5007364054905841 0.1268907312468854 -0.3779955390633231 0.04384667116523239 0.04680393414770314 -0.4633412607700606 0.4483704006714498 
1.386966287182180 0.5761682364001448 -0.6391807779905452 0.08184889027330697 -0.5966225669737338 0.6942556652912396 -0.1415566657172344 -0.8304448537073594 -0.2463705475694517 -0.001632439925394632 0.1627274948764195 -0.6048860915771795 0.5103597594586257 -0.2766602839808871 -0.1889988322385695 0.4949577550497480 -0.3809310288513003 
-0.04142867763992587 -0.09893842382588497 -0.3929879152628909 -0.4544386959424743 -0.4676766475282542 -0.1430609800159940 -0.2230930232316503 0.9020225923401534 0.2106057504478905 -0.1017554905434184 0.2253517402256294 -0.08199801996679808 0.2310642333545551 0.3155389865642750 0.07523507025475380 0.1732507144544685 -0.1276912136844406 
0.5703739291471525 -0.6482637095569974 -0.1860232788615995 0.3587780934160382 -0.06313053505056043 0.2266165731572910 -0.3009281156411629 0.6362277964297558 0.2774010344553607 0.1273458533876346 -0.4137344399410759 -0.3153166961171222 0.02904129194032687 0.1102873963362678 -0.1448683287312751 0.2585109285479413 -0.5223177929179750 
0.1348397311014929 0.9427053518134927 0.09818369370439592 0.01183833918076607 1.054874668363002 0.1461274840800605 0.05801440405544908 -0.5387754637375929 0.2307252547695128 -0.1310426182627590 -0.9083173631399399 -0.2947975154018824 -0.7306720179509525 0.04174238969871068 0.1573112219761466 -0.03479667915609273 -0.2379608810938110 
0.7286641993675061 -0.3748972764500129 -0.4833354373451548 -0.1698724508225122 0.1169002657632353 0.5049630559664108 0.3701326524852302 0.3326254866882314 0.01110577267369929 -0.04491558362297603 -0.7712808846618677 -0.1424274223114496 -0.05010733760790179 0.03268333530526806 -0.03869128607086947 0.009988402833355997 -0.03153549219018891 
0.5380145991958850 0.3396385250109385 -0.4262016323716993 0.05327176798625990 -1.786470714231787 0.4454388685929617 0.1631008848541311 -0.04934124226690335 -0.1112052326566308 -0.2588020743080851 0.5454033954748476 0.5217463572669491 0.05542596689903304 -0.2169087278178876 -0.07027864308689538 -0.3349302757276853 0.5920981771865784 
0.2100326783226925 0.5169072479974917 -0.9005778990643974 -0.1991384469026372 0.6922532471167966 -0.1122317480288619 -0.1219943782526814 -0.2523523392994121 -0.2515867849461161 0.09916277329345934 0.9317537911257867 0.04824725867222750 -0.3915903332213295 -0.1594982602475854 -0.5652920468115202 -0.4638347833848293 0.9197400236309096 
-0.3221065675417461 0.3151107257165501 -0.2632358127108382 0.2778837786913774 -0.2088443744109372 0.3769767615292932 -0.1193667027991155 -0.6261256648532915 -0.1334973426882724 -0.06820728085330471 0.2768336012842204 0.1222047373589530 0.08046426929364144 -0.2930933366217177 0.02701378180013567 1.411011469410206 -0.8530220426051540 
-0.6757525896670344 0.9442849186393005 -0.5904907742826889 -0.1429543331235136 -0.4962730732088396 0.02312420083762196 -0.06431262300880827 0.1491171806658592 -0.5229628132324308 0.1117150254724290 0.9987546810436443 -0.1253000279792570 0.05103310167483938 0.05112252593311942 -0.2183453777438411 0.6236437486086944 -0.1164037706291017 
1.565373319889975 -0.2916980309071293 -0.2233442005301947 -0.7153801911232486 -0.3834143294417298 0.3856296639915594 0.03101011783732957 -0.6736191232290831 0.2719016444561750 -0.1288197028345672 0.7864642799566078 -0.3446661041747214 -0.3589828031187029 -0.08874272297607790 -0.1752572151916440 0.1973327050037176 0.1462126923917420 
0.5127407685557731 -0.1390322520963641 -0.08354979619019808 -0.4155745391909216 0.6797554310155656 -0.03945136099277040 -0.04990090946028293 -0.1701232632127626 -0.1334169286367824 -0.2783536904755902 -0.9097053914273258 0.1205070279453509 1.069717028425575 -0.04882269543185219 -0.3118494563666788 0.09343200359113878 0.1036280239481246 
-0.1135231301863463 -1.323399411493289 0.3269868345630504 0.1773029130563413 0.1329998209285177 0.1656886329397737 -0.3303158339348174 1.304976547396658 0.05614484605811908 -0.006794373939887502 0.5413359361379690 0.1592387805279119 -0.1465451588365243 -0.2200529068256355 -0.1130603366737757 -0.5183924612009684 -0.09259069851710856 
0.2517130663399407 -1.915871656638254 1.467335491377878 -0.2866915168013572 0.3036404485458941 0.1819906624416717 -0.2873937342184874 -0.2350014399554130 0.5791749328141712 0.1407802944786653 0.1650411265721084 -0.1573297354620688 0.8586066322460861 0.06020507176412977 -0.1159112864121259 -0.9281644367605033 -0.08212392033233558 
-0.3101987984249910 -0.2657930874667724 0.01449395910474837 0.2055366646327725 -0.8687739242043085 -0.2694598010324155 -0.5315688930127617 1.601354999785557 -0.7114643468497707 0.3078368221825736 0.02563951070874039 0.1759041445459121 0.1101648117364815 0.1201949392934540 0.1789629344762427 -0.4085869701755729 0.6257570347001186 
-0.4967793989753377 -0.5490835677277418 -0.2908050136167310 0.8945502722935714 0.4610183036735760 0.4699305892498999 -0.5798571934717562 -0.6276148900931735 0.8010526941549120 -0.1738430799592503 0.5305280425088589 -0.3305652864672923 0.2004238905552165 -0.3703582014038283 -0.1488528538240050 0.1663644800701766 0.04389121303290168 
-0.5029443829144993 -0.7867495434125379 -0.2135077700178920 0.5020667139684340 -0.3731362427465071 0.04253952685659378 0.5825006083193822 -0.2860398334960069 0.2489716637309032 0.1144207887567431 0.1503423858142010 -0.4673651784021596 0.1035971705701565 -0.1973363213979850 0.1691038014380903 0.4579303307250543 0.4556062822080326 
-0.2122186431193251 0.07276035281309237 0.5028428318939844 -0.2968017946216129 0.3153240086734633 -0.3842409063179273 -0.2989825852393455 0.1956497391424734 -0.1214932169197946 0.1295744358669276 0.2054713774573745 -0.7459164597614680 0.1009614715091907 0.1148727357433459 -0.04690273264117132 -0.2510343041946727 0.7201336897154674 
-0.2805857629250739 -0.5535242079212033 -0.4749520811680665 -0.1286134123820934 0.1105838062561834 -0.3735439339894391 -0.3552036939521849 0.4338641965889014 0.1837521000181049 0.1530289841292824 0.3065957321351100 0.6148214047352288 0.7988623527134883 0.04795861284376466 -0.08460462480598724 0.07698075082679252 -0.4754202231028081 
0.7710896463023599 -0.6990679005561509 0.4023162212967295 -0.4679281843172312 0.2075627883853146 -0.3090681359149155 -0.1699690804852076 0.3219650208363797 -0.1160713702248584 0.1333574176572715 0.4694868817259326 0.009980356323353333 0.4959660835462023 -0.1328646556158368 -0.002120188358444272 -0.4141056408770820 -0.5005292597238215 
-0.1711700425366639 -1.253819255018221 0.05824898167505984 -0.5072294581023225 0.9970710712876719 -0.5140432173812518 0.1740437437681282 -0.03423663450269542 0.2702465069638141 0.08505904317821292 0.2117920110757298 0.6397595287771385 0.1476706371098863 -0.2151720165340172 -0.1631484468841613 0.1057662055315070 0.1691613415921832 
-0.4835505073993670 0.9801180644377603 0.6842389476129880 -0.6195401846826398 -0.8958032443198007 -0.2595835094852228 -0.3280110197369165 0.1661448084504923 0.5457443598031146 -0.06498220924897212 -0.07507323201757835 0.5658431444488636 0.7689481333042926 -0.03246612697569532 -0.004777791605361174 -0.7922376312791195 -0.1550120013068305 
-1.348579083732507 0.4512042010783879 0.6157732662366364 -0.09918049131380947 -0.7524264323051829 -0.2373254033145287 -0.3111345771704591 0.9979498328220473 0.0001265121051521712 0.1335544385555506 0.3730537508789742 -0.07942930595501427 -0.1560994769717058 0.2033253964214830 0.1705300649592635 -0.04145553808121605 0.08011284578693385 
0.2219092423877147 0.4615865135801353 0.1794620715840003 -0.2782123308623092 0.5116265364793101 -0.8353518594122856 -0.2544046905571707 -0.5141025553751340 0.02036345894968474 0.05903945021350032 -0.1186060037185553 -0.01680793568587370 0.2990170626371602 -0.1216397492063146 0.1655907704929199 0.3872915910493115 -0.1667615725560953 
0.1574505405797695 0.08692194255434997 0.3237324264676501 0.1475154711389330 0.1435951003481572 0.2402936257924656 -0.8303213047914221 -1.067956755659387 -0.08531301146220661 -0.003067976720564363 -0.3844817192980462 0.1723670414383569 0.8231140075175086 0.01244264498599070 0.1207323996427872 -0.2761809177864080 0.4191564852520627 
-0.3028493107234933 -0.3543647520894696 0.1761675334703838 0.2141676419581848 0.3435554306493133 -0.1707143973712796 -0.2473204684796960 0.5058918294435714 0.2674705216198753 0.002219622033272831 0.6616074638851157 -0.4707523128290570 0.2082576049132598 0.1167513243015760 -0.2458028203333969 0.2116460497636574 -0.9159309602118216 
0.1269788562020966 -0.3892394459774810 0.3963819733988864 -0.1885660736807129 -0.2765508014430709 0.2760158685125677 -0.03989886579249883 -0.8196696767324863 -0.2009788613069607 0.2729569524968379 0.6420972746089914 0.4722513393557609 0.1754066844758541 -0.0009387595542768844 0.2667287280309360 -0.1359057433855083 -0.5770694492089264 
-0.6073402014595851 1.681657618987394 -0.2975560351765400 0.2417689276948203 -0.2250386791755511 -0.3458928579867639 0.2274111215663076 -1.459827883267147 0.05843447711471637 0.006016092828716176 0.8136378566252853 -0.2326372277536664 0.2474163100693770 0.4067517219329784 0.3061768356279765 -0.2930473806510111 -0.5279306969773004 
-0.01169982164064466 1.267816376400064 -0.4434186161054751 0.5924261185929923 -0.7105425594487440 -0.5865807502367021 0.1064846403100126 0.9088795343954080 -0.01174293427848048 -0.09571006710363938 0.2523763754905454 -0.3024186923290536 -0.5428632487582519 -0.1804732460040043 -0.2195471895402053 -0.2484580394584126 0.2254721197145878 
-0.3761440470164557 -0.9497666476756692 -0.3566702015510442 0.3794346150982376 -0.05545959908117881 0.6609614071904286 -0.3244532864349337 1.228824950653810 0.05542294160217798 -0.03484825749403492 0.2445614141717922 -0.5442653471720361 0.6933308441015824 -0.1804565961685447 0.008151457881370948 -0.05805056967455963 -0.3905730784309421 
0.2883358921768617 -1.735922156179936 0.03153970159837040 -0.1427683156929081 0.6326040460989372 0.7186769610106684 0.2502899823086336 0.1937644903372798 -0.2252979253820909 0.04930309807949141 0.9408804675895548 0.5549608615755174 -0.8474283782936546 -0.2299081948820841 -0.1131758858008098 -0.3084179153619592 -0.05743672918186543 
0.1396121782445864 -0.7681604079005373 0.4373135798424002 -0.08872855826911731 -0.03166416607273197 -0.4227345412437263 0.08292118305873869 1.136613179044430 0.1448959019200997 -0.2351183875363644 0.2213873223666751 0.2760903618857524 -0.3135526013125105 -0.07941529130564536 -0.2335900850675428 -0.08938985116187571 -0.1764798164926398 
0.6434936087767456 -0.8537653428906281 0.4317279211591469 -0.01708206188785380 0.5976928242305570 -0.05575136330263820 -0.06865278010197251 -0.5597808929225633 0.1759689886937390 0.1164194821395411 -0.1873561181532350 0.09438810534957089 0.4515030390182158 0.1663698284585259 -0.2313331763152911 -0.9506270952228201 0.2467850329709677 
0.2332771082594864 -0.4575928831131670 0.09806301778748815 0.01487342858068782 0.3701284046813018 1.100562455927856 0.3500836469904984 -0.02394950106714055 -0.03148657577325326 0.2587406114798292 0.03316234235376360 -0.5376530533038059 -0.3821785077202228 0.1035649493284797 -0.1255590673856972 -0.6087699057172691 -0.3952664713088331 
-0.1205594004240445 1.293271066103838 0.4769180246248083 -0.04269740505116826 -0.01675687948866370 -0.1852637328019699 0.02863021132846053 -0.9215762595195517 0.2564917978993174 0.1784309679924085 -0.1638490161969145 0.002044584952718409 -0.3275510345075046 0.1598474817422521 0.1902796119404913 -0.7225282085459277 -0.08513181004855067 
0.1631076538338080 -0.7232607715361206 -0.1279064556697289 0.2874788641148903 0.6077236783219458 -0.2755046081918888 0.2211479526433298 0.8889235213635711 0.3286832632292376 -0.2442990396726484 -0.3555844291180135 -0.1208996382372936 -0.6412351423313178 0.09521388360660674 0.4194900952151182 -0.4956175699871246 -0.02746125758437471 
-0.9193451515068533 -0.3836047196826376 0.1949109665177520 -0.1851370833276514 0.4183995048369357 -0.2795055075883376 -0.5258966686803751 -0.3340836180922549 -0.3746483745280866 -0.06071997507845392 0.6079986699588765 0.8398415005208139 0.5354004032746483 -0.07415597848817330 0.1762672833775506 -0.1405426164980791 0.5048213649843282 
0.4340327607468099 -0.7727995300607782 0.3390433555137993 0.7657281215985815 -0.4971354868179428 0.2274502258129687 0.2506518429066817 -0.9095060798770684 0.3469907136690844 0.1613047099205842 -0.9710187146481793 0.001228971925715925 0.4470743487314369 -0.1063730267346715 0.1754763078739311 -0.3480637457523635 0.4559152251914121 
-0.4680219407971465 -0.5275410096774861 0.2485334936022073 -0.4813048340532716 -0.04311643916586088 -0.3556608328383982 0.5719418832123727 2.220622245237204 -0.06394711025169965 -0.06095153654704440 -0.6219261824776792 -0.3177793203024013 0.5410248325063903 -0.1867838514560504 0.09498337178008315 -0.2875932889113972 -0.2624794798598171 
-0.6990120160751830 0.2822351776440655 0.6565546818040352 0.5636785330829631 0.2010898055501932 0.3074828916632868 -0.2876590254481978 -0.5415426226116772 -0.06893780608096821 0.1397227326607288 0.08611248033138870 -0.6111908155229833 0.2843079442998689 0.1124794803208652 -0.1152668925411676 0.09729027358275821 -0.4073448226599769 
-0.5711748398336005 1.076501022408627 -0.1129151842843048 0.1221804738454012 -0.9699981013152290 -0.2317950298867442 -0.4456428864149516 0.3198820732214385 0.7441629196322340 0.1322805499301900 -0.1227046087418498 -0.3295712761478220 0.4965158542475024 -0.006475482228317201 0.4038831866225502 -0.7464038148820296 0.2412751438268995 
0.2229781626464069 -0.07706630374812197 -0.2061979769198877 0.5966063540651793 0.7244998170967750 -0.4315390367485515 -0.1933461379644130 -0.7331495247376143 -0.1835796085599872 0.03001445641905167 1.359496821373657 -0.5929241456824393 0.02364896586685335 -0.3830706021078959 0.1484698882491257 0.1887872040485051 -0.4936283332966474 
-0.3754398042769368 -0.4453661059367958 -0.1095371465211345 0.6939214401432723 -0.1940469546340210 0.1707355808536543 -0.09200439710263332 0.1890235424216309 -0.005355451549252687 0.4066883045690272 -0.7543163018069927 0.2331843327564868 -0.3528891613937803 -0.1661273800405263 0.5760953974537882 -0.4311582923918426 0.6565923974560542 
-0.02883851150920168 -0.4411629178678919 0.3725487284770027 0.1363914069252948 -0.3535133207945503 -0.05922626292205335 -0.05641684045866670 0.6872042837566540 0.2733518598408373 0.04577807158516695 0.8195369374303859 0.06819006112035624 -0.4931796132312116 -0.1403943088113187 -0.4593703475419872 -0.3314052910947950 -0.03949393490401530 
0.1748226813459942 -0.3482294686834514 -0.3472441573956647 0.3746344340077628 -0.4997277823299803 -0.09533718252582640 -0.005965099692399951 1.208933743642441 -0.02957670411292664 0.09760995857298399 0.2511533178031394 -0.6092073597664412 -0.7149411207054002 -0.05544128816745830 0.2656890751147104 0.3710204423976085 -0.03819348950507842 
-0.9904021181610018 -0.6773864964231188 0.06945412225953510 0.7890834853184582 0.5905534280334851 0.05150917433362184 -0.1516710709406280 0.1672185564088449 -0.2958281674787839 -0.03481626183609816 0.2728151052278596 0.2625911970574550 -0.2485090566601438 0.1198067652641564 -0.2172707924489089 0.5227382766709970 -0.2298861466257224 
0.2329112725806653 -0.5814973617601293 0.6397216155483001 -0.1841175155096778 -1.720939313232930 0.4114119038505427 -0.01320184762327957 1.420253106092773 -0.3478624511411569 0.2191395020655527 0.5872617013199796 -0.04124961736161992 0.3403503632089177 0.2352791802727762 0.1633826124329817 -0.9763012999142519 -0.3845418508294494 
-0.3191181655344489 0.2104289434013261 0.1416032159809501 -0.1815151237203436 0.09601059090513799 -0.1557400724534375 0.3933988021112612 1.320308219633832 -0.1699780557580096 -0.2075548899231926 -0.4863495768888257 -0.2385887137652001 0.6073783163226110 -0.1428856115756325 -0.1965222193552957 0.1201491280854069 -0.7910247874661391 
0.2831448054208776 0.1722592427618726 0.3589285227288146 0.1583641716402555 -0.2920333643394202 0.4207371803098485 -0.4369255328743138 -0.5363164299302723 -0.5212650526338260 -0.1292840991335145 -0.2881091359726447 -0.1408692073678071 0.4862093007535115 -0.1645921228047244 -0.03813428584213507 0.5136865749732195 0.1541994323102646 
-0.1635747800500510 0.3065522344144654 -0.2481333250747204 -0.4558720412253114 0.7336615085310579 0.3961181675706564 0.1172524637919163 0.1106574210009095 -0.1549101864671564 0.1072190736733789 -0.2617296760653655 -0.2038445274638067 0.05445136549203694 -0.08977452530457819 -0.08724323817313376 -0.2267867855691623 0.06595685091887189 
0.1434865635026239 0.2384930430875358 -0.4895076797246633 -0.1267001160214771 -1.143364383045832 -0.9367614341534894 0.05255726172842209 0.7436994479713332 0.1671556901491946 -0.01393872260991496 0.5956448693003129 0.8309307802098386 0.008039534977799072 0.03766299837059432 -0.07514320195145761 -0.6856400210467863 0.6533853692559813 
-0.1480620614822781 -0.9198961088661622 0.2763367725569836 0.1447244095392135 0.6619667685935944 -0.2411005701794263 -0.08285423950163630 -0.9265081854964513 -0.1155040688034337 -0.2889854509211698 0.6443191440661441 -0.1345728910697137 0.1969782367939984 -0.1579873697435962 0.002402749606295254 0.7232701423662489 0.3654727225413881 
0.1714394566515985 0.3588039832202493 0.2399118612596922 0.2790026622629771 -0.5683299439415421 0.09209343674328745 0.3235060636224874 -0.3552446792686391 -0.3906075003443629 -0.08818192316068862 0.04940786340151183 -0.1491143455874621 0.5364760097803942 0.05577966940702742 -0.05146353857872140 -0.2286198678240990 -0.2748592076437035 
0.9661766432233964 -0.4361261053276574 -0.3402340810639344 -0.8701168771003004 -0.3334353103449867 0.2754879309225944 0.5432141805866936 -0.6731330500846440 -0.1406679218928551 0.1563764161507479 -0.1641852875860984 0.05184931058404948 0.7819839527670877 0.09163639323388581 -0.2494066959940388 -0.08258171316567568 0.4231622150917359 
-0.5029140667355413 0.9884540944624238 0.3211198193526960 -0.2422732395870714 -0.6258054726499589 0.1480307345949259 -0.01815143033120101 -1.632276999689940 -0.2540004485720112 0.04335269486076131 1.143288318533430 -0.02845283549564237 0.4137373065443947 0.3148563282289220 0.02202296834945707 -0.3768090441489336 0.2858212722832944 
-0.02581259115240319 0.9241503238402656 0.09754639987056564 0.3134895663897440 -0.7854457044152168 -0.01846410330278219 -0.05666343400262682 0.4156166671312412 -0.8401019551790575 -0.1237574975539813 -0.9004883894554941 0.6294868397190062 0.2986077417416584 0.02089076149121343 0.2854063810558472 0.1247824000707112 -0.3592434062486820 
-0.4891504674438197 -0.5882321267442130 0.3114065254546885 0.3578133484506280 0.4350840404732070 0.2139284145420917 0.06025124270517388 -0.07994684123637513 -0.1794396323302668 -0.08786794218354403 -0.1323692663547771 0.008520027349280097 -0.1910729924970473 -0.1655869311938549 0.4453508243307618 0.4049417543347455 -0.3236299776566800 
0.3284818676991436 1.096972772541884 -0.3984735450031549 -0.9052813873517446 0.4222411816454193 0.4069187602904690 0.01563926327106371 -0.3156480122450286 0.6522048196458953 -0.005510250804071405 -0.7447271600740313 -0.4088259652487742 0.3949100982026421 -0.03189374519204891 -0.04920562039279889 -0.2652874847888709 -0.1925155921959941 
0.1549662401399881 0.1500124349873742 -0.07436159622560450 0.3704510785953338 0.7228557286479430 -0.2790782067662266 -0.1130004793872869 0.2683225027749326 -0.02912485397321970 -0.02576875724308951 0.1280767376354175 -0.6423064702849716 -0.6607219345970199 0.2665656305172479 0.3196880954358287 -0.2303001621664382 -0.3262759880902120 
0.1590524210880456 0.1374438877365576 -0.1317229423613829 -0.03823552178849516 -0.3854867856161243 0.1409294074141883 0.08957199378650560 0.2289927683432466 -0.1338031468889838 -0.09430417961812511 -0.1892350666153134 0.3143597181588540 -0.01724541404721569 0.2003663068968549 0.02874836498125582 -0.2987007972519348 -0.01073101421793432 
0.7063259209689582 -1.079014885674568 -0.6655253412768227 -0.2393456730905360 -0.1675352029382635 0.8986181636803117 0.2307641076078844 0.6333350735823443 -0.4302904928311460 0.1679143674465814 -0.1448251242604868 0.5029141800618845 -0.5457261130199089 0.2816327682990488 0.4073588728961811 -0.4266681008139380 -0.1299325206375293 
0.6021521201757571 -1.060269304256854 0.2834672370273666 -0.09582792422644024 0.7734809324071739 -0.01663566696776043 -0.2491252201556998 -0.5716997708216344 -0.2663885916626765 -0.09208334853676668 0.06200139342063712 -0.07898487053644568 -0.1598887992481837 -0.1750030792991670 0.5184813223965389 0.7888473977139042 -0.2625238274297422 
0.5166911823870501 0.6619087865601224 0.2600766786598214 -0.4832715709044707 -0.9815416950830596 0.2415693135509376 0.2312284378642917 0.8771476398411641 -0.3348294038050621 0.1289710111922674 0.2941385020100248 -0.2595572733499318 -0.1354444502436747 0.08223777929919140 -0.08237363489956631 -0.5723590195131112 -0.4445922835659906 
0.3971740627949008 -0.7524757702826518 0.2401297027526101 -0.4092461230195840 1.239792117770625 0.0008825478179278496 0.001363666364874454 1.112600886570306 0.1014132627965596 -0.003759325056359658 -0.7509970887277130 0.5144349545344292 -0.3709185229241332 0.1611002299274258 -0.4208436623062272 -0.06289217787240879 -0.9977587611405849 
-0.2423038113216929 0.9336382636414561 0.8223374750303564 -0.3327973182522389 -0.3553355487450640 0.4485287511971514 0.01044454164505537 0.3379737886537536 -0.1803352061845685 -0.06057836598990714 -0.3244747509264932 -0.4579215072096756 -0.1717061334815376 -0.1212626381499685 0.1047362348194407 -0.2607857919657953 -0.1501579827602698 
-1.384400790070270 1.161336134879073 0.08491262707423941 0.4706109078999291 0.6574459675371092 -0.1915136453258052 0.3223885666845457 0.4072900828618656 -0.3322087425350721 0.009809637583190403 -0.4390380230837015 -0.6050844267901243 0.1493131970823611 0.02673424940227075 -0.06904477226889065 0.02887197394614314 -0.2974229448768652 
0.1005874436330905 -0.9459752433905130 0.8328339163337888 0.08455005243713086 -0.1665746985001125 -0.06372945887662478 0.1913209382355886 0.1754646589302287 0.04915704903750304 -0.2159156141116588 -0.1781271657522196 0.01348276467369253 -0.1636778895202739 0.06505284325038563 0.06023296534491408 0.2317131993895727 -0.07039576111449454 
-0.1385806738866634 0.1534188737486714 0.2104373265408139 -0.2715493220313235 0.2564901414015643 -0.07150689704056536 0.05553501956529593 -0.06492981578828526 -0.1540027295922062 -0.2479624051467415 1.018285345374236 -0.3118104752988838 -0.5323719725660448 -0.2093763983489839 -0.3096172148171091 0.6407673107276537 -0.02322611284143538 
0.2089164996197939 0.9245429118841044 -0.6286137860593908 0.5140726046315529 -1.457856711972031 -0.5359323279569970 0.1178179103881913 0.6315597744331438 -0.0002219248146415567 0.1953063571672957 -0.1090537769628250 -0.1387440395731611 0.6327611555564720 0.2348401064558653 -0.5443027605226074 0.9031497554775169 -0.9482417477522763 
-0.06085800403886244 -0.06446707863688514 0.2116872359809100 -0.1555144726804959 0.1228402196975002 0.1371135301656535 0.05784100632912795 1.040837123927421 -0.2598797148032112 0.04191745916796708 -0.4526882372160725 -0.06471345095246490 0.2778024341787410 -0.1118144659986588 -0.3435685172762706 0.3301481729206529 -0.7066832407650534 
-0.6286354953184192 -0.5842708990128213 0.07219454248886883 0.4799605942712513 0.03523784690805880 -0.08455563773178307 0.1351553451388692 -0.8957217431019795 -0.07563925009233666 -0.08407562247279590 0.9350209846719879 0.03573771883289027 -0.7258361461238807 0.06423939882921480 0.1170444069634512 0.5392664961704914 0.6648774595789365 
0.3885943596669313 -0.2581638618803913 -0.4132176592123889 0.04307306364750742 -0.08258113986614421 -0.2568534889326377 0.3139020229928076 0.004421119977516029 0.3729722044736560 0.01638512835821061 0.4321056511002166 0.1836188073882215 -0.3017394990114731 -0.2383850467824336 -0.3067792642405285 0.1654530936633478 -0.06280549134241743 
0.2998965325374415 -0.06814503328982796 0.5567239382215389 0.8207436632308595 -0.3041876632680360 0.2859078324798484 -0.1744072848505745 0.2404272295367964 0.1107001197785436 0.05346568683854910 -1.209592571044054 0.3028190766073397 -0.8173616164087457 -0.2336566333323566 0.2293123022111658 -0.1504203847853148 0.05777480553682576 
-0.5678518641070359 0.2076884645804514 0.1799687499377636 0.5129315767408699 -0.6466222945842446 -0.1096968081548606 -0.3560461844536109 0.7882691173664451 -0.2428269636317880 0.1378117712065728 -0.1524062891095885 0.02330231981713931 0.01072075568198266 0.06293437307754116 0.2720871790110088 -0.1524298647948558 0.03216596141621741 
-0.4011208518644140 0.4646656444368332 0.6464375883837685 -0.005739623568601296 -1.709363189002044 -0.4352057918245780 0.2626841930739466 0.5397189367223882 -0.03808679191830151 0.1328482620014486 0.1148984183287369 -0.3962247634882524 -0.1290309099358456 0.06418326681358175 0.08056653920658950 0.5384840863439074 0.2702849862908335 
-0.8518687577641711 -0.5458339657869997 0.2990869943555460 0.3981299923083378 0.9995817216548384 -0.4522639578982714 -0.06054747516917654 0.1542873395317171 0.2218266921880138 0.1712484154097396 0.01444423238718368 -0.4817385345644260 0.4721915362942223 0.2447316906565543 -0.1245910762094630 -0.5171134395262964 0.05842859213265806 
-0.3136799874651891 -0.5007757726338771 0.1432207516229002 0.2078717047721240 0.7678032638643587 -0.1588716936126483 -0.1861081097297029 -0.7671784884723462 0.4323211190270038 -0.07741822700397546 -0.4952703525613497 0.2183194162700868 -0.4474980664268219 0.2345974777349077 0.01906119006023961 0.2288077322572166 0.6947980422970667 
0.2703426397590665 -1.038216965901338 -0.1705044582211736 0.2079353584778019 1.037198046507623 -0.09097884394812265 0.003794558115789159 0.6791693284886444 -0.2972515492056707 0.1832125080104519 -0.2699535745231964 -0.5584120515212219 0.02054248577586114 0.2784796356470579 -0.1559553099461789 -0.1989593963828321 0.09955758886744229 
0.7200523941346313 0.8371362114467079 0.1186178568196565 -0.1501243755093500 0.09943789969866443 -0.04222367972288421 -0.7378231843245739 0.2412757910819618 -0.03818191887953987 0.2555048062113812 -0.1221694962974975 -0.2824028531981503 -0.04229695564493560 -0.08458250677201763 -0.05561815307366431 -0.4700878163609340 -0.2465140196094565 
0.2093912631944486 0.4081657377979510 0.3205629475058995 0.2824043618847844 -0.01556118793318323 0.1285903641403396 -0.02728270273143567 0.7198333064633338 -0.1144816792990166 -0.07831233971063456 -0.7141171247130357 -0.2085537534726598 -0.4934671963752194 0.002447663311198590 -0.04664373738889807 -0.5372686936696960 0.1642927709958202 
0.04012606807066848 1.014205975297966 -0.7062909600254722 -0.3842037684290378 0.1300474980770375 0.6520304243682076 0.5141939805224466 -1.234820911444326 -0.03459659335830922 -0.2251301086232758 -0.7344674617706363 0.2654100962061408 0.02428320030373444 0.1783512519544833 0.3051183171661748 0.5965353065222756 -0.4007923148380713 
0.1805468542466361 0.3574489802922951 -0.6519847289013843 -0.3369547081973529 0.9308274398205504 0.2621217316087047 0.1282312825690746 0.5279179376366625 0.03182867214183761 -0.1967715645022780 -0.6508312329003948 0.7253943953094831 -0.7303289273197662 0.1193245171439299 -0.001453690758045204 -0.3189945621986000 -0.3763223959913506 
-0.06375260033313392 -0.01303307406391987 0.1343313247811429 0.9020155601805124 0.2126403605388678 0.04051961498882769 0.3291154186004778 -0.8916037803682136 0.4526416835332428 0.1246379619975045 0.8396528690231657 -0.2246684222477436 -0.9989430584727547 -0.01705773776963938 -0.01839284652177554 -0.6010696405943100 -0.2070336332722488 
-0.3394771610178128 -1.625034439528372 0.6679071603155895 -0.2674243417503724 0.7771629391163334 0.1548886014405528 -0.3715449297516847 0.01380288584894109 0.1140141993377347 -0.1600533397630549 -0.1118704039677937 0.9952754684953562 -0.02550533794580350 0.1394665404422465 0.004594491900448978 -0.2024820159537071 0.2362796827814008 
-0.4808439568517026 0.02647983681561738 -0.5740805581310829 0.2071242778204300 -1.012507183870238 -0.4545857611677723 0.6015466850245884 0.3788611368187055 0.1348165996033818 -0.2911889380461978 0.4961487098099104 0.5016284663537661 -0.7440867856767776 0.06418661201046959 0.1376444324660596 0.4880467383730487 0.5208096886477982 
-0.6076532754437498 0.01184968905841956 0.03075469837498676 -0.1237358095972878 0.6713929691287104 0.4217487407434671 -0.5162176654564494 -0.5793638002180884 0.2974696694534970 -0.07942417742081219 -0.1620185598800599 0.2421155693236086 0.1304581645780540 0.04007598145684713 -0.3535928718780251 0.8762268375481986 -0.3000861597713198 
0.1481174841910366 0.6412333770540161 -0.05412783326175503 0.6490797356832416 -0.9483918676300493 -0.2158213265603438 -0.3078512948862434 -1.040132694655079 -0.7029564003130742 0.07991129747436480 0.1593251108609159 0.07427079455603963 0.5318008818477991 -0.1040676374818056 0.2222659233939335 -0.2809228751494066 1.148267324876409 
0.2652367950158567 -0.03369131552124453 -0.4234985345362142 -0.2077318130735866 0.4130328472981909 0.3402047632583805 0.1486718993157988 -0.05461820843052483 0.1537339691486765 -0.06720759992530347 -0.2482940589342231 -0.5558424095092837 -0.3016668062037304 -0.03032108945109653 0.08038397101558910 0.6155291870846470 -0.09392159655192792 
0.4879873852948295 0.007962780120355992 0.4538884128243749 -0.08002469372653027 1.110859001445534 0.2467705337411886 -0.2234779149149874 -0.6518795202218360 -0.5870078102184372 0.1627657118547951 -0.7540850496744238 0.2156406111323879 -0.3356909851471444 0.04853382897535854 0.09344726636155516 -0.4372763067896966 0.2415867489426817 
0.1731294905211242 0.7312266936475640 -0.01127889820486613 -0.3351875750880310 -0.1710669369169121 -0.1508261993152436 -0.05325004187660015 -0.8216348494411698 0.07378863399383240 -0.002240996933083921 -0.2397548737960023 0.4504456222207190 -0.02363686845934640 0.2083743132856233 -0.3523944594799303 0.1760590860485843 0.3482478597937405 
0.5022922786521721 0.4929566225255943 -0.09081562825649538 -0.8035828315498207 0.5931502885626910 -0.2994926247323991 -0.8514095723643170 -0.04989032523573404 -0.09836701163394523 0.1186859985218899 -0.2510001502381815 -0.4014139914665341 0.6854513634459586 0.04621303027967294 0.05006580724080913 -0.03344940242411676 0.3906061486727501 
-0.2648153193881047 0.3522981440220988 0.1324252019528051 -0.1220501547881022 0.5159448692839392 0.05410153990103033 -0.1481064856069138 -0.1514975365047288 0.06887961149320797 0.09200030627012210 -0.3530278953138784 -0.1189423182237940 0.3980476283358186 -0.02992590360421116 -0.09739252124187772 0.1081378892112526 -0.4360770557986622 
0.1831885769914056 -0.5514750924929849 -0.4125338942435806 -0.7767025182886397 0.5498486995333657 -0.4968531435587858 -0.1132013461418061 0.4807159303152499 -0.2810290597623660 -0.05851715292357107 -0.06341211147981063 0.6180991390444528 0.9321616242450264 -0.2803447025681808 0.08963710891492520 -0.5288630346207703 0.7092809770360623 
-0.3663926549845956 0.4655761190081935 -0.4702745812998941 0.1047410451691467 -0.8425671461175623 0.2975659297642353 0.2378843286636438 0.2533387280778596 0.09127558684596564 -0.05374083667531485 0.4183190714425469 0.1810408022870479 0.3193652519933632 -0.1171994620340569 -0.08613109923897008 -0.2672514851140125 -0.1655495977875962 
-0.02826041319412823 1.188441460367177 -0.2422561201864559 -0.4155419059140104 1.259227483252691 -0.02566495896670035 0.05804467031700372 -0.1177017149265927 0.2406957024181551 -0.1245735164598727 -1.281613535213381 0.1152256058150677 -0.3871304420736618 0.06044099451722361 0.04516599515416796 -0.3490878831984962 0.004588578291811730 
0.3058902544221253 -0.2995560159383909 0.5438347920159502 0.1140220783956972 -1.346662342952099 0.07752793621058980 0.1431193163658366 -0.9823241710785737 -0.1894448410183341 -0.2127023667965430 0.8010332173282574 0.1985414335847572 0.3463009105053198 -0.006612001734361184 -0.05715339481956130 0.5268431761362227 0.03734201937311697 
0.3205477164793728 0.5343421708482083 0.5837654631565834 -0.2907099841526182 1.271178514482749 -0.3567383144071405 -0.07040719170492991 -1.042315539104503 0.5430293040218501 -0.1717409861726303 -0.1850497233206082 -0.4483716290911762 -0.3224200910619001 -0.1884109475166947 0.3582685028628322 -0.2451297214528319 -0.2898375438665549 
-0.4468421724221746 -0.9174814319782255 -0.04440281803570208 -0.008165987260549517 -0.3480085324978130 0.1135349911966250 0.1724948880717392 -0.9310008236164041 0.1295571808469705 0.2174667554009041 1.318672959418280 -0.2476752043997209 0.7414057350389849 -0.06496028408924302 0.1585212728950991 -0.05774789675573924 0.2146313681869675 
-0.5231143491301313 -0.3214844962223596 -0.03859668165880064 -0.5713130784350521 0.5335027664695423 0.1041259569893250 0.2814008781220599 -0.2251025050653326 0.6004150838888972 0.002713376496696582 0.02435303274246905 0.2585854138656890 -0.3373083668000511 -0.003222149806782810 0.1732057711084803 -0.6237027941914989 0.6655421416268530 
0.5094243459032680 0.4489132869854885 0.5780713981062374 0.1341679956524032 -0.4204112274948663 -0.2570455711743415 -0.3138498239344610 -0.2547641065464840 0.1591954067336721 -0.03434876912496428 -0.4367231475889635 -0.3339973667359932 -0.6764384122244913 -0.06357505680076800 0.1092082070368108 0.2789477368487686 0.5732251043586896 
0.9965469523175423 -1.869508875729733 0.8609296379431951 -0.9287112561500633 0.1196913274771750 0.1926657696429112 -0.06390770269214588 0.3358375094738493 0.3113795161525780 0.07895982106267824 -0.6816451516468013 -0.1484803969240898 0.3813257984665414 -0.1599682583704733 -0.06688303516911229 0.1017352439946598 0.5400331001512915 
-0.3790086790484144 -0.5353399470549794 -0.3491033535436107 -0.4128622180057671 0.4592161684813886 -0.09876853889964878 0.3364305524178975 0.6561138838686046 0.5906457363500413 -0.1925959744356010 -0.2041219353330708 -0.1015742281193298 -0.4012825074397999 0.09096346982032123 0.1098272384559561 0.06465545581106492 0.3668048766749466 
-0.03218168284586403 -0.8736880652028477 -0.1156720066028574 -0.09102839397825785 0.8080528383078939 -0.7405410995510908 -0.1356840203526906 1.941026504616964 -0.3440061379943751 0.1148352725482827 -0.07411594640228066 0.02393255693771086 -0.1449909751723100 -0.08751306174720584 0.2258911000008902 -0.1324461654064158 -0.3418707171555321 
0.6489071569637354 -0.8934363417677210 -0.08409923069036503 0.3302181019038182 0.2926656387826384 -0.2644485008616079 0.1723126890880224 0.6159726976687150 -0.2695721907735738 -0.02301482927977550 -0.4855739309443332 0.1883867278005927 0.8084522324968914 0.1074191075411447 -0.1292593012594204 -0.6819411949744091 -0.3329888316943553 
0.4212780637870654 0.6821122255791694 -0.4513690666119236 0.3751900473427244 -0.3119488929158127 -0.1707033855850018 -0.04554012527737614 -0.9116762543369996 -0.06077421719100136 -0.1454027102421358 -0.01949029795146617 -0.1218242893390215 -0.3216049336907105 0.1190724281296553 0.08552490062887094 0.1301564965404949 0.7470000111334628 
0.05243956138198445 -0.9571112917938652 0.6461441229025932 0.03142007299509009 -0.03137708988399707 -0.2174198011920797 0.4351351671565759 0.1295473252443363 -0.1025431589474376 -0.1020767628921008 -0.6746181958704983 0.6294631619987632 0.2558151448695603 -0.1040717422343910 0.009865177109535302 -0.3348392927543307 0.3342276019102606 
-0.5630417476534734 0.4432570479554043 -0.3343444724945411 -0.2225762096556893 -0.3938991957590331 0.4282688844072493 -0.1581830908041362 -0.2880368209276213 -0.5942108977823083 0.2681868157036491 0.4276222342295416 -0.1485657748754149 0.6088246573232904 0.1342120718025755 0.01222174219373390 -0.04944929073007985 0.4297140470668560 
0.4713891983818422 1.159993502377824 -0.3424701721748720 -0.4109522220154114 -0.1153135193400080 -0.01973298067963374 -0.0003988651713998023 0.6813613314472472 -0.3711365676941406 -0.2171443270277275 -0.06552457659958940 -0.2152142706509909 0.2796268613480735 -0.02417225511996062 -0.09968644950668170 -0.08317786151774690 -0.6274468260568313 
-0.3158994953033267 -0.8713676253743698 -0.2573703376850793 -0.2321403345688958 2.190350820811963 -0.2241842932187612 -0.4562658184242490 0.2690341236979825 0.2020722275913392 0.02350243405544470 -0.5965879807695674 -0.5149145024357393 0.1915309879181445 0.09618912061701768 -0.09197445918880448 -0.05418474946286268 0.6422098817397783 
-0.3070646138333344 -0.9449848123224553 0.06185877869167653 -0.2068833643114011 0.6519269584571201 0.2045786045648239 0.03884771605863242 0.5004842645477746 -0.02244937931747989 -0.1538835798234220 -0.3226219244825226 0.4500872460520455 -0.1539509697424422 -0.2635537111101899 0.09468980855748049 0.08851988514713330 0.2843990928665600 
0.3280968312250729 -0.2371357260284743 -0.1412799949505334 -0.1254130976203748 -0.4342519994283938 0.009059355692790849 0.1887288863309919 -1.044675872281216 0.7906183408835490 -0.1111219630501461 0.5124216375749501 0.09187517245571837 0.02027566753484171 -0.04788554796099070 0.1571875820884738 0.1849220163310867 -0.1414212887973397 
0.07247521775687917 0.7128272475467644 0.3989363420347160 -0.6204303219716881 -0.3110806006044266 -0.3976029518158393 0.3275955628325598 0.1344893328662889 0.1977830375744942 0.08123522106472575 -0.1150638396271967 -0.6943040449098798 0.6310338771625665 0.06735545735392225 -0.007771918414659235 -0.8542719280520116 0.3767943092027811 
-0.4295483544823462 -0.7852651345304119 -0.7907110702790624 0.2942436136082147 1.455175660137209 -0.5221934066456615 -0.05850474918224492 0.8885359543312306 -0.08552540305368463 -0.08093625912892298 -0.2864651949612974 0.2667121014918290 -0.03148661854563209 0.03800247531447907 0.05217192985556374 0.2263849400357624 -0.1505904839650312 
0.6978325088400620 -0.7007613443869862 -0.5583580797308100 -0.1500104083657420 -1.189175052482927 0.2546853607524440 0.2632174146535042 0.7300661567314269 0.4727899391793028 -0.1665041105802079 1.114292540094668 0.5882374525171000 -0.6657612983255192 0.1529952484463970 -0.1726701966341852 -0.2391525686594304 -0.4317235620491023 
0.4650974329750884 -0.3890860760660588 -0.1834936762999481 0.2820557452194533 -0.3840583043063589 -0.2486581416021326 -0.2123602624389410 0.4439150450362426 -0.3470979548015157 0.08953959810851174 0.4941106500849218 0.4080805979331270 -0.06994246093827598 -0.1065919429651581 -0.04828641104631476 0.3431319689288830 -0.5363558078215209 
-0.4057831386629725 -0.2548874834610237 0.1410779220816108 0.03401743938190895 -0.6224214864749663 0.2280620784273800 -0.07677408221349868 0.1248410909613607 -0.1383601466632820 0.1453032289485087 0.6086744177724256 0.1226683616763788 0.1492033592518129 0.04746714896791768 0.04244117617732530 -0.08885037846489661 -0.05667950770598770 
0.2147341367600722 1.100855587619772 -0.2529605808669599 0.02980951070125881 0.5134948123679357 -0.2803041983068346 0.1258299460809413 -1.006736361245123 -0.02089471248745944 0.1822839128147899 0.02470695511816475 -0.5909490316474444 -0.2563415319413996 0.03886328950037616 -0.0008353367103529999 0.4959255758209931 -0.3174819735787293 
0.9231634338380320 -0.07177411283420701 1.206799712252562 -0.1614228141882924 -0.01183785242411069 -0.003900638968874613 -0.2181687207182756 0.7943827149988492 0.2258746882044700 -0.0009079453297814585 -0.2468933019403507 -0.2632869354108648 -0.3736127929833341 -0.003862080219272913 -0.1604391794389032 -0.4282210492433050 -1.205893125594347 
0.2834928843363662 -0.1594014317028943 -0.5629113804304786 0.6766581272302500 -0.1082344679876893 -0.3012549223045746 0.06436519874519203 -0.7446347611776384 -0.6149010843645277 -0.1594137393669639 0.3086290080295417 -0.2599173831551613 -0.4826709315400948 -0.1504047001164539 0.6620827974975064 0.2356464967399892 1.312870289567626 
0.004809516560283581 0.6639297211267291 0.4076975884030299 -0.8812573126992536 -0.3889208623257160 -0.01103981671813254 0.1060205875548860 0.2874015960441347 -0.5326681480039186 -0.02785834494580546 0.8211826134949313 -0.03742716324236049 0.09365578358349046 0.04266601746131001 -0.03249678838965930 -0.06342939891934547 -0.4522655889846048 
-0.4069545810019540 1.415933407624360 0.4298299824914881 0.08477146508541845 -0.8343251077682752 -0.1125605561623612 -0.3101182223655366 -0.4071056864388942 0.2755813511176817 -0.1615023249365385 -0.3742490727652078 -0.05197681234391775 0.6058172880703442 -0.09476458557424974 0.1715593963220195 -0.04982240129024582 -0.1801135400641327 
1.246490024692136 0.3945930659715197 0.2114334716068307 -0.4396875015643408 -0.6893816830384379 0.1660673633047227 -0.1744962140875889 -0.5137812342231272 0.5113016257087792 0.01303423263386859 -0.4643087947618083 0.1501399544049874 -0.3853559050206489 0.1044370277389681 -0.07227674689741635 -0.06820787438359367 0.009999187915151598 
0.1058156638426036 -0.7408751274350156 0.7061520192923794 0.5535507196777102 -0.3868233469983926 0.2197255937170568 0.1113147428539697 -0.3199379711831728 -0.5048173804115091 -0.1048395144321643 -1.087192299670321 0.6062401116686585 0.9216965115819921 -0.08333163299520575 0.2329887365705353 -0.3043374884603164 0.07467066238118271 
-1.008537260492126 1.146798156880311 -0.07388177680801283 0.9724164760155996 -0.5313157294447075 -0.1806061663929124 -0.4458969795212060 0.8213490012597913 -0.1132649347515912 -0.07365943528006337 -0.5900341644727544 -0.5997460157329307 0.2715286507998553 -0.07781674291126962 -0.4811898505571686 0.4954235234999062 0.4684332479092704 
-0.7226048798823309 1.662726213669351 -0.7259231836720725 0.4129995025378966 0.3066676595985804 0.1947798898110758 -0.1262140168002507 -1.703067967023007 -0.003702104779634002 -0.02782405396771620 -0.4595169730574513 -0.7830810142539967 0.6878638735732251 0.05001364088551969 0.5629149482497324 0.9596939724029790 -0.2857255072918984 
0.2563361284299399 -0.06903875324837035 0.8589339401432238 -0.2396928705485270 -0.6606801111937589 0.05253863822204302 0.2487844821340488 -0.3723679862976624 -0.1079354603717998 -0.03500731441114793 0.5533361034901911 0.1263704660847997 -0.1216913382523412 -0.01100988755348418 0.2320009481108981 -0.6291396103539246 -0.08173737438413381 
1.757517224790091 -0.5092495992595200 -0.03041995955300312 -0.4371409164248123 -0.6084369998172737 -0.1836089106825008 0.4374118285872109 -0.3983467162515838 0.01827739599631583 0.09015046080761935 0.4894475831035279 -0.6311275542918697 0.1534182524761416 -0.1600009394799231 0.2120987109609083 0.2269215428887206 -0.4269114038500426 
0.4444185929289203 -1.088814519737262 0.5518668548020859 -0.02046686972967211 0.8202085352684414 -0.004882267201077985 0.2304519842032625 -0.6820329086819795 -0.1683723113530129 0.2116003629769441 -1.225539400629415 -0.2287266214924815 -0.08919255803785388 0.1692122014865711 0.3051266599542971 0.9076160411123051 -0.1324737758700567 
0.5851207238076102 1.639202137277835 0.05202611848403367 0.5299642466016253 -0.5238954228624930 0.3776047624583835 -0.1085621594805562 -1.880022549588784 0.2709332005038255 0.1310612169456752 -0.03789010509511979 -0.7896708256350596 -0.4114492825216107 -0.1169055926153721 0.4956948962518615 -0.4136712950126067 0.2004599304807577 
0.3817596696894160 -0.4027388018730964 0.6335831179078180 -0.1647041741790647 0.004608318033351525 0.1600291065771177 -0.02808907825023110 0.7095837564076836 0.04614350674007161 0.1077556064293873 -0.6357649395048524 -0.3533484635586752 0.3978059857986011 0.04592778952628080 0.02388657192457192 -0.4803077012916267 -0.4461302703767622 
-0.8402576300427032 0.2298637927431056 -0.8415722813835411 -0.2648799287281797 -0.09992402688226759 0.02602635274629056 0.07584454072532344 0.3057009134890101 1.373866880425227 0.04420125436188212 -0.07934654342284203 -0.4342655201720058 0.3891221500864326 -0.1036373188618867 -0.03445688959927374 0.5166490980462818 -0.2629348435308508 
-0.7633433712679814 -1.406760475467652 -0.1622948923417153 -0.4250879460986662 0.7814858588967618 -0.06326247927897242 0.1771815823566816 0.4064762690461458 0.2169992497989647 0.1208926815903587 1.484047113749175 -0.1769815778206442 -0.04301687194202298 0.2863553157682372 0.03813245989358902 0.4183836866273852 -0.8892066035096357 
-0.4840007749376051 0.2166959935832082 -0.3330430518737885 -0.3255908268280250 0.4707609831090350 -0.8928390151230730 0.1150583831691235 0.3325915190093086 -0.09961857964292886 0.2000904790441606 0.03772785488363317 0.3487933760893104 -0.005237948819491854 0.1481691140753905 0.08454266205509085 0.4506839694082035 -0.2647841372015526 
0.7159396598307352 -0.5172539686363524 0.1358210820040689 -0.2700841896133022 1.372769327304098 0.06134698428997105 -0.3804125014694886 -0.1059116101650414 -0.04561669279115631 -0.02112633642910299 -0.5025660737229564 -0.4088009831228895 0.3947348668974174 -0.1841155388137561 0.04285762619244475 -0.1557911748901937 -0.1317904768644977 
0.3910498605256119 0.7377626477356503 -0.4568105503089012 -0.2056131630757718 1.422895355587343 -0.2559354203492719 0.2900245330832535 -1.003958494189721 0.4073816575266600 -0.02462576064598830 -1.229939733010232 -0.6560666674814665 -0.2755630713983502 -0.04435304764221726 -0.05567706505438423 0.6197538600403690 0.3396750586574061 
0.4287405846795970 -0.2508394409735376 -0.004041707786064860 0.4053548919682821 0.6557931604109926 0.4102191686656573 -0.3578199563355920 -1.884012643240354 -0.7366461704778063 -0.03972084739555132 0.3563185141161098 0.5589162123161836 0.1794671384108991 -0.1892844377760975 0.2960019234188765 0.3057018405035168 -0.1341482305051120 
-0.3804471216597707 -0.5462540345267394 0.2804852685156201 0.6350227591937682 -0.9445188560404965 0.003359491759128237 -0.1786314797389182 0.8343049616865142 -0.2318498502879298 -0.06997775894703778 0.05203185721625765 0.03272825879597288 0.4859996475552164 0.09569640273754845 -0.02496753154427690 0.08232115472879517 -0.1253031694436565 
0.6460037916714987 -0.6199625996066016 -0.1488455555461211 -0.1863092052284927 -0.02933062316927930 -0.03567474548621002 -0.09119926866787030 0.7009608471538272 0.4705756720605390 0.1055940948392875 -0.5792383350690196 -0.5396115423280499 0.9620850280521239 0.1272790265624347 0.008324062402460934 -0.6237241993855476 -0.1669264482549821 
-0.2166335493331515 -0.5853731908962045 0.05312614410203628 -0.3003414332592105 0.2244224356890716 0.2911563845592908 -0.4412875197499548 1.222471228293040 0.2772508294107958 0.06347715002872219 -0.7985916204958547 0.5566900287530869 0.2976096721816040 -0.06450014309740099 -0.2441227318175926 -0.08378594844180606 -0.2515677359264763 
0.6580127207567670 1.284602013074262 0.3801544864369910 0.3394150961337171 -1.158974395378303 0.1895778454224739 -0.2759149945702639 -0.2309071786840641 0.06032424582922583 -0.1879670567046727 -1.140481603489474 -0.03756176958575592 0.3885159100598905 0.03809712655644017 -0.1095045354834104 -0.1974113305332311 2.342015941856408e-05 
-0.8769646680728925 -1.535833678182120 0.4028512681638279 0.3188887678330010 0.9503605116266130 0.4384806503180775 0.1226335325129892 0.1195464896587713 0.6724715493473210 -0.1857435426348086 -0.2943574293347421 0.3174563548133688 -0.2856528458479150 0.2186009762681185 -0.04773536576384151 -0.3017963250898360 -0.03320624561593105 
-0.1788761006538537 0.006722442853420023 -0.6885234503056264 0.1425551427189512 0.2536489264183308 0.1134153952087705 -0.1619045877425249 0.5770597863496999 0.2796459741225916 -0.2104904648356555 -0.3616305707825316 0.08098682556671340 -0.2018228875319645 -0.001878724424926915 -0.1031156013081669 0.4983715706799539 -0.04416367633318336 
-0.02334697365827946 -0.1889568641918574 0.05824574011059990 -0.4210554487856948 0.08502103197554454 0.03661710272359805 0.05480311139970542 -1.059810992287094 0.2487644392493142 -0.02634357988384109 0.7071747965711530 0.1047404228990891 -0.08109157860518829 -0.1341405381551162 -0.2656714095653306 0.2641715410202228 0.6408791991831779 
0.01906313789078260 -0.3593999638743435 -0.9040040751001954 0.1471581976918533 0.5438681774107200 0.07610869917186820 0.001966330709428245 0.6589880754766271 0.5116040238350436 0.003270728445307415 -1.126386762614450 0.3495186959480950 -0.7979334232368316 0.2700572812380263 0.05238847817936831 0.3584754378684342 0.1952569609602576 
0.1674709682384764 -1.468891477885000 0.5997360070842803 0.8593804444725603 -1.277912354485914 -0.5874943913148434 -0.2078324626522932 0.5414211667752894 0.08800165376596009 0.2139077036007435 0.3610967563625653 -0.04710394009564549 0.1159552913811569 -0.3018859306726004 0.1514739928256418 0.2808750400393433 0.5118015325602814 
-0.3359260417130297 0.8460283888512505 0.1400083815383269 0.01284591642618223 -0.1041651328861453 0.4593700500392653 0.1854390672440721 -0.06267846829341792 -0.6931701493955111 -0.1076453271047688 -0.1286408274104514 -0.5757896601113158 0.1160575664998766 -0.01612644408195978 0.2444082840995712 -0.4752524238550012 0.4952368201530539 
-0.6066643921914516 0.1218510974960971 0.7656826647916998 0.1863684812684393 -1.176774129904836 -0.3462214688773904 0.08886607983548452 0.7991227863412371 0.1392373735130017 -0.1845410294618445 0.8944719526110005 0.3960350576730412 -0.1602686888821242 -0.04748376946564065 0.2153963545228703 -0.5622276677296029 -0.5228507015399753 
0.1732284144160698 0.7195874540713538 -0.4043951073678270 -0.9268138393269553 0.9477547840622932 0.2481064915780442 -0.1960613463484506 0.2035553470507611 0.06571102804326033 -0.1587431539581889 -0.3399941785394530 0.2422064620979796 0.5257539839618580 -0.1235963232490761 -0.1236045499824683 -0.7173937074371597 -0.1353017590720408 
0.2684268288477784 0.4001135575501477 -0.8474387285515648 0.003337352812855520 0.5696847026110005 0.1705009187394798 -0.02281111664112881 -0.1783354551576965 0.1978864334192656 0.1541166834707809 0.001348508523610580 0.5413126623364636 -0.6597556024051455 -0.005176757175372698 0.2701430902721849 -0.5133435547171745 -0.3500095239354822 
-0.2975085009188278 0.2509316112060387 0.2437726578371355 -0.1423367788010327 0.8197468469604765 -0.4013581753656464 0.5503741960813426 0.5814798283965742 -0.1442382211768008 -0.02006169925792197 -0.5951797003637362 0.04721979954706144 0.1160234297336413 0.1459082928759503 0.06126908068936274 -1.001099986500860 -0.2149426809427517 
