solver_type MCSVM_CS
nr_class 17
label 8 1 0 6 5 13 12 15 16 9 10 3 11 4 7 2 14
nr_feature 199
bias 0.000000000000000
w
-0.9431962930777451 0.8898902157010655 0.4846158471542584 -0.9391929467099445 0.4095062700628206 -0.9986046596568060 -0.06951973427851048 -1.740910148021587 0.2749065916958269 0.6900584745019331 -0.9453964368060997 -0.4964822553340405 -0.06044376901325697 0.5010016787960491 0.5107135888893918 1.496783985066041 0.9362695910305944 
-0.8288791715417316 1.069266087348239 0.6030733039068358 -0.2232244583826153 1.109408381362700 0.1547164202487829 0.2427269735564073 0.2449555489448625 -1.093099523930799 0.03318679536386796 -0.4256282564634863 0.3743977299725212 -0.1793023026407115 0.3294289793897002 0.5098766429944589 -0.2088002751960672 -1.712102874932975 
-1.468161415953647 0.9760328387543601 0.2915643263799689 0.7600125492641921 -1.160455600205973 0.6648864503375325 0.3625052223496769 1.340788101353647 -0.1518850676181842 0.3357290415871623 -1.771468873469132 -1.884451750100141 -0.8255345506972872 -0.04536305083784216 1.063817179787629 0.8656556981289685 0.6463289009390690 
0.03627400470937241 1.395489700406433 -1.505996674421340 0.9099777171793642 0.1610761348373884 0.7994392643769804 0.2468675026157705 -0.7941509986503225 -0.2624017475125510 0.5231297243918754 0.6748787460733743 -0.5686114534475276 0.1317642385818755 -0.5649935847758795 -0.7847523576971804 -0.8311464135461025 0.4331561968784792 
-0.9078490137504435 1.863897687830120 1.220688105098102 0.7825076046464589 1.025643461546954 -0.004149940882737094 -0.5086738148915334 0.9512880928168111 0.01957499152285749 0.2066057696521435 -0.5924441106177434 -0.5700755775971337 -1.084466568756988 0.1686114329762122 -0.4813293709631555 -1.055679095377657 -1.034149653252250 
0.8898253596920429 0.8631998971117657 0.04375283069534579 -0.5510952025793749 0.2679765793372776 -1.063109792935150 0.1382838265002758 -2.161649477992949 1.570411777813527 -0.2014708245476136 0.9287222980829879 -0.1470484012758401 0.2123194453504569 -0.6123549339066130 -0.6510545325293398 0.5225730430387968 -0.04928189185557693 
1.638292561729429 1.145402898367747 -0.1147609084017153 -0.3169570825018243 -2.902344392067918 0.2258891357597134 -0.2400315885548451 -0.8347441280116817 1.016545059316221 -1.049374806704508 1.393866563296115 1.232773375280971 -0.5381015289819271 0.2030340284292787 -1.730118673522927 1.159746208169505 -0.2891167216016592 
0.8378616578132667 -1.052944035689327 -1.203172172747279 0.04818676868089119 1.475641195498859 -0.2374760318625548 -0.2925021478811331 -0.6250957885335315 -0.5226306574094512 -0.05633253512157203 0.6548993927821186 0.6339666770677833 1.353871460432508 -0.2587269979236358 -2.506887095187526 0.8999078518894674 0.8514324581910477 
0.2822780149987463 -3.059701993982707 -0.7969227112723856 1.357875110550625 1.080629597224269 0.08381795507305538 0.1987059064824450 0.6762386497360477 -0.5311045788789466 0.4399185467980256 -0.1828377492429137 -1.437727103004735 0.1032964746192561 0.03115628064332090 0.1080864218596440 1.072281468039125 0.5740097103570834 
0.3391203650488225 2.207939500343603 1.680982386750021 -1.726760827287279 2.364713683061654 0.5033347173208294 -0.5628791033464670 -0.8100058206196822 -0.4779596135269024 -0.2193708094540491 -0.6360582703374033 -1.073384526433822 0.7626962831761943 0.1887605599043818 -0.7631373504278496 -0.4762635253957870 -1.301727648776205 
2.268718484874159 0.8539573476833562 -1.424005245896340 0.2707382786279292 0.2828685900385255 0.1844074142846376 0.4660337807693507 -0.2567897469973986 -0.07210365501700017 -0.3995613036487587 -2.116569186913980 0.07076182952301151 0.9867127884284452 0.2674455926384795 0.2512499875723444 -1.081931490910470 -0.5519334650563253 
-1.631415450414797 1.737025140958544 -1.042333184630173 -0.5628148330250748 0.8903852383670635 -0.03435654026127249 0.4773232164923880 -0.08737214163214149 0.1595144761693994 -0.7044855818972569 1.389460262376290 0.6184269777431705 0.7834607419280699 -0.02450065930472388 -0.7233606742351334 0.002038126657451035 -1.246995115291798 
0.2624622520543069 -1.150890279228324 0.2071690599575348 1.641237578644328 -1.751267587849846 0.2626726604459397 -0.09694486195523716 0.9737806298044090 -0.1531625374250665 0.2395554877193556 0.8840958218515949 0.6149432004550355 -0.4201584839516739 -0.05106221842907145 -0.6860354359366010 -0.1286736196574544 -0.6477216664992098 
1.434177025674488 -0.2642875987220378 -0.4740625425970045 0.8278088320041632 -2.288252229348910 0.7907723996881537 -0.2563340415851153 -0.2146102664280944 0.1780992437881304 0.6254040844407152 -0.07756867181997616 0.8464559444569860 0.4985170426889519 0.3488460562756000 0.1730928982107276 -1.006993435949177 -1.141064740777602 
-1.677840102744768 -1.328930627398098 1.125382426664285 0.7430310126372609 0.3933982723990439 -0.2546236304675226 -0.02863238406955723 1.605109918024404 0.4321875325389820 0.5535885623515236 -2.631968382296959 -0.2606389631438192 -0.5688788627639404 -0.07532064934084638 1.467539422012849 -0.2526185672380912 0.7592150228352105 
-0.1479247220517835 -1.310054989974509 1.371104956522891 -0.5975350632628412 1.359517876647566 0.8850386256246213 -0.8197159424453565 3.150868594295970 0.6388742941458981 0.004114588747757699 -3.360049880285027 0.1701551116740707 0.3910238856870347 -0.04697373941977523 -0.7914331241711803 -0.9330201533621931 0.03600968162679575 
-0.5610706105487913 2.282227280745071 0.3735236316571862 -0.01134030483665100 -0.05276724110376776 -1.157292516791405 -0.5124353214192789 1.078491189577739 -0.9769950665221624 0.5681005668182689 -1.735628639496026 0.5406522806942969 0.8238843408486551 0.1736355761612201 0.3307710324328206 -1.825641652112433 0.6618854538953367 
-0.4657039314506105 -4.554726056694203 2.212395478178182 1.090412224675099 2.956776411990865 -0.3536726791569151 0.8281860010455764 0.6932385345848225 -0.7055026067629406 -0.3203154602226700 -0.09831499726697773 -0.9274241442660992 -0.3378433914210758 0.1385966776931563 1.539614652612291 -2.349699399104551 0.6539826855659830 
0.2657197165057839 0.2338076931240239 -0.5754457456732498 -0.3496049075917499 -1.282288254164257 1.032225622593370 -0.06759119597098635 3.253460443755349 -0.8475653907469886 -0.6005100851592144 1.720127240201066 -0.4670119931624708 0.3778910635528967 1.003000772632888 -0.8632242129757162 -1.838988316414966 -0.9940024505057824 
-0.7751434305488076 1.926991093423311 -0.1638765941402131 0.3028146371844196 -0.1565862441171221 0.5728637933110139 -0.7062100155778460 -1.114168288234472 0.08626550575613330 -0.5105853595573874 -1.507036323756947 0.4960085841240381 0.5158823917647942 -0.2516531152037447 -0.1056360774026455 0.04328576960833862 1.346783673367121 
0.2543443132200324 0.6588864900244772 -0.3410586923577252 0.04675726326980584 -0.9056538747677153 0.7823303348887429 -0.1057353713104731 -0.003133917033738752 -0.6219710206125946 -0.1276243786378848 2.629533735743052 -0.4649317770953560 -1.957737693951590 0.7107439582769120 0.3383311359446596 0.9126902257456082 -1.805770731346191 
0.1219109752602925 1.636498820102089 0.7877808887117339 -1.055251275558732 1.596433172768084 -0.1575208781899323 0.1821241336312679 -0.7495171282828691 -0.6554194878772195 -0.2054784917927449 0.5435482929019606 -0.05961085136838232 -0.9733613565747964 0.04655718012147479 -0.2922603728343604 0.4673932948651333 -1.233826915882969 
1.343165452096654 1.206913400657328 -0.9072479645814553 -1.348304426212492 0.3723881294128881 0.3150949129192963 0.2985101508860237 -3.061618413093462 -0.1096095920495459 -0.1260340914555085 1.017077449559942 0.8850683134161015 0.5671141160221613 0.2316913656713970 -1.343281343487576 -0.2820771733813943 0.9411497136196909 
0.2766639107850021 2.118639359627868 0.3965793134934719 -0.5191135504388998 1.698786829190488 -0.1690239862331339 -0.4192481211070144 1.010537302807136 0.6390599161181568 -0.4734094971311888 -1.048474291150694 0.3281539594109396 -1.275466433543932 0.4428043174055517 -1.680973847465535 -0.5988333119592544 -0.7266818698090117 
0.6031356852053383 -0.7400834036653225 -1.749910445847933 0.1313372577543190 0.2287764999058562 -0.9852848421422645 -0.07671546903469494 3.225796498318365 -0.5263687248086557 -0.3434244670412776 -2.288806729432684 0.8676064329305881 0.8016939001468487 0.1859690671463105 0.4851307461961233 -0.1382217970857501 0.3193697914548611 
1.152426073513194 -0.6544616038301752 0.5139446324410748 0.5527579636393690 0.1457670105876265 -0.6253978459288515 0.8047307569022973 -1.920434000573915 -0.6407506058550725 0.3439200381104691 -0.7981147381582270 -0.1834649248548222 0.7870639102793631 -0.1584263727893769 0.4208625766343377 -0.8372018342789221 1.096778964161635 
-0.4695063633958187 0.1454699600298531 0.007487666526855135 0.4483173915691349 -0.7115461451887548 -0.06462341732130071 -0.2430979337309701 -1.889966159704781 0.2658191264581720 0.4083274337041325 0.04114027730020281 -0.4457991143563621 1.695620816092328 0.2947445034088409 -1.168255602583922 0.7661596563828296 0.9197079048095045 
2.288589457845139 -0.02773653456310672 -0.9863933178459118 -1.914848506853422 -0.07025880656647034 0.1985951820417029 0.2452994737069142 -0.7093481330438424 0.5459030940244595 -0.1903781544557595 0.1773281548145129 0.003272928145864832 0.6824599805009742 0.1287446287650618 -0.3926766932836300 -0.5098329694267462 0.5312802161942594 
-0.4858659230173897 1.551695536542351 -0.6198644475024536 -0.09997562318395760 1.355959864957895 -0.6347042434174920 -0.7770404611904905 0.8866534961182968 0.1458484990419987 0.1401369844717443 0.3673279091668707 0.3154453334081087 -0.5779321172079682 -0.1628509422481667 0.04666630822794633 0.3077381569010382 -1.759238331068316 
-0.2908543601247340 -0.3083102415901699 0.7139182425469318 1.470721418770066 -2.265006792567057 -0.7582294866270374 -0.2004619026828959 1.261121905602695 0.8778654135675730 0.7675621008718179 0.5770841319876693 -1.124256937060366 -0.6769462752138883 0.1048813473165716 0.6504869533186782 -0.1818521901145724 -0.6177233280012979 
0.9697905192846623 1.453795817796455 -0.6036992012442739 -1.316578289575120 1.811534163377132 0.03107313396567410 0.2495093025406487 -2.162974881740782 -0.6026540589351036 0.3616597204332536 0.8035003097886988 -0.2323105539139848 -0.9796915046582237 0.4499858961884031 -0.5278609249163635 -1.305753972093067 1.600674523702026 
1.096756250586759 2.321517838899254 -1.167713704266537 -0.4646881364659458 -0.5887073159072091 0.5473545851842851 0.4375369677628757 0.2650772887474897 -0.1795790256210425 0.1952536793602347 0.5103506575612120 -0.9222737200957062 -1.048130768075034 0.1479287124513764 0.5247717930831125 -0.6983531232316973 -0.9771019799734282 
-0.9426244098465850 -0.02658549848747793 0.03396545291799507 -0.5712769996460304 -1.678842952985546 0.9193250659170183 -0.6303654475391489 1.381602174893253 0.8972496370891640 -0.4163813862955176 0.06158777388997751 0.8762091723102751 0.4397578412364309 -0.4136536017969201 0.5583729223152248 -0.08062358702566663 -0.4077161569464444 
0.9701422866576898 -0.8706129053529227 0.03749444535480567 -1.810131247832846 -0.5710129292226441 -0.3545720625105268 0.04767702712788329 2.451228035763390 0.3377826263173614 -0.5020286755171748 0.04281375536273153 0.02338082480035521 0.4616499987624637 -0.3733074183905439 0.1253364114657063 0.3018095639137937 -0.3176497366995369 
0.5275527793272574 1.605564447478488 0.5816873904016967 0.7737953469329155 -0.5513044373403988 0.3334832297337772 -0.2212256673987056 -0.007047423024944253 -2.034690443987962 0.2025573223673377 -2.162910368281142 0.7956999547863488 0.8257866473448721 0.5552854141065475 -0.9220596834224436 -0.5216626128542203 0.2194881038305538 
0.2768445815461622 -1.146828410453538 -0.4965496576922679 -0.3870230661920242 -0.7855863604268370 -1.024327679981408 -0.6768242650889924 2.193459686733195 1.384875983700622 0.07077483042847223 -0.5014779785225715 -0.4254776267847538 0.5245752362568420 0.01256585196789699 1.142739003666553 1.246864795597145 -1.408604924754473 
-1.911504403434802 -0.2106792441091826 -3.147883122761924 -0.8183335973554960 1.850121911459880 -0.3239845007234484 -0.1237116259325032 2.818096210112238 0.3332253373869680 0.2444741903534897 0.9893074575595964 -0.9007950884948340 0.6449198405449964 0.06147325072350791 2.053926252925728 -1.184926929005000 -0.3737259392492395 
-0.1722797453405544 -0.1219388800768195 -0.1285762223404420 -0.5380571266744508 -0.1329886361082938 -0.07556972410368895 -0.7754225548158148 0.9482582791618278 0.2022119165035145 0.1084664147585735 0.3314163249909393 0.2750281261508936 1.388145042781956 -0.3226292466492389 -0.04237318178616503 -1.143327348305490 0.1996365618532675 
-0.5689583837052801 -1.221012055605046 0.8217127027740572 -0.2334054565241907 -0.3192380414246026 0.5806153016495702 0.01491242391321874 1.764679161758421 1.134303921613165 -0.1101973274601284 0.8518262031339330 -0.8251618857303048 -0.8291862833789795 0.2320526613359766 -0.8746135412108857 -0.9935625522973444 0.5752331511584441 
1.362465392809099 0.3499666745550080 0.6026849240355514 2.126114683478195 -0.5996068514442519 -0.5835167937030237 0.1101537382351236 -1.598350310563897 0.1786346150402184 0.2443251442182763 -1.872715578857578 1.705142121414371 -1.398593836220487 -0.3121878456116761 -0.9941062727528981 -0.4633272735691175 1.142917468937071 
1.448183052927096 -1.254425405249025 1.400438503037163 0.5848642564024010 -0.2352604417494291 0.4276971828695838 -0.7221355449394135 0.4822345882131766 -0.4001049173858057 0.3305262720318583 -0.4743730137610483 0.1461299528612002 -1.157552743731886 0.1400146319288633 -0.6065219950803791 1.265990515939670 -1.375704894314010 
-1.373766186908549 0.8657888145337661 -0.3604240304840960 0.3706643681541230 -0.3980623881680304 -0.2095008110646957 -0.1493838094188274 1.229876268306613 -0.5094908923050312 -0.1674504410056285 -0.6203285392244394 0.1412921599781750 -0.2824012226374720 -0.09100704018628272 0.06620652920928864 0.2112262776678640 1.276760943553272 
0.3481886878031131 -0.2669965247422957 0.7402702362950472 -0.7401624880077381 -1.728488663301326 0.03736070399085759 -0.5126109099382116 0.1009616823941204 -1.165505000910527 0.4470901586688026 0.8244696829021051 1.212458307988828 0.5598416931185527 0.04975686699168243 0.1011001088773654 -0.5157614786949426 0.5080269365645644 
-0.9709135843053674 -0.03210828349970500 -0.1992109473762130 0.8434932767974775 -1.083242205238033 -0.2689183862377154 -0.7870646725789741 0.8392708429155737 0.06899855004938440 0.2746924891529430 0.08798297577011446 -0.5127878652710527 0.8054505332062767 -0.2951128516804639 0.3580102099166539 0.5312641048839308 0.3401958134951486 
1.064700939596353 -0.3020324970987435 0.3495469899893652 -0.4284267729611301 0.1997714558288569 1.236459886570110 -0.1861069983473687 -0.01709917070153801 -0.8163344392703090 -0.04520586102673444 -3.497855097726547 -0.1534171563358141 0.8725508392800013 0.6058086133242265 -1.246239075083049 1.490489470259450 0.8733888737028827 
-1.008046427925595 0.1773089572664679 -2.448773785005330 1.194262776524172 4.415816590933678 -1.018645667069760 -0.1038013180638354 0.8303348719341910 -0.6490901068783792 -0.5705622067986507 -0.3382361325083646 0.2110808418546254 0.1987802532648156 -0.7349890991218070 -0.006933871767412586 -0.5315012560655821 0.3829955794268273 
1.588083337121501 -2.102000159832747 -0.7203983138012554 0.8983532686715162 -0.2299213259111507 0.9114817861233121 -0.3925798023601875 2.212727892317046 0.1784330858290698 -0.2580141142368948 -0.4150158572677587 -0.1693932432755000 -1.210633676325841 -0.3031386065424306 -0.8617123328163263 0.4421668686171096 0.4315611936905431 
-0.6923822510320785 2.791682091316890 -0.7725244939189743 -1.833410599553216 2.027771237063532 -0.5248303936938584 0.6573369170650704 0.2269888301532743 0.5022812287387188 -0.5287504999374828 -2.926765741551972 0.2682957789566326 0.1172119016699490 0.08659375554043275 -0.09174429121724055 0.9061405051383122 -0.2138939747380327 
1.036031953645141 1.180131200800386 0.1204749848512445 0.02610020731086132 -1.142693734736259 -0.01608067041722085 -0.1370386558761237 -2.235545606314141 -0.2746656702012670 0.6360899293095919 -0.3458185703011012 -0.2236810769503472 0.5226399121428608 -0.1510913431805791 0.5086114409194371 -0.3763307083952385 0.8728664073928512 
0.1188827158857271 1.047730600242498 -1.192749210065098 1.084336868601428 -1.154398583037231 -0.1985990524683936 -0.6877847447378409 -1.476856665091300 0.5385813973446921 0.01838811027572390 0.8781225504435772 1.271592626395528 -1.393521646278879 0.2744150223065360 0.03786372992396928 0.06514822006809612 0.7688480601910154 
-0.09531259456551369 0.1059066689739922 -0.7508036026235420 -0.08970488097520497 -0.04783399754020871 0.02879542071087467 -0.2695414951685725 -0.4845302998287459 -0.8038079036716606 0.3429678462461669 1.304666674225014 -0.2812884032557780 0.1928217139446265 0.1733067600517303 0.06523624929191452 1.538915774618473 -0.9297939304335641 
-0.2748733770965453 1.876453067417606 1.034712386401480 0.6962053495402638 -0.9693342231766264 -0.3281390898848548 -0.4563759601022073 -3.696909602378649 0.4923457922974699 -0.1308193862541583 -0.6576608049992971 -0.7476020928758655 2.241905126672617 -0.1630825725030873 0.5854214767643675 0.5057384084808014 -0.007984498303232050 
-0.01736352695599148 -1.455663590325655 1.024423031485920 -0.2540375509015204 0.5081044761147379 0.6390151514348674 -0.6373144638139149 -2.177516034856327 0.4616712365389471 0.7945930951343910 -0.04374710976618392 1.152887284944602 -0.1966284706314946 0.4130287680129976 -0.7392674043153932 -0.08426123478716785 0.6120763426871587 
-0.9783904015859677 0.9175132817577327 -0.2852573246429744 0.04701066597054043 -0.1943027661154241 -0.8169026981616643 0.004804697113744199 -0.3573255580747666 0.2723465667223110 0.2725844491875681 0.5698046278621913 -1.753235395823210 1.025415794063345 -0.3285868808784767 0.8958833181817472 0.9866876444041948 -0.2780500199808965 
-1.163424011199438 0.9937989460193738 -1.410585854507042 -0.8587736561915337 0.4160651098115750 0.2503666591978793 0.2703828113503940 1.624265821328290 0.08712117880721752 0.01719165601735387 0.2885604973262677 -0.1927725008109788 -0.3269600322271641 -0.3875373637192672 -0.05660206288468872 -0.4017350197568999 0.8506378214386383 
0.2895746524576445 -1.693554340457572 0.1420541554434008 0.6831073458999350 0.9106760123247638 0.2879578788758108 0.6420290673094114 -0.7633908603484475 0.5558356410428085 0.01873621061779222 -1.542147257841353 0.5487726178283410 0.8158247455727106 -0.04714598306625888 -1.828153725776891 -0.5686070495853227 1.548430889703226 
-0.07835826638928770 1.990418205211488 0.4737861735415970 0.8207520320659248 -1.444769666577894 0.8817254761436656 0.3823778659389500 0.1821105965306355 -0.5784931539883270 -1.190180078667685 -0.2170707280299612 -1.416642687184458 0.1736799572037040 -0.4712940745472369 -0.4256993369900792 0.4494483746687886 0.4682093110701834 
1.083067684062869 -1.411275900237193 -1.442778367016805 0.05176556511240504 -0.6104858667505391 -0.5526982953227420 0.4023761318081088 -0.5288973999498300 -0.6896165994070493 0.1307774363883377 0.5404998283179561 0.6110587940831773 0.3030197866819615 -0.08774254124596881 0.5185147424066611 1.088422611087334 0.5939923899813281 
-0.5043407017599187 -0.4248093999964874 -0.9413855926797827 1.074888454123707 1.766500492979763 0.2960667794368316 -0.5922259634315055 -1.617260968542077 0.3004076291783009 0.3473327682469901 0.09494572381723784 0.1850696472209534 0.4409681711010973 0.1274059774590434 -0.05892009991827954 -0.02426174268757840 -0.4703811745483250 
1.610776174969119 1.334665980470557 -0.1895743358989081 -0.7026785383991104 0.3468828579566554 0.6213071814626656 0.3087243275471332 -0.4742978519680965 0.8135641321124330 0.4534069323975866 0.3152883624866472 -1.288443366008983 -0.2687570157650590 0.1767877400977452 -2.466891443775912 -0.8735693445859579 0.2828082069014710 
-0.1412868584251203 1.310655156416650 -0.5190627210711427 -0.9033803929896587 -0.7796421996765277 -0.03974029952948005 0.4675986451780075 1.022196594814776 0.4097415656950739 0.1631102047426160 0.4118172453865409 -0.6524204688082736 -0.5425347307516092 -0.2340579141653406 -0.4400750750675375 -0.1882454163056461 0.6553266645566876 
-0.6266489139464467 1.399758842870142 1.094073376645406 -0.7525784580198938 2.983990070145569 0.1026936701189645 -0.7395374142336214 -1.504099212267966 -0.06626619330357038 -0.8199830330137373 -1.653262356957308 -0.3168875871669565 0.5804068071891793 0.4831489844233654 -0.2658639082264145 -0.2054466456705104 0.3065019714138118 
-1.936240301962710 -0.3820401238193600 -0.02043114549298278 -0.5873473084826233 0.2328578732278595 1.061917681849808 -0.3839703895179270 -0.2543804315195259 0.6941430341648689 -0.4973217749406485 0.9953795842721288 0.9644260373138871 -0.07624479854290513 -0.7860154247764011 0.3334809655505054 0.9854704412887952 -0.3436839186127748 
-1.132700013752310 0.6592176658910428 2.651996390635974 0.3011649239822186 -2.469589605628053 -1.171676890895766 -0.09038781394684658 2.004181753042914 -0.6135582692873076 -0.2483074700791442 0.6329235837378778 0.4602152066214208 -0.6479291814455570 0.2078444187330250 -0.1448203236028506 0.05067449043267290 -0.4492488644393326 
0.9090077333143068 -1.656758346652429 0.4275651001920083 0.1729826546273685 -1.440359298420000 0.01602975142601571 -0.7088176658351186 2.219998765766831 -0.7065043300169079 0.1835249406948540 0.6436058325661170 1.075841534244235 0.9850508578689877 -0.06757239124996817 -0.6390401583111347 -1.703705060343641 0.2891500801284734 
-0.1005246962350541 1.230833059306062 -0.02898975787848693 1.072919269522488 0.4200218981989295 0.06867097755011616 -0.2541835159950623 -1.554079110169185 0.03107643786802231 -0.8783094908095479 0.1839887487851246 -0.7960344813949117 1.650511974214747 -0.2129620982925188 -0.8016745598478103 -1.228142773765202 1.196878118942317 
-1.803768405654485 1.372450933677091 -0.6421934718789344 -0.6653179037395748 -2.640977879352155 1.339370910543168 0.2471078664140419 1.508060667867383 0.3096581212364882 0.5266699112670195 -0.1138413400427226 0.7078644625067759 -0.7352264528217785 0.3203905047615727 -0.03124749324140779 0.7643699114105912 -0.4633703429530221 
0.06972153021551383 2.798207911655895 -0.6142125159727838 0.2460193001025577 -0.2980038507972120 -0.1333788444665456 -0.6467443690150290 -1.080163132310913 -0.3170777604212043 -0.5190180905309530 1.371795386278692 0.3118709566383209 -2.547668961315005 0.06685418737884825 0.2875898351696626 0.4137922208407083 0.5904161965495070 
-1.722471062740278 0.5144108344172588 -0.3839577734709264 0.1115118513447145 -1.034463659233960 -1.478775685418623 -0.06207035220578076 2.307817359551382 0.4476682383544163 -0.4203011525764447 -0.2281630262144459 -0.4643350059513470 0.6341682409031436 0.2309492512146137 0.1150546027537262 0.6380088992531744 0.7949484400193549 
-0.7444342546529050 0.2393616707902106 -1.300779155638542 1.638216418959392 -1.739246271166548 -0.02516998957733563 -0.5195064023935540 2.025737126743024 -0.2602915535165527 0.5270394646345498 -0.7762026250084331 -1.108167238304740 1.828586501985726 0.2101886768053273 1.044535773206421 -0.3706100427457357 -0.6692581001203298 
-0.1985605021261835 -1.385321769822455 -1.257671382958591 1.664320420439072 1.127033287295554 -0.08014386351299970 -0.2602773800240338 0.1320458442513237 0.5008151794308352 -0.4082511512527498 1.189854940690122 0.3223444689772304 -0.3982430329823070 -0.2906978388144200 0.2362222214637400 0.2677068304651203 -1.161176271519286 
0.06427251968438522 1.000477412853081 0.4941927748620478 -0.4934982481393698 0.3742108819764424 -0.9758123179985491 -0.3575126142900342 -2.237100373154463 0.8698516630657214 -0.3757946961888372 -0.4404964511356954 0.4906388050317344 1.110317844317647 0.3524483911515968 -0.9107865123914730 -0.1548998071190929 1.189490727474856 
-1.262479273150919 -1.666913220195785 0.2858634480453881 0.7512063736418912 2.246183846851720 1.023268775237619 0.6147410462165258 0.08431174077195677 0.001916641937206750 -0.3803522546218142 -2.030727493919015 0.1673043796790342 -0.05583174023387274 0.06111990300193020 0.9181068113237612 -0.7633722213217620 0.005653236736126929 
0.7497217804453997 0.02640759848128459 -0.6957883739050060 0.6405850172902321 0.3433157677787214 0.4599584345261494 -1.177830316996938 0.6293431725590771 0.9616156290229573 0.1196827989728138 -2.385430332349392 0.2280320857492176 -0.1449074907965513 -0.7699696419645407 0.3114153884125858 1.408529526905242 -0.7046810441312360 
0.6458314959866485 -1.537698897431269 1.944051197718199 0.2734192180734438 -0.7104730949222693 0.7325521104728410 -0.5169003760575828 0.04758512679705687 -0.04535897956165972 0.3093241219211673 -0.9199592312801699 0.3617609577859616 0.1829887035069776 -0.3724303176049534 -0.06082731510715798 0.02026634712571783 -0.3541310674229375 
-2.015520175315706 0.3128623147733334 0.4429160188266536 -0.4016434662014774 -0.05593850641809673 -0.08029812970716581 -0.03466733408894173 -0.5711190915841824 0.3551720286485414 0.009945809231930237 1.361826037759842 -1.254603556311556 1.307803197558465 0.1467227607187447 -0.2108851161921924 1.201944447007956 -0.5145172387060959 
0.6158958018224984 -0.3887611246258670 -0.2063428940318561 -0.1563936500670804 -0.7498641864889278 -0.1383292676444097 0.6486545976544091 2.201979723924501 -0.7388423014837797 0.1008707318847728 0.3022387813509291 0.2083092321918998 -0.1438294900871534 -0.4728410801226227 -0.9040760948971855 0.3714334853279249 -0.5501022647080472 
0.7595392408561804 -0.3675744053046195 -0.4045767559742139 0.7750166278881145 0.3590687756810124 0.5505427895626829 0.5026995635985343 -1.826553705033651 0.1492099653135263 -0.04992719816507500 -0.5668161731062088 -0.1799557745924206 0.05248360470312972 0.7606715679464017 -0.07516131828168790 -0.2523505030924674 -0.1863163019992203 
-0.8303831057245518 2.802044154244859 -1.103881295671279 1.139029555298688 -0.9276763029463561 -0.5498636188912486 0.08808717871310177 1.033228519777175 -0.1612912027949166 -0.07138734513379683 1.661265655972513 -1.652141082144734 -1.656704633733418 0.1804667738712728 -0.9424268938399883 1.078098782439116 -0.08646513943647634 
-1.013106621935201 0.3991684001197027 -0.7813678946287609 1.878339103394550 2.322249278301640 0.3805638314306634 -0.3200429696649610 -0.3613911049145194 0.08849113372123124 -0.1588267008113355 0.3377491142077931 -0.6297628430138985 0.1939181867801219 -0.3828093298592106 0.4990613632108776 -0.8254841765037464 -1.626748769834918 
-0.1650148421762168 -0.9025255724367579 -0.1730158161884709 0.7172824228660497 -0.7906062628541543 0.5205837466185538 -0.04727979698313941 -1.052743749180907 0.5306344972475742 0.3878704401260322 1.626188223423649 0.04401787745059400 -1.115909098367389 0.07633756666169507 0.08599462474167954 0.5527885750372202 -0.2946028359859806 
0.01346279395256621 -0.2632171325974678 0.4948905849705713 -0.02562020193283291 1.285813486698685 -0.4159288751998335 0.1301507275416052 -0.6038144164714567 -0.1294644193355196 0.6293717588929233 1.538002369126416 0.3696204558998356 -0.6487601358663826 -0.3722093275687510 -0.1211014180897416 -0.5127530912070632 -1.368443158813541 
-0.5038345447720245 -1.026040369711883 -0.07021654057813925 1.049749940388948 0.3371880896859072 0.8977048569649244 0.3594765332561380 0.7839320717019208 -0.2230907116595195 0.6490837000068232 -1.338107234213992 0.4739513770979901 0.2960558724968461 -0.06759766369906460 0.6933189665369871 -0.8633425054144471 -1.448231838087408 
-1.038271418057452 0.6465452959741910 0.9241311094624405 -1.423375144057294 -0.7404429144422835 0.3517069605053130 0.1308692672365733 -0.05969036509772947 -0.1909325546844788 0.5177950083242904 2.608950089605429 -0.1583373871302544 0.7354201612647155 0.6278848243754089 -0.3550429288140327 -1.462436058947179 -1.114773945517715 
-2.268963475003159 -0.4924219219197058 -0.2655842456414940 -0.2635623945348227 2.265715243105532 0.6288318795689656 -0.01360453381073240 -1.032234908148689 0.2490444578881650 0.8640715213745213 0.4621122621642378 -0.7147620128425276 -0.9993946863995110 0.4238622878615933 1.316521437584197 -0.4352914000427459 0.2756604887961759 
0.7203196403561639 1.151555049528923 -1.215610508023818 -0.7323828568867246 -0.3764483139336232 0.08028081337080496 -0.2261960401727927 0.5668411473482726 -0.3021645606938622 -0.9539489182121627 1.260868186526297 0.2304831204662263 -1.750747579693563 0.5284701418817972 0.1760259024365890 0.9609541388908046 -0.1182993631893610 
0.5726916896698091 0.4453856224316542 0.2489170019809317 0.6255223328795436 1.294943755337443 0.1472560386734428 -0.5896816861248835 0.1351468675191156 -1.211183474449216 -0.1364303890198073 -0.9963553510931697 -0.09225863108181136 -0.3326564203415772 -0.01677952472005706 0.6391195425390078 -0.2637256940598471 -0.4699116801405789 
1.666924055630215 1.018866411505585 1.129594322636021 -1.154950543734991 -0.2566885443619607 -0.3574601447916629 0.4220173228714500 -0.7611211078704000 -0.02913574622939659 -0.1949609778481239 0.006988714849658582 -0.6553495263409106 0.5180002043548784 -0.3765772990740216 0.5769824937583042 -0.4555452808875953 -1.097584354467008 
-0.9917112779188957 2.763823558785015 2.401875831755203 1.297677642323701 -0.3113939361715671 -1.579894091180685 0.2451233863995666 -3.139705495940446 0.1114420449461524 0.1423096587821953 0.04249586526344356 -0.8418838662121491 -0.07888447028106295 -0.3130148301824689 0.9531163822388969 -0.6966265699043375 -0.004749832702545618 
-0.04842165516462541 -0.1856065920255249 1.862085295909497 1.216623325537129 -1.795463102141329 -0.004479992367112720 -0.02492090461314693 -0.7397985544497931 -0.9929500298319167 -0.2205222640554448 -0.4246158947821964 0.6510954586406429 -0.4633381573706354 0.3594547116695105 0.2368532501052203 0.1085857726746873 0.4654193322650441 
0.2439679136417752 -0.4718835863420156 -0.4704754219732371 -2.215166163912498 2.154115634025251 0.02132450166402910 -0.01880127966635785 -0.9155006737209646 -0.01921560972364822 -0.2857088822900223 -0.7850054582102831 0.9929813785499108 1.409218917347036 0.3719503220450349 0.4150144772190591 -0.2706915484928770 -0.1561245201601776 
0.3608696288990402 -0.5212967711312203 1.639492286243806 0.004880132775783777 0.3189069546386676 -0.5754893665792497 -0.1958929562076495 0.9200244314408990 -0.6623239829448773 -1.001057081281848 0.1963529195520602 0.6879638986659642 0.6992354758726816 -0.08385300121298374 -1.292959432521854 0.7615526038608659 -1.256405740070041 
-0.6641343688000236 -1.770466219662948 1.297841745664084 0.004039453352637927 0.03705022262071575 -0.08385862850624223 -0.3762387655546072 -3.822323584072397 0.9602452579749530 0.6714711554438993 1.832016017552598 0.9878091302441588 -0.2670189747966968 -0.5628674211337510 1.934136254762133 -0.5449451869091163 0.3672439118206651 
0.08900941848118928 0.5692873296220692 0.4121317188484652 0.5259637676317231 0.5969542269400179 -0.6726353242090194 -0.04782458712674235 -1.477770545167847 0.9867546176802665 0.04538102939829005 0.7800986409412353 0.8905601389932716 0.8176721706215442 -0.5439883265683300 -1.084926873050735 -1.606107334262922 -0.2805600687724937 
-0.2414146033225150 -1.228917838318028 -0.3645052763077979 -0.6388513639668182 0.6701953202483328 -0.02269012437541344 0.3406295566036202 2.433259450900016 -0.3465841140881646 0.3502869791468009 0.6178095267109855 -0.1299265863091465 0.6539118216874551 -0.3493535109996827 -0.3235165616188053 -1.235398196129875 -0.1849344798609492 
-0.7752069149507714 -0.5245687072815052 -0.3907129211898361 0.5988817961393377 1.114564829116258 -0.3583703467955446 0.01392822744047841 -1.558636494975077 -1.043347589386828 0.1482787666544427 2.982247272595290 0.8575376356227593 -0.5549644140194975 -0.02926906472929193 -0.04665746514279068 -1.416872719030394 0.9831681099329802 
-0.1376954072559799 -1.086029949324767 -1.671129110692597 -0.04581078730084491 2.317977317497352 -0.6177401794795220 -0.5599395684056165 -2.289596829290992 -0.1114179198213660 0.02960122944760046 1.683317364649913 1.320620663049043 0.2079372543880925 0.3607023526563800 0.5468969221636640 0.9105517534145813 -0.8582451056949582 
1.126610760442909 -1.208520247947834 1.429439800757907 -1.208156931651972 0.9263848815797592 -0.7654359470623734 0.04384868659588735 0.6607398878471065 0.4539086993001731 -0.2137496467591331 -0.6002980450463632 -0.2563136964337080 1.351617256085386 0.003312708130957941 -1.645601109990420 -0.8316772350991426 0.7338901792508453 
0.2034156986523605 3.027756837722726 0.7298331583926095 -0.4316105384303684 2.370818813109956 0.2604193803462250 -0.01635958560551400 -2.003219982832040 -0.1645527207364229 -0.4720811760707843 -1.622103220378036 -0.8052522670409665 -0.3598618268333804 -0.7200879524150089 0.7946479840294589 -0.2309822159785283 -0.5607803859323174 
-0.7045260222772038 0.9596372296848128 0.6122187303565128 -1.236585212885944 -1.054756330797807 0.1743087344970450 -0.2765867928145288 1.538924460862758 -0.3618866008587388 0.2628445121190686 -0.4156152624432424 -0.09462243515966426 0.8208964514210019 -0.1150820766738751 0.7924085368078860 -1.202267661103313 0.3006897392652198 
-0.5122082888241298 0.5113626520419211 -1.194122825089259 0.4706501504872694 -1.455852357374203 -0.6322160070901383 0.1326707180552890 2.483575265126696 0.2615431807711949 0.2818375937206630 0.1674568115444636 0.2910718389661579 -0.2770601047229427 -0.5358713807436579 1.220598112227961 -0.08837606403527386 -1.125059295061991 
-0.7131475657061805 0.03419053846548751 -0.5349504581833201 0.8668282097299492 -0.7272012236434098 1.009433325212126 0.2355739853634229 1.307557118590724 0.3324966958371260 -0.2725485087009291 1.088742713591060 -1.105648785360188 0.07833509033955241 -0.9406073549846714 -0.7908212854820245 1.210059366018629 -1.078291861087357 
-0.04348178435021439 -0.9349777308227153 0.04040437732052791 -1.439015690343936 0.7629337382011323 0.1095524603322384 0.2034881704582511 -3.765151442093335 0.2314222571020116 -0.3830641170811276 2.696916999702294 0.8634622410605970 0.9577536998923440 0.7066131354866897 -0.3704999056009255 0.8453767535232181 -0.4817331627870251 
0.2895618527354754 0.1760526050550945 -0.3713903276595830 1.348816666767163 1.107371281858008 -0.5521372420649034 0.2310281235612306 -0.6976252885040208 0.1734245812000812 -0.1686548495109778 -0.6051769816484420 0.7421179656649258 -0.04304350398464916 0.4087579509902184 0.05269234193490538 -0.9944626163717731 -1.097332560022729 
-1.038255677512585 -0.1922115623378793 1.062032210411872 -1.775131848325904 2.031268246937593 0.5409984273966331 0.3107667856258322 -0.7887606099922504 -0.07007050831240609 0.008172797706113509 -1.877981655635247 0.7547116957487929 0.001174241673374228 0.4503550036114304 0.6688697056735601 0.3214865021375560 -0.4074237548064461 
-0.3630896297066036 -2.421050223187726 1.024563583504435 0.002556952147595954 -0.6122592754227328 -0.4608596449288741 0.3112900710839567 0.4918871238683234 -1.277858327206656 -0.02967088546288529 1.359041297825879 1.500538456786482 1.173220632535027 -0.3632852647534588 0.8376826720765335 -1.235660244599866 0.06295270544058337 
-0.4208354848593330 -0.6992593828807204 -0.2404975425521423 1.613059754466618 -1.448617334494254 0.1694438944402116 0.2248276420393413 1.353629338922269 -0.8065076244664042 -0.04458072990305718 0.9446027595886481 -0.8539051874643003 0.1337114539044528 -0.1658970742143101 0.09843701832153214 0.2171946247498704 -0.07480612559842016 
2.869121492134536 -2.949721359213591 -0.4213802122107100 -1.399183065374581 -1.357490887262422 0.2903474812171686 -0.07779265036174042 1.421616705403567 0.8455090813129085 0.4181099558679984 0.6421826821256045 0.8027200409833334 0.2193301958778533 0.2081696549605604 0.7856298315938669 -1.704938711188807 -0.5922302358655842 
-0.7197695546404954 0.9286528741561979 0.6691300798016738 -1.153240686342169 1.750396996378586 -0.2657895823653683 0.07903549570542481 -0.4868092565891493 0.04360814228686366 -0.2532033366056944 -0.9826659138781927 -1.548808821407311 -0.3418592358994292 0.5659560855626177 -0.3591877762696556 1.361582632369558 0.7129718577364982 
0.1652704574302928 1.735263626612309 0.2941540892899806 0.08493879450568928 -2.057485201683822 -0.05305361537617611 0.2431886129766774 1.153400284957589 0.6609796020677627 0.04115398858652948 -2.294649693679303 -0.1611777017965360 0.2471488757195684 0.2390770855347696 -0.2877270207282675 -0.3362253699723852 0.3257431855553227 
-1.427879014009730 0.5907747990399710 0.2419004598337554 -0.4760179746199970 1.194208923835837 0.08061129969352133 -0.8361737491905766 3.469347836517693 -0.2417279893329958 0.05694492975678347 -2.149693606867276 -0.3039053025334308 -0.4636141790608355 0.3614878255773483 -0.6421423909511140 0.6768670177098307 -0.1309888853987711 
-0.2679779508917765 1.316238075595615 0.03120793695004604 -0.6449793176835360 -1.752791538384965 0.4835865840647898 0.4471760854861563 -0.6093461394625151 -0.9200471884448574 -0.4016559066834519 0.6819765484755108 0.7135467424624129 -0.4056644192956582 0.2509835921846799 -0.7045216923735526 1.191214726802233 0.5910538611988753 
-0.09930229858760470 2.057019551178297 0.2463975459562840 -0.7952125054993315 -0.4482067716271963 0.8923332720839260 -0.1895594543635575 1.008182555093544 -0.8924369571833353 -0.06546375612142956 -0.09311970326968007 -0.3067314094897205 0.07188100797911466 -0.1373181307703571 -1.109937774073339 0.1772681207332719 -0.3157932920389202 
0.3563488092775325 0.3772817191534368 -2.773756747337784 0.9819551219512281 -1.909418131288297 0.1315270116639293 -0.06426657657265668 0.1245645586312802 0.8224118564210690 0.2908506432720356 1.114089491616611 -0.08692562809996530 0.7660225186606582 -0.3477487494149706 -0.6962035329104043 0.9694357655413687 -0.05616813056515681 
-0.7463702674509988 0.008893206308230380 0.4672393854489206 -2.008861338856856 1.575297309635329 -0.1278786670678605 -0.4693752079897808 -1.513822945541085 -0.1377355533730705 0.03661440222131346 1.142275089460329 0.6601995976978913 0.3967340886325927 -0.08691584023493175 -0.5511562858330012 1.417366595988164 -0.06250356904518237 
1.387295505107262 1.195909069055767 -2.247890528081417 1.691968806975884 -2.495728511614050 0.2825055048201819 0.3388281682707124 0.3042630469713466 -0.7500824192439304 -0.1246328268932292 0.4722706577439648 -1.705640143233053 -0.03492696137880232 0.3835891027377882 0.1000062233672832 0.7369802508086720 0.4652850545856160 
0.6368248099042801 -1.745360716043567 0.8957539118207766 -1.618496952357936 0.1649076901457776 -0.5067933378578868 -0.03732259149745242 1.536920165015674 0.1691476204695023 -0.2234486911219414 0.09040090448978300 0.3861283308347416 1.338503783668329 0.03430361136878070 -1.273274944232432 0.3757157425924277 -0.2239093371988505 
0.3401832003865610 1.821010741367728 -1.488925512957869 0.002607206949028290 0.2530612882715809 0.5142258995277745 0.1783863768674782 -3.232471902749294 0.6033878909708247 0.3175425653719154 1.001512597024777 -1.071162495550365 -0.5166115949595942 0.06419142249788481 -0.04489952000335180 0.1355284103931845 1.122433426591766 
-0.4345534747334748 -1.994325477379807 -1.072928455194547 0.4304694261111743 -0.5212913285709287 0.2652832160716680 -0.3689759953837686 0.3827511106946411 0.2875919277829492 -0.1035877058294879 2.706424043537383 -1.593352154759379 -0.7094341167418002 0.2189287780342163 0.2055359137244474 2.733129786534232 -0.4316654938975306 
0.6715972634873060 -1.426187210638685 1.596873780175875 0.3438841256050059 -0.4420493600006555 -0.3741355104241529 0.3217066621045516 0.2230622839591009 -0.4654427745852394 0.1471807991983962 -0.4575702466716143 -0.6649899009095632 -0.1943980510658153 -0.1866950497685395 0.6002119709493830 -0.5093521392979894 0.8163033578826618 
-1.076270576371513 0.6218877131068160 0.2414797517089849 1.724789660865816 1.557715073118452 -0.7934039901541323 -0.1350215239969155 0.3049988660525067 -0.5118993525280651 -0.1212882834254198 1.379879385083941 -1.473256833669603 -1.205907029489035 -0.4310162841355553 0.3715262148548261 -0.03995847687614536 -0.4142543141449526 
0.09821294416372923 -2.384366592731024 0.5247012319863568 -1.540275074391170 1.227139251143434 -0.1550278991640478 -0.02613936917011025 2.696837365710914 0.2878555298543987 -0.01081661943628128 -0.2799695636353312 -1.104809678350327 0.4672172291839477 0.06274462739974934 -0.5841289856914481 0.9053725906647099 -0.1845469875375132 
1.169091648091339 -1.378070957209250 0.4981925160838081 -1.017326213135035 -2.665903097678801 0.07806645857139560 0.4388131843535424 1.410843220920339 0.3734588090102029 0.2663715620091405 0.3791135693206237 0.8631884255643592 -0.7452100312825345 -0.1128483546349879 0.9306569894644168 -0.9009558216453223 0.4125180921968065 
-0.9657915665993427 -0.6799486607333635 1.236193543809303 0.2545685656979780 0.3662173722587949 0.1447093661753476 -0.1175870269712844 1.267119036925808 -0.8218463964109665 -0.08468187409612796 -0.01346462737983055 -0.08827702156505286 -0.1887644811241797 0.5818536612694039 0.03473277453683082 -1.905649972390321 0.9806173065970221 
-1.157888077171109 0.9070135752005748 0.2117754030177389 0.08873565372217426 0.5767461532397397 -1.486552390442760 -0.3501688812792264 -0.9157003249547171 0.7018510363087356 0.7407196523864428 1.567983463921158 -1.737709510423061 0.1262606057026364 -0.1156130401609348 0.2487149550984104 0.1986106887281651 0.3952210371060441 
-0.3624123264475155 0.6664925741624262 1.622584093262801 1.201510744057955 -0.6263123457094598 0.1262822238424134 0.5771046511194763 -2.205862312506798 -1.085449440957426 0.4364589201979427 -1.061816206428879 -0.2997783163965079 -1.599247844049911 0.2309619928235527 0.7410664396776474 1.727002616564903 -0.08858546321262090 
1.573176740366975 -4.852649701773052 1.299144698439609 0.4591869262887742 1.916432756459410 -0.03420721213109362 -0.08411066211761313 -1.038459229090882 -0.1325871163818156 0.2081487764171667 -0.9757168561532769 -0.6212459074835600 -0.3861127472501149 0.6580220322708531 0.3914783431953022 1.222545290411669 0.3969538685316966 
1.188774438154044 0.08825794186674159 0.6138499805860562 -0.05575209603343533 -0.03011631262259166 -0.9229536130014159 0.2823983741615045 1.868742245337700 -0.1612044031150341 0.4584087471140699 -0.9378426180242526 -0.9790872072446308 -0.8578124991202469 -0.1935065631554993 -0.7811187975789929 -0.3844630008327767 0.8034253835087409 
1.904067910080679 -0.3875454137840690 0.1935751527709505 -0.6579406031469043 -0.5927408299990964 -0.5130911869949444 -0.2714575956742307 -0.1530086062012923 -0.1248649002269158 0.4736916249987790 0.8429239094184615 -0.1836244095047217 -0.4584778862136458 0.1627737943678204 -1.038689153067337 0.08845740998833639 0.7159507831881126 
-0.4161321305888581 3.239646648225862 0.6029534018906062 -1.282110498690743 -0.4132539978448926 0.7691755080238051 -0.02963214294998214 -0.1787283031283679 -0.04926641603334307 -0.1248489822886115 -1.389272365746997 0.2001227562031448 0.2534577367833497 -0.4870112965293880 -0.7221237963457899 -0.1402820822854752 0.1673059613056944 
-1.251336088289470 1.096415213314274 -1.793552914274515 -1.807407367123791 -0.02989151680252194 1.125215211578488 0.08544037564762026 0.8823274102505497 0.4553037778525867 -0.2392949734321814 -1.219036634338949 0.2662329764613068 1.047437698147253 0.5442197235857229 1.156690145516903 -0.7451123709790218 0.4263493328857261 
-0.2954623802204284 -2.328424623370401 -0.5883761388101613 0.2512841911893570 0.4091447782321739 -0.04419299691220419 -0.5787089390734889 0.7102531962766196 0.1083230892311145 -0.7603673753112455 1.049416364339398 0.6580941004270741 0.2127822242995796 0.3716903190275027 0.3857807806361993 -0.01271345572659871 0.4514768657655613 
1.111725066076879 1.984774525906842 -0.03045005230970976 -1.888128518008663 -1.290961636159479 0.5051667989782784 -0.05991435522010159 -0.7865608381263071 -0.01592026503575307 0.2204720548843080 -0.6781358428045207 0.7814298881297167 -0.5332004068552657 0.1665093357607390 0.4444264863899580 -0.6942377740599645 0.7630055324530172 
2.174566409938745 0.8746322961446918 -1.445108742746423 0.6134650780593259 -1.548773870153062 0.05182311689670852 -0.3245344878426744 -2.474401392270230 -0.9364295465630954 0.6854152949576486 -0.2250177209179069 -0.9103307209384123 0.8460523908919568 -0.03347453798809028 1.218472165103035 0.08204381089382579 1.351600456533886 
-0.3918676105390431 -2.163582181584017 -0.2303617247522916 0.6615316734312943 -0.3142672379716219 -0.4310244661223505 0.6909567034311324 -0.1658746927130146 -0.3230890399185704 -0.4404413767388697 1.285319153177319 0.4730465753323235 -0.6532563812992626 0.1080438137587052 0.3210844699871001 0.6341889516031971 0.9395933709179811 
-0.9126613851300378 -1.642573411574651 0.4971603517766456 -0.03804948141981894 0.1813951294803304 -0.2391387505461987 -0.07998558069549047 -0.6828157959727595 1.381609263962564 -0.1156356988685347 0.6677631022206798 0.1275589704042262 0.5558914893723363 0.1244297196906355 -0.3014566886456621 1.175624281864013 -0.6991155159182757 
1.157190538196885 -0.4110437930684522 -0.4862002489024633 0.6759300231189685 0.5536709633248080 -0.5430705195408846 0.01378486917039193 -2.536463006249659 -0.9289719833357474 0.3001560110945561 0.8836154858914508 0.5229514787328791 -0.7463487464636771 0.1751225868255946 -0.5788498074766906 0.2322126892331056 1.716313459448917 
0.7494817022966865 -0.5459614945987868 -0.6986257796213302 0.5946194056111657 0.6727603488213416 0.4725153575301624 0.5457928712625074 0.8088334761026371 0.3112980020447844 0.2882169432489625 -1.995610897900557 -0.9396686574206187 1.520757967417139 -0.1382792937767242 0.2091956613863437 -1.249078796417047 -0.6062468159866339 
1.256097900352337 -0.7517874530438595 0.1901027651241036 -0.8731629009546173 -0.3244001552645002 1.182024021335450 -0.08958016212607976 1.222220607264383 -1.386830062478403 0.3422030260199143 -0.3952199461043258 -0.3690240306623215 0.7522255675957985 -0.4310720594082869 0.6814491992064355 -0.2466467284940080 -0.7585995883620025 
0.9738095605140770 -2.110114721079132 1.386135331764787 1.212512434540534 -2.543836466400833 0.4452399062204235 0.3442281359191696 -0.3457638049388433 0.1985547872725829 0.07973103684071725 0.4208355858807785 -1.024497194971630 -0.4492749176280763 0.6982194068818578 -0.5199182850868560 0.5449693218515296 0.6891698824188806 
1.527150674171151 0.5531716339435764 0.3116061510447142 -1.151824955625962 0.6008882308162704 -0.2035754780992217 -0.7467081473827960 0.1237394293377864 0.8446627043405591 0.4268068989944422 -1.952437574375060 0.2573037851641549 0.1435186867416194 -0.3118939168014994 0.4065559644027085 -1.450997488667909 0.6220334019954894 
-0.5946885725856061 2.612296485523814 1.160138960918495 0.4160333748219493 0.08472000771963870 -0.2875113164996244 0.04832126158132891 -1.248005435016209 0.7777330715349287 -0.4537845416815279 -0.4546897806699916 -0.06759508469302661 0.1842194422091481 -0.2319980182834749 -0.8817832934435760 0.1508171805111187 -1.214223741947381 
-1.403649106336273 -2.808938590820662 0.2765460024768477 -0.2989082538345438 -0.1773935684760068 -1.410524117244710 -0.5589992074980927 1.936915135086097 0.05747103764038015 0.2635190224783799 0.7527641923710475 0.9036858173525384 -0.5918279655626129 0.1218710505706480 0.1974905219875791 0.3597661721459014 2.380211857663429 
-0.3612954447143127 2.168019327541535 -1.234968250435974 0.5490976398382977 1.590501612292752 0.1905985165597702 0.2804842141595572 -1.848952956977238 -1.049304436941790 -0.5471450966929077 0.1937568161270500 0.4770964731893405 -0.7213743585582256 0.1595897745617147 -0.06667028672096738 0.4771833501635764 -0.2566168933921983 
-0.8199722999257572 0.5087582929794293 -0.8796013247454583 0.3447579366284959 -0.9382922993569862 0.5580392097980589 0.3019699324384360 -0.9534669237442847 0.5294641782335588 -0.5626421217918425 0.8691364293786203 0.2382048964948827 -0.4231517800549360 0.3675544055518951 0.3721637285800313 0.1782698018676571 0.3088079376681923 
1.262448118292908 1.218863329094481 0.7349116162040944 -0.6167847088135157 0.4999485978837249 -0.1678607401250711 0.1330812102396541 -1.873141891200042 -0.5024135374394673 0.03482747382536160 0.4173074167783078 -0.5898199299024308 -0.2694615848720531 -0.3688287159106970 -0.2448305653336892 0.6239336606305332 -0.2921797493521235 
1.138293492996655 -1.052708889659159 0.8301365298432893 -0.1683557124447681 -0.3069286292647636 1.193683833913975 0.1703515512015715 -0.7629196029434362 1.300299145422714 -0.3214254358085570 0.1800674110110801 -1.448483960746560 -2.933320912616122 0.1439996760763950 1.430697844277646 1.209928006835390 -0.6033143480953618 
-0.6273885701144558 -0.2168710133730803 1.376560574267644 2.988408921887641 0.8313147557792842 0.07278722753400464 0.1056347582118630 -1.339150638146395 0.08453826813346846 -0.1591916846256408 0.9031339404672494 -1.702963531830954 -0.08184671033491349 -0.4308284421816097 -0.2767689228896481 -1.318056922551711 -0.2093120102327670 
-0.7454431277015791 -0.3876658459202881 -0.004512409064695350 0.03548403185603318 -0.3102864523971963 0.03676381823197135 -0.1614623576665393 -0.7891747677355344 0.7750497162582668 -0.1466779777495158 0.1301879908798761 -0.3767139679003456 0.9996609737256574 -0.2852437940214978 0.6464209668785627 -0.8621660492950374 1.445779251621884 
-0.4876793532959965 0.4584683159409496 0.5238913871628398 -0.6018196910464881 0.5460262911409991 0.3319675093924576 -0.4364662173271423 -0.2066453610684954 0.5555356478575348 0.1442229498004687 0.1666111748637117 -0.02248053645763746 -0.06876600547540494 0.2154844740766962 -0.06268156874431624 -1.215775997080277 0.1601069802600961 
0.7256151567360490 -5.568107329827848 -0.02865218105863899 0.1107610711605227 -1.047678668837810 -1.019973538143562 0.6988692676749827 2.024646086676318 0.8042087194495702 0.2834498794977292 0.2298870015742373 0.08415173740643818 0.2934524553361197 0.04282440448362713 0.8440459512683706 1.862669694854596 -0.3401697082506615 
-0.4805696193616273 -0.5010662137473719 -0.3489983122799436 -0.3397461386712935 1.248938788094666 -0.01210912366266057 -0.2688786132967017 0.01499609085545805 -0.1102280226126331 0.8765255518963072 1.892547145606949 -0.7703122380934216 0.04042783339919912 0.07133319261145117 -0.5779458062557636 0.2089050973029392 -0.9438196117855363 
0.5529429056240850 2.230893816376726 0.05985047549171716 -0.6527225427381484 -1.201992197140686 -0.7681407609422936 0.1984676881582479 1.174961159082538 -0.3374892146584801 0.07122635503183326 0.2140352219057747 -1.989340915552391 -0.4213733307112709 0.4190432184187256 0.2961115827255802 0.5744077995779259 -0.4208812606498654 
1.551104430151638 -0.1368870402901590 -1.085407917583509 -0.4657472704607245 1.482108234438039 -0.1391951628818919 -0.2698238776781062 -1.268863323171045 0.6466006087438116 0.4354144110779414 -0.6379859092474438 -0.3329034844159690 1.538342219759454 -0.7432857225095051 -0.9154377125388525 0.1290516350058915 0.2129158816004013 
0.6152386324573275 2.079280605720628 -1.196632382842912 -0.4990749217487577 -1.684376879338363 0.8990955845337076 -0.2871058474510304 -0.5970672178581787 -0.09752659463518464 0.2183924818836671 -0.3151570907178540 -0.3814277277197274 -0.03775067063423281 0.1827762730166287 0.3732516157081351 0.8022749134721786 -0.07419077384597751 
-0.7848312828381869 -0.9248495813728734 0.4249480675687515 -1.100274348092895 2.486053649965481 -1.467963098025195 0.1684438938687659 0.1370964404745313 0.4256128521241165 -0.2353440355126654 1.189558056471221 -0.2567462654907887 -0.9604849831110950 0.1542415708101079 0.5666922469185007 0.1167820059253681 0.06106481031688305 
-0.09646331676672404 -0.1218375222445637 -0.2392141865375320 0.6301450387232742 -0.06318062473628311 -0.2224621361073066 0.5365441882243510 0.6614314463361072 -0.4580794163599052 0.2339998024226160 -0.8612970507709616 0.1459117610484368 -0.5746393509703709 0.1494811253551253 -0.009797016977474555 -0.4183358146709241 0.7077930740321516 
0.9485742178063119 0.5574186856719384 -1.187590436214862 0.4298092442190093 0.4679328212801244 0.3062743667027311 -0.3374615859748496 2.797195709150009 -0.1405996034137067 -0.02667154117483232 -1.791258248178239 -0.01415525810149783 -0.5711706883149253 0.05806608509833447 -1.037552336697750 -0.2875602882352806 -0.1712511436225459 
0.3010639747015971 1.519837891898011 0.3295773798338560 -0.7004841601629562 -0.2928140598025152 -0.7834564461946283 -0.3249122664621496 -0.9648207251056490 0.4457952398718595 -0.02031354074991426 -2.193970205075319 0.4471437027552914 0.1613847389142311 -0.2803682492537101 0.5462772144003278 1.683843112327664 0.1262163981040506 
-0.3431089163419117 -0.4318826343224119 0.2204160612233181 0.4899556461529141 0.4517560965735784 0.8584050153246225 0.04014596059940637 -0.5636954748795409 -0.3819580916531955 0.2366708541685291 -0.7421058394137169 0.2759622237265106 0.8614905182988066 -0.2713673085484782 0.3119816970346537 -0.8595511761157668 -0.1531146318273002 
-1.419354657195427 -1.959682245602185 -1.927709432182174 0.2131079773741501 -0.2154548452465368 -0.7799046273545283 -0.2240309090663235 1.415279038593639 0.004382702606309965 0.2481442141194667 3.956172535177601 0.1891276743484642 0.01970389251525722 0.5317111468117423 0.03981453177219431 -0.6642416842179558 0.5729346875462027 
0.6013562819932214 0.5692061811171446 -0.7073195988303959 0.8579715341512428 2.170592160501606 -0.4042935551214880 0.2115518471178550 -0.6343955716173766 -0.4538567355489346 0.4510819518845818 -0.2877109973803282 -1.198376869269355 0.8368558545159575 -0.4241958352093646 0.1149352141939087 -0.08518292668691270 -1.618218935811338 
-0.3816351361214551 1.019073807815552 -1.150737508145137 0.1663394952491572 1.424490187175403 0.7037883459165579 -0.5926973986727576 0.4728904719045103 -0.1665761342412682 -0.2385435292676435 -0.7617837777750293 0.2170793052523263 0.1171691289193478 -0.1828342237941955 -0.8104745875636372 0.3197743190173855 -0.1553227656691212 
0.7330027567107557 -1.496904833716061 -0.5392602598039875 0.1888628283663479 -2.766653559868286 1.538173443612405 0.2496718715385618 1.207231636053403 0.5024860490088370 0.2593971123105048 -0.9052751856554366 0.02539734997756557 -1.144594265833655 0.2797899384816223 0.6932354617825695 1.289540307983714 -0.1141006509488872 
-0.7287221570164223 -1.545756612193268 -1.153168791842283 0.7058052564890597 -0.1044510740002106 -0.7903868768789664 -0.7491513027128035 2.832390558805303 0.09217234118224779 0.009056314945711318 1.434854963080649 -0.2542785930174339 0.3485789394119372 0.1262402283780039 0.2554648870258565 -0.06324385033376502 -0.4154042313235837 
-0.6562658909677979 0.1794859979710042 1.770367874916525 -0.5175109393214505 -2.492610071059775 -0.3039406504004690 -0.2084403959992509 -0.5781072999117145 1.058908205974203 -0.3902542895407847 0.7784836226090062 -0.04054099279065496 1.865921456807733 0.1296993913380724 0.4106635261190928 -0.7262335650193203 -0.2796259807244201 
-0.2373789901204466 -0.2604415121949383 0.7213174540007278 0.09854599682536999 0.4569382713230771 -0.8351378074216207 0.6394596753725822 1.749031293463061 -0.1516012764540426 -0.07702368313199652 -0.4679621092959452 0.2883750751577269 -1.416678667731832 0.03427121466431470 0.2345909065294763 -0.4096955124405785 -0.3666103285449290 
0.9537205648954750 2.730221270129716 0.7054126909280612 1.579289557219525 -1.424185487816791 -0.4212648015446839 -0.2026946123044183 -0.06403369568924314 -0.06411873877582985 0.007909377976216091 -1.316005805162891 1.350453852016130 -2.697245225830656 -0.3849666859355989 0.2201368548654174 0.5262905417572439 -1.498919656727690 
-1.107383653704098 0.8221929449748728 0.6176327837747925 -0.08791000287440788 0.7835546724898615 -0.3213632159812199 -0.04956398050345880 0.1537284749488329 -0.7121579720016096 0.04994483465177435 0.2367547005862664 0.07027283876711128 -1.874025637188148 -0.8660601005123400 0.5131672084277025 1.035017629662115 0.7361984744819641 
-0.5543608272726477 -4.159114168153947 1.293440930470226 -0.7024214565563034 2.623733887959374 -0.03632528337508267 0.5021861297824171 -0.3365268861092292 -0.5651706889819037 -0.1989940906479621 2.156871236834527 -0.01351071835005506 -0.7914021777449667 0.1082164634246899 -0.1600530964153535 0.2329676459355400 0.6004630992006998 
-2.224628152564478 -0.2269398339924832 0.6867716269703369 -0.3119108538368907 -0.7369915861231254 -1.053536225298357 -0.0003212792859070546 1.207450810420792 0.2852981141745286 -0.3109127349217933 -0.2336576710405003 0.08391443856175179 1.035416462488293 -0.1035490536131718 0.3685722252539936 0.05984741984420296 1.475176292962801 
-1.631561578783048 -1.054198937395213 0.3555013984055294 0.6076611653033481 0.5631637086862609 0.4780024487965640 0.03837468163451271 1.596630692354209 -0.4940433262822746 0.3082319942865397 -0.7869904074337025 0.3260819760273557 -1.380836321145548 0.3424285523744536 0.1887214135056796 0.5021662413066698 0.04066629835869148 
1.203042586256956 -2.359839342842302 0.8072790530022717 -0.1390452269194102 1.033788303017155 -0.6433135696452307 0.7349764640752486 -1.499345061899305 -0.1576399840872187 -0.07202447632170086 -0.7713188529535929 2.299772341883053 -0.1237181569232242 -0.7940260503134485 -0.7080619463056143 0.2905050252482451 0.8989688947281312 
1.267793304850378 -0.6170894180262848 1.192688367989356 1.027164649583340 -0.3363652443301674 -0.5264268172398190 -0.4535666983570106 -0.7041548678621937 -0.1080118478468407 -0.1704720593322503 -1.156502689278573 -0.7061299257058083 -0.01724332318217397 -0.5035656596675516 -0.002755998916184010 0.8196805558140666 0.9949576715077064 
0.9161343297670977 1.476116816953738 -0.2667656040404951 -0.1987086888113670 0.8045288932596905 0.9266124258816106 -0.6165552876044116 -2.466225796159901 -0.4290771623818135 -0.4347625640625140 1.423300566348184 -0.1043155073104878 0.9170435156264990 0.03072904015377490 -0.2656686450592176 -0.2935006172909692 -1.418885715269406 
-0.9395607007309478 1.826785211076679 0.6253433520839528 -0.7080765347239056 -0.5088919559078012 0.1148359205225143 0.5774053802775132 -1.772005578261344 -0.9668956560175798 -0.6144816716016118 -0.2791947031544673 0.4004984046017731 0.6032511448583895 -0.08596281069092006 0.6025988222496262 1.248622935695433 -0.1242715602773069 
1.152770053014190 -1.059053599348262 1.201890580497460 0.3706215162759743 -1.165323114602038 -0.8394776437299973 0.08992886576112344 -1.112924832256198 -0.8095539091624304 -0.2481490334339373 1.297779565074455 1.467499607846772 0.5936560817147651 -0.4848232356991654 0.03227461629483752 -0.4005453163019202 -0.08657020194565120 
0.9530164272419108 1.810975210616455 0.2342729574475837 -0.3322054602592205 0.4038172203713091 1.371787534556562 0.2685794091404382 -0.1256956912549126 -0.6716609387343825 0.3179418561652211 -2.586434196844616 -0.7635676577107046 -2.220546109994684 -0.02642304178261792 0.1095180259453654 0.6792972797866048 0.5773271753097022 
1.923216773846413 1.778822665614617 -1.888507758834391 -0.2284334908898029 -0.5491953494785352 0.1681932146298090 0.1235135373040538 -0.7214256593051475 -0.02585489760063338 0.4111934329382487 0.2093582612761196 -0.3462394404453568 -0.02947368964827655 -0.1844953637669958 -0.03016092696455013 -1.084281989010475 0.4737706803349335 
-0.4107117017817675 0.8667442860947860 0.3412242978281871 -1.136205356387770 0.1793264239265927 -0.5335306314671814 0.1475542028344947 1.522026815102555 0.4582866067259280 0.2766539444636568 -0.2025870837949644 -0.4371173162571045 0.01175712111818140 -0.4571297475111227 -0.8598283449511022 -0.2188699488314641 0.4524064328880721 
-0.2157400095498193 1.680348884910413 -1.567671192520311 1.636399060684698 -1.992030525520961 0.1472866659924622 0.1211696815940829 0.6728813604637470 0.8703729565205047 -0.04106880488606825 -0.6799661569792577 -0.5508931808058044 0.4514276135161939 -0.3989363657197789 0.04126098880703042 0.5781844201523981 -0.7530253966595348 
1.591197428355101 -1.380543104450597 -0.9644073816650105 -1.811145241526977 -0.1500226877517501 0.2620619423351825 -0.3657190293113030 1.603323518046843 0.1797125460312005 -0.1516441288004855 -1.354171442483173 1.583714601625553 -0.03555171319575278 0.5633843186527598 -0.3043526986908755 -0.4516702383562847 1.185833311185546 
2.152632180402559 -1.771892597576667 -0.04490531692640315 0.6776713759023154 0.3884923180998627 0.6472074725564283 0.04132259465874014 -2.188402858110791 -0.2734025276021330 0.7432020131849295 0.2331501264030416 0.6542721627170435 0.8169117867064818 0.3513898660643312 -0.04645339753995446 -0.7780793968660277 -1.603115802073775 
-0.1331859125498245 -0.8705239696175414 -0.5113578225303413 -0.09327605122464727 2.387766435899319 -1.035991589184946 -0.1840449195527590 -1.776472072233024 -0.3082559385396085 0.2454083156952367 0.07664230270645667 0.3402915589348061 -0.2147363710503515 -0.09671672369119853 1.280873717144644 -0.1308400899325690 1.024419129726336 
0.6502206242093067 2.155621875563508 -1.386025195082495 -1.173307770365530 -0.5846183778753807 -0.2868321108315292 0.4595748122228616 -0.4384955575782957 0.6151109511464583 0.2515835388984963 -1.065039827437349 -0.1048443613916535 -0.6155526454113351 0.3262199323129542 -0.1944971988659536 0.3326244043666882 1.058256906119238 
1.006023346371325 -0.2318550782504686 -0.4390424241005442 -0.5152877496212477 2.314221614623687 -0.4838001110987475 -0.003646018735488811 -2.092265628454350 -0.5621542431100137 -0.02944693061338601 -1.029298359499287 1.045243462242604 0.4547796596840065 -0.3573905919120592 -0.2171316371647874 0.5845833951821160 0.5564672944566782 
-1.865033767388475 1.434394084139614 -0.07299625523260557 -0.4499877932373325 0.3753277268010455 -0.5571043192332992 -0.4297024062522904 0.7602304076241782 -0.4042295557463133 -0.6915411982927446 -0.4793691396777282 0.4586393204065017 -0.6941528659018649 -0.1919682822178762 1.673421556714526 0.5312077171959321 0.6028647702987646 
0.02001080643182001 0.6141649429360461 0.1727652764851154 1.093511278311720 -2.249128764064699 -0.4831919412503677 -0.1530804451653881 1.947360583746283 0.09319683273210376 -0.5550395080179631 -0.2603380256582005 -0.3051074043053262 1.204987182801853 0.4647902619135440 0.6116507628510783 -1.361518817204132 -0.8550330225434903 
-1.342284232336132 -1.264858488220525 -0.7707805021673690 -1.044552030201457 2.713481916718523 0.2099246332644879 0.2505311371455969 -0.5316369834439718 0.5519217620493074 0.4049900919028497 -0.7673854763472632 0.3153298389368430 0.6338033003058182 -0.2212014291993039 0.09501862850499913 0.2137108820604528 0.5539869510271662 
-2.345965893692327 0.4561528112845216 0.9158016661212184 -0.1801698535955070 1.523775078023519 -0.6153399688143107 0.5038540365555589 0.7794224577795921 -0.4820121189739528 -0.7304222306248135 -1.019763536156268 0.9670080039514476 -1.508417727744150 0.3159894214064182 0.4764399352494730 1.387964945723816 -0.4443170264942407 
-0.1761521109324179 0.6677022323535244 -0.8710426994713211 -0.5881055318274714 1.887077248758328 0.1110528695207533 0.1989556275370394 0.1979790097073697 1.839994446872646 -0.1231626142899797 -1.189614633748405 -0.7927604669512408 -0.7579012214437244 -0.1357396840055714 0.2661790875538596 0.1133235789863282 -0.6477851386197290 
0.2017433892039000 -1.486372081993020 -0.2491095988424690 1.921300781866553 0.3031231298980518 0.3891219621152978 -0.3612298397227200 -1.184262020394511 -0.5241791990175612 -0.06948423057288665 1.803414612171844 0.2102365725055123 0.1137799079862965 0.4638248123888670 -1.577966187048389 -0.3642711934300003 0.4103291828852280 
-1.872348308521437 0.6166021051600359 -0.04414992528682300 -1.455262558646718 -0.8901920748008922 0.3317518616136663 0.003030942574127445 -0.02003677883817378 0.3311016532557163 0.4656039092332795 -0.8532465603746445 0.2924267411043752 1.283066914016998 0.2451975325143414 -0.2049245331688870 0.5381060983599116 1.233272981805120 
0.3318355496109672 -2.939637696850267 0.6737008238293300 0.9476967655497339 1.540807424501523 0.5937989710037094 0.2255302125471769 0.1866516359378847 0.04849001761021091 -0.1847236186497541 -1.168501403578078 0.4477131410638214 -0.6688166398125176 0.1669213657226916 0.09112513392475530 0.3673680221593903 -0.6599597045705995 
-0.5804275843489461 -1.388803278599919 2.169779050802515 1.208068272414087 -0.8671121934080180 -1.164325642933481 -0.3009659299272370 0.1986640693816849 0.09848053151317410 -0.006630280510527223 -0.9733988566450577 1.188408770922314 0.1225032461828923 -0.3205523137140107 -0.03678876610941458 0.1895010686909562 0.4635998362889841 
-0.3182581392027866 1.504408669970294 -0.1031426029199541 -0.4170246092447021 0.4683704790221488 -0.1663620566857018 -0.2111901189819315 0.8335107879071706 -0.9339678940657088 -0.6758503893961901 -0.9250179289407716 0.2456724135938128 0.5572442386386495 -0.1632763763608681 0.4081135186346158 -0.6751322414039206 0.5719022494358575 
0.5908347024981837 -1.672514979859942 1.068853109336988 1.646159898003191 -3.120183221504490 0.1778460231270537 0.6086761578771019 1.479745326215145 0.7350983176088050 -0.8795621282846382 0.1440784636161900 0.5823950454003284 -0.9598392162558510 0.1934810177411693 -0.2069876225888780 0.2176706271759541 -0.6057515201063323 
-0.8009681262504817 0.7666043306452712 -2.150669215402635 1.296723868900002 1.652109209801293 0.3775291335555991 -0.5371706338384964 -0.03799000119052108 0.6352814065962300 0.1210487974399971 -0.4607057594986728 -0.2281028878489133 0.2277555042273683 -0.6981803224690523 -0.3364431414580779 -0.5579419120606410 0.7311197488517321 
1.635690994770086 -2.362634002938377 0.4781679627655573 -0.2110193085250539 0.4173868652796259 -0.2617797182012387 0.04749808915813011 -0.9544698539585910 0.5084409083568938 0.1993585764824121 0.07777996619219768 1.734473884268064 -0.3550315480807018 -0.3590540618049833 -0.05052691854586319 0.5351761601920609 -1.079457995410225 
-0.2555810818459985 -3.877885108791824 1.908346559630343 0.6237870764208630 -1.457086617432958 0.4888211762660828 0.9589957798765143 -0.4718607753164165 -0.2246767412855686 -0.08244007268115043 0.2778375505277656 0.6584234815097123 -0.03021779389279363 0.2760527432155334 -0.5347714845971738 0.7709612661430812 0.9712940422540035 
