solver_type MCSVM_CS
nr_class 17
label 8 1 0 6 5 13 12 15 16 9 10 3 11 4 7 2 14
nr_feature 199
bias 0.000000000000000
w
0.7898346255552374 1.150955346316558 0.4167853811541450 0.4201720750894861 -0.009825155831680903 -0.3504272988497636 -0.07427970769253221 -0.8607230287658029 -0.1291370357958370 0.7706454566251798 -0.9393558822034215 -0.1245124273814111 -0.8075366942649014 0.06703766508304274 -0.5300452187015832 0.6959937243384440 -0.4855818246751547 
-1.498249039344263 -0.2009277129927909 0.4782775141229055 -1.251937151617897 2.137800015671308 -0.2774539907803982 -0.08394543066620487 0.7956797212150272 -0.2535608101576540 0.1181229196124525 0.6973994282847925 0.3575090940092436 -0.7631620148043258 0.008993284257350640 -0.03550765153382130 0.6937802821585054 -0.9228184574341909 
-1.332523558454555 2.210285469084981 -0.4882755487085316 0.3935306820602808 -0.8314208073220680 0.1091535577271987 0.2000190480136129 -0.02545817419549108 0.03806431048832279 0.2701468350821040 -0.4039653385017895 -0.9493698786037827 -0.4561018042379751 -0.1470873370516864 0.5994696920659018 0.5601421549597660 0.2533906975937286 
0.6624616265466237 -1.685517838254929 -0.8045614938606016 0.08629226001678543 -0.1521060551886996 0.9052751962097941 -0.1921058873192939 0.8385574884295000 -0.1413745470223845 0.4114631194803864 0.7178607056528440 -0.1762755437734479 0.1951376672016947 0.01248737400906941 -0.3818382423763799 -0.9394841981960395 0.6437283684450639 
-0.7124348978022584 1.467429854420223 0.7669265316906705 0.5511274169507835 0.002558091246191253 -0.03544407477534566 -0.2630709980351016 -1.233195220167909 0.1100042579942447 -0.01340045898699825 0.7088754282950616 0.4025978248789221 -0.4958820784170222 -0.1095890797643857 -0.2075590401754732 0.5219607897672778 -1.460904347118858 
0.7671697530730559 0.4703358128938309 0.7539067843430325 0.3109075845106922 1.184615059000967 -0.9018244806051280 -0.08340362912385522 0.1031173721595579 1.056964208500635 -0.1466989428229990 -0.9046594596547756 0.3810042429731093 -0.7957219585852615 -0.03819100388818249 -0.7571865634548095 -1.008613317619148 -0.3917214617007257 
0.6973961662808585 1.984605959404468 -0.07767045067635144 -0.7533724665884745 -1.972753725063267 0.5258564798978753 0.007293683626117107 0.7863098797814528 -0.2043444908195516 -0.7661060330116601 0.6140006518443336 -0.03242865672577570 0.4155077080259265 -0.2186769159997669 -0.7558731096244324 0.04491707563862476 -0.2946617559903799 
0.3371929776635833 3.265337591614805 -0.9474377200826433 -0.08139277533986035 -0.2466498423392289 0.2874307757878531 -0.2584484066650608 -0.5387150814143751 -0.4747618423533173 0.1265827434890890 -1.729695114881172 0.9669334209413770 -0.4227205620212484 -0.04083045210588861 -0.6156407214485771 0.3612657068039214 0.01154930235075503 
0.9146295609906910 -2.526472062549882 -0.9841813928876603 0.6962573504448017 1.802488619418963 0.1726866271285115 0.09049737546901344 1.474183883408311 -0.2881898812454748 0.4160263353896136 -0.7720623363674116 -0.4295049346754000 -0.3778089148679993 -0.08581209139606699 -0.2564092839363538 0.4055219477222725 -0.2518508020459400 
0.07769116178105220 0.01064813607368390 0.3289299569952386 -0.9267581980756988 1.104536062438057 0.4247884785813258 -0.1740391049482828 0.9059075632430822 -0.9341740322700406 0.3067409565220109 -0.4093604836581825 -0.6687814509222102 -0.6090464287821514 0.2648314338623636 -0.1285814637817197 -0.05926570873857351 0.4859331216800293 
0.4834658566527819 -0.7184854415434810 -0.6484142541873479 0.8274530080541342 0.1083726440471079 0.7851470943037970 0.1932690709157789 -0.3378437368065299 0.2355846533941177 -0.1894439322439815 -0.3857306542918402 -0.3928641333296081 1.356432959624611 -0.1496848840687760 0.5314211203199760 -1.462463281728522 -0.2362160891122258 
-0.4925450398363354 1.611666223134014 -1.296909334487736 -0.4962454225755761 -1.679049005083991 -0.1459748150306529 0.2264861595315886 -0.008787693583852030 0.3174766286719758 -0.4146244114807327 1.121407925879224 0.1471200982085922 0.9215406609913216 0.1523483540788062 0.1251705139436704 0.3302541202827882 -0.4193349626431193 
-0.06272335418407500 0.3474777270433452 -0.8819582320327570 1.858102566207726 -1.578925944655140 -0.2886695170163612 0.2118114925558798 -0.4337790709133795 -0.1960036443480031 0.4835551980712928 0.7897278759039874 0.4551849951784519 -0.6214806712347990 -0.01831485802871849 -0.2270991154511683 0.5445650348484549 -0.3814704819447339 
0.4411833517887354 0.9935537173135823 -0.3473106740849553 0.8965279383564366 0.8266204627257175 0.4190021690750173 -0.8794159336575832 -1.930964594928717 0.08976589111954590 0.6526345120466227 -0.5678697120214738 0.5169205907895633 -0.1659382422606879 -0.1553341707086555 0.1988036291433096 -0.9767568922594105 -0.01142204243705878 
-0.9808471782495707 1.244579581909912 -0.3550882792690471 -0.3668965992004067 -0.6545239698580210 0.2778273923754610 -0.1571725113092296 0.3181970227664657 0.1875402707693588 0.5440260024508371 -0.2789655106439579 -0.4247272555439816 0.8824521459656849 -0.06413923099265964 -0.2244705081054282 0.02662727489451589 0.02558135204007589 
-1.566047640577270 -1.757780423377025 1.429727307448309 0.1721811253836295 -0.2701479193154410 1.060429370335538 -0.07739779777016642 1.424191896432304 0.2449320896004054 -0.2992198604950260 -1.120607595517049 0.5179011339266910 -1.051854102046992 -0.1670097458729516 -0.4892419897826558 0.7310016613752826 1.218942490252409 
-0.02425645872625985 -0.5954916060093730 1.108647346505354 -0.4425368881293267 1.450832839297777 -0.9532193896864457 -0.1632688179880376 0.2533849734568404 -0.4775523201006490 0.8421828626173392 -1.191430868253913 0.1070547285759518 0.2417252694038317 0.1330997676144112 0.3789644051989057 -1.961744920948014 1.293609077171605 
-1.172984324801348 -2.192379969917167 1.810263461942463 0.2719060014027241 2.157353386210652 -0.2665523237887114 0.3499398812006425 1.237561987563943 -0.6025316008679070 -0.2603566301921019 -0.1766474027156559 -0.2207998766565208 0.09422451492001527 -0.3886678116360010 0.5042697631075175 -1.277595843771051 0.1329967879984747 
0.3008653326875710 0.2844742182365157 -0.03471622107425616 -0.5467816762887935 -0.2544914653750806 -0.2916546900496888 -0.6730253644923511 0.3017893421560650 0.1482091254108461 -0.2860885852904520 0.6229197058130133 -0.5836504253734991 0.1127321031673823 0.6081209756638679 -0.06846732012801919 0.5262466266458559 -0.1664816817089737 
-1.132965792770418 0.9703883679373618 -0.2339623454451185 0.3124851621029956 -0.09378478760781889 1.117177161131872 -0.1993348718847046 0.5496103998127757 0.1521059286220933 0.01374756865886385 -2.018588100791646 -0.3940410965850824 -0.1741789484674220 -0.1609711805232380 0.1386705034890637 0.1903896799436396 0.9632523523767832 
-0.2606274527387620 0.1419703243300851 0.5770303407436648 0.7499294838867030 -1.087623555416746 0.3176875540962493 -0.01332947663529819 -0.5845237047756119 -0.1888943906030913 0.6176077861363709 1.067220142756490 0.08895982791179237 -0.7878118564387502 0.4671856485874400 1.138003022076787 -1.023952259145505 -1.218831434771825 
-0.01673148836411716 1.247404641296664 0.1443707393982567 -0.4078587389875506 0.8034238539469161 -0.2191224367561451 0.03087770961848518 -0.2000906193441314 -0.3005696898940162 -0.4947075859867783 1.454123646487832 -0.2430697129235106 -1.097180694417963 -0.2646139991589305 0.1824471997671984 0.1684736335063799 -0.7871764581885740 
0.2009736710541240 1.663035584144452 -1.459128232142293 -1.557320669149736 0.6088636706684868 -0.1152654167264569 0.05292683663860712 0.5784905465116663 -0.4917882458503182 -0.01733871581474463 -1.363563232496070 0.4612525821676486 0.1728486695485258 0.4911629991848447 -0.3316740605072990 0.5456091338625220 0.5609148789060500 
-0.1876303835774026 -0.3485301213195532 0.4394021246425331 0.6410748722687317 0.3065333101541954 0.8437173889524702 -0.03419487702768655 1.420625755717146 0.5749243240350834 -0.4118574599692021 0.6415759573098750 0.01046169881578163 -1.038173604127998 0.1992925399142431 -1.268967945608446 -0.8586753762057989 -0.9295782039739654 
-0.1887273223753612 0.9447156969890587 -0.8131430014991788 0.2867478065702305 -0.04823386673812014 -1.059357554269538 -0.3188395060964304 0.1388813259980329 0.005405474368668742 0.6698045581297914 -0.4793820916289522 0.08731523823324289 -0.6796398966548096 0.6668209837995429 -0.5638418144285292 0.4593943393425680 0.8920796302597785 
0.3141855410879932 -0.8545974561886736 0.07538026146882305 -0.1565065608174285 1.505168012580519 -1.013124987686435 0.9672316382632259 -1.655039825059536 -0.3455427737920693 0.1153186123901843 -0.4927382619377311 -0.3047424224925778 0.6677433239208379 -0.2916468610061768 0.2262555447421326 0.4315689790152086 0.8110872355116808 
0.1383614944370108 -0.2281180887656563 -0.1222402750097523 -0.6981554833153772 -1.326465152318552 -0.1599703200814365 -0.2310906435544464 -0.8254344160109419 0.6245022205002757 0.1718118490279213 0.3870306168938921 -0.2286815094331131 1.123828452458343 0.1146868557994650 0.1020101434272727 0.5829998947153745 0.5749243612297021 
1.349896787661051 -0.3577809498863763 -0.9967788980789096 -0.6822532898521354 0.6013540085183496 0.01460895367065023 -0.1317919557319850 -1.418529343838908 0.1540751957581668 -0.04158637235516760 0.001602651143739894 0.1662627760091140 1.390007098586464 0.1161241969713718 -0.2859770244841993 -0.5397851085887184 0.6605512744974861 
0.6282768863343207 0.5678304016128297 1.113526062485918 -0.3657666719914980 0.2876233317272874 -0.2834729852015876 -0.4194942952108968 -2.093697519775480 -0.1932896277522595 -0.02595254131578962 1.112057305477358 0.8682924904922822 -0.4901399514928367 0.01193775209506016 -0.4514229445252967 -0.04849289381862278 -0.2178147991407934 
0.2479695900154600 1.769771970222397 0.04854666468850610 1.038830975368740 -0.5866529562059217 -0.9842801182020218 -0.1624558541343813 0.3898397944704803 0.4350526932221149 0.4718056616140844 0.04972214422592635 -1.092006385203851 -0.7785747325110802 -0.01204720069323979 -0.3471742359346076 -0.7025723266172084 0.2142243156745969 
0.2721010041998536 0.9813983287907079 -0.8261510970608067 -0.1694306025255252 1.774084161584789 -0.1530241421989478 -0.1409763074260682 -0.8352187746811672 -0.5811063722647283 0.007109165564014369 0.9433796198902774 -0.6135124343763066 -1.265401630430216 0.2645603970543259 -0.6368488633990984 0.5565910390749439 0.4224465082039499 
-0.01609139863772285 1.830787579107251 -1.384533222563404 -0.3839430052560251 1.356965911894517 -0.3675937045602624 0.3283914990720808 -0.1780619841801030 -0.2745574125571564 0.4165968602104008 0.6454825272236762 -0.6816946266623272 -0.8404003285561189 -0.06015953673549972 0.2017854264064904 -0.9278513061401715 0.3348767219343704 
0.3192505179496299 0.2450342999999048 -0.4817107265394717 -0.8111101144948916 -0.8735587231471481 1.267137746744375 -0.2712153623085242 0.6186885813838623 0.3712953999510968 -0.3363545554207107 -0.8699444823900062 -0.04582132150607838 0.4366306318832877 -0.4020281855166228 0.1603356791001605 0.8228156540481826 -0.1494450397370612 
1.509415420310227 -1.501234794417617 -0.2810577578330926 -0.3621041308238464 -0.7675195909010390 -0.06574155196877413 0.3569877232670402 1.206116871724382 -0.4660558123880121 -0.2965324265554815 0.8769286547266633 0.3871302664007714 0.9919044753144625 -0.1938149037967880 -0.6282385102273036 0.5051031613684620 -1.271287094200048 
0.9068962036297139 0.02989284836490736 1.414651602621697 0.4019853004396128 -1.009164164940739 -0.5934475454031797 -0.3115853955261764 0.3540436469432336 -1.100275876133442 0.004591136298754617 -0.5732295333632285 0.3632900706921420 0.4790157076412153 0.3024917201304601 -0.4555177524148721 -0.05350247443457878 -0.1601354945455234 
1.624937271735267 0.5063034075625763 0.8702475530363777 0.4022400295090851 0.4951366903478244 -0.6017058399089806 -0.3274864841338588 0.8982852988611162 1.366268294685114 -0.2569423904697089 -2.658233143536098 -0.3314728202930377 -0.1464339681123679 0.2454698568646104 0.3597426490189790 -1.104467178341911 -1.341889226824987 
-1.001019495110505 0.7525620321904430 -1.774860417714450 -1.013013873183829 1.151878808071646 -0.004037951261646739 0.1688893585994290 0.4435023265634602 0.6110181473455043 0.3574839571866387 1.370683042001486 -0.5521040493560992 -0.4434709650568937 -0.1682209990897259 0.2517234120596861 -0.6837269250138800 0.5327135917687487 
-0.1863992995989935 -0.2858496898710772 0.9894664688463743 -0.6120905299830838 -0.3980298190606486 -0.7365305252090235 -0.7961679303470255 -0.2210065906625302 0.1726823163058014 0.6964068562639207 0.9772379087717198 0.4550255326876510 -0.2594303854801516 -0.1915707285825520 0.5741193508208090 -0.07675937104633782 -0.1011035638548317 
-0.6319765485767694 -0.6530150194951760 0.4376527843602606 -0.8348175483599277 0.5425342877547094 0.4834652208130956 0.01107100050604118 0.9223944685715877 0.5458026343539285 -0.1857386930505682 0.5117284541391574 -1.456226367913208 -0.03659856531440095 -0.3552014467879600 0.1522700378072517 0.4755953138961040 0.07105998729588647 
0.5700214031290130 0.3990818586938884 0.5335586733877539 0.5332174604432014 0.2953078191209949 -0.1527251803629133 0.06077289484406388 -0.6476446831333392 -0.8165036380947654 -0.02151683490447780 -0.06104178788886765 0.5673385519828038 -1.355393565424765 -0.2443899853832553 -0.08163484928745755 -0.08907583844211324 0.5106277013202254 
0.1052026902923913 -1.857521948637787 2.324336281524477 0.1320607877098688 0.2494250477808192 0.6172945434499892 -0.003707749327592371 0.7522464688140799 -0.8826392117576461 0.3461020384813303 -0.2361923934460115 0.1453482143369157 -0.8290184578827624 -0.1192279667560974 -0.5771649790325990 0.3983227790521374 -0.5648661446014980 
-1.432050346430778 0.9245795088351452 0.1517661623984513 1.197990019600036 -0.6995944495803708 0.5135146151889463 0.02371113688068111 -0.06756271962239659 0.0005522202156334104 -0.4310657251114980 -1.827146114366270 -0.1686703062707070 0.8238937618399698 -0.06829729168796515 0.06544948691553054 -0.4188541537966651 1.411784194992267 
1.957283322838361 0.5589826063764610 0.3949301467162382 0.3596525369589598 -0.1865829332115775 0.3805086610239244 -0.7143116616253220 -0.8993833450148013 -0.9263874944963475 0.3634152064347676 -0.9077881540496957 0.1665939526274142 -0.4550534305388023 0.1758018747527686 -0.03956976952491453 -1.263115274387870 1.035023755120426 
-0.9543610327395781 1.437147830028742 -1.192551781630992 0.6679259243648286 -0.8869985039921069 -0.3523393501628220 -0.5868265656975530 -0.03220655366106586 -0.08388290988582611 -0.1135012901485240 0.1752443789848135 -0.1950159031123011 -0.6068233230599506 -0.5248331698721528 1.181263777612149 0.9606522737338348 1.107106199238513 
-0.3060806399954085 -0.07246524368331045 -0.2153869837840820 -0.2672157047020229 0.1405783837118836 1.092478131923808 -0.1192860531157527 -0.7336409980618995 -0.6973340499742345 0.3577540842413494 -1.829953836269034 0.2162654007040901 1.040623671878463 0.2510758568295197 -0.8341110255906930 1.387776336103826 0.5889226697835100 
-0.8003673316090545 1.350315896073790 -1.606873833745071 0.6710856706995246 -0.2772733206911915 -0.9864920903028236 0.1344292090360598 -0.07627783377874690 -0.3185237965139764 0.3173147614748099 0.4699130593816947 0.6965103399378548 -0.8404505739925379 0.02831865654243934 0.6308054814606680 0.09635178607917946 0.5112139199473772 
0.2753683419780329 -0.7304839283131397 -1.376517615048226 -1.307063667049247 0.2992416043623573 0.6052703242770352 -0.1903281833458486 1.140067575478430 0.1838950930857460 -0.1738941221730798 0.4334336976202082 -0.3476609641318468 0.6399777009595634 0.06269258331484500 -0.6503557691608474 1.093671173261761 0.04268615488423357 
0.1974108577863487 0.3886549399836496 0.1637286849439842 -1.335289835353843 0.6783132744891983 -0.2178490984319915 0.3595998115589906 1.025826891974055 0.3945567083621982 -0.6473940093862726 -0.6163730002986588 0.2356810334830387 0.6175224752383730 0.03794343947783403 -0.4413035861713944 -0.3047309672013631 -0.5362976204541540 
-0.5029516428822681 2.380431436296282 -0.7820996076945047 0.4752399096519722 -1.453661959288787 -0.4730707827986395 -0.01372814671901599 1.237871516202057 -0.7228790217691489 0.1243600322642820 -0.5135818834503408 -0.8920236738756859 0.1166977716368169 0.2942447420096471 0.7521904092975722 -0.02665474204874327 -0.0003843568314854173 
-0.5872597076998318 -0.1845904564186251 1.035405996782899 -1.102738234456270 -0.8488532672245367 -0.8051758872561757 -0.1924967528711156 -0.1997473893905382 -0.03926673634116437 -0.09483833662531811 0.6180514232572878 0.8709226320369277 0.7586407286509362 0.1570022539273802 0.1873626162484805 0.2883725246779646 0.1392085927017066 
-0.4683543701478773 0.3293467790262734 -1.149163414942455 0.3065469416583583 0.4429573459791448 0.07591454156026894 -0.4744321481241404 1.243877017272112 -1.070589635081856 0.2894860005743810 0.2059903784024474 0.3723135737103788 -0.7563788507711200 0.05234762199618392 0.5630156337803287 0.3547257490039680 -0.3176031638964136 
0.4189918080569174 1.332580811848962 -0.02967545455710418 1.426879557679694 -1.415722441373041 0.3492379620639100 -0.4806484143946445 -2.261244564143606 -0.008207896949623086 0.1757257551807578 0.4926451907931261 -0.4712494971961591 0.4512009585866945 -0.4059171647106287 -0.2366367522619612 0.2386802040718812 0.4233599373048033 
-0.05553505700644161 -0.6362592346128794 -0.1517850265706620 0.8926326382093075 0.4639932575975593 -0.08824686048304830 -0.4247578230326968 -1.824223148184887 0.007212392607321982 0.2288819101541933 1.954373762264084 0.6125798934823409 -0.7835178533361010 0.1817035637982993 -0.1040117764707949 -0.09204780258175962 -0.1809928358338156 
0.2377684062698270 -0.01812904111275065 -0.5902076040675001 0.6983301854144559 0.4251321614223509 0.001760577482449721 -0.09702701323898752 0.1703972280497958 -0.05239598148696650 -0.009922632786722063 0.3737377283587949 -0.5373167388095705 -0.1285144839105731 -0.2555388468076785 0.4081770615714221 -0.8591158898819268 0.2328648835335820 
-0.4267979838048731 0.7563827632378899 -0.7272995923335082 -0.8086375806064605 0.1417476495286504 1.292695104707805 0.08984509260433488 0.3775968249117391 0.2934956088417044 0.08416928107812598 1.092616806235275 0.2104959832648147 -0.7377184191785189 -0.2902760335664272 -0.1698104830359628 -1.324617110578473 0.1461120886938660 
0.7229815868024905 -1.487572743725407 0.2949650032331564 0.2916023448726130 -0.3961387182967042 1.149119847534613 0.6133233740139395 -1.037248680566943 0.3012708800701916 -0.06807571147288437 -0.5634525745850438 0.1734966203880024 0.9233596124766024 -0.1032315428533782 -0.9282715748121686 -0.5335527918839182 0.6474250688048396 
0.5689989593321165 1.048361230332428 -0.3542213849888408 1.542419177152846 -1.411441066964480 0.5674102727850636 -0.1296681333603250 0.3473643576126000 -0.1130059637747741 -0.3841249931221141 0.8405625594663686 -0.3949705159541041 -0.09357388042490601 -0.2320996583885350 0.1251143669277086 -1.006232137632561 -0.9208931889984818 
0.9768144397604499 2.229364317808026 -1.488489967752025 0.4724314911582552 -0.07214248788438375 -0.4513893526521468 -0.1459085342626921 -1.428723514968184 -0.4121757628961362 0.1017001165478441 0.4042510373296281 0.2604649479159130 -0.7618194226513875 -0.2739980389942511 -0.5048051548948651 0.2882623009518200 0.8061635854841327 
0.08944230900978578 1.373103353573534 -0.8036769757881729 0.6485859307614502 0.1176364161706704 0.3192678336963092 -0.6042416316463641 -1.327730161542509 0.09611492404817397 0.2671140145738671 0.2155525517867410 -0.1854965480349485 0.5400204717393807 -0.2327901846641886 -0.3399280207910514 0.05408091963831936 -0.2270552025309967 
0.1134344609198405 0.03914915148149837 0.1366508379890769 0.2182783558015810 1.252426672691851 0.3554458418130460 0.4285329050036587 -0.01401467969075463 0.3667217605891927 0.09920047013019450 -0.2039370552194332 -0.2701551187378404 -1.248486270063798 -0.1825431925306969 -1.357988086204907 0.3399209772305313 -0.07263703120301568 
1.050748277496570 0.9340897534532630 -0.7026410713130940 -0.4976053748685077 -1.306267331262260 0.2778716139635654 0.2805515326994706 -1.258847583897409 0.4618654931130586 0.09635340182544291 0.9247808228526734 -0.7280655688675626 0.3808951015735445 -0.2004753957797266 -0.5194636518476631 0.5710387255719497 0.2351712552866686 
0.009149883027302215 1.822011594232925 0.4068109140702572 0.08547394323916284 0.02847785008287770 0.03565666719919145 -0.3778338141827194 -0.5390454561627535 0.03322794907006296 -0.1116100522303152 -1.945287461964951 -0.7453841955818493 0.9183604529727619 0.03390062815378911 -0.4013286659056780 0.7462441038226674 0.001175660157288184 
-2.294950412758991 -0.2136510565409157 -0.6619736360009920 0.2375178854947528 -0.3208829903250742 0.2851476954615846 0.1286658101265494 1.596526245481202 0.2568934939911618 -0.09386061364448582 0.5238702274883725 0.5914663583213852 -0.1573345773840116 -0.3543658550577060 -0.1942930845067675 0.2565523500573358 0.4146721597965897 
-0.5008626965217302 -2.063221515019780 2.288591425164241 -0.9664305048154708 -0.4349392118784705 -0.5332894591989327 -0.2809617173735770 -0.9089883211428271 0.06297096134145723 0.03695163323954071 1.463796552572013 0.1594877710186655 0.4714605763389290 0.1621604982173417 0.2497085377537407 0.1112485696023384 0.6823169007025036 
0.7560752063653297 -1.229575311570450 0.4149984497859915 0.4723866639719358 -0.09766384460563828 -0.3093757594727001 -0.6219111579250975 1.424381248169904 -0.7388772237078438 0.4437979594498426 -0.08693555741942892 0.8026677227730827 0.3477690998572101 -0.1815894363982181 -0.8220716009294315 -1.046765379803559 0.4726889214590574 
-0.8882392089921541 1.134544335191130 -2.420557033953982 1.482569777211000 0.7940810213515839 -0.3454160113746093 -0.7150529095815662 -1.479313381518823 0.4197512071867241 0.02175609139269617 1.641216316641988 -0.3294156228370375 0.9213247137060045 -0.2999292652841751 -0.7002228634601086 0.1542911302803490 0.6086117040409771 
-0.8920724977748105 1.899621029896185 0.1871428443395393 -1.132260326537954 -1.005499478926576 0.9429575793303312 -0.008879375571911930 -1.723830028918311 0.06297609323822925 0.3122578905473369 0.3259700334773591 -0.1044341363012213 0.4675507940147854 -0.08039879667418612 0.3868971190419427 0.5313993154134322 -0.1693980585941713 
-0.4201809686186994 1.138687825475257 0.5300287065866487 0.5446725315401385 0.07484132902954901 -0.7774413741218243 -0.3418820158349961 -0.2954247329224093 -0.4329498883353670 -0.5856686392799313 1.177221424562944 -0.5691382937137734 -1.331062080720930 -0.1630445083952286 0.3753773818740056 0.6080524824536704 0.4679108204209427 
-0.3627437908815963 0.2925734071133162 -0.5704815373846166 0.3741506705662858 -0.5373168545886129 -1.364903821734026 0.3957173690327608 1.232348732739979 0.08779258815271884 -0.1377768976440511 -0.9438851317428960 0.02848261679226184 0.7283815036598695 0.1389819287418489 -0.1329959267280350 1.219743814713676 -0.4480686708088930 
-0.01406804011322037 0.9395724136933991 -1.085947045585558 0.3697041398441399 -1.112632800982438 -0.1368389820941755 -0.2604668081113528 3.149729770270237 -0.2580345473185918 0.2932442632509082 -0.2335043617510192 -0.8012849241568820 0.5843859196523220 -0.3279297333031601 0.4397513291204184 -0.8577188288931689 -0.6879617635218362 
-0.6797192661235684 -2.852571632398953 -0.2679039655158185 0.8084677362853635 -0.5553579748076514 0.09488350463820638 -0.04333798571581817 0.4494049020983078 0.4460208944940416 -0.2862171062787063 0.6782993861559246 0.4820020782044115 0.6223599942600319 -0.09917526507864266 0.6623445828287918 1.013423148045573 -0.4729230310914848 
-0.1230853893696000 0.1187324661119451 0.4784817760543854 0.8241009883652429 -0.9341487659065052 -0.7675561746335346 -0.1565322382640278 -1.085962672700013 1.081420127766713 -0.08805419456806743 -0.9387083749420602 0.3668588331862023 0.9853897173957757 0.3422698861174136 0.1268180467617728 -0.6147283915976859 0.3847043602220363 
0.03161016627060878 -1.642968992154215 0.6421559826130918 0.5119055031242172 0.9655753911432813 0.6063649554143165 -0.04637837742996991 -0.2376748921137681 -0.2263186239574070 -0.3203491556826478 -0.8712779622290656 0.04700397523816480 -0.1949240117290728 -0.1903919145088152 0.1772102600869576 0.1355681269151211 0.6128895689991919 
-0.1060449785716274 1.062050399288833 -1.047515633476122 0.2605781939137940 0.6041627328655006 0.2001078897357818 -0.3502400611855565 1.089319153127836 0.4246378525803364 0.2501155889279400 -1.195992250548136 -0.5345502361977298 -0.2650977475730500 -0.4623894167353607 0.2579731019262178 0.8188165663673926 -1.005931154446051 
-0.06705802241337866 -0.9863359761014941 0.6442665862002030 -0.3133605215022221 -0.2545362512234223 0.05283551822905337 -0.6123534276402064 1.329841103842335 -0.03481367548101002 -0.01116149039561034 -0.3753258317066465 0.6932195596975986 0.1576633950009325 0.01971240035270524 0.4617761653950194 -0.4405588590439964 -0.2638106732098493 
-0.3499784105489178 0.1385598664820252 0.9485764641760206 -0.4140438601278088 -1.647486973203359 -0.3502489824658556 -0.08581013358951495 0.4289488536614252 0.4377848032926605 -0.1298451936066070 -0.2142052288255111 -0.2833298519144167 1.131157590857070 0.4538394553349326 -0.07278940014840332 0.5271256879135786 -0.5182546872873344 
0.9363180987128709 0.09845404884111846 -0.09621304842740240 -0.1582204151620839 -1.271685416363100 -0.3638160213371849 -0.009412067541988853 1.124997714068469 -0.8353665318568957 0.1756671941859641 0.6290930556406504 0.6854325979229247 0.5687920376559826 -0.4594223565979421 -0.8277336900293039 0.7008644027518999 -0.8977496024639489 
-0.4767094161875584 -1.018170998688454 -0.1679451799194330 0.8953332510693359 -0.1562710642613447 0.6945928831915711 0.3271117531666290 -1.451484201210331 -0.02650380014509764 0.1946619480962270 0.4837574009621447 0.3675714626855918 0.8178405485171656 0.6745434464570715 -0.08057882537301637 -0.2701897137960584 -0.8075594945644413 
-0.3434028503395573 3.009850742697551 -0.008479939196040986 1.104459575499357 -1.225321017666262 -0.3572527022752681 0.4360888686733213 0.2660661424130000 0.01095686700559931 -0.3207741675682064 0.4712217130420854 -1.279266824899786 -0.5507876689518465 0.1482649625698506 -0.1064191668239613 -1.229352850130776 -0.02585168404902508 
-1.341193502158072 1.624557163251145 -0.3273335807741289 1.278338443187085 0.2476385477814288 0.4206528067435784 -0.4168956842662483 -0.2257223446111011 -0.3369039445249756 -0.4748183739054825 0.5660364061216027 -0.8637465249375268 0.008370347349756911 -0.4804201902935917 1.098108318043232 0.2138060201691811 -0.9904739071758873 
0.4844450181878689 -0.5532413745266512 -0.2794252023931651 0.2346817256980340 0.2202531119613010 0.3503582857390271 0.002824142435360842 -0.5979616772530433 -0.05406256950730699 0.5334035998006033 0.8023155029351944 0.2335662637438389 -0.9621373487985490 0.08821023340615447 -0.3827137467592133 -0.7481214716295030 0.6276055069600551 
0.2436513529826322 -1.796629399431121 -0.1860238787460006 -0.3762251406626810 0.7186078371687538 -0.7034836934894391 0.1296330210142064 1.402624870699252 0.1475561281716054 -0.2417040058293347 0.7871340602325377 -0.02056306982757967 0.003022753218799036 0.1419305080472985 -0.6300773987603625 0.6591182974232909 -0.2785722422118572 
0.4984519376575386 -0.03102150919798282 0.1197587811273274 1.037396533463053 -0.4615821753895356 0.2557300741749601 0.04697517575941191 0.3128409879260496 -0.04493838041008694 0.4468385283251563 -0.7433022737237500 0.4400739717739591 0.5542154033048212 -0.2036596721434009 -0.5787987196970334 -0.7530194318673342 -0.8959592310831548 
-0.8016890989588034 -0.02262486029650928 0.1673851907623023 0.4465302737164619 0.2997536852529739 1.100646640725548 0.3207432843454771 1.176470598234549 -0.2158488226871745 0.1500823494671328 0.05953925702360775 -0.3447991574972448 -0.5223123856401862 0.3438915129231998 -0.4263876627691397 -1.362226112456190 -0.3691546921459912 
-1.032045281046703 0.3082329388365196 -0.3556846431161452 0.1408900694617342 1.219077554197023 0.7574535965663772 0.09894437868904063 -0.4641597425502679 0.2890571484226598 0.7167182651366556 -0.8485461410049600 -0.4945194676503675 -0.2085658513598440 0.2456473015865862 0.7284271982977782 -0.6974298354088861 -0.4034974890572026 
0.4600145976671415 0.5797012279337125 0.2744030570980007 0.2731807363557245 -0.006732646562358825 -0.2845623678405713 0.1296080220110668 -2.288236505094883 0.3687560373089365 -0.4395871743192040 0.2786322207574169 0.2294604149364868 -0.7323894357316972 0.3290239889334440 0.2099807680692924 0.2297899599940926 0.3889570984833792 
-1.292796806155856 -0.1935125015801593 -0.3762607192283252 0.09855374260156705 -0.4277050010045275 -0.4503138379265751 -0.3804487548674303 1.774212103398069 -0.5142497645856308 -0.1234034312019064 0.4952498603657611 0.6418814507408129 0.1441799693158168 -0.1184827932007977 1.096076104635703 -0.5075740329091927 0.1345944116026478 
0.8198510563363240 -0.02698570788666909 1.153798441587460 0.002011612924068540 0.2207894841372994 -0.2588023425587722 0.6596148570530739 -1.060195257247914 0.3448190207535409 -0.08354148781912185 -0.08854268177339625 -0.4553550664717066 0.3853165782828698 -0.4050329423062556 0.1088460197668751 -0.9762260274300510 -0.3403655573476290 
0.1370120940685805 -1.563138975804615 1.056712310792928 0.4221303910532798 0.6222508903588490 -0.5707825259555753 0.3536760415000011 -1.391565950744514 0.1556444463476080 -0.03274013017229396 1.631789707211017 -0.8592932987208367 0.5069127915583035 0.1169479469463233 -0.01307672756181618 -0.07415341307903150 -0.4983255977982303 
-0.4625343918051399 -0.8696048830958326 0.3172162490644779 0.3503324366505868 -1.650578959055370 0.1494759810713363 -0.1064124925531834 0.4858279482117254 -0.3458145369003355 0.09766804783103172 -0.4388846938530291 0.8581593877461693 0.3757966335888764 0.2490374973900327 0.3401589985243686 1.402661271098977 -0.7525044939146985 
0.1569446423610386 0.3993365544888424 -0.2576064053835150 -1.619030889435118 0.5967604379210073 -0.2118274001083557 -0.1828482801045218 -0.6283321326977518 0.5213367275784440 0.1176186481650054 -0.05320415784952474 0.8750439494673854 1.024458813355326 0.1554398220045740 0.1605776548803338 -0.7224719960692690 -0.3321959885739124 
-0.02347077445170926 -0.2176389926849064 0.1390459748696225 0.7468092121927516 -0.1381946379766860 -0.4527985824546067 -0.3099096708438109 -1.127938147007308 -0.5019489415638994 0.08857136593826034 1.533814037135804 0.3055790354421883 -0.3303530774371383 -0.1920802544987450 0.9789408463409767 -0.5079645128516080 0.009537119850829626 
0.01800995162013488 -0.6212895113430683 0.7332333122348433 -1.005864342796631 -0.2149799189693198 0.2358212620528830 -0.2711999054363707 -2.830164237675116 0.4218082048417184 0.6274505542860919 0.8834090714901686 0.9158867066992873 -0.2905168862179125 -0.4006443022787788 1.288552519895288 -0.05157771333129235 0.5620652349280917 
-0.1081487209035997 -0.9343108960413433 1.337575473401438 0.8215038817525154 -0.6894534759251938 -0.3266854009013833 0.08986744469768418 -0.5930460991896128 0.04660365435650656 -0.1414846289782099 0.8256361133837920 0.6750935314450908 0.2181603337909753 -0.4186797381374823 -0.6264310748868789 -0.2696907112225049 0.09349031335818836 
-0.3392719834004240 1.474854704300745 0.4441872360686467 0.4350278504158663 -0.2661659894090525 -0.4393511609564437 -0.2799668084959519 1.080959512933602 -0.2695639393186687 -0.4179743813674128 -0.1831239031104188 -0.4480400622646110 -0.5289388804314690 -0.4017752684151559 0.4490049316343991 -0.3340828035407218 0.02422094535707809 
-1.009802372984317 -0.07100355465531272 -0.1461424628820073 0.4424827356534760 1.198214930710483 0.2158543027052118 0.06321758867484503 -1.924910568586726 -0.7100821178501977 0.1689944014059146 0.7684417831736133 0.8210560579674371 -0.2252567625628541 -0.2310571629829519 0.3209360443147645 -0.3508622146182164 0.6699193725168479 
0.3843880465868966 0.08914216429696635 -0.09602070964869866 -0.3372305040632409 -0.4109694652902068 -0.3673107937582274 -0.2948628130554371 0.06954229124659048 -0.2527337416764955 0.1367282951555713 0.4112441973702668 0.9019587664044476 0.4723310018657969 0.2699594308110938 0.1708431984961425 -1.035684284416629 -0.1113250803248299 
0.03242293508761505 0.1999118221674513 0.5520933105936295 -0.4309974575775993 0.8423996571326136 -1.082678270992348 0.06176604463072302 -0.4959287757519204 0.01819455203565067 -0.3812529208441591 1.164379797447024 0.1454849801557594 -0.2649832323756381 -0.3404051195141585 -0.1787786946069395 0.4879961394831411 -0.3296247670708314 
0.3113313122985097 2.249065341203567 0.2731738566875687 -1.350224112025318 2.368711182494464 0.1853668890137802 -0.1053689090676703 -1.472122960678246 -0.2042230328312153 -0.5134309914705975 -0.8801459083044788 -0.1670069709823157 0.5761094338281632 -0.3943662301716770 -0.1890681413687164 0.1726645384544923 -0.8604652970802719 
-0.5989790561251658 0.7823220216936158 0.09192153098202444 -1.098068491042581 1.110632727985642 0.2987198806089219 0.2099743058416075 1.613079814473221 -0.2339373908624111 -0.09025458003276439 -0.04782290104175140 -0.1909879647715250 -0.9486517194469403 -0.4674792828051692 -0.2443987162649942 -0.6264133092766813 0.4403431300849670 
-0.006168055614496647 -0.9580077156502508 -0.7079698542444660 -0.3964348807155565 -0.8997128135552738 -0.7515555637541896 0.2590584284973594 1.155201653994440 0.8454489293279075 -0.2332995874159359 1.048150779031551 0.2318401408716811 0.2840168336048641 -0.1878909554720478 0.1623729761229691 -0.7988179812192936 0.9537676661907156 
0.4399382508700034 -1.342904968302542 -0.5677751133648128 0.2258380729596002 -0.1555051034060572 0.3769404823246685 0.6681080519843741 1.376858027265357 -0.02634339603189400 -0.4125156229122152 0.2253874083430357 -0.7856146479411277 0.6410647545055391 -0.05343379715799022 -0.7120048086051214 0.4758584511421113 -0.3738960416729377 
0.9304939351076095 -1.721149558658164 -0.2769689544802144 -0.5117262711577046 0.5827688285725231 -0.2889527955636181 -0.05701576853185531 -1.052903411561774 -0.6939118748609686 -0.3877412821847161 1.723593828514089 0.5073697365431770 1.265464871504153 0.2881628731849297 0.04718360456445770 -0.5049382829847971 0.1502705219928566 
0.8497826580903131 -0.9358247721277511 -0.9925847461106470 0.3723203154875923 1.366964103488101 -0.2016970621059657 0.2476736032130611 -0.02161581084334822 0.06154036232983381 0.1829415861301477 0.1655189225651783 -0.03509057787118372 -0.5900114751978206 0.4119036678149488 -0.3002094895794918 -0.09328028616578102 -0.4883309991171794 
-1.133677263062581 -0.5249648786138632 1.261686667794031 -1.038275445539966 1.888443162112126 0.8521934190547454 0.07686441850632962 -1.729139062463539 0.08453994571198944 0.4715060239664939 -0.9134404186110058 0.4521440870789627 -0.4079003793317451 0.2066815936810761 0.05735889786873290 0.5549713626454297 -0.1589921307972001 
0.6992653394752786 0.1799175021124558 0.5743148160205407 -0.5498814929123673 -0.6200712615293540 -0.6981585655253191 -0.2553957743687124 0.09799473705613394 -0.9290715702996173 -0.04052303841426200 -1.337991509952117 0.8319571654934260 1.617388582345527 -0.04984874706363479 0.5385951656087705 -0.4389437857993442 0.3804524377525996 
0.3909991286296060 0.9018049482844974 -0.9267786517382559 0.5046560388203275 1.678951690246515 -0.1879336041663711 0.03740477454690910 -1.318413318373491 -0.2041141907295575 -0.2577030863486621 -0.3846071120355218 -0.07357337165493598 -0.3809321195044371 -0.2919222217943849 0.7456279293874123 0.2651473211293008 -0.4986141546989753 
0.5620301350217393 -1.917920753301801 0.4370081038058679 -1.773647805245550 0.1484062276155702 -0.1849467724632916 0.06254383053933942 1.270577016315125 0.8471853926154940 0.1788358056014210 -0.03759813049353469 0.08528347790646996 0.5113305156368667 -0.05294301923388925 0.5323957700628552 -0.6780774482110918 0.009537653828435784 
0.01718412069438018 -2.262052677055364 1.105615814191243 -0.1563254996224542 1.053590351203953 0.5781135959432395 0.3231454254083017 0.8704678240694352 0.01034970207227201 0.2365501145213234 -0.9727740295538003 -1.449294612251262 -0.3539785538346841 0.6345415127843378 0.3800051998477220 0.1595631091277993 -0.1747013975464510 
-0.7898859982391664 0.5359913223972455 -0.01390305834879351 -0.4338856768120692 1.058455071337228 -0.5366028187458171 0.3473769457830724 0.7220165582924601 -0.3649208314736352 -0.2100894947830270 -0.1225177853199576 0.2358308520219943 0.3190459063554068 0.4495436237139495 -0.2854727473519761 -0.4643412927417638 -0.4466405760851187 
-0.1705248430337083 0.9626878800372467 0.09145159417408812 -0.7838870700183130 -1.070369115643463 0.5404102778593666 0.1308671049488521 1.023372531941909 -0.06657663685504374 0.3089197990753592 -1.516438689214958 -0.1034494385215586 0.4471159243696884 0.2743579302813316 -0.004432971517905339 0.1339967180993570 -0.1975009959822480 
0.5069710956836366 -0.2936847740833576 1.050213912668568 0.7020065171772735 -1.229871014826260 0.2083076467168523 0.05514857852422902 -0.5096415963377919 -1.030176743471094 -0.3638438642442585 0.04111838754317021 0.008728462944954033 0.02259985398059269 0.07103753032540816 0.008639903544071717 1.102436552172275 -0.3499904483182753 
-0.06207300844079679 -1.184062041011057 0.2028180635724796 -1.042516381357517 -0.2634602955917888 0.4246459340706600 -0.1563930603846851 2.080170970242695 -0.3562698262008409 0.01912996581635727 0.2973323748811947 0.1691764518783729 0.6312469430945037 -0.1217776988539662 0.0001110143231665096 0.1478057980046337 -0.7858852040434156 
0.5081861848601418 -0.8264098324382692 -0.8920860930519398 -0.2097292548239022 0.8835089749466905 -0.8152288515592792 0.1737221421100435 1.615721754412961 0.6844563847331880 0.09554692094088901 -0.2015420689573509 0.2356494032189229 0.7620631005271603 0.1924229531437467 -0.8176915767757882 -0.3095330702719341 -1.079057071015281 
-0.0004903328771538175 0.5007420696862830 0.1005489659400055 -1.424508018402414 0.5714505908872403 0.1380188280284555 0.01297099913858303 -0.5118329986809959 -0.07578764389401658 0.01656925298420611 1.475052951920346 0.5909095063793490 -0.1081786117082597 0.08706754439220141 -0.7294601630889282 -0.4634112010491541 -0.1796617396557224 
0.02032944396404150 0.6417643999365487 -0.3715331740092181 0.4877057096136602 -0.4837112984970277 -0.3588320025964183 0.3158662798665591 -0.1495384256812760 -0.7276746455799240 -0.04749994887634181 -0.2934743331190580 -0.7520284966876737 0.8340033946740087 0.2288671560766638 0.4923946411092959 0.3838665441467131 -0.2205052443405534 
1.250023486562749 -1.840830337252881 0.6069314311603584 -0.7907239926212640 1.256944976567869 0.1432021416249981 0.4267051960614076 0.1401846441245573 0.4144405784839953 -0.1133134534236388 -0.7960462935974306 0.1772223738225690 0.1472470449984106 -0.1802653567833526 -0.2714764422808328 -0.1632771793295188 -0.4069688181179912 
0.5649506275188338 0.4993007052367870 1.499073841389685 0.2693229706267089 -1.173934493328560 -0.1342918616038663 0.2453135070909492 -1.019058712831035 -0.09253141718458814 0.1747613739301664 0.4723275171575918 -1.210388116358951 -0.2240309440684268 0.2600354044614549 -0.3855683986526416 -0.2938449217743100 0.5485629183901777 
-0.9177799819494405 1.105676685062653 -0.7241668039464513 0.6509530979060987 -0.9262659304005081 -0.4478427496468758 -0.05938895108453673 -0.1781059937633349 -0.03817739737161679 -0.09221096662428341 0.8266267875435006 -1.405414295024738 0.9957176786271441 0.1787725015709912 0.1407050278534873 1.609222052996851 -0.7183207617489470 
-0.7030185113962812 1.238552353787723 -0.5332917568228994 -0.2285709409788378 0.7340423772524145 -0.1555166733513419 -0.1296450708346502 0.06113948227744400 0.1140053244738547 0.4629749347759549 -0.2202370196297560 -0.9346204892860419 0.1000021061518401 -0.4688899887256364 -0.1744852275632069 0.2118849536589652 0.6256741462104621 
-1.205503169424434 0.7167777175216373 -1.093147104742425 0.3219858385134977 0.5432404568281269 -0.5693913253755022 0.09795310410211999 0.06088303419648061 -0.6059201713557651 -0.3095268180148200 1.018606749001936 -0.1873920543590267 -0.3703486530223727 0.05447791285722736 0.5170324437489187 0.5182314332301473 0.4920406062942593 
1.259009483057483 -0.8715522464389210 0.2092612744100989 -1.820643036030860 0.7225401125638119 -0.4354866944353575 0.03031500463822007 -0.5224271480630942 0.2091201134130326 0.3270611502690028 0.4846306786482031 -0.1342253508503757 -0.4794327138295935 0.1146388410733411 -0.1729765507125720 0.6180517047411419 0.4621153775464362 
0.2392906200204380 -0.8777300984750995 1.526793223005715 -0.6513749189218394 -2.450438032454346 0.4000694448736772 -0.05065691734544463 2.065719845218716 0.2080953507128304 0.09889030108303423 -0.4829641230744879 0.1729944436525449 -0.5990120270627387 -0.01774314144869493 0.3735908383520651 -0.9654198775231372 1.009895069386797 
-2.156598807730345 -0.1794514423903537 0.1596311556251498 0.2666950173939937 -1.321887940230049 0.1535130280348173 -0.2977323332114394 1.171864453980764 -0.5458774742601460 -0.1544482891371417 0.9278882961114495 0.1668382258041690 0.5274577612711393 0.3892282470759813 1.228811033829042 -0.6558157391292091 0.3198848069621836 
-0.2311538878754906 -0.08684305937539213 -0.2733075758707882 0.2252910315098637 -1.216222935810567 -0.7266280165410216 0.1665964858184515 0.6116573457036434 0.1299266538405658 0.5096472019886823 0.6141119097814078 -0.9476284479215972 0.4608216192345164 0.2153998147721057 -0.1445440694389111 0.4628563406078801 0.2300195895766556 
-0.5099586187531093 -0.8079837955572672 1.423352785510888 1.612455890485329 1.714986395159650 -0.5012521657667165 -0.1133422023614250 -0.3796029304543450 -0.6310076778754492 -0.2148837435531078 0.5465485097438061 -0.3296955564191241 -0.8874726496835641 -0.05876216056636734 -0.1191262037652407 -0.2593978648605809 -0.4848580112833987 
-0.09163236688900972 -1.365090734606180 -0.2734394049447369 1.724566747136818 0.2181695765427510 0.4301022747722922 -0.1628710646654361 -1.691908705752003 0.2357329490829114 0.1258929556138130 0.4090067489219210 0.006923936113920521 -0.1634639964955813 0.2898692284272807 0.5204088059951613 -0.1912517791803688 -0.02101517007353503 
0.09800103524638908 -1.467620659582022 0.4037295936878261 -0.1678950506502939 0.02415255221521467 -1.092811187674194 0.6409683375195763 1.333603393760135 -0.2599123844873584 0.2811792239831052 0.7551512386061069 -0.03255890518285579 -0.2641151726693957 0.1576452556307546 -0.8235457310297464 0.01920435686890973 0.3948241037578606 
1.228174158009389 0.03159262511391696 0.02381272749756674 -0.6637556617049867 0.7037618630570113 -0.3271180894176554 -0.4340806921863094 -0.1542440561984145 -0.03496854985687183 0.4532013123048731 -0.009436414142925903 -0.02858158296540220 -0.5983267836764831 -0.2209964000234616 0.2661037050613652 0.1796340204955517 -0.4147721813671600 
0.2892962891958528 -0.9372725198197089 0.8188085154307422 -1.285875120033209 -0.8753751761746214 0.3161747354143571 -0.02393570982162325 0.9545614744448925 0.4809635608357993 0.04019158066855736 -0.8542328847860132 0.1896240193815969 0.5360486005308617 0.2445582221591836 -0.5363172277983469 0.1201400324540369 0.5226416079176407 
-1.059773061975316 0.1643568890541420 -1.388378326804258 -0.4655618849541507 -0.6326089083364138 0.8757883742609258 0.3395265790883493 -0.003017853393379221 0.2906307005122054 -0.5945969518604258 0.003310608491589561 0.7489524192229131 0.09890902449833766 0.3102808108223676 0.6002414603113174 0.8759437985935666 -0.1640036775317832 
-0.6456368013612203 -0.9475423244241419 -1.064685707283411 0.2730902647780119 0.2688727953921155 -0.01596368856299957 -0.4408032953072132 1.750571676249704 0.5575471204159924 -0.6136436745563988 0.7112370874815246 0.3361259895200410 -0.4084857202456912 -0.1881849847437694 0.3523076851377172 -0.05746922370538356 0.1326628012151307 
-0.1217273616407441 0.5102626011761765 0.6193603958088400 0.2309750803635402 -1.581658542522009 0.1983435408616394 0.5401610152089049 0.6901206347410307 0.04914133259913320 -0.01163149564890234 0.6191502670575476 0.1601857768663898 -0.9063302729281831 -0.1739745406259277 0.06027118751980738 -0.9031873638281122 0.02053774499085832 
-0.3192911174248784 -0.5787338499657423 -0.6482667720646008 0.4981664431748290 0.9157458590477259 1.018921071926777 -0.1884381523947020 -1.373224305998681 0.3660957939245352 0.2765324367876284 -0.1774468921784235 -0.4246673012366284 -0.01848422874295695 0.1544506055466599 0.2323502759842460 -0.7303968483952911 0.9966869820095031 
-0.9216024807289018 -0.8439301817725936 0.4812393635448508 -0.06788893694931990 0.09844982365930154 -0.3694577561179418 0.4901556002070775 -0.7992149709709592 0.1585078424210259 -0.2461810839465832 1.180239248578148 -0.3038475075650471 -0.2960119155989447 0.4966787221693232 0.3920943796931011 -0.2945793643719216 0.8453492177493919 
-0.6121715128634874 -0.7678813679896230 0.6672171982890323 0.6003848720157142 0.7950245463305339 -0.2920156362051919 -0.1113644540401062 -1.484090574220348 0.6660208338258646 0.2993237661573047 -0.1989296206150757 -0.4060806559711345 0.04073036420393904 0.2403215090727725 -0.5345177494406841 1.150949538300719 -0.05292105685021390 
0.5393746080860672 -0.3611286190436087 -0.07151095426464725 0.07568188823737691 -1.058012306952402 -0.1697316336283269 0.03592901969982933 -0.003920195288167929 -0.7971912765842003 -0.1689570329682488 -0.5724722238792221 0.6662816758669836 0.2177319292852560 0.07810300827154512 0.2116247175444990 -0.06385055431750158 1.442047949934765 
0.7879689516014907 -0.2940396142211059 -0.2922791743917407 -0.1488112658756557 0.1814598222844759 0.4660756812872252 0.3715453576690980 -0.02087553987632743 0.1180820163562320 -0.1488562653787913 -0.4721346721608990 -0.7695617961469317 1.606973128932651 -0.09962827752211004 -1.114189920582672 0.4691507748739527 -0.6408792068489063 
1.081910795782718 -1.025764770484657 0.3974395935317583 -0.6338998649411552 -0.1666182478339617 1.039658399891142 -0.4797446415811018 0.6905781645385508 -0.5858307829271308 0.6630239577485263 -0.7311877805316744 -0.2331440827568701 0.4498738536922324 -0.2033688863945331 -0.004896572092455157 0.6046403782448750 -0.8626695138862569 
0.06102473970208401 -0.6614917244865076 1.017435054339221 0.7548322348074519 -0.5922779949335742 -0.1457201004081264 -0.3703478434824521 -0.6184142035150646 0.3218956531509497 0.1140379484879352 0.1109619114943185 -0.1991120956778311 -0.07365304087450308 0.3762366819806515 -0.7993637290952134 0.1985701615842260 0.5053863469264197 
0.9892659384222316 -0.2332709243819404 0.4407365934545739 -0.08121635204254053 -0.08944423264167442 -0.2048587140169960 -0.7901615939048886 0.8250731866110048 0.3499481340465446 0.5563456167196157 -1.160324058895424 -0.1869664184785967 0.3842216378171156 -0.07770294736544643 0.01795826171489531 -0.4733363537060144 -0.2662677733524420 
0.6738040347966047 0.6671615783361360 1.161546905307324 0.5772689588977736 0.009286470893296683 0.4477660965358364 0.1307183819308423 -0.5033355512870993 0.4744595676343810 0.07611460708873188 -1.883406111709854 -0.3356222135083509 -0.06598080610560264 -0.1829200525095294 -0.4927648896305872 0.3652682141474415 -1.119365190817322 
-1.266853021767191 -2.439560325783733 0.3035558980346267 0.3301423723015642 1.981365989591420 -1.250227287912071 -0.2940901933391848 1.361671448326681 0.09293623213128402 -0.3558366821055082 0.3436281253505719 0.7575579140075451 0.1034797223006574 0.2517674766400361 -0.4475816442689228 -0.6638544982499993 1.191898474742169 
-0.1557811625558974 0.7146282654277584 0.5715979532327845 0.6893310990251271 -1.616958611506443 0.07213811408930228 0.3645997373562662 -2.191703793867767 -0.3469037320549412 -0.1145591806097890 -0.05053831990343290 0.8878219497316031 0.7249604238800353 -0.03265444461213959 -0.2785950774021161 0.4578688001659809 0.3047479796037015 
0.5582653175558641 1.450178072769726 -0.4673156903755961 -0.3280825209396201 0.9772987042332962 0.2391815966849394 0.6043071178448619 -0.2680941092596244 0.4174126458661528 -0.6834901853680687 -0.8346727921660814 0.1416851482391359 -0.6602166570242458 -0.05700596700209774 -0.1675464568962240 -0.7011540887834804 -0.2207501353789480 
0.4922094710219994 1.188390369255443 0.4570345842292114 -0.6549209719544685 -0.4303884058942075 0.4755188389824939 0.2359197647933293 -0.8998761144094988 -0.5524027714054152 0.04517421545965114 0.2850480651239024 0.2263862233991441 0.1467872169635256 -0.02873627894110336 0.04228750620601737 -0.09546444291047208 -0.9329672699195501 
0.7049611957317885 -0.9900596820930538 -1.111705096107794 -0.7741670118982682 2.112780182551746 0.4807468854655361 -0.1036103539112574 -1.665094810163994 0.7061487674769851 0.1762727582930752 0.8521547028479075 -1.128238632599551 -0.7230013083316509 -0.002921950623620011 1.178359193338912 0.5238630686421194 -0.2364879086188823 
0.2742998023314364 -1.841007032794747 0.3919364203941856 1.750275164607838 0.3780400556197042 0.2209943507060918 -0.05564152217714116 0.1025908040585176 -0.04450721524177526 0.08105760541438556 0.1030617956727443 -1.486346497549735 -0.07374658826361940 -8.225957998150613e-06 0.08499522753686453 -0.2651111125723693 0.3791169682155994 
0.1136005917992802 -0.1293557514341063 0.9488392516068026 0.1583936373711719 -1.199863882699114 0.06054172755096841 0.4135762487978384 -1.030500202968454 0.6037922534083462 -0.5411957807704905 -0.3625107412470091 0.2555425784255189 0.5603655144997641 -0.1456523905672091 0.2705905677509666 -0.3334059123495327 0.3572422908252484 
0.8660861317296203 1.209589488165708 0.2705006991715294 -0.08664740588484439 -2.246265093437301 0.1186752528883378 0.07776057657531522 0.8133914307511177 0.2753136754640181 0.1252908322715986 -0.6022145220396469 0.1833393969353852 -1.077809196495091 -0.007087072578815096 -0.4152840895403002 0.08836558497601500 0.4069943110473397 
1.873483015882318 -3.099270311832735 0.3932429560787138 -0.2549918934162741 -0.9253170703550464 -0.1423577794426841 0.6707755023567052 1.260737275576981 0.3410481763138969 -0.3489688269437832 -0.4276500889970322 0.1466250854132945 0.5807614283055047 0.06080813136373087 0.001237465597926052 -0.2552221477100968 0.1250590818085758 
-0.3597931923100126 -1.060971845168214 0.1272893967433381 -0.2062008366985940 0.8742033417085582 -0.6495203628017187 0.2254973779393380 0.1943047733964093 0.2332989980418780 0.3259164283539871 0.06873025321053032 0.2177479138131850 -0.2136196770087197 0.7323974403209478 -0.7097195461704036 0.5522613022174016 -0.3518217655879252 
0.2495737870672249 -0.2866985662994884 -0.3965583628472307 0.4673197888538954 0.3130721596271205 -0.8235981186686182 -0.09375223297767483 -0.4758505247031756 -0.1560889494409569 0.1319703361329373 0.4971247658917419 -0.3627536841132941 -0.3982975276936719 0.04121604606897410 0.4718819673715729 0.9199145382962174 -0.09847542256557378 
0.1557069703273827 -1.437362126822641 0.1210271817805345 0.9892598159634272 1.635809541332352 -0.3607229472709859 -0.2476112372697943 -1.709543299516480 0.3229409233257762 0.008504310413341891 -0.1237096367079386 0.3022794908374439 0.5037265258108653 -0.3004134795320299 -0.5061089439548891 0.2795338351885018 0.3666830760951671 
0.6495905110644592 1.310158715098560 0.6750421552120884 -1.504021552871021 -1.754017843985517 1.017191875817207 -0.2028121893705650 -0.3707761484979479 -0.2613891345747276 0.5132995202385269 -0.2074272420631828 0.07289178530688264 0.5397190977788583 0.03079190191245409 0.4600507869266604 -0.5597232014042786 -0.4085690365884539 
-0.1632288380996234 -0.7552732377188090 -0.07315025945501190 0.1979035840187334 -0.5035346488508832 -1.087553706503770 0.02429739974633231 0.07803926967426039 0.4003754204935040 -0.2175230003255735 1.328894308937756 0.03764806271331573 -0.1969214520211591 0.2013800400225434 -0.09835308090755318 0.1534553820027997 0.6735447562731349 
0.7246299846109415 0.7417150256207786 0.5017531101809516 0.2126537633636838 -1.602847210251971 0.3364046288974534 -0.2969818605227621 0.5074727673780008 -0.4451166181137776 0.4879109846036721 -0.8167715741310408 -0.4527644910572822 -0.1045311536712781 0.009832220305738569 -0.05786389739488260 -0.3512065414239221 0.6057108616057040 
0.8209889600860609 2.015935317062052 0.7623982129173769 -0.6414917438162370 0.3594029043148175 -0.1871591191037815 -0.05857527517450473 -0.5749771523479559 -0.07409704647887799 -0.2186324169199040 -0.4645942826199972 -0.4484948461638361 -0.2925365292711057 0.1637638448189018 -0.8850361247564436 -0.5380215572794880 0.2611268547329387 
0.1706492606711157 0.9481998435752514 0.3693978911211043 -1.353794624772169 1.210181219288255 -1.092113990376867 -0.3719213999095043 -1.109366865504292 0.4024317901778396 -0.3241525476874230 -0.6012670127125478 0.5734653016777403 -0.3831882106076141 -0.3483902209615260 0.6429504353122147 0.4742899345800182 0.7926291961284027 
-0.6304490147258146 0.04933933561315670 0.8108742326410585 0.4999589198156283 -0.6209243789554051 0.6615306106124479 -0.06477271715081301 -0.2006451701261857 0.1492218662370755 -0.2049730173143197 -0.7820466936687177 -0.4180836617673449 0.4814876457894913 -0.2726654398908245 -0.3247470999065849 0.3945842287279188 0.4723103540692389 
-1.063672035726653 -0.4340494246138540 -0.9302452720925848 -0.1719290341579445 0.5812119422061207 -0.8196316600387634 0.04276610099540928 -0.5314765883591910 -0.3339515867722052 0.3375625522809417 0.7825206317378637 0.03848001112961434 0.4815350026827542 0.2433012728650389 0.5248886842732581 0.5285861805484627 0.7241032230417376 
0.6152608597565343 0.7147752319794337 -0.1682202423335733 1.049109182764542 1.070016292292580 -0.4905677318493085 0.03566035155623926 -0.7550245140946755 0.1693020880297645 -0.02546815953604999 -0.2663689032727828 -1.211939304436315 0.9556226990356903 0.2027969630885694 0.03096308661107262 -0.8848253011278996 -1.041092598463853 
-0.1098601133814562 -0.5187596351834680 -1.388861395057640 -0.2205365662578349 2.435165202976255 0.3619534817353092 -0.1767972510524544 1.147103184317353 0.003895556870211131 -0.2498646288437016 -1.325837232005815 0.6954046605699346 -0.7767490253529993 -0.05600677384760992 -0.2368384361195932 0.5664566138811356 -0.1498676432476489 
1.037533545936558 -1.468423719374285 -1.253470869805332 -0.2798443703129210 -1.133357828823136 0.9265012192566924 0.2573825896097552 0.2924678290848727 0.6835808638051877 -0.1091135665989012 0.1472774611190403 -0.07849120754246995 -0.7642460020368468 0.2529397244885027 -0.01329117598413374 1.050865563981277 0.4516899431961118 
-0.02759069905455596 -0.1778886051929884 -0.3867779039885038 -0.3564158748453546 -0.7388251257362406 -0.5535583046207455 -0.3625750996391716 1.956912119610039 -0.1300086156876708 0.3876482628663872 -0.4573125709289272 0.1196549287894661 -0.1319239470187949 -0.04330278417004865 0.7289430773234866 0.8106904489311899 -0.6376693066375516 
-0.6971115378067271 -0.4536175695140726 0.6524585373617563 -0.3876141098095170 -1.449236715360468 0.5082880785122958 0.09157687298388423 -1.416496806351809 0.4922454929357391 0.1211772349164750 0.08891998253056602 0.07685289643163630 1.000639588804869 0.2001316228351409 0.04072628628568147 1.301275840834762 -0.1702156955902171 
-0.2975483494953408 1.150057786217499 0.3835955594248134 0.3156674663251681 0.4381015497903648 -1.305702387593027 0.3619970045525631 1.235129799703637 0.1868801899484243 0.1300019458501001 -0.4849761986439882 0.3593543618491535 -0.9690799918053377 0.1188983165337381 -0.3779012957464972 -0.2436141457882496 -1.000861611123006 
0.2465863980682552 -0.1358120499533592 1.300992492437632 0.7283913972030025 0.6272188234449935 -0.2857846643735351 -0.3536003845761978 -0.2999965956421424 0.6651798393435449 -0.08409960410276976 -0.4332335025598066 0.5863136839122335 -1.698254618146140 -0.01485631639418100 0.8238943473473176 -0.6883655080057918 -0.9845737380030685 
0.5448299335565686 0.8428998910313651 0.9226133519123195 -0.4458501355803086 -1.421762826281088 -0.5198868168767674 -0.1057934153470306 0.8755773615960428 -0.8121925795854323 -0.3036670354237578 -1.430867074848241 -0.3232818442678431 -1.220929413502370 -0.1999993116830134 1.182834063392496 0.7156839958688522 1.699791856038180 
-0.5619043987351703 -2.360452587668434 0.5915747456839362 -1.118574405180150 2.260483010922374 -1.003990420465262 0.1594409160262938 0.8222959824910578 -1.142598304711135 -0.3676411243046989 2.537897927294110 0.1457178137343418 0.1157591011065908 0.03562056526359408 0.01307937947686555 -0.2186735095684106 0.09196530863411620 
-1.203362063364241 -0.1946911945116804 0.6402968887470160 -1.100848951378931 -0.1104693526986693 -0.8427895367052056 0.2934509970909437 0.6270634705185194 0.3314851702630223 -0.2419671773972162 0.01891014678754510 0.1475262024306557 0.9347129123893513 0.3880048336979026 0.8034858132616479 -0.6844552185612363 0.1936470594305776 
-0.3037935826768943 -1.057620521700554 0.3778194996945529 -0.6745351843865486 -0.4409033232194840 0.8664482929974785 -0.2496172620515576 1.602533578457438 0.3318536457910916 0.2701627602838528 0.4953046160701548 0.09766694381459186 -0.6033531723279288 0.1780929388934468 -0.4481990106934516 0.1370667096076542 -0.5789269285538585 
0.8466645567166580 -2.956782645245923 -0.3181210515083569 -0.08730166535826878 2.617887943011661 0.09082431608532474 0.2642476418099911 -0.9556200030016228 -0.1575386648165530 -0.1302930840683203 -0.3181609339572036 1.540630055948108 0.1066230160334118 -0.4208282793773686 -0.1412457078243294 -0.5983901031129270 0.6174046086657323 
0.6609651140600831 0.2578499163866970 -0.1291334336069463 0.3239396911992148 1.945183464699199 -0.3943173131183097 -0.3669699115079244 -1.798013867290132 -0.04253970216223165 -0.1573398862151409 -1.277445721287375 -0.5187057172022895 0.2663437887306037 -0.3474144888554562 -0.3098706201686685 0.8161921328479788 1.071276553490691 
1.433100492694003 -0.02933059992153050 -0.3029038569543431 -1.211341577885605 0.6692566792245305 0.4971534078996279 -0.01919472346830300 -2.539062069871403 0.02920806200663561 0.5499605940027018 0.01744645399485539 -0.3299876051299511 1.497491278468382 -0.4295284999122294 0.7435494955519071 0.1851027047676193 -0.7609202354668819 
-0.8382455342616693 0.3858258785145225 -0.04448643523596618 0.5884312444774457 0.1412715342908252 0.1005244214260139 -0.005494783583113058 -0.2850789132983765 -0.4466951410900348 -0.4035757123575565 -0.3808699708268762 0.5337329454967510 0.7344982665526321 -0.06740789421736366 0.3922528500106733 -0.2227336772849216 -0.1819490786129847 
0.4119293039096735 -0.5552821963440895 1.154831328266349 0.4704770739556783 -0.2887449264940993 -0.5334442652165684 0.07583824630789199 -0.7347365138760272 -0.5147891199601107 0.1258914092330066 0.1637381971022102 0.7946606710683050 -0.7522016558520864 -0.3422385396380149 0.5575762227612903 -0.5676038560219630 0.5340986207985549 
0.5859986697131749 0.6801372329530952 -0.1920067213962099 0.2806030813436118 0.4680055497563621 0.9339826437757104 0.4473953849441950 0.4564083478015561 -0.3643757661134739 0.2255030318115589 -2.937984516672604 -0.3052438754796799 -1.355603616490494 -0.1743762737861278 0.1821099592324227 0.7241498914643993 0.3452969771425154 
1.123709341081141 1.727788032221194 -2.555739629395875 -0.1819708312645464 -0.4279463588969234 0.4417127557734677 -0.3246134614035008 0.08484442315258002 0.3898409968320524 0.3722664017300082 -0.7325709032289786 -0.3400500053332745 0.8089981979017200 0.1754734248048732 0.4545913178125540 -1.084248216410191 0.06791451462370585 
0.3004943078411100 -0.2143719678193975 -0.02038359486274111 -1.217252524311883 0.5555490228462747 -0.2921757850264349 0.02253012591000391 0.6526023350652284 0.4582025586563794 -0.03159759824017883 0.6843530036441153 -0.1787307112177827 0.6180051431218592 -0.2733632989177590 -0.5644309928073242 0.1043140768576650 -0.6037441007391248 
-0.4032769935217703 -0.1334565667748522 -1.536652073719805 0.7058006941461734 -1.201200193328801 0.3146990094258796 0.2383846766061352 1.420370815877075 1.417064091676811 -0.1917729605086322 -0.2683576466542664 0.06875665887709895 0.6736619137862657 -0.6207741813374852 -0.1834888245429196 0.2001796002803456 -0.4999380202872499 
0.6915552670414475 -0.1586904477272820 0.001180825200791129 -0.6744569867781631 0.2425679911083791 0.009612764018572662 -0.5591882300779545 -0.003744869527143644 0.05646222729235223 0.07491647433226260 0.02331297291474969 0.2302312481058091 -0.1100388192872947 0.09104696219117800 -0.2733818497348156 0.3849562590170648 -0.02634178808994518 
-0.3625113167405070 -0.5090424862212866 -1.833515717859795 -0.2607673707318741 1.125023521265197 0.2085625560642325 0.003267104575363524 -0.2881000466106231 -0.1057225415827731 0.2368695173349765 0.9891290314744430 0.1760893590311972 0.03116368304902990 0.4929400758629067 0.1664482871810340 0.1934599078404603 -0.2632935639319892 
0.1477819219837952 0.03940445896784463 -0.6381705212379722 -1.246542037481300 1.247374911408206 -0.8596583472175062 -0.3733475215150014 -0.1623635670095444 0.3263282645713325 0.4573618736598925 -1.351776280109945 0.5848971235163681 -0.06738640345600348 0.02445893387565659 1.080948916970098 -0.07382281374826435 0.8645110868223527 
-0.2470647031334608 2.308041928160453 -0.7569756504740671 -0.1750132189432416 -0.3414580331934892 0.02180660013889181 0.4054612265061854 0.03081302034723194 0.7218617865944477 -0.05358299315818495 -0.6016790797779983 -0.7051635571451867 -0.6173856949010246 0.01045961921369315 -0.8290742768457526 -0.3024608705255168 1.131413897137032 
1.694069217798069 -0.8099416495639964 -0.1835031825915842 -0.2790240505866021 1.910256680070633 -0.6300861884470574 -0.3078771020396269 -1.922087361186043 -0.7384277740774832 0.1088888284729956 0.3177032440006244 0.1045614843721243 0.1853156556000830 -0.03529116139423234 0.5130271440089793 0.3959328938010852 -0.3235166782379922 
-0.8517527344176200 1.546969673096164 0.3496429946896620 -0.3164538935285711 -1.232183364147597 0.4173407009582563 0.04795246246602416 0.9018336734877719 -0.4440734528583405 -0.6741125910521105 -1.190004615527876 0.1619887403018804 0.6651909476242368 -0.03145013444741949 0.4736643225777312 0.6144615208836243 -0.4390142501057900 
-0.1982621483638657 1.297517760158711 0.06447001473585856 0.1824679025810829 -1.074444926898515 -1.066355033600949 -0.1833757213862363 1.141743094784935 0.6378089136919122 -0.2916834652556186 -1.077373371384930 -0.2475514795335443 0.9721950440480459 0.3697541210036716 0.3624480621079452 -0.8161805050462996 -0.07317826164221253 
-0.7776653301152219 -1.050375656687640 0.05170347476348459 -1.212141216180266 1.302053826194696 0.3470047050422475 -0.2774150443400394 0.5434353209323115 0.4648035687760152 0.05077344650266807 -0.4921379305253324 0.6050139674069829 0.8786445696776414 0.1541716504387785 -0.6284468122732573 -0.1204108340074292 0.1609882943943266 
-0.1052387740362699 0.7207424708545661 1.457591108027110 -0.3086803633361481 -1.037785525303294 -0.4216191129036025 -0.1211716271728501 -0.7542129473647348 0.06801724165425553 -0.2978926819665751 -0.09489630962148733 -0.03063494767539059 0.5756905921481379 0.08868195025961760 0.4225015144269394 0.2419402484401186 -0.4030328364303728 
-0.4658675166797768 -0.6376040312408172 -0.6529156986109610 -0.1452633525019974 1.755133230929133 0.5428483094586464 0.2236971506560462 1.025569326092573 1.198801670261855 -0.3988034417097666 -0.6273235109711701 -0.3797342132030848 -1.358207285683713 0.2155097535498021 -0.05310960456653020 -0.3552275818517811 0.1124967960715655 
-0.9050213033769585 0.5824459213089573 -1.895372301505984 2.117027722130485 -1.262963021022165 0.6778982055411423 0.2492128638894649 0.08447557143010656 -0.1686604107619109 -0.6563576167104743 0.9859163383115074 0.4250575813614692 0.5779303059278146 0.1778122066345852 -1.107504128397473 -0.2910406119508806 0.4091426771902987 
-0.2309542787842139 0.7373090826459558 1.701809557144160 -0.9103806113029180 -0.8427751177801137 -0.3053388450409697 0.05390378407226937 -1.002419252367607 0.1463776457262167 0.06852014526523845 -1.016145159020714 -0.3563932575608667 0.6150575998572692 0.5269438995376278 -0.3832653791376269 0.4302777907595351 0.7674723959867543 
-0.7400738251773712 -1.367783437014784 -0.6117840925757753 0.8726583868171899 -0.6877028991733687 0.8463088617127744 0.3384570294317922 1.043360428761413 0.7192586107061562 -0.1507300658362724 -1.151395847539128 -0.2767522650532514 -1.367209068909025 0.1878174579683652 1.054374092591957 -0.02408587031008280 1.315282503599439 
-0.5511374744734414 -1.720169399449999 0.1419584270322006 -0.05751622906486861 -1.574062916851541 -0.1505030584243036 -0.001428340571096711 1.367609428481852 0.4184478169996899 0.1517996304032273 0.2800991476122899 -0.09709955932617980 0.5027962644360583 -0.1748920886333011 0.2382931357988103 0.6391622340356262 0.5866429819949753 
-1.632582752042908 -1.073475539335795 0.4022702594640354 0.7052086750884493 0.8807416515017454 -0.04484955062918308 0.2277829184428268 0.4233368850957131 -0.6111086888236034 -0.2422751175260907 0.1388057015321486 -0.1747455222357984 0.3622107373426253 -0.04853358792036599 0.2034292769980437 -0.5478100052761281 1.031594658324287 
-0.6916438329891582 -2.189746975827732 -0.3337737092632320 -0.6112413573852589 -0.3522628604625137 0.3247750850500168 0.3174991858533479 1.502159299163653 0.1264948338339858 -0.08365868863425473 0.3460615034266813 1.363294391136638 0.2655171681500474 -0.05419390234007146 1.042789420257432 -0.2851905598630445 -0.6868790001065412 
-0.9823417612297214 -0.7373063453322625 -0.9454003056518812 0.4078785825179668 0.9917732617625663 -0.2613564986388489 -0.1511448889081230 0.9357387570068646 0.4503161394187148 0.1531331358206750 0.02734114070718700 -0.01740223208536932 -0.5560961137773788 -0.2272710052623610 0.6016928277850411 -0.2688606984800705 0.5793060043469952 
-0.9227855346117028 -2.065884833933577 1.367765015329199 -0.4155351083686710 0.8966884108178584 -0.06016041643814699 0.1258911027636845 -0.5685657821819454 0.2492145385780142 0.1876521973013171 0.5960181518978105 1.023657476750760 -0.6002774260005052 0.1180353073745878 0.4154039688706012 -0.2872553172489192 -0.05986175090036737 
-0.2756339886337682 -2.108563077555299 0.2650763354600207 0.2761500830467616 0.3509837972518510 -0.2065487601958375 0.7477398665279670 -1.182223539061551 0.1988998190081359 -0.3654292216333353 0.3371754654966905 0.9912416963573200 0.5849460364892796 0.02002949180980512 -0.002161886055366764 -0.1936890048377261 0.5620068865250563 
